%YAML:1.0
---
opencv_ml_svm:
   format: 3
   svmType: C_SVC
   kernel:
      type: RBF
      gamma: 5.0000000000000003e-02
   C: 5.0000000000000003e-02
   term_criteria: { epsilon:1.1920928955078125e-07, iterations:1000 }
   var_count: 128
   class_count: 9
   class_labels: !!opencv-matrix
      rows: 9
      cols: 1
      dt: i
      data: [ 1, 2, 3, 4, 5, 6, 7, 8, 9 ]
   sv_total: 783
   support_vectors:
      - [ 5.32992333e-02, 9.99123514e-01, 1.63936720e-03, 9.00202940e-06,
          2.36963551e-05, 1.88958289e-08, 1., 6.12463415e-01,
          9.85066533e-01, 9.99860883e-01, 8.91959917e-06, 9.99999762e-01,
          1., 1.07464027e-14, 4.27539111e-04, 3.46450624e-09,
          7.91311258e-14, 2.36797192e-07, 3.81367604e-09, 1.11229324e-11,
          2.29338475e-11, 9.99990821e-01, 2.71714111e-06, 2.26156802e-15,
          1., 9.99523401e-01, 9.99999881e-01, 5.10038674e-01,
          9.84264851e-01, 9.99998450e-01, 9.99999881e-01, 2.22295404e-10,
          9.39782619e-01, 3.29111316e-07, 7.68874676e-15, 9.59070046e-10,
          1., 1.74428897e-05, 4.17571712e-13, 1., 1.01874602e-05,
          9.74280775e-01, 9.99999404e-01, 9.98409867e-01, 2.51103194e-10,
          9.12999027e-08, 9.35198832e-03, 1.17175016e-08, 4.60665611e-14,
          9.99508977e-01, 9.99982357e-01, 4.36510782e-05, 3.81330478e-09,
          1.34023873e-03, 1.51671316e-08, 1.57417702e-07, 5.73970559e-12,
          1.42176237e-09, 1., 1.52340985e-03, 1., 9.99999642e-01, 1., 1.,
          6.20366123e-08, 9.99997973e-01, 9.99995947e-01, 1., 1.,
          1.72544105e-07, 1.01033628e-01, 5.50906267e-03, 1.96649630e-09,
          2.87185458e-08, 2.12898421e-10, 1., 3.49752692e-04,
          2.71558948e-02, 0., 1., 1., 1.24296457e-06, 1.71211756e-08,
          4.18656583e-07, 9.99602258e-01, 2.37042858e-10, 9.95957434e-01,
          2.05129611e-14, 1., 1., 9.99986529e-01, 1., 3.26300523e-07, 1.,
          9.99807894e-01, 9.82257545e-01, 9.99999642e-01, 2.85560127e-05,
          1., 2.17319612e-05, 9.99873281e-01, 8.59419641e-04,
          5.78759122e-04, 9.83637035e-01, 5.77633088e-08, 1.14703316e-11,
          1.85916890e-11, 9.99996781e-01, 1.74511578e-02, 2.61088181e-02,
          1., 7.85673797e-01, 1., 2.93709250e-04, 1., 9.99960661e-01,
          6.13496482e-01, 1., 4.74122800e-07, 1., 9.99999881e-01, 1.,
          8.56134469e-11, 9.99992967e-01, 1., 9.88386452e-01, 1.,
          4.78495022e-05 ]
      - [ 1., 9.99979973e-01, 4.90031695e-08, 2.02069472e-08,
          4.88407491e-03, 1.00077443e-06, 1., 1., 9.13861811e-01,
          4.17362958e-01, 7.10626264e-05, 9.58807945e-01, 9.92838085e-01,
          1.97086527e-04, 9.99999285e-01, 9.98304605e-01, 1.89469447e-05,
          1.51763190e-04, 1.11184263e-10, 1.04995150e-08, 0.,
          9.99999881e-01, 9.99822795e-01, 1.55331881e-03, 9.97924447e-01,
          4.64328704e-03, 9.99999642e-01, 8.70375594e-09, 9.99577820e-01,
          9.97157931e-01, 1., 2.94840330e-09, 1., 9.69695389e-01,
          2.53877188e-05, 1.13468097e-07, 1.29138687e-04, 2.31340613e-10,
          2.23459336e-14, 9.99997973e-01, 6.86046988e-05, 1.86186353e-12,
          2.17189520e-08, 1., 6.14756412e-10, 2.75884959e-05,
          8.61193061e-01, 3.01783766e-05, 7.45032022e-11, 9.99999881e-01,
          9.99999166e-01, 1.24127178e-06, 8.64987015e-09, 4.19950306e-01,
          9.77762538e-10, 1.39366695e-13, 5.94514745e-07, 9.99992967e-01,
          9.99997616e-01, 1.60057175e-06, 9.98154342e-01, 7.50904858e-01,
          9.99999642e-01, 9.99997973e-01, 1.98027511e-10, 1.00868531e-02,
          9.99999881e-01, 9.99999762e-01, 9.99569595e-01, 2.25274693e-02,
          1., 9.99848604e-01, 7.78579978e-11, 1.60672615e-04,
          5.15745597e-08, 9.99974847e-01, 9.74042923e-04, 7.98371017e-01,
          3.36480029e-02, 9.87759173e-01, 9.99999523e-01, 5.38086489e-14,
          7.73853628e-07, 2.66277604e-03, 1., 1.98335272e-07,
          9.99988675e-01, 4.61476378e-11, 1., 9.99999881e-01,
          9.99620557e-01, 1., 5.66264503e-02, 1., 7.54163563e-01,
          3.00056577e-01, 9.99999642e-01, 8.91803538e-08, 9.99999166e-01,
          9.99899149e-01, 1., 6.08542408e-08, 8.41601577e-04,
          8.21357608e-01, 4.63286036e-04, 8.80519565e-07, 1.99264818e-04,
          1., 5.78269601e-01, 1.97898953e-06, 3.64686072e-01,
          4.38956675e-08, 9.51160192e-01, 6.64958963e-03, 1.,
          9.99999881e-01, 9.99721467e-01, 1., 1.83947291e-09,
          9.99998212e-01, 9.99999881e-01, 9.94895756e-01, 1.27451608e-06,
          1.99369515e-06, 9.98419166e-01, 2.43830200e-05, 9.99512911e-01,
          1.14938501e-11 ]
      - [ 4.00692737e-03, 6.85681701e-01, 1.40126019e-07, 2.34100184e-10,
          1.66620680e-07, 1.05837307e-06, 9.99916315e-01, 9.99905586e-01,
          9.99940634e-01, 9.84524548e-01, 2.15876192e-01, 9.99992609e-01,
          1., 1.45701055e-11, 5.09674894e-03, 6.11863798e-04,
          5.31993684e-18, 6.41928200e-05, 9.46398018e-07, 1.69011109e-04,
          0., 9.98762012e-01, 5.05525095e-05, 2.26518614e-06,
          9.99999404e-01, 9.99419570e-01, 9.99732435e-01, 4.54806992e-09,
          1., 9.98611569e-01, 9.99998808e-01, 1.91402751e-08,
          9.99969840e-01, 1.95237799e-08, 6.40989892e-05, 4.69887150e-13,
          9.98108864e-01, 3.35355251e-11, 5.70771937e-11, 1.,
          9.99989629e-01, 2.19623718e-04, 9.86362517e-01, 5.70565045e-01,
          2.53868785e-13, 4.89934227e-09, 9.70112562e-01, 8.98894109e-03,
          3.62276919e-12, 9.09390211e-01, 1., 1.86170964e-03,
          4.99206809e-09, 4.87538792e-08, 2.62929784e-15, 2.55529849e-05,
          3.01659976e-14, 1.84299847e-06, 1., 1.11558289e-11, 1.,
          9.99989271e-01, 1., 9.99999881e-01, 1.71653425e-09,
          1.29570171e-01, 9.99995589e-01, 1., 9.99619484e-01,
          5.06199908e-11, 1., 9.94944274e-01, 2.63895856e-08,
          1.81515445e-11, 2.26337011e-06, 1., 1.17600177e-06,
          2.97525465e-01, 3.35892143e-12, 1., 9.99981403e-01,
          2.93774701e-05, 4.42544154e-14, 1.00014987e-03, 3.89948994e-01,
          2.64052414e-05, 1., 4.28596666e-13, 9.99999881e-01, 1.,
          9.99994516e-01, 9.99419212e-01, 2.27788609e-04, 1.,
          9.96316254e-01, 2.16313958e-04, 1., 9.22876779e-07,
          9.99999881e-01, 9.42741036e-01, 9.79192853e-01, 9.34672713e-01,
          1.19622855e-03, 6.86680675e-01, 1.19415617e-07, 1.64129010e-09,
          5.11845537e-02, 9.99997735e-01, 4.02568638e-01, 5.55496490e-06,
          8.76264572e-01, 6.74379198e-03, 1., 2.44950627e-07,
          9.99902010e-01, 9.99961615e-01, 9.99999166e-01, 1.,
          9.16877627e-01, 1., 9.99999762e-01, 9.99992013e-01,
          9.77436360e-03, 9.99997139e-01, 9.99988914e-01, 5.05239191e-03,
          1., 8.27987024e-05 ]
      - [ 8.95014271e-11, 1.15355387e-01, 2.11168034e-03, 7.67346256e-12,
          2.70375027e-03, 2.79101683e-03, 9.95462000e-01, 2.81819761e-01,
          9.99986053e-01, 9.99951363e-01, 1.20567204e-02, 9.99999285e-01,
          1., 8.82193923e-01, 9.99994278e-01, 6.88649436e-07,
          1.69787939e-09, 4.04661580e-04, 4.35702549e-03, 3.93763969e-07,
          1.45965291e-15, 8.14968705e-01, 2.69829272e-03, 9.91388857e-01,
          1., 9.99985456e-01, 9.99885678e-01, 4.48734169e-14,
          9.99965072e-01, 8.54128718e-01, 9.69278812e-01, 8.84207847e-16,
          1., 1.04298226e-04, 9.49316323e-01, 7.69917824e-06,
          1.52811129e-03, 1.31733088e-11, 8.92656797e-04, 9.99994874e-01,
          1., 9.48001266e-01, 5.42479138e-05, 9.99998927e-01,
          2.35815989e-07, 1.07514870e-06, 9.96833861e-01, 4.70208033e-06,
          6.42126088e-06, 9.99993920e-01, 9.99815643e-01, 3.12836664e-06,
          2.68059988e-12, 5.64660377e-06, 4.03719813e-09, 2.25087282e-10,
          2.24282259e-11, 2.84715206e-04, 9.99999762e-01, 9.55052301e-03,
          9.99995112e-01, 9.99731958e-01, 9.99999285e-01, 1.,
          4.83674171e-07, 2.09316977e-06, 9.98009026e-01, 1.,
          6.47675753e-01, 4.08624858e-02, 1., 9.79110003e-01,
          4.22855046e-05, 4.01367404e-04, 7.34979380e-07, 1.,
          3.23174127e-08, 9.99989152e-01, 3.57076781e-12, 1.,
          9.28952992e-01, 1.39957274e-05, 0., 8.11346934e-10, 1.,
          6.99383795e-09, 1., 1.14544910e-05, 9.25069332e-01, 1.,
          2.65050825e-04, 9.99999642e-01, 1.35138296e-04, 1.,
          9.99999881e-01, 7.36848051e-06, 1., 9.97444056e-03,
          5.63579082e-01, 1., 8.53472302e-05, 9.67350364e-01,
          8.43362417e-03, 9.03592912e-12, 1.26679675e-15, 3.51436213e-09,
          9.99773681e-01, 9.99997973e-01, 1.83726923e-04, 1.33605761e-04,
          8.77598703e-01, 9.44893420e-01, 9.99943495e-01, 7.98181854e-10,
          9.43542421e-01, 1., 9.99238133e-01, 1., 3.07737142e-01, 1.,
          9.98204589e-01, 8.50360934e-03, 6.68750957e-08, 1.24920814e-06,
          1., 1.64428145e-01, 9.99999762e-01, 1.27527674e-04 ]
      - [ 3.74177995e-04, 9.91970897e-01, 5.46754808e-10, 3.91214322e-15,
          1.74491294e-02, 4.76756330e-13, 4.20532338e-02, 1.,
          9.99845505e-01, 9.97242332e-01, 1.41118713e-14, 1., 1.,
          1.80312043e-09, 9.99978542e-01, 3.40191923e-06, 4.11366431e-18,
          1.00621065e-07, 3.81847250e-21, 1.04006348e-16, 0.,
          3.87342513e-01, 3.03037996e-06, 9.64976987e-10, 1.,
          9.93416905e-01, 9.99990106e-01, 2.05750933e-12, 1.,
          9.99999762e-01, 1., 1.59110539e-06, 1., 8.13404378e-03,
          7.11528756e-08, 1.09431253e-14, 9.99987721e-01, 2.64702783e-13,
          1.19928113e-12, 1., 1.12758335e-06, 2.62513900e-11,
          2.16272933e-09, 1., 5.01090092e-18, 2.03700559e-08,
          9.64397290e-14, 4.65616577e-05, 9.14653891e-14, 9.99945283e-01,
          9.99978662e-01, 1.03114553e-01, 5.02028025e-14, 1.09625807e-05,
          1.34418708e-15, 3.69603138e-13, 1.15632911e-11, 9.67895925e-01,
          9.99996543e-01, 1.58412658e-04, 9.98132885e-01, 1.,
          9.99999881e-01, 1., 1.27025530e-07, 9.99999881e-01, 1., 1.,
          7.35598862e-01, 1.36658177e-03, 1., 9.99982238e-01,
          4.81809592e-10, 2.46811790e-11, 1.26028999e-06, 1.,
          9.73968327e-01, 9.99987721e-01, 3.81681008e-14, 1., 1.,
          2.29249281e-14, 4.28489796e-12, 3.55615412e-05, 1.,
          6.74902517e-13, 7.40312696e-01, 7.08434847e-04, 1., 1.,
          9.99998093e-01, 1., 5.90413265e-07, 9.99973536e-01, 1.,
          5.63367866e-02, 1., 1.53323920e-09, 1., 9.99244094e-01,
          9.87815022e-01, 2.07522335e-05, 6.39781006e-10, 3.26384679e-06,
          6.31155217e-09, 1.72250492e-15, 1.41984165e-05, 1.,
          2.71410357e-07, 1.14910989e-07, 9.99976039e-01, 4.25913686e-06,
          1., 7.91000761e-03, 9.99952793e-01, 1., 1., 1., 9.95465100e-01,
          1., 1., 9.99765217e-01, 6.04284836e-08, 9.98998344e-01, 1.,
          9.99877214e-01, 1., 2.77851353e-10 ]
      - [ 2.53650919e-03, 9.99916077e-01, 1.62715141e-09, 9.17068333e-04,
          1.02807857e-01, 9.99992609e-01, 9.99892354e-01, 1.,
          4.25019680e-04, 9.98592317e-01, 1.34157759e-04, 1.,
          9.99733269e-01, 5.36773447e-12, 9.99934077e-01, 4.48086139e-05,
          2.30279807e-06, 3.51774054e-10, 3.48357281e-11, 1.49355864e-12,
          1.17225561e-11, 1.28435213e-02, 3.78597846e-08, 4.94176089e-10,
          9.99999404e-01, 1., 9.99999404e-01, 2.70428568e-01,
          9.99682546e-01, 1., 9.99969959e-01, 1.32840739e-06, 1.,
          8.90527964e-01, 2.44422358e-06, 2.84978073e-18, 8.85102332e-01,
          4.27938066e-05, 5.50030561e-13, 9.99995589e-01, 9.99996543e-01,
          1.25567667e-05, 1.88287973e-04, 1., 3.62015925e-07,
          1.50524992e-12, 9.99972582e-01, 1.29569031e-13, 8.69136103e-15,
          1.19045581e-05, 1., 9.89775538e-01, 3.76540679e-03,
          1.44368189e-08, 1.42781733e-04, 2.54623613e-17, 8.84630367e-07,
          2.07281228e-05, 1., 3.33183425e-06, 9.99999881e-01,
          2.68891949e-04, 1., 1., 1.21666295e-13, 1., 9.99560773e-01, 1.,
          9.99984026e-01, 1.93210369e-07, 9.99990940e-01, 9.99951363e-01,
          1.28156552e-09, 2.24728791e-09, 9.48710076e-05, 1.,
          1.90298692e-08, 1., 1.30423834e-03, 9.98374820e-01,
          9.99997854e-01, 3.67647290e-01, 3.94021953e-08, 2.14444018e-11,
          7.10293364e-07, 1.10339282e-09, 1., 1.70594092e-07,
          9.99999762e-01, 1., 9.99990344e-01, 1., 1.47615083e-06,
          9.99987841e-01, 1., 6.35627639e-09, 1., 4.95005958e-03, 1.,
          6.01261854e-01, 9.99998927e-01, 8.14402483e-06, 2.35251980e-04,
          3.85392666e-01, 1.42064662e-14, 1.33433261e-07, 2.54505262e-14,
          9.99997854e-01, 3.07435423e-01, 1.44439183e-09, 9.99997377e-01,
          9.97354865e-01, 1., 1.02081367e-06, 7.88501561e-01,
          9.87878859e-01, 9.98696148e-01, 1., 1.12127930e-01, 1.,
          9.99907732e-01, 1., 3.19066684e-09, 1., 1., 9.99637485e-01, 1.,
          0. ]
      - [ 1.29112996e-11, 1., 1.00562087e-04, 0., 3.39501712e-05,
          1.27946254e-09, 1., 9.99980330e-01, 9.99269545e-01, 1.,
          1.52372948e-09, 1., 9.99948621e-01, 1.52924247e-06, 1.,
          5.44833485e-04, 9.88663209e-15, 3.73333925e-03, 8.99281144e-01,
          3.83196036e-12, 1.38368570e-11, 2.53044125e-02, 2.45022888e-13,
          4.44322910e-13, 9.99997735e-01, 5.32105379e-03, 1.,
          9.99976873e-01, 1.75266432e-05, 9.63679790e-01, 9.99999881e-01,
          2.86042789e-09, 1., 1.28661188e-12, 4.13562651e-09,
          5.70333754e-12, 9.99999285e-01, 5.73825266e-04, 5.87038176e-13,
          9.99944806e-01, 7.04349428e-02, 1.30536326e-04, 9.41312779e-03,
          1., 1.15389366e-05, 1.20769534e-14, 4.96264547e-01,
          8.76256599e-05, 2.35011282e-15, 3.37747820e-02, 1.,
          9.07158945e-04, 4.53658444e-08, 9.97806966e-01, 1.53417534e-09,
          2.50742451e-04, 3.87667815e-11, 2.39734823e-06, 1.,
          9.96893406e-01, 9.99999523e-01, 8.44797978e-06, 9.99999523e-01,
          1., 4.56200453e-13, 1., 9.99999642e-01, 1., 1., 4.56365723e-10,
          1., 8.61728847e-01, 7.21066635e-06, 4.50068852e-04,
          3.18044685e-02, 1., 9.95003954e-02, 5.76763181e-04,
          7.64491687e-14, 9.99999762e-01, 1., 3.47911310e-07,
          2.61819559e-06, 8.50351993e-03, 1., 8.06593761e-08,
          2.10293321e-04, 3.49504735e-12, 1., 1., 1., 9.99992490e-01,
          2.81442143e-02, 9.99834895e-01, 5.31279266e-01, 5.19244932e-04,
          1., 5.96941292e-01, 1., 2.02215812e-03, 9.99999762e-01,
          2.37778792e-08, 2.81132162e-15, 5.64988545e-09, 2.91717295e-09,
          1.87531356e-02, 1.81751100e-10, 1.10804021e-01, 9.99995470e-01,
          6.33006402e-06, 9.99998093e-01, 2.01560010e-06, 1.,
          3.38767568e-05, 1., 9.99988317e-01, 8.56700960e-11,
          9.98815656e-01, 9.99998093e-01, 9.97433841e-01, 1., 1.,
          3.35862154e-07, 9.99982595e-01, 1., 3.43692034e-01,
          9.99973655e-01, 9.90221620e-01 ]
      - [ 9.99879241e-01, 9.97250140e-01, 8.77315927e-07, 1.85527185e-13,
          4.48507481e-11, 1.45169616e-13, 1., 9.86928284e-01,
          9.99970555e-01, 4.68709366e-03, 9.99948382e-01, 1., 1.,
          1.55694388e-10, 1.26216739e-01, 1.00353252e-04, 1.65432497e-14,
          2.02153115e-06, 3.84665618e-05, 1.65373427e-11, 3.89948244e-18,
          1., 4.63544786e-01, 2.08872438e-12, 9.98670816e-01,
          9.99707758e-01, 9.99962330e-01, 9.61375415e-01, 9.65722680e-01,
          9.92581010e-01, 1., 1.10225965e-05, 9.99999523e-01,
          8.92161833e-13, 4.03741666e-04, 1.01085130e-11, 1.,
          3.62632363e-07, 1.73246866e-04, 1., 5.05109550e-04,
          1.64496450e-05, 3.70454729e-01, 9.99995708e-01, 6.96513976e-04,
          2.05506225e-08, 5.06591260e-01, 1.17894433e-05, 0.,
          9.98786986e-01, 9.99834061e-01, 2.33485298e-05, 1.17069522e-11,
          2.45728850e-04, 2.71625986e-11, 4.72072305e-13, 4.33030140e-11,
          1.93448031e-07, 1., 6.51859273e-06, 1., 9.99999762e-01, 1., 1.,
          9.07711879e-08, 9.99995708e-01, 1., 1., 9.99935269e-01,
          9.31866598e-11, 9.97313917e-01, 9.99999523e-01, 2.62317400e-07,
          1.27406044e-10, 5.38863731e-10, 1., 1.17636853e-04,
          9.99998450e-01, 1.66426917e-13, 1., 1., 1.73723524e-09,
          9.75495446e-16, 1.93314889e-04, 2.11185878e-04, 1.07829735e-11,
          9.99994874e-01, 5.47364210e-10, 1., 1., 1., 9.99994040e-01,
          3.52365782e-06, 1., 9.99972939e-01, 4.68057435e-04, 1.,
          5.35749496e-05, 1., 9.52699780e-03, 2.28758552e-03,
          2.83913374e-01, 1.91114480e-09, 9.96837497e-01, 4.34342402e-15,
          6.23949105e-03, 6.20871572e-13, 9.92169678e-01, 1.02189958e-01,
          1.77473191e-06, 1., 1.39470685e-05, 1., 2.04920107e-05,
          9.99999404e-01, 1.11095428e-01, 9.86537576e-01, 9.66105521e-01,
          3.72104406e-01, 1., 9.99992490e-01, 1., 3.01743148e-06, 1., 1.,
          9.03361941e-10, 9.99999166e-01, 1.26157072e-04 ]
      - [ 1.56556427e-01, 6.40502036e-01, 7.32525960e-02, 1.71021453e-09,
          8.18590415e-05, 1.56089038e-06, 9.99994397e-01, 9.99999642e-01,
          9.99969959e-01, 9.99998450e-01, 4.63697907e-05, 9.99999762e-01,
          9.99997258e-01, 3.27567011e-03, 9.99985337e-01, 1.28574399e-02,
          1.94636418e-09, 7.51223087e-01, 3.25746543e-04, 8.31190027e-06,
          0., 9.62682903e-01, 1.21282901e-04, 9.70202918e-10,
          9.99393940e-01, 5.34643466e-03, 9.99996543e-01, 1.81037094e-02,
          8.77776891e-02, 9.93341148e-01, 1., 5.02209587e-04,
          9.99995112e-01, 1.34568057e-09, 6.01264816e-10, 1.94891797e-07,
          9.99999046e-01, 9.77606760e-06, 3.92845720e-07, 9.99999881e-01,
          8.85277768e-05, 5.32813728e-01, 8.09075218e-03, 9.99987364e-01,
          1.38693770e-11, 6.82001973e-06, 5.07771096e-04, 2.07779352e-02,
          1.17726251e-09, 9.84054029e-01, 9.99989510e-01, 2.02927947e-01,
          4.59108973e-09, 4.80784709e-03, 2.57055609e-11, 8.04123876e-04,
          4.06460504e-06, 1.10233342e-02, 1., 2.38394932e-05,
          9.99994397e-01, 9.59678710e-01, 9.99991536e-01, 9.99999762e-01,
          2.43555505e-08, 1.52962673e-02, 1., 1., 9.99449670e-01,
          3.32780418e-12, 9.99529839e-01, 9.98257577e-01, 1.05298126e-08,
          4.80138790e-03, 3.89088115e-07, 1., 6.71362281e-01,
          9.66118753e-01, 3.26664206e-13, 1., 9.99994636e-01,
          1.26648834e-08, 9.06266395e-10, 1.86356762e-03, 9.99998331e-01,
          1.29655496e-06, 9.99843240e-01, 2.46302164e-07, 1., 1.,
          9.99998927e-01, 9.99976397e-01, 4.24308144e-03, 9.99931216e-01,
          9.72609580e-01, 7.32527554e-01, 9.99998689e-01, 6.74121984e-05,
          1., 9.11914229e-01, 9.73564684e-01, 1.37357802e-05,
          6.64974138e-08, 1.15468970e-03, 2.63100759e-07, 5.35287429e-03,
          2.95342998e-05, 9.95515049e-01, 3.41332763e-01, 2.43597174e-06,
          9.99665022e-01, 2.31497777e-09, 9.98033464e-01, 7.02294614e-03,
          9.99918818e-01, 9.97002661e-01, 3.30618441e-01, 1.11003615e-01,
          9.77469623e-01, 1., 1., 1., 1.57315619e-04, 9.99999762e-01, 1.,
          5.58338761e-01, 9.99924421e-01, 9.96505737e-01 ]
      - [ 5.11423126e-03, 9.99845147e-01, 5.93352706e-05, 1.94973516e-04,
          2.30528036e-04, 3.86247761e-03, 9.97574866e-01, 9.82786894e-01,
          9.87787783e-01, 9.99992371e-01, 4.44939244e-04, 1.,
          9.99956965e-01, 1.04880758e-06, 9.22282338e-01, 1.42963103e-03,
          3.15687129e-11, 1.41540701e-02, 4.39486263e-04, 6.80277390e-06,
          4.50857858e-11, 3.22906643e-01, 1.37321767e-04, 1.96818584e-09,
          1., 9.99999642e-01, 1., 1.19158635e-02, 9.99979377e-01,
          9.99983191e-01, 1., 9.14877916e-08, 1., 2.15359107e-02,
          3.10600735e-04, 1.11460672e-08, 9.13854837e-01, 9.57813118e-09,
          2.54906425e-08, 9.99148011e-01, 9.99866962e-01, 8.39761560e-06,
          1.39495809e-04, 1., 0., 7.79717624e-08, 9.93851185e-01,
          2.14477245e-06, 2.69897017e-12, 8.39709130e-04, 1.,
          5.43086648e-01, 2.53681374e-05, 8.87516320e-01, 9.88727493e-07,
          1.65422098e-05, 7.41308404e-12, 9.96520877e-01, 1.,
          9.29145681e-05, 9.99999881e-01, 9.99961853e-01, 9.99890089e-01,
          1., 1.26076273e-07, 9.95397270e-01, 9.99999642e-01, 1.,
          8.59887123e-01, 1.92410535e-05, 9.99743521e-01, 9.99999881e-01,
          2.75907860e-05, 6.86606654e-07, 1.22921390e-03, 1.,
          9.38078665e-05, 2.86004037e-01, 1.56892129e-04, 9.99972701e-01,
          9.99875784e-01, 3.55369298e-06, 3.14552184e-09, 5.25991082e-01,
          1.24064309e-05, 1.57581836e-01, 9.99987721e-01, 1.07655704e-10,
          1., 1., 1., 9.99956608e-01, 5.77042699e-02, 1., 1.,
          1.47992543e-08, 9.99999404e-01, 5.28076547e-04, 9.99400020e-01,
          9.97994423e-01, 9.97601569e-01, 9.80486691e-01, 1.37081486e-03,
          2.84576789e-02, 2.86883229e-13, 7.18461499e-02, 6.74530447e-01,
          7.27676392e-01, 7.90415704e-03, 4.52573395e-12, 9.99874234e-01,
          1.98440398e-06, 1., 2.72729667e-05, 9.99622703e-01,
          7.00821996e-01, 9.94842589e-01, 9.97931123e-01, 9.61631656e-01,
          9.99292612e-01, 9.89179373e-01, 1., 3.16413672e-04,
          9.99999881e-01, 1., 9.42873299e-01, 9.99786794e-01,
          4.15226474e-04 ]
      - [ 3.84740346e-08, 9.99728739e-01, 6.93633221e-03, 1.10857101e-10,
          9.91883755e-01, 1.89937040e-07, 1., 9.82846081e-01, 1.,
          9.97810066e-01, 9.96085525e-01, 9.99574959e-01, 9.99951124e-01,
          2.99623789e-04, 1., 7.52448440e-01, 3.49828971e-10,
          3.16321515e-02, 2.44277939e-01, 7.53522678e-14, 0., 1.,
          8.70154083e-01, 5.43414098e-11, 6.18409038e-01, 2.63391965e-04,
          9.99982834e-01, 3.29880627e-13, 1.29094630e-01, 6.57038072e-07,
          1., 8.75953555e-01, 1., 3.97375686e-07, 9.99994040e-01,
          2.23783005e-07, 9.99937296e-01, 3.33557185e-03, 1.04387804e-10,
          9.99974132e-01, 5.00090071e-04, 2.92313121e-06, 5.01953855e-06,
          9.99999642e-01, 1.06761960e-04, 9.91574585e-01, 9.54125583e-01,
          2.47824192e-02, 3.62251868e-13, 5.46523836e-04, 9.99999046e-01,
          4.63360688e-04, 2.35305612e-11, 9.99929547e-01, 7.33025446e-11,
          4.52249005e-05, 7.58699414e-08, 1.17349009e-06, 9.99721706e-01,
          1.43983677e-01, 9.99998689e-01, 9.99998808e-01, 9.99999762e-01,
          1., 1.88310623e-05, 8.76929698e-06, 3.85223189e-04, 1.,
          1.25175826e-02, 1.38808343e-09, 9.97581720e-01, 9.99999046e-01,
          2.74457075e-02, 8.55351300e-06, 2.16759928e-03, 1.,
          9.72358763e-01, 9.99997735e-01, 2.92313118e-10, 9.99994636e-01,
          1., 2.73049761e-08, 1.79327178e-11, 6.15440309e-01, 1.,
          1.91155381e-12, 9.99877572e-01, 1.14102576e-07, 1.,
          9.99772251e-01, 9.92668331e-01, 9.99996662e-01, 1.01682179e-01,
          1., 9.99822199e-01, 1.71670095e-07, 9.99856114e-01,
          3.17193667e-08, 1., 9.99712408e-01, 9.99099255e-01,
          9.85959470e-01, 3.92483454e-03, 1.43755500e-07, 3.26837562e-06,
          8.56322795e-02, 2.11707302e-05, 1., 2.64114398e-03,
          9.85658944e-01, 6.70835853e-01, 3.88613419e-10, 9.99788225e-01,
          6.44170655e-07, 1., 9.99670386e-01, 9.99940038e-01,
          9.99999046e-01, 7.88111240e-03, 9.44771171e-01, 1.,
          9.88914311e-01, 5.71509008e-04, 9.96053457e-01, 1.,
          8.61033952e-11, 9.99634743e-01, 1.72354273e-08 ]
      - [ 2.71271113e-02, 9.99999940e-01, 7.59288087e-04, 6.40487939e-04,
          9.97799754e-01, 1.67042681e-03, 9.99520719e-01, 9.98708069e-01,
          9.99959648e-01, 1.67827777e-04, 1.05680912e-04, 8.03290427e-01,
          7.87308514e-01, 5.81991393e-04, 9.99999225e-01, 3.56241094e-06,
          2.32838824e-01, 5.27128041e-01, 1.66458413e-02, 9.95356023e-01,
          -2.04152559e-15, 9.66924906e-01, 8.71989489e-01,
          1.52438652e-05, 3.80264758e-03, 4.47031289e-06, 8.91002834e-01,
          9.99875605e-01, 9.98164296e-01, 9.99601960e-01, 9.99948561e-01,
          1.95002300e-03, 9.99969661e-01, 1.02041868e-05, 1.11685717e-03,
          6.44762826e-04, 9.98629749e-01, 6.71782705e-04, 1.71943047e-05,
          9.99989808e-01, 2.95535568e-02, 1.05323888e-01, 8.04993033e-01,
          9.99043584e-01, 2.09589349e-03, 7.06628323e-01, 9.99972641e-01,
          5.11053391e-02, 1.19373528e-02, 9.93919194e-01, 9.87491190e-01,
          3.26120906e-04, 6.86009526e-01, 1.43195211e-03, 4.90344241e-02,
          5.34130486e-05, 2.03744066e-03, 7.25839853e-01, 1.,
          5.23399711e-02, 4.07450338e-04, 6.24060165e-04, 9.99994338e-01,
          9.99972999e-01, 1.30769945e-06, 9.31055009e-01, 7.07518458e-01,
          9.99072731e-01, 9.85691905e-01, 8.49853992e-01, 9.99765277e-01,
          9.99999583e-01, 1.69862229e-02, 3.11999787e-02, 8.88490831e-05,
          4.09643024e-01, 2.61898011e-01, 9.99999940e-01, 1.37582148e-07,
          9.91606653e-01, 9.97763693e-01, 1.47191354e-03, 7.15604168e-04,
          1.63014221e-04, 1.39552727e-01, 5.19759133e-02, 1.71997512e-04,
          6.56638149e-05, 9.99074519e-01, 9.96073186e-01, 7.97574893e-02,
          9.96851921e-01, 9.31123912e-01, 9.98941302e-01, 9.99927580e-01,
          6.88872812e-03, 9.99997318e-01, 3.14763308e-01, 9.99984682e-01,
          4.63712692e-01, 8.85854959e-01, 1.70374149e-03, 9.99360800e-01,
          9.99755025e-01, 8.01035855e-03, 5.07936254e-03, 5.58841825e-02,
          9.99391258e-01, 6.02310598e-01, 2.11272432e-04, 5.16876914e-02,
          4.00726914e-01, 9.83047247e-01, 3.80392768e-04, 9.83469307e-01,
          9.98633385e-01, 2.95747479e-04, 9.99997914e-01, 3.93820461e-03,
          9.35461521e-01, 8.97933006e-01, 9.99693573e-01, 7.56394072e-03,
          9.99999940e-01, 9.11698282e-01, 3.81617667e-03, 9.99999940e-01,
          8.72077420e-03 ]
      - [ 1.93595560e-03, 9.79529440e-01, 1.98698108e-05, 1.47420201e-11,
          5.96785831e-05, 5.81204915e-07, 9.99998212e-01, 1.,
          9.99995947e-01, 9.99010086e-01, 6.22059679e-06, 9.99998331e-01,
          9.99993205e-01, 1.28338870e-05, 9.99991536e-01, 1.81821326e-03,
          6.99004965e-10, 9.69447598e-08, 1.44085291e-07, 3.37086931e-07,
          0., 1.33652270e-01, 4.64056347e-06, 2.20054062e-04,
          9.99819338e-01, 2.19770864e-01, 1., 3.95664847e-06,
          9.90733027e-01, 9.98678029e-01, 9.99997973e-01, 4.32515917e-05,
          9.99999523e-01, 1.13669640e-09, 9.92710948e-01, 2.86262090e-08,
          9.99970555e-01, 3.22074256e-09, 1.00180394e-07, 1.,
          4.14768583e-04, 2.15738538e-10, 4.42227552e-04, 1.,
          4.73330541e-10, 1.21649904e-07, 6.33671507e-02, 3.62791098e-07,
          2.82031213e-12, 9.96864259e-01, 1., 3.36922169e-01,
          1.41293503e-06, 1.38317246e-05, 4.32249969e-08, 2.89568880e-09,
          5.53523716e-09, 9.25047971e-07, 9.99999642e-01, 1.01090789e-01,
          9.99978304e-01, 2.50242889e-01, 9.99907613e-01, 9.99999404e-01,
          2.84218499e-11, 9.99996901e-01, 1., 1., 9.99999523e-01,
          8.59708485e-11, 1., 9.99697447e-01, 2.41007683e-07,
          2.71917244e-09, 7.11506942e-09, 9.99951363e-01, 8.68564427e-01,
          9.99975562e-01, 1.35371325e-10, 1., 9.99952435e-01,
          3.93450134e-11, 2.24226415e-08, 9.36719835e-01, 9.99137521e-01,
          1.81603955e-05, 9.97531652e-01, 3.16120349e-06, 9.99985695e-01,
          1., 9.99999881e-01, 9.99985814e-01, 3.08059573e-01,
          8.95829201e-01, 9.78188515e-01, 1.25069851e-02, 1.,
          4.12787916e-03, 1., 9.96787786e-01, 9.99634385e-01,
          4.17250860e-03, 1.48068238e-10, 1.08928616e-05, 2.04936423e-09,
          8.09891731e-04, 1.98862836e-05, 9.99962687e-01, 9.99945402e-01,
          1.03185490e-01, 4.87136930e-01, 4.96447683e-06, 9.98347402e-01,
          2.87548323e-06, 1., 9.99552906e-01, 9.93912995e-01,
          9.82480228e-01, 9.19596791e-01, 9.99992132e-01, 9.94301319e-01,
          9.99998927e-01, 6.51302487e-02, 4.89221007e-01, 9.99988675e-01,
          9.95698810e-01, 9.99998808e-01, 3.36159474e-07 ]
      - [ 6.46276832e-01, 1.83863804e-07, 5.36350999e-04, 2.85994034e-14,
          7.09504128e-01, 6.24671105e-13, 1., 9.99980450e-01, 1.,
          9.91376460e-01, 3.79422903e-02, 1., 1., 3.44066416e-06, 1.,
          9.87423956e-01, 1.08281754e-16, 5.21852940e-07, 3.14046386e-16,
          1.52152264e-16, 0., 9.89876211e-01, 5.40637970e-03,
          7.21040368e-02, 4.40096948e-03, 9.18492615e-01, 9.76804197e-01,
          1.36764840e-12, 9.99999762e-01, 2.10879734e-05, 1.,
          8.32998467e-06, 1., 7.43088862e-08, 9.99068916e-01,
          3.51611712e-10, 9.99816000e-01, 4.03788919e-10, 3.36252606e-06,
          1., 4.62973258e-05, 7.61463781e-09, 3.77817269e-05, 1.,
          3.58397374e-11, 2.97097351e-12, 4.04347211e-01, 2.61209685e-08,
          1.18964163e-16, 9.99789178e-01, 1., 2.38096092e-07,
          1.43618811e-10, 4.30904464e-15, 1.04372854e-18, 6.65100742e-05,
          1.71670243e-15, 6.66867197e-03, 8.91867697e-01, 2.33478427e-15,
          9.99999762e-01, 5.78141548e-02, 9.95824099e-01, 1.,
          3.85983398e-11, 9.99997616e-01, 1., 1., 1.70629792e-05,
          1.15736879e-14, 1., 1., 1.33545647e-04, 7.12484278e-17,
          1.67231064e-03, 9.99998808e-01, 6.83853557e-07, 1.,
          2.23781432e-12, 1., 1., 2.76294543e-07, 8.31386216e-14,
          4.99210536e-01, 8.75251135e-05, 6.08955190e-07, 9.99999881e-01,
          1.57987479e-12, 1., 1., 1., 1., 2.41258759e-02, 9.99824941e-01,
          1., 1.60871759e-01, 1., 2.13213381e-03, 1., 1., 9.99318004e-01,
          1.96252386e-05, 2.61425243e-10, 4.39343788e-03, 3.56342156e-08,
          2.84773038e-11, 4.51698143e-05, 9.99983072e-01, 9.29599777e-02,
          1.17555965e-09, 9.76402760e-01, 3.17292233e-06, 7.81549096e-01,
          1.05677184e-03, 7.74358392e-01, 9.78770435e-01, 1.,
          9.97913182e-01, 1.61051843e-03, 9.99956131e-01, 1.,
          9.78938162e-01, 9.99999642e-01, 9.89830792e-01, 1.,
          2.80491931e-05, 1., 8.83331595e-05 ]
      - [ 7.93344155e-02, 7.34745264e-02, 3.26391892e-04, 1.25537614e-09,
          1.67273866e-12, 5.42253353e-09, 4.02358035e-03, 1.,
          4.37753826e-01, 9.99999881e-01, 4.76767099e-07, 1., 1.,
          1.59065183e-09, 9.95178103e-01, 3.00850189e-07, 3.72673309e-10,
          1.51777233e-04, 1.13858797e-10, 3.61926705e-01, 2.55463375e-13,
          5.70394874e-01, 6.18606107e-04, 1.01231926e-04, 9.99999642e-01,
          9.99643803e-01, 1., 9.96505380e-01, 1., 9.99838233e-01, 1.,
          1.26155498e-06, 9.00836468e-01, 1.12095500e-09, 1.66388240e-03,
          3.86680000e-07, 1., 2.04127759e-09, 8.00578371e-02, 1.,
          3.00195604e-03, 1.60462252e-04, 5.22081971e-01, 9.99272048e-01,
          0., 1.36019126e-14, 3.84992957e-01, 2.88391817e-08,
          4.29642142e-07, 9.99999881e-01, 1., 5.17022848e-01,
          9.07265232e-04, 2.83119221e-07, 2.60049777e-08, 8.24643142e-13,
          6.15625866e-12, 9.66965966e-03, 1., 1.78656578e-01, 1.,
          2.44751155e-01, 9.99661326e-01, 9.99991298e-01, 3.04735659e-06,
          9.99999046e-01, 1., 1., 9.98815298e-01, 9.71775808e-06,
          3.60928833e-01, 9.99999166e-01, 3.01715120e-12, 3.29474034e-07,
          3.19610251e-13, 9.99999762e-01, 9.76927026e-07, 9.99242425e-01,
          1.06269713e-08, 9.99999881e-01, 3.64222974e-01, 2.84258641e-12,
          4.09790744e-07, 7.29564726e-01, 2.39185785e-04, 3.61521900e-01,
          1., 2.29678858e-06, 9.96643305e-01, 1., 9.99999762e-01,
          9.99978423e-01, 5.76248346e-03, 9.89626765e-01, 9.77828741e-01,
          9.85388577e-01, 1., 6.01545954e-03, 9.99989271e-01,
          3.39866340e-01, 9.99999404e-01, 3.05628491e-05, 1.36761898e-07,
          9.99990225e-01, 5.34062092e-05, 1.65663955e-10, 2.26458445e-01,
          9.94615257e-01, 9.68160927e-01, 6.11108044e-05, 4.30188328e-02,
          3.67598705e-06, 9.99997616e-01, 2.31230841e-03, 9.99646664e-01,
          9.90577936e-01, 4.04057324e-01, 2.51630358e-02, 5.48031938e-04,
          9.99994397e-01, 9.99999881e-01, 1., 6.34785320e-05,
          9.99936819e-01, 9.99914646e-01, 9.98805881e-01, 1.,
          2.09417176e-02 ]
      - [ 5.48382290e-04, 4.34464037e-01, 2.64154278e-06, 1.03236912e-08,
          7.57152401e-03, 7.01336319e-07, 1., 9.96033847e-01,
          9.99998808e-01, 5.59374988e-01, 8.51991236e-01, 1.39213484e-02,
          9.99509811e-01, 4.68565588e-07, 8.50791991e-01, 6.09323848e-04,
          5.34365473e-14, 7.58635750e-08, 2.47163186e-03, 3.10397190e-05,
          0., 8.12417567e-01, 7.71873943e-07, 2.23055827e-11,
          9.03944314e-01, 2.98034312e-04, 1., 4.67114878e-05, 1.,
          4.80461604e-04, 9.99756634e-01, 3.08800227e-05, 1.,
          6.27962688e-13, 2.37237930e-01, 1.68709657e-10, 1.,
          2.52612859e-01, 9.44793001e-15, 1., 1.21275143e-05,
          3.96994117e-04, 9.92095292e-01, 8.44133720e-02, 2.36027915e-07,
          2.03532338e-01, 1.65309340e-01, 3.58559626e-10, 4.94208656e-08,
          1.70864223e-03, 1., 2.32466713e-01, 9.97595007e-10,
          7.35070316e-09, 5.88317377e-08, 4.28541957e-09, 2.14319862e-05,
          1.93601523e-13, 9.99673486e-01, 4.25599974e-05, 6.99054003e-01,
          9.77166176e-01, 1., 1., 1.26208365e-01, 3.08659732e-01,
          9.99959707e-01, 1., 9.99976397e-01, 2.25830235e-07,
          9.99897242e-01, 9.94125009e-01, 2.55854297e-06, 1.99758588e-07,
          1.29337866e-06, 9.99966741e-01, 2.62565882e-05, 9.99975681e-01,
          5.41988228e-14, 9.92501616e-01, 1., 3.52487385e-01,
          2.69194743e-07, 9.99999642e-01, 9.99999166e-01, 1.75350745e-09,
          9.94867412e-04, 5.46140448e-08, 9.99771535e-01, 1.,
          9.99997258e-01, 9.99486804e-01, 8.63124910e-07, 9.29403603e-01,
          9.99969721e-01, 5.45545965e-02, 9.99997735e-01, 3.59832160e-02,
          1., 5.94217890e-05, 9.99999762e-01, 3.56088653e-02,
          6.26134515e-01, 2.66399328e-03, 1.02187141e-05, 1.33279923e-06,
          5.08896846e-05, 9.99972820e-01, 8.09449673e-01, 5.41645113e-06,
          1., 9.79203582e-01, 1., 4.96333587e-06, 1., 9.99998808e-01,
          5.85037768e-01, 1., 1.18103288e-01, 9.99999762e-01,
          9.99996424e-01, 9.85882521e-01, 6.80727535e-04, 9.99982834e-01,
          9.99996543e-01, 1.29212916e-01, 1., 1.39203982e-08 ]
      - [ 9.99999881e-01, 2.56077416e-11, 9.81362518e-07, 5.21399990e-09,
          1., 1.02425213e-06, 1., 9.99999285e-01, 9.99763668e-01,
          9.99948025e-01, 2.00462824e-09, 7.29431033e-01, 1.,
          1.89258553e-10, 9.99952197e-01, 9.99887347e-01, 3.10494408e-11,
          1.37568429e-10, 3.67434654e-17, 4.38879312e-07, 0.,
          9.95748997e-01, 9.99999881e-01, 9.33824879e-07, 3.29680816e-08,
          1., 9.81809497e-01, 3.21431604e-10, 6.05187953e-01, 1., 1.,
          8.54468212e-08, 9.99999881e-01, 9.33239162e-01, 1.74122605e-09,
          9.54880088e-05, 1., 2.64582294e-08, 8.92874056e-12,
          9.99999523e-01, 7.27448878e-07, 3.33683683e-14, 6.96987745e-10,
          1., 1.12225286e-21, 1.22798562e-16, 6.53707515e-03,
          2.21335081e-12, 1.21760695e-16, 1., 1., 3.88049713e-14,
          1.22080161e-03, 1.06844691e-05, 2.05902380e-13, 3.81383813e-12,
          7.52276208e-07, 1.18952057e-10, 9.97385681e-01, 1.14888524e-11,
          3.90071869e-01, 6.83482409e-01, 9.99999881e-01, 1.,
          2.08837098e-17, 1., 1., 1., 5.58282949e-08, 1.99966725e-13, 1.,
          9.99999881e-01, 4.77567508e-12, 4.73104000e-09, 1.77668893e-10,
          1., 1.24499761e-02, 9.99999523e-01, 9.63946877e-06, 1.,
          9.99959588e-01, 1.76006139e-07, 3.77688343e-06, 1.99242539e-10,
          6.84183240e-01, 1.60127165e-05, 9.99999762e-01, 3.77980355e-11,
          1., 1., 9.91549969e-01, 1., 1.30244130e-02, 1., 9.99991059e-01,
          4.15505439e-01, 1., 6.86686352e-09, 9.99999881e-01, 1.,
          9.96952057e-01, 3.43815356e-01, 1.23017542e-02, 1.32649224e-02,
          6.34629093e-03, 5.43216243e-03, 5.47950345e-17, 1.,
          2.94575348e-05, 2.87352446e-02, 9.99985695e-01, 1.72630636e-04,
          9.97149169e-01, 6.81359751e-08, 9.99998093e-01, 9.93877470e-01,
          9.99995828e-01, 1., 2.94437051e-01, 9.99999285e-01, 1.,
          9.99994040e-01, 3.79560479e-05, 1.35530746e-02, 9.72665310e-01,
          5.33333449e-08, 1., 1.84847449e-03 ]
      - [ 3.27535644e-02, 9.95348871e-01, 5.42691909e-04, 2.51931375e-11,
          9.90386009e-01, 3.40417416e-11, 9.99897838e-01, 1.,
          9.88992870e-01, 1., 4.94953106e-11, 1., 1., 2.94264890e-10,
          9.99969602e-01, 9.47088392e-06, 1.99240298e-17, 8.46211989e-10,
          1.87986109e-22, 5.06635136e-20, 0., 9.95541155e-01,
          2.37147538e-06, 1.09040371e-07, 1., 3.71413738e-01,
          9.99999881e-01, 3.54439866e-13, 1., 1., 1., 3.25642081e-17, 1.,
          9.99998450e-01, 6.08737452e-08, 3.42858690e-13, 1.81180052e-03,
          5.32213787e-11, 9.38750776e-15, 1., 9.37196434e-01,
          1.19563826e-08, 5.84412785e-09, 1., 3.64413167e-21,
          6.28283341e-13, 3.35055631e-07, 1.19368098e-08, 1.06683257e-21,
          1., 1., 3.71090692e-07, 5.51613789e-11, 6.03841784e-07,
          6.70306246e-16, 5.23891390e-12, 3.51391701e-18, 9.94659126e-01,
          1., 3.75739653e-08, 1., 9.99999881e-01, 9.99999642e-01, 1.,
          1.96044447e-09, 1., 1., 1., 9.99807656e-01, 7.37965244e-10, 1.,
          9.99981642e-01, 5.73167338e-12, 3.81472545e-12, 9.41516531e-10,
          1., 2.03119352e-08, 9.99996662e-01, 8.07857514e-09, 1., 1.,
          9.37011073e-17, 4.10808228e-11, 2.57002488e-02, 9.99712646e-01,
          2.74632095e-10, 9.99999523e-01, 4.68531728e-01, 1., 1., 1., 1.,
          1.39124450e-06, 9.99998808e-01, 9.99998450e-01, 9.94992435e-01,
          1., 1.47058234e-11, 4.51667607e-03, 9.99999881e-01,
          9.47322845e-01, 1.18907356e-10, 3.02338840e-12, 2.11441121e-03,
          3.24700750e-06, 1.44127963e-16, 5.87886007e-06, 1.,
          2.22895920e-11, 4.05436521e-14, 2.80916691e-01, 3.80601268e-03,
          1., 1.09269857e-10, 9.99650359e-01, 1., 1., 9.99999881e-01,
          7.33688951e-01, 1., 1., 9.99975801e-01, 2.42552574e-07,
          9.99998927e-01, 1., 9.99746621e-01, 1., 9.96089211e-10 ]
      - [ 4.54947621e-01, 2.33640671e-02, 2.78831703e-06, 1.09523498e-05,
          3.63560830e-05, 1.25767081e-04, 9.91827130e-01, 1., 1.,
          9.99998093e-01, 1.69040035e-07, 9.99817193e-01, 8.02055836e-01,
          1.39583881e-06, 9.99948502e-01, 3.39256669e-03, 9.98839796e-01,
          1.20476966e-06, 2.35832933e-11, 2.34379485e-07, 0.,
          1.98139431e-04, 9.99997735e-01, 9.96743500e-01, 9.99994397e-01,
          3.83016393e-02, 1.69451181e-02, 8.45863856e-03, 9.43146408e-01,
          1., 9.99938369e-01, 4.40883832e-06, 1.00707253e-02,
          9.28360522e-01, 2.42045403e-01, 1.78017300e-02, 1.04459800e-01,
          3.67527199e-03, 1.31649984e-04, 9.99862552e-01, 8.98534656e-01,
          9.87338871e-02, 1.04081337e-04, 1., 3.91145107e-08,
          1.00435649e-07, 1.19075330e-05, 9.21603629e-08, 1.68566348e-05,
          1., 9.94156957e-01, 1.23060978e-04, 2.36648790e-04,
          3.57418412e-06, 4.99269447e-07, 9.89997716e-05, 5.48938806e-05,
          9.99916196e-01, 9.98398960e-01, 1.48355321e-04, 9.99997616e-01,
          6.70920610e-02, 9.87417221e-01, 9.99997377e-01, 6.88849786e-06,
          9.99999762e-01, 9.99991894e-01, 1., 1., 1.04826403e-09,
          9.73868847e-01, 1., 5.17630724e-06, 3.09747819e-08,
          2.32472405e-04, 1., 2.71286885e-03, 9.99611199e-01,
          1.99994026e-03, 7.89673805e-01, 9.98353601e-01, 3.64788434e-07,
          1.69006118e-04, 8.07401084e-05, 9.88571107e-01, 2.15484545e-01,
          1., 2.58766342e-09, 9.99865532e-01, 9.99617934e-01,
          9.99999762e-01, 9.99974728e-01, 3.72416078e-04, 1.36519771e-03,
          9.37515683e-03, 9.57515001e-01, 9.99701321e-01, 2.21320940e-03,
          8.30932021e-01, 1.93413900e-04, 9.80078697e-01, 1.41489450e-04,
          5.04173599e-02, 2.82294204e-04, 5.08847097e-06, 3.72422801e-05,
          5.59000764e-04, 1., 9.99992728e-01, 1.44151896e-02,
          9.86838400e-01, 3.58507931e-02, 1., 1.32101263e-07,
          9.61936235e-01, 9.99999642e-01, 9.96200383e-01, 9.99999523e-01,
          1.28210595e-04, 9.53289688e-01, 7.72394799e-03, 9.97041643e-01,
          2.70854440e-02, 5.52726211e-03, 6.08442128e-01, 9.99997497e-01,
          9.99929309e-01, 9.05273079e-10 ]
      - [ 2.53967853e-04, 2.22946648e-02, 2.81454436e-03, 3.18098027e-05,
          4.73058410e-03, 3.81772853e-02, 9.99998689e-01, 6.17563678e-03,
          9.58638132e-01, 9.06047702e-01, 9.98054981e-01, 9.99932289e-01,
          9.75931764e-01, 4.61895280e-02, 9.89049077e-01, 1.06158674e-04,
          5.75891114e-04, 1.29030738e-03, 3.27243307e-03, 2.87264556e-04,
          0., 9.99987245e-01, 2.83122458e-03, 2.13651976e-04,
          9.75925982e-01, 9.87059474e-01, 9.99092817e-01, 4.96859383e-03,
          8.06471216e-05, 9.99774396e-01, 9.79600996e-02, 5.06013684e-08,
          9.87433016e-01, 7.70988336e-05, 1.49066575e-04, 5.28949158e-07,
          9.99309182e-01, 4.88054812e-01, 1.10972780e-06, 9.99565542e-01,
          9.99993682e-01, 9.93315518e-01, 3.15252930e-01, 9.99997854e-01,
          7.55322631e-04, 1.79370735e-02, 2.77711442e-05, 2.16703964e-04,
          2.50722221e-11, 9.96472657e-01, 8.83637011e-01, 5.12280967e-05,
          1.31994516e-01, 4.95965295e-02, 1.94006898e-05, 8.87861010e-03,
          5.15487898e-07, 2.29999041e-05, 9.99446213e-01, 4.64439532e-03,
          9.99978423e-01, 4.96059947e-04, 1., 9.99980688e-01,
          2.92390361e-08, 2.18747766e-03, 3.17432672e-01, 1.,
          9.99999881e-01, 1.09381380e-03, 8.15377891e-01, 9.98507798e-01,
          5.64456219e-04, 2.08165627e-02, 2.78308727e-02, 9.99999881e-01,
          4.71993804e-01, 9.99661803e-01, 9.96695482e-04, 9.99984503e-01,
          9.05264974e-01, 4.84870486e-02, 1.03871907e-05, 7.80557282e-04,
          9.90199864e-01, 1.53477458e-06, 8.83802712e-01, 7.57981150e-04,
          9.99913096e-01, 9.99998212e-01, 9.99951243e-01, 7.55685151e-01,
          4.09165882e-02, 9.99991298e-01, 2.48631998e-03, 9.99930859e-01,
          9.99960542e-01, 2.05552712e-01, 9.98600781e-01, 1.83168370e-02,
          2.99748906e-04, 3.44508924e-02, 2.78614061e-06, 1.29695907e-01,
          3.31629162e-05, 2.09276652e-04, 2.13206545e-06, 9.98737395e-01,
          5.42123318e-01, 1.43175444e-03, 9.99973297e-01, 1.55645357e-05,
          9.79106665e-01, 1.92632719e-08, 9.99991059e-01, 9.99609768e-01,
          1.08106628e-01, 9.97458041e-01, 2.79068854e-03, 9.78953004e-01,
          9.99855638e-01, 1.29672259e-01, 5.49950480e-01, 9.99879122e-01,
          1., 2.81849643e-03, 1., 6.78805485e-02 ]
      - [ 9.46231893e-09, 9.99544322e-01, 1.99624939e-09, 0.,
          1.94925143e-09, 9.98714977e-09, 1., 9.99997139e-01, 1., 1.,
          2.14153079e-06, 1., 1.25259876e-01, 4.08598893e-12, 1.,
          2.93217367e-04, 4.81776752e-09, 1.52659148e-03, 9.87606466e-01,
          8.83083601e-07, 1.29174232e-16, 9.99965191e-01, 1.41428187e-01,
          5.54017552e-12, 8.85571718e-01, 2.04993376e-06, 1.,
          9.99615908e-01, 3.95334850e-04, 9.99998093e-01, 9.99999642e-01,
          6.77932940e-06, 9.99994278e-01, 5.11772048e-12, 3.49257425e-06,
          9.00771724e-08, 9.99978900e-01, 2.01840658e-06, 2.83214622e-19,
          9.99999642e-01, 7.13803293e-03, 3.12857878e-12, 7.61471438e-06,
          1., 5.28075034e-05, 3.46751725e-11, 2.54849255e-07,
          3.29547860e-02, 1.96579406e-16, 9.99987602e-01, 1.,
          5.44727641e-07, 2.71980460e-09, 9.98078108e-01, 1.64650044e-10,
          3.18800986e-08, 3.18357168e-04, 1.48342797e-05, 1.,
          9.91983354e-01, 9.99999642e-01, 6.90971327e-04, 1., 1.,
          3.02281427e-14, 9.99952793e-01, 9.99998808e-01, 1., 1.,
          5.49218548e-13, 9.97811913e-01, 9.98513520e-01, 3.00019350e-11,
          1.60045561e-13, 4.97648323e-14, 1., 9.32715893e-01,
          9.69285667e-01, 5.85916081e-13, 1., 1., 2.52123087e-08,
          1.38865334e-15, 2.10170620e-05, 9.99998450e-01, 2.18365030e-15,
          9.17262018e-01, 3.94828614e-11, 1., 1., 1., 9.99232292e-01,
          3.26745867e-05, 9.99999881e-01, 9.83225107e-01, 2.20929887e-05,
          1., 2.35203523e-09, 1., 5.40918836e-06, 9.98092473e-01,
          3.38561367e-03, 9.19143509e-16, 2.52331006e-06, 6.49758192e-10,
          9.75659907e-01, 2.65839830e-08, 9.99990821e-01, 9.99999881e-01,
          7.99765199e-10, 9.99978900e-01, 3.93822120e-06, 9.99998331e-01,
          2.83976351e-05, 9.99998569e-01, 9.99983311e-01, 1.72203858e-04,
          9.99998689e-01, 4.12218690e-01, 9.99999881e-01, 9.98081088e-01,
          1., 8.58742557e-03, 1., 9.99999881e-01, 9.84203458e-01,
          9.99998808e-01, 8.38691250e-08 ]
      - [ 4.39095777e-04, 1., 3.39989945e-14, 1.83441163e-15,
          5.94594894e-05, 4.89205607e-14, 1., 1., 9.99920607e-01,
          7.07196072e-02, 2.92683631e-04, 1., 9.99848723e-01,
          8.74237594e-06, 9.99998689e-01, 1.70089015e-06, 1.51668567e-10,
          2.28715644e-10, 6.96615160e-01, 3.02520985e-20, 1.81396100e-25,
          1., 1.47141386e-02, 1.05521144e-06, 1., 9.98676956e-01, 1.,
          2.17363024e-07, 9.99999881e-01, 1., 1., 7.76844672e-07, 1.,
          2.11086132e-07, 5.76492224e-04, 1.01715370e-18, 9.99951363e-01,
          4.47919832e-13, 3.81414454e-19, 1., 9.99626994e-01,
          4.83701124e-09, 1.71034673e-10, 9.99817431e-01, 1.62777847e-09,
          1.99313303e-13, 1.89924926e-01, 2.94923495e-07, 8.15421410e-22,
          9.58994448e-08, 1., 1.32189780e-05, 2.48053068e-21,
          1.97213903e-05, 2.04665615e-19, 1.23273028e-13, 1.34019639e-15,
          1.00833415e-06, 1., 1.13256571e-10, 1., 1., 1., 1.,
          6.32888598e-13, 7.18930662e-01, 9.99744713e-01, 1.,
          1.17893964e-01, 4.42137510e-14, 1., 9.99493837e-01,
          1.95386866e-03, 5.18028410e-14, 3.16400173e-09, 1.,
          3.93366062e-10, 9.88579929e-01, 8.32003737e-13, 1., 1.,
          1.04928820e-03, 0., 1.38630298e-06, 9.99999881e-01,
          2.06044085e-14, 9.99999762e-01, 1.17380750e-09, 1., 1.,
          9.99999404e-01, 1., 7.22648802e-14, 1., 1., 7.11718481e-03, 1.,
          3.35543988e-11, 9.95437562e-01, 1., 6.21913641e-05,
          2.04886574e-09, 8.31474960e-02, 7.82579390e-10, 7.73364904e-17,
          1.41829650e-08, 3.88038657e-10, 1., 6.17748732e-03,
          1.72235531e-07, 9.98760223e-01, 2.16142748e-08, 1.,
          5.28220937e-07, 1., 1., 1., 1., 9.97733593e-01, 1., 1., 1.,
          9.34428722e-03, 9.99999166e-01, 1., 5.82722239e-12, 1.,
          7.02772476e-12 ]
      - [ 9.74065483e-01, 9.99998927e-01, 5.43992273e-09, 1.39811990e-11,
          5.15881367e-02, 2.15840842e-07, 9.99131978e-01, 1.,
          1.96865365e-01, 9.97338474e-01, 8.31630431e-10, 9.99997258e-01,
          1., 3.33614665e-08, 1., 4.21016999e-09, 6.97261582e-10,
          2.64978165e-12, 7.51772505e-13, 7.37380290e-09, 4.60052393e-16,
          9.25469398e-02, 4.56631591e-04, 4.68561936e-08, 1.,
          9.50283110e-01, 1., 9.52072084e-01, 9.58963037e-01, 1.,
          9.99999166e-01, 4.83565499e-09, 9.99198020e-01, 4.74254222e-04,
          5.00546049e-10, 3.93549708e-04, 3.00031679e-04, 1.93915953e-10,
          1.33328697e-07, 9.99999762e-01, 9.90724981e-01, 1.71547015e-06,
          5.49314245e-05, 1., 6.96732894e-09, 6.32886918e-13,
          8.00326616e-02, 4.79773371e-06, 1.03207593e-14, 1., 1.,
          2.39902452e-04, 3.13771259e-10, 8.57991836e-06, 3.60207029e-15,
          0., 2.14589608e-08, 9.99999523e-01, 1., 1.12749208e-02, 1.,
          9.99999046e-01, 1., 1., 5.37381392e-13, 1., 1., 1.,
          1.17341727e-01, 3.02824756e-05, 1., 1., 1.55913860e-08,
          6.45003016e-17, 3.97393757e-10, 1., 2.11100746e-06,
          9.99999762e-01, 8.89783323e-08, 9.99999642e-01, 1.,
          1.02252321e-12, 4.94373098e-10, 7.80422926e-09, 9.99989510e-01,
          2.23100680e-04, 1., 1.30233190e-07, 1., 1., 1., 9.99994993e-01,
          3.85889541e-12, 3.53360288e-02, 1., 9.32980955e-01, 1.,
          7.98996552e-07, 9.99999166e-01, 9.98500362e-03, 2.92592764e-01,
          2.42861009e-11, 1.92792759e-05, 2.54266315e-08, 3.33805271e-12,
          3.62962216e-01, 2.29844455e-09, 9.99995708e-01, 9.94503856e-01,
          1.58420517e-05, 9.99994755e-01, 4.36106873e-14, 9.99906063e-01,
          3.75727890e-04, 3.18210572e-01, 9.99996543e-01, 3.03970426e-02,
          9.99998450e-01, 2.59356981e-04, 1., 9.99886274e-01, 1.,
          2.09214677e-12, 8.25187445e-01, 1., 9.99753654e-01, 1.,
          1.97338836e-13 ]
      - [ 5.37194837e-11, 9.99979019e-01, 5.09185085e-08, 3.70067657e-11,
          1.66891143e-01, 2.62784815e-05, 9.99934196e-01, 9.99956846e-01,
          1., 9.99999285e-01, 5.97302142e-06, 1., 1., 3.78209563e-07, 1.,
          6.10045856e-04, 1.02223481e-12, 1.16369479e-13, 2.76559076e-05,
          2.05180910e-17, 6.61847241e-20, 7.81742565e-04, 1.74734237e-11,
          1.52494173e-09, 1., 2.24625096e-01, 1., 2.02426364e-07,
          9.99011278e-01, 9.99943137e-01, 1., 1.85956292e-14, 1.,
          1.50551321e-04, 9.60660085e-09, 7.46693018e-14, 9.99937773e-01,
          2.63064130e-08, 0., 1., 9.99997497e-01, 6.54788222e-03,
          1.10843638e-02, 1., 1.82115895e-14, 4.32400284e-08,
          2.29603555e-02, 5.87750401e-05, 9.66490004e-14, 9.91969764e-01,
          1., 1.07721739e-01, 2.38228992e-09, 4.65272814e-02,
          7.59952171e-12, 1.65996106e-11, 2.66167319e-16, 1.34036988e-01,
          1., 9.79651153e-01, 1., 8.72870743e-01, 1., 1., 6.37566952e-12,
          9.88478959e-01, 9.99999762e-01, 1., 9.99989271e-01,
          1.37422163e-09, 1., 7.76810059e-03, 6.69584796e-02,
          9.83297384e-12, 1.96403498e-03, 1., 8.40633438e-05,
          8.85046482e-01, 8.15167907e-14, 1., 1., 1.64403317e-11,
          7.91170861e-12, 6.48451390e-08, 9.99746382e-01, 5.88053672e-06,
          9.99998450e-01, 1.41731888e-01, 1., 1., 9.99991179e-01,
          9.99999762e-01, 2.20102724e-04, 5.61560467e-02, 1.,
          9.99919372e-04, 1., 7.50635882e-05, 1., 9.99999404e-01,
          9.99995351e-01, 6.80300399e-11, 2.56090982e-12, 9.34801303e-09,
          7.47568336e-08, 2.00417877e-11, 2.40085064e-04, 9.99996305e-01,
          1.29731610e-01, 8.56575411e-07, 1.16255753e-01, 1.85734317e-01,
          9.99941945e-01, 4.93085794e-10, 5.31488001e-01, 1.,
          7.17596889e-01, 9.97609019e-01, 3.36837210e-02, 1., 1.,
          9.99843240e-01, 4.61375933e-08, 9.99977827e-01, 1.,
          1.19807757e-02, 1., 1.23074582e-08 ]
      - [ 3.35600220e-07, 9.99992967e-01, 2.54786701e-05, 2.62810319e-14,
          9.56184576e-10, 4.39035808e-10, 9.99554932e-01, 1., 1.,
          4.64381516e-01, 2.68853523e-06, 9.99949694e-01, 9.99999642e-01,
          4.86510210e-09, 9.99275029e-01, 6.61807358e-02, 8.54052757e-08,
          1.98472828e-01, 3.36595648e-03, 2.03923087e-10, 0.,
          8.82282495e-01, 9.71427289e-05, 1.07805215e-06, 9.99999881e-01,
          3.79802823e-01, 1., 3.42141464e-02, 9.92397845e-01,
          8.35351586e-01, 9.99660611e-01, 4.53033671e-03, 1.,
          1.94402897e-11, 8.96944758e-03, 1.99455466e-10, 9.98156130e-01,
          5.63966270e-11, 1.58825930e-08, 1., 1.08036686e-04,
          4.36614300e-06, 3.78329679e-03, 9.99986768e-01, 9.62812960e-01,
          7.78822506e-10, 3.56439297e-04, 4.55698937e-05, 7.61385593e-07,
          9.99984264e-01, 9.99999881e-01, 6.07560039e-01, 1.50323710e-15,
          2.69780458e-07, 1.38722256e-10, 7.79762946e-14, 1.21028272e-04,
          3.76211144e-02, 1., 9.74790335e-01, 1., 9.99997616e-01, 1., 1.,
          6.07046900e-07, 9.99792516e-01, 1., 1., 9.99997735e-01,
          1.35118967e-07, 9.99999762e-01, 9.99983668e-01, 2.48830734e-10,
          8.53886493e-12, 7.86648038e-11, 1., 7.52710644e-03,
          9.99968410e-01, 7.62583627e-14, 1., 9.99999642e-01,
          1.76292081e-09, 4.22623404e-15, 9.86063182e-01, 9.99996424e-01,
          1.88741960e-05, 9.94527161e-01, 9.60319291e-09, 1., 1., 1.,
          9.99468267e-01, 4.85573983e-05, 7.30478644e-01, 1.,
          9.54409415e-07, 1., 4.86258868e-05, 1., 9.46290791e-02,
          9.95453715e-01, 6.10789936e-03, 8.44879944e-10, 2.82234225e-07,
          3.35166422e-12, 5.24349070e-06, 3.06559168e-03, 9.89363790e-01,
          9.99998331e-01, 1.15450183e-08, 1., 1.98661312e-02, 1.,
          1.15696602e-02, 9.02502000e-01, 9.99997973e-01, 3.97320017e-02,
          9.75610375e-01, 2.02536490e-02, 1., 2.81895930e-03,
          9.99999523e-01, 9.37149953e-03, 6.54304028e-01, 1.,
          8.30807149e-01, 9.99999404e-01, 4.12669482e-11 ]
      - [ 2.69433349e-05, 9.99027729e-01, 3.30872106e-04, 2.93825429e-14,
          9.95595276e-01, 8.93248031e-10, 1., 9.99596417e-01,
          9.99901533e-01, 4.10705153e-03, 3.60860419e-03, 9.99999881e-01,
          6.23751044e-01, 3.67625364e-13, 9.99930739e-01, 1.33699054e-04,
          1.38039372e-11, 6.59483845e-08, 1.54236397e-02, 5.42764584e-14,
          3.75468902e-14, 9.99999881e-01, 4.46348538e-04, 3.32808721e-16,
          9.99835849e-01, 8.46034454e-05, 9.99999642e-01, 1.45110598e-05,
          3.55355889e-02, 6.92142421e-05, 8.29134881e-01, 1.05208201e-05,
          1., 2.95337168e-06, 2.31967050e-11, 0., 9.99999642e-01,
          2.00961325e-02, 4.50847262e-16, 9.99978185e-01, 4.29310948e-02,
          4.34124529e-01, 9.99997020e-01, 1., 9.99889851e-01,
          6.08765038e-09, 8.58215988e-01, 6.79827499e-05, 2.17917234e-14,
          2.21937822e-04, 9.99989629e-01, 9.99706805e-01, 1.37585648e-05,
          9.87298667e-01, 1.01787021e-13, 1.44033882e-10, 5.65968875e-13,
          3.09608015e-03, 1., 6.30036928e-03, 9.78050053e-01,
          9.99966264e-01, 1., 1., 7.42895789e-09, 9.98495817e-01,
          9.74831437e-06, 1., 9.99855757e-01, 9.98525647e-04,
          9.99999166e-01, 9.99410152e-01, 3.22686173e-02, 2.37908499e-12,
          1.59133505e-02, 1., 9.91309166e-01, 9.98194516e-01,
          4.88093385e-14, 9.99996662e-01, 1., 9.99994040e-01,
          6.94295598e-19, 9.54355706e-09, 1., 5.37952454e-14,
          2.02403918e-01, 1.49215449e-11, 1., 1., 9.93838251e-01,
          9.90623176e-01, 9.98659015e-01, 9.99974728e-01, 9.99994516e-01,
          8.67363751e-01, 1., 3.10985924e-05, 1., 1.62112716e-04,
          9.99999881e-01, 3.02399403e-05, 3.70430466e-12, 6.28073351e-04,
          1.71971699e-08, 9.37369623e-05, 1.78068445e-11, 9.99997735e-01,
          6.82117930e-03, 3.12004850e-05, 1., 2.89711625e-05, 1.,
          2.01941431e-01, 9.99950290e-01, 9.99993086e-01, 4.62232949e-03,
          1., 5.87891698e-01, 9.99961376e-01, 1., 1., 7.74984717e-01,
          9.99609053e-01, 1., 2.58808018e-06, 9.99972224e-01,
          1.24511993e-04 ]
      - [ 3.07507471e-05, 2.38670566e-07, 4.52244882e-12, 6.40644829e-12,
          1.48507897e-04, 1.36844620e-01, 1., 1.47342142e-02,
          9.96945441e-01, 5.74037790e-01, 2.04001950e-07, 1., 1.,
          1.70211032e-01, 1., 1.39203470e-03, 4.03185929e-08,
          7.78077662e-01, 1.57996380e-10, 1.80574807e-13, 0.,
          9.99999046e-01, 9.99999881e-01, 8.54425728e-01, 9.99999881e-01,
          5.60136616e-01, 1., 5.34833713e-15, 9.99453962e-01,
          9.37650038e-04, 2.50986486e-05, 4.92451413e-10, 1.,
          4.99914776e-09, 9.98442113e-01, 3.27067795e-08, 9.98907089e-01,
          4.10657641e-08, 1.39756889e-15, 1., 1.90026611e-02,
          6.19430244e-02, 9.73195314e-01, 1., 2.07416111e-08,
          1.82685247e-13, 3.17979266e-06, 5.46705490e-03, 8.51634983e-16,
          1., 9.99998331e-01, 4.33766616e-07, 6.32348582e-02,
          2.43283301e-12, 5.33603550e-10, 8.74680495e-10, 4.62668901e-03,
          3.09214460e-10, 2.62416271e-03, 3.26660739e-07, 9.99093294e-01,
          1.06030442e-02, 1., 1., 1.26961942e-17, 4.05744510e-03, 1., 1.,
          9.99785721e-01, 5.12690935e-03, 9.99822557e-01, 5.91218293e-01,
          3.78256226e-09, 3.45057779e-05, 1.23420507e-02, 1.,
          5.52108824e-01, 9.99966264e-01, 4.16530255e-10, 1.,
          9.03390050e-01, 5.04967193e-06, 1.81601918e-16, 5.44566392e-05,
          1., 3.40226535e-07, 1., 6.56446630e-09, 1., 9.99998212e-01, 1.,
          1., 4.20697376e-07, 6.44827366e-01, 8.58755335e-02,
          9.99958873e-01, 1., 3.24122986e-04, 9.99986291e-01, 1.,
          6.64032064e-04, 9.99578416e-01, 1.03311805e-07, 4.48665349e-04,
          7.78282502e-15, 1.32318465e-02, 1.84687238e-10, 1.,
          9.99999881e-01, 3.22154301e-05, 9.54200685e-01, 9.11924057e-15,
          9.63701254e-12, 7.59244845e-09, 1., 1., 5.28984927e-02,
          9.99994159e-01, 1., 1., 9.99987245e-01, 9.99994397e-01,
          5.77408062e-14, 9.68678445e-02, 1., 1.81834225e-03,
          9.99999881e-01, 4.20410361e-05 ]
      - [ 2.14164575e-05, 1.51953648e-03, 1.65450983e-05, 1.10564356e-13,
          9.83103871e-01, 9.42705114e-08, 9.99935985e-01, 9.99999046e-01,
          9.98299897e-01, 5.95453501e-01, 1.98013713e-05, 9.25836384e-01,
          9.99933720e-01, 1.51378458e-07, 1., 5.74803062e-06,
          2.84511737e-12, 6.98173892e-08, 7.97656583e-07, 2.16881290e-06,
          0., 4.37300563e-01, 1.05657063e-12, 1.74393247e-08,
          9.99998093e-01, 9.83033001e-01, 1., 2.74422920e-08,
          9.99970675e-01, 9.99516964e-01, 9.99121249e-01, 6.28879368e-01,
          1., 8.05756156e-11, 1.43281315e-02, 9.97765284e-08,
          9.99905705e-01, 1.55068540e-06, 2.59706173e-10, 1.,
          4.85228896e-01, 4.80651710e-04, 8.57507454e-10, 9.99631763e-01,
          7.70725023e-07, 1.05237184e-07, 6.36543572e-01, 2.07236184e-08,
          1.08299653e-15, 4.59037372e-04, 1., 9.99928594e-01,
          1.43834713e-08, 1.45213463e-07, 2.21060468e-08, 1.88308413e-09,
          1.89032929e-03, 4.14558388e-02, 9.92794693e-01, 8.17095369e-08,
          8.98399651e-01, 9.99990702e-01, 9.99969125e-01, 1.,
          1.27168596e-06, 9.99703944e-01, 1., 1., 9.12846148e-01,
          6.41571241e-10, 1., 9.99999166e-01, 6.45568594e-03,
          4.18619805e-08, 1.37652992e-03, 9.99999523e-01, 1.81762662e-04,
          9.99987245e-01, 4.44617870e-10, 1., 9.99990702e-01,
          1.56484293e-06, 1.66709771e-10, 2.86805583e-03, 2.62926278e-06,
          6.61679451e-06, 4.26730812e-01, 9.42322552e-01, 1., 1.,
          9.97023165e-01, 1., 1.34078473e-05, 1.89411896e-03,
          9.99926448e-01, 9.99919176e-01, 1., 9.94168106e-04, 1.,
          4.72345948e-01, 9.99514580e-01, 5.88409364e-07, 1.40104577e-08,
          1.87306753e-10, 5.97846046e-13, 1.06946249e-02, 1.09561608e-06,
          9.99964833e-01, 9.99996305e-01, 1.76358793e-04, 9.99854326e-01,
          1.15894017e-09, 9.99997735e-01, 7.61827528e-01, 1., 1.,
          9.98416305e-01, 9.99943376e-01, 9.99979973e-01, 8.31232667e-01,
          1., 9.99997020e-01, 9.99995589e-01, 8.51134100e-05, 1.,
          1.46645564e-03, 1., 7.47483853e-09 ]
      - [ 4.66655672e-11, 8.03550184e-01, 5.61390777e-07, 7.59553220e-09,
          2.06567456e-05, 1.63546974e-06, 9.66234267e-01, 1.,
          9.96096790e-01, 1., 7.72436781e-10, 1., 9.99998689e-01,
          1.22662771e-13, 9.05380070e-01, 2.01053233e-04, 0.,
          5.82570504e-13, 1.08604024e-06, 1.23396360e-08, 9.38140787e-10,
          1.71349436e-01, 2.63628795e-06, 1.73256507e-14, 1.,
          2.29753577e-03, 1., 9.79384422e-01, 9.99978542e-01, 1., 1.,
          8.21041102e-09, 2.14818738e-05, 3.61160608e-03, 4.07857526e-10,
          6.45473312e-13, 1., 3.52484363e-07, 4.44520393e-11, 1.,
          2.09438745e-02, 8.93364251e-01, 2.01938264e-02, 9.98323381e-01,
          1.22461947e-12, 8.05773670e-09, 1.10490950e-08, 4.01008362e-03,
          6.85189861e-13, 9.99985695e-01, 9.99994397e-01, 3.04754321e-02,
          2.66495999e-03, 7.83512041e-06, 3.67426134e-09, 7.66770157e-04,
          9.00013752e-09, 1.62655246e-02, 1., 8.58206204e-06, 1.,
          3.44922721e-01, 1., 9.81451035e-01, 6.51834796e-07, 1., 1., 1.,
          9.99999285e-01, 2.15237783e-09, 8.74909222e-01, 9.75921005e-03,
          2.20548077e-06, 1.51078780e-06, 1.46819147e-07, 9.99963284e-01,
          2.53606981e-06, 1.86350808e-04, 9.52619016e-01, 1., 1.,
          6.71862881e-06, 3.71745765e-01, 1.20970339e-01, 3.26448368e-10,
          1.48851686e-04, 3.03919632e-02, 1.38594078e-06, 1., 1., 1., 1.,
          1.31506013e-05, 9.99967456e-01, 9.99263823e-01, 2.80326162e-07,
          9.99999881e-01, 1.24697948e-07, 9.94472563e-01, 1.23997508e-02,
          9.80806470e-01, 3.03616616e-07, 1.59917338e-12, 1.,
          5.93091071e-01, 1.28023745e-02, 2.02880218e-03, 9.99798477e-01,
          4.80383746e-02, 1.90905644e-06, 9.90609467e-01, 7.94699133e-07,
          1., 2.46235728e-01, 9.99711573e-01, 9.98310804e-01,
          6.49500072e-01, 9.94117856e-01, 1.57968044e-01, 9.99515176e-01,
          1., 1., 1.72706842e-02, 9.99999881e-01, 9.99992371e-01,
          9.99996543e-01, 1., 9.99867797e-01 ]
      - [ 1.14497004e-06, 3.58832747e-01, 1.79555070e-06, 5.59873029e-17,
          9.02240158e-11, 3.17807076e-06, 9.99999642e-01, 1.,
          9.99964595e-01, 1., 3.92199667e-07, 1., 5.44583678e-01,
          4.52468463e-08, 1., 1.06895612e-04, 4.53766968e-10,
          1.87531498e-07, 7.34353787e-04, 5.12062106e-04, 3.27053662e-12,
          2.42511779e-02, 1.94234940e-06, 4.60626353e-07, 1.,
          1.61429052e-05, 1., 2.55568288e-02, 7.64710546e-01, 1., 1.,
          2.49577710e-08, 9.99998331e-01, 2.58976217e-13, 5.39805114e-01,
          2.24017117e-06, 2.87699163e-01, 2.91573124e-05, 5.55000815e-13,
          1., 4.75454330e-01, 1.53112047e-14, 8.40725534e-06, 1.,
          2.79393682e-14, 7.73924302e-09, 5.18096822e-05, 6.09254926e-07,
          0., 9.99984264e-01, 1., 2.25607981e-03, 7.61413844e-07,
          2.84162024e-03, 7.00782152e-08, 8.55030699e-11, 6.97192470e-10,
          8.93256511e-05, 1., 9.99082446e-01, 9.99999881e-01,
          8.59931469e-01, 9.94568825e-01, 1., 7.43153369e-12,
          9.99997973e-01, 1., 1., 1., 1.23015501e-10, 1., 9.99966979e-01,
          6.26431756e-06, 2.60142250e-13, 2.69100742e-08, 1.,
          6.48620546e-01, 9.93730545e-01, 2.94546817e-11, 1., 1.,
          1.81544742e-12, 9.63944202e-12, 9.71891344e-01, 9.95900571e-01,
          2.19656408e-06, 9.99806345e-01, 1.87677233e-05, 9.99969482e-01,
          1., 1., 9.99974966e-01, 1.05063329e-02, 7.46403396e-01,
          9.99587119e-01, 3.42421919e-01, 1., 5.57213809e-07, 1.,
          9.16911568e-03, 9.97909963e-01, 2.68986291e-08, 7.49705853e-11,
          1.96928140e-09, 1.38989629e-08, 2.98082625e-04, 8.67900322e-04,
          9.99980688e-01, 1., 1.51079433e-08, 6.98100626e-02,
          1.23434507e-08, 9.22271311e-01, 1.55325816e-03, 1., 1.,
          9.99353349e-01, 8.73297453e-02, 5.65782964e-01, 9.98418331e-01,
          9.99979734e-01, 1., 9.99119461e-01, 9.99301553e-01, 1.,
          2.87849661e-02, 1., 4.14179085e-04 ]
      - [ 1.03706418e-06, 9.99867320e-01, 2.84302512e-11, 0.,
          5.38337268e-08, 6.00643868e-10, 1., 9.99998093e-01, 1., 1.,
          6.61706451e-07, 1., 3.68571072e-03, 8.30712570e-19, 1.,
          7.81648385e-04, 1.48606831e-14, 1.74995343e-08, 4.56397934e-03,
          3.96408514e-12, 1.27158114e-23, 1., 2.23591134e-01,
          5.21742385e-16, 9.05279994e-01, 1.20759330e-04, 1.,
          9.99808967e-01, 5.92402997e-04, 1., 1., 1.66935752e-06, 1.,
          3.63613321e-14, 2.76814942e-11, 1.88829022e-11, 1.,
          1.15201279e-10, 6.57450562e-23, 1., 9.54476309e-06,
          8.85042300e-12, 1.71147590e-03, 1., 1.09993721e-07,
          9.68036957e-14, 1.47903805e-07, 1.57081281e-08, 1.43062082e-20,
          9.99999642e-01, 1., 3.82644677e-04, 1.80068530e-11,
          9.73775089e-01, 3.73872104e-17, 1.46590476e-12, 6.17530986e-07,
          1.84652016e-10, 1., 2.05813149e-06, 1., 2.77184602e-03, 1., 1.,
          2.67263930e-20, 9.99902844e-01, 9.99995828e-01, 1., 1.,
          7.54306207e-19, 9.99999404e-01, 9.99540687e-01, 2.39613396e-13,
          2.10972706e-16, 1.76671580e-15, 1., 1.02771133e-01,
          8.59411895e-01, 1.46480836e-13, 1., 1., 6.72461878e-11,
          1.11043207e-19, 2.40777786e-06, 9.99992728e-01, 5.21667263e-14,
          9.82249141e-01, 2.88451480e-15, 1., 1., 1., 9.99996185e-01,
          1.58094883e-06, 1., 9.95537877e-01, 3.83938197e-03, 1.,
          5.73606762e-09, 1., 7.94980733e-04, 9.99999881e-01,
          3.68504652e-06, 6.93744748e-21, 4.88596488e-05, 9.85111770e-10,
          6.27960205e-01, 9.72887135e-13, 1., 1., 4.35581216e-09,
          9.99999881e-01, 3.03201881e-14, 1., 7.60429975e-05, 1.,
          4.75802273e-01, 1.39865355e-08, 9.99990344e-01, 8.88472557e-01,
          1., 9.99945402e-01, 1., 2.19086325e-03, 9.99537349e-01, 1.,
          9.99873042e-01, 9.99999404e-01, 5.11411524e-10 ]
      - [ 8.75056565e-01, 9.99876380e-01, 1.12832025e-01, 5.83450892e-05,
          9.96194601e-01, 1.63173616e-01, 9.98049974e-01, 9.94830787e-01,
          9.70389783e-01, 8.61426711e-01, 7.04702397e-04, 5.33562064e-01,
          9.99600589e-01, 2.76775174e-02, 9.33500350e-01, 1.06614335e-02,
          8.76361639e-07, 1.96221396e-01, 8.25244701e-04, 1.79381532e-05,
          1.09466427e-08, 9.98545051e-01, 5.18779969e-04, 9.58287783e-05,
          9.99622107e-01, 9.70323477e-03, 9.98971701e-01, 5.38959214e-03,
          9.86443937e-01, 1.71555132e-02, 9.99966979e-01, 5.67341514e-04,
          9.99958038e-01, 7.92139173e-01, 3.21808766e-04, 2.71482626e-04,
          1.96143970e-01, 1.72807439e-03, 0., 9.99823749e-01,
          1.04073742e-02, 6.19711459e-01, 8.69333446e-01, 9.95421708e-01,
          1.14844181e-03, 3.57154123e-02, 9.18736696e-01, 2.45410247e-05,
          5.90962730e-03, 1.69892743e-01, 9.99930501e-01, 6.85353935e-01,
          1.14940451e-06, 2.01786007e-03, 9.69224493e-06, 7.20553799e-04,
          3.41063387e-05, 1.00655437e-01, 9.99984622e-01, 1.38974085e-01,
          4.49202329e-01, 9.37324703e-01, 1., 9.99956727e-01,
          2.12539497e-04, 8.78350675e-01, 5.00872284e-02, 9.99035597e-01,
          9.55753028e-01, 4.43456113e-01, 9.99740422e-01, 9.93938684e-01,
          9.78970435e-03, 1.52895987e-01, 2.59671488e-05, 9.99890566e-01,
          4.60020080e-02, 9.80509400e-01, 1.80191115e-08, 9.99920368e-01,
          9.89339650e-01, 2.90059717e-04, 1.88809773e-03, 7.15184808e-01,
          9.99999404e-01, 2.22338043e-04, 9.61048305e-01, 1.03040563e-08,
          9.57560480e-01, 9.86508489e-01, 6.00853443e-01, 9.99435008e-01,
          2.44211867e-01, 9.93553519e-01, 9.98846292e-01, 1.95247820e-04,
          9.99896169e-01, 2.83589035e-01, 9.99982953e-01, 5.90372086e-01,
          6.57049239e-01, 2.15215292e-02, 9.17343080e-01, 1.57855898e-02,
          1.74494204e-03, 7.25602582e-02, 6.39915699e-04, 9.80038226e-01,
          3.24500114e-01, 5.27635254e-02, 9.98486757e-01, 7.84144819e-01,
          9.99998212e-01, 4.61656600e-02, 9.99977827e-01, 8.95255923e-01,
          1.57127925e-03, 9.99835014e-01, 2.09531486e-02, 9.99999642e-01,
          9.29694355e-01, 9.97899771e-01, 1.30136288e-03, 2.25085244e-01,
          9.99896049e-01, 9.80545759e-01, 9.98357952e-01, 8.34431674e-04 ]
      - [ 1.80751961e-02, 1.29215159e-02, 1.76101661e-04, 6.67757092e-07,
          5.59273303e-06, 3.07307839e-02, 9.91749942e-01, 7.72373402e-04,
          9.62566793e-01, 9.77371573e-01, 3.10360231e-02, 9.96968329e-01,
          9.99999166e-01, 4.23675496e-03, 9.98094141e-01, 1.13445528e-01,
          1.77113321e-02, 9.16861594e-01, 1.65817997e-04, 2.72249449e-02,
          0., 4.10277992e-01, 5.58885932e-01, 7.95659609e-04,
          9.99370992e-01, 1.60011905e-03, 9.99562681e-01, 1.61100496e-02,
          9.99986649e-01, 9.04811621e-01, 1., 3.22414823e-02,
          9.99057949e-01, 6.68557966e-03, 9.98433053e-01, 2.07532081e-04,
          9.99796689e-01, 4.08718288e-01, 2.81404346e-06, 9.98720407e-01,
          1.94813479e-02, 4.71053362e-01, 1.27160236e-01, 9.99479949e-01,
          2.80348450e-01, 7.69729195e-06, 8.65149498e-01, 4.79653914e-04,
          3.67226861e-02, 1.25244923e-03, 8.41476023e-01, 1.05949258e-02,
          5.88958245e-03, 1.85642671e-02, 9.88007307e-01, 2.51951377e-07,
          2.49917572e-03, 3.56810927e-01, 9.99787509e-01, 3.16360360e-03,
          9.92006600e-01, 9.98620272e-01, 9.99997616e-01, 9.99992847e-01,
          9.99971628e-01, 9.56907809e-01, 9.99995589e-01, 9.00336325e-01,
          9.80575979e-01, 7.80009606e-04, 3.02419960e-01, 9.44615543e-01,
          6.27845247e-06, 5.99024724e-03, 1.14129528e-01, 9.99999762e-01,
          2.92594079e-02, 9.96094525e-01, 2.50478537e-04, 9.96571898e-01,
          9.96324301e-01, 5.35957806e-05, 7.24459626e-03, 2.63933535e-03,
          9.97949183e-01, 2.81545624e-07, 9.99842405e-01, 5.12152170e-08,
          9.87034261e-01, 7.71586895e-01, 9.99359787e-01, 9.73455846e-01,
          9.17920023e-02, 1.29737527e-04, 3.90947302e-04, 2.49529183e-01,
          9.99953985e-01, 2.63751735e-05, 1.12779960e-02, 1.64340036e-05,
          9.92122054e-01, 9.98508111e-02, 1.59825962e-02, 9.99926805e-01,
          1.27464458e-02, 9.99300122e-01, 1.11855725e-05, 3.18458587e-01,
          9.68739510e-01, 4.76166406e-07, 9.50058699e-01, 2.57002842e-03,
          9.99383450e-01, 1.99942552e-02, 9.99733388e-01, 9.98793602e-01,
          9.08762038e-01, 9.98147130e-01, 4.04765904e-02, 9.99674559e-01,
          9.97988939e-01, 9.99648809e-01, 5.82785428e-01, 7.62028158e-01,
          9.96066391e-01, 1.39178167e-06, 9.99991298e-01, 9.63573873e-01 ]
      - [ 5.92068911e-01, 9.99996781e-01, 5.51668045e-09, 2.67526463e-14,
          9.14122105e-01, 4.26238045e-10, 1., 1., 9.99993563e-01,
          9.99997139e-01, 6.91407144e-01, 9.99999881e-01, 9.99998689e-01,
          4.64472194e-09, 9.99995112e-01, 9.83041883e-01, 2.60936682e-14,
          7.59929844e-06, 1.16982896e-07, 8.14144201e-08, 0., 1.,
          6.57970726e-01, 7.22337121e-11, 9.99999762e-01, 2.18093880e-02,
          1., 1.82975799e-01, 9.99997377e-01, 1., 1., 5.49563811e-06,
          9.99974728e-01, 2.53610287e-05, 4.33105706e-05, 1.12720826e-10,
          9.99996305e-01, 4.79342255e-09, 1.29959004e-11, 9.99999881e-01,
          4.35250215e-02, 6.04399975e-06, 2.21863303e-07, 9.99993443e-01,
          1.10946398e-03, 2.00383397e-06, 9.64259923e-01, 3.63145312e-11,
          3.62763950e-14, 1.24870394e-05, 1., 9.99928832e-01,
          3.57447266e-10, 3.62889539e-03, 8.42985404e-13, 1.75540641e-11,
          1.13577929e-08, 2.48484244e-03, 1., 1.66651914e-10, 1.,
          9.99641299e-01, 1., 1., 3.00625543e-04, 9.99827087e-01, 1., 1.,
          5.11345506e-01, 1.58984359e-09, 9.99966860e-01, 1.,
          1.47945447e-12, 4.57300700e-07, 4.15173729e-11, 1.,
          2.85920805e-07, 9.99945521e-01, 3.04871302e-11, 9.99790490e-01,
          1., 5.99908239e-14, 2.23570898e-10, 7.18680322e-01,
          9.96287346e-01, 1.09837750e-07, 1., 3.87083965e-05, 1., 1., 1.,
          1., 5.12436316e-08, 1., 1., 3.48541290e-02, 1., 1.96305336e-08,
          1., 1.60431125e-06, 9.99999523e-01, 3.80810334e-08,
          6.37869744e-05, 9.97056961e-01, 3.93830822e-04, 1.17255934e-06,
          3.11835735e-13, 9.99999523e-01, 9.86983180e-01, 2.50537333e-08,
          9.99906778e-01, 1.89265669e-11, 1., 8.79294646e-08,
          9.62622285e-01, 2.14882754e-02, 6.40290022e-01, 9.99999881e-01,
          6.86361909e-06, 1., 1., 1., 2.04152406e-09, 9.95364428e-01,
          9.99999881e-01, 9.88653719e-01, 1., 8.14271402e-07 ]
      - [ 7.91641810e-08, 9.98814821e-01, 2.50901309e-07, 2.24727450e-13,
          6.98280710e-05, 6.19397061e-18, 9.99863625e-01, 9.99999881e-01,
          1., 9.86589313e-01, 1.63493969e-05, 9.99971151e-01, 1.,
          1.56999039e-10, 9.98963952e-01, 4.08187439e-09, 8.40325876e-16,
          4.60095073e-10, 3.73467738e-05, 1.35159751e-14, 0.,
          9.99944210e-01, 5.76189096e-09, 4.13736340e-16, 9.99999642e-01,
          9.98902321e-01, 9.99999642e-01, 3.02661091e-10, 9.99999642e-01,
          8.84025097e-01, 1., 1.32869033e-03, 9.99999762e-01,
          2.66178724e-12, 1.45179953e-07, 4.04721829e-14, 1.,
          2.57702063e-12, 2.21687648e-14, 1., 1.38023836e-07,
          4.00822000e-06, 2.11087942e-01, 2.88507529e-02, 5.20142696e-12,
          2.80040324e-09, 7.05711354e-05, 1.96675228e-12, 1.31300068e-13,
          9.99999881e-01, 1., 4.71593876e-06, 5.28799010e-14,
          1.14428795e-08, 2.37433424e-12, 4.07643022e-08, 2.53396154e-13,
          1.13622612e-07, 9.99999881e-01, 6.21645384e-08, 1., 1., 1., 1.,
          3.15360099e-10, 1.20378397e-01, 1., 1., 9.99999046e-01,
          6.71562686e-13, 1., 9.93349731e-01, 2.62456723e-08,
          8.26521696e-09, 2.23610801e-08, 9.99988079e-01, 1.92727416e-08,
          9.41144764e-01, 5.55476922e-15, 1., 1., 5.76746757e-08,
          3.13243771e-11, 5.92780173e-01, 1.01285949e-02, 4.36262404e-08,
          3.94096449e-02, 1.45860449e-10, 1., 1., 9.99999881e-01, 1.,
          1.22733421e-13, 1., 1., 1.26261194e-03, 1., 7.67622655e-03, 1.,
          3.35917779e-04, 9.99998093e-01, 1.13055194e-05, 2.85027624e-09,
          3.10512647e-08, 3.50368275e-15, 1.57651550e-12, 1.18817456e-06,
          9.99992967e-01, 9.72771347e-01, 1.37441266e-05, 1.,
          2.19929248e-01, 1., 5.87087050e-02, 9.99999881e-01,
          9.99999642e-01, 3.90267298e-02, 1., 2.26687320e-04, 1.,
          9.99999404e-01, 9.99999046e-01, 4.16639978e-07, 9.99995470e-01,
          1., 2.41453275e-02, 1., 5.56526873e-11 ]
      - [ 6.33200049e-01, 9.86519039e-01, 8.70138521e-08, 2.13931825e-14,
          3.02179542e-04, 8.00508937e-10, 9.99789059e-01, 1., 1.,
          9.95365024e-01, 9.87529987e-08, 9.99061048e-01, 9.87270236e-01,
          5.06274810e-05, 9.99992132e-01, 2.38199522e-08, 6.09800821e-11,
          9.65200707e-06, 1.72110409e-01, 5.60794255e-09, 2.12687451e-10,
          5.53494580e-02, 6.33714944e-06, 5.46276580e-10, 1.,
          9.69483674e-01, 1., 5.92407305e-03, 9.84454751e-01,
          9.99665260e-01, 1., 9.33260651e-08, 1., 1.06270971e-10,
          2.85633184e-10, 7.68588126e-09, 9.99986172e-01, 4.93431518e-10,
          6.22544889e-14, 1., 2.72459838e-05, 9.24226060e-12,
          7.51957297e-01, 1., 5.12428424e-12, 1.00288076e-10,
          5.78031301e-01, 1.30024329e-08, 5.38375073e-15, 1., 1.,
          4.89588858e-09, 2.28368088e-10, 8.67813587e-01, 5.98489933e-05,
          0., 1.45064418e-12, 5.48831522e-01, 1., 9.82608140e-01, 1.,
          9.88762200e-01, 1., 1., 1.41328919e-12, 9.88692880e-01,
          9.99999642e-01, 1., 1., 1.89258935e-06, 1., 9.92672741e-01,
          5.05211029e-09, 1.61925331e-04, 3.74393956e-08, 1.,
          2.49449317e-06, 9.99744594e-01, 9.96483695e-15, 1.,
          9.99899387e-01, 3.57757912e-08, 1.97247513e-12, 6.08169955e-07,
          9.99999881e-01, 1.65526262e-06, 9.99609292e-01, 4.41102529e-05,
          1., 1., 9.99782979e-01, 9.99725878e-01, 7.57409907e-06,
          9.99541283e-01, 9.99999642e-01, 8.63550305e-01, 1.,
          1.74410138e-02, 1., 8.12278628e-01, 9.54061449e-01,
          4.21268282e-07, 4.26877075e-11, 1.17539576e-05, 3.36870896e-12,
          5.40818758e-02, 1.04542373e-07, 9.82780218e-01, 9.99995589e-01,
          3.42922904e-05, 9.99999642e-01, 1.20443210e-05, 1.,
          8.49001527e-01, 1., 1., 6.20977573e-07, 9.99999285e-01,
          9.99999881e-01, 1., 4.09220517e-01, 1., 3.07380041e-08, 1., 1.,
          7.04681908e-04, 1., 8.69246564e-10 ]
      - [ 8.54002646e-10, 9.84305084e-01, 3.35205615e-01, 6.30934346e-06,
          2.26342436e-05, 1.05859918e-10, 9.90517795e-01, 1.,
          6.90159380e-01, 9.20566499e-01, 4.05114628e-02, 8.00070236e-04,
          7.69030809e-01, 3.11074859e-06, 9.24887121e-01, 1.54154259e-11,
          3.51595753e-09, 1.92148160e-04, 9.85645711e-01, 2.52059340e-01,
          6.02443239e-14, 9.99964833e-01, 2.19439722e-12, 4.45137307e-16,
          1., 1.16696078e-02, 1., 1.35969424e-06, 9.78432536e-01,
          9.99999762e-01, 9.19361591e-01, 3.09811381e-04, 9.99999762e-01,
          5.53225814e-13, 3.90822823e-15, 0., 1., 8.35545361e-01,
          1.55138936e-13, 1., 1.29020838e-02, 1., 5.64880557e-02,
          9.49487925e-01, 1.02867118e-04, 7.96654448e-02, 4.25736932e-03,
          1.67992784e-08, 7.76836061e-12, 9.37299847e-05, 9.99996543e-01,
          9.98042822e-01, 2.09106365e-12, 6.66513642e-06, 3.02358842e-07,
          6.84328150e-11, 2.77617346e-05, 1.17839647e-06, 1.,
          1.85413845e-02, 9.99999881e-01, 3.84583458e-04, 1., 1.,
          3.99433014e-10, 7.45965168e-02, 9.99816120e-01, 1., 1.,
          9.37117606e-10, 9.56794083e-01, 9.99781549e-01, 7.16387433e-07,
          3.84929717e-06, 2.55012655e-09, 1., 9.09499942e-09,
          9.92592871e-01, 1.96350260e-13, 1., 9.99468267e-01,
          9.88733768e-01, 3.18037263e-11, 3.84942919e-04, 9.96971130e-01,
          6.98502873e-08, 9.99959469e-01, 1.41826462e-07, 1., 1., 1.,
          9.99999762e-01, 1.21862437e-10, 9.99876261e-01, 1.,
          3.50859523e-01, 9.99984503e-01, 9.99995947e-01, 1.,
          5.50522032e-07, 9.99979854e-01, 1.50630584e-11, 2.38502835e-08,
          4.42788384e-09, 1.47904258e-11, 5.52430324e-09, 4.96893190e-04,
          9.99799430e-01, 9.80614483e-01, 3.30678085e-12, 1.,
          1.22072108e-01, 1., 8.82532656e-01, 9.99999762e-01, 1.,
          1.40163213e-01, 1., 8.34002674e-01, 1., 9.99607623e-01, 1.,
          6.70390182e-06, 1., 1., 9.99819100e-01, 1., 4.17303581e-10 ]
      - [ 6.24016626e-04, 1., 6.54819841e-03, 1.26276390e-07,
          1.43633561e-05, 1.07712981e-06, 9.99994874e-01, 9.99962211e-01,
          9.99842405e-01, 9.99999881e-01, 3.50021764e-07, 9.99730289e-01,
          9.99995708e-01, 1.75002322e-06, 9.99987364e-01, 2.55362336e-02,
          0., 9.97308731e-01, 1.70235609e-04, 2.43021641e-05,
          1.64692288e-11, 2.28516627e-02, 2.83905445e-03, 7.61500530e-07,
          9.99994040e-01, 2.87324548e-01, 9.99987006e-01, 2.43026079e-04,
          9.98078346e-01, 9.96037185e-01, 9.99999881e-01, 1.54363038e-02,
          9.99977946e-01, 4.53677122e-03, 4.71985317e-04, 3.56358569e-03,
          9.99863386e-01, 1.37934065e-11, 1.66984591e-07, 9.99997973e-01,
          5.42502813e-02, 5.34147315e-04, 8.55694700e-04, 9.99995947e-01,
          1.27432322e-08, 4.24209588e-07, 4.29305423e-04, 2.47233344e-04,
          4.49554776e-08, 2.42476631e-02, 9.99991298e-01, 9.79752004e-01,
          1.66371827e-09, 3.82010758e-01, 2.78553507e-05, 1.12147788e-02,
          2.65505768e-08, 1.21140278e-04, 9.99999642e-01, 9.99863386e-01,
          9.36341405e-01, 6.97241873e-02, 9.99999285e-01, 9.99471724e-01,
          4.56850597e-04, 9.99954104e-01, 9.99999285e-01, 1.,
          9.95640993e-01, 8.13907743e-01, 9.99985218e-01, 3.05179924e-01,
          3.96266728e-07, 3.31235640e-02, 7.10866118e-07, 9.99998331e-01,
          1.53298047e-03, 9.78911638e-01, 4.58000393e-09, 9.99966860e-01,
          9.86060619e-01, 1.44576541e-06, 2.25417871e-08, 3.87583524e-01,
          9.99999642e-01, 8.05333300e-11, 9.99622941e-01, 1.29012193e-07,
          9.99999762e-01, 9.99999046e-01, 9.88446474e-01, 9.99999762e-01,
          1.12894244e-01, 9.99666810e-01, 9.99999642e-01, 2.04096029e-09,
          1., 1.40482503e-09, 9.99907136e-01, 6.44685745e-01,
          9.99999285e-01, 3.82153317e-02, 6.66806824e-04, 5.44297334e-04,
          2.79194446e-05, 1.34259375e-04, 8.55565479e-04, 9.05572057e-01,
          2.80772184e-07, 1.01208309e-06, 8.69199336e-01, 5.92615068e-01,
          9.34613109e-01, 2.70187206e-06, 9.86772358e-01, 9.99990821e-01,
          4.38374311e-01, 9.99999166e-01, 9.99432266e-01, 9.87809062e-01,
          9.99478281e-01, 9.99990702e-01, 1.00881579e-08, 9.98994768e-01,
          9.97022212e-01, 9.99999523e-01, 9.95115399e-01, 6.52253395e-04 ]
      - [ 1., 3.82486195e-11, 1.21163257e-08, 3.54218879e-13,
          9.99988914e-01, 7.31492508e-03, 1., 9.87571478e-01,
          4.54210564e-02, 8.31508994e-01, 4.99991838e-05, 9.99904633e-01,
          1., 4.86236793e-08, 9.99994874e-01, 7.19984651e-01,
          4.54603369e-12, 1.48588142e-10, 1.19658128e-18, 9.55237454e-08,
          0., 9.99340475e-01, 9.99602497e-01, 3.13942182e-05,
          2.71565938e-07, 1., 9.99997139e-01, 2.50832775e-12,
          1.99656788e-04, 9.99971032e-01, 1., 1.21564165e-06, 1.,
          1.26358849e-04, 3.25047544e-10, 6.03106343e-10, 9.99997616e-01,
          1.68936502e-04, 8.02598656e-13, 9.99999762e-01, 7.87471945e-05,
          9.27259602e-09, 4.12086472e-08, 1., 1.09251866e-15,
          5.27084141e-14, 1.94167835e-03, 3.12321613e-10, 2.37440851e-18,
          1., 1., 3.05010847e-15, 1.07001327e-03, 9.96609087e-05,
          7.00818459e-15, 2.11533824e-14, 9.78624515e-10, 1.42051848e-09,
          9.99996662e-01, 1.29843727e-12, 1.25752226e-01, 2.11631060e-01,
          1., 1., 1.21068558e-19, 1., 1., 1., 1.46894190e-05,
          1.10437646e-12, 1., 9.97783005e-01, 1.12581741e-11,
          8.10502314e-14, 8.19817825e-12, 1., 8.53897184e-02, 1.,
          1.76826472e-06, 1., 9.99942422e-01, 5.17535336e-05,
          1.54501466e-12, 7.07910086e-09, 9.94830906e-01, 3.23035126e-10,
          9.99999762e-01, 2.70456667e-15, 1., 1., 9.99984860e-01, 1.,
          4.75477549e-07, 1., 9.99995708e-01, 9.67829585e-01, 1.,
          1.86278534e-10, 9.99999762e-01, 9.99996781e-01, 1.82803988e-01,
          2.11647935e-02, 4.45595294e-09, 1.36915863e-01, 1.43580281e-09,
          1.54843326e-06, 6.54538887e-16, 1., 4.79720969e-04,
          1.23811333e-04, 1., 8.28165933e-02, 1.52871460e-01,
          2.22738418e-05, 9.99997139e-01, 9.99998450e-01, 9.99999762e-01,
          9.99999642e-01, 6.21139765e-01, 1., 1., 1., 3.90654786e-05,
          9.99840498e-01, 1., 8.68274341e-10, 1., 1.99498085e-04 ]
      - [ 9.99220550e-01, 9.64173079e-01, 5.69101386e-02, 7.52411783e-04,
          5.28865447e-03, 3.27315973e-03, 9.59905982e-01, 9.99058843e-01,
          3.17052152e-04, 7.79707730e-01, 5.22886830e-06, 9.98872042e-01,
          9.47152376e-01, 3.58402234e-04, 9.25841153e-01, 7.98845373e-04,
          1.48417782e-02, 3.45274387e-03, 2.91374512e-04, 5.93324983e-03,
          2.01396006e-06, 4.47467595e-01, 9.72827245e-03, 4.19012387e-04,
          9.99999940e-01, 1.56408787e-01, 9.99999344e-01, 9.99984086e-01,
          9.31798637e-01, 1.95995066e-02, 7.96904962e-04, 1.76062225e-03,
          9.99947250e-01, 6.62855431e-03, 1.49890751e-04, 1.43161908e-01,
          5.68778515e-01, 3.33857443e-03, 2.01006056e-04, 9.85354960e-01,
          7.45886803e-01, 7.78590962e-02, 9.99649704e-01, 9.68347609e-01,
          5.38852215e-01, 1.04207414e-15, 2.08318955e-03, 8.17660184e-04,
          9.06489964e-04, 9.96021867e-01, 9.98355389e-01, 5.53329065e-02,
          1.36698058e-04, 6.13374531e-01, 7.47836930e-06, 6.02604938e-04,
          2.40727895e-04, 9.29857016e-01, 1., 4.57077324e-01,
          9.99621212e-01, 7.13737831e-02, 9.99443889e-01, 9.63778496e-01,
          1.80158101e-03, 9.99999940e-01, 9.82256413e-01, 9.99995410e-01,
          9.99533951e-01, 5.95256448e-01, 8.45615685e-01, 9.98816907e-01,
          2.33697006e-04, 1.50821663e-07, 3.65535100e-03, 9.99188662e-01,
          1.89311773e-01, 3.48945643e-04, 5.53703110e-04, 7.33354986e-01,
          9.99864519e-01, 9.79175389e-01, 2.84815968e-07, 9.50721323e-01,
          9.99075353e-01, 3.19587486e-03, 9.99458313e-01, 1.39653857e-03,
          9.99997556e-01, 9.98204172e-01, 9.99424040e-01, 7.11137116e-01,
          1.63570908e-03, 7.89276600e-01, 9.96033192e-01, 9.19929147e-01,
          9.99155223e-01, 1.06998999e-02, 9.71839249e-01, 5.97809674e-04,
          9.99380171e-01, 5.02581258e-07, 4.70921164e-03, 7.69627571e-01,
          7.04839535e-04, 2.51015369e-03, 3.97112733e-03, 9.95466411e-01,
          5.85579216e-01, 1.77646580e-04, 9.99983132e-01, 1.72075787e-07,
          9.44874525e-01, 2.98529238e-01, 9.12776291e-01, 9.97225881e-01,
          5.52240849e-01, 9.99226511e-01, 9.10829008e-01, 7.86999345e-01,
          3.79107177e-01, 9.99999821e-01, 4.53735352e-01, 9.49457884e-01,
          9.99999940e-01, 9.90699530e-01, 9.99954641e-01, 5.77255292e-03 ]
      - [ 6.11773394e-02, 9.99971509e-01, 7.61735160e-03, 6.58348790e-06,
          3.52524668e-01, 5.97409307e-05, 9.99482214e-01, 9.99808252e-01,
          9.95772421e-01, 9.09717739e-01, 1.78085547e-02, 9.99985456e-01,
          9.99956846e-01, 6.86381459e-01, 8.99754763e-01, 6.23345189e-03,
          1.82980352e-06, 2.73575872e-01, 6.43460453e-02, 1.00071088e-06,
          1.38448286e-06, 3.86136555e-04, 2.43573799e-03, 1.31274564e-05,
          9.99866247e-01, 9.98195827e-01, 9.99802887e-01, 4.51004952e-01,
          6.06960535e-01, 9.51871216e-01, 9.95756805e-01, 4.91950801e-03,
          9.99873281e-01, 3.02583852e-04, 1.46974853e-04, 6.38707934e-05,
          9.99586403e-01, 1.61549303e-06, 1.49885291e-05, 9.99869823e-01,
          3.05456549e-01, 3.93307746e-05, 2.31665578e-02, 9.99815524e-01,
          1.72625992e-15, 1.19635265e-03, 1.95644826e-01, 3.89548808e-01,
          7.49295907e-07, 3.44865099e-02, 9.99298096e-01, 4.91358712e-03,
          6.82038954e-05, 9.74831581e-01, 1.51883869e-05, 2.04788739e-06,
          5.01873899e-07, 1.63126085e-02, 9.99999404e-01, 8.63152090e-03,
          9.99975324e-01, 9.95703518e-01, 9.99240160e-01, 9.99787033e-01,
          3.96482483e-06, 6.63932741e-01, 9.99883413e-01, 9.99988675e-01,
          9.80266869e-01, 3.35127639e-04, 9.99725044e-01, 4.84822601e-01,
          3.57600838e-01, 5.85224805e-03, 1.49186375e-02, 9.99999881e-01,
          3.19328625e-03, 9.52242240e-02, 4.48316086e-06, 9.99944329e-01,
          1., 9.92040499e-04, 1.64231664e-04, 9.70798135e-01,
          9.85083342e-01, 1.22968387e-03, 9.10827577e-01, 5.37566915e-02,
          9.99981880e-01, 9.99936938e-01, 9.99719322e-01, 9.99830842e-01,
          6.73749149e-01, 9.67297614e-01, 9.98560488e-01, 2.54164338e-02,
          9.99571621e-01, 7.33200432e-05, 9.98997390e-01, 9.98656869e-01,
          5.19609332e-01, 8.84769261e-01, 1.62489172e-02, 5.75404800e-02,
          6.38600177e-05, 1.01105042e-03, 1.98857486e-03, 7.95553863e-01,
          6.12256210e-03, 8.38887319e-03, 9.99448240e-01, 1.44639940e-04,
          9.86989141e-01, 4.26078960e-02, 9.90741491e-01, 9.99833465e-01,
          1.67066436e-02, 9.99905109e-01, 9.91018653e-01, 9.99781072e-01,
          9.99008000e-01, 9.99977827e-01, 2.46008267e-06, 9.99823749e-01,
          9.99868631e-01, 1.17438674e-01, 8.59914958e-01, 8.30510445e-03 ]
      - [ 7.53334582e-01, 1.36262327e-01, 8.76086197e-05, 1.22715528e-05,
          9.76515055e-01, 4.82655969e-03, 9.99999881e-01, 9.99861121e-01,
          9.99274671e-01, 9.99999166e-01, 2.06092678e-04, 8.15274239e-01,
          9.76123571e-01, 1.34001739e-05, 9.50158894e-01, 9.01796576e-03,
          3.44739947e-03, 2.56744388e-04, 2.50336365e-04, 8.91797423e-01,
          0., 9.94883299e-01, 5.42289868e-04, 3.61334628e-07,
          9.42980587e-01, 9.56757426e-01, 9.99509931e-01, 9.94398892e-01,
          9.99909401e-01, 9.99999642e-01, 9.57830548e-01, 2.88867146e-01,
          9.99944687e-01, 9.95665960e-06, 4.04748562e-07, 4.17297179e-06,
          9.99999642e-01, 3.88710905e-04, 1.01708624e-11, 9.99994636e-01,
          1.95321591e-05, 1.89179730e-06, 1.73089757e-06, 9.99994755e-01,
          3.98818258e-04, 2.96187084e-02, 9.74329114e-02, 1.16188903e-05,
          4.29635456e-08, 5.12406870e-04, 9.98074412e-01, 5.79780996e-01,
          8.39323275e-06, 6.49735972e-04, 2.20395259e-06, 5.46055105e-07,
          2.37176922e-04, 8.62979959e-06, 9.99999762e-01, 8.48094875e-04,
          8.54860365e-01, 4.44324873e-02, 1., 9.17873740e-01,
          2.53229518e-04, 9.99987602e-01, 9.92353559e-01, 9.99998689e-01,
          9.99905348e-01, 4.34454783e-09, 9.68375146e-01, 9.99958992e-01,
          1.13815419e-08, 4.56718868e-03, 1.07418427e-05, 9.99998569e-01,
          8.59366596e-01, 2.18537040e-02, 2.62443905e-06, 9.99997735e-01,
          9.99870896e-01, 4.62841672e-05, 2.08893232e-03, 1.06655717e-01,
          1.13333687e-01, 2.39172550e-05, 9.99954700e-01, 6.41378792e-05,
          9.98976946e-01, 1., 9.99993563e-01, 1., 1.10954635e-01,
          9.99691725e-01, 2.57174168e-02, 3.21573727e-02, 9.88287508e-01,
          1.69955436e-02, 1., 1.10249817e-02, 9.99996424e-01,
          5.54754515e-04, 3.67972185e-03, 3.44278812e-01, 2.75426210e-05,
          4.92039217e-05, 7.09913002e-05, 9.99997616e-01, 9.94616210e-01,
          2.38562396e-04, 7.84422338e-01, 2.17927550e-06, 9.99732077e-01,
          9.55018731e-06, 1., 9.63777244e-01, 4.20718733e-03,
          9.96543467e-01, 1.15034422e-02, 9.99396205e-01, 9.99885798e-01,
          1., 2.29319921e-04, 9.95964527e-01, 9.98587728e-01,
          9.57260191e-01, 9.99998808e-01, 1.65184438e-01 ]
      - [ 6.28513168e-04, 9.98321354e-01, 1.11313316e-03, 1.84258181e-06,
          7.43006349e-01, 4.51602937e-05, 9.99981761e-01, 4.74586129e-01,
          9.27886069e-01, 9.99379396e-01, 2.34746276e-05, 2.67204503e-03,
          9.99971509e-01, 2.49973928e-05, 9.99999404e-01, 3.11244889e-06,
          5.82809001e-08, 1.97164132e-03, 8.77089235e-07, 6.56393055e-08,
          0., 9.29136235e-09, 2.52114007e-11, 5.12572515e-13, 1.,
          1.07318110e-05, 1., 1.77258682e-02, 9.67922211e-01,
          9.99174535e-01, 9.99544084e-01, 1.22655311e-03, 8.62893939e-01,
          9.37894651e-09, 1.97665351e-09, 1.15247267e-09, 7.68802285e-01,
          4.44981083e-02, 6.05733793e-14, 1., 2.20361660e-04,
          9.99975562e-01, 9.89220202e-01, 9.99990582e-01, 5.49596625e-05,
          6.46258122e-04, 6.90514743e-02, 6.69394751e-07, 2.17528296e-07,
          9.10212338e-01, 1., 9.99905467e-01, 8.33504377e-10,
          5.91120741e-04, 8.43461672e-12, 3.60490631e-05, 3.80109384e-07,
          9.29233556e-06, 1., 7.58093476e-01, 9.99999523e-01,
          1.59398802e-02, 9.99998569e-01, 9.99997854e-01, 6.98548465e-05,
          9.99324799e-01, 9.99998808e-01, 1., 9.99912381e-01,
          3.38767521e-08, 9.99835491e-01, 9.99940872e-01, 1.41741991e-01,
          1.06446423e-04, 9.67067003e-01, 9.99995589e-01, 3.15438258e-03,
          3.99135351e-02, 6.41893969e-11, 1., 9.99999881e-01,
          3.98642756e-02, 3.71209826e-05, 7.40511343e-03, 9.99999642e-01,
          3.99639521e-06, 9.99883890e-01, 1.56033739e-01, 1., 1.,
          9.99976158e-01, 9.99720871e-01, 8.96281097e-04, 1.84113346e-02,
          1., 5.84115216e-04, 8.32296371e-01, 9.99882102e-01, 1.,
          2.22108997e-02, 9.94068623e-01, 1.48046354e-06, 7.03086187e-07,
          7.87610324e-11, 1.41147370e-06, 1.18659450e-07, 6.07821903e-06,
          9.67157304e-01, 5.94894588e-01, 9.41590930e-04, 9.99992847e-01,
          7.28710846e-04, 9.99992013e-01, 9.38341439e-01, 9.99999762e-01,
          9.99995708e-01, 4.19614106e-01, 4.53116149e-01, 1.29158244e-01,
          1., 9.99930263e-01, 1., 2.62515618e-06, 9.98470366e-01, 1.,
          7.74836838e-01, 9.99999166e-01, 2.27471337e-05 ]
      - [ 2.09810305e-03, 9.99876976e-01, 6.53548241e-01, 4.60795854e-04,
          1.29672419e-03, 6.87472701e-01, 9.99995232e-01, 3.41409206e-01,
          9.68138218e-01, 8.88848007e-01, 5.32956243e-01, 9.99998808e-01,
          8.26998353e-01, 2.83017494e-06, 8.48011196e-01, 1.14730699e-03,
          1.76404269e-09, 1.23931557e-06, 2.18609022e-03, 0.,
          2.75446610e-10, 9.99082208e-01, 9.85731313e-05, 4.09315498e-06,
          1., 9.99999881e-01, 9.99999285e-01, 2.78164316e-05,
          3.56735915e-01, 9.99984384e-01, 9.99968529e-01, 4.64144478e-07,
          9.99936461e-01, 1.28738742e-04, 2.36633588e-02, 6.85497739e-08,
          4.69715416e-01, 3.90570424e-02, 2.10533064e-04, 8.49487187e-05,
          1., 7.84023177e-06, 9.86309052e-01, 9.99990106e-01,
          7.28490762e-04, 1.04320188e-08, 9.89082932e-01, 2.72051784e-06,
          3.12851234e-09, 8.91309440e-01, 9.99999881e-01, 2.04252452e-03,
          9.88424003e-01, 9.99531627e-01, 5.82983330e-06, 1.80698771e-06,
          2.25364784e-05, 2.97429115e-01, 1., 4.91855964e-02,
          9.99952674e-01, 9.60252345e-01, 1., 1., 3.79986683e-04,
          2.64476403e-03, 1.01750545e-01, 1., 9.97917831e-01,
          9.53223586e-01, 8.07335317e-01, 9.99997973e-01, 4.14954877e-04,
          9.37573670e-04, 1.08213173e-02, 1., 3.81529571e-06,
          9.93663549e-01, 5.41217901e-07, 9.59599078e-01, 9.35711861e-01,
          1.07380494e-01, 1.30068303e-08, 3.39844206e-04, 2.56277272e-04,
          9.97469306e-01, 9.99887943e-01, 1.25019504e-12, 9.99994040e-01,
          1., 9.99995470e-01, 3.32810611e-01, 1.71229336e-03,
          9.95378852e-01, 9.99279439e-01, 5.43949381e-02, 9.99996781e-01,
          4.56035650e-07, 9.99995947e-01, 3.30974639e-04, 6.50492489e-01,
          7.75905401e-02, 3.41168344e-01, 3.69792588e-06, 2.05315217e-07,
          2.26759627e-01, 1.15631534e-04, 8.27727139e-01, 2.75584310e-01,
          4.47423517e-04, 9.99999046e-01, 2.25037911e-05, 1.,
          1.13517513e-06, 9.85221088e-01, 9.99887466e-01, 1.29766446e-08,
          9.99830723e-01, 5.21008253e-01, 9.77829874e-01, 9.99958873e-01,
          9.99929905e-01, 1.13315604e-04, 9.99470651e-01, 1.,
          9.99865174e-01, 1., 3.48328116e-10 ]
      - [ 1.49948319e-04, 3.90192750e-03, 6.47667366e-06, 2.23306976e-02,
          9.98961926e-01, 1.25903171e-07, 9.99999881e-01, 1.52355760e-01,
          9.99998212e-01, 9.99999881e-01, 9.98323381e-01, 1.32090122e-01,
          9.68866169e-01, 1.99541333e-07, 1., 9.38744415e-05,
          2.21071002e-08, 3.86291742e-02, 9.95853066e-01, 3.51632875e-03,
          0., 9.99980927e-01, 1.23714213e-04, 6.40589292e-07,
          9.99999762e-01, 9.97012973e-01, 1.75878555e-02, 1.09063581e-01,
          5.54714799e-01, 9.99997973e-01, 9.99997020e-01, 2.07249200e-11,
          1.91444233e-01, 7.26065258e-14, 6.17592232e-05, 1.38539153e-08,
          1., 3.20892735e-09, 2.09691952e-05, 9.97322381e-01,
          1.46826824e-05, 6.65286564e-07, 1., 9.99611557e-01,
          7.35214353e-13, 1.42050069e-07, 9.80480552e-01, 3.49646093e-13,
          1.26071332e-04, 9.69250262e-01, 9.99989033e-01, 1.71361603e-02,
          2.82167207e-07, 3.40632698e-03, 5.19775313e-07, 2.05038770e-04,
          5.47524526e-11, 6.17511736e-11, 9.99951601e-01, 5.27943790e-01,
          1., 9.06306319e-03, 9.99997735e-01, 9.99974847e-01,
          4.55350146e-10, 1.33405533e-03, 9.99975681e-01, 1., 1.,
          3.64915707e-08, 1.75342177e-06, 9.99995232e-01, 2.98246332e-14,
          9.99085784e-01, 3.97179165e-12, 9.99792516e-01, 1.91463739e-01,
          2.46808141e-01, 1.22196364e-10, 9.99978423e-01, 9.98355806e-01,
          1.95577331e-06, 5.63807589e-05, 1.74002424e-09, 9.99876380e-01,
          9.62938607e-01, 9.99994516e-01, 9.40603984e-11, 9.99740183e-01,
          1., 3.54571998e-01, 9.99999762e-01, 6.14914129e-08,
          9.99990463e-01, 9.99279797e-01, 9.99998689e-01, 8.76871407e-01,
          9.79608834e-01, 1., 9.29383814e-01, 9.99187768e-01,
          2.34301224e-05, 1.90240354e-03, 9.88290846e-01, 2.45857086e-06,
          4.63853212e-06, 1.01341852e-11, 9.97615933e-01, 7.85326779e-01,
          8.71731192e-02, 4.85838503e-02, 1.07916875e-03, 9.99994397e-01,
          1.63017350e-04, 9.08841565e-03, 9.99328256e-01, 2.81885602e-02,
          9.99998569e-01, 3.00705811e-04, 1., 9.99501944e-01,
          9.99264181e-01, 2.70328237e-05, 9.90329027e-01, 1.96092390e-02,
          1.83084179e-02, 1., 9.85417292e-02 ]
      - [ 4.59706846e-15, 9.95709300e-01, 6.68566616e-04, 2.90957753e-12,
          7.31566914e-08, 6.78511631e-12, 9.99985337e-01, 9.99972343e-01,
          1.18767269e-01, 9.99999642e-01, 2.60267086e-07, 1., 1.,
          1.99787756e-11, 1., 5.18835712e-12, 6.09836704e-12,
          5.09077154e-06, 1.11727573e-07, 3.70361522e-04, 0.,
          9.99998927e-01, 3.39762084e-02, 1.71912980e-04, 1.,
          5.56992291e-07, 1., 3.01158259e-04, 1., 3.64607304e-01,
          9.99999642e-01, 1.88891994e-04, 8.49957407e-01, 2.35255902e-05,
          9.90651250e-01, 2.19620100e-09, 1., 2.34683307e-06,
          1.51618307e-09, 1., 3.36135745e-01, 6.72077341e-03,
          1.04104411e-02, 1., 6.28966834e-09, 3.39194818e-12,
          1.21344783e-06, 9.93086906e-06, 2.73352785e-10, 9.95648921e-01,
          9.99718606e-01, 9.48317707e-01, 4.57810785e-07, 2.66244856e-11,
          2.20297305e-13, 4.62478192e-06, 3.27000545e-11, 1.41359307e-03,
          9.99848127e-01, 9.99451101e-01, 9.99999404e-01, 8.56731713e-01,
          9.98879850e-01, 9.99633789e-01, 2.26835013e-07, 9.99999523e-01,
          1., 1., 9.99995232e-01, 4.16423482e-08, 9.99960780e-01,
          9.97645915e-01, 1.96722532e-08, 1.01985226e-10, 5.02658368e-04,
          1., 6.17282867e-01, 2.12767869e-01, 1.09285224e-07, 1.,
          9.99943614e-01, 2.53439181e-09, 1.85025476e-12, 1.49222309e-04,
          4.83164549e-01, 6.88207358e-09, 9.99356568e-01, 1.86438576e-09,
          1., 1., 1., 9.99999881e-01, 7.19988108e-01, 7.58421600e-01,
          9.51632917e-01, 1.61333533e-03, 1., 6.03313804e-01, 1.,
          9.90033686e-01, 9.99996185e-01, 1.01665291e-11, 1.07743192e-09,
          5.60347144e-05, 1.57062314e-04, 1.67292846e-08, 6.56149164e-03,
          9.90436375e-01, 3.27869356e-01, 6.63289796e-08, 3.38551035e-04,
          1.64346872e-07, 9.98787940e-01, 1.83513144e-03, 9.52438831e-01,
          1., 9.99999762e-01, 9.96223807e-01, 2.80672401e-01,
          1.59269981e-02, 1., 9.99793947e-01, 1.97506864e-02,
          9.96246159e-01, 1., 9.99978900e-01, 9.99999881e-01,
          9.79012810e-03 ]
      - [ 1.48593709e-01, 7.55782500e-02, 3.07096670e-05, 3.78378574e-03,
          4.08981505e-05, 7.37769902e-02, 9.51746523e-01, 9.99647856e-01,
          9.87970293e-01, 9.98391569e-01, 1.04511622e-04, 9.99954820e-01,
          9.86966610e-01, 3.19120329e-04, 5.80853403e-01, 7.12382095e-03,
          1.20596133e-06, 8.92376527e-02, 6.98150694e-02, 2.31465256e-05,
          0., 9.45351183e-01, 9.31384712e-02, 6.45455148e-05,
          9.99982238e-01, 9.84550640e-02, 9.27956223e-01, 4.37359740e-05,
          9.92446780e-01, 4.46520984e-01, 9.96747017e-01, 2.92824302e-02,
          9.99987602e-01, 1.23821455e-05, 5.87952556e-04, 3.40820770e-05,
          9.99260724e-01, 2.96696112e-06, 4.79972095e-06, 9.98535395e-01,
          8.51083636e-01, 1.94773288e-03, 9.41118419e-01, 9.98676956e-01,
          5.18291188e-07, 6.00344720e-06, 1.86085608e-03, 6.37792470e-03,
          1.35976352e-05, 9.88171875e-01, 9.99678254e-01, 1.36795998e-01,
          1.30390713e-03, 6.94193602e-01, 1.43333687e-03, 2.34921207e-03,
          2.93832130e-07, 1.58123046e-01, 9.99935031e-01, 7.73081839e-01,
          9.99845624e-01, 6.02802821e-03, 9.99992490e-01, 9.38386440e-01,
          2.90988744e-08, 9.98233080e-01, 9.98879015e-01, 1.,
          9.99993324e-01, 1.85106846e-03, 9.98573303e-01, 6.30696774e-01,
          2.98173205e-07, 1.30347326e-01, 1.20619252e-01, 9.97894466e-01,
          9.27818492e-02, 5.72814822e-01, 2.50369636e-03, 9.99994278e-01,
          8.38236213e-01, 9.15503144e-01, 1.62808703e-06, 2.25603253e-06,
          9.99902248e-01, 7.74225569e-04, 9.99977827e-01, 3.44939646e-04,
          9.99985218e-01, 1., 9.30553854e-01, 9.35183287e-01,
          3.68724734e-01, 9.92940545e-01, 9.90092456e-01, 1.00528523e-02,
          9.99991179e-01, 2.29613215e-04, 9.99927402e-01, 6.54131114e-01,
          9.98309255e-01, 3.81627738e-01, 9.39618803e-06, 5.60524268e-03,
          4.77897038e-06, 5.74794691e-03, 4.17909734e-02, 9.99567211e-01,
          6.62014723e-01, 2.03716176e-04, 9.86312568e-01, 1.00729642e-02,
          9.97517467e-01, 8.53722632e-01, 9.99848366e-01, 9.99999881e-01,
          9.80086207e-01, 9.68168974e-01, 9.77863073e-01, 9.99934316e-01,
          9.99071598e-01, 9.99956369e-01, 1.15364371e-02, 9.98802066e-01,
          9.85122085e-01, 9.86907959e-01, 9.99978423e-01, 9.53932256e-02 ]
      - [ 5.17957801e-08, 3.32430849e-04, 3.29586267e-02, 0.,
          7.37073570e-02, 5.28780131e-09, 1., 5.76957226e-01,
          9.99992251e-01, 1., 2.09381361e-03, 1., 1., 1.37401672e-04,
          9.84931886e-01, 9.10414188e-10, 5.04982705e-15, 2.54243612e-02,
          6.66727722e-02, 4.67324457e-10, 5.71792891e-11, 1.38298783e-04,
          7.00054059e-08, 7.72547499e-13, 1., 9.99020815e-01, 1.,
          9.99999762e-01, 4.59747462e-05, 9.99984026e-01, 9.99987364e-01,
          1.37966978e-07, 7.85960495e-01, 5.71360857e-14, 4.88789240e-08,
          1.45501269e-06, 9.07228231e-01, 1.31563549e-09, 4.46675752e-10,
