%YAML:1.0
---
opencv_ml_svm:
   format: 3
   svmType: EPS_SVR
   kernel:
      type: LINEAR
   C: 1.0000000000000000e-02
   p: 1.0000000000000001e-01
   term_criteria: { epsilon:1.0000000000000000e-03, iterations:1000 }
   var_count: 128
   sv_total: 1
   support_vectors:
      - [ 0., 1.91037296e-16, -7.62865083e-16, 0., -1.66093352e-14, 0.,
          0., -4.69662871e-15, 2.78787448e-15, 6.15872277e-15,
          5.83841430e-15, -6.19611843e-15, 0., 0., 0., 0., 0.,
          5.05607349e-15, 0., 0., -2.54605483e-15, 1.09424587e-14, 0.,
          -4.46678007e-16, -1.79827636e-16, 5.09716965e-17, 0.,
          4.23126733e-16, 0., 3.69196846e-18, -9.95840119e-16,
          -5.32198085e-15, -7.55729572e-15, 1.78407903e-15,
          -8.23681774e-15, 0., 0., 0., 0., -5.60645644e-15,
          1.34950577e-14, -9.97970407e-15, 4.17880486e-15, 0.,
          -2.34377151e-15, 9.43223703e-16, 3.81454485e-16,
          -1.02184810e-14, 0., 0., 0., 3.15752156e-15, -2.58594924e-15,
          -4.22570677e-15, 0., 7.56825040e-15, 0., 0., 1.30367540e-15,
          9.26336576e-15, 1.49276987e-14, 0., 0., 0., 0., 0., 0.,
          -5.41482583e-15, -1.17173354e-14, 0., 0., 0., 0.,
          -1.82607530e-14, 8.11232422e-15, 0., -3.63855115e-15, 0., 0.,
          -1.00259859e-15, -1.24601008e-16, -5.15206011e-15, 0.,
          -5.05784549e-15, 2.00327290e-14, -8.10573685e-15, 0., 0., 0.,
          8.04294545e-15, -8.04731529e-15, 0., 0., 0., -3.16430333e-15,
          1.17065046e-15, 4.05358967e-14, 0., 4.88240336e-15,
          -7.63857785e-15, -1.43088482e-15, 0., 0., 3.20789313e-15,
          5.41601811e-14, 7.17277770e-16, 0., 1.44145981e-15, 0., 0.,
          1.34952635e-14, 0., 0., 1.34952703e-14, 0., 8.01303508e-19,
          -1.08580035e-14, 0., 0., 8.82599861e-16, 0., -2.63968437e-15,
          4.44453180e-15, 0., 6.21253393e-15, 0., 0., 0. ]
   uncompressed_sv_total: 2000
   uncompressed_support_vectors:
      - [ 0., 4.37922001e+00, 2.65196228e+00, 0., 1.40805588e+01, 0., 0.,
          8.81543541e+00, 4.50190258e+00, 1.75171204e+01, 2.01398277e+01,
          8.17433834e+00, 0., 0., 0., 0., 0., 1.65650635e+01, 0., 0.,
          1.44946928e+01, 2.18162117e+01, 0., 8.89722157e+00,
          8.03556621e-01, 1.01931877e+01, 0., 2.99559742e-01, 0.,
          1.77356243e+01, 2.68105927e+01, 1.27246494e+01, 2.66302242e+01,
          2.10963097e+01, 7.64873123e+00, 0., 0., 0., 0., 1.68160591e+01,
          2.27571278e+01, 1.64369335e+01, 3.64114857e+00, 0.,
          1.55645447e+01, 1.37621794e+01, 4.46117699e-01, 2.13908443e+01,
          0., 0., 0., 1.62271004e+01, 1.21815376e+01, 9.71589184e+00, 0.,
          2.59938107e+01, 0., 0., 5.31438684e+00, 1.97241974e+01,
          1.42669716e+01, 0., 0., 0., 0., 0., 0., 6.71115112e+00,
          1.57997169e+01, 0., 0., 0., 0., 2.22750607e+01, 1.56367416e+01,
          0., 6.31625843e+00, 0., 0., 2.10103550e+01, 4.36749846e-01,
          1.29957399e+01, 0., 9.58847046e+00, 1.53464060e+01,
          1.60071259e+01, 0., 0., 0., 1.83526974e+01, 1.39866562e+01, 0.,
          0., 0., 4.52804279e+00, 7.61699343e+00, 2.92836838e+01, 0.,
          8.94924450e+00, 6.82925510e+00, 4.92545319e+00, 0., 0.,
          3.53768229e+00, 3.81487160e+01, 1.63539925e+01, 0.,
          5.87501335e+00, 0., 0., 1.30812731e+01, 0., 0., 1.31120768e+01,
          0., 3.84933352e+00, 1.05605402e+01, 0., 0., 2.53485656e+00, 0.,
          6.04600430e+00, 6.81818104e+00, 0., 9.35056877e+00, 0., 0., 0. ]
      - [ 0., 4.37922001e+00, 2.65196228e+00, 0., 1.40805588e+01, 0., 0.,
          8.81543541e+00, 4.50190258e+00, 1.75171204e+01, 2.01398277e+01,
          8.17433834e+00, 0., 0., 0., 0., 0., 1.65650635e+01, 0., 0.,
          1.44946928e+01, 2.18162117e+01, 0., 8.89722157e+00,
          8.03556621e-01, 1.01931877e+01, 0., 2.99559742e-01, 0.,
          1.77356243e+01, 2.68105927e+01, 1.27246494e+01, 2.66302242e+01,
          2.10963097e+01, 7.64873123e+00, 0., 0., 0., 0., 1.68160591e+01,
          2.27571278e+01, 1.64369335e+01, 3.64114857e+00, 0.,
          1.55645447e+01, 1.37621794e+01, 4.46117699e-01, 2.13908443e+01,
          0., 0., 0., 1.62271004e+01, 1.21815376e+01, 9.71589184e+00, 0.,
          2.59938107e+01, 0., 0., 5.31438684e+00, 1.97241974e+01,
          1.42669716e+01, 0., 0., 0., 0., 0., 0., 6.71115112e+00,
          1.57997169e+01, 0., 0., 0., 0., 2.22750607e+01, 1.56367416e+01,
          0., 6.31625843e+00, 0., 0., 2.10103550e+01, 4.36749846e-01,
          1.29957399e+01, 0., 9.58847046e+00, 1.53464060e+01,
          1.60071259e+01, 0., 0., 0., 1.83526974e+01, 1.39866562e+01, 0.,
          0., 0., 4.52804279e+00, 7.61699343e+00, 2.92836838e+01, 0.,
          8.94924450e+00, 6.82925510e+00, 4.92545319e+00, 0., 0.,
          3.53768229e+00, 3.81487160e+01, 1.63539925e+01, 0.,
          5.87501335e+00, 0., 0., 1.30812731e+01, 0., 0., 1.31120768e+01,
          0., 3.84933352e+00, 1.05605402e+01, 0., 0., 2.53485656e+00, 0.,
          6.04600430e+00, 6.81818104e+00, 0., 9.35056877e+00, 0., 0., 0. ]
      - [ 0., 4.37922001e+00, 2.65196228e+00, 0., 1.40805588e+01, 0., 0.,
          8.81543541e+00, 4.50190258e+00, 1.75171204e+01, 2.01398277e+01,
          8.17433834e+00, 0., 0., 0., 0., 0., 1.65650635e+01, 0., 0.,
          1.44946928e+01, 2.18162117e+01, 0., 8.89722157e+00,
          8.03556621e-01, 1.01931877e+01, 0., 2.99559742e-01, 0.,
          1.77356243e+01, 2.68105927e+01, 1.27246494e+01, 2.66302242e+01,
          2.10963097e+01, 7.64873123e+00, 0., 0., 0., 0., 1.68160591e+01,
          2.27571278e+01, 1.64369335e+01, 3.64114857e+00, 0.,
          1.55645447e+01, 1.37621794e+01, 4.46117699e-01, 2.13908443e+01,
          0., 0., 0., 1.62271004e+01, 1.21815376e+01, 9.71589184e+00, 0.,
          2.59938107e+01, 0., 0., 5.31438684e+00, 1.97241974e+01,
          1.42669716e+01, 0., 0., 0., 0., 0., 0., 6.71115112e+00,
          1.57997169e+01, 0., 0., 0., 0., 2.22750607e+01, 1.56367416e+01,
          0., 6.31625843e+00, 0., 0., 2.10103550e+01, 4.36749846e-01,
          1.29957399e+01, 0., 9.58847046e+00, 1.53464060e+01,
          1.60071259e+01, 0., 0., 0., 1.83526974e+01, 1.39866562e+01, 0.,
          0., 0., 4.52804279e+00, 7.61699343e+00, 2.92836838e+01, 0.,
          8.94924450e+00, 6.82925510e+00, 4.92545319e+00, 0., 0.,
          3.53768229e+00, 3.81487160e+01, 1.63539925e+01, 0.,
          5.87501335e+00, 0., 0., 1.30812731e+01, 0., 0., 1.31120768e+01,
          0., 3.84933352e+00, 1.05605402e+01, 0., 0., 2.53485656e+00, 0.,
          6.04600430e+00, 6.81818104e+00, 0., 9.35056877e+00, 0., 0., 0. ]
      - [ 0., 4.37922001e+00, 2.65196228e+00, 0., 1.40805588e+01, 0., 0.,
          8.81543541e+00, 4.50190258e+00, 1.75171204e+01, 2.01398277e+01,
          8.17433834e+00, 0., 0., 0., 0., 0., 1.65650635e+01, 0., 0.,
          1.44946928e+01, 2.18162117e+01, 0., 8.89722157e+00,
          8.03556621e-01, 1.01931877e+01, 0., 2.99559742e-01, 0.,
          1.77356243e+01, 2.68105927e+01, 1.27246494e+01, 2.66302242e+01,
          2.10963097e+01, 7.64873123e+00, 0., 0., 0., 0., 1.68160591e+01,
          2.27571278e+01, 1.64369335e+01, 3.64114857e+00, 0.,
          1.55645447e+01, 1.37621794e+01, 4.46117699e-01, 2.13908443e+01,
          0., 0., 0., 1.62271004e+01, 1.21815376e+01, 9.71589184e+00, 0.,
          2.59938107e+01, 0., 0., 5.31438684e+00, 1.97241974e+01,
          1.42669716e+01, 0., 0., 0., 0., 0., 0., 6.71115112e+00,
          1.57997169e+01, 0., 0., 0., 0., 2.22750607e+01, 1.56367416e+01,
          0., 6.31625843e+00, 0., 0., 2.10103550e+01, 4.36749846e-01,
          1.29957399e+01, 0., 9.58847046e+00, 1.53464060e+01,
          1.60071259e+01, 0., 0., 0., 1.83526974e+01, 1.39866562e+01, 0.,
          0., 0., 4.52804279e+00, 7.61699343e+00, 2.92836838e+01, 0.,
          8.94924450e+00, 6.82925510e+00, 4.92545319e+00, 0., 0.,
          3.53768229e+00, 3.81487160e+01, 1.63539925e+01, 0.,
          5.87501335e+00, 0., 0., 1.30812731e+01, 0., 0., 1.31120768e+01,
          0., 3.84933352e+00, 1.05605402e+01, 0., 0., 2.53485656e+00, 0.,
          6.04600430e+00, 6.81818104e+00, 0., 9.35056877e+00, 0., 0., 0. ]
      - [ 0., 4.37922001e+00, 2.65196228e+00, 0., 1.40805588e+01, 0., 0.,
          8.81543541e+00, 4.50190258e+00, 1.75171204e+01, 2.01398277e+01,
          8.17433834e+00, 0., 0., 0., 0., 0., 1.65650635e+01, 0., 0.,
          1.44946928e+01, 2.18162117e+01, 0., 8.89722157e+00,
          8.03556621e-01, 1.01931877e+01, 0., 2.99559742e-01, 0.,
          1.77356243e+01, 2.68105927e+01, 1.27246494e+01, 2.66302242e+01,
          2.10963097e+01, 7.64873123e+00, 0., 0., 0., 0., 1.68160591e+01,
          2.27571278e+01, 1.64369335e+01, 3.64114857e+00, 0.,
          1.55645447e+01, 1.37621794e+01, 4.46117699e-01, 2.13908443e+01,
          0., 0., 0., 1.62271004e+01, 1.21815376e+01, 9.71589184e+00, 0.,
          2.59938107e+01, 0., 0., 5.31438684e+00, 1.97241974e+01,
          1.42669716e+01, 0., 0., 0., 0., 0., 0., 6.71115112e+00,
          1.57997169e+01, 0., 0., 0., 0., 2.22750607e+01, 1.56367416e+01,
          0., 6.31625843e+00, 0., 0., 2.10103550e+01, 4.36749846e-01,
          1.29957399e+01, 0., 9.58847046e+00, 1.53464060e+01,
          1.60071259e+01, 0., 0., 0., 1.83526974e+01, 1.39866562e+01, 0.,
          0., 0., 4.52804279e+00, 7.61699343e+00, 2.92836838e+01, 0.,
          8.94924450e+00, 6.82925510e+00, 4.92545319e+00, 0., 0.,
          3.53768229e+00, 3.81487160e+01, 1.63539925e+01, 0.,
          5.87501335e+00, 0., 0., 1.30812731e+01, 0., 0., 1.31120768e+01,
          0., 3.84933352e+00, 1.05605402e+01, 0., 0., 2.53485656e+00, 0.,
          6.04600430e+00, 6.81818104e+00, 0., 9.35056877e+00, 0., 0., 0. ]
      - [ 0., 4.37922001e+00, 2.65196228e+00, 0., 1.40805588e+01, 0., 0.,
          8.81543541e+00, 4.50190258e+00, 1.75171204e+01, 2.01398277e+01,
          8.17433834e+00, 0., 0., 0., 0., 0., 1.65650635e+01, 0., 0.,
          1.44946928e+01, 2.18162117e+01, 0., 8.89722157e+00,
          8.03556621e-01, 1.01931877e+01, 0., 2.99559742e-01, 0.,
          1.77356243e+01, 2.68105927e+01, 1.27246494e+01, 2.66302242e+01,
          2.10963097e+01, 7.64873123e+00, 0., 0., 0., 0., 1.68160591e+01,
          2.27571278e+01, 1.64369335e+01, 3.64114857e+00, 0.,
          1.55645447e+01, 1.37621794e+01, 4.46117699e-01, 2.13908443e+01,
          0., 0., 0., 1.62271004e+01, 1.21815376e+01, 9.71589184e+00, 0.,
          2.59938107e+01, 0., 0., 5.31438684e+00, 1.97241974e+01,
          1.42669716e+01, 0., 0., 0., 0., 0., 0., 6.71115112e+00,
          1.57997169e+01, 0., 0., 0., 0., 2.22750607e+01, 1.56367416e+01,
          0., 6.31625843e+00, 0., 0., 2.10103550e+01, 4.36749846e-01,
          1.29957399e+01, 0., 9.58847046e+00, 1.53464060e+01,
          1.60071259e+01, 0., 0., 0., 1.83526974e+01, 1.39866562e+01, 0.,
          0., 0., 4.52804279e+00, 7.61699343e+00, 2.92836838e+01, 0.,
          8.94924450e+00, 6.82925510e+00, 4.92545319e+00, 0., 0.,
          3.53768229e+00, 3.81487160e+01, 1.63539925e+01, 0.,
          5.87501335e+00, 0., 0., 1.30812731e+01, 0., 0., 1.31120768e+01,
          0., 3.84933352e+00, 1.05605402e+01, 0., 0., 2.53485656e+00, 0.,
          6.04600430e+00, 6.81818104e+00, 0., 9.35056877e+00, 0., 0., 0. ]
      - [ 0., 4.37922001e+00, 2.65196228e+00, 0., 1.40805588e+01, 0., 0.,
          8.81543541e+00, 4.50190258e+00, 1.75171204e+01, 2.01398277e+01,
          8.17433834e+00, 0., 0., 0., 0., 0., 1.65650635e+01, 0., 0.,
          1.44946928e+01, 2.18162117e+01, 0., 8.89722157e+00,
          8.03556621e-01, 1.01931877e+01, 0., 2.99559742e-01, 0.,
          1.77356243e+01, 2.68105927e+01, 1.27246494e+01, 2.66302242e+01,
          2.10963097e+01, 7.64873123e+00, 0., 0., 0., 0., 1.68160591e+01,
          2.27571278e+01, 1.64369335e+01, 3.64114857e+00, 0.,
          1.55645447e+01, 1.37621794e+01, 4.46117699e-01, 2.13908443e+01,
          0., 0., 0., 1.62271004e+01, 1.21815376e+01, 9.71589184e+00, 0.,
          2.59938107e+01, 0., 0., 5.31438684e+00, 1.97241974e+01,
          1.42669716e+01, 0., 0., 0., 0., 0., 0., 6.71115112e+00,
          1.57997169e+01, 0., 0., 0., 0., 2.22750607e+01, 1.56367416e+01,
          0., 6.31625843e+00, 0., 0., 2.10103550e+01, 4.36749846e-01,
          1.29957399e+01, 0., 9.58847046e+00, 1.53464060e+01,
          1.60071259e+01, 0., 0., 0., 1.83526974e+01, 1.39866562e+01, 0.,
          0., 0., 4.52804279e+00, 7.61699343e+00, 2.92836838e+01, 0.,
          8.94924450e+00, 6.82925510e+00, 4.92545319e+00, 0., 0.,
          3.53768229e+00, 3.81487160e+01, 1.63539925e+01, 0.,
          5.87501335e+00, 0., 0., 1.30812731e+01, 0., 0., 1.31120768e+01,
          0., 3.84933352e+00, 1.05605402e+01, 0., 0., 2.53485656e+00, 0.,
          6.04600430e+00, 6.81818104e+00, 0., 9.35056877e+00, 0., 0., 0. ]
      - [ 0., 4.37922001e+00, 2.65196228e+00, 0., 1.40805588e+01, 0., 0.,
          8.81543541e+00, 4.50190258e+00, 1.75171204e+01, 2.01398277e+01,
          8.17433834e+00, 0., 0., 0., 0., 0., 1.65650635e+01, 0., 0.,
          1.44946928e+01, 2.18162117e+01, 0., 8.89722157e+00,
          8.03556621e-01, 1.01931877e+01, 0., 2.99559742e-01, 0.,
          1.77356243e+01, 2.68105927e+01, 1.27246494e+01, 2.66302242e+01,
          2.10963097e+01, 7.64873123e+00, 0., 0., 0., 0., 1.68160591e+01,
          2.27571278e+01, 1.64369335e+01, 3.64114857e+00, 0.,
          1.55645447e+01, 1.37621794e+01, 4.46117699e-01, 2.13908443e+01,
          0., 0., 0., 1.62271004e+01, 1.21815376e+01, 9.71589184e+00, 0.,
          2.59938107e+01, 0., 0., 5.31438684e+00, 1.97241974e+01,
          1.42669716e+01, 0., 0., 0., 0., 0., 0., 6.71115112e+00,
          1.57997169e+01, 0., 0., 0., 0., 2.22750607e+01, 1.56367416e+01,
          0., 6.31625843e+00, 0., 0., 2.10103550e+01, 4.36749846e-01,
          1.29957399e+01, 0., 9.58847046e+00, 1.53464060e+01,
          1.60071259e+01, 0., 0., 0., 1.83526974e+01, 1.39866562e+01, 0.,
          0., 0., 4.52804279e+00, 7.61699343e+00, 2.92836838e+01, 0.,
          8.94924450e+00, 6.82925510e+00, 4.92545319e+00, 0., 0.,
          3.53768229e+00, 3.81487160e+01, 1.63539925e+01, 0.,
          5.87501335e+00, 0., 0., 1.30812731e+01, 0., 0., 1.31120768e+01,
          0., 3.84933352e+00, 1.05605402e+01, 0., 0., 2.53485656e+00, 0.,
          6.04600430e+00, 6.81818104e+00, 0., 9.35056877e+00, 0., 0., 0. ]
      - [ 0., 4.37922001e+00, 2.65196228e+00, 0., 1.40805588e+01, 0., 0.,
          8.81543541e+00, 4.50190258e+00, 1.75171204e+01, 2.01398277e+01,
          8.17433834e+00, 0., 0., 0., 0., 0., 1.65650635e+01, 0., 0.,
          1.44946928e+01, 2.18162117e+01, 0., 8.89722157e+00,
          8.03556621e-01, 1.01931877e+01, 0., 2.99559742e-01, 0.,
          1.77356243e+01, 2.68105927e+01, 1.27246494e+01, 2.66302242e+01,
          2.10963097e+01, 7.64873123e+00, 0., 0., 0., 0., 1.68160591e+01,
          2.27571278e+01, 1.64369335e+01, 3.64114857e+00, 0.,
          1.55645447e+01, 1.37621794e+01, 4.46117699e-01, 2.13908443e+01,
          0., 0., 0., 1.62271004e+01, 1.21815376e+01, 9.71589184e+00, 0.,
          2.59938107e+01, 0., 0., 5.31438684e+00, 1.97241974e+01,
          1.42669716e+01, 0., 0., 0., 0., 0., 0., 6.71115112e+00,
          1.57997169e+01, 0., 0., 0., 0., 2.22750607e+01, 1.56367416e+01,
          0., 6.31625843e+00, 0., 0., 2.10103550e+01, 4.36749846e-01,
          1.29957399e+01, 0., 9.58847046e+00, 1.53464060e+01,
          1.60071259e+01, 0., 0., 0., 1.83526974e+01, 1.39866562e+01, 0.,
          0., 0., 4.52804279e+00, 7.61699343e+00, 2.92836838e+01, 0.,
          8.94924450e+00, 6.82925510e+00, 4.92545319e+00, 0., 0.,
          3.53768229e+00, 3.81487160e+01, 1.63539925e+01, 0.,
          5.87501335e+00, 0., 0., 1.30812731e+01, 0., 0., 1.31120768e+01,
          0., 3.84933352e+00, 1.05605402e+01, 0., 0., 2.53485656e+00, 0.,
          6.04600430e+00, 6.81818104e+00, 0., 9.35056877e+00, 0., 0., 0. ]
      - [ 0., 4.37922001e+00, 2.65196228e+00, 0., 1.40805588e+01, 0., 0.,
          8.81543541e+00, 4.50190258e+00, 1.75171204e+01, 2.01398277e+01,
          8.17433834e+00, 0., 0., 0., 0., 0., 1.65650635e+01, 0., 0.,
          1.44946928e+01, 2.18162117e+01, 0., 8.89722157e+00,
          8.03556621e-01, 1.01931877e+01, 0., 2.99559742e-01, 0.,
          1.77356243e+01, 2.68105927e+01, 1.27246494e+01, 2.66302242e+01,
          2.10963097e+01, 7.64873123e+00, 0., 0., 0., 0., 1.68160591e+01,
          2.27571278e+01, 1.64369335e+01, 3.64114857e+00, 0.,
          1.55645447e+01, 1.37621794e+01, 4.46117699e-01, 2.13908443e+01,
          0., 0., 0., 1.62271004e+01, 1.21815376e+01, 9.71589184e+00, 0.,
          2.59938107e+01, 0., 0., 5.31438684e+00, 1.97241974e+01,
          1.42669716e+01, 0., 0., 0., 0., 0., 0., 6.71115112e+00,
          1.57997169e+01, 0., 0., 0., 0., 2.22750607e+01, 1.56367416e+01,
          0., 6.31625843e+00, 0., 0., 2.10103550e+01, 4.36749846e-01,
          1.29957399e+01, 0., 9.58847046e+00, 1.53464060e+01,
          1.60071259e+01, 0., 0., 0., 1.83526974e+01, 1.39866562e+01, 0.,
          0., 0., 4.52804279e+00, 7.61699343e+00, 2.92836838e+01, 0.,
          8.94924450e+00, 6.82925510e+00, 4.92545319e+00, 0., 0.,
          3.53768229e+00, 3.81487160e+01, 1.63539925e+01, 0.,
          5.87501335e+00, 0., 0., 1.30812731e+01, 0., 0., 1.31120768e+01,
          0., 3.84933352e+00, 1.05605402e+01, 0., 0., 2.53485656e+00, 0.,
          6.04600430e+00, 6.81818104e+00, 0., 9.35056877e+00, 0., 0., 0. ]
      - [ 0., 4.37922001e+00, 2.65196228e+00, 0., 1.40805588e+01, 0., 0.,
          8.81543541e+00, 4.50190258e+00, 1.75171204e+01, 2.01398277e+01,
          8.17433834e+00, 0., 0., 0., 0., 0., 1.65650635e+01, 0., 0.,
          1.44946928e+01, 2.18162117e+01, 0., 8.89722157e+00,
          8.03556621e-01, 1.01931877e+01, 0., 2.99559742e-01, 0.,
          1.77356243e+01, 2.68105927e+01, 1.27246494e+01, 2.66302242e+01,
          2.10963097e+01, 7.64873123e+00, 0., 0., 0., 0., 1.68160591e+01,
          2.27571278e+01, 1.64369335e+01, 3.64114857e+00, 0.,
          1.55645447e+01, 1.37621794e+01, 4.46117699e-01, 2.13908443e+01,
          0., 0., 0., 1.62271004e+01, 1.21815376e+01, 9.71589184e+00, 0.,
          2.59938107e+01, 0., 0., 5.31438684e+00, 1.97241974e+01,
          1.42669716e+01, 0., 0., 0., 0., 0., 0., 6.71115112e+00,
          1.57997169e+01, 0., 0., 0., 0., 2.22750607e+01, 1.56367416e+01,
          0., 6.31625843e+00, 0., 0., 2.10103550e+01, 4.36749846e-01,
          1.29957399e+01, 0., 9.58847046e+00, 1.53464060e+01,
          1.60071259e+01, 0., 0., 0., 1.83526974e+01, 1.39866562e+01, 0.,
          0., 0., 4.52804279e+00, 7.61699343e+00, 2.92836838e+01, 0.,
          8.94924450e+00, 6.82925510e+00, 4.92545319e+00, 0., 0.,
          3.53768229e+00, 3.81487160e+01, 1.63539925e+01, 0.,
          5.87501335e+00, 0., 0., 1.30812731e+01, 0., 0., 1.31120768e+01,
          0., 3.84933352e+00, 1.05605402e+01, 0., 0., 2.53485656e+00, 0.,
          6.04600430e+00, 6.81818104e+00, 0., 9.35056877e+00, 0., 0., 0. ]
      - [ 0., 4.37922001e+00, 2.65196228e+00, 0., 1.40805588e+01, 0., 0.,
          8.81543541e+00, 4.50190258e+00, 1.75171204e+01, 2.01398277e+01,
          8.17433834e+00, 0., 0., 0., 0., 0., 1.65650635e+01, 0., 0.,
          1.44946928e+01, 2.18162117e+01, 0., 8.89722157e+00,
          8.03556621e-01, 1.01931877e+01, 0., 2.99559742e-01, 0.,
          1.77356243e+01, 2.68105927e+01, 1.27246494e+01, 2.66302242e+01,
          2.10963097e+01, 7.64873123e+00, 0., 0., 0., 0., 1.68160591e+01,
          2.27571278e+01, 1.64369335e+01, 3.64114857e+00, 0.,
          1.55645447e+01, 1.37621794e+01, 4.46117699e-01, 2.13908443e+01,
          0., 0., 0., 1.62271004e+01, 1.21815376e+01, 9.71589184e+00, 0.,
          2.59938107e+01, 0., 0., 5.31438684e+00, 1.97241974e+01,
          1.42669716e+01, 0., 0., 0., 0., 0., 0., 6.71115112e+00,
          1.57997169e+01, 0., 0., 0., 0., 2.22750607e+01, 1.56367416e+01,
          0., 6.31625843e+00, 0., 0., 2.10103550e+01, 4.36749846e-01,
          1.29957399e+01, 0., 9.58847046e+00, 1.53464060e+01,
          1.60071259e+01, 0., 0., 0., 1.83526974e+01, 1.39866562e+01, 0.,
          0., 0., 4.52804279e+00, 7.61699343e+00, 2.92836838e+01, 0.,
          8.94924450e+00, 6.82925510e+00, 4.92545319e+00, 0., 0.,
          3.53768229e+00, 3.81487160e+01, 1.63539925e+01, 0.,
          5.87501335e+00, 0., 0., 1.30812731e+01, 0., 0., 1.31120768e+01,
          0., 3.84933352e+00, 1.05605402e+01, 0., 0., 2.53485656e+00, 0.,
          6.04600430e+00, 6.81818104e+00, 0., 9.35056877e+00, 0., 0., 0. ]
      - [ 0., 4.37922001e+00, 2.65196228e+00, 0., 1.40805588e+01, 0., 0.,
          8.81543541e+00, 4.50190258e+00, 1.75171204e+01, 2.01398277e+01,
          8.17433834e+00, 0., 0., 0., 0., 0., 1.65650635e+01, 0., 0.,
          1.44946928e+01, 2.18162117e+01, 0., 8.89722157e+00,
          8.03556621e-01, 1.01931877e+01, 0., 2.99559742e-01, 0.,
          1.77356243e+01, 2.68105927e+01, 1.27246494e+01, 2.66302242e+01,
          2.10963097e+01, 7.64873123e+00, 0., 0., 0., 0., 1.68160591e+01,
          2.27571278e+01, 1.64369335e+01, 3.64114857e+00, 0.,
          1.55645447e+01, 1.37621794e+01, 4.46117699e-01, 2.13908443e+01,
          0., 0., 0., 1.62271004e+01, 1.21815376e+01, 9.71589184e+00, 0.,
          2.59938107e+01, 0., 0., 5.31438684e+00, 1.97241974e+01,
          1.42669716e+01, 0., 0., 0., 0., 0., 0., 6.71115112e+00,
          1.57997169e+01, 0., 0., 0., 0., 2.22750607e+01, 1.56367416e+01,
          0., 6.31625843e+00, 0., 0., 2.10103550e+01, 4.36749846e-01,
          1.29957399e+01, 0., 9.58847046e+00, 1.53464060e+01,
          1.60071259e+01, 0., 0., 0., 1.83526974e+01, 1.39866562e+01, 0.,
          0., 0., 4.52804279e+00, 7.61699343e+00, 2.92836838e+01, 0.,
          8.94924450e+00, 6.82925510e+00, 4.92545319e+00, 0., 0.,
          3.53768229e+00, 3.81487160e+01, 1.63539925e+01, 0.,
          5.87501335e+00, 0., 0., 1.30812731e+01, 0., 0., 1.31120768e+01,
          0., 3.84933352e+00, 1.05605402e+01, 0., 0., 2.53485656e+00, 0.,
          6.04600430e+00, 6.81818104e+00, 0., 9.35056877e+00, 0., 0., 0. ]
      - [ 0., 4.37922001e+00, 2.65196228e+00, 0., 1.40805588e+01, 0., 0.,
          8.81543541e+00, 4.50190258e+00, 1.75171204e+01, 2.01398277e+01,
          8.17433834e+00, 0., 0., 0., 0., 0., 1.65650635e+01, 0., 0.,
          1.44946928e+01, 2.18162117e+01, 0., 8.89722157e+00,
          8.03556621e-01, 1.01931877e+01, 0., 2.99559742e-01, 0.,
          1.77356243e+01, 2.68105927e+01, 1.27246494e+01, 2.66302242e+01,
          2.10963097e+01, 7.64873123e+00, 0., 0., 0., 0., 1.68160591e+01,
          2.27571278e+01, 1.64369335e+01, 3.64114857e+00, 0.,
          1.55645447e+01, 1.37621794e+01, 4.46117699e-01, 2.13908443e+01,
          0., 0., 0., 1.62271004e+01, 1.21815376e+01, 9.71589184e+00, 0.,
          2.59938107e+01, 0., 0., 5.31438684e+00, 1.97241974e+01,
          1.42669716e+01, 0., 0., 0., 0., 0., 0., 6.71115112e+00,
          1.57997169e+01, 0., 0., 0., 0., 2.22750607e+01, 1.56367416e+01,
          0., 6.31625843e+00, 0., 0., 2.10103550e+01, 4.36749846e-01,
          1.29957399e+01, 0., 9.58847046e+00, 1.53464060e+01,
          1.60071259e+01, 0., 0., 0., 1.83526974e+01, 1.39866562e+01, 0.,
          0., 0., 4.52804279e+00, 7.61699343e+00, 2.92836838e+01, 0.,
          8.94924450e+00, 6.82925510e+00, 4.92545319e+00, 0., 0.,
          3.53768229e+00, 3.81487160e+01, 1.63539925e+01, 0.,
          5.87501335e+00, 0., 0., 1.30812731e+01, 0., 0., 1.31120768e+01,
          0., 3.84933352e+00, 1.05605402e+01, 0., 0., 2.53485656e+00, 0.,
          6.04600430e+00, 6.81818104e+00, 0., 9.35056877e+00, 0., 0., 0. ]
      - [ 0., 4.37922001e+00, 2.65196228e+00, 0., 1.40805588e+01, 0., 0.,
          8.81543541e+00, 4.50190258e+00, 1.75171204e+01, 2.01398277e+01,
          8.17433834e+00, 0., 0., 0., 0., 0., 1.65650635e+01, 0., 0.,
          1.44946928e+01, 2.18162117e+01, 0., 8.89722157e+00,
          8.03556621e-01, 1.01931877e+01, 0., 2.99559742e-01, 0.,
          1.77356243e+01, 2.68105927e+01, 1.27246494e+01, 2.66302242e+01,
          2.10963097e+01, 7.64873123e+00, 0., 0., 0., 0., 1.68160591e+01,
          2.27571278e+01, 1.64369335e+01, 3.64114857e+00, 0.,
          1.55645447e+01, 1.37621794e+01, 4.46117699e-01, 2.13908443e+01,
          0., 0., 0., 1.62271004e+01, 1.21815376e+01, 9.71589184e+00, 0.,
          2.59938107e+01, 0., 0., 5.31438684e+00, 1.97241974e+01,
          1.42669716e+01, 0., 0., 0., 0., 0., 0., 6.71115112e+00,
          1.57997169e+01, 0., 0., 0., 0., 2.22750607e+01, 1.56367416e+01,
          0., 6.31625843e+00, 0., 0., 2.10103550e+01, 4.36749846e-01,
          1.29957399e+01, 0., 9.58847046e+00, 1.53464060e+01,
          1.60071259e+01, 0., 0., 0., 1.83526974e+01, 1.39866562e+01, 0.,
          0., 0., 4.52804279e+00, 7.61699343e+00, 2.92836838e+01, 0.,
          8.94924450e+00, 6.82925510e+00, 4.92545319e+00, 0., 0.,
          3.53768229e+00, 3.81487160e+01, 1.63539925e+01, 0.,
          5.87501335e+00, 0., 0., 1.30812731e+01, 0., 0., 1.31120768e+01,
          0., 3.84933352e+00, 1.05605402e+01, 0., 0., 2.53485656e+00, 0.,
          6.04600430e+00, 6.81818104e+00, 0., 9.35056877e+00, 0., 0., 0. ]
      - [ 0., 4.37922001e+00, 2.65196228e+00, 0., 1.40805588e+01, 0., 0.,
          8.81543541e+00, 4.50190258e+00, 1.75171204e+01, 2.01398277e+01,
          8.17433834e+00, 0., 0., 0., 0., 0., 1.65650635e+01, 0., 0.,
          1.44946928e+01, 2.18162117e+01, 0., 8.89722157e+00,
          8.03556621e-01, 1.01931877e+01, 0., 2.99559742e-01, 0.,
          1.77356243e+01, 2.68105927e+01, 1.27246494e+01, 2.66302242e+01,
          2.10963097e+01, 7.64873123e+00, 0., 0., 0., 0., 1.68160591e+01,
          2.27571278e+01, 1.64369335e+01, 3.64114857e+00, 0.,
          1.55645447e+01, 1.37621794e+01, 4.46117699e-01, 2.13908443e+01,
          0., 0., 0., 1.62271004e+01, 1.21815376e+01, 9.71589184e+00, 0.,
          2.59938107e+01, 0., 0., 5.31438684e+00, 1.97241974e+01,
          1.42669716e+01, 0., 0., 0., 0., 0., 0., 6.71115112e+00,
          1.57997169e+01, 0., 0., 0., 0., 2.22750607e+01, 1.56367416e+01,
          0., 6.31625843e+00, 0., 0., 2.10103550e+01, 4.36749846e-01,
          1.29957399e+01, 0., 9.58847046e+00, 1.53464060e+01,
          1.60071259e+01, 0., 0., 0., 1.83526974e+01, 1.39866562e+01, 0.,
          0., 0., 4.52804279e+00, 7.61699343e+00, 2.92836838e+01, 0.,
          8.94924450e+00, 6.82925510e+00, 4.92545319e+00, 0., 0.,
          3.53768229e+00, 3.81487160e+01, 1.63539925e+01, 0.,
          5.87501335e+00, 0., 0., 1.30812731e+01, 0., 0., 1.31120768e+01,
          0., 3.84933352e+00, 1.05605402e+01, 0., 0., 2.53485656e+00, 0.,
          6.04600430e+00, 6.81818104e+00, 0., 9.35056877e+00, 0., 0., 0. ]
      - [ 0., 4.37922001e+00, 2.65196228e+00, 0., 1.40805588e+01, 0., 0.,
          8.81543541e+00, 4.50190258e+00, 1.75171204e+01, 2.01398277e+01,
          8.17433834e+00, 0., 0., 0., 0., 0., 1.65650635e+01, 0., 0.,
          1.44946928e+01, 2.18162117e+01, 0., 8.89722157e+00,
          8.03556621e-01, 1.01931877e+01, 0., 2.99559742e-01, 0.,
          1.77356243e+01, 2.68105927e+01, 1.27246494e+01, 2.66302242e+01,
          2.10963097e+01, 7.64873123e+00, 0., 0., 0., 0., 1.68160591e+01,
          2.27571278e+01, 1.64369335e+01, 3.64114857e+00, 0.,
          1.55645447e+01, 1.37621794e+01, 4.46117699e-01, 2.13908443e+01,
          0., 0., 0., 1.62271004e+01, 1.21815376e+01, 9.71589184e+00, 0.,
          2.59938107e+01, 0., 0., 5.31438684e+00, 1.97241974e+01,
          1.42669716e+01, 0., 0., 0., 0., 0., 0., 6.71115112e+00,
          1.57997169e+01, 0., 0., 0., 0., 2.22750607e+01, 1.56367416e+01,
          0., 6.31625843e+00, 0., 0., 2.10103550e+01, 4.36749846e-01,
          1.29957399e+01, 0., 9.58847046e+00, 1.53464060e+01,
          1.60071259e+01, 0., 0., 0., 1.83526974e+01, 1.39866562e+01, 0.,
          0., 0., 4.52804279e+00, 7.61699343e+00, 2.92836838e+01, 0.,
          8.94924450e+00, 6.82925510e+00, 4.92545319e+00, 0., 0.,
          3.53768229e+00, 3.81487160e+01, 1.63539925e+01, 0.,
          5.87501335e+00, 0., 0., 1.30812731e+01, 0., 0., 1.31120768e+01,
          0., 3.84933352e+00, 1.05605402e+01, 0., 0., 2.53485656e+00, 0.,
          6.04600430e+00, 6.81818104e+00, 0., 9.35056877e+00, 0., 0., 0. ]
      - [ 0., 4.37922001e+00, 2.65196228e+00, 0., 1.40805588e+01, 0., 0.,
          8.81543541e+00, 4.50190258e+00, 1.75171204e+01, 2.01398277e+01,
          8.17433834e+00, 0., 0., 0., 0., 0., 1.65650635e+01, 0., 0.,
          1.44946928e+01, 2.18162117e+01, 0., 8.89722157e+00,
          8.03556621e-01, 1.01931877e+01, 0., 2.99559742e-01, 0.,
          1.77356243e+01, 2.68105927e+01, 1.27246494e+01, 2.66302242e+01,
          2.10963097e+01, 7.64873123e+00, 0., 0., 0., 0., 1.68160591e+01,
          2.27571278e+01, 1.64369335e+01, 3.64114857e+00, 0.,
          1.55645447e+01, 1.37621794e+01, 4.46117699e-01, 2.13908443e+01,
          0., 0., 0., 1.62271004e+01, 1.21815376e+01, 9.71589184e+00, 0.,
          2.59938107e+01, 0., 0., 5.31438684e+00, 1.97241974e+01,
          1.42669716e+01, 0., 0., 0., 0., 0., 0., 6.71115112e+00,
          1.57997169e+01, 0., 0., 0., 0., 2.22750607e+01, 1.56367416e+01,
          0., 6.31625843e+00, 0., 0., 2.10103550e+01, 4.36749846e-01,
          1.29957399e+01, 0., 9.58847046e+00, 1.53464060e+01,
          1.60071259e+01, 0., 0., 0., 1.83526974e+01, 1.39866562e+01, 0.,
          0., 0., 4.52804279e+00, 7.61699343e+00, 2.92836838e+01, 0.,
          8.94924450e+00, 6.82925510e+00, 4.92545319e+00, 0., 0.,
          3.53768229e+00, 3.81487160e+01, 1.63539925e+01, 0.,
          5.87501335e+00, 0., 0., 1.30812731e+01, 0., 0., 1.31120768e+01,
          0., 3.84933352e+00, 1.05605402e+01, 0., 0., 2.53485656e+00, 0.,
          6.04600430e+00, 6.81818104e+00, 0., 9.35056877e+00, 0., 0., 0. ]
      - [ 0., 4.37922001e+00, 2.65196228e+00, 0., 1.40805588e+01, 0., 0.,
          8.81543541e+00, 4.50190258e+00, 1.75171204e+01, 2.01398277e+01,
          8.17433834e+00, 0., 0., 0., 0., 0., 1.65650635e+01, 0., 0.,
          1.44946928e+01, 2.18162117e+01, 0., 8.89722157e+00,
          8.03556621e-01, 1.01931877e+01, 0., 2.99559742e-01, 0.,
          1.77356243e+01, 2.68105927e+01, 1.27246494e+01, 2.66302242e+01,
          2.10963097e+01, 7.64873123e+00, 0., 0., 0., 0., 1.68160591e+01,
          2.27571278e+01, 1.64369335e+01, 3.64114857e+00, 0.,
          1.55645447e+01, 1.37621794e+01, 4.46117699e-01, 2.13908443e+01,
          0., 0., 0., 1.62271004e+01, 1.21815376e+01, 9.71589184e+00, 0.,
          2.59938107e+01, 0., 0., 5.31438684e+00, 1.97241974e+01,
          1.42669716e+01, 0., 0., 0., 0., 0., 0., 6.71115112e+00,
          1.57997169e+01, 0., 0., 0., 0., 2.22750607e+01, 1.56367416e+01,
          0., 6.31625843e+00, 0., 0., 2.10103550e+01, 4.36749846e-01,
          1.29957399e+01, 0., 9.58847046e+00, 1.53464060e+01,
          1.60071259e+01, 0., 0., 0., 1.83526974e+01, 1.39866562e+01, 0.,
          0., 0., 4.52804279e+00, 7.61699343e+00, 2.92836838e+01, 0.,
          8.94924450e+00, 6.82925510e+00, 4.92545319e+00, 0., 0.,
          3.53768229e+00, 3.81487160e+01, 1.63539925e+01, 0.,
          5.87501335e+00, 0., 0., 1.30812731e+01, 0., 0., 1.31120768e+01,
          0., 3.84933352e+00, 1.05605402e+01, 0., 0., 2.53485656e+00, 0.,
          6.04600430e+00, 6.81818104e+00, 0., 9.35056877e+00, 0., 0., 0. ]
      - [ 0., 4.37922001e+00, 2.65196228e+00, 0., 1.40805588e+01, 0., 0.,
          8.81543541e+00, 4.50190258e+00, 1.75171204e+01, 2.01398277e+01,
          8.17433834e+00, 0., 0., 0., 0., 0., 1.65650635e+01, 0., 0.,
          1.44946928e+01, 2.18162117e+01, 0., 8.89722157e+00,
          8.03556621e-01, 1.01931877e+01, 0., 2.99559742e-01, 0.,
          1.77356243e+01, 2.68105927e+01, 1.27246494e+01, 2.66302242e+01,
          2.10963097e+01, 7.64873123e+00, 0., 0., 0., 0., 1.68160591e+01,
          2.27571278e+01, 1.64369335e+01, 3.64114857e+00, 0.,
          1.55645447e+01, 1.37621794e+01, 4.46117699e-01, 2.13908443e+01,
          0., 0., 0., 1.62271004e+01, 1.21815376e+01, 9.71589184e+00, 0.,
          2.59938107e+01, 0., 0., 5.31438684e+00, 1.97241974e+01,
          1.42669716e+01, 0., 0., 0., 0., 0., 0., 6.71115112e+00,
          1.57997169e+01, 0., 0., 0., 0., 2.22750607e+01, 1.56367416e+01,
          0., 6.31625843e+00, 0., 0., 2.10103550e+01, 4.36749846e-01,
          1.29957399e+01, 0., 9.58847046e+00, 1.53464060e+01,
          1.60071259e+01, 0., 0., 0., 1.83526974e+01, 1.39866562e+01, 0.,
          0., 0., 4.52804279e+00, 7.61699343e+00, 2.92836838e+01, 0.,
          8.94924450e+00, 6.82925510e+00, 4.92545319e+00, 0., 0.,
          3.53768229e+00, 3.81487160e+01, 1.63539925e+01, 0.,
          5.87501335e+00, 0., 0., 1.30812731e+01, 0., 0., 1.31120768e+01,
          0., 3.84933352e+00, 1.05605402e+01, 0., 0., 2.53485656e+00, 0.,
          6.04600430e+00, 6.81818104e+00, 0., 9.35056877e+00, 0., 0., 0. ]
      - [ 0., 4.37922001e+00, 2.65196228e+00, 0., 1.40805588e+01, 0., 0.,
          8.81543541e+00, 4.50190258e+00, 1.75171204e+01, 2.01398277e+01,
          8.17433834e+00, 0., 0., 0., 0., 0., 1.65650635e+01, 0., 0.,
          1.44946928e+01, 2.18162117e+01, 0., 8.89722157e+00,
          8.03556621e-01, 1.01931877e+01, 0., 2.99559742e-01, 0.,
          1.77356243e+01, 2.68105927e+01, 1.27246494e+01, 2.66302242e+01,
          2.10963097e+01, 7.64873123e+00, 0., 0., 0., 0., 1.68160591e+01,
          2.27571278e+01, 1.64369335e+01, 3.64114857e+00, 0.,
          1.55645447e+01, 1.37621794e+01, 4.46117699e-01, 2.13908443e+01,
          0., 0., 0., 1.62271004e+01, 1.21815376e+01, 9.71589184e+00, 0.,
          2.59938107e+01, 0., 0., 5.31438684e+00, 1.97241974e+01,
          1.42669716e+01, 0., 0., 0., 0., 0., 0., 6.71115112e+00,
          1.57997169e+01, 0., 0., 0., 0., 2.22750607e+01, 1.56367416e+01,
          0., 6.31625843e+00, 0., 0., 2.10103550e+01, 4.36749846e-01,
          1.29957399e+01, 0., 9.58847046e+00, 1.53464060e+01,
          1.60071259e+01, 0., 0., 0., 1.83526974e+01, 1.39866562e+01, 0.,
          0., 0., 4.52804279e+00, 7.61699343e+00, 2.92836838e+01, 0.,
          8.94924450e+00, 6.82925510e+00, 4.92545319e+00, 0., 0.,
          3.53768229e+00, 3.81487160e+01, 1.63539925e+01, 0.,
          5.87501335e+00, 0., 0., 1.30812731e+01, 0., 0., 1.31120768e+01,
          0., 3.84933352e+00, 1.05605402e+01, 0., 0., 2.53485656e+00, 0.,
          6.04600430e+00, 6.81818104e+00, 0., 9.35056877e+00, 0., 0., 0. ]
      - [ 0., 4.37922001e+00, 2.65196228e+00, 0., 1.40805588e+01, 0., 0.,
          8.81543541e+00, 4.50190258e+00, 1.75171204e+01, 2.01398277e+01,
          8.17433834e+00, 0., 0., 0., 0., 0., 1.65650635e+01, 0., 0.,
          1.44946928e+01, 2.18162117e+01, 0., 8.89722157e+00,
          8.03556621e-01, 1.01931877e+01, 0., 2.99559742e-01, 0.,
          1.77356243e+01, 2.68105927e+01, 1.27246494e+01, 2.66302242e+01,
          2.10963097e+01, 7.64873123e+00, 0., 0., 0., 0., 1.68160591e+01,
          2.27571278e+01, 1.64369335e+01, 3.64114857e+00, 0.,
          1.55645447e+01, 1.37621794e+01, 4.46117699e-01, 2.13908443e+01,
          0., 0., 0., 1.62271004e+01, 1.21815376e+01, 9.71589184e+00, 0.,
          2.59938107e+01, 0., 0., 5.31438684e+00, 1.97241974e+01,
          1.42669716e+01, 0., 0., 0., 0., 0., 0., 6.71115112e+00,
          1.57997169e+01, 0., 0., 0., 0., 2.22750607e+01, 1.56367416e+01,
          0., 6.31625843e+00, 0., 0., 2.10103550e+01, 4.36749846e-01,
          1.29957399e+01, 0., 9.58847046e+00, 1.53464060e+01,
          1.60071259e+01, 0., 0., 0., 1.83526974e+01, 1.39866562e+01, 0.,
          0., 0., 4.52804279e+00, 7.61699343e+00, 2.92836838e+01, 0.,
          8.94924450e+00, 6.82925510e+00, 4.92545319e+00, 0., 0.,
          3.53768229e+00, 3.81487160e+01, 1.63539925e+01, 0.,
          5.87501335e+00, 0., 0., 1.30812731e+01, 0., 0., 1.31120768e+01,
          0., 3.84933352e+00, 1.05605402e+01, 0., 0., 2.53485656e+00, 0.,
          6.04600430e+00, 6.81818104e+00, 0., 9.35056877e+00, 0., 0., 0. ]
      - [ 0., 4.37922001e+00, 2.65196228e+00, 0., 1.40805588e+01, 0., 0.,
          8.81543541e+00, 4.50190258e+00, 1.75171204e+01, 2.01398277e+01,
          8.17433834e+00, 0., 0., 0., 0., 0., 1.65650635e+01, 0., 0.,
          1.44946928e+01, 2.18162117e+01, 0., 8.89722157e+00,
          8.03556621e-01, 1.01931877e+01, 0., 2.99559742e-01, 0.,
          1.77356243e+01, 2.68105927e+01, 1.27246494e+01, 2.66302242e+01,
          2.10963097e+01, 7.64873123e+00, 0., 0., 0., 0., 1.68160591e+01,
          2.27571278e+01, 1.64369335e+01, 3.64114857e+00, 0.,
          1.55645447e+01, 1.37621794e+01, 4.46117699e-01, 2.13908443e+01,
          0., 0., 0., 1.62271004e+01, 1.21815376e+01, 9.71589184e+00, 0.,
          2.59938107e+01, 0., 0., 5.31438684e+00, 1.97241974e+01,
          1.42669716e+01, 0., 0., 0., 0., 0., 0., 6.71115112e+00,
          1.57997169e+01, 0., 0., 0., 0., 2.22750607e+01, 1.56367416e+01,
          0., 6.31625843e+00, 0., 0., 2.10103550e+01, 4.36749846e-01,
          1.29957399e+01, 0., 9.58847046e+00, 1.53464060e+01,
          1.60071259e+01, 0., 0., 0., 1.83526974e+01, 1.39866562e+01, 0.,
          0., 0., 4.52804279e+00, 7.61699343e+00, 2.92836838e+01, 0.,
          8.94924450e+00, 6.82925510e+00, 4.92545319e+00, 0., 0.,
          3.53768229e+00, 3.81487160e+01, 1.63539925e+01, 0.,
          5.87501335e+00, 0., 0., 1.30812731e+01, 0., 0., 1.31120768e+01,
          0., 3.84933352e+00, 1.05605402e+01, 0., 0., 2.53485656e+00, 0.,
          6.04600430e+00, 6.81818104e+00, 0., 9.35056877e+00, 0., 0., 0. ]
      - [ 0., 4.37922001e+00, 2.65196228e+00, 0., 1.40805588e+01, 0., 0.,
          8.81543541e+00, 4.50190258e+00, 1.75171204e+01, 2.01398277e+01,
          8.17433834e+00, 0., 0., 0., 0., 0., 1.65650635e+01, 0., 0.,
          1.44946928e+01, 2.18162117e+01, 0., 8.89722157e+00,
          8.03556621e-01, 1.01931877e+01, 0., 2.99559742e-01, 0.,
          1.77356243e+01, 2.68105927e+01, 1.27246494e+01, 2.66302242e+01,
          2.10963097e+01, 7.64873123e+00, 0., 0., 0., 0., 1.68160591e+01,
          2.27571278e+01, 1.64369335e+01, 3.64114857e+00, 0.,
          1.55645447e+01, 1.37621794e+01, 4.46117699e-01, 2.13908443e+01,
          0., 0., 0., 1.62271004e+01, 1.21815376e+01, 9.71589184e+00, 0.,
          2.59938107e+01, 0., 0., 5.31438684e+00, 1.97241974e+01,
          1.42669716e+01, 0., 0., 0., 0., 0., 0., 6.71115112e+00,
          1.57997169e+01, 0., 0., 0., 0., 2.22750607e+01, 1.56367416e+01,
          0., 6.31625843e+00, 0., 0., 2.10103550e+01, 4.36749846e-01,
          1.29957399e+01, 0., 9.58847046e+00, 1.53464060e+01,
          1.60071259e+01, 0., 0., 0., 1.83526974e+01, 1.39866562e+01, 0.,
          0., 0., 4.52804279e+00, 7.61699343e+00, 2.92836838e+01, 0.,
          8.94924450e+00, 6.82925510e+00, 4.92545319e+00, 0., 0.,
          3.53768229e+00, 3.81487160e+01, 1.63539925e+01, 0.,
          5.87501335e+00, 0., 0., 1.30812731e+01, 0., 0., 1.31120768e+01,
          0., 3.84933352e+00, 1.05605402e+01, 0., 0., 2.53485656e+00, 0.,
          6.04600430e+00, 6.81818104e+00, 0., 9.35056877e+00, 0., 0., 0. ]
      - [ 0., 4.37922001e+00, 2.65196228e+00, 0., 1.40805588e+01, 0., 0.,
          8.81543541e+00, 4.50190258e+00, 1.75171204e+01, 2.01398277e+01,
          8.17433834e+00, 0., 0., 0., 0., 0., 1.65650635e+01, 0., 0.,
          1.44946928e+01, 2.18162117e+01, 0., 8.89722157e+00,
          8.03556621e-01, 1.01931877e+01, 0., 2.99559742e-01, 0.,
          1.77356243e+01, 2.68105927e+01, 1.27246494e+01, 2.66302242e+01,
          2.10963097e+01, 7.64873123e+00, 0., 0., 0., 0., 1.68160591e+01,
          2.27571278e+01, 1.64369335e+01, 3.64114857e+00, 0.,
          1.55645447e+01, 1.37621794e+01, 4.46117699e-01, 2.13908443e+01,
          0., 0., 0., 1.62271004e+01, 1.21815376e+01, 9.71589184e+00, 0.,
          2.59938107e+01, 0., 0., 5.31438684e+00, 1.97241974e+01,
          1.42669716e+01, 0., 0., 0., 0., 0., 0., 6.71115112e+00,
          1.57997169e+01, 0., 0., 0., 0., 2.22750607e+01, 1.56367416e+01,
          0., 6.31625843e+00, 0., 0., 2.10103550e+01, 4.36749846e-01,
          1.29957399e+01, 0., 9.58847046e+00, 1.53464060e+01,
          1.60071259e+01, 0., 0., 0., 1.83526974e+01, 1.39866562e+01, 0.,
          0., 0., 4.52804279e+00, 7.61699343e+00, 2.92836838e+01, 0.,
          8.94924450e+00, 6.82925510e+00, 4.92545319e+00, 0., 0.,
          3.53768229e+00, 3.81487160e+01, 1.63539925e+01, 0.,
          5.87501335e+00, 0., 0., 1.30812731e+01, 0., 0., 1.31120768e+01,
          0., 3.84933352e+00, 1.05605402e+01, 0., 0., 2.53485656e+00, 0.,
          6.04600430e+00, 6.81818104e+00, 0., 9.35056877e+00, 0., 0., 0. ]
      - [ 0., 4.37922001e+00, 2.65196228e+00, 0., 1.40805588e+01, 0., 0.,
          8.81543541e+00, 4.50190258e+00, 1.75171204e+01, 2.01398277e+01,
          8.17433834e+00, 0., 0., 0., 0., 0., 1.65650635e+01, 0., 0.,
          1.44946928e+01, 2.18162117e+01, 0., 8.89722157e+00,
          8.03556621e-01, 1.01931877e+01, 0., 2.99559742e-01, 0.,
          1.77356243e+01, 2.68105927e+01, 1.27246494e+01, 2.66302242e+01,
          2.10963097e+01, 7.64873123e+00, 0., 0., 0., 0., 1.68160591e+01,
          2.27571278e+01, 1.64369335e+01, 3.64114857e+00, 0.,
          1.55645447e+01, 1.37621794e+01, 4.46117699e-01, 2.13908443e+01,
          0., 0., 0., 1.62271004e+01, 1.21815376e+01, 9.71589184e+00, 0.,
          2.59938107e+01, 0., 0., 5.31438684e+00, 1.97241974e+01,
          1.42669716e+01, 0., 0., 0., 0., 0., 0., 6.71115112e+00,
          1.57997169e+01, 0., 0., 0., 0., 2.22750607e+01, 1.56367416e+01,
          0., 6.31625843e+00, 0., 0., 2.10103550e+01, 4.36749846e-01,
          1.29957399e+01, 0., 9.58847046e+00, 1.53464060e+01,
          1.60071259e+01, 0., 0., 0., 1.83526974e+01, 1.39866562e+01, 0.,
          0., 0., 4.52804279e+00, 7.61699343e+00, 2.92836838e+01, 0.,
          8.94924450e+00, 6.82925510e+00, 4.92545319e+00, 0., 0.,
          3.53768229e+00, 3.81487160e+01, 1.63539925e+01, 0.,
          5.87501335e+00, 0., 0., 1.30812731e+01, 0., 0., 1.31120768e+01,
          0., 3.84933352e+00, 1.05605402e+01, 0., 0., 2.53485656e+00, 0.,
          6.04600430e+00, 6.81818104e+00, 0., 9.35056877e+00, 0., 0., 0. ]
      - [ 0., 4.37922001e+00, 2.65196228e+00, 0., 1.40805588e+01, 0., 0.,
          8.81543541e+00, 4.50190258e+00, 1.75171204e+01, 2.01398277e+01,
          8.17433834e+00, 0., 0., 0., 0., 0., 1.65650635e+01, 0., 0.,
          1.44946928e+01, 2.18162117e+01, 0., 8.89722157e+00,
          8.03556621e-01, 1.01931877e+01, 0., 2.99559742e-01, 0.,
          1.77356243e+01, 2.68105927e+01, 1.27246494e+01, 2.66302242e+01,
          2.10963097e+01, 7.64873123e+00, 0., 0., 0., 0., 1.68160591e+01,
          2.27571278e+01, 1.64369335e+01, 3.64114857e+00, 0.,
          1.55645447e+01, 1.37621794e+01, 4.46117699e-01, 2.13908443e+01,
          0., 0., 0., 1.62271004e+01, 1.21815376e+01, 9.71589184e+00, 0.,
          2.59938107e+01, 0., 0., 5.31438684e+00, 1.97241974e+01,
          1.42669716e+01, 0., 0., 0., 0., 0., 0., 6.71115112e+00,
          1.57997169e+01, 0., 0., 0., 0., 2.22750607e+01, 1.56367416e+01,
          0., 6.31625843e+00, 0., 0., 2.10103550e+01, 4.36749846e-01,
          1.29957399e+01, 0., 9.58847046e+00, 1.53464060e+01,
          1.60071259e+01, 0., 0., 0., 1.83526974e+01, 1.39866562e+01, 0.,
          0., 0., 4.52804279e+00, 7.61699343e+00, 2.92836838e+01, 0.,
          8.94924450e+00, 6.82925510e+00, 4.92545319e+00, 0., 0.,
          3.53768229e+00, 3.81487160e+01, 1.63539925e+01, 0.,
          5.87501335e+00, 0., 0., 1.30812731e+01, 0., 0., 1.31120768e+01,
          0., 3.84933352e+00, 1.05605402e+01, 0., 0., 2.53485656e+00, 0.,
          6.04600430e+00, 6.81818104e+00, 0., 9.35056877e+00, 0., 0., 0. ]
      - [ 0., 4.37922001e+00, 2.65196228e+00, 0., 1.40805588e+01, 0., 0.,
          8.81543541e+00, 4.50190258e+00, 1.75171204e+01, 2.01398277e+01,
          8.17433834e+00, 0., 0., 0., 0., 0., 1.65650635e+01, 0., 0.,
          1.44946928e+01, 2.18162117e+01, 0., 8.89722157e+00,
          8.03556621e-01, 1.01931877e+01, 0., 2.99559742e-01, 0.,
          1.77356243e+01, 2.68105927e+01, 1.27246494e+01, 2.66302242e+01,
          2.10963097e+01, 7.64873123e+00, 0., 0., 0., 0., 1.68160591e+01,
          2.27571278e+01, 1.64369335e+01, 3.64114857e+00, 0.,
          1.55645447e+01, 1.37621794e+01, 4.46117699e-01, 2.13908443e+01,
          0., 0., 0., 1.62271004e+01, 1.21815376e+01, 9.71589184e+00, 0.,
          2.59938107e+01, 0., 0., 5.31438684e+00, 1.97241974e+01,
          1.42669716e+01, 0., 0., 0., 0., 0., 0., 6.71115112e+00,
          1.57997169e+01, 0., 0., 0., 0., 2.22750607e+01, 1.56367416e+01,
          0., 6.31625843e+00, 0., 0., 2.10103550e+01, 4.36749846e-01,
          1.29957399e+01, 0., 9.58847046e+00, 1.53464060e+01,
          1.60071259e+01, 0., 0., 0., 1.83526974e+01, 1.39866562e+01, 0.,
          0., 0., 4.52804279e+00, 7.61699343e+00, 2.92836838e+01, 0.,
          8.94924450e+00, 6.82925510e+00, 4.92545319e+00, 0., 0.,
          3.53768229e+00, 3.81487160e+01, 1.63539925e+01, 0.,
          5.87501335e+00, 0., 0., 1.30812731e+01, 0., 0., 1.31120768e+01,
          0., 3.84933352e+00, 1.05605402e+01, 0., 0., 2.53485656e+00, 0.,
          6.04600430e+00, 6.81818104e+00, 0., 9.35056877e+00, 0., 0., 0. ]
      - [ 0., 4.37922001e+00, 2.65196228e+00, 0., 1.40805588e+01, 0., 0.,
          8.81543541e+00, 4.50190258e+00, 1.75171204e+01, 2.01398277e+01,
          8.17433834e+00, 0., 0., 0., 0., 0., 1.65650635e+01, 0., 0.,
          1.44946928e+01, 2.18162117e+01, 0., 8.89722157e+00,
          8.03556621e-01, 1.01931877e+01, 0., 2.99559742e-01, 0.,
          1.77356243e+01, 2.68105927e+01, 1.27246494e+01, 2.66302242e+01,
          2.10963097e+01, 7.64873123e+00, 0., 0., 0., 0., 1.68160591e+01,
          2.27571278e+01, 1.64369335e+01, 3.64114857e+00, 0.,
          1.55645447e+01, 1.37621794e+01, 4.46117699e-01, 2.13908443e+01,
          0., 0., 0., 1.62271004e+01, 1.21815376e+01, 9.71589184e+00, 0.,
          2.59938107e+01, 0., 0., 5.31438684e+00, 1.97241974e+01,
          1.42669716e+01, 0., 0., 0., 0., 0., 0., 6.71115112e+00,
          1.57997169e+01, 0., 0., 0., 0., 2.22750607e+01, 1.56367416e+01,
          0., 6.31625843e+00, 0., 0., 2.10103550e+01, 4.36749846e-01,
          1.29957399e+01, 0., 9.58847046e+00, 1.53464060e+01,
          1.60071259e+01, 0., 0., 0., 1.83526974e+01, 1.39866562e+01, 0.,
          0., 0., 4.52804279e+00, 7.61699343e+00, 2.92836838e+01, 0.,
          8.94924450e+00, 6.82925510e+00, 4.92545319e+00, 0., 0.,
          3.53768229e+00, 3.81487160e+01, 1.63539925e+01, 0.,
          5.87501335e+00, 0., 0., 1.30812731e+01, 0., 0., 1.31120768e+01,
          0., 3.84933352e+00, 1.05605402e+01, 0., 0., 2.53485656e+00, 0.,
          6.04600430e+00, 6.81818104e+00, 0., 9.35056877e+00, 0., 0., 0. ]
      - [ 0., 4.37922001e+00, 2.65196228e+00, 0., 1.40805588e+01, 0., 0.,
          8.81543541e+00, 4.50190258e+00, 1.75171204e+01, 2.01398277e+01,
          8.17433834e+00, 0., 0., 0., 0., 0., 1.65650635e+01, 0., 0.,
          1.44946928e+01, 2.18162117e+01, 0., 8.89722157e+00,
          8.03556621e-01, 1.01931877e+01, 0., 2.99559742e-01, 0.,
          1.77356243e+01, 2.68105927e+01, 1.27246494e+01, 2.66302242e+01,
          2.10963097e+01, 7.64873123e+00, 0., 0., 0., 0., 1.68160591e+01,
          2.27571278e+01, 1.64369335e+01, 3.64114857e+00, 0.,
          1.55645447e+01, 1.37621794e+01, 4.46117699e-01, 2.13908443e+01,
          0., 0., 0., 1.62271004e+01, 1.21815376e+01, 9.71589184e+00, 0.,
          2.59938107e+01, 0., 0., 5.31438684e+00, 1.97241974e+01,
          1.42669716e+01, 0., 0., 0., 0., 0., 0., 6.71115112e+00,
          1.57997169e+01, 0., 0., 0., 0., 2.22750607e+01, 1.56367416e+01,
          0., 6.31625843e+00, 0., 0., 2.10103550e+01, 4.36749846e-01,
          1.29957399e+01, 0., 9.58847046e+00, 1.53464060e+01,
          1.60071259e+01, 0., 0., 0., 1.83526974e+01, 1.39866562e+01, 0.,
          0., 0., 4.52804279e+00, 7.61699343e+00, 2.92836838e+01, 0.,
          8.94924450e+00, 6.82925510e+00, 4.92545319e+00, 0., 0.,
          3.53768229e+00, 3.81487160e+01, 1.63539925e+01, 0.,
          5.87501335e+00, 0., 0., 1.30812731e+01, 0., 0., 1.31120768e+01,
          0., 3.84933352e+00, 1.05605402e+01, 0., 0., 2.53485656e+00, 0.,
          6.04600430e+00, 6.81818104e+00, 0., 9.35056877e+00, 0., 0., 0. ]
      - [ 0., 4.37922001e+00, 2.65196228e+00, 0., 1.40805588e+01, 0., 0.,
          8.81543541e+00, 4.50190258e+00, 1.75171204e+01, 2.01398277e+01,
          8.17433834e+00, 0., 0., 0., 0., 0., 1.65650635e+01, 0., 0.,
          1.44946928e+01, 2.18162117e+01, 0., 8.89722157e+00,
          8.03556621e-01, 1.01931877e+01, 0., 2.99559742e-01, 0.,
          1.77356243e+01, 2.68105927e+01, 1.27246494e+01, 2.66302242e+01,
          2.10963097e+01, 7.64873123e+00, 0., 0., 0., 0., 1.68160591e+01,
          2.27571278e+01, 1.64369335e+01, 3.64114857e+00, 0.,
          1.55645447e+01, 1.37621794e+01, 4.46117699e-01, 2.13908443e+01,
          0., 0., 0., 1.62271004e+01, 1.21815376e+01, 9.71589184e+00, 0.,
          2.59938107e+01, 0., 0., 5.31438684e+00, 1.97241974e+01,
          1.42669716e+01, 0., 0., 0., 0., 0., 0., 6.71115112e+00,
          1.57997169e+01, 0., 0., 0., 0., 2.22750607e+01, 1.56367416e+01,
          0., 6.31625843e+00, 0., 0., 2.10103550e+01, 4.36749846e-01,
          1.29957399e+01, 0., 9.58847046e+00, 1.53464060e+01,
          1.60071259e+01, 0., 0., 0., 1.83526974e+01, 1.39866562e+01, 0.,
          0., 0., 4.52804279e+00, 7.61699343e+00, 2.92836838e+01, 0.,
          8.94924450e+00, 6.82925510e+00, 4.92545319e+00, 0., 0.,
          3.53768229e+00, 3.81487160e+01, 1.63539925e+01, 0.,
          5.87501335e+00, 0., 0., 1.30812731e+01, 0., 0., 1.31120768e+01,
          0., 3.84933352e+00, 1.05605402e+01, 0., 0., 2.53485656e+00, 0.,
          6.04600430e+00, 6.81818104e+00, 0., 9.35056877e+00, 0., 0., 0. ]
      - [ 0., 4.37922001e+00, 2.65196228e+00, 0., 1.40805588e+01, 0., 0.,
          8.81543541e+00, 4.50190258e+00, 1.75171204e+01, 2.01398277e+01,
          8.17433834e+00, 0., 0., 0., 0., 0., 1.65650635e+01, 0., 0.,
          1.44946928e+01, 2.18162117e+01, 0., 8.89722157e+00,
          8.03556621e-01, 1.01931877e+01, 0., 2.99559742e-01, 0.,
          1.77356243e+01, 2.68105927e+01, 1.27246494e+01, 2.66302242e+01,
          2.10963097e+01, 7.64873123e+00, 0., 0., 0., 0., 1.68160591e+01,
          2.27571278e+01, 1.64369335e+01, 3.64114857e+00, 0.,
          1.55645447e+01, 1.37621794e+01, 4.46117699e-01, 2.13908443e+01,
          0., 0., 0., 1.62271004e+01, 1.21815376e+01, 9.71589184e+00, 0.,
          2.59938107e+01, 0., 0., 5.31438684e+00, 1.97241974e+01,
          1.42669716e+01, 0., 0., 0., 0., 0., 0., 6.71115112e+00,
          1.57997169e+01, 0., 0., 0., 0., 2.22750607e+01, 1.56367416e+01,
          0., 6.31625843e+00, 0., 0., 2.10103550e+01, 4.36749846e-01,
          1.29957399e+01, 0., 9.58847046e+00, 1.53464060e+01,
          1.60071259e+01, 0., 0., 0., 1.83526974e+01, 1.39866562e+01, 0.,
          0., 0., 4.52804279e+00, 7.61699343e+00, 2.92836838e+01, 0.,
          8.94924450e+00, 6.82925510e+00, 4.92545319e+00, 0., 0.,
          3.53768229e+00, 3.81487160e+01, 1.63539925e+01, 0.,
          5.87501335e+00, 0., 0., 1.30812731e+01, 0., 0., 1.31120768e+01,
          0., 3.84933352e+00, 1.05605402e+01, 0., 0., 2.53485656e+00, 0.,
          6.04600430e+00, 6.81818104e+00, 0., 9.35056877e+00, 0., 0., 0. ]
      - [ 0., 4.37922001e+00, 2.65196228e+00, 0., 1.40805588e+01, 0., 0.,
          8.81543541e+00, 4.50190258e+00, 1.75171204e+01, 2.01398277e+01,
          8.17433834e+00, 0., 0., 0., 0., 0., 1.65650635e+01, 0., 0.,
          1.44946928e+01, 2.18162117e+01, 0., 8.89722157e+00,
          8.03556621e-01, 1.01931877e+01, 0., 2.99559742e-01, 0.,
          1.77356243e+01, 2.68105927e+01, 1.27246494e+01, 2.66302242e+01,
          2.10963097e+01, 7.64873123e+00, 0., 0., 0., 0., 1.68160591e+01,
          2.27571278e+01, 1.64369335e+01, 3.64114857e+00, 0.,
          1.55645447e+01, 1.37621794e+01, 4.46117699e-01, 2.13908443e+01,
          0., 0., 0., 1.62271004e+01, 1.21815376e+01, 9.71589184e+00, 0.,
          2.59938107e+01, 0., 0., 5.31438684e+00, 1.97241974e+01,
          1.42669716e+01, 0., 0., 0., 0., 0., 0., 6.71115112e+00,
          1.57997169e+01, 0., 0., 0., 0., 2.22750607e+01, 1.56367416e+01,
          0., 6.31625843e+00, 0., 0., 2.10103550e+01, 4.36749846e-01,
          1.29957399e+01, 0., 9.58847046e+00, 1.53464060e+01,
          1.60071259e+01, 0., 0., 0., 1.83526974e+01, 1.39866562e+01, 0.,
          0., 0., 4.52804279e+00, 7.61699343e+00, 2.92836838e+01, 0.,
          8.94924450e+00, 6.82925510e+00, 4.92545319e+00, 0., 0.,
          3.53768229e+00, 3.81487160e+01, 1.63539925e+01, 0.,
          5.87501335e+00, 0., 0., 1.30812731e+01, 0., 0., 1.31120768e+01,
          0., 3.84933352e+00, 1.05605402e+01, 0., 0., 2.53485656e+00, 0.,
          6.04600430e+00, 6.81818104e+00, 0., 9.35056877e+00, 0., 0., 0. ]
      - [ 0., 4.37922001e+00, 2.65196228e+00, 0., 1.40805588e+01, 0., 0.,
          8.81543541e+00, 4.50190258e+00, 1.75171204e+01, 2.01398277e+01,
          8.17433834e+00, 0., 0., 0., 0., 0., 1.65650635e+01, 0., 0.,
          1.44946928e+01, 2.18162117e+01, 0., 8.89722157e+00,
          8.03556621e-01, 1.01931877e+01, 0., 2.99559742e-01, 0.,
          1.77356243e+01, 2.68105927e+01, 1.27246494e+01, 2.66302242e+01,
          2.10963097e+01, 7.64873123e+00, 0., 0., 0., 0., 1.68160591e+01,
          2.27571278e+01, 1.64369335e+01, 3.64114857e+00, 0.,
          1.55645447e+01, 1.37621794e+01, 4.46117699e-01, 2.13908443e+01,
          0., 0., 0., 1.62271004e+01, 1.21815376e+01, 9.71589184e+00, 0.,
          2.59938107e+01, 0., 0., 5.31438684e+00, 1.97241974e+01,
          1.42669716e+01, 0., 0., 0., 0., 0., 0., 6.71115112e+00,
          1.57997169e+01, 0., 0., 0., 0., 2.22750607e+01, 1.56367416e+01,
          0., 6.31625843e+00, 0., 0., 2.10103550e+01, 4.36749846e-01,
          1.29957399e+01, 0., 9.58847046e+00, 1.53464060e+01,
          1.60071259e+01, 0., 0., 0., 1.83526974e+01, 1.39866562e+01, 0.,
          0., 0., 4.52804279e+00, 7.61699343e+00, 2.92836838e+01, 0.,
          8.94924450e+00, 6.82925510e+00, 4.92545319e+00, 0., 0.,
          3.53768229e+00, 3.81487160e+01, 1.63539925e+01, 0.,
          5.87501335e+00, 0., 0., 1.30812731e+01, 0., 0., 1.31120768e+01,
          0., 3.84933352e+00, 1.05605402e+01, 0., 0., 2.53485656e+00, 0.,
          6.04600430e+00, 6.81818104e+00, 0., 9.35056877e+00, 0., 0., 0. ]
      - [ 0., 4.37922001e+00, 2.65196228e+00, 0., 1.40805588e+01, 0., 0.,
          8.81543541e+00, 4.50190258e+00, 1.75171204e+01, 2.01398277e+01,
          8.17433834e+00, 0., 0., 0., 0., 0., 1.65650635e+01, 0., 0.,
          1.44946928e+01, 2.18162117e+01, 0., 8.89722157e+00,
          8.03556621e-01, 1.01931877e+01, 0., 2.99559742e-01, 0.,
          1.77356243e+01, 2.68105927e+01, 1.27246494e+01, 2.66302242e+01,
          2.10963097e+01, 7.64873123e+00, 0., 0., 0., 0., 1.68160591e+01,
          2.27571278e+01, 1.64369335e+01, 3.64114857e+00, 0.,
          1.55645447e+01, 1.37621794e+01, 4.46117699e-01, 2.13908443e+01,
          0., 0., 0., 1.62271004e+01, 1.21815376e+01, 9.71589184e+00, 0.,
          2.59938107e+01, 0., 0., 5.31438684e+00, 1.97241974e+01,
          1.42669716e+01, 0., 0., 0., 0., 0., 0., 6.71115112e+00,
          1.57997169e+01, 0., 0., 0., 0., 2.22750607e+01, 1.56367416e+01,
          0., 6.31625843e+00, 0., 0., 2.10103550e+01, 4.36749846e-01,
          1.29957399e+01, 0., 9.58847046e+00, 1.53464060e+01,
          1.60071259e+01, 0., 0., 0., 1.83526974e+01, 1.39866562e+01, 0.,
          0., 0., 4.52804279e+00, 7.61699343e+00, 2.92836838e+01, 0.,
          8.94924450e+00, 6.82925510e+00, 4.92545319e+00, 0., 0.,
          3.53768229e+00, 3.81487160e+01, 1.63539925e+01, 0.,
          5.87501335e+00, 0., 0., 1.30812731e+01, 0., 0., 1.31120768e+01,
          0., 3.84933352e+00, 1.05605402e+01, 0., 0., 2.53485656e+00, 0.,
          6.04600430e+00, 6.81818104e+00, 0., 9.35056877e+00, 0., 0., 0. ]
      - [ 0., 4.37922001e+00, 2.65196228e+00, 0., 1.40805588e+01, 0., 0.,
          8.81543541e+00, 4.50190258e+00, 1.75171204e+01, 2.01398277e+01,
          8.17433834e+00, 0., 0., 0., 0., 0., 1.65650635e+01, 0., 0.,
          1.44946928e+01, 2.18162117e+01, 0., 8.89722157e+00,
          8.03556621e-01, 1.01931877e+01, 0., 2.99559742e-01, 0.,
          1.77356243e+01, 2.68105927e+01, 1.27246494e+01, 2.66302242e+01,
          2.10963097e+01, 7.64873123e+00, 0., 0., 0., 0., 1.68160591e+01,
          2.27571278e+01, 1.64369335e+01, 3.64114857e+00, 0.,
          1.55645447e+01, 1.37621794e+01, 4.46117699e-01, 2.13908443e+01,
          0., 0., 0., 1.62271004e+01, 1.21815376e+01, 9.71589184e+00, 0.,
          2.59938107e+01, 0., 0., 5.31438684e+00, 1.97241974e+01,
          1.42669716e+01, 0., 0., 0., 0., 0., 0., 6.71115112e+00,
          1.57997169e+01, 0., 0., 0., 0., 2.22750607e+01, 1.56367416e+01,
          0., 6.31625843e+00, 0., 0., 2.10103550e+01, 4.36749846e-01,
          1.29957399e+01, 0., 9.58847046e+00, 1.53464060e+01,
          1.60071259e+01, 0., 0., 0., 1.83526974e+01, 1.39866562e+01, 0.,
          0., 0., 4.52804279e+00, 7.61699343e+00, 2.92836838e+01, 0.,
          8.94924450e+00, 6.82925510e+00, 4.92545319e+00, 0., 0.,
          3.53768229e+00, 3.81487160e+01, 1.63539925e+01, 0.,
          5.87501335e+00, 0., 0., 1.30812731e+01, 0., 0., 1.31120768e+01,
          0., 3.84933352e+00, 1.05605402e+01, 0., 0., 2.53485656e+00, 0.,
          6.04600430e+00, 6.81818104e+00, 0., 9.35056877e+00, 0., 0., 0. ]
      - [ 0., 4.37922001e+00, 2.65196228e+00, 0., 1.40805588e+01, 0., 0.,
          8.81543541e+00, 4.50190258e+00, 1.75171204e+01, 2.01398277e+01,
          8.17433834e+00, 0., 0., 0., 0., 0., 1.65650635e+01, 0., 0.,
          1.44946928e+01, 2.18162117e+01, 0., 8.89722157e+00,
          8.03556621e-01, 1.01931877e+01, 0., 2.99559742e-01, 0.,
          1.77356243e+01, 2.68105927e+01, 1.27246494e+01, 2.66302242e+01,
          2.10963097e+01, 7.64873123e+00, 0., 0., 0., 0., 1.68160591e+01,
          2.27571278e+01, 1.64369335e+01, 3.64114857e+00, 0.,
          1.55645447e+01, 1.37621794e+01, 4.46117699e-01, 2.13908443e+01,
          0., 0., 0., 1.62271004e+01, 1.21815376e+01, 9.71589184e+00, 0.,
          2.59938107e+01, 0., 0., 5.31438684e+00, 1.97241974e+01,
          1.42669716e+01, 0., 0., 0., 0., 0., 0., 6.71115112e+00,
          1.57997169e+01, 0., 0., 0., 0., 2.22750607e+01, 1.56367416e+01,
          0., 6.31625843e+00, 0., 0., 2.10103550e+01, 4.36749846e-01,
          1.29957399e+01, 0., 9.58847046e+00, 1.53464060e+01,
          1.60071259e+01, 0., 0., 0., 1.83526974e+01, 1.39866562e+01, 0.,
          0., 0., 4.52804279e+00, 7.61699343e+00, 2.92836838e+01, 0.,
          8.94924450e+00, 6.82925510e+00, 4.92545319e+00, 0., 0.,
          3.53768229e+00, 3.81487160e+01, 1.63539925e+01, 0.,
          5.87501335e+00, 0., 0., 1.30812731e+01, 0., 0., 1.31120768e+01,
          0., 3.84933352e+00, 1.05605402e+01, 0., 0., 2.53485656e+00, 0.,
          6.04600430e+00, 6.81818104e+00, 0., 9.35056877e+00, 0., 0., 0. ]
      - [ 0., 4.37922001e+00, 2.65196228e+00, 0., 1.40805588e+01, 0., 0.,
          8.81543541e+00, 4.50190258e+00, 1.75171204e+01, 2.01398277e+01,
          8.17433834e+00, 0., 0., 0., 0., 0., 1.65650635e+01, 0., 0.,
          1.44946928e+01, 2.18162117e+01, 0., 8.89722157e+00,
          8.03556621e-01, 1.01931877e+01, 0., 2.99559742e-01, 0.,
          1.77356243e+01, 2.68105927e+01, 1.27246494e+01, 2.66302242e+01,
          2.10963097e+01, 7.64873123e+00, 0., 0., 0., 0., 1.68160591e+01,
          2.27571278e+01, 1.64369335e+01, 3.64114857e+00, 0.,
          1.55645447e+01, 1.37621794e+01, 4.46117699e-01, 2.13908443e+01,
          0., 0., 0., 1.62271004e+01, 1.21815376e+01, 9.71589184e+00, 0.,
          2.59938107e+01, 0., 0., 5.31438684e+00, 1.97241974e+01,
          1.42669716e+01, 0., 0., 0., 0., 0., 0., 6.71115112e+00,
          1.57997169e+01, 0., 0., 0., 0., 2.22750607e+01, 1.56367416e+01,
          0., 6.31625843e+00, 0., 0., 2.10103550e+01, 4.36749846e-01,
          1.29957399e+01, 0., 9.58847046e+00, 1.53464060e+01,
          1.60071259e+01, 0., 0., 0., 1.83526974e+01, 1.39866562e+01, 0.,
          0., 0., 4.52804279e+00, 7.61699343e+00, 2.92836838e+01, 0.,
          8.94924450e+00, 6.82925510e+00, 4.92545319e+00, 0., 0.,
          3.53768229e+00, 3.81487160e+01, 1.63539925e+01, 0.,
          5.87501335e+00, 0., 0., 1.30812731e+01, 0., 0., 1.31120768e+01,
          0., 3.84933352e+00, 1.05605402e+01, 0., 0., 2.53485656e+00, 0.,
          6.04600430e+00, 6.81818104e+00, 0., 9.35056877e+00, 0., 0., 0. ]
      - [ 0., 4.37922001e+00, 2.65196228e+00, 0., 1.40805588e+01, 0., 0.,
          8.81543541e+00, 4.50190258e+00, 1.75171204e+01, 2.01398277e+01,
          8.17433834e+00, 0., 0., 0., 0., 0., 1.65650635e+01, 0., 0.,
          1.44946928e+01, 2.18162117e+01, 0., 8.89722157e+00,
          8.03556621e-01, 1.01931877e+01, 0., 2.99559742e-01, 0.,
          1.77356243e+01, 2.68105927e+01, 1.27246494e+01, 2.66302242e+01,
          2.10963097e+01, 7.64873123e+00, 0., 0., 0., 0., 1.68160591e+01,
          2.27571278e+01, 1.64369335e+01, 3.64114857e+00, 0.,
          1.55645447e+01, 1.37621794e+01, 4.46117699e-01, 2.13908443e+01,
          0., 0., 0., 1.62271004e+01, 1.21815376e+01, 9.71589184e+00, 0.,
          2.59938107e+01, 0., 0., 5.31438684e+00, 1.97241974e+01,
          1.42669716e+01, 0., 0., 0., 0., 0., 0., 6.71115112e+00,
          1.57997169e+01, 0., 0., 0., 0., 2.22750607e+01, 1.56367416e+01,
          0., 6.31625843e+00, 0., 0., 2.10103550e+01, 4.36749846e-01,
          1.29957399e+01, 0., 9.58847046e+00, 1.53464060e+01,
          1.60071259e+01, 0., 0., 0., 1.83526974e+01, 1.39866562e+01, 0.,
          0., 0., 4.52804279e+00, 7.61699343e+00, 2.92836838e+01, 0.,
          8.94924450e+00, 6.82925510e+00, 4.92545319e+00, 0., 0.,
          3.53768229e+00, 3.81487160e+01, 1.63539925e+01, 0.,
          5.87501335e+00, 0., 0., 1.30812731e+01, 0., 0., 1.31120768e+01,
          0., 3.84933352e+00, 1.05605402e+01, 0., 0., 2.53485656e+00, 0.,
          6.04600430e+00, 6.81818104e+00, 0., 9.35056877e+00, 0., 0., 0. ]
      - [ 0., 4.37922001e+00, 2.65196228e+00, 0., 1.40805588e+01, 0., 0.,
          8.81543541e+00, 4.50190258e+00, 1.75171204e+01, 2.01398277e+01,
          8.17433834e+00, 0., 0., 0., 0., 0., 1.65650635e+01, 0., 0.,
          1.44946928e+01, 2.18162117e+01, 0., 8.89722157e+00,
          8.03556621e-01, 1.01931877e+01, 0., 2.99559742e-01, 0.,
          1.77356243e+01, 2.68105927e+01, 1.27246494e+01, 2.66302242e+01,
          2.10963097e+01, 7.64873123e+00, 0., 0., 0., 0., 1.68160591e+01,
          2.27571278e+01, 1.64369335e+01, 3.64114857e+00, 0.,
          1.55645447e+01, 1.37621794e+01, 4.46117699e-01, 2.13908443e+01,
          0., 0., 0., 1.62271004e+01, 1.21815376e+01, 9.71589184e+00, 0.,
          2.59938107e+01, 0., 0., 5.31438684e+00, 1.97241974e+01,
          1.42669716e+01, 0., 0., 0., 0., 0., 0., 6.71115112e+00,
          1.57997169e+01, 0., 0., 0., 0., 2.22750607e+01, 1.56367416e+01,
          0., 6.31625843e+00, 0., 0., 2.10103550e+01, 4.36749846e-01,
          1.29957399e+01, 0., 9.58847046e+00, 1.53464060e+01,
          1.60071259e+01, 0., 0., 0., 1.83526974e+01, 1.39866562e+01, 0.,
          0., 0., 4.52804279e+00, 7.61699343e+00, 2.92836838e+01, 0.,
          8.94924450e+00, 6.82925510e+00, 4.92545319e+00, 0., 0.,
          3.53768229e+00, 3.81487160e+01, 1.63539925e+01, 0.,
          5.87501335e+00, 0., 0., 1.30812731e+01, 0., 0., 1.31120768e+01,
          0., 3.84933352e+00, 1.05605402e+01, 0., 0., 2.53485656e+00, 0.,
          6.04600430e+00, 6.81818104e+00, 0., 9.35056877e+00, 0., 0., 0. ]
      - [ 0., 4.37922001e+00, 2.65196228e+00, 0., 1.40805588e+01, 0., 0.,
          8.81543541e+00, 4.50190258e+00, 1.75171204e+01, 2.01398277e+01,
          8.17433834e+00, 0., 0., 0., 0., 0., 1.65650635e+01, 0., 0.,
          1.44946928e+01, 2.18162117e+01, 0., 8.89722157e+00,
          8.03556621e-01, 1.01931877e+01, 0., 2.99559742e-01, 0.,
          1.77356243e+01, 2.68105927e+01, 1.27246494e+01, 2.66302242e+01,
          2.10963097e+01, 7.64873123e+00, 0., 0., 0., 0., 1.68160591e+01,
          2.27571278e+01, 1.64369335e+01, 3.64114857e+00, 0.,
          1.55645447e+01, 1.37621794e+01, 4.46117699e-01, 2.13908443e+01,
          0., 0., 0., 1.62271004e+01, 1.21815376e+01, 9.71589184e+00, 0.,
          2.59938107e+01, 0., 0., 5.31438684e+00, 1.97241974e+01,
          1.42669716e+01, 0., 0., 0., 0., 0., 0., 6.71115112e+00,
          1.57997169e+01, 0., 0., 0., 0., 2.22750607e+01, 1.56367416e+01,
          0., 6.31625843e+00, 0., 0., 2.10103550e+01, 4.36749846e-01,
          1.29957399e+01, 0., 9.58847046e+00, 1.53464060e+01,
          1.60071259e+01, 0., 0., 0., 1.83526974e+01, 1.39866562e+01, 0.,
          0., 0., 4.52804279e+00, 7.61699343e+00, 2.92836838e+01, 0.,
          8.94924450e+00, 6.82925510e+00, 4.92545319e+00, 0., 0.,
          3.53768229e+00, 3.81487160e+01, 1.63539925e+01, 0.,
          5.87501335e+00, 0., 0., 1.30812731e+01, 0., 0., 1.31120768e+01,
          0., 3.84933352e+00, 1.05605402e+01, 0., 0., 2.53485656e+00, 0.,
          6.04600430e+00, 6.81818104e+00, 0., 9.35056877e+00, 0., 0., 0. ]
      - [ 0., 4.37922001e+00, 2.65196228e+00, 0., 1.40805588e+01, 0., 0.,
          8.81543541e+00, 4.50190258e+00, 1.75171204e+01, 2.01398277e+01,
          8.17433834e+00, 0., 0., 0., 0., 0., 1.65650635e+01, 0., 0.,
          1.44946928e+01, 2.18162117e+01, 0., 8.89722157e+00,
          8.03556621e-01, 1.01931877e+01, 0., 2.99559742e-01, 0.,
          1.77356243e+01, 2.68105927e+01, 1.27246494e+01, 2.66302242e+01,
          2.10963097e+01, 7.64873123e+00, 0., 0., 0., 0., 1.68160591e+01,
          2.27571278e+01, 1.64369335e+01, 3.64114857e+00, 0.,
          1.55645447e+01, 1.37621794e+01, 4.46117699e-01, 2.13908443e+01,
          0., 0., 0., 1.62271004e+01, 1.21815376e+01, 9.71589184e+00, 0.,
          2.59938107e+01, 0., 0., 5.31438684e+00, 1.97241974e+01,
          1.42669716e+01, 0., 0., 0., 0., 0., 0., 6.71115112e+00,
          1.57997169e+01, 0., 0., 0., 0., 2.22750607e+01, 1.56367416e+01,
          0., 6.31625843e+00, 0., 0., 2.10103550e+01, 4.36749846e-01,
          1.29957399e+01, 0., 9.58847046e+00, 1.53464060e+01,
          1.60071259e+01, 0., 0., 0., 1.83526974e+01, 1.39866562e+01, 0.,
          0., 0., 4.52804279e+00, 7.61699343e+00, 2.92836838e+01, 0.,
          8.94924450e+00, 6.82925510e+00, 4.92545319e+00, 0., 0.,
          3.53768229e+00, 3.81487160e+01, 1.63539925e+01, 0.,
          5.87501335e+00, 0., 0., 1.30812731e+01, 0., 0., 1.31120768e+01,
          0., 3.84933352e+00, 1.05605402e+01, 0., 0., 2.53485656e+00, 0.,
          6.04600430e+00, 6.81818104e+00, 0., 9.35056877e+00, 0., 0., 0. ]
      - [ 0., 4.37922001e+00, 2.65196228e+00, 0., 1.40805588e+01, 0., 0.,
          8.81543541e+00, 4.50190258e+00, 1.75171204e+01, 2.01398277e+01,
          8.17433834e+00, 0., 0., 0., 0., 0., 1.65650635e+01, 0., 0.,
          1.44946928e+01, 2.18162117e+01, 0., 8.89722157e+00,
          8.03556621e-01, 1.01931877e+01, 0., 2.99559742e-01, 0.,
          1.77356243e+01, 2.68105927e+01, 1.27246494e+01, 2.66302242e+01,
          2.10963097e+01, 7.64873123e+00, 0., 0., 0., 0., 1.68160591e+01,
          2.27571278e+01, 1.64369335e+01, 3.64114857e+00, 0.,
          1.55645447e+01, 1.37621794e+01, 4.46117699e-01, 2.13908443e+01,
          0., 0., 0., 1.62271004e+01, 1.21815376e+01, 9.71589184e+00, 0.,
          2.59938107e+01, 0., 0., 5.31438684e+00, 1.97241974e+01,
          1.42669716e+01, 0., 0., 0., 0., 0., 0., 6.71115112e+00,
          1.57997169e+01, 0., 0., 0., 0., 2.22750607e+01, 1.56367416e+01,
          0., 6.31625843e+00, 0., 0., 2.10103550e+01, 4.36749846e-01,
          1.29957399e+01, 0., 9.58847046e+00, 1.53464060e+01,
          1.60071259e+01, 0., 0., 0., 1.83526974e+01, 1.39866562e+01, 0.,
          0., 0., 4.52804279e+00, 7.61699343e+00, 2.92836838e+01, 0.,
          8.94924450e+00, 6.82925510e+00, 4.92545319e+00, 0., 0.,
          3.53768229e+00, 3.81487160e+01, 1.63539925e+01, 0.,
          5.87501335e+00, 0., 0., 1.30812731e+01, 0., 0., 1.31120768e+01,
          0., 3.84933352e+00, 1.05605402e+01, 0., 0., 2.53485656e+00, 0.,
          6.04600430e+00, 6.81818104e+00, 0., 9.35056877e+00, 0., 0., 0. ]
      - [ 0., 4.37922001e+00, 2.65196228e+00, 0., 1.40805588e+01, 0., 0.,
          8.81543541e+00, 4.50190258e+00, 1.75171204e+01, 2.01398277e+01,
          8.17433834e+00, 0., 0., 0., 0., 0., 1.65650635e+01, 0., 0.,
          1.44946928e+01, 2.18162117e+01, 0., 8.89722157e+00,
          8.03556621e-01, 1.01931877e+01, 0., 2.99559742e-01, 0.,
          1.77356243e+01, 2.68105927e+01, 1.27246494e+01, 2.66302242e+01,
          2.10963097e+01, 7.64873123e+00, 0., 0., 0., 0., 1.68160591e+01,
          2.27571278e+01, 1.64369335e+01, 3.64114857e+00, 0.,
          1.55645447e+01, 1.37621794e+01, 4.46117699e-01, 2.13908443e+01,
          0., 0., 0., 1.62271004e+01, 1.21815376e+01, 9.71589184e+00, 0.,
          2.59938107e+01, 0., 0., 5.31438684e+00, 1.97241974e+01,
          1.42669716e+01, 0., 0., 0., 0., 0., 0., 6.71115112e+00,
          1.57997169e+01, 0., 0., 0., 0., 2.22750607e+01, 1.56367416e+01,
          0., 6.31625843e+00, 0., 0., 2.10103550e+01, 4.36749846e-01,
          1.29957399e+01, 0., 9.58847046e+00, 1.53464060e+01,
          1.60071259e+01, 0., 0., 0., 1.83526974e+01, 1.39866562e+01, 0.,
          0., 0., 4.52804279e+00, 7.61699343e+00, 2.92836838e+01, 0.,
          8.94924450e+00, 6.82925510e+00, 4.92545319e+00, 0., 0.,
          3.53768229e+00, 3.81487160e+01, 1.63539925e+01, 0.,
          5.87501335e+00, 0., 0., 1.30812731e+01, 0., 0., 1.31120768e+01,
          0., 3.84933352e+00, 1.05605402e+01, 0., 0., 2.53485656e+00, 0.,
          6.04600430e+00, 6.81818104e+00, 0., 9.35056877e+00, 0., 0., 0. ]
      - [ 0., 4.37922001e+00, 2.65196228e+00, 0., 1.40805588e+01, 0., 0.,
          8.81543541e+00, 4.50190258e+00, 1.75171204e+01, 2.01398277e+01,
          8.17433834e+00, 0., 0., 0., 0., 0., 1.65650635e+01, 0., 0.,
          1.44946928e+01, 2.18162117e+01, 0., 8.89722157e+00,
          8.03556621e-01, 1.01931877e+01, 0., 2.99559742e-01, 0.,
          1.77356243e+01, 2.68105927e+01, 1.27246494e+01, 2.66302242e+01,
          2.10963097e+01, 7.64873123e+00, 0., 0., 0., 0., 1.68160591e+01,
          2.27571278e+01, 1.64369335e+01, 3.64114857e+00, 0.,
          1.55645447e+01, 1.37621794e+01, 4.46117699e-01, 2.13908443e+01,
          0., 0., 0., 1.62271004e+01, 1.21815376e+01, 9.71589184e+00, 0.,
          2.59938107e+01, 0., 0., 5.31438684e+00, 1.97241974e+01,
          1.42669716e+01, 0., 0., 0., 0., 0., 0., 6.71115112e+00,
          1.57997169e+01, 0., 0., 0., 0., 2.22750607e+01, 1.56367416e+01,
          0., 6.31625843e+00, 0., 0., 2.10103550e+01, 4.36749846e-01,
          1.29957399e+01, 0., 9.58847046e+00, 1.53464060e+01,
          1.60071259e+01, 0., 0., 0., 1.83526974e+01, 1.39866562e+01, 0.,
          0., 0., 4.52804279e+00, 7.61699343e+00, 2.92836838e+01, 0.,
          8.94924450e+00, 6.82925510e+00, 4.92545319e+00, 0., 0.,
          3.53768229e+00, 3.81487160e+01, 1.63539925e+01, 0.,
          5.87501335e+00, 0., 0., 1.30812731e+01, 0., 0., 1.31120768e+01,
          0., 3.84933352e+00, 1.05605402e+01, 0., 0., 2.53485656e+00, 0.,
          6.04600430e+00, 6.81818104e+00, 0., 9.35056877e+00, 0., 0., 0. ]
      - [ 0., 4.37922001e+00, 2.65196228e+00, 0., 1.40805588e+01, 0., 0.,
          8.81543541e+00, 4.50190258e+00, 1.75171204e+01, 2.01398277e+01,
          8.17433834e+00, 0., 0., 0., 0., 0., 1.65650635e+01, 0., 0.,
          1.44946928e+01, 2.18162117e+01, 0., 8.89722157e+00,
          8.03556621e-01, 1.01931877e+01, 0., 2.99559742e-01, 0.,
          1.77356243e+01, 2.68105927e+01, 1.27246494e+01, 2.66302242e+01,
          2.10963097e+01, 7.64873123e+00, 0., 0., 0., 0., 1.68160591e+01,
          2.27571278e+01, 1.64369335e+01, 3.64114857e+00, 0.,
          1.55645447e+01, 1.37621794e+01, 4.46117699e-01, 2.13908443e+01,
          0., 0., 0., 1.62271004e+01, 1.21815376e+01, 9.71589184e+00, 0.,
          2.59938107e+01, 0., 0., 5.31438684e+00, 1.97241974e+01,
          1.42669716e+01, 0., 0., 0., 0., 0., 0., 6.71115112e+00,
          1.57997169e+01, 0., 0., 0., 0., 2.22750607e+01, 1.56367416e+01,
          0., 6.31625843e+00, 0., 0., 2.10103550e+01, 4.36749846e-01,
          1.29957399e+01, 0., 9.58847046e+00, 1.53464060e+01,
          1.60071259e+01, 0., 0., 0., 1.83526974e+01, 1.39866562e+01, 0.,
          0., 0., 4.52804279e+00, 7.61699343e+00, 2.92836838e+01, 0.,
          8.94924450e+00, 6.82925510e+00, 4.92545319e+00, 0., 0.,
          3.53768229e+00, 3.81487160e+01, 1.63539925e+01, 0.,
          5.87501335e+00, 0., 0., 1.30812731e+01, 0., 0., 1.31120768e+01,
          0., 3.84933352e+00, 1.05605402e+01, 0., 0., 2.53485656e+00, 0.,
          6.04600430e+00, 6.81818104e+00, 0., 9.35056877e+00, 0., 0., 0. ]
      - [ 0., 4.37922001e+00, 2.65196228e+00, 0., 1.40805588e+01, 0., 0.,
          8.81543541e+00, 4.50190258e+00, 1.75171204e+01, 2.01398277e+01,
          8.17433834e+00, 0., 0., 0., 0., 0., 1.65650635e+01, 0., 0.,
          1.44946928e+01, 2.18162117e+01, 0., 8.89722157e+00,
          8.03556621e-01, 1.01931877e+01, 0., 2.99559742e-01, 0.,
          1.77356243e+01, 2.68105927e+01, 1.27246494e+01, 2.66302242e+01,
          2.10963097e+01, 7.64873123e+00, 0., 0., 0., 0., 1.68160591e+01,
          2.27571278e+01, 1.64369335e+01, 3.64114857e+00, 0.,
          1.55645447e+01, 1.37621794e+01, 4.46117699e-01, 2.13908443e+01,
          0., 0., 0., 1.62271004e+01, 1.21815376e+01, 9.71589184e+00, 0.,
          2.59938107e+01, 0., 0., 5.31438684e+00, 1.97241974e+01,
          1.42669716e+01, 0., 0., 0., 0., 0., 0., 6.71115112e+00,
          1.57997169e+01, 0., 0., 0., 0., 2.22750607e+01, 1.56367416e+01,
          0., 6.31625843e+00, 0., 0., 2.10103550e+01, 4.36749846e-01,
          1.29957399e+01, 0., 9.58847046e+00, 1.53464060e+01,
          1.60071259e+01, 0., 0., 0., 1.83526974e+01, 1.39866562e+01, 0.,
          0., 0., 4.52804279e+00, 7.61699343e+00, 2.92836838e+01, 0.,
          8.94924450e+00, 6.82925510e+00, 4.92545319e+00, 0., 0.,
          3.53768229e+00, 3.81487160e+01, 1.63539925e+01, 0.,
          5.87501335e+00, 0., 0., 1.30812731e+01, 0., 0., 1.31120768e+01,
          0., 3.84933352e+00, 1.05605402e+01, 0., 0., 2.53485656e+00, 0.,
          6.04600430e+00, 6.81818104e+00, 0., 9.35056877e+00, 0., 0., 0. ]
      - [ 0., 4.37922001e+00, 2.65196228e+00, 0., 1.40805588e+01, 0., 0.,
          8.81543541e+00, 4.50190258e+00, 1.75171204e+01, 2.01398277e+01,
          8.17433834e+00, 0., 0., 0., 0., 0., 1.65650635e+01, 0., 0.,
          1.44946928e+01, 2.18162117e+01, 0., 8.89722157e+00,
          8.03556621e-01, 1.01931877e+01, 0., 2.99559742e-01, 0.,
          1.77356243e+01, 2.68105927e+01, 1.27246494e+01, 2.66302242e+01,
          2.10963097e+01, 7.64873123e+00, 0., 0., 0., 0., 1.68160591e+01,
          2.27571278e+01, 1.64369335e+01, 3.64114857e+00, 0.,
          1.55645447e+01, 1.37621794e+01, 4.46117699e-01, 2.13908443e+01,
          0., 0., 0., 1.62271004e+01, 1.21815376e+01, 9.71589184e+00, 0.,
          2.59938107e+01, 0., 0., 5.31438684e+00, 1.97241974e+01,
          1.42669716e+01, 0., 0., 0., 0., 0., 0., 6.71115112e+00,
          1.57997169e+01, 0., 0., 0., 0., 2.22750607e+01, 1.56367416e+01,
          0., 6.31625843e+00, 0., 0., 2.10103550e+01, 4.36749846e-01,
          1.29957399e+01, 0., 9.58847046e+00, 1.53464060e+01,
          1.60071259e+01, 0., 0., 0., 1.83526974e+01, 1.39866562e+01, 0.,
          0., 0., 4.52804279e+00, 7.61699343e+00, 2.92836838e+01, 0.,
          8.94924450e+00, 6.82925510e+00, 4.92545319e+00, 0., 0.,
          3.53768229e+00, 3.81487160e+01, 1.63539925e+01, 0.,
          5.87501335e+00, 0., 0., 1.30812731e+01, 0., 0., 1.31120768e+01,
          0., 3.84933352e+00, 1.05605402e+01, 0., 0., 2.53485656e+00, 0.,
          6.04600430e+00, 6.81818104e+00, 0., 9.35056877e+00, 0., 0., 0. ]
      - [ 0., 4.37922001e+00, 2.65196228e+00, 0., 1.40805588e+01, 0., 0.,
          8.81543541e+00, 4.50190258e+00, 1.75171204e+01, 2.01398277e+01,
          8.17433834e+00, 0., 0., 0., 0., 0., 1.65650635e+01, 0., 0.,
          1.44946928e+01, 2.18162117e+01, 0., 8.89722157e+00,
          8.03556621e-01, 1.01931877e+01, 0., 2.99559742e-01, 0.,
          1.77356243e+01, 2.68105927e+01, 1.27246494e+01, 2.66302242e+01,
          2.10963097e+01, 7.64873123e+00, 0., 0., 0., 0., 1.68160591e+01,
          2.27571278e+01, 1.64369335e+01, 3.64114857e+00, 0.,
          1.55645447e+01, 1.37621794e+01, 4.46117699e-01, 2.13908443e+01,
          0., 0., 0., 1.62271004e+01, 1.21815376e+01, 9.71589184e+00, 0.,
          2.59938107e+01, 0., 0., 5.31438684e+00, 1.97241974e+01,
          1.42669716e+01, 0., 0., 0., 0., 0., 0., 6.71115112e+00,
          1.57997169e+01, 0., 0., 0., 0., 2.22750607e+01, 1.56367416e+01,
          0., 6.31625843e+00, 0., 0., 2.10103550e+01, 4.36749846e-01,
          1.29957399e+01, 0., 9.58847046e+00, 1.53464060e+01,
          1.60071259e+01, 0., 0., 0., 1.83526974e+01, 1.39866562e+01, 0.,
          0., 0., 4.52804279e+00, 7.61699343e+00, 2.92836838e+01, 0.,
          8.94924450e+00, 6.82925510e+00, 4.92545319e+00, 0., 0.,
          3.53768229e+00, 3.81487160e+01, 1.63539925e+01, 0.,
          5.87501335e+00, 0., 0., 1.30812731e+01, 0., 0., 1.31120768e+01,
          0., 3.84933352e+00, 1.05605402e+01, 0., 0., 2.53485656e+00, 0.,
          6.04600430e+00, 6.81818104e+00, 0., 9.35056877e+00, 0., 0., 0. ]
      - [ 0., 4.37922001e+00, 2.65196228e+00, 0., 1.40805588e+01, 0., 0.,
          8.81543541e+00, 4.50190258e+00, 1.75171204e+01, 2.01398277e+01,
          8.17433834e+00, 0., 0., 0., 0., 0., 1.65650635e+01, 0., 0.,
          1.44946928e+01, 2.18162117e+01, 0., 8.89722157e+00,
          8.03556621e-01, 1.01931877e+01, 0., 2.99559742e-01, 0.,
          1.77356243e+01, 2.68105927e+01, 1.27246494e+01, 2.66302242e+01,
          2.10963097e+01, 7.64873123e+00, 0., 0., 0., 0., 1.68160591e+01,
          2.27571278e+01, 1.64369335e+01, 3.64114857e+00, 0.,
          1.55645447e+01, 1.37621794e+01, 4.46117699e-01, 2.13908443e+01,
          0., 0., 0., 1.62271004e+01, 1.21815376e+01, 9.71589184e+00, 0.,
          2.59938107e+01, 0., 0., 5.31438684e+00, 1.97241974e+01,
          1.42669716e+01, 0., 0., 0., 0., 0., 0., 6.71115112e+00,
          1.57997169e+01, 0., 0., 0., 0., 2.22750607e+01, 1.56367416e+01,
          0., 6.31625843e+00, 0., 0., 2.10103550e+01, 4.36749846e-01,
          1.29957399e+01, 0., 9.58847046e+00, 1.53464060e+01,
          1.60071259e+01, 0., 0., 0., 1.83526974e+01, 1.39866562e+01, 0.,
          0., 0., 4.52804279e+00, 7.61699343e+00, 2.92836838e+01, 0.,
          8.94924450e+00, 6.82925510e+00, 4.92545319e+00, 0., 0.,
          3.53768229e+00, 3.81487160e+01, 1.63539925e+01, 0.,
          5.87501335e+00, 0., 0., 1.30812731e+01, 0., 0., 1.31120768e+01,
          0., 3.84933352e+00, 1.05605402e+01, 0., 0., 2.53485656e+00, 0.,
          6.04600430e+00, 6.81818104e+00, 0., 9.35056877e+00, 0., 0., 0. ]
      - [ 0., 4.37922001e+00, 2.65196228e+00, 0., 1.40805588e+01, 0., 0.,
          8.81543541e+00, 4.50190258e+00, 1.75171204e+01, 2.01398277e+01,
          8.17433834e+00, 0., 0., 0., 0., 0., 1.65650635e+01, 0., 0.,
          1.44946928e+01, 2.18162117e+01, 0., 8.89722157e+00,
          8.03556621e-01, 1.01931877e+01, 0., 2.99559742e-01, 0.,
          1.77356243e+01, 2.68105927e+01, 1.27246494e+01, 2.66302242e+01,
          2.10963097e+01, 7.64873123e+00, 0., 0., 0., 0., 1.68160591e+01,
          2.27571278e+01, 1.64369335e+01, 3.64114857e+00, 0.,
          1.55645447e+01, 1.37621794e+01, 4.46117699e-01, 2.13908443e+01,
          0., 0., 0., 1.62271004e+01, 1.21815376e+01, 9.71589184e+00, 0.,
          2.59938107e+01, 0., 0., 5.31438684e+00, 1.97241974e+01,
          1.42669716e+01, 0., 0., 0., 0., 0., 0., 6.71115112e+00,
          1.57997169e+01, 0., 0., 0., 0., 2.22750607e+01, 1.56367416e+01,
          0., 6.31625843e+00, 0., 0., 2.10103550e+01, 4.36749846e-01,
          1.29957399e+01, 0., 9.58847046e+00, 1.53464060e+01,
          1.60071259e+01, 0., 0., 0., 1.83526974e+01, 1.39866562e+01, 0.,
          0., 0., 4.52804279e+00, 7.61699343e+00, 2.92836838e+01, 0.,
          8.94924450e+00, 6.82925510e+00, 4.92545319e+00, 0., 0.,
          3.53768229e+00, 3.81487160e+01, 1.63539925e+01, 0.,
          5.87501335e+00, 0., 0., 1.30812731e+01, 0., 0., 1.31120768e+01,
          0., 3.84933352e+00, 1.05605402e+01, 0., 0., 2.53485656e+00, 0.,
          6.04600430e+00, 6.81818104e+00, 0., 9.35056877e+00, 0., 0., 0. ]
      - [ 0., 4.37922001e+00, 2.65196228e+00, 0., 1.40805588e+01, 0., 0.,
          8.81543541e+00, 4.50190258e+00, 1.75171204e+01, 2.01398277e+01,
          8.17433834e+00, 0., 0., 0., 0., 0., 1.65650635e+01, 0., 0.,
          1.44946928e+01, 2.18162117e+01, 0., 8.89722157e+00,
          8.03556621e-01, 1.01931877e+01, 0., 2.99559742e-01, 0.,
          1.77356243e+01, 2.68105927e+01, 1.27246494e+01, 2.66302242e+01,
          2.10963097e+01, 7.64873123e+00, 0., 0., 0., 0., 1.68160591e+01,
          2.27571278e+01, 1.64369335e+01, 3.64114857e+00, 0.,
          1.55645447e+01, 1.37621794e+01, 4.46117699e-01, 2.13908443e+01,
          0., 0., 0., 1.62271004e+01, 1.21815376e+01, 9.71589184e+00, 0.,
          2.59938107e+01, 0., 0., 5.31438684e+00, 1.97241974e+01,
          1.42669716e+01, 0., 0., 0., 0., 0., 0., 6.71115112e+00,
          1.57997169e+01, 0., 0., 0., 0., 2.22750607e+01, 1.56367416e+01,
          0., 6.31625843e+00, 0., 0., 2.10103550e+01, 4.36749846e-01,
          1.29957399e+01, 0., 9.58847046e+00, 1.53464060e+01,
          1.60071259e+01, 0., 0., 0., 1.83526974e+01, 1.39866562e+01, 0.,
          0., 0., 4.52804279e+00, 7.61699343e+00, 2.92836838e+01, 0.,
          8.94924450e+00, 6.82925510e+00, 4.92545319e+00, 0., 0.,
          3.53768229e+00, 3.81487160e+01, 1.63539925e+01, 0.,
          5.87501335e+00, 0., 0., 1.30812731e+01, 0., 0., 1.31120768e+01,
          0., 3.84933352e+00, 1.05605402e+01, 0., 0., 2.53485656e+00, 0.,
          6.04600430e+00, 6.81818104e+00, 0., 9.35056877e+00, 0., 0., 0. ]
      - [ 0., 4.37922001e+00, 2.65196228e+00, 0., 1.40805588e+01, 0., 0.,
          8.81543541e+00, 4.50190258e+00, 1.75171204e+01, 2.01398277e+01,
          8.17433834e+00, 0., 0., 0., 0., 0., 1.65650635e+01, 0., 0.,
          1.44946928e+01, 2.18162117e+01, 0., 8.89722157e+00,
          8.03556621e-01, 1.01931877e+01, 0., 2.99559742e-01, 0.,
          1.77356243e+01, 2.68105927e+01, 1.27246494e+01, 2.66302242e+01,
          2.10963097e+01, 7.64873123e+00, 0., 0., 0., 0., 1.68160591e+01,
          2.27571278e+01, 1.64369335e+01, 3.64114857e+00, 0.,
          1.55645447e+01, 1.37621794e+01, 4.46117699e-01, 2.13908443e+01,
          0., 0., 0., 1.62271004e+01, 1.21815376e+01, 9.71589184e+00, 0.,
          2.59938107e+01, 0., 0., 5.31438684e+00, 1.97241974e+01,
          1.42669716e+01, 0., 0., 0., 0., 0., 0., 6.71115112e+00,
          1.57997169e+01, 0., 0., 0., 0., 2.22750607e+01, 1.56367416e+01,
          0., 6.31625843e+00, 0., 0., 2.10103550e+01, 4.36749846e-01,
          1.29957399e+01, 0., 9.58847046e+00, 1.53464060e+01,
          1.60071259e+01, 0., 0., 0., 1.83526974e+01, 1.39866562e+01, 0.,
          0., 0., 4.52804279e+00, 7.61699343e+00, 2.92836838e+01, 0.,
          8.94924450e+00, 6.82925510e+00, 4.92545319e+00, 0., 0.,
          3.53768229e+00, 3.81487160e+01, 1.63539925e+01, 0.,
          5.87501335e+00, 0., 0., 1.30812731e+01, 0., 0., 1.31120768e+01,
          0., 3.84933352e+00, 1.05605402e+01, 0., 0., 2.53485656e+00, 0.,
          6.04600430e+00, 6.81818104e+00, 0., 9.35056877e+00, 0., 0., 0. ]
      - [ 0., 4.37922001e+00, 2.65196228e+00, 0., 1.40805588e+01, 0., 0.,
          8.81543541e+00, 4.50190258e+00, 1.75171204e+01, 2.01398277e+01,
          8.17433834e+00, 0., 0., 0., 0., 0., 1.65650635e+01, 0., 0.,
          1.44946928e+01, 2.18162117e+01, 0., 8.89722157e+00,
          8.03556621e-01, 1.01931877e+01, 0., 2.99559742e-01, 0.,
          1.77356243e+01, 2.68105927e+01, 1.27246494e+01, 2.66302242e+01,
          2.10963097e+01, 7.64873123e+00, 0., 0., 0., 0., 1.68160591e+01,
          2.27571278e+01, 1.64369335e+01, 3.64114857e+00, 0.,
          1.55645447e+01, 1.37621794e+01, 4.46117699e-01, 2.13908443e+01,
          0., 0., 0., 1.62271004e+01, 1.21815376e+01, 9.71589184e+00, 0.,
          2.59938107e+01, 0., 0., 5.31438684e+00, 1.97241974e+01,
          1.42669716e+01, 0., 0., 0., 0., 0., 0., 6.71115112e+00,
          1.57997169e+01, 0., 0., 0., 0., 2.22750607e+01, 1.56367416e+01,
          0., 6.31625843e+00, 0., 0., 2.10103550e+01, 4.36749846e-01,
          1.29957399e+01, 0., 9.58847046e+00, 1.53464060e+01,
          1.60071259e+01, 0., 0., 0., 1.83526974e+01, 1.39866562e+01, 0.,
          0., 0., 4.52804279e+00, 7.61699343e+00, 2.92836838e+01, 0.,
          8.94924450e+00, 6.82925510e+00, 4.92545319e+00, 0., 0.,
          3.53768229e+00, 3.81487160e+01, 1.63539925e+01, 0.,
          5.87501335e+00, 0., 0., 1.30812731e+01, 0., 0., 1.31120768e+01,
          0., 3.84933352e+00, 1.05605402e+01, 0., 0., 2.53485656e+00, 0.,
          6.04600430e+00, 6.81818104e+00, 0., 9.35056877e+00, 0., 0., 0. ]
      - [ 0., 4.37922001e+00, 2.65196228e+00, 0., 1.40805588e+01, 0., 0.,
          8.81543541e+00, 4.50190258e+00, 1.75171204e+01, 2.01398277e+01,
          8.17433834e+00, 0., 0., 0., 0., 0., 1.65650635e+01, 0., 0.,
          1.44946928e+01, 2.18162117e+01, 0., 8.89722157e+00,
          8.03556621e-01, 1.01931877e+01, 0., 2.99559742e-01, 0.,
          1.77356243e+01, 2.68105927e+01, 1.27246494e+01, 2.66302242e+01,
          2.10963097e+01, 7.64873123e+00, 0., 0., 0., 0., 1.68160591e+01,
          2.27571278e+01, 1.64369335e+01, 3.64114857e+00, 0.,
          1.55645447e+01, 1.37621794e+01, 4.46117699e-01, 2.13908443e+01,
          0., 0., 0., 1.62271004e+01, 1.21815376e+01, 9.71589184e+00, 0.,
          2.59938107e+01, 0., 0., 5.31438684e+00, 1.97241974e+01,
          1.42669716e+01, 0., 0., 0., 0., 0., 0., 6.71115112e+00,
          1.57997169e+01, 0., 0., 0., 0., 2.22750607e+01, 1.56367416e+01,
          0., 6.31625843e+00, 0., 0., 2.10103550e+01, 4.36749846e-01,
          1.29957399e+01, 0., 9.58847046e+00, 1.53464060e+01,
          1.60071259e+01, 0., 0., 0., 1.83526974e+01, 1.39866562e+01, 0.,
          0., 0., 4.52804279e+00, 7.61699343e+00, 2.92836838e+01, 0.,
          8.94924450e+00, 6.82925510e+00, 4.92545319e+00, 0., 0.,
          3.53768229e+00, 3.81487160e+01, 1.63539925e+01, 0.,
          5.87501335e+00, 0., 0., 1.30812731e+01, 0., 0., 1.31120768e+01,
          0., 3.84933352e+00, 1.05605402e+01, 0., 0., 2.53485656e+00, 0.,
          6.04600430e+00, 6.81818104e+00, 0., 9.35056877e+00, 0., 0., 0. ]
      - [ 0., 4.37922001e+00, 2.65196228e+00, 0., 1.40805588e+01, 0., 0.,
          8.81543541e+00, 4.50190258e+00, 1.75171204e+01, 2.01398277e+01,
          8.17433834e+00, 0., 0., 0., 0., 0., 1.65650635e+01, 0., 0.,
          1.44946928e+01, 2.18162117e+01, 0., 8.89722157e+00,
          8.03556621e-01, 1.01931877e+01, 0., 2.99559742e-01, 0.,
          1.77356243e+01, 2.68105927e+01, 1.27246494e+01, 2.66302242e+01,
          2.10963097e+01, 7.64873123e+00, 0., 0., 0., 0., 1.68160591e+01,
          2.27571278e+01, 1.64369335e+01, 3.64114857e+00, 0.,
          1.55645447e+01, 1.37621794e+01, 4.46117699e-01, 2.13908443e+01,
          0., 0., 0., 1.62271004e+01, 1.21815376e+01, 9.71589184e+00, 0.,
          2.59938107e+01, 0., 0., 5.31438684e+00, 1.97241974e+01,
          1.42669716e+01, 0., 0., 0., 0., 0., 0., 6.71115112e+00,
          1.57997169e+01, 0., 0., 0., 0., 2.22750607e+01, 1.56367416e+01,
          0., 6.31625843e+00, 0., 0., 2.10103550e+01, 4.36749846e-01,
          1.29957399e+01, 0., 9.58847046e+00, 1.53464060e+01,
          1.60071259e+01, 0., 0., 0., 1.83526974e+01, 1.39866562e+01, 0.,
          0., 0., 4.52804279e+00, 7.61699343e+00, 2.92836838e+01, 0.,
          8.94924450e+00, 6.82925510e+00, 4.92545319e+00, 0., 0.,
          3.53768229e+00, 3.81487160e+01, 1.63539925e+01, 0.,
          5.87501335e+00, 0., 0., 1.30812731e+01, 0., 0., 1.31120768e+01,
          0., 3.84933352e+00, 1.05605402e+01, 0., 0., 2.53485656e+00, 0.,
          6.04600430e+00, 6.81818104e+00, 0., 9.35056877e+00, 0., 0., 0. ]
      - [ 0., 4.37922001e+00, 2.65196228e+00, 0., 1.40805588e+01, 0., 0.,
          8.81543541e+00, 4.50190258e+00, 1.75171204e+01, 2.01398277e+01,
          8.17433834e+00, 0., 0., 0., 0., 0., 1.65650635e+01, 0., 0.,
          1.44946928e+01, 2.18162117e+01, 0., 8.89722157e+00,
          8.03556621e-01, 1.01931877e+01, 0., 2.99559742e-01, 0.,
          1.77356243e+01, 2.68105927e+01, 1.27246494e+01, 2.66302242e+01,
          2.10963097e+01, 7.64873123e+00, 0., 0., 0., 0., 1.68160591e+01,
          2.27571278e+01, 1.64369335e+01, 3.64114857e+00, 0.,
          1.55645447e+01, 1.37621794e+01, 4.46117699e-01, 2.13908443e+01,
          0., 0., 0., 1.62271004e+01, 1.21815376e+01, 9.71589184e+00, 0.,
          2.59938107e+01, 0., 0., 5.31438684e+00, 1.97241974e+01,
          1.42669716e+01, 0., 0., 0., 0., 0., 0., 6.71115112e+00,
          1.57997169e+01, 0., 0., 0., 0., 2.22750607e+01, 1.56367416e+01,
          0., 6.31625843e+00, 0., 0., 2.10103550e+01, 4.36749846e-01,
          1.29957399e+01, 0., 9.58847046e+00, 1.53464060e+01,
          1.60071259e+01, 0., 0., 0., 1.83526974e+01, 1.39866562e+01, 0.,
          0., 0., 4.52804279e+00, 7.61699343e+00, 2.92836838e+01, 0.,
          8.94924450e+00, 6.82925510e+00, 4.92545319e+00, 0., 0.,
          3.53768229e+00, 3.81487160e+01, 1.63539925e+01, 0.,
          5.87501335e+00, 0., 0., 1.30812731e+01, 0., 0., 1.31120768e+01,
          0., 3.84933352e+00, 1.05605402e+01, 0., 0., 2.53485656e+00, 0.,
          6.04600430e+00, 6.81818104e+00, 0., 9.35056877e+00, 0., 0., 0. ]
      - [ 0., 4.37922001e+00, 2.65196228e+00, 0., 1.40805588e+01, 0., 0.,
          8.81543541e+00, 4.50190258e+00, 1.75171204e+01, 2.01398277e+01,
          8.17433834e+00, 0., 0., 0., 0., 0., 1.65650635e+01, 0., 0.,
          1.44946928e+01, 2.18162117e+01, 0., 8.89722157e+00,
          8.03556621e-01, 1.01931877e+01, 0., 2.99559742e-01, 0.,
          1.77356243e+01, 2.68105927e+01, 1.27246494e+01, 2.66302242e+01,
          2.10963097e+01, 7.64873123e+00, 0., 0., 0., 0., 1.68160591e+01,
          2.27571278e+01, 1.64369335e+01, 3.64114857e+00, 0.,
          1.55645447e+01, 1.37621794e+01, 4.46117699e-01, 2.13908443e+01,
          0., 0., 0., 1.62271004e+01, 1.21815376e+01, 9.71589184e+00, 0.,
          2.59938107e+01, 0., 0., 5.31438684e+00, 1.97241974e+01,
          1.42669716e+01, 0., 0., 0., 0., 0., 0., 6.71115112e+00,
          1.57997169e+01, 0., 0., 0., 0., 2.22750607e+01, 1.56367416e+01,
          0., 6.31625843e+00, 0., 0., 2.10103550e+01, 4.36749846e-01,
          1.29957399e+01, 0., 9.58847046e+00, 1.53464060e+01,
          1.60071259e+01, 0., 0., 0., 1.83526974e+01, 1.39866562e+01, 0.,
          0., 0., 4.52804279e+00, 7.61699343e+00, 2.92836838e+01, 0.,
          8.94924450e+00, 6.82925510e+00, 4.92545319e+00, 0., 0.,
          3.53768229e+00, 3.81487160e+01, 1.63539925e+01, 0.,
          5.87501335e+00, 0., 0., 1.30812731e+01, 0., 0., 1.31120768e+01,
          0., 3.84933352e+00, 1.05605402e+01, 0., 0., 2.53485656e+00, 0.,
          6.04600430e+00, 6.81818104e+00, 0., 9.35056877e+00, 0., 0., 0. ]
      - [ 0., 4.37922001e+00, 2.65196228e+00, 0., 1.40805588e+01, 0., 0.,
          8.81543541e+00, 4.50190258e+00, 1.75171204e+01, 2.01398277e+01,
          8.17433834e+00, 0., 0., 0., 0., 0., 1.65650635e+01, 0., 0.,
          1.44946928e+01, 2.18162117e+01, 0., 8.89722157e+00,
          8.03556621e-01, 1.01931877e+01, 0., 2.99559742e-01, 0.,
          1.77356243e+01, 2.68105927e+01, 1.27246494e+01, 2.66302242e+01,
          2.10963097e+01, 7.64873123e+00, 0., 0., 0., 0., 1.68160591e+01,
          2.27571278e+01, 1.64369335e+01, 3.64114857e+00, 0.,
          1.55645447e+01, 1.37621794e+01, 4.46117699e-01, 2.13908443e+01,
          0., 0., 0., 1.62271004e+01, 1.21815376e+01, 9.71589184e+00, 0.,
          2.59938107e+01, 0., 0., 5.31438684e+00, 1.97241974e+01,
          1.42669716e+01, 0., 0., 0., 0., 0., 0., 6.71115112e+00,
          1.57997169e+01, 0., 0., 0., 0., 2.22750607e+01, 1.56367416e+01,
          0., 6.31625843e+00, 0., 0., 2.10103550e+01, 4.36749846e-01,
          1.29957399e+01, 0., 9.58847046e+00, 1.53464060e+01,
          1.60071259e+01, 0., 0., 0., 1.83526974e+01, 1.39866562e+01, 0.,
          0., 0., 4.52804279e+00, 7.61699343e+00, 2.92836838e+01, 0.,
          8.94924450e+00, 6.82925510e+00, 4.92545319e+00, 0., 0.,
          3.53768229e+00, 3.81487160e+01, 1.63539925e+01, 0.,
          5.87501335e+00, 0., 0., 1.30812731e+01, 0., 0., 1.31120768e+01,
          0., 3.84933352e+00, 1.05605402e+01, 0., 0., 2.53485656e+00, 0.,
          6.04600430e+00, 6.81818104e+00, 0., 9.35056877e+00, 0., 0., 0. ]
      - [ 0., 4.37922001e+00, 2.65196228e+00, 0., 1.40805588e+01, 0., 0.,
          8.81543541e+00, 4.50190258e+00, 1.75171204e+01, 2.01398277e+01,
          8.17433834e+00, 0., 0., 0., 0., 0., 1.65650635e+01, 0., 0.,
          1.44946928e+01, 2.18162117e+01, 0., 8.89722157e+00,
          8.03556621e-01, 1.01931877e+01, 0., 2.99559742e-01, 0.,
          1.77356243e+01, 2.68105927e+01, 1.27246494e+01, 2.66302242e+01,
          2.10963097e+01, 7.64873123e+00, 0., 0., 0., 0., 1.68160591e+01,
          2.27571278e+01, 1.64369335e+01, 3.64114857e+00, 0.,
          1.55645447e+01, 1.37621794e+01, 4.46117699e-01, 2.13908443e+01,
          0., 0., 0., 1.62271004e+01, 1.21815376e+01, 9.71589184e+00, 0.,
          2.59938107e+01, 0., 0., 5.31438684e+00, 1.97241974e+01,
          1.42669716e+01, 0., 0., 0., 0., 0., 0., 6.71115112e+00,
          1.57997169e+01, 0., 0., 0., 0., 2.22750607e+01, 1.56367416e+01,
          0., 6.31625843e+00, 0., 0., 2.10103550e+01, 4.36749846e-01,
          1.29957399e+01, 0., 9.58847046e+00, 1.53464060e+01,
          1.60071259e+01, 0., 0., 0., 1.83526974e+01, 1.39866562e+01, 0.,
          0., 0., 4.52804279e+00, 7.61699343e+00, 2.92836838e+01, 0.,
          8.94924450e+00, 6.82925510e+00, 4.92545319e+00, 0., 0.,
          3.53768229e+00, 3.81487160e+01, 1.63539925e+01, 0.,
          5.87501335e+00, 0., 0., 1.30812731e+01, 0., 0., 1.31120768e+01,
          0., 3.84933352e+00, 1.05605402e+01, 0., 0., 2.53485656e+00, 0.,
          6.04600430e+00, 6.81818104e+00, 0., 9.35056877e+00, 0., 0., 0. ]
      - [ 0., 4.37922001e+00, 2.65196228e+00, 0., 1.40805588e+01, 0., 0.,
          8.81543541e+00, 4.50190258e+00, 1.75171204e+01, 2.01398277e+01,
          8.17433834e+00, 0., 0., 0., 0., 0., 1.65650635e+01, 0., 0.,
          1.44946928e+01, 2.18162117e+01, 0., 8.89722157e+00,
          8.03556621e-01, 1.01931877e+01, 0., 2.99559742e-01, 0.,
          1.77356243e+01, 2.68105927e+01, 1.27246494e+01, 2.66302242e+01,
          2.10963097e+01, 7.64873123e+00, 0., 0., 0., 0., 1.68160591e+01,
          2.27571278e+01, 1.64369335e+01, 3.64114857e+00, 0.,
          1.55645447e+01, 1.37621794e+01, 4.46117699e-01, 2.13908443e+01,
          0., 0., 0., 1.62271004e+01, 1.21815376e+01, 9.71589184e+00, 0.,
          2.59938107e+01, 0., 0., 5.31438684e+00, 1.97241974e+01,
          1.42669716e+01, 0., 0., 0., 0., 0., 0., 6.71115112e+00,
          1.57997169e+01, 0., 0., 0., 0., 2.22750607e+01, 1.56367416e+01,
          0., 6.31625843e+00, 0., 0., 2.10103550e+01, 4.36749846e-01,
          1.29957399e+01, 0., 9.58847046e+00, 1.53464060e+01,
          1.60071259e+01, 0., 0., 0., 1.83526974e+01, 1.39866562e+01, 0.,
          0., 0., 4.52804279e+00, 7.61699343e+00, 2.92836838e+01, 0.,
          8.94924450e+00, 6.82925510e+00, 4.92545319e+00, 0., 0.,
          3.53768229e+00, 3.81487160e+01, 1.63539925e+01, 0.,
          5.87501335e+00, 0., 0., 1.30812731e+01, 0., 0., 1.31120768e+01,
          0., 3.84933352e+00, 1.05605402e+01, 0., 0., 2.53485656e+00, 0.,
          6.04600430e+00, 6.81818104e+00, 0., 9.35056877e+00, 0., 0., 0. ]
      - [ 0., 4.37922001e+00, 2.65196228e+00, 0., 1.40805588e+01, 0., 0.,
          8.81543541e+00, 4.50190258e+00, 1.75171204e+01, 2.01398277e+01,
          8.17433834e+00, 0., 0., 0., 0., 0., 1.65650635e+01, 0., 0.,
          1.44946928e+01, 2.18162117e+01, 0., 8.89722157e+00,
          8.03556621e-01, 1.01931877e+01, 0., 2.99559742e-01, 0.,
          1.77356243e+01, 2.68105927e+01, 1.27246494e+01, 2.66302242e+01,
          2.10963097e+01, 7.64873123e+00, 0., 0., 0., 0., 1.68160591e+01,
          2.27571278e+01, 1.64369335e+01, 3.64114857e+00, 0.,
          1.55645447e+01, 1.37621794e+01, 4.46117699e-01, 2.13908443e+01,
          0., 0., 0., 1.62271004e+01, 1.21815376e+01, 9.71589184e+00, 0.,
          2.59938107e+01, 0., 0., 5.31438684e+00, 1.97241974e+01,
          1.42669716e+01, 0., 0., 0., 0., 0., 0., 6.71115112e+00,
          1.57997169e+01, 0., 0., 0., 0., 2.22750607e+01, 1.56367416e+01,
          0., 6.31625843e+00, 0., 0., 2.10103550e+01, 4.36749846e-01,
          1.29957399e+01, 0., 9.58847046e+00, 1.53464060e+01,
          1.60071259e+01, 0., 0., 0., 1.83526974e+01, 1.39866562e+01, 0.,
          0., 0., 4.52804279e+00, 7.61699343e+00, 2.92836838e+01, 0.,
          8.94924450e+00, 6.82925510e+00, 4.92545319e+00, 0., 0.,
          3.53768229e+00, 3.81487160e+01, 1.63539925e+01, 0.,
          5.87501335e+00, 0., 0., 1.30812731e+01, 0., 0., 1.31120768e+01,
          0., 3.84933352e+00, 1.05605402e+01, 0., 0., 2.53485656e+00, 0.,
          6.04600430e+00, 6.81818104e+00, 0., 9.35056877e+00, 0., 0., 0. ]
      - [ 0., 4.37922001e+00, 2.65196228e+00, 0., 1.40805588e+01, 0., 0.,
          8.81543541e+00, 4.50190258e+00, 1.75171204e+01, 2.01398277e+01,
          8.17433834e+00, 0., 0., 0., 0., 0., 1.65650635e+01, 0., 0.,
          1.44946928e+01, 2.18162117e+01, 0., 8.89722157e+00,
          8.03556621e-01, 1.01931877e+01, 0., 2.99559742e-01, 0.,
          1.77356243e+01, 2.68105927e+01, 1.27246494e+01, 2.66302242e+01,
          2.10963097e+01, 7.64873123e+00, 0., 0., 0., 0., 1.68160591e+01,
          2.27571278e+01, 1.64369335e+01, 3.64114857e+00, 0.,
          1.55645447e+01, 1.37621794e+01, 4.46117699e-01, 2.13908443e+01,
          0., 0., 0., 1.62271004e+01, 1.21815376e+01, 9.71589184e+00, 0.,
          2.59938107e+01, 0., 0., 5.31438684e+00, 1.97241974e+01,
          1.42669716e+01, 0., 0., 0., 0., 0., 0., 6.71115112e+00,
          1.57997169e+01, 0., 0., 0., 0., 2.22750607e+01, 1.56367416e+01,
          0., 6.31625843e+00, 0., 0., 2.10103550e+01, 4.36749846e-01,
          1.29957399e+01, 0., 9.58847046e+00, 1.53464060e+01,
          1.60071259e+01, 0., 0., 0., 1.83526974e+01, 1.39866562e+01, 0.,
          0., 0., 4.52804279e+00, 7.61699343e+00, 2.92836838e+01, 0.,
          8.94924450e+00, 6.82925510e+00, 4.92545319e+00, 0., 0.,
          3.53768229e+00, 3.81487160e+01, 1.63539925e+01, 0.,
          5.87501335e+00, 0., 0., 1.30812731e+01, 0., 0., 1.31120768e+01,
          0., 3.84933352e+00, 1.05605402e+01, 0., 0., 2.53485656e+00, 0.,
          6.04600430e+00, 6.81818104e+00, 0., 9.35056877e+00, 0., 0., 0. ]
      - [ 0., 4.37922001e+00, 2.65196228e+00, 0., 1.40805588e+01, 0., 0.,
          8.81543541e+00, 4.50190258e+00, 1.75171204e+01, 2.01398277e+01,
          8.17433834e+00, 0., 0., 0., 0., 0., 1.65650635e+01, 0., 0.,
          1.44946928e+01, 2.18162117e+01, 0., 8.89722157e+00,
          8.03556621e-01, 1.01931877e+01, 0., 2.99559742e-01, 0.,
          1.77356243e+01, 2.68105927e+01, 1.27246494e+01, 2.66302242e+01,
          2.10963097e+01, 7.64873123e+00, 0., 0., 0., 0., 1.68160591e+01,
          2.27571278e+01, 1.64369335e+01, 3.64114857e+00, 0.,
          1.55645447e+01, 1.37621794e+01, 4.46117699e-01, 2.13908443e+01,
          0., 0., 0., 1.62271004e+01, 1.21815376e+01, 9.71589184e+00, 0.,
          2.59938107e+01, 0., 0., 5.31438684e+00, 1.97241974e+01,
          1.42669716e+01, 0., 0., 0., 0., 0., 0., 6.71115112e+00,
          1.57997169e+01, 0., 0., 0., 0., 2.22750607e+01, 1.56367416e+01,
          0., 6.31625843e+00, 0., 0., 2.10103550e+01, 4.36749846e-01,
          1.29957399e+01, 0., 9.58847046e+00, 1.53464060e+01,
          1.60071259e+01, 0., 0., 0., 1.83526974e+01, 1.39866562e+01, 0.,
          0., 0., 4.52804279e+00, 7.61699343e+00, 2.92836838e+01, 0.,
