%YAML:1.0
---
my_detector: !!opencv-object-detector-hog
   winSize: [ 176, 192 ]
   blockSize: [ 16, 16 ]
   blockStride: [ 8, 8 ]
   cellSize: [ 8, 8 ]
   nbins: 9
   derivAperture: 1
   winSigma: 4.
   histogramNormType: 0
   L2HysThreshold: 2.0000000000000001e-01
   gammaCorrection: 1
   nlevels: 64
   signedGradient: 0
   SVMDetector: [ -1.87742710e-02, 2.01199600e-03, -9.18389950e-03,
       -2.85847597e-02, 1.17372768e-02, -9.87600256e-03, -1.96461082e-02,
       -5.67462854e-03, -5.00777503e-03, -8.12874921e-03,
       -1.93043947e-02, 1.83902890e-03, -6.29641302e-03, -1.02916714e-02,
       1.15393556e-03, 5.95886307e-03, 4.71633859e-03, 3.04613193e-03,
       6.69922121e-03, 2.83575654e-02, 2.39972640e-02, -2.72754929e-03,
       3.18807513e-02, -4.49220138e-03, -5.41884126e-03, -3.65920551e-03,
       7.93730095e-03, 4.89221839e-03, -2.76165013e-03, 2.29667444e-02,
       4.38183453e-03, -9.01991967e-03, -1.93960313e-02, -9.70395561e-03,
       -6.31221617e-03, 2.08441401e-03, -4.67415201e-03, -1.25460457e-02,
       1.19146006e-02, -5.97640872e-03, -5.88757626e-04, -8.97322409e-03,
       3.80562455e-03, -1.24597177e-03, 3.79618304e-03, 6.30544964e-03,
       2.85701617e-03, 1.16925621e-02, 4.46568197e-03, 2.11575683e-02,
       -5.00928704e-03, -3.09768599e-03, 2.85794330e-03, 1.80768669e-02,
       1.54656712e-02, -3.56941950e-03, 2.23970283e-02, -4.50863456e-03,
       1.02046356e-02, -2.02931631e-02, -1.29210316e-02, -1.53304532e-03,
       1.20577756e-02, 4.39212378e-03, -1.12378958e-03, -1.15507271e-03,
       -5.12570515e-03, -5.84276440e-03, -1.19546510e-03,
       -9.05078184e-03, 2.34377780e-03, -3.43044568e-03, 4.50993888e-03,
       -4.15377459e-03, -6.86047412e-03, -4.44998359e-03, 4.89965128e-03,
       -8.93076602e-03, 2.13219062e-03, 2.07651663e-03, 1.21659907e-02,
       1.60627048e-02, -3.39541817e-03, -8.55238270e-03, -9.81641002e-03,
       1.24168980e-06, -9.07401461e-03, -1.77617148e-02, -1.73573811e-02,
       1.29799303e-02, 1.34154521e-02, -6.42446568e-03, 5.62408124e-04,
       4.21809265e-04, 1.55175226e-02, 9.55082849e-03, -1.02416403e-03,
       1.29705854e-02, 6.39011804e-03, 2.08790954e-02, 3.74655910e-02,
       1.38414456e-02, 1.32364864e-02, 1.47189796e-02, 5.28474851e-03,
       1.26247073e-03, -1.24824820e-02, -2.02956074e-03, -3.85952415e-03,
       -6.37776777e-03, -9.89266299e-03, -2.31817439e-02, 1.71793960e-02,
       5.42340009e-03, -1.64871924e-02, -2.12476905e-02, 3.48076900e-03,
       -9.85814072e-03, 6.27804222e-03, 8.04812647e-03, -1.18908547e-02,
       -1.11035742e-02, -1.20355813e-02, -1.67267546e-02,
       -2.36965157e-02, -3.57767940e-03, 1.76904686e-02, 3.12883966e-02,
       1.27503034e-02, -7.55875022e-04, 2.54420508e-02, -4.59517073e-03,
       -1.12231094e-02, -2.18169168e-02, -1.83216445e-02, 1.91861093e-02,
       2.95395069e-02, 6.17670501e-03, -1.16452537e-02, 1.99091546e-02,
       -4.90661617e-03, -1.37220714e-02, -8.51531141e-03,
       -2.98615475e-03, -2.76439218e-03, 3.51382140e-03, -1.07148020e-02,
       -2.78320406e-02, -1.84066836e-02, -1.98376272e-02,
       -2.74955630e-02, -2.11683717e-02, 7.03195983e-04, -1.28461029e-02,
       -6.42833393e-03, -1.51244067e-02, -2.33794134e-02,
       -9.18189902e-03, -5.94609696e-03, -2.08753031e-02,
       -8.66637565e-03, -2.88260099e-03, -5.72694046e-03, 1.45777026e-02,
       -1.09217744e-02, -2.39019897e-02, 1.90264569e-03, -6.24203449e-03,
       -8.07887688e-03, 2.20765639e-03, -4.60961275e-03, 3.21822381e-03,
       2.33563893e-02, 5.46839647e-03, 7.75070768e-03, 8.30086600e-03,
       9.00542643e-03, 7.44055258e-04, 2.10318211e-02, -7.22481543e-03,
       -2.30199695e-02, 1.03909452e-03, -8.89367238e-03, -1.93278808e-02,
       -1.68920308e-02, -1.29885441e-02, -1.24496976e-02,
       -1.51271736e-02, -1.02209244e-02, -6.28397707e-03, 3.91587941e-03,
       5.38920099e-03, -1.16345109e-02, -1.53598459e-02, -1.58050954e-02,
       -8.00009537e-03, -9.90135409e-03, 4.53186082e-03, 9.59196128e-03,
       2.48183534e-02, 1.09680435e-02, -4.84017562e-03, 4.96362383e-03,
       -1.12605968e-03, -2.76806008e-04, 2.02930607e-02, 1.37532847e-02,
       9.81321093e-03, 1.33241597e-03, -3.59519804e-03, 1.03440909e-02,
       1.58979483e-02, 3.97604844e-03, 2.51565478e-03, 1.93655360e-02,
       2.64303386e-02, 3.55403125e-03, 1.15549555e-02, 7.22638611e-03,
       -8.21739901e-03, 1.70506618e-03, -6.01372076e-03, -1.75412279e-02,
       -1.62360668e-02, -1.19066332e-03, 4.97251190e-03, 9.66868643e-03,
       1.41112898e-02, -1.96919823e-03, -1.22696348e-03, -1.08796330e-02,
       -2.18740497e-02, -1.13962358e-02, 5.84911462e-03, 7.57841580e-03,
       8.67907237e-03, 1.75996358e-03, 1.26880482e-02, 2.56330613e-02,
       3.49467783e-03, 4.21112590e-03, 5.71338739e-03, 1.33557944e-02,
       5.71558299e-03, 1.14750154e-02, 1.40466923e-02, -2.97800684e-03,
       1.45212130e-03, -5.26057510e-03, 3.76145937e-03, 1.36205656e-02,
       1.12645216e-02, 1.76683031e-02, -2.06693797e-03, 8.32746620e-04,
       -6.44721510e-03, -9.88843292e-03, -1.13106612e-02,
       -1.30675314e-02, 6.27012970e-03, 1.29571669e-02, 5.74568007e-03,
       -1.47920977e-02, -1.06749507e-02, -1.12469774e-02,
       -2.72549735e-03, -5.40799648e-03, -3.13724740e-03,
       -1.48729002e-03, 2.11982266e-03, 6.48908177e-03, 2.01653261e-02,
       2.99169798e-04, -1.56991482e-02, -2.20751185e-02, -3.16303311e-04,
       1.29840001e-02, 2.26549637e-02, -4.54799767e-04, 1.06078153e-03,
       1.89150381e-03, -1.12143727e-02, -2.41874848e-02, -2.97205895e-03,
       -3.02970503e-03, 9.72139463e-03, 1.22004934e-02, -1.26485005e-02,
       2.65527429e-04, -1.64942686e-02, -1.21026477e-02, -1.20509285e-02,
       -8.42177030e-03, -6.26244256e-03, -7.15952599e-03,
       -5.11959149e-03, -1.62168674e-03, -1.50367161e-02,
       -2.59653898e-03, 4.71982348e-04, -9.29387379e-03, 2.51889713e-02,
       1.85444625e-03, -1.22060785e-02, -6.45176461e-03, -1.52896419e-02,
       9.69927665e-03, -9.80594289e-03, -1.05966686e-03, -1.55835748e-02,
       3.54878325e-03, -3.40831489e-03, 8.85915570e-03, 1.38510605e-02,
       2.50664516e-03, 2.15130136e-03, 1.61653683e-02, 1.60066895e-02,
       1.66253047e-03, 2.89373677e-02, 5.97250182e-03, -2.17224983e-03,
       1.96205415e-02, 5.20902174e-03, -4.31349082e-03, 4.30485094e-03,
       3.97274154e-04, -1.02570355e-02, 9.31806304e-03, -7.46303890e-03,
       -3.03673074e-02, -8.17377120e-03, 5.25515527e-03, 9.48786642e-03,
       -7.36203557e-03, 2.51580524e-04, -1.46279382e-02, -1.97009575e-02,
       -9.08415997e-04, -2.75721494e-02, -1.01405010e-02, 1.56625547e-02,
       1.10184215e-03, -1.29579809e-02, 1.40060494e-02, 1.33603597e-02,
       2.12751795e-02, 6.31735194e-03, -1.34358751e-02, 1.40378615e-02,
       2.09519565e-02, 2.02597119e-03, -1.25078363e-02, 2.47774851e-02,
       2.46782955e-02, 2.14624777e-03, 9.70778149e-03, -1.33077605e-02,
       4.63993754e-03, -7.52386870e-03, 6.37365854e-04, -9.21969023e-03,
       -6.38613617e-03, -1.94836352e-02, -1.79541018e-02,
       -1.85429235e-03, -1.60088949e-02, -6.93704060e-04, 2.25890093e-02,
       1.10352319e-02, -3.63471592e-03, -2.32897643e-02, -1.83751378e-02,
       9.65308398e-04, -1.51624270e-02, -1.88606083e-02, -1.21620120e-02,
       1.08098583e-02, -3.64069501e-03, -1.40953958e-02, 2.25884505e-02,
       1.86184887e-02, 1.03391157e-02, 3.01896851e-03, -7.09239347e-03,
       2.12124009e-02, -1.37332613e-02, -1.85693111e-02, -9.75470152e-03,
       4.92499350e-03, 3.29131330e-03, 1.41033540e-02, 7.89210945e-03,
       -2.65760114e-04, -2.99843960e-03, -9.67536774e-03,
       -1.08798873e-03, 2.35989993e-03, -1.68608166e-02, -1.32722650e-02,
       -8.38531274e-03, -1.37340091e-02, -1.07632205e-02,
       -7.50144711e-04, -1.30980574e-02, -8.95364303e-03, 4.75455029e-03,
       -3.57143651e-03, -5.84397418e-03, -2.32530548e-03,
       -1.26625113e-02, -2.08802451e-03, -1.97446020e-03,
       -1.78543739e-02, -1.21367853e-02, 2.00644066e-03, 1.16739096e-02,
       1.18712513e-02, 7.22288713e-03, 1.58591922e-02, 1.02383969e-02,
       2.05359142e-02, 9.44256142e-04, 5.80077642e-04, 1.27269560e-02,
       1.21427411e-02, 1.75147364e-03, 1.50119383e-02, 4.16154601e-03,
       6.88379817e-03, 1.95563249e-02, -9.27665364e-03, -1.06386766e-02,
       1.63530670e-02, -9.65719169e-04, -1.79805025e-03, 5.27057657e-03,
       3.71660513e-04, -1.39628805e-03, 1.64960343e-02, -1.27796121e-02,
       -7.53207738e-03, -1.00880768e-02, -7.78192468e-03,
       -1.30603055e-03, 9.95867886e-03, 2.96759070e-03, 5.51656820e-03,
       -2.13710428e-03, -1.32955750e-02, 8.25013779e-03, 2.86192056e-02,
       3.54212360e-03, 5.20942674e-04, 4.70799115e-03, 7.40481773e-04,
       6.11827848e-03, 7.89551809e-03, 2.18061404e-03, 7.56191229e-03,
       1.27373757e-02, 5.41521702e-03, 8.74947105e-03, 1.53673452e-03,
       2.47642752e-02, -3.20891873e-03, -1.57705741e-03, 1.57539770e-02,
       1.03933550e-03, -2.82182544e-02, -5.58488164e-03, -1.16665401e-02,
       2.22346652e-02, 1.32316037e-03, -4.28264320e-04, -4.59059328e-03,
       -6.52619917e-03, 9.93392337e-03, -1.08563891e-02, -1.32064959e-02,
       -2.39092670e-02, 7.33576948e-03, -7.69786770e-03, -5.65154897e-03,
       -2.93467520e-03, -1.32806215e-03, -1.95619883e-03, 1.46676535e-02,
       1.28753139e-02, 1.38077373e-02, -1.10126538e-02, 1.16000362e-02,
       -1.47612290e-02, -1.07213492e-02, -1.44631238e-04, 1.88324263e-03,
       2.10209005e-02, 1.68122351e-02, 1.09215137e-02, 1.59913220e-03,
       1.25516392e-02, -5.16271545e-03, -2.59977620e-04, -8.96172505e-03,
       1.58753861e-02, -4.00897628e-03, -1.28750745e-02, -2.69119684e-02,
       -1.58156715e-02, -1.96535625e-02, -3.10898107e-03, 6.27164776e-03,
       1.02423523e-02, 3.61991697e-03, 1.47142401e-02, 1.13872737e-02,
       -2.96234223e-03, -2.12641209e-02, -2.03323998e-02,
       -1.70005783e-02, -2.51972117e-03, 1.75611360e-03, -1.19973226e-02,
       2.77346536e-03, 4.75231698e-03, -2.89828032e-02, -8.87175556e-03,
       9.70500335e-03, 1.36836981e-02, 1.84581224e-02, -1.42403170e-02,
       7.07629230e-03, 7.05783814e-03, 2.96154171e-02, -8.92365817e-03,
       5.15756523e-03, 7.26844417e-03, 4.59358608e-03, 1.76992640e-02,
       -4.94242040e-03, -1.39772370e-02, 3.12629249e-03, 7.97110982e-03,
       -5.36378846e-03, -2.18443926e-02, -4.18719463e-03,
       -5.85185457e-03, -6.48867618e-03, -1.86530920e-03,
       -2.33346242e-02, -3.33559792e-03, 4.78958478e-03, -2.22509429e-02,
       -2.45584995e-02, -3.57883819e-03, -7.45005114e-03,
       -1.49256811e-02, -2.11026352e-02, -1.33170066e-02, 4.99593618e-04,
       2.78013814e-02, 1.14131020e-02, 1.91678181e-02, 1.68442633e-03,
       -3.37706832e-03, 3.37606808e-03, 3.87713849e-03, -1.37568824e-02,
       1.23509197e-02, 1.07567087e-02, 8.27358395e-04, 1.48073295e-02,
       1.02314623e-02, -2.31894129e-03, -8.05462152e-03, -5.19737741e-03,
       -5.38457930e-03, -2.72556883e-03, 1.07002305e-02, -1.93444323e-02,
       -2.44975407e-02, -1.88262528e-03, -8.81546270e-03,
       -9.94874816e-03, -1.67038068e-02, 6.00289367e-03, -1.91963669e-02,
       -3.14632407e-03, -2.34438176e-03, 9.19632876e-05, -1.38227046e-02,
       -1.85084846e-02, -1.80674810e-02, -1.77461542e-02,
       -1.47356717e-02, 4.99336980e-03, 1.40938358e-02, -8.81666690e-03,
       -4.52625751e-03, 1.13939773e-02, 1.10654403e-02, 2.56449590e-03,
       -1.47334887e-02, -8.54888372e-03, -1.80952381e-02, 1.00769997e-02,
       -3.24345706e-03, 2.06237519e-03, -3.30342422e-03, 7.40311749e-04,
       2.60511297e-03, -1.13995550e-02, 6.43012533e-03, -1.17657834e-03,
       -1.12063522e-02, 5.20055834e-03, -3.94908199e-03, -1.20465485e-02,
       -1.26149869e-02, -3.07354843e-03, -1.02188569e-02, 2.01369962e-03,
       1.16093573e-03, -1.19998911e-02, -1.79147981e-02, -1.80985429e-03,
       7.24967383e-03, 8.41783453e-03, -1.14374515e-02, -1.21041816e-02,
       -4.08800412e-03, -8.15297104e-03, -3.24028777e-03,
       -4.29739105e-03, -8.12457968e-03, -1.08802198e-02,
       -1.69797847e-03, 7.57654780e-05, -9.00620013e-04, 8.38713348e-03,
       -1.68644928e-03, 2.51639215e-03, -3.69921816e-03, 3.65695846e-03,
       -6.77911658e-03, 1.82963815e-03, -4.87215817e-03, 6.06564386e-03,
       3.12235975e-03, 5.23670996e-03, -9.22123622e-03, -1.99771281e-02,
       1.45438379e-02, 9.16749239e-03, 9.96276736e-04, -2.59317718e-02,
       -4.72491514e-03, 1.40043453e-03, -7.46387383e-03, 6.16774661e-03,
       1.16264857e-02, -8.27896595e-03, 1.28494512e-05, -1.00212451e-02,
       -9.17947385e-03, 5.73232479e-04, 5.05914632e-03, 1.63039973e-03,
       -1.64482649e-03, -1.52630378e-02, -7.12089590e-04, 6.26851525e-03,
       1.91574998e-03, -1.25389500e-02, -1.00886198e-02, 1.45288957e-02,
       5.14359737e-04, -6.21406082e-03, 1.64825842e-02, -8.93233810e-03,
       2.71740416e-03, -8.75795633e-03, -7.20139500e-03, 6.23309193e-03,
       5.04917186e-03, -7.42759075e-05, 1.36168068e-02, 6.33234670e-03,
       1.24160722e-02, -1.01350844e-02, -1.77997686e-02, -5.58776874e-03,
       -1.14309099e-02, -5.51786879e-03, -8.07903334e-03,
       -1.22551471e-02, 1.14949979e-02, 4.07710811e-03, -2.54464895e-02,
       -7.27387238e-03, 8.44068080e-03, -6.50216034e-03, 2.10694335e-02,
       7.82421883e-03, 2.05128291e-03, 5.74444002e-03, -8.22165888e-03,
       -1.67489937e-03, -1.26650911e-02, -7.49651715e-03, 5.00903465e-04,
       -4.04296303e-03, 4.40336112e-03, -7.55139068e-03, 1.73022598e-02,
       -4.33107652e-03, -1.20885540e-02, 6.52787508e-03, 2.36298312e-02,
       4.18352848e-03, -1.75410584e-02, -1.29004214e-02, -1.23685058e-02,
       -4.13202681e-03, 8.36152676e-03, -1.79084092e-02, 3.03580379e-03,
       2.44569927e-02, -2.22064368e-03, -3.69261531e-03, -5.33158844e-03,
       3.53213912e-03, -8.37042928e-03, 1.47684412e-02, -1.92250758e-02,
       9.17053688e-03, 2.89761014e-02, -1.94769446e-02, -5.95904840e-03,
       -9.88316070e-03, -7.71791954e-03, 2.03015516e-03, -1.82978511e-02,
       -9.17190406e-03, 1.25724748e-02, 3.10133602e-02, 3.88042186e-03,
       -9.66801401e-03, -2.11201105e-02, 2.58704908e-02, -1.27114840e-02,
       -2.70856787e-02, -1.76911540e-02, 1.71407498e-02, 1.14186376e-03,
       -3.12953349e-03, -5.58050163e-03, -8.79537873e-03, 2.04390790e-02,
       1.34835998e-03, 2.58439742e-02, -2.64612865e-02, 6.71707001e-03,
       5.71173616e-03, -1.59199871e-02, -1.21895783e-02, -1.25658363e-02,
       1.62137132e-02, 2.09224522e-02, 1.26236416e-02, -2.23786384e-02,
       3.19935940e-03, -2.01593414e-02, -3.70878051e-03, 2.35458440e-03,
       -1.77866016e-02, 1.61750950e-02, -7.11368769e-03, -1.43371215e-02,
       -1.63259581e-02, 1.97737440e-02, -2.21085781e-03, 1.34998756e-02,
       -5.10733761e-03, -1.60086118e-02, -9.09662747e-04,
       -4.28032689e-03, -1.73691809e-02, -2.89932080e-02, 2.05420726e-03,
       -9.99386050e-03, 1.69925112e-02, -1.56866852e-03, -1.00495275e-02,
       2.50794110e-03, 9.48834140e-03, 1.51872998e-02, -2.35374756e-02,
       -1.35120954e-02, -8.05597380e-03, -1.94718060e-03,
       -6.81993319e-03, -1.86255518e-02, -5.16034616e-03, 4.64636693e-03,
       -4.22536541e-04, -3.45241427e-02, -1.49751722e-03,
       -3.34390625e-03, -4.55850177e-03, -8.16161558e-03,
       -7.79660419e-03, -1.95581303e-03, -1.96107943e-03, 5.53474994e-03,
       -1.44102778e-02, 2.50188564e-03, -3.24112969e-03, 1.42473576e-03,
       -1.52834263e-02, -7.40603032e-03, -1.38578992e-02, 5.22154151e-03,
       -9.58216470e-03, -2.27250252e-02, 1.75937149e-03, -9.86280851e-03,
       -5.11768926e-03, 1.86690281e-03, 1.13174766e-02, 8.22010171e-03,
       -1.02732126e-02, 2.12923717e-02, -1.37512926e-02, -1.02407439e-02,
       -4.28663893e-03, 4.35949024e-03, 5.22313593e-03, -1.27036236e-02,
       3.53566115e-03, -6.45280303e-03, 3.39687918e-03, -1.38210207e-02,
       6.31357078e-03, -4.08996781e-03, 3.07576777e-03, 3.39856767e-03,
       8.97975639e-03, 1.24056395e-02, -1.07408855e-02, 1.68927182e-02,
       -2.25723982e-02, -8.98942631e-03, -7.79100414e-03,
       -7.03838537e-04, 1.65754941e-03, -1.93506980e-03, 1.58894435e-02,
       -3.94209661e-03, -1.30992522e-02, 6.19643787e-03, 2.12181453e-02,
       -1.15267758e-03, 4.41911048e-04, 3.19119380e-03, -3.17336991e-02,
       9.20839608e-03, -1.55673008e-02, 3.50705348e-03, -1.53268436e-02,
       -2.42127758e-03, -8.92095082e-03, 9.91138909e-03, -1.71925724e-02,
       -1.40318964e-02, -7.64891214e-04, 9.48828086e-03, 3.76279163e-03,
       1.39209314e-03, -5.33255329e-03, -1.38086677e-02, -1.60282291e-02,
       -7.51118362e-03, -1.96613614e-02, 7.75279757e-03, -1.03306761e-02,
       1.02334507e-02, -2.60600791e-04, 1.83576439e-02, 7.10250298e-03,
       -1.26970734e-03, -1.08608538e-02, -5.04193502e-03, 1.80509277e-02,
       5.29238908e-03, 5.15987026e-03, 2.70400173e-03, 1.31046483e-02,
       2.55941059e-02, -1.45416884e-02, -1.86433527e-03, -1.12579111e-02,
       8.48321244e-04, -5.04566915e-03, 1.34077249e-02, 5.87861799e-03,
       4.07732138e-03, 4.87287849e-04, -1.24213984e-02, -1.17879603e-02,
       1.43559510e-02, 3.75654595e-03, 2.19661719e-03, 5.87648654e-04,
       -1.38864998e-04, 6.11487404e-03, 3.13655008e-03, -8.35344661e-03,
       3.33650084e-03, -1.31283058e-02, 7.98061583e-03, -7.14948121e-03,
       5.79341268e-03, -9.70385596e-03, 9.31630004e-03, 2.09920723e-02,
       1.65555219e-03, 7.84470234e-03, -2.91754445e-03, 6.42117020e-03,
       6.80568954e-03, 1.09638320e-02, -3.37212044e-03, 2.37643905e-02,
       2.64288317e-02, 2.65861675e-03, -3.63278878e-03, 7.00741727e-03,
       6.34218333e-03, 4.02088836e-03, -1.57970458e-03, -8.79495218e-03,
       -1.19537199e-02, -8.92286468e-03, 3.79698328e-03, 6.26007654e-03,
       1.51546327e-02, -2.06890963e-02, -7.68031692e-03, -2.34440318e-03,
       -8.15956388e-03, -9.82146151e-03, -6.21151924e-03, 3.40054999e-03,
       1.22434180e-02, 6.98311068e-03, 4.23020916e-03, -1.10966165e-03,
       6.89431326e-03, -5.54867322e-03, 1.87893177e-03, 1.88206218e-03,
       -5.37814805e-03, 2.62422189e-02, 7.83409551e-03, -1.13233374e-02,
       1.15231355e-03, 6.44231634e-03, -3.19351256e-03, -6.83058333e-03,
       4.58745519e-03, 4.58545098e-03, -4.43323283e-03, 1.04176963e-03,
       -2.82912906e-02, -2.31032334e-02, -1.89890352e-03,
       -5.86422568e-04, -2.25048629e-03, -1.18975611e-02,
       -1.39673790e-02, 9.00578219e-04, 1.95104163e-02, 6.13589864e-03,
       -1.57584939e-02, 8.33715219e-03, 3.13555100e-03, -2.86666240e-04,
       3.09986388e-03, 2.98777409e-03, 7.27997115e-03, 1.08136069e-02,
       -8.89687240e-03, -6.95598731e-03, 2.40358897e-03, -1.05940609e-03,
       -3.55486409e-03, -2.98280106e-03, -3.65634216e-03, 7.31860567e-03,
       1.50879044e-02, 5.00160037e-03, 8.64516478e-03, 1.52702462e-02,
       1.29239010e-02, 1.22381712e-03, 3.90152819e-03, 6.02365285e-03,
       1.93250563e-03, 5.70439128e-03, 4.27093543e-03, -7.58856535e-04,
       1.70335395e-03, -3.37056862e-03, -1.41531397e-02, -1.66832295e-03,
       1.46128172e-02, 4.60360519e-04, -2.18107048e-02, -1.52435424e-02,
       -4.20187926e-03, 1.47616239e-02, -1.06050982e-03, -3.06605082e-03,
       3.30892205e-03, 1.56552996e-02, -6.68983813e-03, -1.99221191e-03,
       1.16729634e-02, 7.54382135e-03, 3.17235989e-03, 1.06898451e-03,
       5.18595707e-03, 1.10657644e-02, -8.16360768e-03, 8.27723928e-03,
       -1.29483745e-03, -1.05264122e-02, -1.42433643e-02, 2.23020162e-03,
       2.51966831e-03, 1.07997349e-02, 2.14060005e-02, 2.94253998e-03,
       -2.65800371e-03, -1.85664613e-02, -8.36449489e-03,
       -1.23100437e-03, 2.54237372e-02, 3.07038450e-03, -3.08949524e-03,
       1.34041463e-03, 8.63102451e-03, 2.15032953e-04, 8.20476189e-03,
       -4.02904348e-03, -1.37938373e-02, -3.56446137e-03,
       -1.40725542e-03, 1.49198424e-03, 8.55699088e-03, -6.41338807e-03,
       1.41468644e-02, 3.15256119e-02, 1.69397122e-03, -1.27444612e-02,
       8.98385048e-03, -4.77713533e-03, 3.71458824e-04, 1.10184168e-03,
       9.65961907e-03, -1.67821941e-03, 1.54151060e-02, 1.17285689e-03,
       -1.81391798e-02, 2.19826051e-03, -1.85644887e-02, -3.42854124e-04,
       -4.00624843e-03, 3.43426620e-03, 2.14473251e-03, 2.16691364e-02,
       -1.01204682e-02, -2.44832952e-02, -3.28796729e-02,
       -1.07261008e-02, 1.56342275e-02, 2.03083339e-03, -1.78278256e-02,
       -1.86882634e-02, 8.89767613e-03, 3.76485591e-03, -6.48454670e-03,
       -1.02712335e-02, -1.78882238e-02, 1.83996442e-03, 3.78347118e-03,
       -3.04910447e-02, -1.28415751e-03, 5.27894916e-03, -2.01233849e-03,
       -1.22779012e-02, 6.61062775e-03, -3.08165932e-03, 1.36516681e-02,
       1.13083574e-03, -1.79137394e-03, -1.23897372e-02, -6.39389129e-03,
       1.48832500e-02, 1.39577100e-02, 4.57501896e-02, -3.54019250e-03,
       1.41935144e-02, -4.33678413e-03, 1.23080995e-03, 3.49392113e-03,
       -1.55694969e-03, 6.71207497e-04, -1.21376133e-02, -1.63882156e-03,
       -2.85909679e-02, -1.18249506e-02, 1.00072287e-02, -3.53937066e-04,
       2.36201975e-02, 6.08632993e-03, 8.75235163e-03, -9.54964943e-03,
       7.96808768e-03, -6.34610187e-03, 7.00067496e-04, 1.79804228e-02,
       1.63349975e-02, -1.76109816e-03, -9.61238705e-03, 2.13151220e-02,
       1.73979520e-03, 2.82752700e-02, -6.78940490e-03, 1.26576647e-02,
       1.39770964e-02, 1.17903864e-02, 1.41943702e-02, 1.98228736e-04,
       3.13311210e-03, -4.82017547e-03, 8.78345128e-03, -1.26422278e-03,
       1.05532774e-04, 4.39269096e-03, 8.15836061e-03, 5.86324884e-03,
       -9.56484396e-03, 1.73437747e-03, -9.68336361e-04, 1.43960025e-02,
       2.02072645e-03, 9.09412920e-04, 2.25249585e-03, 1.54478280e-02,
       -1.47050060e-03, -6.32255711e-03, 1.32094398e-02, 2.15598103e-02,
       1.61733441e-02, 1.20703084e-02, 4.39057592e-03, 2.31547718e-04,
       -9.71101597e-03, 1.75373852e-02, 1.12911370e-02, 3.66568845e-03,
       6.28732750e-03, 1.33490078e-02, 1.93264359e-03, 5.96644869e-03,
       8.27781204e-03, 6.03971863e-03, 1.42250322e-02, 3.90337594e-03,
       4.52439359e-04, 7.30729382e-03, 6.47390261e-03, 1.04637248e-02,
       1.67375943e-03, 2.25079432e-02, 2.75643095e-02, 9.56113974e-04,
       1.69801293e-03, 1.60546005e-02, 8.33220407e-03, 1.34805078e-02,
       -4.58688382e-03, -4.97066788e-03, 1.42502198e-02, -5.14997635e-03,
       -2.31847120e-03, 4.67239413e-03, -2.78465287e-03, -8.46091285e-03,
       1.11185694e-02, 3.28552537e-03, -1.07579045e-02, 1.06914248e-02,
       1.16902487e-02, 5.54537307e-03, 1.26514807e-02, 1.89206027e-03,
       -2.27337339e-04, 3.39593086e-03, 1.59449200e-03, -1.19286794e-02,
       1.75338574e-02, 8.77170707e-04, 3.97673948e-03, 1.66480802e-02,
       2.83805025e-03, -1.40730664e-02, 3.99074191e-03, -6.82676397e-03,
       -5.63481869e-03, 5.79400403e-05, 3.94213106e-03, -1.31067941e-02,
       -2.53385195e-04, -1.03475555e-04, -3.67252273e-03, 2.10716669e-02,
       1.03580644e-02, -3.22294538e-03, 1.33021595e-02, 2.29759533e-02,
       -3.21553845e-04, -6.29209029e-03, -8.21923744e-03,
       -1.16147427e-02, 2.75408495e-02, 4.41637763e-04, -5.51331928e-03,
       2.76964419e-02, 8.20208341e-03, 4.17019677e-04, 1.34748006e-02,
       5.66830859e-03, -1.33382389e-02, 1.45195359e-02, -3.08104488e-03,
       -1.43900374e-02, -1.51109397e-02, 1.69438601e-03, 5.49806375e-03,
       9.68420692e-03, -7.39497831e-03, -1.32429600e-03, 1.25714708e-02,
       -8.50767549e-03, -1.70360059e-02, 6.53282227e-03, 1.13734440e-03,
       1.46569302e-02, 8.54492304e-04, -1.99518781e-02, -1.46901254e-02,
       1.22023441e-04, 1.08292233e-03, -5.19454107e-03, 1.81918964e-02,
       1.49651412e-02, 1.38571933e-02, 8.22600443e-03, -6.44600391e-03,
       -3.04208399e-04, -7.24337576e-03, 4.40692622e-03, -8.22683051e-03,
       -3.86633514e-03, 1.29544018e-02, 1.33571643e-02, 9.07536189e-04,
       -1.96392648e-02, 1.37147761e-03, 8.13451130e-03, 4.41149762e-03,
       -1.66968128e-03, -4.32266126e-04, -6.87222928e-03, 9.42073390e-03,
       3.42550018e-04, -5.35920495e-03, -3.61201633e-03, -5.84998308e-03,
       9.51758400e-03, -3.24185938e-03, -1.30534440e-03, -4.65364708e-03,
       2.30713910e-03, 4.17215051e-03, -7.70176249e-03, -2.86117941e-03,
       7.19194626e-03, -3.29468423e-03, -1.15687335e-02, 9.64931864e-03,
       1.19814156e-02, 2.89928541e-03, 1.08426309e-03, -2.45927484e-03,
       -6.20975485e-03, 3.58326267e-03, 1.24682197e-02, -3.80424806e-03,
       7.64979282e-03, 1.63281839e-02, 5.71218831e-03, 1.28348600e-02,
       -6.75831689e-03, -2.45726365e-03, 3.43837054e-03, 3.56078148e-03,
       -7.31176790e-03, 2.15711840e-03, -1.14500606e-02, 2.46504671e-03,
       1.40583012e-02, 3.56617500e-03, -5.67120593e-03, -1.58984389e-04,
       1.00866891e-02, -9.56199598e-03, -1.65970791e-02, -6.59113145e-03,
       5.56062395e-03, -1.02131469e-02, -1.31828189e-02, -2.42166854e-02,
       1.04505999e-03, 1.33110723e-02, 2.88953376e-03, 6.30607735e-03,
       1.64397750e-02, -5.08903433e-03, -6.48833904e-03, 1.09720408e-04,
       -2.16490682e-02, 2.15539895e-02, 3.81487352e-03, -5.99337416e-03,
       1.01684080e-02, 1.37337092e-02, 1.79981999e-02, -7.04907579e-04,
       -3.93805793e-03, -1.84494921e-03, -4.43733297e-03, 2.65504397e-03,
       -2.98446929e-03, -3.69706564e-03, 1.05773602e-02, 3.19780689e-03,
       6.37446670e-03, -1.40057309e-02, 5.40482521e-04, 1.60068739e-02,
       -8.08272278e-04, -1.96550414e-02, -1.86263263e-04, 1.50246639e-02,
       -4.25618608e-03, -6.48566929e-04, 7.12956302e-03, -3.03964177e-03,
       2.06406936e-02, -9.05003864e-03, -1.17796669e-02, 4.75728326e-03,
       1.58735756e-02, 2.15866254e-03, 4.61685797e-03, -6.43772539e-03,
       -3.34574492e-03, 5.91051858e-03, -1.11910803e-02, -1.38179697e-02,
       -4.49924450e-03, 3.40116769e-03, -8.14235210e-03, 1.48873618e-02,
       -8.11702630e-04, 2.22932100e-02, 1.31471502e-02, -2.92498880e-04,
       -2.67803911e-02, -3.39008286e-03, -3.82477860e-03,
       -4.75197332e-03, -1.47406419e-04, -6.61552232e-03, 7.71218853e-04,
       -2.72207521e-03, -5.41020324e-03, -1.51872151e-02, 7.53005501e-03,
       1.03265091e-04, -3.34759732e-03, 2.12101396e-02, 1.85190849e-02,
       -4.32041520e-03, 2.94027827e-03, -1.08034415e-02, -7.10363127e-03,
       -6.80201408e-03, -6.64209388e-03, -9.84490942e-03, 4.22989717e-03,
       1.87218916e-02, 3.06063076e-03, 4.84340452e-03, -1.78797133e-02,
       -1.95925254e-02, -4.48672846e-03, -2.16022786e-03,
       -2.72595353e-04, 7.80438678e-03, 1.20486049e-02, -6.07197592e-03,
       -1.05861621e-02, 9.43905953e-03, 3.21251369e-04, 1.07750883e-02,
       -7.73423817e-03, -1.15378555e-02, -5.98603534e-03, 1.51208062e-02,
       1.24202250e-02, 1.87706631e-02, 1.08816782e-02, -6.22416614e-03,
       -5.96636022e-03, 1.39730703e-03, 7.60639505e-03, 1.09556010e-02,
       1.97141543e-02, 2.66794884e-03, 1.51722524e-02, -1.76457912e-02,
       -2.44175531e-02, -1.22277262e-02, 1.36581929e-02, -1.50928106e-02,
       -2.10385323e-02, -6.73236046e-03, -1.42643088e-02,
       -9.31720622e-03, -1.41248330e-02, -1.34192230e-02,
       -1.13957692e-02, -8.96711368e-03, -4.98623494e-03, 1.64835546e-02,
       8.41916353e-03, 5.69278933e-03, 5.25411358e-03, -5.00495359e-03,
       -2.76358495e-03, -7.99810607e-03, 4.42805793e-03, -1.65466480e-02,
       5.45188738e-03, 1.19909532e-02, 1.52368366e-03, 1.28796743e-03,
       -7.78844114e-03, -1.27871353e-02, 4.41142125e-03, 4.94794874e-03,
       -9.26919375e-03, -2.11175419e-02, -3.19109717e-03,
       -2.20461022e-02, 2.62884214e-03, -3.82872438e-03, 2.18030252e-03,
       9.17737954e-04, 5.12298569e-03, 5.71101625e-03, 4.52693924e-03,
       4.84399311e-03, -8.78670346e-03, 6.31389720e-03, 1.21911138e-03,
       2.14549759e-03, -2.60225078e-03, 1.33211166e-03, -1.67404639e-03,
       -4.84300265e-03, 1.83637217e-02, -1.13489793e-03, 6.14827732e-03,
       -3.91664496e-03, -1.65962968e-02, 3.88566358e-03, -5.91551361e-06,
       -7.18052220e-03, -9.71793383e-03, 1.50758084e-02, -4.86630574e-03,
       3.73287196e-03, 9.90713481e-03, -8.38087033e-03, 3.66194779e-03,
       -2.11985409e-03, 1.03915203e-02, 1.26518058e-02, 5.83943736e-04,
       5.14461473e-03, 3.60657275e-03, 4.88266209e-03, -2.59354274e-04,
       -2.38698046e-03, -8.17988254e-03, 5.41597372e-03, 4.69386578e-03,
       -3.88565101e-03, 2.13811337e-03, -4.98320092e-04, -1.16040283e-04,
       -5.56496577e-03, 4.86594252e-03, 1.66331301e-03, 2.81194574e-03,
       -5.26647223e-03, -3.03885946e-03, 1.03094997e-02, 9.73899383e-03,
       8.24491121e-03, -8.36518221e-03, 2.52690795e-03, -4.22821334e-03,
       1.28122242e-02, 1.41885150e-02, 1.78647749e-02, 7.20938016e-03,
       2.50777900e-02, -7.00050034e-03, -8.64185486e-03, 2.78028753e-03,
       1.13781227e-03, -2.37358268e-03, -7.40568526e-03, 8.42179544e-03,
       -3.38416942e-03, -1.04365386e-02, -3.24787130e-03, 6.05729781e-03,
       2.56825914e-03, -3.17853782e-03, -1.55093824e-03, -1.50121097e-02,
       1.63904745e-02, 1.66293215e-02, -8.03239737e-03, -4.63276356e-03,
       1.50586003e-02, 4.10305755e-03, -6.59372518e-03, 3.03208316e-03,
       1.48148192e-02, 1.14258798e-02, -5.99344028e-03, 4.05453797e-03,
       -1.19320648e-02, -2.35935510e-03, 4.37118026e-04, -1.38554843e-02,
       4.73257666e-03, 6.54146215e-03, -6.92103943e-03, 2.41597765e-03,
       -2.57165991e-02, -2.79934686e-02, -5.60324453e-03,
       -1.70625430e-02, 5.63944271e-03, -2.73902179e-03, -1.81146190e-02,
       6.60893740e-03, 2.76922435e-03, -1.65885184e-02, -6.41608844e-03,
       9.59469471e-03, -2.01862640e-04, -5.49579319e-03, -7.17273867e-03,
       -5.98725397e-03, 8.59502004e-04, -5.85841760e-03, -9.58774611e-03,
       -1.07232668e-02, 1.24350358e-02, -9.96566564e-03, -2.15065246e-03,
       -1.19536407e-02, 8.13809806e-04, 7.68658379e-03, 7.64636695e-03,
       -2.00960375e-02, -2.23896410e-02, -5.74599300e-03,
       -1.12995878e-02, -3.62405065e-03, -8.58749263e-03, 1.12323705e-02,
       2.65505794e-03, -1.22542176e-02, -1.19067784e-02, -4.81466856e-03,
       4.26556123e-03, 2.14341655e-03, -1.77194439e-02, -1.97379068e-02,
       6.16596034e-03, 7.08402775e-04, -3.61332810e-03, -1.14488117e-02,
       -6.69058459e-03, 1.43033555e-02, -2.44611199e-03, -1.14249187e-02,
       -1.86534859e-02, -6.39030291e-03, 1.94274308e-03, 1.60322879e-02,
       -1.26003018e-02, -1.85771547e-02, -1.00148264e-02,
       -7.48226093e-03, -2.07859613e-02, -9.46397544e-04,
       -5.34036604e-04, 8.11498147e-03, 4.99673421e-03, -1.71489231e-02,
       -1.74073630e-03, 9.01190750e-03, 1.32184355e-02, -1.56275686e-02,
       1.36039639e-03, 3.23935482e-03, 2.20346693e-02, 8.89430568e-03,
       -2.00412907e-02, -5.24237426e-03, 8.99758562e-03, 1.43186899e-03,
       1.55103076e-02, -8.49758927e-03, 1.66574344e-02, 1.70743279e-02,
       6.94091991e-03, 1.33122159e-02, -2.32318901e-02, -2.42111068e-02,
       -1.98519845e-02, -7.82657415e-03, 4.83168848e-03, 1.70229562e-02,
       1.54983290e-02, -7.17090908e-03, -2.32280493e-02, 3.01137171e-03,
       -3.50039965e-03, -1.08576100e-02, 8.19294993e-03, 3.76221165e-03,
       1.73758622e-02, 8.83481093e-03, 2.07826421e-02, 2.99178669e-03,
       -2.60380693e-02, -2.37023104e-02, -3.04876119e-02,
       -1.09242406e-02, 3.95856332e-03, -1.04424404e-02, -3.37007805e-04,
       -4.31798352e-03, -2.39637624e-02, 3.46886809e-03, -9.94441379e-03,
       -1.02160899e-02, 6.63727755e-04, 1.42958211e-02, 7.72513216e-03,
       1.51484851e-02, -1.77522190e-02, -1.40240677e-02, 1.59908505e-03,
       -9.15867090e-03, 8.14365875e-03, 1.42807616e-02, 6.42699935e-03,
       -1.18063309e-03, 1.51609955e-03, 2.90702400e-03, -7.78888678e-03,
       -7.16411276e-03, -7.53229205e-03, 1.79609209e-02, 1.01256715e-02,
       6.96045859e-03, -8.07361677e-03, 1.22185927e-02, -5.36452048e-03,
       -8.42377078e-03, -2.44991994e-03, -1.68802980e-02,
       -9.91552696e-03, -4.30477830e-03, 3.78977433e-02, -3.81785398e-03,
       3.32187512e-03, 5.64739155e-03, 5.35837142e-03, -1.10629108e-02,
       -6.88815303e-03, -2.24595098e-03, 1.53995389e-02, 5.05130691e-03,
       -1.84854344e-02, -1.11769699e-03, 6.67979196e-03, -3.86405806e-03,
       -7.00730877e-03, -1.99208059e-03, 1.75527316e-02, 2.47172010e-03,
       7.83920754e-03, -1.57777350e-02, -1.07785184e-02, 1.60153222e-03,
       -2.22539832e-03, -6.26077689e-03, 1.91084314e-02, 2.37558391e-02,
       2.14340142e-03, 1.14724152e-02, 7.90103688e-04, -1.43763190e-02,
       1.34750074e-02, 8.31709767e-04, -2.88769789e-03, 5.65585773e-03,
       6.14859629e-03, 6.31524948e-03, 3.47334356e-03, 1.65954567e-02,
       -2.20874278e-03, 7.35554844e-03, 3.92748229e-03, 9.98645741e-03,
       2.19024327e-02, 1.03470767e-02, 7.56659312e-03, 1.74262468e-02,
       -9.28266160e-03, -1.18458914e-02, 1.72630651e-03, 1.03823123e-02,
       -4.04456304e-03, 4.61747171e-03, 5.38993534e-03, -2.28530890e-03,
       1.04848538e-02, 4.06602584e-03, 1.02564078e-02, 6.26999070e-04,
       -1.56601553e-03, -3.62709805e-04, -1.35111553e-03,
       -1.04593264e-03, -6.57669315e-03, -5.01627428e-03, 3.49258515e-03,
       -1.42947575e-02, -7.74986064e-03, 1.12608494e-02, 6.86026271e-03,
       3.47142341e-03, -1.59258151e-03, -1.72880047e-03, 5.43976203e-03,
       -3.69145279e-03, 5.48293395e-03, -7.37515002e-05, 1.12510296e-02,
       8.62582121e-03, 4.24958812e-03, 6.24306826e-03, -3.57972865e-04,
       9.28937341e-04, 1.27367768e-02, 1.63300410e-02, -4.92478767e-03,
       -9.43434518e-03, 1.23713305e-03, 5.93668083e-04, 1.97927744e-04,
       -6.70310867e-04, 1.83673552e-03, 2.42513176e-02, 2.26259381e-02,
       1.48197990e-02, 2.82917544e-03, 1.09990072e-02, 2.17551808e-03,
       -1.45081233e-03, 3.81334592e-03, 1.37416145e-03, 4.54089139e-03,
       2.53162091e-03, 4.16311028e-04, -6.77542062e-03, 2.77222390e-03,
       5.37916180e-03, 3.22583993e-03, -2.84173223e-03, 6.91311900e-03,
       1.43167572e-02, 1.35135446e-02, 1.30924936e-02, 4.59097093e-03,
       -1.22400876e-02, 1.54433465e-02, 1.42213935e-02, -2.07968373e-02,
       5.95402252e-03, 1.53329149e-02, 1.69300605e-02, 2.68634828e-03,
       -1.78054511e-03, 1.23672010e-02, 6.33903081e-03, 1.03021450e-02,
       4.43806406e-03, 2.53099520e-02, 2.07036212e-02, -2.29374296e-03,
       5.87866642e-04, 9.33090411e-03, 1.43434284e-02, 1.75802186e-02,
       2.49634515e-02, 1.76229049e-02, -4.18052683e-03, 7.26335682e-03,
       1.07583012e-02, 5.95642487e-03, 1.19922385e-02, -3.85977607e-03,
       7.81943649e-03, 7.80830719e-03, -1.60382167e-02, -8.40610359e-04,
       -3.25454603e-04, -1.40421616e-03, 4.86889068e-04, 2.57873554e-02,
       4.41997079e-03, 5.82585402e-04, 7.58749573e-03, -2.70816381e-03,
       3.18776891e-02, 2.17486564e-02, 5.39607368e-03, -9.45285242e-03,
       -5.57800522e-03, -9.90886823e-04, 7.73142418e-03, 1.07266717e-02,
       1.56803336e-02, 1.30225634e-02, 1.35865323e-02, 3.82560981e-03,
       -1.46937016e-02, 7.75392691e-04, -5.39090438e-03, 4.99065826e-03,
       6.47321157e-03, 1.14913229e-02, 1.47474674e-03, -7.88069982e-03,
       -5.44586498e-03, -8.24565906e-03, 1.15437163e-02, -9.94887762e-03,
       -1.61089614e-04, 8.71045515e-04, 8.97123292e-03, -3.37444083e-03,
       -7.78020872e-03, -8.78844701e-04, -5.98312868e-03, 2.01891437e-02,
       1.07248882e-02, 6.94911322e-03, 6.08478952e-03, 2.25079435e-04,
       8.83413199e-03, 3.23224603e-03, -8.39274097e-03, -9.70058609e-03,
       5.42449625e-03, -3.41709214e-03, -3.40967509e-03, 2.27109343e-03,
       1.49722397e-02, -5.08474361e-04, -2.26274435e-03, 7.43342983e-03,
       6.98785763e-03, 3.09726298e-02, 2.38700747e-03, -5.94833773e-03,
       -1.35314057e-03, 6.66665705e-03, -1.01590576e-02, -7.91658997e-04,
       2.19633384e-03, 7.01829512e-03, 9.76387225e-03, 1.18099609e-02,
       -6.48959726e-03, 1.11433100e-02, 3.27986712e-03, 1.57166083e-04,
       1.63980073e-03, -7.92009290e-03, 1.46573475e-02, 1.10301822e-02,
       -4.60997969e-03, -9.27944761e-03, 4.57201339e-03, 7.79307634e-03,
       1.33176195e-03, -1.40308654e-02, 1.22726876e-02, -2.89315800e-03,
       2.07765074e-03, -6.13768073e-03, -2.15913542e-03, 7.72430422e-03,
       1.18229948e-02, 1.18386447e-02, 3.61981080e-03, 1.27080614e-02,
       -1.00603681e-02, -1.44414166e-02, -1.29678044e-02,
       -1.41343884e-02, 4.91336861e-04, 1.75611544e-02, 1.36214430e-02,
       -8.20200366e-04, -2.12411676e-02, -9.86832194e-03,
       -3.63830710e-03, -6.65293494e-03, -1.62303483e-03, 2.38872338e-02,
       1.55587355e-02, 7.10166898e-03, -1.14455831e-03, -1.07639972e-02,
       -1.27981789e-02, 6.23261929e-03, -5.54220937e-03, -1.74952915e-03,
       2.60998327e-02, 1.58414915e-02, 1.80023536e-02, 1.80932265e-02,
       1.42423641e-02, 3.67979216e-03, 4.66291234e-03, -1.31871980e-02,
       -1.47084966e-02, 1.26222996e-02, 2.82388236e-02, 1.56505071e-02,
       8.08700547e-03, -4.06388985e-03, 7.90567137e-03, 2.57176609e-04,
       5.86089958e-03, -1.94015745e-02, 6.87512057e-03, 1.93546973e-02,
       -1.09659731e-02, 1.43145891e-02, 6.42279442e-03, 8.20058864e-03,
       1.69022512e-02, -1.25060985e-02, -4.40351199e-03, 2.66589038e-02,
       2.24007526e-03, -2.13942807e-02, -1.05023468e-02, 1.28321094e-03,
       6.07005320e-03, 1.19303940e-02, -6.94720028e-03, -1.71139948e-02,
       -6.67252159e-03, -9.37537197e-03, 2.51514558e-02, 2.14775931e-02,
       2.12156586e-03, 5.21098310e-03, 1.44124357e-03, 1.18120480e-02,
       -6.95598638e-03, 1.48631353e-03, 2.28411034e-02, 1.10540679e-02,
       2.09177118e-02, 1.65925305e-02, 1.25391688e-03, -1.32993085e-03,
       -8.91284831e-03, 1.56427864e-02, 1.07923681e-02, 1.09722614e-02,
       -8.76187999e-03, -5.45723969e-03, 8.62477627e-03, 5.75066125e-03,
       1.48563711e-02, 9.61382687e-03, -8.60893633e-03, -1.23235816e-02,
       -1.09024392e-02, 2.22468819e-03, -4.70275081e-05, -3.61552858e-03,
       -7.34768910e-05, 2.33649537e-02, 1.07046906e-02, 9.60946549e-03,
       -1.69379963e-03, 1.28951017e-02, 1.24988367e-03, 1.16981100e-02,
       1.33841895e-02, -1.67427007e-02, -3.80265550e-03, 2.93164141e-03,
       8.02771654e-03, 7.30831223e-03, 1.21280681e-02, -9.94332251e-04,
       5.80012565e-03, -7.39554269e-03, -5.30990656e-04, 1.13115897e-02,
       6.75208401e-03, 2.03192066e-02, 1.50959864e-02, 6.56369515e-03,
       -8.16568639e-03, -2.55157799e-03, -2.55395542e-03,
       -8.09608772e-03, 2.14690827e-02, 2.29068920e-02, 1.54883908e-02,
       -4.22081770e-03, 3.04956129e-03, -2.85955728e-03, -3.60870990e-03,
       5.26523823e-03, -1.13872569e-02, -4.73534036e-03, -1.36547652e-03,
       6.55974541e-03, -8.42380896e-03, 2.35210959e-04, 2.81252083e-03,
       -4.14045353e-04, -1.07951425e-02, -8.04035866e-04, 7.43283890e-03,
       -2.19463883e-03, 1.34651922e-02, 1.51813962e-02, 1.41182095e-02,
       4.67172544e-03, 1.19752893e-02, -2.86482647e-03, -7.22761406e-03,
       5.12968609e-03, -1.29735349e-02, 3.75011051e-03, 1.18917702e-02,
       2.32672086e-03, -9.70383454e-03, -1.09374225e-02, -3.77040100e-03,
       -1.68527309e-02, -8.08103755e-03, -9.63037461e-03, 1.02303757e-05,
       -3.03468958e-04, 4.21968754e-03, -1.02211339e-02, 1.82540691e-03,
       1.66492816e-02, -5.49066253e-03, -9.05143039e-04, -1.59664378e-02,
       -3.44946980e-03, 5.54028107e-03, 1.44085037e-02, 8.94036517e-03,
       2.30050366e-02, -7.60770589e-03, -9.39969067e-03, -2.30726413e-03,
       -2.45968774e-02, -1.40243601e-02, 1.56584531e-02, 1.22528970e-02,
       1.43928025e-02, 2.07116846e-02, 9.37271491e-03, 7.63199618e-03,
       9.72480234e-03, -1.70812913e-04, 5.41586103e-03, 1.93875320e-02,
       -1.95599371e-03, -7.90004991e-03, 7.58289639e-03, 7.01237144e-03,
       -2.53139902e-03, -4.79391124e-03, -2.81007905e-02,
       -1.13953352e-02, 1.34482365e-02, 2.07409244e-02, -1.82935863e-03,
       -1.55126844e-02, 1.60138076e-03, -1.00867879e-02, 1.30007253e-03,
       -1.20100603e-02, 4.74407105e-03, 2.16540694e-02, 2.05414649e-02,
       1.92261543e-02, -8.17515771e-04, -6.83756499e-03, 2.75506172e-03,
       3.77166434e-04, -7.02743977e-03, -8.26853327e-03, -4.57405532e-03,
       1.37039693e-02, 1.30307889e-02, 1.33069484e-02, -5.24512259e-04,
       1.72873829e-02, 1.48511901e-02, -5.09111583e-03, -1.75066758e-02,
       2.42938963e-03, 2.26457007e-02, 2.47108145e-03, -2.04609782e-02,
       -1.77321211e-03, -8.76461342e-03, 1.27789972e-04, -4.71486803e-03,
       2.19043400e-02, 2.59347889e-03, 1.39271542e-02, 8.07313714e-03,
       -8.39755870e-03, -7.43282726e-03, -3.05718207e-03, 1.01788631e-02,
       -3.02716661e-02, -2.06419397e-02, 9.19064507e-04, 4.54619247e-03,
       -1.03444448e-02, 4.65928018e-03, -2.07953248e-03, 1.99796762e-02,
       1.12415301e-02, -4.03473945e-03, -1.46341296e-02, 1.42012946e-02,
       1.40089653e-02, 1.23961205e-02, -1.51373548e-02, -1.47891678e-02,
       -3.01806699e-03, 1.99889485e-03, -3.83734703e-03, 1.28812650e-02,
       3.04784086e-02, 1.29468208e-02, -1.62893925e-02, -7.63022155e-03,
       -7.84623530e-03, 7.96963461e-03, 9.63696279e-03, -1.00815762e-02,
       -1.31102381e-02, 7.27953995e-03, -1.29932547e-02, 5.60386805e-03,
       -1.57432035e-02, -1.06739383e-02, -7.15318276e-03, 1.30347162e-02,
       -1.41713931e-03, 9.19362623e-03, 1.37850223e-02, -7.74132437e-04,
       1.27277272e-02, -1.12210773e-02, -1.52302708e-03, -2.20293794e-02,
       -9.35891736e-03, -6.09912165e-03, 1.11385472e-02, 2.20287293e-02,
       1.41422506e-02, 2.66032876e-03, -1.19688446e-02, -7.65552092e-03,
       -2.34946492e-03, -1.36351148e-02, 1.05649800e-04, 7.73800304e-03,
       1.57212541e-02, -8.51045456e-03, 3.72448587e-03, -1.28863296e-02,
       -9.13861115e-03, -7.92422891e-03, -7.69974384e-03,
       -1.13550136e-02, 1.05016143e-03, 9.05382819e-03, -4.96289507e-03,
       1.48372736e-03, 5.05424989e-03, 6.66498090e-04, 1.94147751e-02,
       -9.43416264e-03, 5.59999095e-03, 8.18090420e-03, -4.14231932e-03,
       -4.28723311e-03, 3.43980291e-03, 4.49570268e-03, -2.50248378e-03,
       -5.90834825e-04, -1.52344350e-04, -6.70056185e-03, 2.07749801e-03,
       1.57291000e-03, -1.64024699e-02, -1.45711226e-03, 1.00305211e-02,
       4.57875489e-04, -5.56629943e-03, 1.47025904e-03, -1.09192841e-02,
       -4.44569392e-03, 6.69259485e-03, -1.13257477e-02, 1.80509035e-02,
       2.91498508e-02, -5.88320289e-03, 2.86394823e-03, -6.28733542e-03,
       -6.76783919e-03, 2.15708395e-04, -6.28233468e-03, -9.11009964e-04,
       1.47938915e-02, 1.48546407e-02, 3.92057700e-03, -8.21313262e-03,
       -9.60403122e-04, -2.30718758e-02, -8.26596934e-03, 8.46577156e-03,
       9.46472771e-03, -3.85239604e-03, -5.03430236e-03, 1.37726637e-02,
       4.83933417e-03, 7.26786256e-03, -1.84141211e-02, -1.23199597e-02,
       -3.63164581e-03, -9.78542585e-03, 1.74881413e-03, -1.48750506e-02,
       4.08704160e-03, -3.01093748e-03, -1.41744502e-02, -8.82619433e-03,
       4.51080315e-03, -1.92312640e-04, -1.88003597e-03, 9.85193718e-03,
       -1.04357181e-02, 1.14356764e-02, 6.99654408e-03, 1.18889036e-02,
       -3.42704393e-02, -1.60522744e-04, 1.10505382e-02, 7.49522680e-03,
       -1.07252959e-03, -1.40648941e-02, -1.98379904e-03,
       -1.45517876e-02, -7.27461046e-03, -2.59403456e-02, 2.04665363e-02,
       2.06753965e-02, -3.36655113e-03, 1.21849403e-02, 1.14070240e-03,
       -3.54859134e-04, -1.02738356e-02, 1.88073528e-03, 7.60644849e-04,
       -2.42521084e-04, 1.91349443e-02, 1.07528856e-02, 7.05666142e-03,
       7.92777259e-03, -8.53326265e-03, -1.51593443e-02, 1.59467831e-02,
       -1.17256353e-02, -1.42705366e-02, 7.67013896e-03, 1.37383370e-02,
       8.81246105e-03, 1.01514235e-02, 8.89394060e-03, -2.12292448e-02,
       -1.99032831e-03, -5.72976377e-03, 3.58243473e-03, 9.85921547e-03,
       -6.91709528e-03, 7.32502551e-04, -8.26583896e-03, -1.15667181e-02,
       -9.56468284e-03, 1.02106240e-02, -3.89918359e-03, 7.49274762e-03,
       1.61191914e-02, -5.97923470e-04, -9.70774796e-04, 1.09037841e-02,
       -1.35362670e-02, -1.55518949e-02, 6.80587487e-03, -1.65691152e-02,
       -1.88834090e-02, 8.95303581e-03, 4.59644292e-03, -9.56950011e-04,
       1.26795433e-02, -3.82944266e-03, -9.67812166e-03, 9.75479488e-04,
       -1.69443078e-02, -4.24897531e-03, -3.91208846e-03, 9.46870726e-03,
       -1.90117750e-02, -2.20448468e-02, -2.78534014e-02,
       -2.89174356e-03, 2.93038297e-03, -1.76747944e-02, 7.44415389e-04,
       1.87235009e-02, -1.66399684e-02, -1.00338841e-02, 5.46979252e-03,
       -1.29041253e-02, -1.53455976e-03, -1.39297929e-03,
       -1.40255189e-03, 6.85797445e-03, -2.74232635e-03, -1.36383604e-02,
       -1.46489795e-02, 7.41792202e-04, 1.43811712e-03, -1.53720065e-03,
       -1.26518682e-02, -2.06096675e-02, -8.92399531e-03, 1.02612923e-03,
       4.03698161e-03, -1.73604954e-02, 2.58086046e-04, -7.73141533e-03,
       -9.33406968e-03, -1.41667360e-02, 3.68159451e-03, 6.09815493e-03,
       1.49875563e-02, -6.67145103e-03, -2.45571183e-03, 1.29347518e-02,
       1.74326487e-02, 1.28824525e-02, -9.94743872e-03, 1.28698524e-03,
       3.06055229e-03, -8.16168636e-03, -1.36470664e-02, -7.09591154e-03,
       -9.30995494e-03, 1.04709398e-02, 2.32472084e-03, -9.14555974e-03,
       -3.54354153e-03, -1.69415597e-03, 1.47197815e-03, 1.18111656e-03,
       -1.42666344e-02, -1.13060081e-03, -5.87364333e-03, 1.00098812e-04,
       -1.38597777e-02, -4.24401322e-03, 3.85006587e-03, 2.91016549e-02,
       -1.49359722e-02, -8.52747075e-03, -3.82512771e-05, 5.84481750e-03,
       -6.63099857e-03, -3.17904144e-03, -1.57384016e-02, 1.01825772e-02,
       8.95999186e-03, -1.83669559e-04, 3.73501098e-04, -1.27263870e-02,
       -9.74622648e-03, -1.83307193e-02, -6.68674940e-03,
       -1.09671913e-02, -7.62153883e-03, 2.15670019e-02, 2.67262082e-03,
       -1.34645775e-02, 5.81097091e-03, -9.04795714e-03, -1.54171707e-02,
       -1.00680012e-02, -2.50736102e-02, 1.68501455e-02, 1.81513540e-02,
       5.26311807e-04, 1.48242833e-02, 3.62620316e-02, 9.62038524e-03,
       1.11763403e-02, -9.05056577e-03, -2.03206372e-02, -4.03692247e-03,
       -4.24672104e-03, 9.53823142e-03, -1.54442899e-02, -7.18698092e-03,
       -1.37463622e-02, -1.15964245e-02, -1.53317591e-02,
       -8.53064470e-03, 6.76581869e-03, 1.84007231e-02, 2.47877371e-03,
       1.15566272e-02, 8.64055008e-03, 1.49338716e-03, 3.53519619e-03,
       1.16994139e-03, -1.45149892e-02, -3.74843879e-03, 8.26621056e-03,
       1.28031978e-02, -2.05177404e-02, -4.62218141e-03, 1.07618030e-02,
       1.00841112e-02, 2.16858299e-03, -5.29449666e-03, -8.10234528e-03,
       -4.26061731e-03, -9.31853987e-03, -1.03499647e-02,
       -1.77589823e-02, -2.92869727e-03, 2.03420641e-03, 1.19132996e-02,
       -3.81490518e-03, -2.84999819e-03, 1.11359106e-02, -5.17508574e-03,
       1.83289703e-02, -3.50000057e-03, 1.16569910e-03, 1.44514898e-02,
       1.15114832e-02, -8.96524824e-03, 2.68720835e-03, 8.26728810e-03,
       2.55527464e-03, -6.87730918e-03, -1.05518354e-02, 1.35771697e-02,
       1.64884608e-02, 1.25101926e-02, -1.42650241e-02, -8.04106891e-03,
       1.61240331e-03, -1.47141302e-02, 2.11621467e-02, 1.25223026e-03,
       1.49104279e-03, 6.88123750e-03, 4.76395339e-03, -5.40523278e-03,
       4.87175118e-03, 5.91725111e-03, 5.49306627e-03, -7.13982899e-03,
       1.38166621e-02, -1.05299763e-02, 1.41458968e-02, -1.36515303e-02,
       6.62169093e-03, 1.19640734e-02, 8.40365887e-03, -7.44429789e-03,
       -2.70580826e-03, 3.98704931e-02, 9.48249921e-03, 7.69503601e-03,
       -2.17696093e-02, 8.22196656e-04, 6.69174222e-03, 9.79442429e-03,
       -5.96243935e-03, -2.45037931e-03, -1.91690456e-02,
       -1.20443823e-02, 8.41413718e-03, -1.82403941e-02, 3.54003324e-03,
       7.98466243e-03, 4.92227636e-03, -7.38506112e-03, 1.10684829e-02,
       7.41616648e-04, 4.33099084e-03, 1.13103697e-02, -8.89586343e-04,
       9.43782087e-03, 2.17802338e-02, 1.84358377e-02, 1.32163288e-02,
       -9.35447495e-03, 4.01227996e-02, 2.68827025e-02, 1.02569060e-02,
       -7.88599346e-03, -1.02359448e-02, -7.97302648e-03, 4.81152767e-03,
       -2.58450076e-04, 1.12428395e-02, 6.19770912e-03, 5.55177173e-03,
       -9.00946371e-03, 1.12172849e-02, -1.54445868e-03, -7.35709863e-03,
       1.59467361e-03, 2.21015494e-02, 1.07162688e-02, 1.73715632e-02,
       1.87361147e-02, 1.86534505e-02, -2.11028662e-03, -1.79607291e-02,
       -2.35830899e-03, -9.52092651e-03, 4.20247018e-03, 6.59269188e-03,
       2.11709812e-02, 1.32179866e-02, -1.29294982e-02, 1.01495348e-02,
       -1.08784707e-02, -1.41324233e-02, -1.04958573e-02, 3.60721233e-03,
       2.33065598e-02, 1.63502581e-02, 6.02255668e-03, 1.30331586e-03,
       -3.83201754e-04, -3.93640436e-03, 1.15299020e-02, 9.62496176e-03,
       1.92115959e-02, 6.11825474e-03, 1.86214573e-03, 1.70889101e-03,
       7.74082076e-03, -1.44130150e-02, -1.55221559e-02, 1.39493896e-02,
       1.95648484e-02, 2.99184612e-04, -6.59176440e-04, 1.14350365e-02,
       8.19416251e-03, -4.38478030e-03, -5.96135948e-03, -1.00559928e-02,
       8.24482366e-03, -4.53696819e-03, 6.45744661e-03, 5.06361190e-04,
       -5.93243958e-03, 4.00301814e-03, -6.91315532e-03, 3.64753301e-03,
       3.48661700e-03, 1.21265529e-02, 4.48332401e-03, 6.80976640e-03,
       2.33861301e-02, -4.78323968e-03, 1.22708839e-03, -3.01917735e-03,
       -6.21409761e-03, -6.03237608e-03, 7.91121647e-03, 2.55816821e-02,
       4.77991253e-03, 1.15821492e-02, 1.81675553e-02, 6.47004694e-04,
       -1.76499989e-02, 1.50319412e-02, 6.94868737e-04, 5.89794945e-03,
       2.10092030e-02, -1.48079004e-02, 2.57358961e-02, 7.21885217e-03,
       -9.01329238e-03, -3.10690235e-03, -8.48218519e-03,
       -1.65239852e-02, -3.88957886e-03, 1.52625737e-03, 8.20717774e-03,
       2.59470921e-02, 1.53940693e-02, -1.82054881e-02, -2.13904791e-02,
       -1.42834219e-03, -1.04059558e-02, 2.85400520e-03, 1.41946804e-02,
       -4.28739237e-03, -3.94489476e-03, 1.41579648e-02, 4.12340183e-03,
       -1.56602971e-02, -5.67042455e-03, -1.33907916e-02,
       -1.70321771e-04, 4.78754286e-03, 8.22359230e-03, 4.22682334e-03,
       1.90702900e-02, -2.59270333e-03, -1.27560683e-02, -6.42850203e-03,
       -1.63757498e-03, -8.93678423e-03, 1.47336815e-02, -8.99306673e-04,
       1.35391462e-03, 4.77739004e-03, -8.33408965e-04, -8.72896425e-03,
       -1.28627801e-02, -3.51897534e-03, 1.54668847e-02, 9.70883295e-03,
       -5.99379791e-03, 2.34072539e-03, 7.15581328e-03, 1.43385762e-02,
       5.37114218e-03, -1.59095787e-02, -5.50233899e-03, -1.60979778e-02,
       1.38790375e-02, 1.14517128e-02, -1.00709153e-02, 1.31383585e-02,
       2.63332156e-04, 3.99771053e-03, -1.23822829e-03, -6.64336560e-03,
       -2.84013781e-03, 1.11218309e-02, -2.43700971e-03, 7.56535307e-03,
       1.46637578e-02, -1.17583685e-02, 5.58237638e-03, -4.54916758e-03,
       -1.30979382e-02, -3.16897454e-03, 1.14268856e-02, -6.49965694e-03,
       8.52538459e-03, 3.09672346e-03, -2.96629011e-03, 5.93015831e-03,
       6.02631364e-04, -1.78752076e-02, -1.59256719e-02, 8.13066307e-03,
       -1.52324224e-04, 9.82850045e-03, -9.51611716e-03, -1.99456774e-02,
       4.89943800e-03, -4.96376306e-03, -1.11569893e-02, -1.08747100e-02,
       -2.11158744e-03, -7.55061116e-03, 1.59250367e-02, 1.61236729e-02,
       -2.76192091e-02, 4.72649554e-05, 3.48409521e-03, -2.55238824e-03,
       -8.31394270e-03, 1.73265059e-02, -9.13181459e-04, 6.38871221e-03,
       1.87388994e-02, -1.32948766e-02, 3.51320789e-03, -1.68209872e-03,
       -5.47698187e-03, -1.16051957e-02, 6.89194584e-03, -4.16085916e-03,
       5.38204238e-03, -9.01233125e-03, -1.64417028e-02, 2.04409342e-02,
       9.95879900e-03, -4.55930410e-03, -2.73427330e-02, 2.49689561e-03,
       -8.12774245e-03, -2.44005024e-03, -1.48547599e-02, 6.32243976e-03,
       2.53681634e-02, 2.12530848e-02, 2.69477582e-03, -2.68475506e-02,
       -3.95641737e-02, -1.39955804e-02, 6.95861457e-03, 2.59786602e-02,
       3.28066945e-03, 5.20419609e-03, -1.58842187e-02, -6.96945703e-03,
       2.05605407e-04, 1.95156131e-02, 9.11292341e-03, 4.07285383e-03,
       1.56589858e-02, -7.35584926e-03, -9.96238366e-03, -1.16787627e-02,
       -1.20570473e-02, -1.32699888e-02, 6.91062445e-03, 1.17314616e-02,
       4.40240698e-03, 5.55569399e-03, 5.35082025e-03, 1.04975505e-02,
       4.48305160e-03, 1.65378917e-02, -3.01283412e-03, -1.83909014e-02,
       -1.30674150e-02, 6.97006588e-04, -1.33826267e-02, -2.78533902e-02,
       -1.22961821e-02, -9.14623437e-04, 1.70201100e-02, -6.04461459e-03,
       4.22120735e-04, 1.40027916e-02, 9.03197215e-04, 1.17652875e-03,
       3.96573264e-03, -7.34531321e-03, -9.48281260e-04, -2.14720820e-03,
       9.34945710e-04, 1.23123722e-02, 1.98890008e-02, 2.56522349e-03,
       3.86551372e-03, -4.16102214e-03, 5.39804343e-03, 3.38014364e-02,
       1.80059355e-02, 1.52656715e-02, 2.10408270e-02, 1.27888201e-02,
       -4.69587371e-03, 5.72506688e-04, -1.46751562e-02, 3.05679278e-03,
       1.80418547e-02, 8.40701908e-03, 4.25817911e-03, 1.11469929e-03,
       2.04711985e-02, 8.61066394e-03, 1.46451611e-02, 1.10579515e-02,
       5.38902543e-03, 2.76601631e-02, 8.42315331e-03, 5.51259890e-03,
       6.65256940e-03, 1.80902816e-02, -1.79202929e-02, 2.00625765e-03,
       -2.76648090e-03, 7.80432997e-03, 2.50513554e-02, 1.66851524e-02,
       9.67095792e-03, 7.41838198e-03, -1.34966858e-02, -9.35335085e-03,
       1.17641184e-02, 3.71799630e-04, -1.39465621e-02, -1.66585334e-02,
       -1.38218664e-02, -3.29757901e-03, -5.19345561e-03,
       -9.41672013e-04, -1.47350505e-02, -1.46442937e-04,
       -5.79540525e-03, 4.58949478e-03, 2.09406968e-02, 7.76789663e-03,
       1.24943992e-02, 4.62737225e-04, -3.02563305e-04, -1.28860530e-02,
       5.73108066e-03, 2.65311310e-03, -1.78940129e-02, 2.03642696e-02,
       -3.52495466e-03, -1.04699666e-02, -8.25616252e-03,
       -6.61083218e-03, 3.45656113e-03, 1.64070148e-02, 1.07943332e-02,
       -8.08391720e-03, -1.25463121e-02, -1.41798258e-02,
       -2.01899093e-02, 1.05731022e-02, 2.39872821e-02, -5.71749752e-07,
       1.33245252e-02, 1.88301150e-02, 5.20070875e-03, -4.78911400e-03,
       -1.01418700e-02, -3.54908523e-04, 1.20502850e-02, 9.88023728e-03,
       8.57595727e-03, 1.10468464e-02, 3.74239986e-03, -1.44879557e-02,
       1.25778522e-02, -3.08502559e-03, -2.88411826e-02, 1.46298902e-02,
       8.99380073e-03, -3.29444092e-03, -1.03822397e-02, 1.16785034e-03,
       -1.84461772e-02, -1.76965003e-03, -1.50421839e-02,
       -9.24499333e-03, 2.05876362e-02, 1.96338594e-02, -8.32944736e-03,
       1.51925543e-02, 1.53162209e-02, 9.07192662e-05, -2.02223309e-04,
       -2.01706067e-02, -8.16034910e-04, 1.96884479e-02, 1.13103399e-02,
       5.54261869e-03, 2.38747094e-02, 2.45104898e-02, -1.21677341e-03,
       1.96449161e-02, -3.00844642e-03, 2.18402930e-02, 3.39634046e-02,
       1.89322773e-02, -1.87607575e-02, -1.92120355e-02, 5.33367274e-03,
       -1.92829203e-02, 6.88593090e-03, -1.73149984e-02, -1.03036547e-02,
       2.12070420e-02, 2.35112547e-03, -9.13358573e-03, 1.76352002e-02,
       2.10441910e-02, -3.36514553e-03, 7.51990918e-03, -1.09998556e-02,
       -3.07735638e-03, 1.53940869e-02, -2.39909772e-04, 1.63856391e-02,
       8.43511987e-03, 1.43506341e-02, -2.84120650e-03, 8.51430278e-03,
       -8.02886300e-03, 1.57182962e-02, 1.75269153e-02, 1.59129761e-02,
       3.69409025e-02, 2.15837639e-02, 7.66683556e-03, 7.00700330e-03,
       8.97070207e-03, -3.12546678e-02, -1.30504428e-03, 3.21682468e-02,
       1.45163089e-02, 6.08020648e-03, 2.06470564e-02, 1.85096785e-02,
       4.66272701e-04, -3.43086221e-03, -3.26564303e-03, -7.30038341e-03,
       -8.36165715e-03, -9.02610179e-03, -3.54001328e-04, 1.99641865e-02,
       1.46692228e-02, -1.17283642e-04, 6.58013765e-03, -2.04940070e-03,
       1.15809226e-02, 2.59888591e-03, 1.86222524e-03, 1.19179077e-02,
       3.46955587e-03, -7.45045440e-03, 4.66343528e-03, 1.37824249e-02,
       -1.85778290e-02, -1.62207279e-02, 2.35347860e-02, 6.44623442e-03,
       2.92022806e-02, 5.91946347e-03, -1.22960694e-02, 9.82026011e-03,
       2.99646314e-02, 1.85887970e-04, 5.98699600e-03, 4.97892220e-03,
       1.25747453e-02, -5.35516860e-03, 9.03673377e-03, -1.48120513e-02,
       4.28586919e-03, 1.30618652e-02, -8.84130318e-03, 7.14736432e-03,
       -3.74385854e-03, -1.37264198e-02, 1.45803588e-02, 9.03037563e-03,
       -9.95811727e-03, -7.95654207e-03, 2.71914899e-02, -1.50764529e-02,
       6.83795474e-03, -2.66434508e-03, 5.89980278e-03, 2.21836586e-02,
       2.56884377e-04, -1.41645586e-02, 1.77384214e-03, 1.33084995e-03,
       -1.19986758e-02, -4.94686747e-03, 1.29897678e-02, 1.01364302e-02,
       1.76850446e-02, 1.27736507e-02, 2.09527602e-03, 1.02933450e-02,
       5.62993111e-03, 1.11929737e-02, 1.80005804e-02, 1.80283152e-02,
       1.97310988e-02, -9.85210016e-03, -1.09361783e-02, -8.66880082e-03,
       -1.43994996e-03, 8.76629725e-03, -1.58126354e-02, -1.05780046e-02,
       -3.64931975e-03, -8.62236880e-03, -5.66098792e-03, 7.34957634e-03,
       -5.05365524e-03, 6.97322469e-03, 7.15119345e-03, -7.98183773e-03,
       -1.67121552e-03, 3.22808721e-03, -6.98517368e-04, -4.85842954e-03,
       6.18180586e-03, -7.50292093e-03, 2.64474261e-03, 9.33308527e-03,
       5.71063068e-03, 9.91937891e-03, 1.38621097e-02, 5.21804625e-03,
       -1.74916023e-03, -6.67773187e-03, -4.78868419e-03, 5.57831582e-03,
       3.44580243e-04, -1.87501311e-02, 6.51871739e-03, 2.44154185e-02,
       2.43396126e-02, -1.17358249e-02, 1.96963595e-03, 1.19376101e-03,
       1.38358609e-03, -7.32818444e-04, -5.74797392e-03, -7.04633491e-03,
       6.60735939e-04, -5.11897961e-03, -6.03332464e-03, 2.63106287e-03,
       9.83378850e-04, 8.48670676e-03, 4.24504699e-03, -6.82898751e-03,
       1.02859270e-02, 1.02450838e-02, 1.51020782e-02, -5.62512595e-03,
       -4.85447096e-03, 3.67649039e-03, 9.65962838e-03, 9.44824237e-03,
       -2.98098586e-02, 6.29729300e-04, 2.29185037e-02, -3.43736005e-03,
       4.61341534e-03, 4.18469543e-03, 4.79882304e-03, 6.73142495e-05,
       -1.19191576e-02, -2.16393881e-02, -3.72023974e-03, 1.13219479e-02,
       -1.44321881e-02, 6.22749468e-03, 2.80944654e-03, 1.02924109e-02,
       4.70798882e-03, 6.23185188e-03, -1.84259694e-02, -9.03050136e-03,
       6.12823339e-03, 1.63807697e-03, 4.06998768e-03, -6.41644234e-03,
       -7.84769282e-03, -3.26843769e-03, 7.23621948e-03, -4.70564421e-03,
       1.09905405e-02, 1.15535641e-02, 6.61497703e-04, 7.79905543e-03,
       3.11148632e-03, -2.58193375e-03, -1.76798236e-02, -1.21394191e-02,
       -2.45261230e-02, -1.37256924e-04, -2.69678351e-03,
       -1.00131501e-02, -6.41860534e-03, -4.54429165e-03,
       -5.90777956e-03, -1.29657146e-02, 5.10162301e-03, -3.38702416e-03,
       1.86260398e-02, -3.39866243e-03, -1.84552483e-02, 8.65751319e-03,
       5.09581808e-03, 1.13008427e-03, -1.26791708e-02, 1.74856978e-03,
       -8.97271279e-03, 2.52378429e-03, 2.29072454e-03, 1.67982131e-02,
       3.26074753e-03, 7.17607513e-03, -5.24228066e-03, -1.53096570e-02,
       -4.18511778e-03, -1.28464885e-02, -1.21034803e-02, 4.05455753e-03,
       -6.03981363e-03, -8.61484930e-03, -8.11402127e-03,
       -7.11171189e-03, 3.10482876e-03, 1.48199126e-02, -1.49695771e-02,
       1.07265655e-02, -5.57248294e-03, -2.67290883e-02, 4.76774643e-04,
       5.94248064e-03, 4.08677239e-04, 2.20042770e-04, -7.80719705e-03,
       -2.70745950e-03, 7.63222622e-03, -6.89762039e-03, -8.59525520e-03,
       -9.66011919e-03, 6.84023416e-03, 1.67490885e-04, -6.88802171e-03,
       1.02421902e-02, -9.44806729e-03, -1.56781189e-02, 1.67648133e-03,
       -3.29215080e-03, -6.71960413e-03, -8.02585762e-03, 5.39979897e-03,
       4.08955058e-03, -9.74977482e-03, -7.52047263e-03, 5.94000984e-03,
       -6.90595340e-03, 3.92966345e-03, -1.22214155e-03, 3.06212436e-03,
       -5.80548635e-03, -5.73303085e-03, -1.41742993e-02, 1.84826553e-02,
       1.28655350e-02, -8.76633637e-03, -1.03782108e-02, -2.20381119e-03,
       -2.78612459e-03, -1.50183367e-03, -9.43377335e-03,
       -1.00142667e-02, 1.89323036e-03, -1.04448078e-02, -1.36433113e-02,
       1.18899308e-02, 8.77585169e-03, -7.83490855e-03, -1.45394501e-04,
       -1.28362328e-02, -1.57041959e-02, 1.55522181e-02, 1.75816584e-02,
       -2.39707753e-02, 2.84207053e-04, 1.06474925e-02, 1.10831643e-02,
       1.00693405e-02, -4.47002519e-03, -4.24172590e-03, -7.10009946e-04,
       -6.29015081e-03, -5.65616321e-03, 1.12898173e-02, 4.55724262e-03,
       8.10898258e-04, 9.38006910e-04, -1.52845532e-02, -8.37821234e-03,
       -9.95483249e-03, -1.42936986e-02, 3.54518555e-03, -2.84062116e-03,
       -9.49606579e-03, -1.67101412e-03, -8.32797401e-03,
       -2.39914823e-02, -5.30554354e-03, -2.09846329e-02, 1.62010994e-02,
       3.33005749e-03, -1.05056819e-02, -5.08453418e-03, -7.48227211e-03,
       -5.65280626e-03, -2.89010839e-03, 1.83183572e-03, 1.69900001e-03,
       -7.54369795e-03, -1.32011771e-02, 1.10289669e-02, -1.19279800e-02,
       -1.98494885e-02, -8.46529193e-03, -1.01877926e-02, 6.51962264e-03,
       -9.29113943e-03, 1.27431769e-02, -1.51086776e-02, 2.52418988e-03,
       8.78104381e-03, -2.21967441e-03, 7.10142218e-03, 1.57736540e-02,
       1.21654551e-02, -1.76489761e-03, -6.63220591e-04, 1.35068530e-02,
       -1.34037808e-03, -5.46726119e-03, -3.06782866e-04, 3.25256065e-02,
       3.05796824e-02, 3.24763381e-03, 5.57413977e-03, -1.46740722e-02,
       -6.59842510e-03, -2.08453648e-02, 6.13559643e-03, 2.15227436e-02,
       9.71342251e-03, 2.41125766e-02, 4.22065193e-03, -1.20500624e-02,
       -1.65486261e-02, 3.42960499e-04, -1.57281905e-02, -1.40680349e-03,
       3.64228222e-03, 9.21811908e-03, 7.60951824e-03, 3.88015062e-03,
       1.34774474e-02, -5.25843026e-03, -5.37020806e-03, -1.42777404e-02,
       9.24676843e-03, 1.28645105e-02, 2.30312422e-02, 2.76517272e-02,
       -1.84399057e-02, -1.09260585e-02, -1.61214303e-02,
       -4.71672090e-03, -1.28360353e-02, 3.11252810e-02, 7.89006613e-03,
       1.00819133e-02, -5.44379815e-04, -2.36074887e-02, -2.23267581e-02,
       -8.76622647e-03, -1.87304337e-02, 5.21900691e-03, 1.12577630e-02,
       -1.81596144e-03, -4.68460470e-03, 4.60325414e-03, 2.55399686e-03,
       -2.67468416e-03, -1.14608249e-02, -1.01370028e-06, 3.25571722e-03,
       2.40464099e-02, 6.45520631e-03, -1.09406654e-02, -1.96829233e-02,
       -1.13992654e-02, -2.21018773e-02, -7.16344640e-03,
       -8.41178931e-03, 1.37305157e-02, 1.79560520e-02, 1.11585623e-03,
       6.79335417e-03, -9.82551486e-04, -2.32339483e-02, -1.13769891e-02,
       -3.76381981e-03, -6.93125417e-04, 4.60263388e-03, 3.59345507e-03,
       -8.92820023e-03, -5.19312406e-03, 9.25104227e-03, -1.71129983e-02,
       8.24675802e-03, 1.33344345e-02, 1.03434874e-02, 1.06730284e-02,
       7.30954157e-03, -6.13845512e-03, -4.84094722e-03, -1.66310538e-02,
       -5.98733826e-03, -1.08805615e-02, 3.57919559e-03, 6.33886736e-03,
       5.90891950e-03, 1.62319525e-03, -9.18193348e-03, -1.31055494e-05,
       -2.09313016e-02, 2.21386389e-03, 5.84632857e-03, 5.62795857e-03,
       2.18991172e-02, 7.78506044e-03, -3.37971421e-03, -1.45604685e-02,
       -7.74516538e-03, 6.48481678e-03, 5.18250046e-03, -6.15957147e-03,
       9.24173743e-03, 5.58297615e-03, -2.61994987e-03, -7.14638177e-03,
       -1.71330036e-03, 1.00521119e-02, -1.13620944e-02, 3.29869497e-03,
       -1.04441587e-02, 2.40802718e-03, 1.01064127e-02, -1.41774714e-02,
       8.21776409e-03, 1.58483093e-03, 8.99162702e-03, -8.32335616e-04,
       1.63567276e-03, -7.74024054e-03, -1.26310820e-02, -3.02231347e-05,
       1.00530719e-03, 1.60843190e-02, 2.29717256e-03, 3.34115117e-03,
       1.19183352e-02, 2.61369143e-02, -3.49856098e-03, -1.09081026e-02,
       -4.13041189e-03, 4.49762447e-03, -2.08510477e-02, 7.77746973e-05,
       -3.93514987e-03, -5.55532426e-03, -2.92712124e-03,
       -1.60637107e-02, 8.09968275e-04, -3.52968276e-03, -1.73193943e-02,
       -1.04335239e-02, -7.64984032e-03, 3.45190521e-03, -5.91806835e-03,
       4.10522707e-03, -3.80384037e-03, 3.20511754e-03, -1.41219767e-02,
       -1.02267712e-02, 1.41885774e-02, 1.02283750e-02, 9.04450100e-03,
       6.93737471e-04, 1.68517232e-02, 4.08701599e-03, -4.50393697e-03,
       -1.25735840e-02, -6.93493569e-03, 1.58142839e-02, 1.75063275e-02,
       1.43823037e-02, 1.18056163e-02, 2.85490043e-02, 1.26566207e-02,
       -3.69955809e-03, -1.64721115e-03, 1.72084589e-02, 1.12705613e-02,
       -5.04518626e-03, -2.75036357e-02, 1.01398304e-02, -2.12944276e-03,
       -1.70070329e-03, 1.00860801e-02, 1.04523043e-03, 4.91654873e-03,
       1.21722734e-02, 2.56259623e-03, -1.94740053e-02, 2.57562962e-03,
       -4.94897924e-03, -5.24838222e-03, -4.06699226e-04, 4.08216519e-03,
       -1.61068887e-02, 6.97481772e-03, 8.80016387e-03, -1.73514392e-02,
       2.03851312e-02, 6.99888775e-03, -4.05044341e-03, 3.28068179e-03,
       7.73245795e-03, 1.07635092e-02, -1.14715192e-02, 2.40050368e-02,
       -1.29131777e-02, 1.29994079e-02, 2.17161439e-02, -2.06885510e-03,
       -7.80962728e-05, -5.80948219e-03, -6.14174223e-03, 5.57957869e-03,
       1.07259816e-02, 9.49233491e-03, 1.01802992e-02, -6.61871349e-03,
       3.34529812e-03, 4.14935173e-03, 1.50226792e-02, -1.28127607e-02,
       -8.90259165e-03, 6.31868886e-03, -9.14304797e-03, 7.88524095e-03,
       -9.24078748e-04, -7.04845152e-05, -9.79434233e-03, 5.91330463e-03,
       -1.70462523e-02, -9.50821955e-03, 1.18023418e-02, -2.79967417e-03,
       1.72091872e-02, 4.02935920e-03, 6.65715244e-03, -3.88933206e-03,
       -8.24498478e-03, -7.54889753e-03, 3.79094458e-03, 1.48043102e-02,
       -4.09552082e-03, 5.64731890e-03, 1.20806135e-03, 5.35485521e-03,
       -7.24362722e-03, 7.54946284e-03, -5.03654312e-03, -1.79688260e-03,
       5.23417199e-04, -1.16630178e-02, -3.32095078e-04, -2.11383533e-02,
       -1.53800016e-02, -6.90778811e-03, 1.13584716e-02, -2.10139360e-02,
       1.14352384e-03, -2.92505277e-03, -3.12951650e-03, -2.65000691e-03,
       -1.56740751e-02, -1.71884503e-02, -8.12757853e-03, 1.38164312e-03,
       -1.68259405e-02, -5.34627819e-03, 1.18686762e-02, -6.75014500e-03,
       5.33389254e-03, 9.10506002e-04, -2.57173902e-03, -9.70624294e-03,
       8.43407772e-03, -1.66630354e-02, 5.54911699e-03, 1.07691485e-04,
       -1.00376261e-02, -9.94899869e-03, 2.29636370e-03, 3.22593283e-03,
       -4.51884419e-03, -4.97573696e-04, -1.85293122e-03, 1.90905575e-02,
       4.57952172e-03, -1.33164572e-02, -3.23796552e-03, -1.01316860e-02,
       -1.86683517e-02, -1.57600529e-02, 1.77346859e-02, 1.59735121e-02,
       2.25484394e-03, -9.62835085e-03, -4.92921006e-03, 1.50771178e-02,
       5.95496362e-03, -7.16204103e-03, -1.70340762e-02, -6.08748803e-03,
       -4.50138235e-03, 1.01229390e-02, 7.47250021e-03, 2.14621495e-03,
       -6.54694904e-03, -7.69743649e-03, 4.36223671e-03, 2.88917916e-03,
       1.12693021e-02, 3.16500361e-03, -6.17854623e-03, 1.06070321e-02,
       6.53560786e-03, 5.62971050e-04, -3.64340283e-03, 1.73317287e-02,
       1.18467845e-02, -7.62088411e-03, -7.66084855e-03, 1.82586666e-02,
       -1.08612666e-03, 1.73772278e-03, 7.24306004e-03, 5.53127890e-03,
       2.77118990e-03, -3.55535420e-03, -4.43135796e-04, 1.66758581e-03,
       -3.94073874e-03, -5.57109946e-03, -1.14248814e-02,
       -2.06227438e-03, 2.29934417e-03, 1.32604036e-02, 6.68788794e-03,
       -6.50854409e-03, -8.00543837e-03, -5.08015603e-03, 5.02272183e-03,
       9.61481687e-03, 1.39326146e-02, 5.13739465e-03, 4.35525626e-02,
       2.01212279e-02, 1.58081744e-02, 2.76195607e-03, -6.64834958e-03,
       7.49286544e-03, 4.75869840e-03, 1.72633044e-02, 1.90390684e-02,
       5.91910305e-03, -4.91904700e-03, 6.90279296e-03, 3.59959481e-03,
       -2.23566648e-02, 6.67469669e-03, -2.61157029e-03, -1.40063530e-02,
       -1.53088141e-02, 1.93125685e-03, 5.02614351e-03, -2.19268166e-03,
       -5.60041470e-03, 4.05750657e-03, 1.22101912e-02, 1.26799825e-03,
       -1.00836093e-02, -1.72920432e-02, -5.49856201e-03,
       -8.24858714e-03, 1.09460391e-02, 1.42124984e-02, -5.61700994e-03,
       4.45088698e-03, 8.14972073e-03, 1.70990191e-02, 1.41130611e-02,
       2.42487248e-02, 1.01511329e-02, 1.04460241e-02, 9.97364428e-03,
       1.67452767e-02, 1.17152305e-02, 1.19763259e-02, 5.08760521e-03,
       -8.42452515e-03, 9.55771655e-03, -6.13732496e-03, 8.33274424e-03,
       1.62005015e-02, -7.05752173e-04, 1.00159971e-02, 1.54060582e-02,
       3.45068821e-03, 6.36114739e-04, 1.38071494e-03, -1.34684248e-02,
       4.20159148e-03, 1.91124920e-02, 9.59601160e-03, 4.08129999e-03,
       6.25729002e-03, -1.60204954e-02, 2.36226320e-02, 7.08577596e-03,
       -7.80753139e-03, 5.78405708e-03, 1.01554003e-02, -4.78455657e-03,
       -1.18086599e-02, 2.96061411e-02, 2.34181676e-02, -1.31577654e-02,
       6.33184239e-03, -1.17253400e-02, -1.25285387e-02, -3.18035251e-03,
       -9.61878896e-03, -1.73095446e-02, -1.80722587e-02,
       -5.76523424e-04, -2.52519106e-03, 4.78586415e-03, -3.54287028e-03,
       -4.35463944e-03, -9.22200177e-03, 5.75159024e-03, 1.34638033e-03,
       7.38295203e-04, -1.35973198e-02, 2.34540757e-02, 1.82014052e-02,
       -1.05398381e-02, 1.68032199e-02, 1.18749421e-02, -4.47062124e-03,
       -1.35462005e-02, -1.15384103e-03, -1.09228417e-02,
       -1.16477450e-02, 6.58806134e-03, -3.56154889e-03, 3.07581127e-02,
       1.25611760e-02, -1.44211180e-03, -1.17828250e-02, -1.73703413e-02,
       9.47116502e-03, 1.44634861e-02, 2.89381929e-02, -2.44430639e-03,
       -8.62361304e-03, -1.44550977e-02, 1.22640748e-03, 6.20470196e-03,
       -5.74994832e-03, -4.34849178e-04, -2.95948819e-03, 3.56477173e-03,
       -2.71776207e-02, 6.97645172e-03, -1.74255390e-03, -1.77943986e-02,
       -1.38624525e-02, 9.10939928e-03, -9.35993437e-03, -4.43348777e-04,
       3.06560192e-03, -5.63106127e-03, 3.39037701e-02, 3.67867481e-03,
       -4.01999132e-04, 2.28974167e-02, 1.08605018e-02, 3.16674518e-03,
       2.83936434e-03, -1.21194962e-03, 2.98639201e-03, 3.92047875e-02,
       2.20520515e-02, -2.81198192e-02, -4.07281768e-04, 1.15352450e-02,
       2.20045750e-03, -1.37942916e-04, -3.00861127e-03, -2.47419681e-02,
       -4.69797105e-03, -1.45603325e-02, -2.41174200e-03, 6.21715048e-03,
       7.41532957e-03, 6.47777226e-03, -1.03042861e-02, -6.86192885e-04,
       1.29440520e-03, 1.70926731e-02, 3.82502010e-04, 9.79030505e-04,
       8.18721671e-03, 4.00393363e-03, -6.67856075e-03, -6.53651310e-03,
       4.24397783e-03, -5.10638533e-03, 1.51178082e-02, 3.00373835e-03,
       1.17710084e-02, 1.69680193e-02, 1.46276848e-02, -4.70774714e-03,
       2.58046854e-03, 3.04655004e-02, 2.14739144e-02, 9.41530988e-03,
       1.24198645e-02, 3.03756515e-03, 6.66015409e-03, -3.55487922e-04,
       -2.86931824e-03, 7.57395569e-03, 4.73118108e-03, 1.09122591e-02,
       7.60670705e-03, -6.94915606e-03, 2.29229257e-02, 3.14481258e-02,
       1.52902277e-02, 7.82066397e-03, 1.43431053e-02, 8.59450921e-03,
       1.80388205e-02, 1.00094723e-02, 1.77453533e-02, -4.05566068e-03,
       1.41901076e-02, -1.38238417e-02, -9.66025796e-03, -3.83200985e-03,
       6.15242170e-03, 1.31399836e-02, 1.03149400e-03, 2.72130768e-04,
       1.29187033e-02, 1.69256702e-02, -3.36217950e-03, -1.72466263e-02,
       1.36251990e-02, -1.01169478e-02, 7.04330066e-03, 5.33756800e-03,
       1.54204238e-02, 1.16232429e-02, 3.10279597e-02, 1.52916182e-02,
       -4.22808900e-03, -2.03166879e-03, 6.37923693e-03, 8.31645820e-03,
       4.00751131e-03, 9.96377412e-03, 1.51346782e-02, 1.54751977e-02,
       7.68304197e-03, -4.84320306e-04, 4.97286394e-03, -5.64276101e-03,
       1.29815359e-02, 1.06028626e-02, 3.13189402e-02, -1.82705596e-02,
       -1.95300614e-03, -1.22919148e-02, -1.29842749e-02, 1.08039798e-02,
       -1.59737710e-02, -1.47542618e-02, -4.42974968e-03,
       -4.43726406e-03, 1.52471359e-03, 7.06708385e-03, -1.76003315e-02,
       -3.15185776e-03, 2.10942905e-02, -9.27750301e-03, -4.30541718e-03,
       8.98672733e-03, 1.19492626e-02, -2.42813676e-05, 6.29328098e-03,
       -1.25100976e-02, 1.78164779e-03, 4.47823608e-04, -4.32319241e-03,
       -5.84433647e-03, -6.39579585e-03, 1.51089784e-02, 1.35974502e-02,
       2.36888300e-03, -1.48314415e-02, -6.43688906e-03, 8.38500541e-03,
       -8.07693228e-03, -7.00035784e-03, 2.38436367e-02, 1.79215856e-02,
       6.37492980e-04, -1.58895898e-04, -1.15749389e-02, -9.93527193e-03,
       -4.58045676e-03, -2.57076621e-02, -1.58498380e-02,
       -7.20050558e-03, 3.46614234e-03, -8.47175531e-03, 3.95321893e-03,
       -8.92047212e-03, -8.37058946e-03, -9.89305205e-04, 1.56818726e-03,
       4.60977573e-03, 7.10973796e-03, 4.19478258e-03, 1.41315348e-02,
       9.24561452e-03, -1.21523337e-02, -3.21536348e-03, -4.93264897e-03,
       -2.70427763e-02, -1.35262068e-02, -3.15223384e-04, 6.85984595e-03,
       -1.47894840e-04, -4.17620176e-03, -3.81409889e-03, 8.57413001e-03,
       7.40171969e-03, 1.00295935e-02, -4.32033883e-03, 1.85011197e-02,
       4.34678840e-03, -1.83482300e-02, -1.19791171e-02, -5.50253084e-03,
       -1.22062815e-02, 1.37378052e-02, -1.41876554e-02, 7.15536531e-03,
       1.30658830e-02, -8.82365799e-04, -1.29165268e-02, 8.41105008e-04,
       -2.90536066e-03, 4.34572348e-06, 2.41701752e-02, 8.11678823e-03,
       5.19062998e-03, 1.23590305e-02, 1.03419386e-02, -1.52450558e-02,
       -2.12825350e-02, -1.33591546e-02, -5.90814510e-03, 2.15070192e-02,
       5.45487506e-03, -5.21282246e-03, 5.98809635e-03, 8.41448549e-04,
       9.25921090e-03, -7.40473345e-03, 5.45545621e-03, 8.25088844e-03,
       3.73524539e-02, 2.32773516e-02, -6.47021737e-03, 4.11850400e-03,
       3.06606833e-02, -2.67672818e-04, 1.55022815e-02, 7.64066773e-03,
       -6.84626913e-03, -5.15896361e-03, 1.34327321e-03, -5.14003262e-03,
       -7.70928245e-03, 7.72504695e-03, -4.71883314e-03, 5.85359242e-03,
       1.19692301e-02, -6.65238826e-04, -6.16425555e-03, -5.30603575e-03,
       -2.22423021e-02, 2.53191171e-03, 1.12229018e-02, 3.50539805e-03,
       6.70808833e-03, 3.57786822e-03, 1.21873897e-03, 5.49051911e-03,
       9.63116344e-03, -8.70711170e-03, -6.31303573e-03, 5.60106151e-03,
       7.21566961e-04, 1.54701865e-03, -9.97349713e-03, -1.28201023e-02,
       5.57541754e-03, 5.99460164e-03, -1.27337058e-03, 2.85086874e-03,
       -1.93643593e-03, -9.13945585e-03, -5.63614478e-04,
       -4.20155469e-03, -8.78173392e-03, -7.99536798e-03,
       -1.32112987e-02, -1.83641203e-02, -5.43808704e-03, 2.16993713e-03,
       -3.52269551e-03, -1.21801328e-02, -5.55522135e-03,
       -8.43592733e-03, -1.26601988e-02, -4.07050131e-03, 6.11355156e-03,
       -6.66207168e-03, 1.37661773e-04, 4.88601392e-04, -1.20414970e-02,
       -9.95027460e-03, -1.64204258e-02, 7.18269497e-03, -1.46500804e-02,
       -1.00410292e-02, -4.60664695e-03, -8.86417832e-03, 2.56008189e-03,
       -1.72785390e-02, -4.60324157e-03, -5.63621987e-03, 6.35886518e-03,
       -1.15184272e-02, -3.82123119e-03, -1.03212865e-02,
       -2.09508944e-04, -4.68309736e-03, -1.18102878e-02,
       -7.43919576e-04, -7.60961836e-03, -2.14568172e-02,
       -4.88326186e-03, 7.40859937e-03, -1.74150802e-02, -7.28001958e-03,
       -3.83754820e-03, -7.60393310e-03, 5.88369602e-03, -5.50362747e-03,
       -4.08179918e-03, -3.02530429e-03, 2.88789248e-04, -5.34247374e-03,
       -4.43565659e-03, -7.51836749e-04, -1.24301319e-03, 3.66060832e-03,
       5.40338643e-03, -5.89128537e-03, -1.71350427e-02, -6.39431784e-03,
       -1.09265987e-02, -8.42165295e-03, -1.66159905e-02, 1.01876268e-02,
       4.69730934e-03, 7.57765863e-03, -1.76832802e-03, -1.68403219e-02,
       -1.24276965e-03, -6.38682116e-03, -8.03859159e-03,
       -4.57828213e-03, -1.77094787e-02, 6.28099497e-03, -2.94992793e-03,
       -6.57138601e-03, -7.14687072e-03, -4.98086354e-03, 1.81824912e-03,
       1.63006261e-02, -1.26478989e-02, -2.11675055e-02, -3.80430627e-03,
       -1.04331318e-02, 1.20592443e-02, -3.26805771e-03, 1.90118719e-02,
       1.45604659e-03, 1.33817876e-02, -1.12067740e-02, -3.48151056e-03,
       -6.06281508e-04, -1.85172372e-02, -1.94277223e-02,
       -9.48348921e-03, 9.44721047e-03, -2.02544383e-03, -9.78391711e-03,
       -1.19716758e-02, -5.74343605e-03, 1.18446313e-02, -1.08364541e-02,
       -5.67902299e-03, 6.58185268e-03, 2.15681288e-02, 4.98862052e-03,
       -6.54033292e-03, 3.94135481e-03, 2.52869297e-02, -1.30798584e-02,
       2.60949903e-03, -9.24316421e-03, -1.51681183e-02, -6.04245579e-03,
       8.89849570e-03, 3.28641967e-03, 1.31722428e-02, 2.08736863e-03,
       -1.60385598e-03, 2.39400542e-03, 9.99275502e-03, -4.17668745e-03,
       3.27125331e-03, 1.00233601e-02, 7.67122488e-03, -1.70725994e-02,
       1.39944404e-02, -1.12187238e-02, -9.19906609e-03, -1.96051579e-02,
       -2.68133134e-02, -9.28150769e-03, 8.68091732e-03, -1.22225247e-02,
       5.04046539e-03, -3.73319443e-03, -1.24467053e-02, -6.16318686e-03,
       5.75271249e-03, 5.95578877e-03, 9.39316209e-03, 1.87350009e-02,
       4.91134543e-03, -2.13880301e-03, -7.06676720e-03, -1.70394219e-03,
       7.66144367e-03, 6.81009237e-03, -5.38268825e-03, -4.83587570e-03,
       6.83421327e-04, 1.64423208e-03, -1.93807818e-02, -7.03928433e-03,
       -4.99965763e-03, -7.02079991e-03, -1.30304750e-02, 4.08333202e-04,
       3.60497343e-03, -1.04594405e-03, -8.14116385e-04, -1.02848588e-02,
       -6.23299135e-03, 3.03041772e-03, 1.44393947e-02, 3.25732143e-03,
       2.00534170e-03, -1.08288284e-02, -8.64510611e-03, -8.21172632e-03,
       -4.32442315e-03, 2.32089683e-02, 1.40692359e-02, -1.08364911e-04,
       2.98373727e-03, 1.98578592e-02, 2.89145904e-03, -1.38451513e-02,
       -1.51445866e-02, -1.90642308e-02, -2.97432998e-03,
       -2.12623645e-03, -1.32864732e-02, -3.79746174e-03, 6.14579814e-03,
       -5.97443804e-03, -5.88628696e-03, -1.45975593e-02,
       -7.91294686e-03, 1.06992619e-02, 1.19073968e-03, -1.82707645e-02,
       -4.98409476e-03, 9.10906959e-03, -5.19435247e-03, -2.02985306e-04,
       -1.82141475e-02, -1.16676604e-02, 2.05244459e-02, 1.05257453e-02,
       2.11900123e-03, -3.13106854e-03, 1.58366133e-02, -1.72231055e-03,
       -1.49129312e-02, -2.19937284e-02, 3.99069802e-04, 1.88417863e-02,
       9.84834973e-03, 1.85046101e-03, -9.31965653e-03, 1.48862433e-02,
       7.53350509e-03, -1.80160836e-03, -6.32159133e-03, -2.36846885e-04,
       7.55348196e-03, 8.47057346e-03, -2.16457644e-04, -1.59564372e-02,
       -1.02482950e-02, -7.87479337e-03, -1.18512716e-02, 2.10875223e-04,
       2.80799414e-03, 6.47006137e-03, 7.04629021e-03, 2.01337021e-02,
       5.28069027e-03, -1.62746813e-02, -1.22942654e-02, -1.76594872e-02,
       -4.00037068e-04, -1.44234682e-02, -3.54175922e-03, 1.38209527e-03,
       -1.79971417e-03, -1.26975612e-03, -6.19435497e-03,
       -4.34815278e-03, -1.16422763e-02, -2.76693748e-03, 4.87172540e-04,
       1.12762544e-02, 1.52456900e-02, 1.40094580e-02, 9.69133526e-03,
       1.52761424e-02, 1.68050304e-02, 9.45836958e-03, 8.15308653e-03,
       4.95990459e-03, 6.43950328e-03, 3.33399803e-04, 6.95494644e-04,
       -1.14212697e-02, -1.58799179e-02, -1.37841627e-02,
       -1.34564126e-02, -1.26102052e-04, -1.63381279e-03, 8.85733869e-03,
       1.62826921e-03, -1.07258353e-02, -4.41762945e-03, -9.43775754e-03,
       -1.22782998e-02, 4.05140454e-03, 1.33234914e-02, 7.52013037e-03,
       1.50847398e-02, 1.12578822e-02, 1.56636047e-03, 1.85842591e-03,
       1.41525257e-03, 3.73940310e-03, -1.33577699e-03, 4.59329644e-03,
       4.64316178e-03, -6.17603830e-04, -3.62228672e-03, 4.38724505e-03,
       4.00867406e-03, -1.53678993e-03, -1.75328902e-03, 1.15858018e-02,
       5.31414058e-03, 4.40712793e-05, 2.27880882e-04, -5.19381789e-03,
       -3.52871045e-03, -9.27856471e-03, -4.70340671e-03,
       -1.38488878e-03, 1.25445146e-02, 1.60446260e-02, -1.77004859e-02,
       1.25992736e-02, -2.93147867e-03, -1.04262568e-02, -4.83236834e-03,
       -1.96619816e-02, -1.32594071e-02, 8.74157005e-04, -7.42365466e-03,
       1.11671817e-02, -6.20338775e-04, 6.55746134e-03, 1.87391602e-03,
       -5.15423575e-03, 1.33195817e-02, 1.62649918e-02, 1.95432343e-02,
       1.30708087e-02, -1.41949067e-02, -3.84909054e-03, 1.24472445e-02,
       3.67401307e-03, 2.60265674e-02, -1.11067726e-03, 7.78404577e-03,
       -8.59160814e-03, -5.79923391e-03, -1.26052704e-02, 1.44211911e-02,
       9.57749225e-03, 2.27822773e-02, -1.66967195e-02, -1.11266389e-03,
       -8.17263406e-03, 9.25558060e-03, -5.01737464e-04, -1.04955782e-03,
       1.24595333e-02, 4.58663824e-04, -3.31177749e-03, -5.67510398e-03,
       2.80162366e-03, -3.99401179e-03, 4.47016628e-03, 3.71623924e-03,
       -7.28466781e-03, 7.66519981e-04, 2.41757333e-02, 2.66422313e-02,
       -5.24405332e-04, -2.31348956e-03, 1.09201884e-02, -8.74556229e-03,
       -6.14241417e-03, -5.01159870e-04, -1.33806486e-02, 5.35233645e-03,
       6.30412670e-03, 8.03077593e-03, -4.32837202e-04, 2.62802525e-04,
       -3.29958228e-03, -2.57144752e-03, -3.03666340e-03, 7.54803477e-04,
       2.86266790e-03, 9.20308381e-03, -5.60468156e-03, -5.48126036e-03,
       -1.12642758e-02, 1.51710864e-02, -2.54099444e-03, 4.50471975e-03,
       2.59931735e-03, 8.43304023e-03, -8.73106625e-03, 1.01049617e-02,
       7.90815800e-03, 2.99005245e-04, 1.55733060e-03, 8.24560225e-03,
       -3.22844461e-03, -3.15552275e-03, 1.62891094e-02, 1.83942132e-02,
       -1.31987184e-02, -1.97524168e-02, -3.01873288e-03, 1.25875240e-02,
       1.37775121e-02, -6.95172639e-04, -3.28057143e-03, 1.92081630e-02,
       1.01718232e-02, 5.50344447e-03, -1.80766714e-04, 1.82513706e-02,
       3.23557435e-03, 8.39453470e-03, 1.37399277e-03, -1.22215133e-03,
       -3.17597296e-03, -1.58322174e-02, -3.86283570e-03, 8.56014527e-03,
       7.83306081e-03, 3.48052988e-03, -6.56347815e-03, -1.29972352e-02,
       -1.22684333e-02, 9.25644767e-03, 2.06411490e-03, -1.36835454e-03,
       1.45027777e-02, -5.33099985e-04, -6.11930992e-03, -2.64853686e-02,
       5.12850843e-03, -2.04455783e-03, 7.01308716e-03, 1.67647395e-02,
       2.17163861e-02, 1.43395290e-02, 3.85646475e-03, -4.81974706e-03,
       -4.49538743e-03, -2.57902266e-03, 6.78768847e-03, 2.10982207e-02,
       1.95414405e-02, 4.75011906e-03, 4.92153503e-03, -1.29932025e-02,
       -3.00839101e-03, -3.15766258e-04, -8.18789285e-03,
       -1.11813359e-02, -1.82502379e-03, -8.88483413e-03,
       -2.02728133e-03, 2.46513058e-02, 1.42127117e-02, 1.10945953e-02,
       -6.73610903e-03, -2.55664787e-03, 6.43670937e-05, -7.25809718e-03,
       1.63148646e-03, -3.56811797e-03, -1.21289166e-02, -8.72782897e-03,
       -5.20684617e-03, -6.20143209e-03, -1.23880338e-02,
       -1.20076234e-03, 8.95768497e-03, 1.27786379e-02, -1.92633073e-03,
       9.13359504e-03, 6.65307092e-03, 4.64752549e-03, 6.03404781e-03,
       -5.18170837e-03, 1.12980930e-02, 5.92730939e-03, 5.39009087e-03,
       2.40276312e-03, 9.81251337e-03, 5.14939148e-03, -8.66716076e-03,
       -2.42207199e-02, -2.99636158e-03, -1.27036432e-02,
       -6.55623293e-03, 1.80387218e-02, 1.44128944e-03, -4.24353348e-04,
       -9.58016899e-04, -4.50672209e-03, -6.02282025e-03, 5.24923997e-03,
       -1.80476066e-02, -1.48164276e-02, 2.87084677e-03, -2.28319429e-02,
       8.24880437e-04, -7.68083939e-03, 1.11089693e-02, 1.41717978e-02,
       -2.69502960e-03, 7.09669851e-03, 3.65624158e-03, 2.45329291e-02,
       2.09694952e-02, 1.25286514e-02, -1.20648777e-03, 2.60309479e-03,
       -1.81940198e-02, -3.98626179e-03, -8.73316173e-03,
       -1.75625104e-02, 8.32883827e-03, 3.49265221e-03, 8.98212940e-03,
       -7.08749145e-03, 8.17763153e-03, 1.27792386e-02, 3.42276646e-04,
       -2.60235760e-02, -9.25010303e-04, 2.29681451e-02, -1.58567186e-02,
       1.31689804e-02, 7.62272207e-03, 1.76702440e-02, 1.15005737e-02,
       1.48996264e-02, -1.63105428e-02, -2.14892998e-02, -4.02309094e-03,
       -3.04313730e-02, -3.91215784e-03, -1.06599592e-02, 7.51058897e-03,
       1.66231822e-02, 4.75589535e-04, -3.90533078e-03, -1.15014678e-02,
       1.92558914e-02, 1.60895605e-02, 2.18534525e-02, 1.23360278e-02,
       1.56984124e-02, 2.18752511e-02, 8.43708124e-03, 8.62927269e-03,
       -8.49939883e-03, 1.37083735e-02, -1.28878350e-03, -3.64581239e-03,
       -6.53694011e-03, -2.01856275e-03, 1.37664983e-02, 1.53604813e-03,
       -1.61921475e-02, -2.96914466e-02, 3.28717660e-03, -1.77077167e-02,
       6.04807632e-03, -2.39528785e-03, -8.37054104e-04, 9.19398852e-03,
       -2.95758946e-03, 5.95935481e-03, -8.01705290e-03, 3.86525248e-03,
       -1.35456882e-02, -6.96134102e-03, -6.54537324e-03, 1.51631027e-03,
       -3.55827273e-03, 1.18589038e-02, 8.75120051e-03, 6.95492094e-03,
       3.41644809e-02, 6.61709066e-03, 4.03300719e-03, 2.58156192e-03,
       -5.04963705e-03, 2.90424010e-04, 1.40227526e-02, 1.00562181e-02,
       6.24472101e-04, 1.39961177e-02, -1.04992313e-03, -1.46817584e-02,
       2.40309853e-02, 2.08574021e-03, 6.14448218e-03, -8.31298437e-03,
       1.21820504e-02, 3.03415302e-03, 1.63892994e-03, 1.56546501e-03,
       6.47367816e-03, -9.63448081e-03, -3.27716582e-03, -4.81915101e-03,
       1.34169459e-02, 2.43487414e-02, -4.65446990e-03, -1.02331955e-02,
       -5.92214474e-03, 1.54207367e-03, 6.51701819e-03, 2.02966010e-04,
       1.87605852e-04, -2.94147339e-03, 1.62213892e-02, 3.06272251e-03,
       1.64834838e-02, 1.76966097e-02, -6.45661633e-03, 1.84495226e-02,
       1.11001553e-02, -8.03581497e-04, -8.49664304e-03, 1.16480375e-02,
       4.26269602e-03, 1.09835733e-02, 1.12660006e-02, 9.85721499e-03,
       2.01619770e-02, 2.98370398e-03, 1.26535902e-02, -9.01307818e-03,
       1.68327882e-04, -2.16410328e-02, -2.01170072e-02, -4.21002507e-03,
       -6.91411830e-03, 1.39242094e-02, 4.04268596e-03, -1.06391842e-02,
       1.15041872e-02, 1.63247250e-02, -9.56934690e-03, -1.95679031e-02,
       7.68918078e-03, -6.02804264e-03, 2.01856513e-02, 3.42346868e-03,
       1.43167516e-02, -1.71540882e-02, 2.07664468e-03, -5.48364967e-03,
       -3.79405473e-03, 5.77452267e-03, 2.98300292e-03, 6.74559269e-03,
       -4.64478647e-03, 5.33350860e-04, 1.42651778e-02, 1.52671337e-02,
       5.36462816e-04, -1.26912240e-02, -5.62469987e-03, 3.51792853e-03,
       1.42736100e-02, 3.06619029e-03, 1.65999830e-02, 6.68375334e-03,
       1.93615463e-02, 1.06627448e-02, -6.29997160e-03, 8.29057023e-03,
       -3.40463640e-03, -8.66863970e-03, -5.68047981e-05, 3.44537711e-03,
       3.64723876e-02, 1.84700508e-02, 1.37367565e-03, -7.42586283e-03,
       -1.07250595e-02, -1.91776995e-02, 1.39285466e-02, 2.76401248e-02,
       3.82817611e-02, -1.25439896e-03, 1.09880688e-02, 1.88907760e-03,
       3.87745863e-03, 6.16046786e-03, -1.47298549e-03, 2.13293196e-03,
       8.64182890e-04, -3.30846244e-03, 1.47668514e-02, 1.02340626e-02,
       5.69971697e-03, 1.29252486e-03, -6.22420572e-03, -6.77602971e-03,
       8.56841076e-03, 2.93112621e-02, 1.18772471e-02, 1.64046548e-02,
       -7.35185768e-06, -4.64739138e-03, -1.11625865e-02,
       -1.35649263e-03, -5.43237571e-03, 3.67578818e-03, 1.77414436e-02,
       1.56547949e-02, 1.02982456e-02, -6.53979462e-03, -3.97064257e-03,
       -2.09094007e-02, 2.64398362e-02, 6.12473069e-03, 7.61417858e-03,
       1.57310758e-02, 2.31245030e-02, 1.21674445e-02, 4.04778199e-04,
       3.65064945e-03, 3.36512993e-03, 8.34021717e-03, -2.16845470e-03,
       -1.69940165e-03, 1.00582950e-02, 8.57228588e-04, 5.09679317e-04,
       -3.22084595e-03, -1.42990879e-03, -1.57937966e-02, 2.48436742e-02,
       1.32369110e-02, 1.87848844e-02, 1.73201822e-02, 1.26790740e-02,
       2.84439488e-03, 4.38059447e-03, -8.19139741e-03, -9.85038839e-03,
       5.80684841e-03, -4.88886051e-03, -2.57349713e-03, 6.78028772e-03,
       1.16698863e-02, 6.14309683e-03, 5.80257131e-03, 7.66837853e-04,
       1.57706272e-02, 1.45196011e-02, 2.14059856e-02, -6.15922385e-04,
       2.45055500e-02, 1.31612783e-03, -1.10623641e-02, 4.78763087e-03,
       4.28247452e-03, 1.23142521e-03, 1.50857796e-03, -6.91434179e-05,
       3.74098774e-03, -5.04329847e-03, -7.37673696e-03, 1.31345987e-02,
       5.75059466e-03, 1.61069743e-02, 3.06527521e-02, 1.87882613e-02,
       2.28611808e-02, 1.55286370e-02, 5.95837831e-03, 2.39349413e-03,
       -1.44107128e-02, -8.54685903e-03, -1.26314219e-02, 1.97570259e-03,
       2.33048876e-03, -1.36318039e-02, -7.29619569e-05, 1.13522187e-02,
       -1.22658685e-02, -4.29994008e-03, -1.02767032e-02,
       -3.79253877e-04, 1.42930998e-02, 1.00284051e-02, 1.71634443e-02,
       -3.44105717e-03, -1.15559006e-03, 4.98009194e-03, -5.14832046e-03,
       -3.93800717e-03, 5.87087590e-03, 1.60529874e-02, 5.84748108e-03,
       4.44274908e-03, 1.13528380e-02, 5.30948117e-03, -5.06041711e-03,
       3.40474234e-03, -3.62563040e-03, 8.03771691e-05, 1.05091957e-02,
       9.26063338e-04, 1.73424147e-02, 1.73540488e-02, 2.48422232e-02,
       6.25095051e-03, 3.53400991e-03, 3.55553720e-03, 6.42704545e-04,
       1.63684674e-02, 2.67710839e-03, -8.61121807e-05, -5.06068300e-03,
       -1.21837994e-03, 3.31677240e-03, -7.58599536e-03, 5.44868782e-03,
       -1.29211331e-02, -1.00125615e-02, 2.22289600e-04, 7.50074210e-03,
       -1.27095543e-02, 6.07715483e-05, -6.54727779e-03, -2.64871679e-03,
       -2.18151393e-03, -3.99637688e-03, 7.45140063e-03, -3.98334861e-03,
       -7.08208318e-05, -8.65477789e-03, 5.02284989e-03, 1.82567462e-02,
       -4.33454802e-03, 1.09956237e-02, 1.82927179e-04, 2.63829739e-03,
       5.25660161e-03, 1.91338221e-03, 1.72443385e-03, 2.28244439e-02,
       2.15636007e-02, -4.08094050e-03, -1.12877460e-02, -2.21564993e-02,
       -2.38628536e-02, -1.20670060e-02, -1.33623816e-02,
       -1.01367719e-02, -1.44778448e-03, -2.32470315e-02, 3.78584256e-03,
       -1.22580817e-02, -1.91180557e-02, -8.60915147e-03,
       -2.29600631e-03, -6.60849095e-04, 5.34120528e-03, 1.93038788e-02,
       -1.71947647e-02, -1.23681603e-02, 1.36907334e-02, 3.56928539e-03,
       5.26899006e-03, 1.43449567e-02, -1.07166208e-02, -2.01830342e-02,
       -5.59474248e-03, -1.25435572e-02, 5.61370573e-04, -2.18678662e-03,
       -5.84840728e-03, 1.26056932e-02, 1.05122551e-02, 7.68957892e-03,
       1.76871452e-03, 2.03235466e-02, -8.31808895e-03, 1.11900615e-02,
       -1.06468545e-02, -1.78875215e-02, -5.09538258e-05, 2.00479082e-03,
       2.07291520e-03, -9.14315972e-03, 1.96258770e-03, -2.66710087e-03,
       -3.19673284e-03, -7.74683338e-03, -1.43081276e-02,
       -4.85915225e-03, 1.42761273e-02, 7.75960181e-03, 1.84647311e-02,
       2.48764106e-03, 2.58334307e-03, -4.25487524e-03, -6.93486864e-03,
       -1.65511537e-02, -8.03515129e-03, -2.08974537e-03, 3.03214556e-03,
       1.07331236e-03, 1.70736648e-02, 9.81261488e-04, -8.51836521e-03,
       2.82401656e-04, -1.62000712e-02, -2.39549931e-02, 1.81015227e-02,
       -4.69167624e-03, -9.40229837e-03, 9.48892068e-03, 1.40059059e-02,
       -6.51568640e-04, -8.64984747e-03, -1.66909657e-02,
       -1.25663783e-02, 4.67922073e-03, 5.76605974e-03, 2.19456255e-02,
       1.50734866e-02, 2.43903790e-03, -8.87380913e-03, 7.21627148e-03,
       1.58993881e-02, -6.10608608e-03, -1.38575351e-02, -1.16222324e-02,
       1.91992931e-02, 1.13155609e-02, -2.27058828e-02, 7.70991668e-03,
       1.19798863e-02, -8.88764486e-03, -2.10789572e-02, 1.66390475e-03,
       -5.47217298e-03, -1.23951826e-02, 1.22100618e-02, 1.65764280e-02,
       -3.61251784e-03, -6.62603322e-03, -1.40553853e-02,
       -2.15862915e-02, -1.32838534e-02, -4.12870431e-03, 1.31444233e-02,
       2.49099638e-02, -1.03611518e-02, 9.36761778e-03, 2.13042293e-02,
       -2.50575249e-03, 6.76633511e-03, -1.55805666e-02, -3.11550312e-02,
       -2.31689271e-02, -1.01729739e-03, 1.37339428e-03, 2.28303066e-03,
       -5.66682452e-03, -1.19989142e-02, -7.90472887e-03,
       -5.74030913e-03, 1.56142283e-02, 1.01896273e-02, 1.34679247e-02,
       1.27813509e-02, 6.18415140e-03, 1.41154742e-02, 5.91361057e-03,
       1.29337013e-02, 6.98219333e-03, -1.47008691e-02, -3.28843147e-02,
       -2.02800389e-02, -6.06723828e-03, 9.25778225e-03, -1.40984938e-03,
       3.12909600e-03, 1.13853943e-02, 7.26641738e-04, 2.10758820e-02,
       9.06038750e-03, -2.02686922e-03, -1.13140349e-03, -1.12089245e-02,
       1.75265013e-03, 6.08739955e-03, 4.40589618e-03, -7.96302862e-04,
       8.43261892e-04, -1.02062412e-02, -1.46661839e-02, -1.62999537e-02,
       8.04309035e-04, 1.40729574e-02, 1.47299590e-02, 6.99769286e-03,
       -2.89803813e-03, 1.17296977e-02, 5.09739795e-04, -1.73230246e-02,
       -1.57271419e-02, 3.39350081e-04, -3.76721285e-03, -4.79726540e-03,
       9.50905436e-04, 1.79415965e-03, -3.02345515e-03, 8.34048202e-04,
       -1.97336953e-02, -1.40592670e-02, 1.34781646e-02, -8.89064651e-03,
       1.30022494e-02, 5.29444357e-03, -1.19116614e-02, 1.89917907e-02,
       1.78237893e-02, -2.49680737e-03, -7.46706326e-04, -2.35523796e-03,
       4.15222300e-03, 1.21977914e-03, 1.29688531e-02, -1.07210744e-02,
       4.48416825e-03, 1.17283966e-03, -2.72474741e-03, -1.88942961e-02,
       -6.20087981e-03, 1.87221391e-03, -1.30213285e-03, 3.38412146e-03,
       -4.35010646e-04, 5.19920560e-03, 1.18097654e-02, 4.73646913e-03,
       -7.50420801e-03, -9.59939510e-03, -4.79298458e-03,
       -1.04810083e-02, 2.14106796e-04, -1.50789702e-02, 1.43154257e-03,
       -7.54573150e-03, -5.59077738e-03, -9.65426303e-03,
       -1.38737075e-02, -1.21924523e-02, -1.10497391e-02,
       -1.17177600e-02, -6.40052371e-03, -7.80149188e-04, 4.66301478e-03,
       4.29644343e-03, -1.28937801e-02, -1.43685723e-02, -1.13715008e-02,
       -4.06521652e-03, 6.80569792e-03, 7.47907860e-03, -4.15978674e-03,
       -1.17525589e-02, -1.98855996e-02, -9.93216131e-03,
       -1.12473574e-02, 9.92391258e-04, -3.00254533e-03, 1.84428915e-02,
       1.75081044e-02, 2.46612150e-02, 6.92143058e-03, -6.95393793e-03,
       -1.26484493e-02, -1.23319561e-02, -8.33080150e-03, 7.19650357e-04,
       8.57789442e-03, 6.12310646e-03, -1.55921886e-02, -1.61211323e-02,
       -1.61291379e-02, -1.81395058e-02, -8.13691132e-03, 5.72843151e-03,
       -2.38561467e-03, -1.06964540e-03, 1.52033346e-03, 4.14213724e-03,
       4.17948887e-03, 3.64820799e-03, -2.84555624e-03, -2.95500853e-03,
       -1.71373365e-03, 4.31734324e-03, 6.42601587e-03, 1.96946738e-03,
       2.21964456e-02, -1.74705056e-03, -7.36500463e-03, -4.32372373e-03,
       -3.29278945e-03, 2.27269600e-03, -1.07103224e-04, 1.02722738e-03,
       6.85941079e-04, 1.60507130e-04, -5.38455462e-03, 3.62240040e-04,
       -8.28949641e-03, -5.18083805e-03, 1.36877876e-02, -4.76185512e-03,
       -6.70510437e-03, -1.83685552e-02, 1.39902607e-02, -1.89144711e-03,
       2.69685732e-03, 2.76583596e-03, -1.44520402e-03, 2.08407640e-02,
       -1.27098747e-02, -9.08449199e-03, 5.59344050e-03, 1.60849921e-03,
       -2.92046592e-02, -8.57740454e-03, -9.45954025e-03,
       -1.34697063e-02, 8.85937596e-04, 2.32676417e-03, 8.36050417e-03,
       -4.92653064e-03, 1.19937705e-02, 9.24441498e-03, 7.57326512e-03,
       -8.79218150e-03, -2.59234495e-02, -2.35060081e-02,
       -8.31795391e-04, -2.18797661e-03, 1.27090821e-02, -1.72744367e-05,
       -7.18202069e-03, -1.91067401e-02, -1.93831380e-02,
       -3.32733733e-03, 1.50772510e-02, 5.85371396e-03, 8.78820475e-03,
       5.65620232e-03, 1.66026372e-02, -6.56015472e-03, -2.44291592e-03,
       -6.44775713e-03, -1.71314701e-02, -1.10711064e-02,
       -8.80183000e-03, -3.85784055e-03, -1.41936063e-03,
       -4.70300950e-03, -1.10788951e-02, -1.01107685e-02,
       -8.28136690e-03, -8.56476743e-03, -6.62286067e-03,
       -2.94375088e-04, 7.52690667e-03, -1.38239432e-02, 1.28130487e-03,
       6.94249943e-03, 7.06577767e-03, -7.16096442e-03, -1.14566647e-02,
       -8.42507521e-04, 1.20862024e-02, 2.15289369e-02, 4.44647344e-03,
       3.65993776e-03, -6.74812682e-03, -5.33886161e-03, -2.47683469e-03,
       2.22181226e-03, 1.01180958e-04, -1.03358682e-02, 5.14352927e-03,
       1.58719381e-03, 9.81633086e-03, 1.48750553e-02, 1.26501163e-02,
       7.08222622e-04, -7.45237852e-03, -5.55304205e-03, 7.25867040e-03,
       1.95558425e-02, -1.31609640e-03, 1.91044267e-02, 4.86689946e-03,
       -8.52162391e-03, -6.42429292e-03, -2.30805902e-03, 3.39711376e-04,
       1.40601750e-02, 2.41561942e-02, -7.64795719e-03, -9.02409386e-03,
       -1.16716260e-02, -2.09165644e-03, 8.20978172e-03, -7.42076105e-03,
       -2.51637753e-02, -1.58842374e-02, 1.57679133e-02, 3.12611577e-03,
       5.41719561e-03, 1.40229864e-02, 2.62400904e-03, 9.75793228e-03,
       -2.28341878e-03, -8.70048592e-04, 1.70084983e-02, 2.12232005e-02,
       2.31797938e-04, 7.82090146e-03, -6.18192367e-03, -5.92945237e-03,
       6.77020755e-04, -1.51197296e-02, -2.07626615e-02, 5.93749294e-03,
       1.53500857e-02, 1.40525289e-02, 2.97214016e-02, 9.94548947e-03,
       -1.01091759e-02, -7.67188380e-03, 1.18537769e-02, -4.34113061e-03,
       -1.17613729e-02, 1.58860702e-02, 9.19110980e-03, 1.15306461e-02,
       -4.41094441e-03, -1.86756030e-02, -6.44318934e-04, 6.20538648e-03,
       7.96738733e-03, 4.82777134e-03, 1.47564299e-02, 1.13624264e-03,
       2.21174117e-02, -8.64745677e-03, -1.62640586e-02, 6.22641807e-03,
       -4.03768523e-03, -5.22677414e-03, -2.57886876e-03, 9.52664483e-03,
       -1.84066698e-03, -5.51758846e-03, -1.84343699e-02,
       -2.07972284e-02, -1.17924456e-02, -1.15581090e-02, 2.68472941e-03,
       1.23560929e-03, -3.36653576e-03, -1.60500556e-02, 2.77310028e-03,
       -5.30301360e-03, -1.58660337e-02, 1.69863587e-03, -5.07231196e-03,
       -1.02509940e-02, 2.47188145e-03, 2.42057666e-02, -9.62199923e-03,
       1.67120043e-02, -8.22234526e-03, -8.92948639e-03, -1.23910443e-03,
       4.80814604e-03, 1.30355556e-03, -9.89122875e-03, 5.93236473e-04,
       -1.23186689e-02, 6.69770828e-03, -1.26288459e-02, 1.07521163e-02,
       2.79335398e-03, -1.52942427e-02, 3.53272958e-03, 1.29554430e-02,
       7.91823491e-03, -1.16628343e-02, 8.34292360e-03, -1.22647942e-03,
       -1.13126328e-02, -1.15567390e-02, 1.75041414e-03, -7.20803253e-03,
       -6.44101948e-03, 7.68423174e-03, 2.45472067e-03, -5.73585602e-03,
       -4.26232908e-03, 2.27969605e-02, 1.61083639e-02, 9.66579944e-04,
       6.52054464e-03, 7.16547808e-03, 1.98651403e-02, 3.07558756e-03,
       -9.25093191e-04, -7.25390855e-03, 1.32629443e-02, -9.62320133e-04,
       -1.11351172e-02, -8.81182402e-03, -9.39181913e-03,
       -2.52797222e-03, -1.41438132e-03, 1.00304261e-02, -2.06826665e-02,
       6.62303995e-04, 1.60662271e-03, 6.59403531e-03, 2.58615217e-03,
       4.87414701e-03, 1.12763587e-02, 5.88516938e-04, -5.40828751e-03,
       7.78280245e-03, 2.55238786e-02, 1.98076982e-02, -1.93220098e-02,
       -1.92242283e-02, -8.06265417e-03, 1.11014082e-03, -2.45618466e-02,
       1.03315599e-02, -8.71993601e-03, 1.18899252e-02, -1.35918222e-02,
       -1.65110976e-02, -9.40572843e-03, 9.72348382e-04, -1.53753776e-02,
       1.01038730e-02, 1.45261930e-02, -6.87048677e-03, 6.26510521e-03,
       3.80729465e-03, -1.15326839e-02, -1.12007679e-02, -7.14096939e-03,
       -1.77306856e-03, -3.28147551e-03, 8.70803138e-04, -6.27656421e-03,
       4.71081381e-04, -3.55110504e-03, -4.67124069e-03, 9.39634535e-03,
       8.92266165e-03, -9.88569949e-03, 3.72612104e-03, 2.93873679e-02,
       9.69433598e-03, 4.79261065e-03, -4.40100953e-03, 9.67465807e-03,
       4.62393090e-03, -1.60590920e-03, 9.93583445e-03, -4.62902390e-04,
       1.26747871e-02, -4.02341504e-03, -5.06884279e-03, 9.01123136e-03,
       3.77014582e-03, 1.99964619e-03, 9.19633452e-03, 1.90869402e-02,
       7.87734799e-03, 3.37854167e-03, -1.79261528e-02, -2.45092679e-02,
       -2.40586046e-03, 3.09465174e-03, -1.66243769e-03, -5.94079774e-03,
       6.39695674e-03, -3.42664425e-03, -3.08733564e-02, -1.59054361e-02,
       -7.35777244e-03, 1.37969656e-02, 1.13409972e-02, 7.32941134e-03,
       1.73474010e-02, 3.58374864e-02, -2.13025487e-03, 1.28696824e-03,
       -1.36362473e-02, -1.15969451e-02, 1.55118546e-02, -3.53450351e-03,
       -1.02057755e-02, -5.04354667e-03, -8.80334154e-03, 6.65775454e-03,
       -2.13880427e-02, -2.20852345e-02, -4.14536707e-03, 8.76918435e-03,
       -2.58786436e-02, -2.19259281e-02, -4.90931561e-03, 3.44615802e-03,
       1.98391196e-03, -2.13542730e-02, -1.28851254e-02, 3.97133082e-03,
       8.64644826e-05, -2.25833077e-02, -8.95603187e-03, 8.93198606e-03,
       4.44507599e-03, 2.69087404e-03, 3.96357710e-03, 3.25740664e-03,
