%YAML:1.0
---
my_detector: !!opencv-object-detector-hog
   winSize: [ 256, 384 ]
   blockSize: [ 16, 16 ]
   blockStride: [ 8, 8 ]
   cellSize: [ 8, 8 ]
   nbins: 9
   derivAperture: 1
   winSigma: 4.
   histogramNormType: 0
   L2HysThreshold: 2.0000000000000001e-01
   gammaCorrection: 1
   nlevels: 64
   signedGradient: 0
   SVMDetector: [ 1.99491926e-03, 9.58596880e-04, 3.62497778e-03,
       3.44191492e-03, 4.50882735e-03, -6.81559416e-03, -8.00563302e-03,
       -5.03148232e-03, 1.12277234e-03, -2.87813926e-03, 9.62987106e-05,
       4.31480259e-03, 4.24393313e-03, 9.25093796e-03, -7.11660646e-03,
       -6.74088998e-03, -1.88192539e-03, 2.66103481e-04, -1.30314700e-04,
       8.88005830e-04, 5.59089240e-03, 3.41228861e-03, -1.29530687e-04,
       -8.73027556e-03, -1.07848803e-02, -8.63187294e-03,
       -4.29844949e-03, -6.19543809e-03, 6.23919244e-04, 9.26576369e-03,
       3.13136145e-03, -4.23185091e-04, -8.27501994e-03, -7.07902480e-03,
       -7.29302270e-03, -8.14545900e-03, -6.23298064e-03,
       -1.54229079e-03, 2.38472526e-03, 3.12803872e-03, 1.20186247e-02,
       -3.77802784e-03, -4.49437601e-03, -5.93561213e-04,
       -1.85399875e-03, -1.27210058e-02, -4.05256217e-03, 6.14638207e-04,
       -9.55261698e-04, 4.65422403e-03, -4.33808379e-03, -4.20248555e-03,
       3.53921903e-03, -4.56765527e-03, -6.76674815e-03, 1.26515992e-03,
       5.96162537e-03, 3.58939316e-04, -6.21616002e-03, -5.91405621e-03,
       -6.72187144e-03, -5.26329828e-03, -6.23481395e-03,
       -7.85153639e-03, -4.64035402e-04, 2.88034207e-03, -3.98083183e-04,
       -4.90691839e-03, -6.05104165e-03, -5.83793782e-03,
       -2.19548005e-03, -4.12593782e-03, -1.32421413e-02,
       -6.16208604e-03, -2.01825961e-03, -2.81524495e-03, 5.97231695e-03,
       -4.37799050e-03, -2.65970151e-03, 4.55553178e-03, -4.94913897e-03,
       -1.16402041e-02, -6.94614742e-03, -3.46913398e-03,
       -1.63656205e-03, -3.59938759e-03, -6.94346894e-03,
       -3.83795658e-03, 5.30209485e-03, -1.37268205e-03, -1.03626586e-02,
       -3.34324059e-03, -1.13042479e-03, -2.52174307e-03, 4.60808573e-04,
       -6.55123033e-03, -4.02911380e-03, -1.21248595e-03,
       -6.55000797e-03, -6.21375628e-03, -3.52707785e-03,
       -1.80200126e-03, -2.20489572e-03, -1.21237048e-04,
       -7.95200933e-03, -6.57184515e-03, -1.59784453e-03,
       -4.11602296e-03, -6.96280366e-03, -3.35174869e-03,
       -9.18159320e-04, -1.19761436e-03, -2.15248135e-03,
       -8.40840489e-03, -2.94757728e-03, 3.13325343e-03, -2.42027381e-04,
       -3.47233121e-03, -2.64035608e-03, -3.71881668e-03,
       -4.68810881e-03, -2.05372251e-03, -1.19424062e-02,
       -6.06663711e-03, 3.41395556e-04, 3.39213177e-04, -7.10078934e-03,
       -1.44062343e-03, -6.17151498e-04, -2.89807795e-03, 3.80584085e-03,
       -8.74273013e-03, -6.17503561e-03, -3.30907525e-03,
       -5.87537326e-03, -4.53870557e-03, -8.62820132e-04,
       -1.22603483e-03, -2.35159905e-03, -3.78464884e-03,
       -9.94914211e-03, -6.87948056e-03, -2.75380863e-03,
       -4.25336510e-03, -2.82274466e-03, -3.46270856e-03,
       -2.95271794e-03, -3.62575823e-03, -1.06347332e-04,
       -8.59730970e-03, -4.05585626e-03, 2.61035515e-03, 1.39059895e-03,
       4.02744685e-04, -2.91357143e-03, -7.21292756e-03, -9.81677417e-03,
       -1.26324641e-03, -1.01240035e-02, -6.70428434e-03,
       -1.13784033e-03, 1.60572585e-03, -3.84490564e-03, -2.42838962e-03,
       5.35509840e-04, -2.44157738e-03, -2.01822794e-03, -6.91403449e-03,
       -4.27330518e-03, -1.44718494e-03, -3.13976756e-03,
       -2.09839363e-03, -7.03031023e-04, -2.43205926e-03,
       -3.92526994e-03, -3.87371448e-03, -8.97418894e-03,
       -5.74881257e-03, -4.83487034e-03, -4.21193521e-03, 6.01181807e-03,
       -3.36835417e-03, -4.73643141e-03, -6.74789678e-03,
       -6.37181685e-04, -8.96662381e-03, -5.68293780e-03,
       -1.56036520e-03, 5.71529754e-03, 8.02355446e-03, -4.81035700e-03,
       -7.31072528e-03, -6.43232372e-03, -2.15250161e-03,
       -8.63406435e-03, -7.99731817e-03, -4.76172054e-03, 6.58240123e-03,
       4.10906924e-03, -3.18579114e-04, -2.61432049e-03, -3.24876700e-03,
       -8.15805513e-03, -9.00112651e-03, -5.81864221e-03,
       -4.06154105e-03, 1.15637423e-03, 2.48885201e-03, -6.31290954e-04,
       -9.43692587e-03, -6.43709349e-03, -7.95192923e-03,
       -8.33809935e-03, -7.30408542e-03, -5.26574906e-03, 7.98834837e-04,
       8.03390518e-03, -3.28860385e-03, -6.00137748e-03, -4.52869618e-03,
       -2.50893133e-03, -6.57920493e-03, -6.44600578e-03,
       -3.91459838e-03, 5.69650717e-03, 6.51987921e-03, -5.90904756e-03,
       -5.52999880e-03, -4.91328491e-03, 9.84417507e-04, -7.29990192e-03,
       -8.66455678e-03, -3.08781583e-03, 8.52310844e-03, 3.71720269e-03,
       -9.94260074e-04, -5.49404323e-03, -4.89570107e-03,
       -1.76223723e-04, -7.48126488e-03, -8.01022816e-03,
       -3.22912587e-03, 3.32125067e-03, 2.81889876e-03, -1.64238748e-03,
       -1.11779606e-03, -1.36550318e-03, 6.58815820e-03, -9.09214374e-03,
       -1.09643061e-02, -3.46968602e-03, 4.21595946e-03, -1.53332439e-04,
       -4.91008908e-03, -5.86712686e-03, -4.80542704e-03, 5.59339114e-03,
       -4.65269480e-03, -6.48089731e-03, -6.22685417e-04, 3.39504797e-03,
       -2.32344563e-03, -4.25667549e-03, -9.74429399e-03,
       -7.13796914e-03, 1.34280242e-04, -3.16519244e-03, -9.46724846e-04,
       4.75292560e-03, 3.19690304e-03, -1.55780558e-03, -1.02752005e-03,
       -1.65207894e-03, -1.97944208e-03, 7.07965018e-03, -4.87389090e-03,
       -8.46312381e-03, -2.72592879e-03, 2.60396773e-04, -1.48217398e-04,
       8.14506348e-05, -3.63962329e-03, -1.18432718e-03, 2.35994556e-03,
       -1.89824111e-03, -6.76682859e-04, 1.03843550e-03, 8.03801056e-04,
       -7.17670133e-04, -3.11049377e-03, -6.88126497e-03,
       -4.51417966e-03, 2.19481182e-03, -2.76609720e-03, 5.21953974e-04,
       3.83390649e-03, 2.83328560e-03, -1.99014135e-03, -2.12362991e-03,
       -4.65606572e-03, -2.63622240e-03, -7.51646794e-03,
       -3.19126388e-03, -1.24241005e-05, 3.05068819e-03, -2.35094829e-03,
       3.81556083e-03, -6.56905991e-04, -2.14640237e-03, -1.13471120e-03,
       7.74680078e-03, -3.44492379e-04, 8.70715128e-04, 2.96319107e-04,
       2.09273701e-03, 4.53564199e-03, 1.57825663e-04, -1.66065025e-03,
       -3.83710419e-03, -2.27659405e-03, -1.50174543e-03, 2.73975806e-04,
       -1.05604086e-04, 4.82860836e-04, -7.22566212e-04, -5.19587775e-04,
       -2.11214880e-03, -2.96824682e-03, -8.28734657e-04,
       -2.68955086e-03, -1.54407171e-03, 3.05802538e-03, -6.17926591e-04,
       -1.25286024e-04, -2.86238804e-03, -9.04670265e-03,
       -7.98520353e-03, -2.16665003e-03, -7.14819599e-03,
       -2.50483188e-03, 5.12378709e-03, 3.41744395e-03, 7.80756399e-03,
       1.63791148e-04, -4.49180196e-04, -4.30901209e-03, -3.40266066e-04,
       -3.12687340e-03, -2.26834975e-03, 3.23886023e-04, 5.86230494e-03,
       1.08944736e-02, -2.05726177e-03, -4.93676867e-03, -4.97889891e-03,
       -1.95183186e-03, -3.92081589e-03, -3.57482466e-03, 1.41919975e-03,
       1.01131741e-02, -4.96737717e-04, -7.82201474e-04, -6.54923217e-03,
       -6.99563837e-03, -6.76724734e-03, -7.95581378e-03,
       -4.92872996e-03, 2.94156326e-03, 1.88676489e-03, 2.85944343e-03,
       2.49844207e-03, -3.21642589e-03, -4.97045275e-03, -4.58239252e-03,
       -6.63526542e-03, -5.39656961e-03, 8.97937629e-04, 3.43804504e-03,
       6.69502467e-03, -1.01666525e-03, -5.69382543e-03, -7.33759115e-03,
       -1.47019385e-03, -4.73104790e-03, -4.74739308e-03,
       -2.42602167e-04, 4.77696024e-03, 6.97463797e-03, 1.73303357e-03,
       -4.31396300e-04, -1.02654553e-03, 3.97146912e-03, -4.50715283e-03,
       -2.45572627e-03, 4.44883510e-04, 5.38816117e-03, 1.76689704e-03,
       3.01844254e-03, -6.45592227e-04, -2.29403796e-03, -1.78071251e-03,
       -3.73236951e-03, -3.10072443e-03, 1.07095810e-04, 7.46548525e-04,
       2.16207840e-03, 5.73949795e-03, 4.06895386e-04, -4.00962774e-03,
       -4.92909458e-03, -5.43052563e-03, -6.24716794e-03,
       -2.68477388e-03, -1.07791519e-03, 7.93855928e-04, 9.77736432e-04,
       7.30462081e-04, -2.08507176e-03, 2.42178002e-03, -6.08066097e-03,
       -2.73270370e-03, 3.63423140e-04, 9.11451352e-04, 1.05784344e-03,
       -3.99120094e-04, -2.25004289e-04, -3.22881527e-03, 9.72156005e-04,
       -6.76460611e-03, -4.01430670e-03, -1.89895695e-03,
       -6.03967870e-04, 5.11103310e-03, 6.25403132e-03, 1.29173533e-03,
       -3.45112663e-03, 1.99504523e-03, -6.47859089e-03, -7.07270065e-03,
       -1.53554149e-03, 1.44702208e-03, 5.97263873e-03, 7.76362000e-03,
       1.76281319e-03, -2.27184757e-03, -5.93464263e-03, -6.62521645e-03,
       -4.31332365e-03, -1.30500947e-03, 1.12658448e-03, 1.54479884e-03,
       2.56659021e-03, 7.62459124e-04, -2.35906267e-03, -2.14364426e-03,
       -8.23516306e-03, -6.10509980e-03, -3.12587130e-03,
       -1.03913469e-03, -1.53961906e-03, 4.46539093e-03, 2.27586576e-03,
       -8.02427181e-04, 1.99758564e-03, -7.99812842e-03, -7.58631388e-03,
       -3.42949014e-03, -4.68188059e-03, 4.22912324e-03, 4.87336144e-03,
       1.14879967e-03, -2.48941639e-03, 2.07951525e-03, -4.36452823e-03,
       -1.21048221e-03, -1.20182161e-03, -4.28063679e-04, 1.76439900e-03,
       2.38710083e-04, 1.24059583e-03, -3.18658515e-03, -4.91543300e-03,
       -6.80362759e-03, -3.74983880e-03, -6.81238365e-04, 4.29437310e-03,
       -6.27402042e-04, 1.26269029e-03, 1.09510866e-05, -2.98023666e-03,
       -2.52538268e-03, -6.82226522e-03, -4.53425944e-03,
       -9.55865020e-04, -1.38581556e-03, 3.26441671e-03, 1.20921759e-03,
       2.12856056e-03, -3.66084557e-03, -3.86155024e-03, -7.55999796e-03,
       -1.13402971e-03, 2.07171612e-03, 2.72312784e-03, 2.16732989e-03,
       6.80329613e-05, 9.47078224e-04, -1.20282930e-03, -1.03639462e-03,
       -4.80038952e-03, -1.92108343e-03, -3.73685500e-04, 2.59282696e-03,
       4.44312301e-03, 4.67681047e-03, 1.42995198e-03, 2.21623835e-04,
       -3.23442160e-04, -3.22320615e-03, 1.57423539e-03, 2.18439358e-03,
       2.50118133e-03, 5.27769234e-03, -1.23414199e-03, -7.43715325e-04,
       -3.69287725e-03, -1.68322830e-03, -6.23321161e-03,
       -7.18953495e-04, 6.58786390e-04, 2.66613555e-03, 1.83564122e-03,
       -2.22083647e-03, -1.89183583e-03, -1.28150219e-03,
       -2.74983421e-03, -5.60413487e-03, -2.02764641e-03,
       -7.33692141e-04, -2.32284350e-04, 6.07122667e-03, 8.90492741e-03,
       4.38626623e-03, 1.76581612e-03, 5.87137742e-03, -4.88441763e-03,
       -2.46286299e-03, 4.72943357e-04, 2.45422451e-03, -1.58488634e-03,
       2.73950957e-03, 6.04220026e-04, 8.28506290e-06, -6.01790473e-03,
       -6.02565892e-03, -5.65670384e-03, -1.78238249e-03,
       -2.36038934e-03, 5.14638098e-03, 1.66654144e-03, -9.44965344e-04,
       -6.56048360e-04, 1.34008913e-03, -5.97386900e-03, -4.84388135e-03,
       -2.22763885e-03, 3.42197437e-03, 1.03635900e-03, -2.80395593e-03,
       -3.49204754e-03, -5.14940638e-03, -5.75147336e-03,
       -6.27918774e-03, -5.17460611e-03, -1.87778240e-03, 2.20952905e-03,
       -1.24074332e-03, 4.41530196e-04, 3.90521745e-04, 6.68543740e-04,
       1.12118595e-03, -3.21515696e-03, -2.42321799e-03, 9.65714396e-04,
       -2.25757807e-03, -2.73714494e-03, -6.85941312e-04,
       -3.16775241e-03, -1.90728297e-03, -6.45129755e-03,
       -4.49948478e-03, -3.43571627e-03, -6.37017074e-04,
       -5.37553709e-03, -7.10149761e-04, -2.86639016e-03,
       -1.41667598e-03, -1.06540811e-03, 6.34796545e-03, -2.41183955e-03,
       -7.82397809e-04, -1.54936250e-04, -1.81035997e-04, 3.29314917e-03,
       -3.66394350e-04, -5.88220370e-04, -1.05518987e-03, 6.34013116e-03,
       -7.03566591e-04, -3.71275144e-03, -2.02676631e-03, 1.54489651e-03,
       -2.41933623e-03, -2.85842489e-05, -6.79474790e-04,
       -1.35845633e-03, -4.06298833e-03, -4.20649257e-03,
       -3.51385726e-03, 1.31635799e-03, -2.78814510e-03, 2.86258786e-04,
       1.87921524e-03, 1.11609139e-03, -3.46950348e-03, -3.82809411e-03,
       -5.95046347e-03, -5.44624543e-03, -1.49632548e-03,
       -3.15739424e-03, 3.53882526e-04, 2.42725178e-03, 1.43879221e-03,
       -8.74241523e-04, 4.30316571e-03, -1.16483180e-03, -3.70015344e-03,
       -7.42789183e-04, 1.54657828e-04, 4.28037671e-03, 2.96346890e-03,
       2.44489964e-03, -1.57482177e-03, -1.66945159e-03, -4.08617361e-03,
       -7.27633480e-03, -3.53623484e-03, 2.88652908e-03, 2.85445154e-03,
       3.17354570e-03, -6.99586002e-04, -4.33903327e-03, -2.66723568e-03,
       -1.28817477e-03, -3.85279930e-03, 2.28772973e-04, 3.18210659e-04,
       1.85968098e-03, 1.17073103e-03, -4.06793365e-03, -7.87302013e-03,
       4.41776728e-03, -4.85878857e-03, -4.38762363e-03, -5.92062250e-04,
       -2.03654962e-03, 1.27343379e-03, 1.25422468e-03, -5.34004590e-04,
       -2.13680742e-03, -2.28742231e-03, -4.19908855e-03,
       -4.69309185e-03, -2.58843065e-03, -1.09546666e-03, 2.38849595e-03,
       1.47896644e-03, 1.80823682e-03, -1.53413962e-03, 1.38214917e-03,
       -6.45401841e-03, -6.08731573e-03, -2.59101181e-03,
       -3.82345694e-04, 4.31408454e-03, 2.57945154e-03, -2.45530321e-03,
       -7.46172480e-03, -4.53842897e-03, -6.43153023e-03,
       -4.31745080e-03, 9.11028183e-04, 3.43295140e-03, 3.81854526e-03,
       5.92740136e-04, -3.90737969e-03, -8.47211387e-03, -9.05073434e-03,
       -1.11469394e-02, -7.69989891e-03, 3.53024225e-04, 2.30092136e-03,
       6.15686318e-03, 2.24826136e-03, 1.75338762e-03, -4.64344677e-03,
       -1.42774323e-03, -7.07134278e-03, -3.91977513e-03,
       -8.62464192e-04, 3.80369253e-03, 2.43866211e-03, -1.48294913e-03,
       -6.17874903e-05, -6.27640216e-03, -1.54664530e-03,
       -8.04207381e-03, -3.24240583e-03, -2.31180195e-04, 1.71993743e-03,
       1.16829807e-03, -3.26825946e-04, -3.48897837e-03, -7.31652044e-03,
       -4.29718429e-03, -8.25700909e-03, -4.79401276e-03, 7.57390808e-04,
       -7.23344041e-04, 1.25881238e-03, 1.63592849e-05, -6.77771075e-03,
       -5.42676449e-03, -2.05503590e-03, -6.06912188e-03,
       -5.11966739e-03, 1.93585362e-03, 3.30120139e-03, 2.68241903e-03,
       1.83303969e-03, -1.13602809e-03, -7.07326876e-03, 1.39782391e-03,
       -7.49772508e-03, -3.17284092e-03, -2.25180457e-03, 8.88241804e-04,
       3.31905694e-03, 1.98181090e-03, -3.50292400e-03, -5.04066609e-03,
       -4.04487271e-03, -9.31858364e-03, -7.08938064e-03,
       -1.30611903e-03, 3.70217208e-03, -4.34045796e-04, -2.59068911e-03,
       -8.41934606e-03, -5.40177198e-03, -2.68367236e-03,
       -6.56918157e-03, -2.35448522e-03, 2.43044109e-03, 4.07324312e-03,
       1.58423104e-03, -2.00578943e-03, -8.56196880e-03, -6.18083868e-03,
       -5.98098291e-03, -5.67165297e-03, -2.61181756e-03, 1.64682220e-03,
       5.84882963e-03, 1.21082820e-03, -6.63133978e-04, -7.34742684e-03,
       -6.86164573e-03, -2.41411943e-03, -6.85156323e-03,
       -4.02808329e-03, -3.11462325e-04, 2.11402331e-03, 4.69181873e-03,
       -1.18080468e-03, -8.84915516e-03, -9.03168693e-03,
       -6.51853485e-03, -6.32316479e-03, -3.35669564e-03,
       -3.33721400e-03, 6.17761025e-03, 2.41452176e-03, -3.53192008e-05,
       -6.31167507e-03, -6.22674543e-03, -8.58804677e-03,
       -4.13026568e-03, 4.84558041e-05, 3.48992040e-03, 2.71111215e-03,
       6.58236863e-03, 2.59675406e-04, -5.35917468e-03, -7.66851241e-03,
       -1.41259795e-02, -1.06234448e-02, -3.52663640e-03, 3.37344216e-04,
       4.18447005e-03, 6.97431504e-04, -9.30116003e-05, -6.38855807e-03,
       -1.02820797e-02, -2.43696896e-03, -7.20846606e-03,
       -3.75151378e-03, -1.74783345e-03, 4.45563695e-04, 8.80222395e-03,
       5.96246822e-03, -1.56923255e-03, -7.52051082e-03, -8.12964793e-03,
       -8.87072552e-03, -4.54638060e-03, -1.41032517e-03, 4.25169943e-03,
       4.71587339e-03, -3.63602681e-04, -4.30434244e-03, -7.17175519e-03,
       -1.30459433e-02, -8.28329846e-03, -1.90059352e-03,
       -3.37153790e-04, 1.70367211e-03, 4.07981034e-03, -1.31512922e-03,
       -6.75300462e-03, -1.04276901e-02, -5.63293183e-03,
       -8.04352015e-03, -2.07396899e-03, -2.46775849e-03, 1.41035463e-03,
       4.50056931e-03, 3.59203154e-03, -3.09002632e-03, -8.53940006e-03,
       -6.14804169e-03, -8.19733180e-03, -1.93859858e-03, 2.30022953e-04,
       4.80439514e-03, 4.90577146e-03, -1.86201429e-03, -8.33866838e-03,
       -1.12209478e-02, -2.98612216e-03, -8.49850196e-03,
       -2.30738684e-03, -3.90809728e-03, 7.44225411e-03, 3.43257957e-03,
       1.75879721e-03, -3.44002340e-03, -8.05563573e-03, -4.30478156e-03,
       -6.13212679e-03, 1.18190993e-03, 2.16634269e-03, -1.04649900e-03,
       -1.09003508e-03, 5.99351712e-03, 8.88244540e-04, -6.15384290e-03,
       -9.20427125e-03, -7.75078591e-03, -1.76893163e-03, 1.63954962e-03,
       -4.60519316e-03, 4.40953439e-03, -2.54207221e-03, -4.97694826e-03,
       -8.88383761e-03, -1.50817772e-03, -6.47076173e-03, 1.45946990e-03,
       -2.44757463e-03, 4.25511785e-03, 4.00929525e-03, -7.04095059e-04,
       -3.93283600e-03, -8.49320833e-03, -6.45361980e-03,
       -4.78521781e-03, 4.04841005e-04, 3.53332172e-04, 1.46825379e-03,
       -2.67370092e-03, 3.26978206e-03, 3.52520822e-03, -2.90303747e-03,
       -4.81199753e-03, -5.33837825e-03, -1.03838183e-03, 1.77148217e-03,
       -5.84299350e-03, -1.13384135e-03, -8.83389614e-04, 7.93033221e-04,
       -2.94615817e-03, -2.72309029e-04, -5.61249582e-03,
       -1.64960558e-03, 7.24366109e-04, -3.34995519e-03, -2.68420158e-03,
       -1.68722088e-03, -2.62004789e-03, -6.19043317e-03,
       -2.84850225e-03, -1.14269496e-03, 7.32757035e-04, 1.28728000e-03,
       -1.65207626e-03, 1.14746124e-03, -7.67927035e-04, 7.54027045e-04,
       -4.54151724e-03, 5.91810793e-03, -4.46783332e-03, -3.10013583e-03,
       -1.94075808e-03, 1.74806139e-03, -7.71011051e-04, -1.46751571e-03,
       -1.68466545e-03, -6.61631394e-03, -5.16993739e-03,
       -7.45291077e-03, -3.09157139e-03, -7.29171952e-05,
       -2.11952906e-03, 5.97026711e-03, -6.86483108e-04, -2.25216313e-03,
       -9.79811326e-03, -2.83692731e-03, -5.52301668e-03,
       -1.16332259e-03, -2.62744771e-03, 3.18075111e-03, -1.60184992e-03,
       -1.97250443e-03, -1.87552418e-03, -5.88031206e-03, 3.00242426e-03,
       -3.29058687e-03, -1.08903146e-03, -3.05829744e-04,
       -1.95321132e-04, 6.72777416e-03, 1.35241041e-03, 1.83768151e-03,
       -5.76361362e-03, -7.93544692e-04, -4.49568359e-03,
       -2.34034006e-03, -2.75614206e-03, 4.34025144e-03, 2.93347519e-03,
       -1.48490851e-03, -1.81502348e-03, -9.43669304e-03,
       -2.15891120e-03, -2.96182814e-03, 5.44385344e-04, -2.80249002e-03,
       1.52789743e-03, 1.11051509e-03, -3.02595377e-04, -1.22819189e-03,
       -7.92741776e-03, -2.58671562e-03, -4.40444984e-03, 7.16239680e-04,
       7.19415024e-04, 4.75263922e-03, 2.47074082e-03, 4.21255681e-04,
       1.44214416e-03, -6.75124116e-03, -1.97658734e-03, -6.13734871e-03,
       -2.58885464e-03, -2.94113345e-03, 3.84520809e-03, -1.24298545e-04,
       1.57030881e-03, -6.55938056e-04, -7.52359256e-03, -6.47112774e-03,
       -5.45387715e-03, -2.85250437e-03, -2.77673389e-04, 5.00267779e-04,
       1.81891094e-03, 2.19275756e-03, -6.30359398e-04, -6.04257267e-03,
       -3.99319082e-03, -4.89638234e-03, -5.73907048e-04, 2.70457705e-03,
       7.47601548e-03, -9.26377019e-04, 6.54723844e-04, -2.33410695e-03,
       -9.32343118e-03, -1.45953312e-03, -7.52263516e-03,
       -3.02827073e-04, 2.95364344e-03, 4.13606921e-03, 7.23940553e-04,
       -1.14773262e-04, -2.73353956e-03, -7.93540943e-03, 1.29147596e-03,
       -2.96153640e-03, -6.91934401e-05, 2.48475512e-03, 4.26011533e-03,
       2.43282225e-03, -2.10511545e-03, -4.61254781e-03, -1.18236756e-02,
       -2.06235773e-03, -6.58508670e-03, -2.49569863e-03, 1.85510391e-04,
       1.31105876e-03, -6.39736478e-04, 2.16671498e-03, -9.67804575e-04,
       -7.30664982e-03, -5.87597396e-03, -6.91350410e-03,
       -3.02090519e-03, 1.21760555e-03, 1.87317794e-03, 8.60840781e-04,
       5.26982499e-03, 8.63864960e-04, -8.67643766e-03, -1.35199039e-03,
       -7.41034653e-03, -3.78432707e-03, 4.58307215e-04, -1.96432369e-03,
       1.12345326e-04, -2.13775039e-03, -5.03728725e-03, -9.31685325e-03,
       1.29260309e-03, -3.70475021e-03, -1.08777883e-03, 2.75586103e-03,
       8.11858859e-04, 1.28968409e-03, 4.91891115e-04, -5.85601013e-03,
       -7.74732139e-03, -2.49653030e-03, -6.46063173e-03,
       -1.95855647e-03, -4.53636079e-04, -1.74481794e-03, 9.49936919e-04,
       4.39759530e-03, -9.42760526e-05, -6.73036510e-03, -3.75404651e-03,
       -5.79033187e-03, 1.73601657e-04, 1.73377118e-03, -3.31820827e-03,
       -8.49510485e-04, 1.47330004e-03, -2.33224174e-03, -5.41337486e-03,
       1.88380922e-03, -3.30371736e-03, 6.07070178e-05, -1.66107155e-03,
       -3.57586844e-03, 2.49998411e-03, 4.72702552e-03, -1.20454715e-04,
       -3.50492238e-03, -2.65091821e-03, -6.61253510e-03, 7.96065375e-04,
       1.51941064e-03, -2.30844738e-03, -2.58273765e-04, 3.26702232e-03,
       1.56251644e-03, -6.17630035e-03, -3.35827051e-03, -5.72666759e-03,
       -6.19520957e-04, -2.02777679e-03, -3.62932775e-03, 6.53817493e-04,
       -8.87785922e-04, -3.84747912e-03, -5.01612062e-03,
       -3.43657401e-03, -6.04130561e-04, 2.78633577e-03, -1.44085998e-03,
       -1.82181946e-03, 1.80652982e-03, -8.43203510e-04, -1.79601554e-03,
       -5.90348523e-03, -7.17619108e-03, -4.77977283e-03, 1.38252508e-03,
       -4.70906310e-03, -3.54389590e-03, 1.17148797e-03, 1.78573036e-03,
       1.81495340e-03, -7.81044224e-03, -5.39065572e-03, -2.38918210e-03,
       2.74913968e-03, -1.26337819e-03, -2.30167760e-03, 4.10059281e-03,
       1.49759173e-03, 5.58739179e-04, -1.99178210e-03, -5.36981272e-03,
       -4.43268893e-03, 3.44376575e-04, -5.13297645e-03, -1.52390581e-04,
       -1.07559771e-03, -4.44175093e-04, -2.37970822e-03,
       -7.29847886e-03, -1.42599018e-02, -5.52014774e-03,
       -3.13879049e-04, -4.50208783e-03, -5.26794745e-03, 1.09850557e-03,
       -1.62755675e-03, -3.57870478e-03, -4.72652679e-03,
       -7.49242771e-03, -6.04628352e-03, -5.35809202e-03,
       -4.78541246e-03, -3.76194343e-03, 1.39946351e-03, 1.56957784e-03,
       -1.02489663e-03, -1.46446354e-03, 1.93607481e-03, -2.44897441e-03,
       -2.95273756e-04, -4.40121349e-03, -1.75641675e-03, 3.42471153e-03,
       9.59336467e-04, -1.37277576e-03, -2.39477516e-03, 2.94785923e-03,
       -8.28858174e-04, -1.21661113e-03, -3.95214185e-03,
       -1.23875448e-03, 2.20768061e-03, -1.45597267e-03, -3.40972724e-03,
       -4.11685603e-03, -8.10270011e-03, -6.74363691e-03,
       -5.68616530e-03, -3.40372301e-03, 2.05553742e-03, 9.07899594e-05,
       -3.27446009e-03, -4.05388791e-03, -7.74204545e-03,
       -8.51552561e-03, -6.84848661e-03, -6.02140324e-03,
       -1.15430076e-03, 2.23274017e-03, 4.40123677e-03, -2.40542548e-04,
       5.37585875e-04, -4.42732731e-03, 6.14346762e-04, -2.27434514e-03,
       -1.16899144e-03, -1.41498458e-03, 2.38363072e-03, 3.86124454e-03,
       -1.31932215e-03, -1.31528883e-03, -5.93969366e-03,
       -2.97872117e-03, -2.21837126e-03, -1.53376395e-03,
       -2.08625407e-03, 3.34774377e-03, -1.73437293e-03, -4.14297869e-03,
       -2.30768113e-03, -6.62728958e-03, -1.02859866e-02,
       -6.15566084e-03, -1.83778128e-03, 1.12384069e-03, 7.32353772e-04,
       4.20275930e-04, -8.55473243e-03, -2.70643015e-03, -5.16229915e-03,
       -1.06055439e-02, -1.16929533e-02, -6.42957119e-03,
       -2.63190805e-03, 5.06880041e-03, 2.59052817e-04, -2.13972875e-03,
       -9.35808930e-04, -3.60953435e-03, -2.65505374e-03,
       -9.24874505e-04, 3.09411669e-03, 3.51001252e-03, 4.84858220e-03,
       4.12768172e-03, -4.81328694e-03, -6.71278904e-05, -1.27492985e-03,
       -2.49108853e-04, -5.28819533e-03, -1.51059602e-03, 1.96975167e-03,
       5.97638590e-03, 1.97088183e-03, -2.83250632e-03, -1.27006861e-04,
       -5.44641446e-03, -1.06720896e-02, -8.72557890e-03,
       -5.82578359e-03, -3.86866345e-03, 4.64659650e-03, -1.04465359e-03,
       -6.66591164e-04, 2.43040384e-03, -4.94800927e-03, -8.65916722e-03,
       -1.27184354e-02, -8.56063515e-03, -7.65413325e-03,
       -2.28212052e-03, 4.82337922e-03, -1.42821867e-03, 2.19147070e-03,
       1.34698651e-03, 1.31425296e-03, -3.70716327e-03, -4.05556901e-04,
       2.46691238e-03, 5.72948344e-03, 3.16967885e-03, 1.55554723e-03,
       4.64404700e-03, 1.37882098e-03, 2.13584350e-03, -7.19006686e-03,
       -7.02360040e-03, -3.92064732e-03, 1.41339388e-03, -1.94255449e-03,
       -8.47516232e-04, 1.52119575e-03, -3.32042063e-03, -7.06201140e-03,
       -7.73006538e-03, -5.84946852e-03, -5.42968139e-03,
       -2.98728910e-03, 4.10411041e-03, 1.47935329e-03, -7.24013953e-04,
       -4.24538832e-03, -5.50894113e-03, -5.41604171e-03,
       -2.62585771e-03, -3.30684031e-03, 7.34868983e-04, -5.33346785e-04,
       1.16937014e-03, 1.74048799e-03, -5.54724538e-04, 5.98759623e-04,
       -4.00097249e-03, -3.80339497e-03, -2.58335611e-03,
       -1.51437894e-03, 4.30166395e-03, 5.10129007e-03, -2.82000261e-03,
       -2.77098175e-03, -5.65081253e-04, 2.84588954e-04, -1.21537363e-04,
       -2.86411396e-05, 2.14109523e-03, 3.74044478e-03, 1.51787733e-03,
       -2.39553815e-03, -5.06217778e-03, -5.69839636e-03,
       -4.95509477e-03, -8.38786305e-04, -2.08669296e-03, 1.04506442e-03,
       1.02581724e-03, 1.01121934e-03, -9.79239936e-04, -1.86666450e-03,
       2.85508437e-03, -6.40786311e-04, -1.19783240e-03, -3.52648553e-03,
       -1.83219917e-03, -1.18154415e-03, 1.39197893e-03, -4.77099419e-03,
       -3.58132250e-03, 1.08312326e-03, 2.28881580e-03, 8.44371389e-04,
       2.29401095e-03, -1.53143250e-03, -1.68268755e-03, -3.16841993e-03,
       -1.25522853e-03, -2.70355889e-03, 8.77384300e-05, 1.83701993e-03,
       7.27741630e-04, 7.16646764e-06, -5.87845629e-04, 1.54625834e-03,
       -1.31003291e-03, -3.82208824e-03, -4.23970306e-03,
       -1.87594362e-03, -9.62884369e-05, -1.19297428e-03,
       -3.70030012e-03, -2.64875148e-03, 4.51236870e-03, -2.40736804e-03,
       -2.80689984e-03, -1.82348781e-03, -3.14489566e-03,
       -2.20150314e-03, -8.45302828e-04, -1.62394659e-04, 1.36473752e-03,
       -3.28732817e-03, -4.70266631e-03, -1.23113685e-03,
       -3.19284433e-03, -2.83139525e-04, 1.11059612e-03, 1.29935076e-03,
       1.08193292e-03, -1.89094665e-03, -2.07199875e-04, -5.37156919e-03,
       -5.48341917e-03, -5.46899624e-03, -4.47833259e-03,
       -2.63929483e-03, 5.19351925e-05, -1.18621928e-03, -3.60408588e-03,
       4.30568180e-04, 2.25473923e-04, 1.58692559e-03, 8.08578043e-04,
       -4.86271922e-03, 1.26785168e-03, 3.09596828e-04, -1.70258037e-03,
       -1.93448144e-03, -1.28056307e-03, 5.96392201e-04, 4.04606760e-03,
       4.50862251e-04, 3.65910935e-03, -1.18597655e-03, -4.47381055e-03,
       -7.15833204e-03, -7.37890694e-03, 9.68241889e-04, -1.02858630e-03,
       3.94224597e-04, -1.96664332e-04, -2.77199387e-03, -1.91718762e-04,
       -6.35821722e-04, -3.81272053e-03, -6.70835236e-03,
       -2.62435386e-03, -1.01106917e-03, -5.96958969e-04,
       -3.43803479e-03, -3.00988392e-03, -2.64533050e-03,
       -7.26373587e-03, -6.54683169e-03, -6.23554783e-03,
       -2.62175909e-05, 2.68001715e-03, 3.06875841e-03, 1.42855162e-03,
       3.92202754e-03, -7.70453713e-04, -4.11536265e-03, -8.90833233e-03,
       -6.06956193e-03, 2.94309226e-03, 7.42979348e-04, -3.44666443e-03,
       -1.17427262e-03, 7.70879968e-04, -2.14643124e-03, -1.29370054e-03,
       -4.28972254e-03, -1.01356964e-04, -1.78040506e-03, 6.48979505e-04,
       1.34679198e-03, 3.57798417e-04, -6.47998997e-04, -4.61847783e-04,
       -9.17185622e-04, -2.06879247e-03, -5.65233966e-03,
       -5.36267180e-04, -1.87115220e-03, -4.07801103e-03,
       -2.97420449e-03, -6.75237912e-04, -2.42437911e-03,
       -7.93826242e-04, -1.23930129e-03, -4.00641374e-03, 3.70165362e-04,
       -1.31694344e-03, -2.54364079e-03, -3.36923101e-03,
       -3.92823108e-03, -1.37933332e-03, 7.09364773e-04, 2.87151616e-03,
       8.58727202e-04, -1.18849950e-03, -1.64295093e-03, -2.82594399e-03,
       -3.33006820e-03, 8.69610172e-04, 1.08554366e-03, 2.39407201e-03,
       2.87537230e-03, -1.51982576e-05, -3.88813950e-03, -3.46228457e-03,
       -1.85654906e-03, -2.62319809e-03, -2.22941325e-03,
       -8.74050078e-04, 7.17456511e-04, 2.28883210e-03, -5.43155987e-03,
       -2.61542341e-03, -2.55978573e-03, 1.64227188e-03, -3.14802211e-03,
       5.45162009e-03, 8.03058501e-04, 1.56087882e-03, 2.82927323e-03,
       -2.25454569e-03, -1.93370623e-03, -1.94029626e-03,
       -4.27277526e-03, -2.37840228e-03, -1.75195746e-03,
       -2.15992727e-03, -4.48536128e-04, 3.58504127e-04, -8.10092664e-04,
       4.95966757e-04, 3.16192687e-04, -4.90333186e-04, 1.26259495e-03,
       5.24737930e-04, -3.69491032e-03, -2.79160286e-03, -2.65706843e-03,
       -1.10193714e-03, -6.20137388e-03, -1.69917080e-03,
       -2.14108755e-03, -2.81621772e-03, 1.49892294e-03, -2.64407182e-03,
       1.01764884e-03, -3.24071269e-04, -4.88213589e-03, -6.07186696e-03,
       2.10255338e-03, 1.39797549e-03, 8.80392559e-04, 6.82375673e-03,
       -1.48235832e-03, 2.87921447e-03, -1.02190243e-03, -6.92297937e-03,
       1.48136576e-04, 2.76354747e-03, 3.16457730e-03, 2.82348745e-04,
       -1.22132071e-03, -2.17431597e-03, -2.15517334e-03,
       -2.16615247e-03, -1.43469777e-03, 5.60439425e-03, 1.35310681e-03,
       8.48975440e-04, -4.03645355e-03, 8.17102438e-04, -6.74421107e-03,
       -2.75859749e-03, 1.76440644e-05, 4.64136200e-03, -5.50284376e-03,
       1.12462637e-03, -1.17754005e-03, -2.96499202e-05, 2.95970868e-03,
       5.68021846e-04, -5.54061320e-04, -2.91941338e-03, -8.05386901e-03,
       4.86342266e-04, -1.55884575e-03, -3.41693842e-04, -3.01368255e-03,
       2.79190158e-03, -7.64736300e-03, -2.88026012e-03, -7.80570554e-04,
       -1.13872811e-03, 3.30153271e-03, 4.06553881e-04, -1.07838144e-03,
       -2.62639765e-03, -6.67409506e-04, -6.17073011e-03,
       -2.47868709e-03, 1.21824571e-03, 4.82085487e-03, 3.95765994e-03,
       -1.40069763e-03, 1.12738155e-04, -4.51779319e-03, 6.95144013e-03,
       -2.47237901e-03, 8.86341848e-04, 3.02277994e-03, 4.32584621e-03,
       -1.41898904e-03, -7.42171775e-04, -1.66054597e-05,
       -4.46982449e-03, -3.32092354e-03, -6.17212057e-03,
       -5.17255568e-04, 6.10501331e-04, -1.77429570e-03, 4.06012463e-04,
       -1.56133866e-03, -2.33825250e-03, -8.06326233e-03,
       -1.36295345e-03, -4.13443864e-04, 3.17442697e-03, 3.33095621e-03,
       -5.77158004e-04, 3.25226132e-03, 3.06892232e-03, 6.14155177e-03,
       -2.36761593e-03, 4.98031173e-03, -1.09615549e-03, 8.78177816e-04,
       3.59259499e-03, 2.92819948e-03, 6.35967823e-03, 6.28469419e-03,
       3.80198006e-03, -2.97855609e-03, 2.07508262e-03, -4.80721937e-03,
       1.25639979e-03, 5.16545260e-03, 4.60432330e-03, -1.48852647e-03,
       6.21956307e-04, 2.98268325e-03, -4.48984979e-03, 2.94652273e-04,
       -2.32228730e-03, 3.60535551e-03, 3.71232629e-03, -1.64160889e-03,
       1.01701228e-03, 3.58910323e-03, 2.30992143e-03, -3.18701426e-03,
       -3.32428794e-03, -5.56527497e-03, 5.34171518e-03, 5.37859043e-03,
       4.62041190e-03, 3.34979873e-03, 4.30132682e-03, -1.51406019e-03,
       -2.72407453e-03, 3.06310086e-03, -3.69647541e-03, 1.81917264e-03,
       3.86280660e-03, 3.45030986e-03, 2.63437419e-03, -1.74614240e-03,
       -4.91056545e-03, -4.03284701e-03, 9.07959044e-03, -5.45488298e-03,
       -1.42694975e-03, 4.78889048e-03, 6.35427563e-03, 2.55052978e-03,
       2.63992371e-03, -4.31367662e-05, -1.05242187e-03, -3.85217089e-03,
       -2.88081309e-03, 3.70457559e-03, 3.10807745e-03, 5.87492157e-03,
       5.13687590e-03, 3.46108340e-04, -1.27766794e-03, -6.98442163e-04,
       2.51426798e-04, -4.16969368e-03, 3.97739932e-03, 2.25619623e-03,
       5.53478859e-03, 3.65240569e-03, 1.37860293e-03, 6.69130962e-03,
       5.20439912e-03, 4.20138612e-03, -6.70788111e-03, -6.38118014e-03,
       -7.60223018e-03, -1.15093135e-03, 1.90970211e-04, 4.66247322e-04,
       8.06911010e-03, 2.17316113e-03, 9.51279129e-04, -8.15699808e-03,
       -4.59761731e-03, -5.95515734e-03, -1.52484677e-03,
       -2.08615325e-03, -3.94802121e-03, 6.01835828e-03, 7.65235303e-03,
       1.02870446e-02, -8.44551064e-03, -9.73783899e-03, -8.76105018e-03,
       -4.99108806e-03, -4.34439210e-03, -1.98647566e-03, 4.43454087e-03,
       4.88998136e-03, 4.95416019e-03, -9.86442342e-03, -1.10020889e-02,
       -7.83052016e-03, -4.81235888e-03, -2.39504082e-03, 9.50550544e-04,
       7.52975838e-03, 1.94876769e-03, -1.94503489e-04, -3.21099977e-03,
       -1.94465648e-03, -3.16614099e-03, -8.28699383e-04,
       -4.96891094e-03, 1.92701162e-04, 3.85133573e-03, 3.87150030e-05,
       -2.51366931e-04, -5.87229757e-03, -2.55755754e-03,
       -3.37188551e-03, -1.64920336e-03, -8.63328762e-03,
       -2.76418054e-03, 3.47370678e-03, 2.56438181e-03, 2.11616769e-03,
       -6.29778812e-03, -5.60085615e-03, -4.42585442e-03,
       -7.75735639e-03, -7.84870517e-03, 3.10330233e-03, 7.87496101e-03,
       1.66205491e-03, -2.19582883e-03, -7.92880822e-03, -1.94685848e-03,
       -3.35345976e-03, -7.46716885e-03, -6.04624813e-03,
       -1.53390202e-03, 7.60353694e-04, -1.51624659e-03, -2.01887917e-03,
       -6.94116531e-03, -2.40118476e-03, -2.29409197e-03,
       -3.75812664e-03, -3.09969462e-03, 1.73340819e-03, 1.07065414e-03,
       -4.51877335e-04, -6.10919320e-04, -7.10384129e-03,
       -6.07010676e-03, -2.32598791e-03, -4.10627201e-03,
       -7.10656866e-03, -2.22142931e-04, 2.95250607e-03, -1.02405786e-03,
       -1.79429445e-03, -9.18988604e-03, -3.16709932e-03,
       -3.27137136e-03, -5.82735240e-03, -1.67560193e-03, 1.47361925e-03,
       1.52878417e-03, 1.40014640e-03, -9.05864290e-04, -6.26757275e-03,
       -3.51772597e-03, -1.11642806e-03, -3.46495444e-03,
       -2.75029219e-03, 1.70023600e-03, 1.46478953e-04, -1.43043150e-03,
       5.58732357e-03, -8.04101676e-03, -5.37600182e-03, -1.58292963e-03,
       -3.33349966e-03, -3.88917211e-03, -2.11430853e-03,
       -3.34964413e-03, -2.24170601e-03, 2.48651253e-04, -1.10528609e-02,
       -5.75661846e-03, -1.42806617e-03, -2.53303675e-03,
       -5.01727127e-03, -1.20130403e-03, -2.34313728e-03,
       -4.01828001e-04, 6.28370047e-03, -6.89818524e-03, -4.58274409e-03,
       -1.48559432e-03, -4.64177784e-03, -5.76311536e-03,
       -4.14216192e-03, -4.76517016e-03, -1.63248228e-03, 3.35859042e-03,
       -6.95800642e-03, -5.28062694e-03, -8.27537267e-04,
       -4.19976143e-03, -2.07156688e-03, -2.09429720e-03, 6.07067836e-04,
       -8.88144714e-05, -3.24856897e-04, -5.28199691e-03,
       -2.66620819e-03, -5.65457507e-04, -1.72199984e-03, 1.85046077e-03,
       -9.66595777e-04, -7.23443518e-04, -4.19020827e-04,
       -4.17248392e-03, -6.15336420e-03, -5.15435822e-03,
       -2.50770780e-03, 4.08464856e-03, -3.53493425e-03, -4.10907529e-03,
       -4.39097080e-03, -3.84490774e-03, -6.49849128e-04,
       -4.95369313e-03, -4.40919772e-03, -1.01308478e-03,
       -3.15904152e-03, 5.47337986e-04, -4.43182467e-03, 5.30286867e-04,
       -1.14944810e-03, -9.09963250e-03, -6.01506047e-03,
       -5.44085493e-03, -3.93254030e-03, 1.60494063e-03, 4.21092194e-03,
       7.81167764e-05, 2.95877166e-04, 1.55715170e-04, -6.83940854e-03,
       -6.72003580e-03, -3.72105674e-03, -1.87754782e-03, 4.50492464e-03,
       5.66122448e-03, 3.54866730e-04, -4.18249285e-03, -4.36407654e-03,
       -3.82212270e-03, -7.06200255e-03, -3.30899353e-03,
       -3.45097203e-03, 3.45800701e-03, -3.42671810e-05, -2.52679293e-03,
       3.08734132e-03, 5.64389746e-04, -5.51662222e-03, -6.01428701e-03,
       -3.26569052e-03, -2.86391750e-03, 1.47967041e-03, 1.48016296e-03,
       1.03140587e-03, 6.74304436e-04, -1.13417125e-04, 1.00621743e-04,
       -6.02190942e-03, -4.35555214e-03, -5.40691148e-03,
       -1.04043291e-04, 4.11187625e-03, -5.65973809e-04, -3.77867697e-03,
       -3.12377955e-03, -2.17980659e-03, -6.35196175e-03,
       -5.65652316e-03, -3.13183409e-03, 3.73880938e-03, 2.05855072e-03,
       -1.17274921e-03, -3.69050354e-03, -2.05547246e-03,
       -6.38247002e-04, -7.93620199e-03, -9.96216293e-03,
       -4.21321904e-03, 1.51073537e-03, 5.62111335e-03, 4.32778179e-04,
       -1.86543597e-03, -3.47947149e-04, 4.11949353e-03, -6.26767473e-03,
       -6.52187597e-03, -5.91718918e-03, 1.36597827e-03, 1.68228219e-03,
       7.32360466e-04, -2.77299853e-03, -1.79380877e-03, -2.55114795e-03,
       -6.81946939e-03, -1.04961973e-02, -3.72284837e-03,
       -1.29507342e-03, 3.33789154e-04, -3.05548921e-04, -2.82364641e-03,
       -2.37323157e-03, 3.51189077e-03, -3.29078175e-03, -4.90218028e-03,
       -8.02283292e-04, 1.12797960e-03, -3.25940928e-04, -2.14857003e-03,
       -4.15575178e-03, -2.58251582e-03, 1.12739056e-02, -1.43888744e-03,
       2.01220135e-03, 2.69562565e-03, 2.85767321e-03, 2.30383524e-03,
       2.43999966e-04, -3.02565703e-03, -6.41289959e-03, -6.57683564e-03,
       -4.17614309e-03, -4.40326054e-03, -9.13427866e-05, 1.60707990e-04,
       -9.62769205e-04, -1.32501355e-05, -2.38187867e-03,
       -5.98304067e-03, -1.34606007e-03, -4.84042661e-03,
       -1.10604125e-03, 1.38964108e-03, 1.56320236e-03, -2.85990769e-03,
       -1.81335607e-03, -1.32872467e-03, -1.37884635e-04, 4.84528067e-03,
       -7.04516075e-04, 3.33932880e-03, 1.86622643e-03, 1.71962427e-04,
       3.69371357e-03, 1.35905796e-03, 1.43412396e-03, -3.02410405e-03,
       -3.33176879e-03, -3.35516222e-03, -7.98548746e-04, 9.68399632e-04,
       2.29150476e-03, -3.44976480e-03, -2.91882985e-04, -1.53305021e-03,
       -4.01777076e-03, 1.92860013e-03, -4.28252714e-03, -1.55556703e-03,
       2.08266219e-03, -2.94120287e-06, 3.01010994e-04, 2.29317974e-03,
       -1.94617244e-03, -4.24625585e-03, 9.19234939e-03, -5.70453517e-03,
       -4.16691601e-03, -1.51230721e-04, 5.87995164e-05, 4.32972563e-03,
       3.51890572e-03, 3.88958934e-03, -4.76353744e-04, -6.23621559e-03,
       -2.68935971e-03, -2.21390207e-03, 1.34204712e-03, 3.94371711e-03,
       4.91167372e-03, -7.03017926e-04, -1.01688449e-04, -1.10709097e-03,
       -2.06830679e-03, -4.24012262e-03, -2.88357469e-03, 6.92625821e-04,
       5.55216474e-03, -1.56458307e-04, 3.43020726e-03, 2.46111630e-03,
       -2.18752725e-03, 7.45565025e-03, -2.04951200e-03, -2.66465195e-03,
       -2.38834939e-04, -1.21476070e-03, -2.66383984e-04, 2.73147831e-03,
       2.57625617e-03, -9.16430028e-04, 2.80767283e-03, -2.98414053e-03,
       -1.56301004e-03, 3.23569588e-03, -1.45678641e-03, 2.49085505e-03,
       -2.81303399e-03, -4.08444228e-03, -2.24267901e-03, 1.79932662e-03,
       -4.18528123e-03, -2.23360909e-03, 4.24639962e-04, 1.73967157e-03,
       5.70693752e-03, -2.46200245e-04, -1.34473620e-03, -1.80103583e-03,
       2.33647297e-03, -3.54414340e-03, -1.56749226e-03, 9.25853150e-04,
       6.08553411e-03, -8.57457460e-04, -4.19975404e-04, 9.86437430e-04,
       -1.78974506e-03, -2.73353769e-03, -3.79291014e-03, 1.96076464e-04,
       4.49117925e-03, -2.06641410e-03, -4.48479928e-04, 2.50406447e-03,
       4.87428112e-03, -3.81980935e-04, 2.53718090e-03, -2.09653634e-03,
       1.79539857e-04, 4.12813574e-03, 1.42629375e-03, 5.02800429e-03,
       -9.53104172e-05, 3.58667719e-04, -1.70432124e-03, -1.20868068e-03,
       -4.35719499e-03, -2.43150815e-03, -2.74298829e-04, 2.65163416e-03,
       5.94372256e-03, 1.35807623e-03, -1.47098990e-03, -2.12550443e-03,
       -4.71041026e-03, -5.38788736e-03, -2.53456878e-03,
       -1.33755733e-03, 3.62659385e-03, 1.19628210e-03, 2.00816733e-03,
       8.18120665e-04, -5.08471671e-03, 2.65212310e-03, -5.36966231e-03,
       -2.84187845e-03, -5.22180984e-04, 5.85744623e-04, 2.05880147e-03,
       3.15068592e-03, 8.05812539e-04, -2.08783735e-04, 2.93723075e-03,
       -3.70435952e-03, -1.67974364e-03, -5.90784359e-04, 1.61543081e-04,
       4.39533172e-03, 1.84489589e-03, 1.80143770e-03, -1.52732956e-03,
       8.40411463e-04, -5.08722290e-03, -2.32096598e-03, -1.25011848e-03,
       1.38277188e-03, -1.08849013e-03, 2.46222527e-03, 7.00077042e-04,
       -2.75221583e-03, -3.40095093e-03, -7.84173980e-03,
       -7.51396874e-03, -3.42904800e-03, -3.78018920e-03, 7.44963589e-04,
       1.41388795e-03, 2.56688707e-03, 9.02493834e-04, 4.02841391e-03,
       -4.53248387e-03, -2.72191176e-03, 1.04426312e-04, 1.09716435e-03,
       2.72300770e-03, 1.89605358e-04, -5.68838557e-04, -1.22361409e-03,
       -1.84719596e-04, -4.71313065e-03, -4.21694759e-03, 3.66295222e-04,
       2.65507563e-03, 2.59467214e-03, 2.89146602e-03, 9.52261151e-04,
       -2.55748164e-03, -1.62086697e-04, -5.09007182e-03,
       -4.61090356e-03, -6.17386599e-04, 1.86705298e-03, 3.74492933e-03,
       -6.33733696e-04, 1.59256149e-03, -3.49473674e-03, -2.44774926e-03,
       -6.69536879e-03, -1.64863712e-03, 3.77785857e-03, 6.54440047e-03,
       7.17009476e-04, 2.48780288e-03, 3.56459292e-04, -3.40860616e-03,
       -2.91931746e-03, -3.44173028e-03, -2.03804183e-03, 3.04146111e-03,
       2.30001542e-03, 2.05574208e-03, 3.27637210e-03, 2.42792210e-03,
       -3.75275314e-03, 4.36920847e-04, -3.98578169e-03, -1.17901429e-04,
       5.78923197e-03, 5.44832181e-03, 4.49939631e-03, -3.32735246e-03,
       -1.49503094e-03, -3.95383313e-03, -3.85925802e-03,
       -4.56132460e-03, 1.99240982e-03, 3.18598235e-03, 5.72793698e-03,
       4.39856248e-03, -5.25202230e-03, -2.92437384e-03, -2.17813300e-03,
       -2.37586745e-03, -4.44299448e-03, -1.16027135e-03, 3.19261249e-04,
       5.21688722e-03, 9.18457226e-04, 6.37554913e-04, 7.56603898e-04,
       -1.72202743e-03, -2.29413458e-03, -2.72659003e-03, 3.29601113e-03,
       5.15516009e-03, 5.04223770e-03, -1.19423389e-03, -1.39099045e-03,
       -1.70171389e-03, -2.07137689e-03, 2.95424066e-03, -2.18788208e-03,
       1.14844274e-03, 2.19087047e-03, -1.89926432e-04, 3.39822914e-03,
       -1.17266714e-03, -5.98185172e-04, -4.27618448e-04, 8.40435750e-05,
       -2.87716161e-03, -2.50988989e-03, -3.81200196e-04, 2.98000569e-03,
       6.01912325e-04, -2.64001824e-03, -1.19835732e-03, -2.87979073e-03,
       -4.34436882e-03, -2.72733811e-03, -3.12505732e-03,
       -2.19555135e-04, 1.31310511e-03, -5.52249374e-03, 4.04884457e-04,
       -1.15473894e-03, -4.92450257e-04, 5.36778802e-03, -1.40699768e-03,
       -1.19859620e-03, 1.92045525e-03, -3.61174135e-03, -1.77120394e-03,
       -3.27119080e-04, 2.01464072e-03, -1.46007317e-03, 9.13221505e-04,
       -1.64618308e-03, -2.76871258e-03, 2.29492740e-04, -2.00717547e-03,
       -1.63293001e-03, -2.39975424e-03, -3.86861393e-06,
       -1.39938726e-03, 7.72974396e-04, -1.18002051e-03, -1.45548920e-03,
       1.59674068e-03, 4.37413779e-04, 2.11412972e-03, -1.68541353e-03,
       -3.97364929e-04, -6.33031945e-04, -2.92744674e-03, 3.49513401e-04,
       -1.68223411e-03, -5.58776956e-04, 3.47358710e-03, -1.83989026e-03,
       6.05688489e-04, 9.42653627e-04, -3.39918910e-03, 9.64049995e-03,
       1.00456143e-03, 7.35676847e-04, 2.79699964e-03, 9.41809849e-05,
       -1.07826584e-03, -1.56435627e-03, -1.96698215e-03,
       -2.08267127e-03, -5.26240980e-03, 2.41108262e-03, 5.81883127e-04,
       5.86503775e-05, 1.56664033e-03, 8.57300533e-04, 8.03352392e-04,
       7.97347981e-04, -8.52986996e-04, 2.77052750e-03, 1.33434334e-03,
       -5.79622982e-04, -2.44263472e-04, 1.05034781e-03, 1.39407362e-04,
       2.08876468e-03, -1.02650840e-03, -1.84538087e-03, -4.48869774e-03,
       -2.05290131e-03, -5.11364639e-03, -2.62362463e-03,
       -7.93296960e-04, -3.28184944e-03, 1.00743526e-03, -1.12953618e-04,
       5.54581165e-05, -1.23564969e-03, 1.88355532e-03, 7.45948404e-04,
       2.65515805e-03, -1.07605534e-03, 2.95539103e-05, 1.88366370e-03,
       4.49955260e-04, 3.67777713e-04, -1.93055121e-06, -2.82063149e-03,
       -1.85563799e-03, 3.80560011e-03, -1.35337084e-03, 7.06811086e-04,
       6.04651170e-04, -1.09280074e-04, -1.98795693e-03, -2.82744807e-03,
       -4.77488199e-03, -3.23428144e-03, -2.63587851e-03,
       -2.38922588e-03, 2.54356465e-03, -9.68612498e-04, -1.05366205e-04,
       -1.80368952e-03, -2.46986630e-03, -7.30246352e-03,
       -2.97896797e-03, -3.38396011e-03, -3.43156629e-04, 1.35590218e-03,
       4.09070356e-03, 9.79334814e-04, -2.72403588e-03, -3.17742163e-03,
       -4.07172041e-03, -1.23439007e-03, 2.58064712e-03, 1.66874938e-03,
       5.71490079e-03, 3.13127763e-03, 3.11491475e-03, -3.15933395e-03,
       -1.80365157e-03, -5.39136631e-03, -2.49830028e-03,
       -9.97858588e-04, 4.80473600e-03, 7.97295303e-04, 9.98972217e-04,
       3.89617542e-03, -1.42822810e-03, -4.25457535e-03, -4.40408755e-03,
       -2.85814237e-03, -9.56757052e-04, -2.26324541e-03, 1.96293695e-03,
       6.32496085e-04, 2.57061492e-03, -2.81698536e-03, -1.72254140e-03,
       -4.74506989e-03, -1.56922336e-03, -4.01255296e-04,
       -1.19853800e-03, -1.53139059e-04, 1.60031265e-03, 3.97131173e-03,
       -2.66323402e-03, 1.62030326e-03, -2.24361452e-03, 6.24280714e-04,
       1.96157116e-03, 1.60094045e-04, -1.10332493e-03, -3.26068560e-03,
       -2.25132215e-04, -6.53463881e-03, 8.76990799e-03, -4.81233653e-03,
       -1.75606750e-03, 1.62862195e-03, -1.26611150e-03, -1.20723515e-03,
       1.78378308e-03, 1.71590270e-03, -1.74077717e-03, 6.99267839e-04,
       -3.06976051e-03, -1.74067682e-03, -1.14769395e-03,
       -1.85316114e-03, -2.35683657e-03, 2.51199445e-03, 3.66602297e-04,
       -3.42364796e-03, -2.36535701e-03, -6.38515363e-03,
       -5.90700703e-03, -1.59347174e-03, -5.01886010e-04, 1.34776614e-03,
       6.34750060e-04, 5.65547787e-04, -3.81617481e-03, 8.26837867e-03,
       -4.84415423e-03, -2.26769014e-03, 1.79013691e-03, 1.70277909e-03,
       6.46641292e-03, 1.63799326e-03, 2.99022486e-03, -3.13362759e-03,
       2.50381976e-03, -6.33543869e-03, -4.04891837e-03, 1.80052244e-03,
       8.05100519e-03, -4.24851198e-03, -7.93159066e-04, -3.94215574e-03,
       -5.52111631e-03, -2.92381179e-03, -4.27282974e-03,
       -4.11956292e-03, -2.12174864e-03, -2.87278695e-03,
       -3.62306787e-03, 5.62935966e-05, -3.07025039e-03, -5.47245471e-03,
       -4.11551818e-03, -3.10591771e-03, -1.24440924e-03,
       -9.35062533e-04, -2.33031274e-03, 1.65442517e-03, -1.24058023e-03,
       -2.31869388e-04, -6.42920472e-03, -1.15706993e-03,
       -4.73355735e-03, -3.12366756e-03, 1.24445348e-03, 5.44922752e-03,
       3.72035173e-03, -8.67803814e-04, 7.99789210e-04, -5.12474729e-03,
       2.89840798e-04, -5.04211662e-03, -2.55327229e-03, 1.65411900e-03,
       6.32243976e-03, -3.67618492e-03, -1.19309337e-03, -1.13593810e-03,
       -4.67702467e-03, -1.95737206e-03, -4.80672717e-03,
       -1.73655106e-03, 1.31132908e-03, -2.84098089e-03, 1.76637387e-03,
       2.40761437e-03, 1.54198345e-03, -2.77409493e-03, -8.96286161e-04,
       -6.75163791e-03, -3.10853776e-03, 1.61099852e-05, -3.64320760e-04,
       -1.58337725e-03, -2.22402159e-03, -1.14050671e-03,
       -3.51745286e-03, -1.97973382e-03, -4.93557937e-03,
       -1.24848227e-03, 2.97257584e-03, -1.82300369e-04, 2.62295990e-03,
       7.65626493e-04, 2.09689536e-03, -2.29298882e-03, 2.39289668e-03,
       -5.93620026e-03, -9.57081676e-04, 2.19331263e-03, 4.03375691e-03,
       -3.94250965e-04, 4.10042377e-03, -1.25460920e-03, -3.86790023e-03,
       -2.17762962e-03, -3.50718340e-03, 8.78474500e-04, 2.45642336e-03,
       -1.80224633e-05, 5.54100145e-04, -1.95765193e-03, -5.30332141e-03,
       -5.91331441e-03, -2.05118535e-03, -2.39187200e-03, 2.55958573e-03,
       6.81830978e-04, 1.60758290e-03, 5.09767979e-03, 1.63455436e-03,
       1.03493512e-03, -2.01803888e-03, 4.86786384e-03, -1.62703544e-03,
       2.90347473e-03, 4.94422950e-03, 4.01293067e-03, -2.28489493e-03,
       -2.11624568e-03, -2.75532901e-03, -4.90521034e-03, 3.80018679e-03,
       -1.48925919e-03, 1.30815920e-03, 2.65117316e-03, -1.06164662e-03,
       -1.06537924e-03, -2.45066662e-03, -3.52023379e-03,
       -3.98227293e-03, 7.50760955e-04, -8.74211022e-04, 4.45655128e-03,
       3.00680334e-03, -1.66870933e-03, -2.94335245e-04, -1.28262618e-03,
       -3.27977026e-03, -2.51286943e-03, -9.23931831e-04,
       -3.79875244e-04, 4.09219787e-03, 3.14492662e-03, -4.02281468e-04,
       9.91437701e-04, -1.43886788e-03, -4.78541898e-03, -3.07500223e-03,
       8.09153169e-03, -8.67385708e-04, 2.94173323e-03, 6.25321176e-03,
       3.25321732e-03, 4.39942162e-03, -3.03900451e-03, -6.44418364e-03,
       5.21655829e-06, 3.51887220e-03, -1.70441566e-03, 1.72365783e-03,
       2.21116282e-03, 6.59406139e-03, -3.88048706e-03, 3.61256862e-05,
       -2.29582260e-03, -1.74232351e-03, -8.36247578e-04, 2.89529300e-04,
       3.82148707e-03, 1.78938371e-03, -2.35639210e-03, -2.51539983e-03,
       -3.42047679e-05, 5.89705305e-04, -9.39787889e-04, 1.79624898e-04,
       -2.52159708e-03, -1.33967598e-03, -8.35876504e-04,
       -1.69681339e-03, 2.31801206e-03, -2.25338247e-03, -4.26739501e-03,
       3.24871275e-04, 4.16313577e-03, -9.90685585e-05, 2.80535105e-03,
       -3.27409944e-05, 5.80931222e-03, 7.25067512e-04, 1.16686267e-03,
       1.30274962e-03, 1.18446292e-03, 5.11252973e-03, -1.35191495e-03,
       1.96473533e-03, 7.46843172e-04, 2.62986845e-03, -2.84933718e-03,
       -4.62578813e-04, 7.59900431e-04, -1.25358056e-03, 3.04257357e-03,
       -4.31484357e-03, -2.54743011e-03, 5.75881626e-04, -2.57290289e-04,
       -1.68138684e-03, 1.75685016e-03, 4.37053898e-03, -1.29826146e-03,
       3.23744782e-04, -3.26042715e-03, -2.36459333e-03, -2.61567091e-03,
       2.00496521e-03, -3.90475756e-03, -2.13754387e-03, 1.34320627e-03,
       -1.54323247e-03, 1.93070434e-03, -6.49492489e-04, 1.34756061e-04,
       1.84467388e-03, 9.89202672e-05, -4.56919894e-03, -2.20311619e-03,
       3.44308838e-03, -1.69378676e-04, 1.26654434e-03, -6.22939144e-04,
       -7.33824272e-04, 1.57976137e-05, 4.37674054e-04, -1.82827213e-03,
       1.49865984e-03, 3.93574219e-03, -2.39446177e-03, -3.92617239e-03,
       -4.45001386e-03, -6.95379917e-04, -2.97246408e-03, 2.65532697e-04,
       -1.61638274e-03, 1.06427027e-03, 8.56464903e-04, -5.28828707e-03,
       -4.86038299e-03, -3.60868708e-03, 4.73762979e-04, 1.48764590e-03,
       5.52874175e-04, -3.96456942e-03, -1.51439477e-03, 3.03064892e-03,
       -1.40556367e-04, 3.30138858e-03, -1.98198250e-03, -8.05153686e-04,
       -1.27833977e-03, -3.00721684e-03, 7.75670807e-04, -1.68713648e-03,
       -1.57827468e-04, -5.64508885e-03, -7.56259076e-04,
       -2.79359007e-03, -2.95168342e-04, -5.61180990e-04, 4.76869376e-04,
       -2.48280447e-03, 2.27694691e-04, -9.31881659e-04, -5.97761059e-03,
       1.63288263e-03, -2.24206108e-03, 5.38203923e-04, 4.76539368e-03,
       1.05634797e-03, 1.30578841e-03, 2.85020587e-03, 4.20232216e-04,
       -7.80597143e-03, -3.01166391e-03, -3.62122455e-03,
       -2.17971252e-03, 1.71994243e-03, 2.13051331e-04, 1.09303545e-03,
       4.79245966e-04, 1.97333470e-03, -3.96188116e-03, 1.85850670e-03,
       2.26623029e-04, -7.14506488e-04, 1.09900034e-03, 1.22875895e-03,
       1.99628109e-03, -1.18182506e-03, 3.84015264e-03, -3.21180094e-03,
       -1.07309793e-03, -2.74389470e-03, -3.00158560e-03,
       -3.15358071e-03, 1.27859123e-04, -7.03139522e-04, 2.04504491e-03,
       -9.45755281e-04, -5.43557946e-03, -1.19119789e-03,
       -8.49387958e-04, 1.12130295e-03, 2.47104024e-03, -1.73303462e-03,
       -8.43641697e-04, 1.41991465e-03, -1.45598361e-03, -3.37028457e-03,
       -3.53978993e-03, -1.98263489e-03, 3.07737081e-03, 6.97154843e-04,
       -4.15356783e-03, -1.76211249e-03, -1.55077563e-04, 8.76539794e-04,
       -2.73764483e-03, 7.23560527e-03, -1.89579697e-03, -1.92215398e-03,
       -3.80407134e-03, -3.79104866e-03, 2.59337807e-03, -4.61171474e-03,
       -1.91256800e-03, -2.22688774e-03, -2.81679700e-03,
       -3.62820388e-03, -1.23330066e-03, -3.11555527e-03,
       -6.73098373e-04, -2.32644100e-03, 4.45833104e-03, 1.02939119e-03,
       -1.35759579e-03, -9.14265960e-03, -2.80397199e-03, 8.91235832e-04,
       8.41863686e-04, -4.63573914e-03, -2.61666323e-03, 2.62127235e-03,
       5.10759512e-03, -2.44310824e-03, -3.09848040e-03, -1.47579750e-03,
       1.69461418e-03, 2.56828149e-03, -4.00404353e-03, -3.73319403e-04,
       -3.53453611e-03, -1.96324848e-03, -8.53495905e-04,
       -3.75605002e-03, -1.66264200e-03, -3.82369180e-05, 2.91554985e-04,
       -2.96176033e-04, 1.76933012e-04, -2.14773841e-04, 2.59764981e-03,
       1.29882933e-03, 8.05900712e-03, 3.33045085e-04, 2.83221062e-03,
       3.52994568e-04, 2.80409912e-03, -3.94704938e-03, 3.08457180e-03,
       4.95594414e-03, -4.08589235e-03, -7.76013453e-03, -1.82892464e-03,
       2.21582060e-03, 2.62446981e-03, -5.72194951e-03, 1.22887583e-03,
       4.37807478e-03, 3.45549476e-03, 6.44845481e-04, -3.70297045e-03,
       -1.66940968e-03, -4.79946000e-04, -1.33302773e-03,
       -5.90341340e-04, 7.75841705e-04, 6.33109186e-04, 2.33090436e-03,
       -9.23888350e-04, 3.82644852e-04, -1.12127884e-04, 4.59807925e-03,
       2.13786936e-03, 4.55635786e-03, 7.11397175e-03, 2.35746571e-04,
       -5.26883348e-04, -1.88461784e-03, -6.29465142e-03,
       -1.20959233e-03, 5.25389158e-04, 2.06824450e-04, 5.73103130e-03,
       -7.65160250e-04, 3.89243709e-03, 2.50826823e-03, 2.12777103e-03,
       -2.88618379e-04, -1.11628833e-04, -5.20706642e-04,
       -6.51514099e-04, -5.17348247e-03, 1.99767994e-03, 2.56945286e-03,
       1.84835074e-03, -2.36744207e-04, 3.21222306e-03, 1.69767765e-03,
       1.08125375e-03, 7.56493071e-04, -1.06158061e-03, 8.10599141e-03,
       -1.08032324e-03, -6.15399855e-04, -3.21115321e-03,
       -6.19423203e-03, -1.20683992e-03, -1.09286164e-03,
       -2.88761279e-04, 5.37530100e-03, 5.41143771e-03, 7.56721594e-04,
       1.77940913e-03, -1.17503898e-03, 3.37049947e-03, -1.46293058e-03,
       -3.00874654e-03, -2.86646537e-03, 3.66275432e-03, -3.37801385e-03,
       1.35838040e-04, 7.36604270e-04, -3.20435059e-03, -2.09341943e-03,
       1.30812492e-04, -4.91105951e-04, 2.81828252e-04, -3.14039015e-03,
       -4.00161278e-03, 3.54017102e-04, 1.37165748e-03, -2.74531124e-03,
       -1.86122768e-03, 9.79166711e-04, 9.83508886e-04, 8.57389896e-05,
       -1.81470823e-03, -2.91299587e-03, -2.39782804e-03, 5.77469880e-04,
       -2.29800842e-03, 5.90063864e-03, -2.95206468e-04, -6.53261784e-04,
       -1.50698272e-03, 3.76022421e-04, -1.21670426e-03, -4.97442065e-03,
       1.45709212e-03, -2.67736590e-03, 1.37211219e-03, 2.60222144e-03,
       -8.56003666e-04, 1.70736434e-03, 3.68848862e-03, -2.22586142e-03,
       5.35073050e-04, 9.57217009e-04, -9.81207122e-04, -2.04220298e-03,
       1.44968857e-03, 4.17770492e-03, 3.54727474e-03, -7.66667596e-04,
       4.26033570e-04, -6.12708624e-04, 7.94934633e-04, -3.57344095e-03,
       -2.82848021e-03, -3.51046957e-03, -8.33205355e-04, 3.25437961e-03,
       1.74613681e-03, -3.83051141e-04, -1.76603592e-03, 4.98340989e-04,
       -1.01996609e-03, -1.39130082e-03, -3.13134042e-05, 1.51547510e-03,
       2.96013895e-03, 5.44575695e-03, 1.47089793e-03, -1.08605367e-03,
       -2.95679783e-04, -3.18207173e-03, -1.17369648e-03,
       -6.79228175e-03, -8.04822484e-04, -8.72274861e-04, 2.40709796e-03,
       -1.74351875e-03, 1.69070481e-04, 4.31141770e-03, 3.14528676e-04,
       -8.18509492e-04, -1.02310313e-03, 1.86931493e-03, 3.57261277e-03,
       -1.82331551e-03, -1.25205773e-03, -5.95861320e-06, 4.44209483e-03,
       1.98057597e-03, 2.53473292e-04, -4.72286576e-03, -2.55198311e-03,
       1.58459728e-03, 4.59505281e-05, -3.95384384e-03, 4.69380524e-04,
       2.31397757e-03, -1.31118891e-03, 1.41373510e-03, -2.84299091e-03,
       1.66616624e-03, -1.66824873e-04, -3.38007626e-03, -1.70105486e-03,
       -4.01945319e-03, 2.49536778e-03, -1.28905941e-03, 2.42410135e-03,
       -5.20764617e-03, -1.90973782e-03, -1.12863851e-03,
       -1.32537470e-03, -2.48329272e-03, 6.91464636e-04, 2.26330990e-03,
       2.24552001e-03, 1.29469775e-03, -4.82151890e-03, -3.57647077e-03,
       9.35660035e-04, 1.11205725e-03, -3.64532170e-04, 5.29329467e-04,
       -1.56965572e-03, -2.77175242e-03, 1.44272647e-03, 8.78869614e-05,
       -9.73798742e-04, 5.44993905e-04, -6.17904647e-04, 5.61959762e-03,
       -1.30597071e-03, 1.90743117e-03, -2.83582532e-03, 2.07355968e-03,
       -6.61560241e-03, -3.29614501e-03, 1.40881876e-03, 5.29117277e-03,
       3.19540966e-03, -1.40947755e-03, -1.14973087e-03, -3.04476451e-03,
       -1.70200234e-04, -5.98410005e-03, -3.81795084e-03,
       -2.63947342e-03, -1.91632996e-03, -6.72534457e-04, 1.07785512e-03,
       -1.72534958e-03, -3.78611940e-03, 3.74462316e-03, 5.03483508e-03,
       1.91208418e-03, 1.95644377e-03, -1.47762487e-03, 3.45615379e-04,
       -1.03948847e-03, -1.24338712e-03, -1.47384172e-03, 1.41749473e-03,
       5.41671785e-03, 3.26990872e-03, 1.52585574e-03, 1.65603543e-03,
       1.86291570e-03, -7.98597699e-04, -2.77805491e-03, -3.18775256e-03,
       -1.91462447e-03, -2.41585495e-03, -3.72752052e-04,
       -9.06484725e-04, 3.32700292e-04, 1.61041750e-03, -1.32909894e-03,
       -2.13536946e-03, -2.53341836e-03, -3.20722372e-03,
       -6.09220762e-04, 4.82719479e-04, 1.04218628e-03, 1.33559026e-03,
       -2.57815025e-03, -5.98838262e-04, 1.62806886e-03, 1.20631361e-03,
       3.49091203e-03, 2.21737102e-03, 3.02653387e-03, 9.53965529e-04,
       -1.28161674e-03, 2.41545160e-04, -7.09914661e-04, -1.15905458e-03,
       1.63600431e-03, 9.79311531e-04, -1.10921031e-03, 6.96650823e-05,
       -5.77089435e-04, -1.65002979e-03, -1.10978121e-03,
       -6.89029170e-04, 4.13960748e-04, 1.93137384e-03, -2.03406950e-03,
       1.96124471e-04, 1.30203599e-03, 1.53735527e-04, -9.71625268e-04,
       -7.85902666e-04, -4.09077061e-03, -3.78567982e-03,
       -2.00054958e-03, -5.11473138e-03, 7.71420368e-04, -2.72018253e-03,
       -4.38300008e-03, 2.46703450e-04, 2.18793238e-03, 1.09438552e-04,
       1.30400364e-03, 4.40943893e-03, -1.72017235e-03, -1.06241403e-03,
       -7.69460166e-04, -1.15085067e-03, -9.91948647e-04, 1.45504076e-03,
       -6.90314395e-04, -1.01623300e-03, 7.66836922e-04, -2.71274312e-03,
       -2.27738987e-03, -1.98281417e-03, 1.44587844e-04, 1.08883064e-03,
       1.99206668e-04, -2.19219644e-03, -3.04152467e-03, 9.47204389e-05,
       -1.60452444e-03, 1.59669179e-03, -1.72716798e-03, -3.56375589e-03,
       5.44429175e-04, -3.63190687e-04, -3.38737364e-03, -2.95300549e-03,
       -3.82629875e-03, 2.01616506e-03, -2.42680125e-03, -2.34150514e-03,
       -3.05869966e-03, -3.02103953e-03, -2.61135097e-03,
       -1.98739883e-03, -2.25217734e-03, -8.44834503e-05,
       -9.55629512e-04, -1.69829861e-03, 9.29639151e-04, 1.58559531e-03,
       -3.39058088e-03, -2.14382820e-03, -1.46814750e-03,
       -4.99253627e-03, -2.47369194e-03, 3.46168969e-03, -2.37911218e-03,
       1.08384225e-03, 1.75533991e-03, -3.64112714e-03, -3.27548222e-03,
       -3.31679359e-03, -3.57612479e-03, -2.01560184e-03, 6.85130525e-03,
       -1.31106144e-03, 6.35553966e-04, 2.10808264e-03, -1.98634202e-03,
       -2.12238356e-03, 7.10566819e-04, -2.65739858e-03, -2.94694514e-03,
       3.31644970e-03, -4.83951299e-03, 2.23823721e-04, 3.51096550e-03,
       -9.75640898e-04, -4.93121427e-03, -1.01257290e-03,
       -3.09610437e-03, -3.78179853e-03, -5.31873293e-03,
       -3.26730870e-03, -4.10720386e-04, 3.24569969e-03, -3.05267377e-03,
       -2.80436920e-03, -5.04403142e-04, -8.65060545e-04,
       -3.45159485e-03, 3.95781768e-04, -2.32881610e-03, -5.68134419e-04,
       3.88647616e-03, -1.98619999e-03, -1.84333557e-03, 4.12495853e-03,
       -6.25362009e-05, -1.81274791e-03, -3.04030254e-03,
       -2.45207362e-03, 3.78061598e-03, 5.79722784e-03, -1.24771311e-03,
       3.27135669e-03, 4.35465621e-03, 6.65678002e-04, -2.59469659e-03,
       -5.58026310e-04, -2.26783147e-03, -3.75883514e-03, 2.03350908e-03,
       2.49882741e-03, -6.00445457e-03, 1.58476050e-03, 6.68678957e-04,
       -1.42089988e-03, -7.47996499e-04, -3.52479657e-03,
       -5.48112788e-04, 9.73410497e-04, -5.91086317e-03, -4.88351332e-03,
       2.97216233e-03, 1.29729230e-03, 8.84786539e-04, -3.22010368e-04,
       -2.48762988e-03, -1.70142273e-03, 1.95349497e-03, -5.51543478e-03,
       8.72592849e-04, 2.88775121e-03, -1.19596953e-03, -4.13624477e-03,
       -2.52316194e-03, -2.67444015e-03, -3.66202043e-03, 1.18342508e-03,
       -1.50884537e-03, 1.19701633e-03, 1.03663758e-03, -4.09658998e-03,
       -6.24458678e-03, 3.84414638e-03, -3.21041234e-03, -4.36462043e-03,
       3.47180967e-03, -1.08645589e-03, -3.18949437e-03, 1.54475460e-03,
       2.54524359e-03, 1.76140014e-03, 2.17308593e-03, -1.52321363e-05,
       -1.20536669e-03, 2.34069908e-03, -4.52370476e-03, -1.85195170e-03,
       -1.57559977e-03, 1.68850366e-03, -2.39100214e-03, 1.31441932e-03,
       -6.09648088e-03, -3.05831875e-03, 2.06647487e-03, -2.76307389e-03,
       -2.87539675e-04, 2.07428518e-03, 2.10856495e-04, -4.16378630e-03,
       9.83068254e-04, -1.83340616e-03, -2.73371721e-03, 1.98750664e-03,
       -1.86947279e-03, -8.86997674e-04, -1.16401038e-03,
       -4.64142184e-04, -3.16946232e-03, 4.61241318e-04, -3.81630054e-03,
       -4.25681565e-03, 3.63534177e-03, -1.74745580e-03, -7.67201243e-04,
       1.09027559e-03, 1.72698579e-03, -2.36651930e-03, -1.40340335e-03,
       -6.26815995e-03, -2.11100257e-03, 2.24646158e-03, -1.08180905e-03,
       -9.89124528e-04, 1.75323500e-03, -9.30943293e-04, -2.87122047e-03,
       3.35912197e-03, -1.89807964e-03, 1.86754129e-04, 2.69611343e-03,
       -1.61150855e-03, 1.42795523e-03, 3.24369728e-04, 3.13068944e-04,
       -1.68244110e-03, 4.84099175e-04, -6.21565618e-03, -3.39400955e-03,
       2.72827409e-03, 1.88441249e-03, 2.73464201e-03, 2.84154201e-03,
       -5.82485693e-04, -1.52420392e-03, -2.78792926e-04,
       -5.66298189e-03, -4.19286406e-03, 4.64093959e-04, 1.93360250e-03,
       -3.91960377e-03, 2.42022594e-04, -1.29356573e-03, -2.34186929e-03,
       3.20318970e-03, -1.48600212e-03, 2.72178510e-03, 6.41071191e-03,
       -1.48253248e-03, 9.51977505e-04, -5.59361943e-04, -3.62925534e-03,
       -2.26552435e-03, 6.98150776e-04, -2.27664388e-03, 6.33617677e-03,
       8.15709401e-03, 6.82172924e-03, -1.27413520e-03, 2.87719071e-03,
       -6.44375745e-04, -1.59933872e-03, 6.24404056e-04, -4.71731555e-03,
       -2.18568370e-03, 2.56578950e-03, -3.82025086e-04, -1.06172182e-03,
       2.88365223e-03, -3.77990189e-03, -4.13719146e-03, 1.39368663e-03,
       -4.82499413e-03, 1.92951562e-03, 7.18568405e-03, 2.68481486e-03,
       2.61325762e-03, 5.73119141e-05, -1.42709829e-03, -3.47131491e-03,
       2.30677892e-03, -1.39642879e-03, 5.47910947e-03, 4.15098853e-03,
       5.79167577e-03, 2.84085819e-03, 8.85855057e-04, -2.83292087e-04,
       -2.24519894e-03, 2.75094272e-03, -1.60249672e-03, 6.09394815e-03,
       3.52638378e-03, 4.53272881e-03, -8.28585820e-04, 9.68699111e-04,
       -4.27736482e-03, -4.83648526e-03, 1.03491626e-03, -4.74155461e-03,
       1.77906803e-03, 5.54175768e-03, 1.40831119e-03, -9.77550808e-05,
       -2.49345391e-03, -4.18424373e-03, -7.11052679e-03, 1.54716347e-03,
       -4.70376201e-03, 3.10059194e-03, 2.58810935e-03, 1.32433639e-03,
       3.30405659e-03, 1.70441798e-03, 6.65572053e-03, 8.40176456e-03,
       5.61731216e-03, -7.95692950e-03, -8.95498879e-03, -7.12126261e-03,
       7.45096710e-04, -1.03854516e-03, 2.93464470e-03, 3.45351803e-03,
       4.81081475e-03, -1.59019517e-04, -1.11242924e-02, -1.13560697e-02,
       -7.14830356e-03, -2.06057681e-03, 1.35462731e-03, 1.59974478e-03,
       7.28894677e-03, 1.03256488e-02, 6.09339261e-03, -9.67850164e-03,
       -9.22887120e-03, -6.93100924e-03, -1.52683165e-03,
       -1.56248023e-03, 6.19719736e-03, 9.90367960e-03, 1.08343363e-02,
       -1.86160079e-03, -1.06003173e-02, -8.35728645e-03,
       -5.28555363e-03, -3.24270339e-03, -4.84289089e-03, 7.91692932e-04,
       8.33494298e-04, 2.56117899e-03, -3.45281645e-04, -8.82000476e-03,
       -8.20359681e-03, -5.66862011e-03, -3.83880315e-03,
       -5.85955195e-03, 4.87763155e-03, 4.83891834e-03, 1.85281748e-03,
       -1.56673323e-03, -9.69325285e-03, -5.78954862e-03,
       -4.77236509e-03, -4.64981981e-03, -3.69968824e-03, 2.61461362e-03,
       4.92589734e-03, 6.21826667e-03, -2.89596361e-03, -9.69652738e-03,
       -8.48201755e-03, -3.79127450e-03, -1.79144565e-03,
       -3.86180147e-03, 1.96266198e-03, 3.90978483e-03, 4.46877768e-03,
       3.10431561e-03, -7.31525850e-03, -6.92855241e-03, -2.00226507e-03,
       -5.59710548e-04, -5.87490620e-03, 2.17976212e-03, 4.08785138e-03,
       -9.43657651e-05, 1.59997807e-03, -9.19487979e-03, -3.28157935e-03,
       -2.90900236e-03, -3.44145857e-03, -8.27032054e-05,
       -2.44057155e-03, 1.02613564e-03, 5.46883268e-04, -3.48676997e-03,
       -8.09206907e-03, -5.41288580e-04, -7.94023974e-04, 9.99910990e-04,
       -5.58342319e-03, -9.71424626e-04, 2.72411876e-03, 5.58018684e-04,
       1.54595077e-03, -8.82846396e-03, -6.51190523e-03, -4.10408899e-03,
       -2.77423649e-03, -1.31926546e-03, -1.91861705e-03, 4.10903478e-03,
       3.00448248e-03, -6.84541836e-03, -8.79351702e-03, -5.19436644e-03,
       -1.59669330e-03, -1.53811023e-04, -1.70346629e-03,
       -4.79597924e-03, -1.24694954e-03, 5.26916410e-04, 3.71246831e-03,
       -4.79691010e-03, 5.66619739e-04, 1.62513650e-04, 1.42230932e-03,
       -5.94719220e-03, -5.33251930e-03, -4.23303200e-03,
       -2.31437734e-03, 1.95171544e-03, -5.35417860e-03, -3.98014300e-03,
       -3.11297859e-04, -2.39743572e-03, -2.27037724e-03,
       -4.13129618e-03, 1.73292309e-03, 7.48178340e-04, -8.93208256e-04,
       -5.72535163e-03, -3.87939997e-03, -3.23762745e-03,
       -5.82183595e-04, -1.92545680e-03, -2.11423635e-03, 4.35802533e-04,
       -9.25054017e-04, 8.55196326e-04, -5.28239645e-03, -2.53962935e-03,
       -1.10269210e-03, 1.51062140e-03, -3.86988954e-03, -4.47789812e-03,
       -1.85544824e-03, -2.44056876e-03, 4.55921842e-03, -3.73972300e-03,
       -2.85832421e-03, -1.36910181e-03, -1.80970179e-03,
       -3.28795286e-03, -6.99619856e-03, 6.40648432e-05, -1.40367553e-03,
       -1.10227345e-02, -4.22501704e-03, -3.67407175e-03,
       -3.57786310e-03, 4.84369928e-04, -3.32271075e-03, -3.42679722e-03,
       -3.36268480e-04, -1.48262165e-03, 4.39281110e-03, -3.54318460e-03,
       -1.82459826e-05, 1.78711815e-03, 1.00607320e-03, 4.21384466e-04,
       3.95551149e-04, 4.64973133e-03, 1.10641681e-03, -2.15142453e-03,
       -3.00246337e-03, -1.97447161e-03, 1.09641615e-03, 3.53667815e-03,
       -2.08786642e-03, -1.69505132e-03, 2.78615835e-03, 1.36590574e-03,
       -5.95155265e-03, -3.31175048e-03, -9.60904639e-04,
       -1.73038931e-03, 1.22002966e-03, 2.43182905e-04, 8.29996658e-04,
       1.27291714e-03, -1.40763598e-03, -5.81622776e-03, -4.45997436e-03,
       -1.26845017e-03, -2.53574853e-03, 1.60903914e-03, 1.36335043e-03,
       1.48021313e-03, 4.62824851e-03, 1.41885830e-03, -2.80816364e-03,
       -2.80559575e-03, -1.27598958e-03, -5.68873365e-04, 2.22509610e-03,
       5.73621085e-03, 4.68557613e-04, 1.59100909e-03, -1.42625498e-03,
       2.82490090e-03, -4.19584475e-03, -3.74608557e-03, -1.63858663e-03,
       5.61892381e-03, 1.25350233e-03, 1.38596678e-03, 6.85588311e-05,
       -1.52951537e-03, -5.28688030e-03, -5.58711216e-03,
       -3.14870547e-03, -1.48300268e-03, 5.38124761e-04, 3.87836527e-03,
       3.84660740e-03, -3.79085483e-04, -1.71994721e-03, -4.17680060e-03,
       -6.29091961e-03, -5.37257548e-03, -9.45457898e-04, 1.25592563e-03,
       4.74457117e-03, 1.01146742e-03, -1.78904342e-03, -1.63248822e-03,
       3.73239419e-03, -6.93711964e-03, -3.63074266e-03, -4.89680038e-04,
       3.77419428e-03, 4.16684896e-03, 3.63471825e-03, -6.75253803e-04,
       8.14663537e-04, 6.67374441e-03, -6.40892237e-03, -1.63044117e-03,
       5.14813990e-04, 8.70501332e-04, 4.83948365e-03, 5.19213080e-03,
       6.90846704e-04, -2.47208076e-03, -6.46345457e-03, -3.41140851e-03,
       -1.33679900e-03, 1.67568063e-03, 2.40776199e-03, 2.73866951e-03,
       2.09576869e-03, -3.24183900e-04, -5.71360392e-03, -5.51604806e-03,
       -5.21230791e-03, -1.96406036e-03, -2.49762379e-04, 1.34473096e-03,
       2.39703862e-04, 2.04521394e-03, 2.40837806e-03, 9.23412212e-04,
       6.81042345e-03, -3.39325448e-03, 3.14619450e-04, 7.21623539e-04,
       -2.77662970e-04, -2.84908968e-03, -3.44394968e-04, 3.42912099e-04,
       -2.16701231e-03, 4.37601795e-03, -2.67340173e-03, -4.06242005e-04,
       -2.50353129e-03, -4.01912956e-03, 1.20612315e-03, 1.58823049e-03,
       -1.02135423e-03, -3.90314823e-03, -1.59367558e-03,
       -2.68542534e-03, -1.33185624e-03, 3.56049975e-04, 1.84817077e-03,
       4.76506399e-03, 3.33255855e-03, -2.89040152e-03, -5.16213197e-03,
       5.00032958e-03, -2.58030486e-03, -1.33464136e-03, -5.37133077e-04,
       2.07360508e-03, 2.43573915e-03, -4.08790633e-03, -2.12685019e-03,
       -1.32904353e-03, -3.70784733e-03, -1.66649907e-03,
       -1.57976116e-03, -1.92488323e-03, 2.07189727e-03, 3.90888704e-03,
       -6.80622587e-04, 2.43480667e-03, 6.19882921e-05, 2.18707792e-04,
       -2.42420635e-03, -2.45309132e-03, 1.29526935e-03, 4.79338365e-03,
       -6.29171729e-04, 3.44302482e-03, -1.23621069e-03, -2.89176567e-03,
       4.25484311e-03, -1.80265924e-03, -2.94647412e-03, -1.53127080e-03,
       -2.77363905e-03, 8.03681614e-05, 1.93728961e-03, 2.23177066e-03,
       -1.81732140e-03, -1.30618352e-03, -1.60931598e-03,
       -3.64447369e-05, 7.64127617e-05, -1.47180795e-03, -1.11617276e-03,
       1.87300937e-03, 8.30408186e-04, -3.86560452e-04, 6.77117752e-03,
       -1.92749035e-03, -2.33603572e-03, -5.02329553e-04, 7.48292514e-05,
       2.67123745e-04, -4.56130225e-03, -3.17931455e-03, 2.71423231e-03,
       6.61689462e-03, 6.41374674e-04, 1.55417563e-03, -4.52627173e-05,
       6.40781771e-04, -2.50702677e-03, -1.17090624e-03, 1.79219001e-03,
       -3.60215735e-03, -1.81682385e-03, -2.14017136e-03, 2.23701951e-04,
       1.29981840e-03, -2.21910025e-03, -2.70894077e-03, 2.59260531e-03,
       5.16928313e-03, -3.86814208e-04, 2.88572046e-03, -2.78069312e-03,
       -7.66195764e-04, 3.46520776e-03, 1.08531422e-04, -2.90847826e-03,
       -3.68556147e-03, -3.87294334e-04, -1.51450187e-03, 1.71343412e-03,
       -2.14333786e-03, -5.84068766e-04, -1.66157004e-03,
       -1.99074228e-03, -2.27394584e-03, 1.65199803e-03, 1.86337309e-03,
       1.45701785e-03, 3.43099656e-03, -7.58757931e-04, 3.46657052e-03,
       4.07365570e-03, -6.31165691e-04, -3.88434302e-04, 3.30896070e-03,
       2.86505511e-03, -4.40415833e-03, -2.55794474e-03, -5.92241157e-03,
       -2.79529300e-03, 8.24105460e-04, -7.08695792e-04, -3.47495405e-03,
       2.30540871e-03, 2.25772196e-03, -2.51739402e-03, -2.29477696e-03,
       -4.06403607e-03, -2.54161819e-03, -8.63900932e-04,
       -3.57764843e-03, -2.33734841e-03, 2.01836484e-03, 1.65872788e-03,
       -1.66483957e-03, 1.40008656e-03, -2.88161798e-03, 2.53137463e-04,
       4.54906328e-03, -1.13228720e-03, -3.78511311e-03, 3.52165336e-03,
       1.35191274e-03, 1.10545277e-03, 7.62904203e-03, -2.00212235e-03,
       -2.60592112e-03, 3.14164418e-03, -4.17660782e-03, -2.28290213e-03,
       2.78444029e-03, 2.70254025e-03, 1.20316260e-03, 2.09754612e-03,
       -4.36915550e-03, -2.03850237e-03, -1.90526160e-04,
       -1.87406538e-03, -3.95583716e-04, -2.82691955e-03,
       -2.13076361e-03, 2.21183655e-04, -4.29130392e-03, -4.66791540e-03,
       -3.49726668e-03, -1.95700536e-03, 3.07712099e-03, -2.91343289e-03,
       1.12031575e-03, -6.86275249e-04, 2.05335626e-03, 3.33569548e-03,
       -4.28688526e-03, -1.91257789e-03, 2.60343845e-03, -3.51203285e-04,
       -4.27427556e-04, 1.03232123e-04, 3.80390586e-04, 5.25287585e-03,
       -4.76582721e-03, -2.50839791e-03, -9.72729409e-04, 1.05846336e-03,
       1.24661764e-03, 1.90774772e-05, -7.90833437e-04, -8.77836952e-04,
       6.13650074e-04, 1.96153429e-04, -9.51346228e-05, 2.03636056e-03,
       3.37458355e-03, 2.83328909e-03, -3.70163843e-03, 4.92717233e-03,
       2.17821239e-03, -2.46566744e-03, -9.29210637e-06, -3.25988769e-03,
       9.29914298e-04, 3.85801075e-03, -4.27775411e-03, -5.19947906e-04,
       9.17272351e-04, 1.63851888e-03, 2.26728711e-03, -3.24705872e-03,
       1.39169546e-03, 2.39076256e-03, 2.58422014e-03, 5.98794490e-04,
       -2.92488001e-03, 4.66106739e-03, 6.17772155e-03, 1.34778838e-03,
       6.04260247e-04, -2.23702448e-03, -4.34262562e-04, 3.28533398e-03,
       -5.57879312e-03, -4.38269926e-03, 2.58511235e-03, 4.17366100e-04,
       -1.96144427e-03, -1.25580479e-03, -2.71511241e-03, 3.81220394e-04,
       1.98157830e-03, -3.65320942e-03, -4.58807778e-03, -2.62589194e-03,
       -5.36372419e-03, -2.42771627e-03, -3.68936628e-04,
       -2.63091829e-03, 5.18374320e-04, 1.14400103e-03, -1.73602451e-03,
       3.51098669e-03, 5.32642892e-03, 4.37856698e-03, -1.12729664e-04,
       4.28522890e-03, -1.94652064e-03, 2.90496420e-04, 2.79652118e-03,
       3.58691672e-04, 5.88144409e-03, 2.45110830e-03, 1.23705351e-04,
       8.73166427e-04, 1.86159066e-03, -2.40955967e-03, 1.49067875e-03,
       2.22337572e-03, 5.23189735e-03, -3.41717154e-03, 3.76286363e-04,
       -3.07482434e-03, -1.45030936e-04, 3.59819620e-04, -3.51947173e-03,
       -1.13676803e-03, 7.64129567e-04, -2.38154572e-03, -1.87078083e-03,
       2.70374818e-04, 3.19383427e-04, -3.64808901e-03, -1.02405676e-04,
       -4.13414510e-03, -4.63981600e-03, -2.80043017e-03,
       -4.09773365e-03, 4.68002213e-03, 3.49467713e-03, 2.98807095e-03,
       3.71345435e-03, 9.30812326e-04, -1.66647963e-03, 1.70423475e-03,
       8.96486978e-04, 5.83844306e-03, 9.31501482e-03, 1.41801534e-03,
       2.11040792e-03, -2.38510082e-03, -3.43470206e-03, -2.69905594e-03,
       -2.27359380e-03, -2.34172656e-03, 9.80987493e-03, -2.79278634e-03,
       3.46312474e-04, -4.35093214e-04, -4.70099365e-03, 4.25542798e-03,
       -7.91136525e-04, 4.06574836e-04, -4.74344095e-04, -2.21708231e-03,
       -1.78655481e-03, -8.23995273e-04, -4.87324269e-03,
       -6.97604800e-03, -7.11573521e-03, 1.26596412e-03, 1.58344643e-04,
       -8.75113357e-04, 5.01923263e-04, 7.60196708e-03, 1.77752774e-03,
       2.74012168e-03, -2.46736384e-03, 3.40330810e-03, -4.43834666e-04,
       1.06249800e-05, -6.53394207e-04, 8.20025802e-03, 1.81353957e-04,
       -3.50882270e-04, 6.99139724e-04, -4.49403329e-03, -4.16482240e-03,
       -5.25905925e-04, -2.67885160e-03, -1.22310128e-03, 1.64078933e-03,
       -3.01624648e-03, -9.69624030e-04, -4.52640606e-03,
       -3.88713228e-03, -3.71447532e-03, 6.67849206e-04, -8.00743059e-04,
       1.17047678e-03, -3.64974898e-04, -2.29560444e-03, -1.95050740e-03,
       -4.45992639e-03, -4.17057332e-03, -1.93826412e-03,
       -1.87278225e-03, -1.24566967e-03, 2.27516936e-03, -7.09695334e-04,
       -1.56194693e-03, 6.95651746e-04, -1.03650393e-03, -4.99035837e-03,
       2.62398575e-03, -1.59418513e-03, -1.44580903e-03, 4.69538441e-04,
       1.13752706e-03, 1.54239673e-03, 1.37287518e-03, -2.41638394e-03,
       -4.11147112e-03, 2.07634550e-03, -9.50305475e-05, 1.66339707e-03,
       2.21242756e-03, 3.19303293e-03, -2.15431210e-03, 8.83904402e-04,
       -9.80555778e-04, -1.90547225e-03, -1.69256027e-03,
       -1.79336010e-03, -1.47584637e-04, 8.04238196e-04, -1.39739783e-03,
       2.73386948e-03, 2.24933797e-03, 2.27458449e-03, -3.39641143e-03,
       -6.88977540e-03, -4.85541718e-03, -3.58171575e-03,
       -2.87016085e-03, -5.69299562e-04, -8.49277247e-04, 3.29306512e-03,
       1.34431315e-03, -1.96554442e-03, 1.18974922e-03, -1.21852057e-03,
       6.67852117e-04, 1.12883910e-03, -3.55449156e-04, 2.00084294e-03,
       2.41110940e-03, 2.90742679e-03, -2.56301975e-03, -1.27415627e-03,
       -2.82189739e-03, -4.61466331e-03, -2.23524706e-03,
       -9.70710244e-05, 6.06252812e-04, 4.00884030e-03, 4.52297600e-03,
       -1.47566432e-03, -1.21313718e-03, -2.22867541e-03,
       -6.52757473e-04, 2.34041130e-03, -1.32789090e-03, -2.77619786e-03,
       1.00394932e-03, 7.27439881e-04, -7.21645495e-03, 4.29778406e-03,
       -8.25042557e-03, -3.27931414e-03, 1.93157431e-03, -3.00072320e-03,
       -2.53799721e-03, 3.62669467e-03, 3.46311904e-03, -6.60061138e-04,
       -1.21673138e-03, -1.37747056e-03, -3.53617501e-03, 1.02025631e-03,
       -1.65925862e-03, -1.20496959e-03, 3.71006434e-03, 2.79482128e-03,
       -5.13951341e-03, -3.14570405e-03, -6.95709605e-03,
       -4.77235159e-03, 8.28229677e-05, -1.13497605e-03, -6.04203495e-04,
       1.24722521e-03, 1.27308781e-03, -4.34625428e-03, 4.01903968e-03,
       -4.55594482e-03, -1.77321385e-03, 3.77842807e-03, 1.94603903e-03,
       5.23539586e-03, 5.85112197e-04, 1.05656439e-03, -2.86521972e-03,
       2.78890319e-03, -2.52009160e-03, 1.06049853e-03, 3.98734119e-03,
       5.61407255e-03, -9.52511095e-04, 9.81330741e-05, 6.28780632e-04,
       -3.73514858e-03, -9.61621467e-04, -4.79247048e-03, 1.69525098e-04,
       4.43986570e-03, 4.38111648e-03, 1.23106805e-03, -4.25810646e-03,
       -8.44160910e-04, -1.98909338e-03, 2.05442007e-03, -3.33907409e-03,
       1.86556228e-03, 3.77153861e-03, 6.54174527e-03, -4.01816069e-04,
       -7.68520695e-04, -1.49461324e-03, -7.02228677e-03,
       -2.77192122e-03, -2.90270499e-03, 7.12512294e-04, 3.15269688e-03,
       2.97200354e-03, -4.24192660e-03, 4.48319452e-06, 1.63724006e-03,
       -5.33124339e-03, -3.99489887e-03, -2.53395620e-03,
       -7.20690969e-06, 1.74912636e-03, 7.38292758e-04, -4.41889418e-03,
       -2.31574895e-03, -9.52208764e-04, -4.81192209e-03, 4.92769200e-03,
       -4.14402597e-03, 1.73380482e-04, 3.36693192e-04, -3.15691018e-03,
       -5.79428906e-03, -1.14963087e-03, 2.53447169e-03, -6.70244568e-04,
       4.93106991e-03, 1.76848541e-03, 4.47568670e-03, 2.77710170e-03,
       -4.97023622e-03, -3.18916142e-03, -1.64261577e-03,
       -2.43390765e-04, -2.46604159e-03, -5.77669963e-03,
       -2.05625198e-03, 8.87732313e-04, 2.08037300e-03, -2.39156179e-05,
       2.53585121e-03, -2.39556772e-03, -5.24851348e-05, -3.68481455e-03,
       -5.60606550e-03, -3.82434530e-03, 3.60030885e-04, 1.18537270e-03,
       2.91713793e-03, -6.93544419e-03, -2.64309696e-03, 1.51635424e-04,
       -1.07570598e-03, 2.86954083e-03, 2.37534614e-03, 5.23188105e-03,
       2.67121429e-03, -4.07189410e-03, 2.96707358e-03, 1.24915910e-04,
       1.13921415e-03, -3.18498048e-03, -4.67456831e-03, -2.72782659e-03,
       4.15931083e-03, 1.65003911e-03, 1.44022866e-03, 4.01668105e-04,
       1.31361739e-04, 2.75496463e-03, -1.78963668e-03, -2.72888225e-04,
       -2.75634159e-03, 6.67220040e-04, 4.25914861e-03, 5.21897920e-04,
       -5.81686106e-03, -4.84544580e-05, 9.07306385e-04, -4.20561014e-03,
       5.43145323e-03, -3.48603795e-03, -6.17298647e-04, 2.63756467e-03,
       -6.69164862e-03, 1.65552145e-03, 2.03661644e-03, 4.69949329e-03,
       -1.70610566e-03, -2.24663224e-03, -5.08073159e-03, 2.18459684e-03,
       3.20874504e-03, 2.50180019e-04, -1.45738025e-03, 1.86941552e-03,
       1.94325519e-03, -4.71891183e-03, 5.85702155e-03, -5.18875336e-03,
       2.21639173e-03, 2.19137291e-03, -4.04185522e-03, -2.77748541e-03,
       6.62867795e-04, -2.94369529e-03, -4.58749942e-03, 2.51891254e-03,
       -1.96799124e-03, 5.86802431e-04, 2.95433332e-03, -2.92210653e-03,
       -1.62497431e-03, -9.52896255e-04, -3.73566733e-03,
       -8.35585059e-04, -2.54036929e-03, -2.82815262e-03,
       -1.04491122e-03, -7.80350179e-04, 1.76117945e-04, -1.66033139e-03,
       2.79088551e-03, 8.58717030e-05, -6.11954415e-03, 2.05907319e-03,
       -3.85942229e-04, 1.50465511e-03, 2.29801284e-03, -1.73281951e-04,
       5.25953295e-03, 2.77217152e-03, 3.46438773e-03, -5.78253763e-04,
       2.71557621e-03, -2.25193333e-03, -1.93749694e-03, -3.62119870e-03,
       2.48393882e-03, -1.59813173e-03, -3.97807249e-04, -5.72057266e-04,
       -1.43031590e-03, -5.79600048e-04, -2.18490465e-03,
       -5.56101906e-04, -1.27081410e-03, -2.56035069e-04,
       -3.14895366e-03, -2.40784342e-04, 2.14688852e-03, -1.19192142e-03,
       -7.84922508e-04, -1.44100492e-03, 1.80867501e-03, 1.08013942e-03,
       6.22802123e-04, 3.59781465e-04, 1.80772087e-03, 1.37984357e-03,
       -2.02356838e-03, -1.03916926e-03, -1.40028528e-03,
       -1.45516265e-03, -2.71062856e-03, 1.20885932e-04, 1.57680013e-03,
       -1.39097054e-03, -4.99778718e-04, -5.02735004e-03,
       -5.18357661e-03, -1.61432009e-03, 2.37414119e-04, 8.67896655e-04,
       4.62588342e-03, -3.34163732e-03, -3.44418525e-03, 1.44957483e-03,
       -2.05371878e-03, -4.15502256e-03, -9.39162914e-04, 1.60776416e-03,
       2.22168025e-03, 1.95585378e-03, -4.85062320e-03, -1.67347072e-03,
       1.95789966e-03, -1.78012077e-03, -3.31029482e-03, 7.62080963e-05,
       2.16697721e-04, 8.38524895e-04, -8.70841439e-04, 1.09305533e-04,
       -5.45502873e-03, -2.31403555e-03, -5.83965285e-03,
       -4.55984380e-03, 4.13602829e-04, 1.80948118e-03, 2.01793923e-03,
       5.04404446e-03, -1.04678713e-03, -5.38848806e-03, 3.56753008e-05,
       -4.87664714e-03, -1.49161858e-03, -1.77050370e-03,
       -1.05809246e-03, 2.65319296e-03, 5.55099081e-03, -5.62970946e-03,
       1.27340783e-03, 3.63657414e-03, -2.76571081e-04, 3.01280664e-03,
       -4.71207168e-05, -5.78539737e-04, 1.16792519e-03, -5.73206088e-03,
       -3.25783459e-03, 1.91052607e-03, 3.20925680e-03, -1.21673546e-03,
       3.33830016e-03, -4.03689593e-03, -3.09968973e-03, -3.96581460e-03,
       -5.80415549e-03, -4.13175486e-03, -2.24834681e-03, 1.68855465e-03,
       -2.11022096e-03, 3.78611451e-03, -1.39294541e-03, -5.59488777e-04,
       3.68806161e-03, 3.93828982e-03, 2.93926615e-03, -1.13535847e-03,
       5.64039173e-03, -1.78908650e-03, -8.34277947e-04, -7.15518603e-03,
       -5.08305850e-03, -2.48740055e-03, 3.35125858e-03, -7.06912251e-05,
       3.17162438e-03, 4.77796141e-03, 5.06781740e-04, -5.98001294e-04,
       -1.51243154e-03, -2.03403388e-03, -2.30637332e-03,
       -3.07418569e-03, -4.60837677e-04, 1.75085873e-03, 4.22538631e-03,
       -5.74893202e-04, -4.01948951e-03, -1.96037046e-03,
       -1.11885008e-03, -1.44832057e-03, -2.28609471e-03, 4.63995431e-03,
       2.81647127e-03, 3.38881556e-03, -4.70729545e-03, -6.74177194e-03,
       -5.45236329e-03, -2.18004710e-03, 4.19962831e-04, 4.30242345e-03,
       2.51069805e-03, -4.57198941e-04, -1.03681930e-03, -4.15183464e-03,
       -2.79763271e-03, -4.78563691e-03, 1.68586615e-04, 2.98383157e-03,
       4.45581554e-03, -4.26350953e-03, 1.72895472e-03, 1.02655520e-03,
       -1.44639763e-03, -2.18559853e-06, -2.16270611e-03,
       -2.05728738e-03, -1.12587237e-03, -6.90884981e-03,
       -4.38421266e-04, -4.95901238e-03, -2.34996830e-03,
       -2.30914936e-03, -6.45499327e-04, -3.06118280e-03,
       -9.50150948e-04, -7.62838055e-04, -2.40163691e-03, 2.01008050e-03,
       1.07933782e-04, -1.21983164e-03, -3.33302375e-03, 3.06170387e-03,
       -2.48264312e-03, 4.19759745e-04, 3.12175974e-03, 3.70483240e-03,
       3.12296883e-03, -1.94104249e-03, -1.83412200e-03, -6.56415429e-03,
       3.69512103e-03, -4.17604158e-03, 3.07283364e-04, 6.68725348e-04,
       3.38556408e-03, -2.35809269e-03, -3.42803146e-03, -1.55054161e-03,
       -1.95048761e-03, -2.83375639e-03, -4.06315178e-03,
       -3.44893488e-04, 1.88241119e-03, -2.64485274e-03, -1.05381431e-03,
       -2.08250992e-03, 9.60813719e-04, 8.85633170e-04, 8.70895688e-04,
       -2.24653585e-03, 1.71682774e-03, -1.68874767e-03, 2.64144759e-03,
       3.05705052e-03, 5.32185368e-04, -2.21943459e-03, -4.74763382e-03,
       1.06059317e-03, -4.90974635e-03, -1.83419639e-03, 1.68036192e-03,
       5.46154380e-03, 3.96500248e-03, 7.29091698e-04, 1.24673615e-03,
       -7.81418814e-04, -4.05255414e-04, -3.22500523e-03,
       -2.10473663e-03, -3.05250031e-03, 4.69873846e-03, 2.93091103e-03,
       1.27066020e-03, 1.32082729e-03, -5.30048237e-05, -1.99360400e-03,
       5.29353973e-04, 3.95940058e-03, -1.04881474e-03, 4.08948353e-03,
       7.06674764e-03, -2.45690229e-04, 1.26387517e-03, -1.78423058e-03,
       -2.25139456e-03, -1.43507624e-03, 2.40548723e-03, -4.06729843e-04,
       4.23939573e-03, 2.23914254e-03, 5.16306434e-04, -1.72277330e-03,
       -4.36987495e-03, -2.36764853e-03, -2.88660778e-03,
       -2.77972221e-03, -5.00193099e-03, 4.66055423e-03, -3.94610077e-04,
       -9.99581884e-04, 1.23195830e-04, -4.41733981e-03, -4.68737599e-05,
       -3.99017660e-03, -2.02734000e-03, -5.52224973e-03,
       -2.23336203e-04, 5.75891044e-03, 4.15719260e-05, 1.37306482e-03,
       -7.95838714e-04, -5.47192572e-03, -6.27928704e-04, 7.61587813e-04,
       -3.01339955e-04, 1.27775967e-03, 3.94903403e-03, -3.72955605e-04,
       1.01055170e-03, -2.58012762e-04, 1.42942148e-03, -7.32627872e-04,
       -1.06707483e-03, -6.29397982e-04, 3.57961119e-03, 2.20898213e-03,
       1.51120778e-03, 2.30234140e-03, 7.46801554e-04, -2.76273279e-03,
       -4.66598477e-03, -1.65516778e-03, -2.93289823e-03, 1.79558026e-03,
       1.99095020e-03, -2.63255485e-03, -8.91612028e-04, -3.60051399e-06,
       -1.24162965e-04, -5.08784130e-03, -2.08087312e-03,
       -1.11577101e-03, 6.59486279e-03, -9.05074645e-04, -1.87942781e-03,
       9.67489847e-04, -8.11432255e-04, 4.46753902e-03, -3.96201503e-04,
       -6.18929102e-04, 8.84730252e-04, 1.64627703e-03, -2.41504004e-03,
       -3.86823434e-03, 2.71544070e-03, -8.74728896e-04, 6.18155207e-03,
       1.54333946e-03, 8.33167724e-05, 2.13203602e-03, 9.61153826e-04,
       -8.74342804e-04, -4.76404652e-03, -1.77039218e-03,
       -2.13221810e-03, -2.00196519e-04, -1.18935401e-04, 2.69606418e-04,
       8.77499348e-04, 5.71180135e-03, -3.84348095e-03, -6.10133167e-03,
       -1.08298834e-03, -4.04519076e-03, 1.07025541e-03, -3.14131205e-04,
       4.62544383e-04, 4.44242585e-04, -7.39719078e-04, -3.57531849e-03,
       -1.03314896e-03, -5.07352583e-04, -2.26806733e-03,
       -1.91527617e-03, -7.05635292e-04, 9.16099525e-04, 1.14340126e-03,
       7.82776391e-04, 2.26235157e-03, 1.40893308e-03, -4.16191790e-04,
       -2.44584703e-03, -1.82060513e-03, -5.50685171e-03, 1.04044180e-03,
       4.10582725e-04, 3.37695237e-03, -4.41536261e-03, -1.71051314e-03,
       -7.71585794e-04, -5.02234092e-03, 1.07077183e-03, -3.88435670e-04,
       4.35683317e-03, 6.07475406e-04, -3.08488146e-03, 2.56199110e-03,
       -1.53956481e-03, -5.94294397e-04, -8.23285198e-04, 6.60531980e-04,
       -5.61888749e-03, 1.62136240e-03, -1.72278448e-03, 2.94843595e-03,
       1.71854883e-03, 3.88373807e-03, 3.77176167e-03, -1.37867988e-04,
       -5.14264917e-04, -3.42241582e-03, 3.27391364e-03, 7.83275289e-04,
       -1.03557343e-03, 3.79169662e-03, -2.65257899e-03, 3.12558172e-04,
       -1.86408137e-03, -1.63966394e-03, -2.52874941e-03,
       -1.31187306e-04, -4.22098004e-04, 2.75845802e-03, 4.01965762e-03,
       -1.22096797e-03, 6.21154497e-04, -3.40719795e-04, 1.98307773e-03,
       -4.57813265e-03, 1.43220206e-03, -1.31249113e-03, 1.65942521e-03,
       1.90334080e-03, -6.81519462e-03, -6.31331932e-03, -8.96958075e-03,
       -5.32858726e-03, -5.61774895e-03, -1.06061716e-03,
       -3.62196181e-04, 3.60393478e-03, 3.98417981e-03, -1.27804931e-03,
       2.09812657e-03, -1.95003313e-03, -2.10646237e-03, -1.38122274e-03,
       2.85513204e-04, 3.72912073e-05, 1.95281883e-03, 2.72340281e-03,
       8.65037844e-04, 3.79042909e-03, 1.64053286e-03, 1.52687178e-04,
       -3.23894038e-03, -1.66262162e-03, -1.27488049e-03,
       -1.02613412e-03, 4.19888238e-04, -5.39137283e-03, -3.17865866e-03,
       -4.62183729e-03, -3.65397218e-03, 2.45566643e-03, 2.24309159e-03,
       2.57755071e-03, 3.28219542e-03, -4.71254898e-04, -1.95623166e-03,
       8.76244681e-04, -1.17929897e-03, -2.33025104e-03, 3.19949468e-05,
       2.75108707e-03, 2.10998254e-03, 1.38824829e-03, 2.20237556e-03,
       -1.27866783e-03, -8.83398578e-04, -7.67561723e-04,
       -2.63202935e-04, -2.73327413e-03, -1.72314940e-05,
       -8.51811084e-04, 9.33628355e-04, 4.27380716e-03, 5.32022328e-04,
       1.22545031e-03, 1.77908654e-03, 7.68674596e-04, -1.43847510e-03,
       5.14476851e-04, 1.00698019e-03, 3.40517377e-03, -6.20893028e-04,
       -1.95517694e-03, -1.54251314e-03, -1.66131952e-03, 2.33096580e-04,
       -8.56124854e-04, -3.17552098e-04, -1.92274759e-03, 1.13266683e-03,
       3.45337321e-03, 2.01986288e-03, 1.44441915e-03, 1.11196190e-03,
       -7.99669244e-04, -1.61878357e-03, -3.11007979e-03,
       -1.49415550e-03, 2.49647419e-03, -2.17694975e-03, -6.21542451e-04,
       1.88385579e-03, 1.97816570e-03, -2.85191252e-03, -7.35427020e-04,
       -4.27065106e-06, -8.62776826e-04, -2.89105484e-03,
       -2.13357271e-04, -6.96639705e-04, -2.90507940e-03, 4.88352031e-04,
       -2.06913264e-03, 2.17984570e-03, -7.57881382e-04, 5.06249024e-04,
       -1.72327796e-04, 1.03532942e-03, 1.12849800e-03, 8.13885708e-04,
       7.33693421e-04, 2.65767711e-04, -3.97610618e-03, -4.23812633e-03,
       -2.31691473e-03, -7.11754139e-04, 3.45145026e-03, 8.41010944e-04,
       1.33269653e-03, 2.64522852e-03, -2.93167401e-03, -2.76105525e-03,
       -1.58120878e-03, 2.53750384e-03, -2.70367903e-03, -8.27417185e-04,
       -2.10762769e-03, -3.26264789e-03, -1.06837635e-03,
       -4.35019098e-03, 3.52610601e-03, -1.43452291e-03, -3.04075889e-04,
       -1.42828445e-03, -8.53151781e-04, -5.33807441e-04,
       -4.09344351e-03, -4.47217887e-03, 6.12191288e-05, 2.46703508e-04,
       -1.29585899e-03, -2.64422223e-03, -4.58491407e-03, 4.11935523e-03,
       6.08209120e-05, 7.07117899e-04, 1.93863327e-03, 7.39423907e-04,
       1.10275822e-03, -1.59815900e-04, 2.59442418e-03, -2.24714153e-04,
       7.86752731e-04, -3.98000376e-03, -3.96199664e-03, -6.32765284e-03,
       8.46380019e-04, -3.13633820e-03, -4.73973021e-04, -2.54686316e-03,
       -1.13720237e-03, -3.97860492e-03, -4.81731695e-04,
       -2.65292032e-03, -2.13464652e-03, 1.26338936e-03, 2.21481343e-04,
       1.09544408e-03, 1.00527727e-03, -2.15730793e-03, -6.05397113e-03,
       -1.12081820e-03, -1.14622246e-03, -4.55720030e-04, 3.41741322e-03,
       -2.07653223e-03, 1.78674911e-03, 4.95189894e-03, -4.81611205e-04,
       -9.86126019e-04, -2.14980007e-03, -4.47958894e-03,
       -5.30854193e-03, -9.79659962e-05, -2.96980888e-03, 1.63836323e-03,
       5.11453254e-04, -1.63805543e-03, -5.64913219e-03, -3.45472572e-03,
       -1.86514982e-03, 1.32847053e-04, 2.87698652e-03, -2.94269505e-03,
       2.87412829e-03, 3.85432458e-03, -2.82613980e-03, -2.30890792e-03,
       8.59443098e-04, 1.44635793e-03, -8.03857693e-04, -2.84685916e-03,
       -1.77677860e-03, 3.71212466e-03, 5.18327300e-03, -6.95702503e-04,
       9.57913115e-04, 1.61349867e-03, 5.41885791e-04, -4.11089917e-04,
       1.34870817e-03, -1.50597712e-03, -6.88721193e-04, 5.48215699e-04,
       1.36055890e-03, -6.61631115e-03, -1.33022619e-03, -3.67392699e-04,
       2.13880230e-05, -3.32768005e-03, -8.38866574e-04, 5.54487202e-03,
       5.88815473e-03, -1.49320799e-03, -1.89094257e-03, -1.79669063e-03,
       -3.70627444e-04, -1.92980422e-03, -6.64098142e-03,
       -6.59400830e-04, 2.70086923e-03, 3.21330456e-03, -6.25431188e-04,
       2.17153295e-03, -2.10254875e-04, -2.49502296e-03, -1.85134925e-03,
       -1.80926500e-03, 7.04035047e-04, 7.04259583e-05, 3.31126107e-03,
       1.13769097e-03, 4.30891616e-03, 9.98585834e-04, -4.48725047e-03,
       -7.22756423e-03, 8.24858784e-04, -1.11684424e-03, 3.50189803e-04,
       2.55422923e-03, 2.96014105e-03, 1.47095256e-04, -3.61507386e-03,
       -4.82592033e-03, -3.36245657e-03, -5.27485367e-03, 4.20618861e-04,
       2.83301086e-03, 2.56210938e-03, 1.91371277e-04, 5.02380542e-04,
       -2.65256525e-03, -3.46525246e-03, -5.80537226e-03, 1.19654869e-03,
       -4.60243464e-04, 1.95833063e-03, 1.17455760e-03, 1.03001970e-04,
       1.79058162e-03, 3.21615650e-03, -1.64107850e-03, -5.36941597e-03,
       -8.11482372e-04, -1.77034154e-03, 9.19614453e-04, -8.13806604e-04,
       -1.25529303e-04, 2.28232195e-04, -4.95489337e-04, -2.27148156e-03,
       -1.25758117e-03, -1.45134644e-03, -1.59970776e-03,
       -2.23176554e-03, 3.20934528e-03, -1.41267153e-03, -4.77791706e-04,
       -2.70716194e-03, -4.21584537e-03, -5.35588013e-03, 9.26641864e-04,
       -2.18225596e-03, 3.59572051e-03, -2.00130035e-05, -2.52808491e-03,
       -1.66088133e-03, -1.90912466e-03, -2.84840702e-03,
       -3.78518319e-03, 3.11999349e-03, -1.54756068e-03, -5.95581136e-04,
       2.12279428e-03, -1.40270405e-03, 1.20320008e-03, -2.03943369e-03,
       -1.13163423e-03, -1.22428453e-03, 1.06226257e-03, -6.75290881e-04,
       -5.21328184e-04, 5.11095533e-03, 3.20434291e-03, 3.64396418e-03,
       2.04967568e-03, -5.61967667e-04, -5.03301248e-03, -4.46926430e-03,
       -3.16014932e-03, -2.23741494e-03, 3.80566623e-03, 4.33377922e-03,
       -3.15714092e-03, -2.62402673e-03, -8.69420590e-04,
       -6.59544906e-03, 7.53902597e-04, 2.40175796e-05, -1.38021703e-03,
       2.43999972e-03, -1.85167522e-03, 8.58995772e-05, -3.64324624e-05,
       -2.69841542e-03, -7.90420454e-03, -3.21697933e-03,
       -3.23474221e-03, -1.40548043e-03, 3.64356511e-03, 6.42444706e-04,
       -1.25140033e-03, 5.32061502e-04, -2.00681435e-03, -5.57222264e-03,
       1.00988965e-03, -4.96259704e-03, -1.33034983e-03, 4.50754742e-04,
       -2.64137611e-03, -4.44878126e-03, 3.58620338e-04, -1.50286977e-03,
       -4.29148274e-03, 2.07630615e-03, -3.55965854e-03, 4.54748608e-03,
       5.03144134e-03, -1.16213574e-03, -3.63879651e-03, -1.34850456e-03,
       -2.35800538e-03, -4.72375425e-03, 8.99956794e-04, -3.92571464e-03,
       -1.14735169e-03, 1.17537647e-03, -3.93635826e-03, -1.77941320e-03,
       -2.52124108e-03, -1.76711602e-03, -2.97455862e-03, 1.91310560e-03,
       -1.47229340e-03, 5.40336967e-03, 4.69527394e-03, 1.96015439e-03,
       -3.95351462e-03, 2.50170735e-04, 3.07715090e-04, -3.27008148e-03,
       -4.33637621e-03, -4.85445838e-03, 2.30486109e-03, 5.06601110e-03,
       1.19659363e-03, -1.76803290e-03, -3.00034205e-03, -1.52377223e-04,
       -3.66533711e-03, -1.77692808e-03, -7.28325872e-03,
       -7.94412801e-04, 1.41001458e-03, 1.21525598e-04, 1.42217008e-03,
       6.39561913e-04, 1.03420462e-03, -1.92439754e-03, -1.07118802e-03,
       -2.83557596e-03, 4.90101473e-03, 7.04524852e-03, 5.60822478e-03,
       1.75573758e-03, 3.13338568e-03, 6.91848667e-03, 3.82411666e-03,
       2.99091591e-03, -6.84017688e-03, -4.61062184e-03, 2.61036353e-03,
       3.05290963e-03, 1.10370130e-03, -1.90247246e-03, 6.25468604e-03,
       8.50617699e-03, 3.77731770e-03, -7.11607002e-03, -5.47221862e-03,
       -5.18057169e-03, 1.90281705e-03, -4.22608666e-03, -1.25690293e-03,
       8.69444478e-03, 9.85532440e-03, 1.43360510e-03, -9.34256054e-03,
       -7.22725736e-03, -1.99918379e-03, -1.10941939e-03,
       -4.12443932e-03, -3.29996552e-03, 3.33310687e-03, 6.97945198e-03,
       -7.45825644e-04, -7.67705729e-03, -5.65991970e-03,
       -6.48831995e-03, -4.43069078e-03, -4.20200545e-03,
       -2.92286044e-03, 4.63484600e-03, 7.30311824e-03, 6.92854682e-03,
       -8.15077592e-03, -7.09175877e-03, -2.26610550e-03,
       -1.22276612e-03, -4.83277161e-03, -1.52451871e-03, 4.15792037e-03,
       5.66040771e-03, -4.76607122e-03, -8.85642506e-03, -4.18721139e-03,
       4.14563197e-04, -2.27300590e-03, -3.03691230e-03, -2.83511309e-03,
       6.43601990e-04, 2.89005856e-03, -2.90314807e-03, -7.58641260e-03,
       -3.85003211e-03, 1.19793156e-04, 1.27668062e-03, -3.80733283e-03,
       -2.80882954e-03, 3.19147308e-04, 2.62795878e-03, 2.80207698e-03,
       -8.61114357e-03, -6.01939205e-03, -8.00454814e-04,
       -2.55615590e-03, 3.18950764e-03, 3.86977708e-03, 5.99986361e-03,
       6.33312343e-03, -3.57663748e-03, -3.66744655e-03, -5.27333422e-03,
       -8.80753330e-04, 2.24051322e-03, -1.33119698e-03, -3.76724056e-03,
       1.23593246e-03, 3.38137528e-04, 3.32895480e-03, -6.41509192e-03,
       -4.69594402e-03, -2.58432911e-03, 1.61355955e-03, -3.88111034e-03,
       -6.10798644e-03, 1.67169783e-03, 2.16067792e-03, -2.74907681e-04,
       -7.40999170e-03, -7.83223193e-03, -5.31352963e-03,
       -2.33552535e-03, 1.91095273e-03, 2.18362990e-03, 4.40694671e-03,
       2.56645726e-03, 1.82392064e-03, -5.18004037e-03, -4.48618643e-03,
       -1.42805267e-03, 1.06777786e-03, 5.10214537e-04, 1.75797031e-03,
       4.23500501e-03, 1.38200866e-03, 2.38875495e-04, -5.54965716e-03,
       -5.52524813e-03, -3.24945140e-04, -1.38486503e-03,
       -3.52530647e-03, -4.66770027e-03, 1.03613141e-03, 1.59186439e-03,
       4.84353723e-03, -3.98415374e-03, -4.60793218e-03, -3.91266635e-03,
       -1.88786082e-03, -3.15198558e-03, -3.27296997e-03,
       -1.50574616e-03, -2.60228384e-03, 2.13721860e-03, -3.41637526e-03,
       -8.95384816e-04, -9.31933755e-04, -2.52976082e-03,
       -2.36512464e-03, -1.49025687e-03, 2.48101540e-03, 2.42261685e-05,
       3.27800331e-03, -4.26895916e-03, -4.94790170e-03, -8.96596524e-04,
       -1.62016309e-03, -1.39959762e-03, 2.30979465e-04, 3.46576585e-03,
       4.34149697e-04, 4.71829262e-04, -4.77838656e-03, -4.20039846e-03,
       1.06503372e-03, -1.53938623e-03, -2.79932143e-03, -3.74823669e-03,
       -1.62810239e-03, -1.87178620e-03, -5.29094506e-03,
       -3.84665187e-03, 1.23161543e-03, 1.85220991e-03, -1.08964439e-03,
       1.15101552e-03, -1.58833177e-03, 2.37575476e-03, -2.76915438e-04,
       -4.47311066e-03, -3.26634501e-03, -7.22542929e-04,
       -5.34793187e-04, 1.70309539e-03, -9.60948528e-04, 8.13688312e-05,
       2.55582063e-03, 1.22842670e-03, 3.54853785e-03, -4.78987489e-03,
       -1.64954644e-03, 2.44539289e-04, -2.27604993e-03, 2.18049274e-03,
       -1.33227394e-03, 2.19108700e-03, 1.75399997e-03, 1.02418186e-02,
       -4.25187405e-03, -1.10714859e-03, -1.59863022e-03,
       -8.83419008e-04, 1.43792736e-03, -1.23263279e-04, 3.27272317e-03,
       1.09523104e-03, -7.49330429e-05, -9.09212104e-04, 1.99145594e-04,
       -1.04059966e-03, -3.83559236e-04, 6.18269062e-03, -1.38937158e-03,
       -1.88206800e-03, -1.21529121e-03, 2.85119214e-03, -4.05869586e-03,
       -2.68050190e-03, -2.58896477e-03, 3.57757392e-03, -5.21623902e-03,
       -5.57859079e-04, 1.68110617e-03, 2.33775284e-03, 6.17796881e-03,
       1.20001368e-03, 2.61168298e-03, -1.35792454e-03, -8.45709629e-03,
       -2.94507225e-03, 1.43457146e-03, 2.31958088e-03, 2.56704097e-03,
       8.94321478e-04, 2.26270757e-03, 1.96161144e-03, -1.73428110e-04,
       -4.32316400e-03, 3.10930284e-03, -7.28616957e-04, 5.39104745e-04,
       6.38371799e-04, 1.21450739e-03, -5.42331114e-03, -2.09790189e-03,
       -1.49769802e-03, 3.38767096e-03, 3.92091786e-03, 2.69305916e-03,
       1.31257868e-03, -6.95171533e-04, 7.79276088e-05, -7.59161683e-03,
       -4.35707159e-04, -1.09561021e-03, 1.24134624e-03, -5.02760708e-03,
       9.29989437e-06, 1.91343727e-03, 5.08562895e-04, 1.71401165e-03,
       1.15544966e-03, 3.46509134e-03, 3.21006682e-03, -1.00457971e-03,
       -5.57755260e-03, -1.00882398e-03, -4.09907399e-04,
       -3.37835425e-03, -4.50245338e-03, -2.32039206e-03, 3.05654760e-03,
       2.69907317e-03, -3.71855148e-03, 7.97230517e-04, 1.18796341e-03,
       5.83370158e-04, -1.71647684e-04, 4.65412531e-03, -4.75727860e-03,
       1.06299692e-03, 2.84023612e-04, 6.90792687e-04, -1.19983498e-03,
       -3.02309450e-03, -7.77629670e-04, 1.06637471e-03, 5.84431784e-03,
       -1.52797066e-03, -4.47688944e-04, -2.26330478e-03, 7.25381367e-04,
       -2.58215889e-03, -3.87362437e-04, -1.10240327e-03,
       -5.99137966e-05, 2.38636788e-03, -3.54233314e-03, 1.04516174e-03,
       3.20935110e-03, -2.59595364e-03, -7.84725882e-03, -1.92706403e-03,
       -1.35802454e-03, 4.01064847e-03, -3.28483293e-03, -1.11832982e-03,
       5.53859689e-04, 1.63853285e-03, -6.39512390e-03, -1.26945158e-03,
       -4.06784518e-03, 1.02341059e-03, 2.80525186e-03, -7.84813194e-04,
       1.53158529e-04, -3.62624996e-04, -9.79719101e-04, 6.06668254e-05,
       -4.99621965e-04, -2.83600390e-03, 5.00514358e-03, 1.96743617e-03,
       3.88583285e-03, -3.18173203e-03, -9.52987873e-04, 6.06314607e-05,
       4.81923390e-03, -9.07532498e-03, -1.43284223e-03, 7.51205662e-04,
       3.99945630e-03, 6.31656265e-04, 6.62898354e-04, 2.19837413e-03,
       2.12130719e-03, -4.15532663e-03, -4.70339134e-03, 2.15309486e-03,
       1.60308520e-03, 4.04709158e-03, 5.62920934e-03, 6.73316885e-04,
       4.24951641e-03, 3.86797288e-03, -1.12676687e-04, -2.07710639e-03,
