%YAML:1.0
---
my_detector: !!opencv-object-detector-hog
   winSize: [ 128, 192 ]
   blockSize: [ 16, 16 ]
   blockStride: [ 8, 8 ]
   cellSize: [ 8, 8 ]
   nbins: 9
   derivAperture: 1
   winSigma: 4.
   histogramNormType: 0
   L2HysThreshold: 2.0000000000000001e-01
   gammaCorrection: 1
   nlevels: 64
   signedGradient: 0
   SVMDetector: [ -1.74515042e-02, -8.38083774e-03, 3.39742638e-02,
       2.67481506e-02, 3.33563387e-02, -3.56562212e-02, -2.67274212e-02,
       -1.55234886e-02, -1.20587060e-02, -3.84827740e-02,
       -3.91000928e-03, 2.59959362e-02, 6.06487645e-03, -1.30523765e-03,
       -3.95902395e-02, -1.01047419e-02, 5.76916710e-03, -3.19877937e-02,
       -1.80283636e-02, 4.26816009e-03, 4.44893725e-02, 2.54526101e-02,
       -1.79603398e-02, -3.18408981e-02, -3.48184295e-02,
       -3.15026380e-02, -2.48467345e-02, -2.86050513e-02, 1.64356027e-02,
       3.88432443e-02, 1.24417292e-02, 3.02729709e-03, -2.97573209e-02,
       -1.42053077e-02, -1.72084346e-02, -3.68524678e-02,
       -3.84062417e-02, -7.89569970e-03, 1.25223603e-02, -5.61849540e-03,
       -1.19897425e-02, -3.12134288e-02, -5.05735213e-03, 1.23826172e-02,
       -2.11506188e-02, -1.67518333e-02, -4.19008266e-03, 2.78814021e-03,
       -1.57258138e-02, -1.83852650e-02, -3.56226824e-02,
       -1.79349724e-02, -1.04219804e-03, -1.48438395e-03,
       -3.18550169e-02, -4.18007188e-03, 2.66641229e-02, -1.28452387e-02,
       -1.40600372e-02, -2.93799434e-02, -1.57023091e-02,
       -1.14538791e-02, -2.81532034e-02, -6.47286233e-03,
       -5.50196506e-03, -1.96653348e-03, -4.64263652e-03, 4.06830898e-03,
       -2.70510893e-02, -6.68812823e-03, -1.62074510e-02,
       -1.59895215e-02, 2.18014028e-02, 1.03885578e-02, -1.15062306e-02,
       -1.56189976e-02, 3.16997757e-03, -1.89635940e-02, -4.28078091e-03,
       -8.71506613e-03, 1.49681484e-02, 4.57435213e-02, 8.46651569e-03,
       -7.52928387e-03, -3.56028266e-02, -2.88983937e-02,
       -4.02618721e-02, -2.54162718e-02, -2.06720810e-02, 2.66026426e-02,
       -3.60689242e-03, -4.83790599e-03, -2.57908925e-03,
       -1.16615854e-02, -8.37343838e-03, -2.36477572e-02, 7.77295232e-03,
       -1.26593253e-02, -1.83189902e-02, 2.04294194e-02, 2.29326123e-03,
       1.74675183e-03, 6.23151008e-03, 3.75979324e-03, -3.04118581e-02,
       2.76372628e-03, -3.48997489e-03, -8.78652732e-04, 1.33282049e-02,
       -1.06416736e-03, -1.68422293e-02, -3.03693376e-02,
       -3.74418753e-03, -2.67949197e-02, -1.72266886e-02,
       -8.39629769e-03, 1.50549868e-02, -1.25501845e-02, 9.29185553e-05,
       -1.89853609e-02, -3.84682566e-02, -2.27467492e-02,
       -2.69720331e-02, -4.73399600e-03, 2.34573800e-02, 1.19638341e-02,
       1.91937145e-02, 1.54258395e-02, 3.01486929e-03, -6.55960385e-03,
       2.94586923e-02, -2.55507547e-02, 3.31535051e-03, -6.95542945e-03,
       4.72554937e-03, 6.16994873e-03, 1.47370342e-02, 1.46794296e-03,
       -9.05462913e-03, 7.85486214e-03, -2.35443600e-02, -9.87914205e-03,
       5.27330616e-04, 2.08546035e-03, -4.32206737e-03, 1.36205899e-02,
       -2.06678361e-03, -1.63239557e-02, -5.83460741e-03,
       -8.81808251e-03, -6.45157322e-03, 1.92084257e-02, 1.05726905e-02,
       7.01349229e-03, 9.15743224e-03, -2.62233731e-03, -1.42707862e-02,
       -4.08141427e-02, -2.70642340e-02, -3.14223804e-02,
       -7.72280898e-03, 3.71986302e-03, 5.15970308e-03, 5.50356181e-03,
       2.22159736e-03, -2.13417728e-02, 1.23302080e-02, 4.86657256e-03,
       -6.66743051e-03, 1.06251817e-02, 7.26626534e-03, -1.17360614e-02,
       -6.18581427e-03, -1.10833431e-02, 2.04363605e-03, -9.71162785e-03,
       2.26810487e-04, -1.43703679e-02, 1.71042775e-04, -4.44006361e-03,
       1.95724634e-03, 3.87388212e-03, -6.88971207e-03, -5.90763241e-03,
       -7.06010591e-03, -2.48228721e-02, -2.25394163e-02, 1.91961054e-03,
       1.39727897e-03, 4.88334452e-04, 3.81644373e-03, -8.99221934e-03,
       -2.25946903e-02, -8.01506918e-03, -3.15519385e-02,
       -2.91805379e-02, -1.30649013e-02, 4.67749406e-03, -1.72336698e-02,
       -1.18729481e-02, -5.96747454e-03, -1.78282592e-03,
       -4.50531981e-04, 6.19854778e-03, -9.84491594e-03, 1.97901446e-02,
       3.32401786e-03, -3.59731237e-03, 2.41067316e-02, 2.42034793e-02,
       2.65725446e-03, -2.04468891e-02, -1.07872849e-02, -1.99128082e-03,
       1.52419973e-02, 1.37570398e-02, 5.15601085e-03, 1.70650892e-02,
       2.84758233e-03, -1.40168499e-02, 1.19084418e-02, -1.78683866e-02,
       -1.69269461e-02, -2.78183632e-03, 3.85477138e-03, -2.00897921e-03,
       -5.94477495e-03, -2.29860507e-02, -3.56184728e-02, 1.51989225e-03,
       -1.91690102e-02, -8.52012262e-03, 1.58809386e-02, 1.74114844e-04,
       1.65430419e-02, 1.18232807e-02, 1.89732444e-02, -6.35746447e-03,
       -3.46990488e-03, -7.50377821e-03, 2.05324162e-02, 3.11557837e-02,
       2.43569016e-02, -1.21466527e-02, -1.59495026e-02, 2.76563969e-03,
       -1.39304968e-02, -1.31406644e-02, -1.26513196e-02, 1.95726776e-03,
       8.10006354e-03, -2.59070424e-04, -1.21412911e-02, -4.47435211e-03,
       -1.89541988e-02, -2.49717217e-02, 5.09068556e-03, -1.65237784e-02,
       -2.86263227e-03, 1.54105593e-02, -1.65705624e-05, 7.39231473e-03,
       8.92158598e-03, -1.76628027e-02, -1.54089648e-02, -2.79790685e-02,
       -3.18595767e-02, -1.63944922e-02, 8.22884031e-03, 9.92350187e-03,
       -9.62589774e-03, -3.98690440e-03, 1.15207462e-02, -2.37232000e-02,
       1.07653541e-02, -3.22925334e-04, 1.51925748e-02, 1.33285448e-02,
       2.39608483e-03, 4.01685946e-03, 1.47535326e-03, 5.40452218e-03,
       -1.78864207e-02, 1.46164722e-03, -3.36128362e-02, -1.30020259e-02,
       3.29925376e-03, -5.39724366e-04, 1.23534026e-02, 1.35209775e-02,
       -1.59585886e-02, -1.59076247e-02, 4.06547869e-03, -2.57136207e-02,
       -1.49947992e-02, -2.83760531e-03, 7.86625687e-03, 2.47762296e-02,
       2.29068138e-02, -1.22577138e-02, -3.84572684e-03, -4.55569848e-03,
       -2.47800369e-02, -2.82045379e-02, -2.04146802e-02, 7.93632399e-03,
       -5.95786609e-03, 4.87165852e-03, -1.69472825e-02, -1.78468302e-02,
       2.91046835e-02, -2.12499816e-02, -8.38285033e-03, 5.34426467e-03,
       -5.63315675e-03, 5.60811895e-04, 5.03454637e-03, 1.28070507e-02,
       -6.81581581e-03, -1.36552248e-02, -2.12588515e-02,
       -1.65420361e-02, -6.07135147e-03, -2.39641289e-03, 8.08266457e-03,
       1.06984759e-02, -3.19257118e-02, -1.46944821e-02, -1.58830406e-03,
       -3.58884260e-02, -3.79147828e-02, -1.19078699e-02, 2.35005422e-03,
       7.38196122e-03, -1.47078605e-03, -2.05847621e-02, -1.64467581e-02,
       5.99136669e-03, -3.56889032e-02, -2.80125979e-02, -1.07716545e-02,
       2.84093828e-03, -1.58824027e-02, -1.30936755e-02, -3.42904730e-03,
       -1.01157762e-02, 1.90041307e-02, -1.67592857e-02, -8.67403392e-03,
       6.92460267e-03, -9.03812144e-03, 1.68424286e-02, -1.20598907e-05,
       1.00957630e-02, -3.63892363e-03, 3.74841876e-03, -2.49276981e-02,
       -9.54239815e-03, 1.83484051e-03, 6.79265615e-03, 4.06176271e-03,
       -1.80395646e-03, -3.65868065e-04, -1.09487865e-02,
       -2.86599807e-03, -2.74900123e-02, -1.27076516e-02,
       -3.97803122e-03, 5.84004773e-03, -1.74678816e-03, -1.01543898e-02,
       6.32946612e-03, -1.60701592e-02, -2.31423024e-02, -3.88558023e-02,
       -4.02862672e-03, -4.21215780e-03, 1.59238372e-02, 1.11221867e-02,
       4.93458996e-04, 1.50948912e-02, -8.95131472e-03, 1.09662833e-02,
       -1.21105658e-02, 1.08963531e-02, 4.67895437e-03, 1.32962726e-02,
       -5.15634147e-03, 6.57328812e-04, 2.83253528e-02, -1.02457069e-02,
       -4.84126899e-03, -2.50022095e-02, -1.73655339e-02,
       -2.12498140e-02, -1.92741037e-03, -9.57390759e-03, 3.95116833e-04,
       -1.15016801e-02, -1.04121622e-02, -4.43392545e-02,
       -2.55993716e-02, 5.10023499e-04, 9.19996575e-03, 6.36464683e-03,
       6.32272521e-03, 7.46580726e-03, -1.60226654e-02, -3.36979106e-02,
       -2.03640833e-02, -2.12294031e-02, 1.21854182e-05, -1.58589277e-02,
       5.85445622e-03, -8.82541668e-03, -1.90163148e-03, 2.72785011e-03,
       -2.07415856e-02, 1.87836192e-03, -1.26740104e-02, -4.88469703e-03,
       -8.36928468e-03, -1.32708857e-02, 2.21173242e-02, 1.23972800e-02,
       1.32260974e-02, -2.68548019e-02, 3.70680578e-02, -1.67831816e-02,
       1.00667272e-02, -1.51235622e-03, 1.84911937e-02, -1.01215784e-02,
       1.51582127e-02, -1.38831632e-02, -3.80216017e-02, 2.97997659e-03,
       -9.45914164e-03, 9.64679103e-03, -7.21007213e-03, -9.97414161e-03,
       -1.23823527e-02, -7.94842094e-03, -1.56930517e-02,
       -3.39688957e-02, -1.12170018e-02, -1.44223301e-02,
       -5.92905376e-03, -1.49737382e-02, -8.54097493e-03, 1.00019649e-02,
       5.04237879e-03, 7.85198156e-03, -1.47813372e-02, 2.48333905e-02,
       -3.31149466e-04, 2.32733507e-02, -7.66460970e-03, -1.44886307e-03,
       5.58416173e-03, -4.58885077e-03, 2.47347578e-02, -1.55156488e-02,
       -1.17854187e-02, -1.32748042e-03, 1.18000433e-02, 1.54108671e-03,
       1.95197389e-02, -1.44386641e-03, -7.53099378e-03, -2.01106984e-02,
       -3.61862667e-02, -5.42731816e-03, -1.70381125e-02,
       -6.14160765e-03, -8.88451654e-03, 5.24276169e-03, 5.64055145e-03,
       -9.16188397e-03, -6.54972205e-03, -3.81789915e-02,
       -1.19281393e-02, -2.84886770e-02, -7.62461079e-03, 5.65614668e-04,
       1.82805564e-02, -9.57555603e-03, -1.13990763e-02, 2.05333997e-02,
       -1.97472684e-02, 2.51934603e-02, 6.23353617e-03, 2.57621892e-02,
       -3.45044560e-03, -2.25402997e-04, -3.68465274e-03,
       -1.38389636e-02, 2.76601966e-02, -5.68174012e-03, 1.11260414e-02,
       -2.67129689e-02, -8.50540935e-04, -2.89930589e-03, 9.83063364e-04,
       -5.55829937e-03, 3.14758532e-03, -9.15560126e-03, -3.42141390e-02,
       -3.03432532e-02, -2.72687860e-02, -1.63410325e-02,
       -5.24143223e-03, -4.78126155e-03, 4.76106856e-04, 9.47887450e-03,
       -2.80400692e-03, -2.40958352e-02, -1.37667907e-02,
       -1.92250796e-02, -7.81820063e-03, -2.52351072e-03,
       -8.64940975e-03, -5.84098371e-03, -4.23698546e-03,
       -2.52303388e-03, -1.05261169e-02, 2.02911720e-03, -1.46727804e-02,
       8.27673078e-03, -9.64662991e-03, -9.31063667e-03, 7.15205120e-03,
       -1.42674781e-02, 7.92946015e-03, 3.09020537e-03, -1.56542212e-02,
       -1.92621388e-02, -1.89755559e-02, -1.33703034e-02, 8.77711922e-03,
       7.39894062e-03, 8.53070430e-03, -1.04373007e-03, -2.38759760e-02,
       -1.04371067e-02, -1.11445114e-02, 8.81839078e-03, -4.62195277e-03,
       -2.59839406e-04, 1.30647141e-02, -7.02882372e-03, -1.01823099e-02,
       -1.96238477e-02, -2.88181435e-02, -2.19336655e-02, 6.13323506e-03,
       -1.63414627e-02, -3.11609125e-03, -3.05725890e-03,
       -2.76994668e-02, 5.20109106e-03, -2.19593868e-02, -1.67229809e-04,
       -5.32511249e-03, 7.33837625e-03, -1.02294302e-02, 6.26161415e-03,
       1.16044311e-02, -2.02855691e-02, 7.22643686e-03, -9.82534140e-03,
       -1.18128126e-02, -1.95803773e-02, 6.12968905e-03, -2.15047635e-02,
       6.07977947e-03, -2.08967552e-03, -2.03293618e-02, -8.27980228e-03,
       -2.08528154e-02, -3.71186770e-02, -2.95520592e-02,
       -3.86411627e-03, -1.57542266e-02, -4.22678888e-03,
       -1.20747890e-02, -2.32370198e-02, 3.49405967e-03, -1.91122647e-02,
       -3.28835938e-03, -2.93666851e-02, -7.68104289e-03,
       -7.18156050e-04, 1.44110983e-02, 1.10087413e-02, -2.77326312e-02,
       -9.11752786e-03, -5.53489802e-03, 1.66477368e-03, -4.59211087e-03,
       7.27072591e-03, -3.63810174e-03, 1.87295508e-02, -2.64015906e-02,
       -3.60666364e-02, 4.00507683e-03, 2.34322399e-02, 1.19430916e-02,
       -2.46928129e-02, -3.27994279e-03, -1.77438592e-03,
       -1.58354361e-03, -6.53236965e-03, -7.51923723e-03, 7.13699125e-03,
       -2.22952329e-02, -1.41699361e-02, -2.49475576e-02,
       -1.32656004e-02, -7.77255557e-03, 8.14891979e-03, 4.75748070e-03,
       1.02420831e-02, 1.36941262e-02, -2.61569861e-02, -1.11308247e-02,
       -2.21477114e-02, -8.01165216e-03, -1.71836093e-02, 3.01233539e-03,
       4.55112662e-03, -2.79644802e-02, 8.67852289e-03, -7.19630532e-03,
       -3.38558364e-03, -2.41226535e-02, 2.54281517e-03, -4.94802138e-03,
       1.31867137e-02, 8.59264843e-03, -2.61418652e-02, 9.17505194e-03,
       -5.16201835e-03, -2.16968190e-02, -2.23882664e-02, 1.67657575e-03,
       -2.51519047e-02, 4.11054818e-03, -1.09124547e-02, 3.04696034e-03,
       4.29583294e-03, -2.12665331e-02, -1.40598463e-02, -4.05418628e-04,
       1.07512213e-02, -9.60181374e-03, -1.20882029e-02, 1.10468343e-02,
       -6.07378734e-03, 1.18301925e-03, -2.80617047e-02, 9.82734747e-03,
       1.36919215e-03, 1.59413684e-02, 5.86140319e-04, -5.76333841e-03,
       -7.89933186e-03, -2.24913340e-02, 1.12436237e-02, -2.27898117e-02,
       -7.18897907e-03, -8.94765928e-03, 1.67956166e-02, -1.10558076e-02,
       -4.94185742e-03, -8.80086049e-03, -1.17711024e-02,
       -5.10952529e-03, -2.53427718e-02, -3.28280963e-02,
       -5.20252576e-03, 1.13596395e-02, -7.96589628e-03, -1.17785372e-02,
       -1.59267616e-03, -1.28360195e-02, 5.57307573e-03, -1.30232051e-03,
       -1.52756358e-02, -1.66476127e-02, -7.08133169e-03,
       -1.17133195e-02, -9.97249596e-03, 5.74075663e-03, -2.36886175e-04,
       -1.94279142e-02, -2.03086268e-02, 3.55401767e-06, -4.00664248e-02,
       -2.64919084e-02, -1.21620921e-02, -3.42492503e-03,
       -1.65079779e-03, -7.53869908e-03, -4.47440753e-03, 1.25689188e-03,
       -1.84983294e-02, -5.46409329e-03, 3.15659773e-03, -1.91761889e-02,
       -1.78738199e-02, 9.57365555e-04, 4.98349778e-03, 9.05589259e-04,
       -1.23299751e-02, -2.40752730e-03, -2.54712570e-02,
       -2.71187793e-03, -7.79886730e-03, -1.04882373e-02,
       -1.42179476e-03, -6.50832138e-04, -5.16009005e-03,
       -3.60428430e-02, -7.15126703e-03, -3.12424153e-02,
       -6.15617633e-03, 9.07661486e-03, 2.05958611e-03, 1.04926471e-02,
       3.68016260e-03, 1.92635041e-03, -1.58266798e-02, 1.70249026e-02,
       -1.66359488e-02, 1.03661167e-02, 7.77432928e-03, 2.26947032e-02,
       -2.24784631e-02, 4.39706398e-03, 2.35515255e-02, -1.59210153e-02,
       1.10310211e-03, -1.71248242e-02, 1.32033248e-02, 1.00535015e-02,
       -1.90674104e-02, -3.00451983e-02, -1.55055232e-03, 7.31874444e-03,
       -1.51730832e-02, -4.05250257e-03, -1.87166352e-02, 2.02997718e-02,
       1.21878050e-02, 1.81508146e-03, 3.18406313e-03, 1.00971395e-02,
       8.43916927e-03, -1.60338953e-02, -1.03342654e-02, -6.12988416e-03,
       3.00021144e-03, -1.53955619e-03, 7.02839927e-04, 9.00355261e-03,
       7.38528499e-04, 1.69414189e-02, -2.83148624e-02, 6.34513469e-03,
       -2.37156823e-02, -3.46470065e-03, -5.86504349e-03,
       -7.30872247e-03, -1.02565661e-02, 5.16737951e-03, 1.17093162e-03,
       -1.49263097e-02, -1.10039506e-02, -1.64548606e-02, 6.41687680e-03,
       4.49971436e-03, -9.44337063e-03, 3.73906014e-03, 1.77496728e-02,
       -1.61016304e-02, -3.06599028e-02, -8.65397975e-03,
       -3.06446236e-02, -3.39215761e-03, -8.05568974e-03,
       -9.70424619e-04, -4.99016955e-04, -6.96733873e-03,
       -4.03871934e-04, -2.85077486e-02, 2.75934418e-03, -2.06102356e-02,
       -6.74557453e-03, -1.32336058e-02, -2.05237791e-02, 1.68259665e-02,
       -6.41587842e-03, -2.01110672e-02, -2.44044582e-03, 1.72800962e-02,
       -2.68924190e-03, 2.74485219e-02, 3.78630217e-03, -1.55889124e-04,
       -6.87012682e-03, -2.73415656e-03, -1.35237956e-02,
       -1.98146794e-02, 9.64492373e-03, -2.46844161e-02, -8.45885091e-03,
       4.88519529e-03, -1.75826531e-02, -7.61090452e-03, -5.97192731e-04,
       -3.20129027e-03, -5.75540494e-03, 7.64790503e-03, -3.45496391e-03,
       1.72309522e-02, 1.42601095e-02, -1.09178936e-02, -1.72685478e-02,
       -9.61462036e-04, 3.57252173e-02, 9.13717132e-03, 5.22892177e-03,
       -1.44758709e-02, -1.36262719e-02, -5.56269241e-03,
       -1.77322887e-02, -2.40659285e-02, 3.44138406e-03, 3.39288972e-02,
       4.82061598e-03, 3.63223138e-04, -1.38617828e-02, -2.82125338e-03,
       -6.58221915e-03, -2.42791697e-02, -3.05226669e-02,
       -1.42651694e-02, 3.78732458e-02, -7.16856588e-03, 2.13156673e-04,
       -2.78676283e-02, -1.71628986e-02, -1.60690639e-02,
       -2.66134199e-02, -8.08626995e-04, 8.98368831e-04, 2.51814276e-02,
       4.38712351e-03, 1.68349482e-02, -1.40752047e-02, -2.25809496e-03,
       1.29019003e-02, -7.93084595e-03, -9.00675450e-03, 2.19766214e-03,
       1.43338740e-02, -1.64552052e-02, -4.19577677e-03, -1.60092562e-02,
       7.54302135e-03, 7.82832038e-03, -4.55960259e-03, -1.39942495e-02,
       -1.22119570e-02, -1.69729199e-02, -3.69876735e-02,
       -1.16167134e-02, -2.37140600e-02, 1.40008016e-03, -7.73713831e-03,
       -1.70304738e-02, -4.70297411e-03, -1.36478916e-02, 5.32905431e-03,
       -1.72163919e-02, 2.21117232e-02, -5.87736955e-03, 1.77249219e-02,
       1.92162376e-02, -6.85070455e-03, 2.72214692e-02, 1.78787783e-02,
       3.04506114e-03, 3.07642738e-03, -9.50321276e-03, -9.30928916e-04,
       9.60972067e-03, 1.37956925e-02, 1.56489685e-02, -2.03587115e-02,
       -1.03792110e-02, -1.09121418e-02, -8.94233678e-03,
       -1.53625971e-02, -1.65613150e-04, 9.47177690e-03, -1.79338944e-03,
       -2.36173924e-02, -1.17156620e-03, -4.78174211e-03, 2.93241185e-03,
       1.03116734e-03, 3.02753551e-03, -1.17537687e-02, 1.05332991e-04,
       -2.57577817e-03, -1.35072125e-02, 1.54801477e-02, 1.34351430e-02,
       1.68152545e-02, 7.96503015e-03, 9.65493079e-03, 4.32119146e-03,
       9.14853159e-03, -2.08083377e-03, -6.40314957e-03, 8.24251026e-03,
       1.10598477e-02, 7.19641626e-04, 3.66371381e-03, 3.23545150e-02,
       1.08202919e-02, 1.86641552e-02, 8.45763646e-03, -6.11151103e-03,
       1.53457094e-02, 2.61945510e-03, 3.63347982e-03, 1.75879500e-03,
       2.42940076e-02, -1.59781147e-02, -4.06120159e-03, -7.41705578e-03,
       3.33739817e-03, -1.78665121e-03, -7.28232786e-03, 4.56314208e-03,
       -4.70559159e-03, 8.97833705e-03, -9.36828461e-03, -7.49932183e-03,
       -8.65575206e-03, -1.59317791e-03, 1.54841039e-02, -3.77656252e-04,
       -6.39244821e-03, -1.29456937e-04, -1.01825697e-02,
       -5.28315268e-03, -6.68585242e-04, 2.52813334e-03, 1.31914369e-03,
       6.74945628e-03, -5.33894403e-03, 7.25510530e-03, 1.99690331e-02,
       2.02220306e-02, -6.11095270e-03, -3.49061028e-03, -1.37220453e-02,
       4.38947510e-03, -3.26019851e-03, 8.32304358e-03, 7.57528562e-03,
       4.79148049e-03, 1.19750425e-02, 7.18049332e-03, -8.38120282e-03,
       -1.22067961e-03, 4.87004436e-04, -1.23535069e-02, -2.22173776e-03,
       -8.48167203e-03, 8.29864759e-04, -3.08993533e-02, -5.15778828e-03,
       -1.70704499e-02, -1.52104264e-02, -1.68522280e-02, 7.88146746e-04,
       1.43278418e-02, 9.60620306e-03, 1.43208408e-05, -2.91423546e-03,
       5.19120600e-03, 5.41489385e-03, 1.86529581e-03, 1.40618568e-03,
       -1.22775445e-02, 2.44743004e-02, 2.36348081e-02, 1.85560773e-03,
       -1.68298781e-02, -5.38093178e-03, -1.04271173e-02,
       -1.26842950e-02, -6.18356606e-03, -9.34889726e-03,
       -3.35024321e-04, -1.35694561e-03, -4.41332720e-03, 5.40135568e-03,
       -3.59856524e-03, -1.55608952e-02, -6.38389436e-04, 5.84927620e-04,
       -5.59393084e-03, 7.48947728e-03, 6.04680041e-03, -1.42614832e-02,
       -2.68599298e-02, -3.50358454e-03, -1.09716645e-02,
       -4.88866167e-03, 1.02064312e-02, -2.64888927e-02, 1.73808727e-02,
       6.29046746e-03, -1.42993219e-02, 2.02509537e-02, 9.70448367e-03,
       3.08690825e-03, -1.10060687e-03, -1.51585815e-02, 6.63098088e-03,
       1.99313723e-02, 1.35897538e-02, -8.90228804e-03, 2.75077065e-03,
       -5.74389240e-03, -8.89405492e-04, -1.16001796e-02, 1.72563381e-02,
       -7.09966850e-03, -5.89008396e-03, 1.45255111e-03, -6.15316583e-03,
       -1.31786307e-02, -1.16649840e-03, 5.93843311e-03, 1.01427818e-02,
       5.34256315e-03, -1.02401013e-02, -1.24447923e-02, 7.94656982e-04,
       -4.29069996e-03, -4.04972676e-03, -8.58543068e-03,
       -6.79630833e-03, -1.50891272e-02, -1.13784615e-02,
       -9.30898543e-03, 2.89616524e-03, -1.08539062e-02, -9.82723292e-03,
       3.58160436e-02, 8.42828956e-03, 2.92416057e-03, -8.02309159e-03,
       -7.62782758e-03, -4.80738090e-04, 1.62565168e-02, 2.06239615e-02,
       -5.28311357e-03, -1.06614048e-03, 2.08043843e-03, -1.75176132e-02,
       -1.44794183e-02, -9.45592206e-03, -5.81447082e-03,
       -1.58209156e-03, 8.71362537e-03, -1.16214873e-02, 1.11370971e-02,
       -4.96470602e-04, -6.87843934e-03, -2.47827731e-03,
       -2.87986035e-03, 2.83518061e-03, -8.98196455e-03, 4.52959165e-03,
       -1.43512012e-02, 9.82686225e-03, -1.61649268e-02, -1.29590901e-02,
       -1.78182442e-02, 7.16469949e-03, -4.17816034e-03, 1.74438376e-02,
       3.54069308e-03, -1.16182528e-02, 1.28791761e-02, 8.79349001e-03,
       -1.25381825e-02, 6.85256324e-04, -7.28735747e-03, 1.24239456e-02,
       1.26191787e-02, 3.99394613e-03, -1.58937965e-02, -2.76505891e-02,
       -1.28408000e-02, -9.47094709e-03, -6.59275381e-03, 3.94427567e-04,
       4.62043565e-03, -7.50072487e-03, -7.88147468e-03, -1.22689502e-02,
       2.14375108e-02, -1.44160967e-02, -2.80456850e-03, -1.12645002e-02,
       -3.96092189e-03, 1.62208974e-02, -4.51185182e-03, 1.53043997e-02,
       -5.08346874e-03, 5.29779005e-04, -5.12353238e-03, 2.29110257e-04,
       7.17604067e-03, 3.27491714e-03, 3.95362219e-03, 4.35844017e-03,
       8.86668544e-03, -1.23987123e-02, 2.72432296e-03, -7.23045645e-03,
       3.21537675e-03, -2.26073302e-02, -2.08780747e-02, 2.37253066e-02,
       2.75396593e-02, 1.39542138e-02, -1.12400493e-02, -4.51434311e-03,
       -9.39938519e-03, 6.24327688e-03, -3.76278040e-04, 1.63912459e-03,
       8.47053190e-04, -4.80527058e-03, 1.29682561e-02, -1.19451750e-02,
       1.01466514e-02, -3.39341583e-03, -6.86920248e-03, -1.09581640e-02,
       -1.30613511e-02, -1.16488431e-04, 4.73428983e-03, -4.90433443e-03,
       -1.55182993e-02, -1.82558931e-02, -1.47746727e-02,
       -6.33890135e-03, -4.28096112e-03, -1.81838102e-03, 1.15420921e-02,
       3.28607112e-03, 2.58177286e-03, -2.13176869e-02, 1.73527189e-02,
       3.15122330e-03, 1.87038742e-02, 1.55772865e-02, 5.00592636e-03,
       -5.00616198e-03, 1.78075470e-02, 3.10052633e-02, -1.90314688e-02,
       -1.46128319e-03, -1.23054497e-02, -1.60131659e-02,
       -2.60167010e-03, -9.21757892e-03, -1.40163954e-02,
       -3.99932312e-03, -1.60570082e-04, -1.50802713e-02,
       -1.94085501e-02, -1.51827158e-02, 4.79201553e-03, 1.33273820e-03,
       -5.11978287e-03, -1.79186705e-02, -1.53761460e-02,
       -1.81366235e-03, -2.25575361e-02, -4.82361019e-03,
       -4.58229426e-03, 1.09942555e-02, -7.86412973e-03, -1.27127664e-02,
       -7.07154209e-03, 2.06644628e-02, 2.10451782e-02, -2.16463655e-02,
       7.42348656e-03, -1.49978716e-02, 1.15873562e-02, 5.45046432e-03,
       1.78407470e-03, -1.16551090e-02, 1.28985418e-03, 1.34572163e-02,
       -1.55804409e-02, -1.11801189e-03, -1.17506548e-04, 1.75928324e-02,
       4.18253336e-03, -8.75546969e-03, -1.03757242e-02, -1.03579303e-02,
       -6.23641117e-03, -2.43059173e-02, -4.92222793e-03,
       -4.87263128e-03, 2.89954332e-04, -6.12064637e-03, -7.27048470e-03,
       1.05557144e-02, 5.33130672e-03, -5.02810464e-04, -2.23605167e-02,
       -2.08983198e-02, -8.22676904e-03, -3.61442659e-03, 2.41343048e-03,
       5.98841952e-03, -4.76875750e-04, 6.80011697e-03, -7.78313773e-03,
       -9.89763346e-03, 2.57792929e-03, 1.38171865e-02, 1.91997513e-02,
       4.09218890e-04, -2.07869965e-03, 1.78323854e-02, -3.67039209e-03,
       6.76364778e-03, 6.65763626e-03, 1.53162004e-03, 1.15928845e-03,
       2.43527419e-03, -1.48250880e-02, 8.19816254e-03, 2.56765168e-03,
       2.22060597e-03, 6.88674860e-03, -1.14966985e-02, 1.39033701e-03,
       -1.12759210e-02, 7.10903434e-03, 6.02846220e-03, 6.56547118e-03,
       -9.72654298e-03, -1.97706707e-02, -9.02193785e-03,
       -1.98844615e-02, 1.14757866e-02, -7.88864307e-03, -7.14560319e-03,
       -1.80335215e-03, -7.88531173e-03, 3.90393101e-03, 5.18755568e-03,
       6.24340819e-03, -6.58373255e-03, 2.93304026e-02, 1.07829748e-02,
       8.77979584e-03, -1.57373529e-02, 3.67485196e-03, 9.75081697e-03,
       -2.81380396e-03, -2.56560952e-03, 1.60358916e-03, 1.69395804e-02,
       -2.46817432e-03, 5.54311089e-03, 2.06815382e-03, 6.11759396e-03,
       -2.87543703e-02, -1.45879984e-02, 3.61513183e-03, -3.22371232e-03,
       -3.33785359e-03, -1.97506300e-03, 3.73268407e-03, 7.42589310e-03,
       -7.12682307e-03, -1.76405944e-02, -1.25983581e-02, 9.04032588e-03,
       -5.90021815e-03, 5.62256901e-03, -1.71082411e-02, -8.03943723e-03,
       4.06510429e-04, -8.54639150e-03, 7.96284003e-04, 1.34396413e-02,
       2.02402170e-03, 1.01942047e-02, 5.55771077e-03, 9.53365641e-04,
       4.13472019e-03, 4.98189265e-03, -6.24035113e-03, -3.71815613e-03,
       5.67842415e-03, 6.72656018e-03, 1.38978930e-02, -8.03293940e-03,
       -1.49222398e-02, -1.20115774e-02, 9.75476019e-03, -6.97119394e-03,
       -9.69959889e-03, -8.04223586e-04, -4.59659705e-03,
       -9.27165151e-03, -1.67714444e-03, 3.17099213e-04, 1.11743221e-02,
       -8.54261220e-03, -1.54611534e-02, 1.65007059e-02, -5.13228448e-03,
       -4.15592920e-03, -7.26749655e-04, 1.16103888e-02, 1.85106671e-03,
       8.26591812e-03, -2.77866516e-03, 1.10428538e-02, 9.45334323e-03,
       5.00755571e-03, -1.25359301e-03, -2.52564508e-03, -7.63203483e-03,
       -7.92654324e-03, -1.10060778e-02, -6.25126623e-03,
       -7.23062316e-03, 6.87427865e-03, -5.57848904e-03, 8.48604739e-03,
       2.20926153e-03, 3.14971688e-03, 1.45777846e-02, 1.25185950e-02,
       -8.10198206e-03, -2.08164449e-03, -3.79632041e-03,
       -5.03466837e-03, 1.00524258e-02, -1.69917522e-03, 9.35357064e-04,
       -9.21934936e-03, -5.04771378e-05, -6.30161539e-03, 8.69177468e-03,
       -4.78626369e-03, -1.06212869e-02, 6.38617855e-03, 8.73012934e-03,
       -9.03829653e-03, -1.38023794e-02, 3.16750305e-03, -6.81669079e-03,
       4.99940198e-03, 2.64504645e-03, -6.15587996e-05, 4.62902710e-03,
       -1.74667779e-02, -4.76139272e-03, 1.47480913e-03, 1.54486140e-02,
       -7.78124249e-03, 1.06876844e-03, 2.09898595e-02, -9.82831698e-03,
       1.29798716e-02, 2.11183378e-03, 1.95202243e-03, -2.05662288e-02,
       -9.20385029e-03, -1.03426725e-03, 2.10704654e-02, 1.18409247e-04,
       -7.85536971e-03, -5.14224498e-03, -5.22508565e-03,
       -8.97817314e-03, -9.17303190e-03, 1.50827109e-03, -9.26954090e-04,
       6.78386539e-03, -6.62130769e-03, -1.49823660e-02, 1.44517543e-02,
       1.14978915e-02, 6.35989755e-03, -1.67645067e-02, 4.03359579e-03,
       9.21253953e-03, 2.03788970e-02, 1.80700095e-03, -8.12931801e-04,
       1.30060117e-03, -1.18548879e-02, 1.50799779e-02, -1.36300735e-02,
       -1.68194296e-03, -4.93380846e-03, -7.85892922e-03,
       -8.62671807e-03, -6.05103467e-03, 3.94797511e-03, -9.26833879e-03,
       1.13771297e-02, -2.35498287e-02, -3.53804184e-03, 2.04595109e-03,
       -1.99442235e-04, 4.02125623e-03, -9.68741905e-03, 2.53389962e-02,
       5.96773112e-03, -4.42031398e-03, -1.79029498e-02, -5.28718671e-03,
       1.25973299e-03, 1.26075605e-02, 1.08834626e-02, -1.19987940e-02,
       2.02618893e-02, 4.01531905e-03, 5.80762094e-03, -1.32296644e-02,
       -3.90662858e-03, -1.26181692e-02, 1.37873078e-02, -4.24274523e-03,
       -9.96227097e-03, -3.51588242e-03, -1.54397031e-02,
       -1.65733020e-03, -1.28241153e-02, -4.95296204e-03,
       -4.40668687e-03, 6.65436499e-03, 9.03195515e-03, -1.98266469e-02,
       -1.79152447e-03, -1.05360178e-02, 2.96827476e-03, -3.69322277e-03,
       -2.28969324e-02, -1.45696253e-02, 3.82555416e-03, -1.05161313e-02,
       -7.80836446e-03, 1.90449208e-02, -5.72047988e-03, -8.23102612e-03,
       -9.00407974e-03, 5.62955812e-03, -9.23288520e-03, -8.71971715e-03,
       -8.93579703e-03, 2.84018135e-03, 1.84815731e-02, 1.03478329e-02,
       7.08383508e-03, 3.91788036e-03, 2.29711761e-03, -1.47234276e-02,
       -6.99449005e-03, -3.50762368e-03, 6.75116957e-04, 1.20217577e-02,
       -1.38615202e-02, -9.09770001e-03, -4.44530370e-03,
       -8.99326429e-03, -1.23352204e-02, -1.20300949e-02,
       -1.56690069e-02, -1.95947625e-02, -4.63268720e-03,
       -9.84065700e-03, -1.18111516e-03, 2.23159301e-03, 4.19167802e-03,
       -1.28339892e-02, -1.06005482e-02, -5.65654971e-03, 3.21602274e-04,
       1.08503178e-02, 1.29823983e-02, -1.57640246e-03, 4.17770492e-03,
       -2.69091222e-03, -2.47674007e-02, -9.55454446e-03, 6.63977768e-03,
       5.88385249e-03, -1.76858227e-03, 2.30096048e-03, 1.01919081e-02,
       3.30287730e-03, 6.77967630e-03, 3.39622749e-03, -2.44063884e-03,
       -1.88365094e-02, -1.66218784e-02, 5.65089006e-03, -1.04883416e-02,
       -1.08044790e-02, -1.21808341e-02, -6.02292735e-03,
       -1.50001673e-02, -4.09351522e-03, -2.88448296e-03, 6.56790566e-03,
       -5.61627047e-03, 5.66778751e-03, -2.14482620e-02, -8.10011011e-03,
       2.00540503e-03, -2.20219586e-02, -5.39274327e-03, -9.91928764e-03,
       -6.10006554e-03, 1.74588792e-03, -5.43566886e-03, -1.70099530e-02,
       -1.67639200e-02, 1.78399950e-03, 8.98273848e-03, -1.39639582e-02,
       -8.06546770e-03, -9.99516807e-03, 7.61505915e-03, -5.14009129e-03,
       -5.13336482e-03, -1.17654968e-02, 9.33203939e-03, 2.96703242e-02,
       8.05357844e-03, -1.49721550e-02, 3.98118189e-03, -4.20829700e-03,
       -3.56131792e-03, -8.78713734e-04, 7.76277203e-03, 1.02126729e-02,
       -2.22196579e-02, -1.90646388e-02, 1.08918929e-02, -7.34933047e-03,
       3.21012968e-03, -5.66018792e-03, 3.53410793e-03, -2.82518246e-04,
       8.07445683e-03, 7.16484478e-03, 9.71916132e-03, -7.90889189e-03,
       -4.29726392e-03, 4.93172323e-03, -6.16114633e-03, -1.63789764e-02,
       -8.21756478e-03, 1.24830557e-02, 1.42658409e-02, -6.58916892e-04,
       -3.12408269e-03, 1.60600133e-02, -1.00732902e-02, -2.69919895e-02,
       -1.21625327e-02, -1.44396881e-02, 6.63205795e-03, 8.43991619e-03,
       8.37921351e-03, -1.78917404e-02, 2.27467273e-03, 2.25380668e-03,
       -1.60200987e-02, -4.24115360e-03, -7.44601421e-04, 8.46927892e-03,
       4.23116796e-03, -1.15281073e-02, -1.97261776e-04, 5.27404808e-03,
       1.47723620e-06, -2.43034773e-02, 5.27267484e-03, -1.31688174e-02,
       5.83155314e-03, 7.55202433e-04, 1.31797316e-02, -8.18184577e-03,
       1.30315712e-02, 3.01732542e-03, -5.62302908e-03, -9.80142597e-03,
       -2.14927681e-02, -8.54234118e-03, 4.34901332e-03, -2.07303092e-03,
       9.90582816e-03, 1.09802494e-02, 8.72557051e-03, -4.27821884e-03,
       6.23969454e-03, -1.20928474e-02, 6.96438970e-03, 2.01355573e-02,
       9.48842615e-03, -6.00696448e-03, -1.47436594e-03, 1.15355197e-03,
       -4.69908118e-03, -1.04556617e-03, -1.00016249e-02,
       -1.11521855e-02, -6.79471577e-03, -1.01718241e-02, 1.73069409e-03,
       -1.99885690e-04, 1.17284134e-02, 1.09962095e-02, -2.02675313e-02,
       -8.56001768e-03, -1.09323172e-03, 6.53075520e-03, -5.79989795e-03,
       -1.52625665e-02, -1.25745516e-02, 2.58077383e-02, -3.92250437e-03,
       9.28810518e-03, -2.50719860e-02, -3.20212245e-02, -2.87906397e-02,
       -2.34524887e-02, -7.81766418e-03, -1.83938257e-02, 1.31126791e-02,
       -3.28977779e-03, 1.96995325e-02, -1.72897018e-02, -6.47813641e-03,
       -8.59667640e-03, -1.59948021e-02, -1.21460101e-02,
       -5.69544220e-03, 1.00076180e-02, -2.53467355e-03, 1.81297138e-02,
       -1.35995476e-02, -1.81955323e-02, -3.19199041e-02,
       -2.37784218e-02, 5.56444936e-03, 1.87349338e-02, 3.19415927e-02,
       2.69039776e-02, 1.15832603e-02, -5.35783963e-03, 9.98052768e-03,
       -2.65823421e-03, -9.39282496e-03, -1.57601405e-02,
       -1.56571344e-02, -1.08057272e-03, -1.27393603e-02, 1.07037937e-02,
       -7.45409168e-03, 4.47373884e-03, 7.59014860e-04, -1.18928906e-02,
       5.07666217e-03, 6.44442486e-03, 1.53474584e-02, -8.87734350e-03,
       -1.73346624e-02, -8.81538913e-03, -1.56494286e-02, 1.99018838e-03,
       8.17338284e-03, 6.35290099e-03, 4.62509599e-03, 6.56246627e-03,
       -1.19155867e-03, 2.54764501e-03, -1.08620999e-02, 1.46954705e-03,
       3.60941136e-04, 1.10617476e-02, 2.90781230e-04, 4.74747829e-03,
       -7.95098767e-03, -5.97440870e-03, 9.90570150e-03, 1.72270816e-02,
       -2.10063774e-02, -7.54339912e-04, 3.51332105e-03, 6.27095439e-03,
       1.81659330e-02, 1.52845373e-02, 2.63661542e-03, -1.52527494e-02,
       7.52156973e-03, 7.58628314e-03, 2.55042640e-03, 4.88496036e-04,
       -6.16404880e-03, 1.11337146e-03, -2.37956760e-03, 9.10889648e-04,
       -1.74589343e-02, 3.72917927e-03, 9.40575171e-03, -5.01420116e-03,
       -9.33325756e-03, -5.35584521e-03, 9.10011865e-03, 4.12489148e-03,
       2.02018674e-03, -4.53265104e-03, 5.77752292e-03, -9.48450621e-03,
       -7.56462384e-03, -6.01078849e-03, -6.70606410e-03,
       -9.59273987e-03, 5.53735485e-03, 1.87007431e-02, 8.36304203e-03,
       -1.48852507e-03, 7.95355905e-03, -1.76240592e-05, -3.50314868e-03,
       1.00832293e-02, 8.99339095e-03, 2.19036196e-03, 1.16300378e-02,
       -1.10703707e-02, 5.07263606e-03, 1.15727885e-02, 6.50890451e-03,
       8.58849660e-03, 1.65005736e-02, -3.32258735e-03, -1.14159510e-02,
       -1.79548608e-03, -1.96342748e-02, -6.18386734e-03, 7.57236339e-05,
       -8.78473464e-03, 1.02758072e-02, 1.57064851e-02, 1.01051554e-02,
       4.74323751e-04, 7.13926135e-03, -5.48957754e-03, 3.13767907e-03,
       1.40435621e-02, 1.88261140e-02, 4.37374320e-03, 5.15730446e-03,
       -9.50661581e-03, 8.71359836e-03, 5.08821616e-03, 2.69878525e-02,
       4.58462443e-03, 7.51407025e-03, -5.68173360e-03, 4.97359224e-03,
       1.45098381e-03, 9.89495195e-04, -5.78411389e-03, -5.14871487e-03,
       8.46321127e-05, 1.71305938e-03, 7.76003767e-03, 2.56098370e-04,
       9.08033829e-03, -5.10485331e-03, 7.37757608e-03, 3.13785230e-03,
       -8.18967912e-03, -5.99018671e-03, -4.91475407e-03,
       -3.66149540e-03, -9.15540941e-03, -4.50606644e-03,
       -3.00548449e-02, -7.03350548e-03, -3.02791595e-03,
       -1.50380908e-02, 3.33909993e-03, 8.89204501e-04, 6.05866918e-03,
       -1.07427416e-02, -1.13036940e-02, 8.58856190e-04, 5.29650738e-03,
       8.91389977e-03, 2.08631810e-02, -1.70956389e-03, -1.17327329e-02,
       -1.56578310e-02, -3.94341582e-03, 1.25213861e-02, -9.92557500e-04,
       2.12702136e-02, 1.27598913e-02, -1.35326693e-02, 6.48201630e-03,
       5.31935878e-03, 1.31637966e-02, 7.10567739e-03, 4.88801021e-03,
       -1.04052201e-02, 1.17453299e-02, 2.10823840e-03, -2.74107251e-02,
       -1.36975553e-02, -1.61841232e-02, -8.96467920e-03, 2.47217226e-03,
       1.93493918e-03, -2.89534661e-03, -8.81772395e-03, 7.97135197e-03,
       1.43012020e-03, 1.02670798e-02, -1.53673608e-02, 6.41528983e-03,
       2.70228763e-03, -1.06192121e-04, 1.74394101e-02, 1.70654468e-02,
       2.20190715e-02, -1.14328247e-02, -3.32082412e-03, -2.68606264e-02,
       -8.89163278e-03, -1.20027235e-03, 2.44716462e-02, 4.03150218e-03,
       1.50395725e-02, 1.73423637e-03, -4.29282943e-03, 3.78667656e-03,
       6.39878563e-04, -9.32022091e-03, 1.01251882e-02, 8.30951612e-03,
       -3.08909337e-04, 1.19330001e-03, -2.07323275e-04, -1.64529011e-02,
       -8.86529975e-04, 4.08637756e-03, -4.98682354e-03, -4.62278724e-03,
       2.70462106e-03, 1.34079112e-02, 5.24515007e-03, -8.70904606e-03,
       -1.03425188e-02, 1.30871963e-02, -9.46209300e-03, 8.67271865e-06,
       8.90859310e-03, 2.03352403e-02, 3.01554240e-03, 8.76596384e-03,
       3.07107996e-03, -8.56290199e-03, -1.59999058e-02, 5.09588397e-04,
       5.15473308e-03, -6.09659219e-05, 7.67277926e-03, -1.94838515e-03,
       1.18107367e-02, 3.28192720e-03, -1.27654523e-02, 1.31866196e-02,
       3.54621909e-03, -1.26292389e-02, -1.76998321e-02, -1.08444961e-02,
       2.63974536e-03, -6.24126464e-04, -3.85765382e-03, -1.36715546e-02,
       2.94156233e-03, -1.18980743e-02, -9.88338329e-03, -1.41175231e-02,
       -2.06747446e-02, 3.15014180e-03, 2.27076598e-02, 4.15446050e-03,
       -2.30798003e-04, 1.20526664e-02, 1.39670372e-02, 1.03679374e-02,
       -6.81886170e-03, 3.55021749e-03, 1.37497307e-04, 1.67632487e-03,
       -1.04418164e-02, -8.73277616e-03, -3.18599939e-02,
       -3.98324756e-03, 1.98320812e-03, 1.16533889e-02, 4.84586181e-03,
       -1.03744268e-02, -4.52566985e-03, 5.97848417e-03, -1.23063996e-02,
       2.88972259e-03, -2.96426788e-02, -1.19118067e-02, -1.68747585e-02,
       -2.42741592e-02, -1.74530770e-03, 5.05698007e-03, 1.75907405e-03,
       -1.43215135e-02, 5.81999961e-03, -1.36069031e-02, -3.30243330e-03,
       -1.48334252e-02, -1.95332151e-02, -8.81547015e-03,
       -1.15649472e-03, 3.14558996e-03, -8.30466859e-03, 1.32829482e-02,
       -7.30017340e-03, 2.91710370e-03, 1.64796282e-02, 5.93039161e-03,
       -8.78894329e-03, 4.77801543e-03, 1.15390019e-02, -1.68048609e-02,
       -4.84895846e-03, -1.19631533e-02, 1.10055778e-04, 4.86532645e-03,
       -6.17260905e-03, -1.28691820e-02, 2.45929160e-03, -1.00691002e-02,
       -1.56118646e-02, 2.40321439e-02, -9.64064151e-03, -3.85033246e-03,
       -8.30011722e-03, -1.45509327e-02, -1.98833179e-03, 9.97848064e-03,
       1.22923972e-02, -1.61068868e-02, 9.50644724e-03, -1.36577403e-02,
       -5.96403889e-03, -1.04394518e-02, -1.13115776e-02,
       -1.13915056e-02, -4.34984826e-03, -6.28054002e-03,
       -1.15096159e-02, 6.27459539e-03, -1.32495658e-02, -2.19236361e-03,
       4.22475906e-03, -7.61806779e-03, 3.03138848e-02, 1.96199771e-03,
       1.35478768e-02, -1.92717351e-02, -1.29553089e-02, -2.39152312e-02,
       2.55555916e-03, -5.75972348e-03, 8.58588424e-03, -1.60935465e-02,
       1.05715301e-02, 3.32092238e-03, -2.87437383e-02, -1.77870076e-02,
       -9.24105290e-03, 6.54481119e-03, 4.90204711e-03, -2.02219002e-02,
       -1.68451760e-02, 5.38936770e-03, -6.00470044e-03, -1.60186682e-02,
       -9.75033548e-03, 2.35646847e-03, -8.59606313e-04, 3.80120287e-03,
       -1.20629929e-02, -1.19835360e-03, 1.41390348e-02, 1.30458036e-03,
       -3.09849791e-02, -8.23907182e-03, -9.30020399e-03, 1.66523959e-02,
       1.16652334e-02, -2.19635405e-02, 3.08556645e-03, 7.57506303e-03,
       2.11302936e-03, 2.34214379e-03, -6.23274082e-03, -2.80840136e-03,
       -9.97020211e-03, 3.10345925e-03, -1.18674757e-02, -1.13200378e-02,
       1.33804502e-02, -5.44814672e-03, -1.53501080e-02, -1.35666821e-02,
       3.02651362e-03, -6.51824987e-03, -8.60675145e-03, -7.71962572e-03,
       -6.93968916e-03, -4.91261622e-03, -1.18922275e-02,
       -7.03364145e-03, 5.59068983e-03, 1.35716572e-02, 1.02737034e-02,
       7.83760683e-04, -4.10193019e-03, 1.80425663e-02, 2.51096282e-02,
       6.36938587e-03, -1.29346065e-02, -1.00166602e-02, -1.85322221e-02,
       -1.46164084e-02, 1.31573644e-03, -2.30326899e-03, 1.26857916e-02,
       1.44756837e-02, -4.96279215e-03, -1.28223673e-02, -4.90852399e-04,
       1.90740521e-03, 7.08958134e-03, -1.14369942e-02, -8.19356181e-03,
       -1.24813840e-02, -3.60172451e-03, 3.17089120e-03, -7.52671761e-03,
       8.83247796e-03, 9.13181156e-03, 1.41889388e-02, -2.43920877e-04,
       -1.60877798e-02, 8.57678987e-03, 1.13081234e-02, -4.67740884e-03,
       3.99860460e-03, -2.15556094e-04, -1.47250565e-02, 7.52287859e-04,
       -5.77146513e-03, 2.00975407e-03, 2.02210024e-02, 1.11282934e-02,
       -1.16542559e-02, -1.20105427e-02, -3.06482147e-03, 7.79982423e-03,
       1.44793335e-02, -1.70352366e-02, 1.46558248e-02, 5.46974875e-03,
       -6.80989958e-03, -1.09637994e-02, 1.63630557e-05, -6.91826316e-03,
       -9.80903767e-03, -7.12124119e-03, -2.52049360e-02,
       -1.19992141e-02, 6.62297430e-03, 1.78305972e-02, -5.35496371e-03,
       7.03287963e-03, 2.75111087e-02, -6.89349649e-03, 2.28539319e-03,
       1.07771531e-02, 1.51005145e-02, -1.68071501e-02, 7.17172585e-03,
       -1.78014562e-02, 4.30447888e-03, -2.25225021e-03, -7.35788420e-03,
       -7.24706007e-03, 8.26675259e-03, -7.80738716e-04, 1.02098947e-02,
       -1.26561441e-03, -3.39622842e-03, -3.09017603e-03,
       -9.00398288e-03, -8.95350240e-03, 5.38961869e-03, -1.48757135e-05,
       1.62140019e-02, 1.30815078e-02, -1.23927370e-02, -2.03072019e-02,
       4.01952304e-03, -1.40809137e-02, -1.52139533e-02, -1.25477500e-02,
       2.19766679e-03, 2.34969817e-02, 8.00686982e-03, 9.97863617e-03,
       -6.81902515e-03, 2.94730137e-03, -2.43851496e-03, 3.68461176e-03,
       -3.90523521e-04, 9.93694272e-03, 7.94930384e-03, 3.04042604e-02,
       1.06593072e-02, 5.63692907e-03, 6.15652185e-03, 7.14837248e-03,
       9.18728299e-03, 3.73058999e-03, 4.07742197e-03, 1.40344352e-02,
       -6.10180851e-03, 3.17252270e-04, -1.39291100e-02, 5.56049490e-05,
       5.94679406e-03, 3.08868638e-03, 1.38064586e-02, 2.08787415e-02,
       1.78458076e-02, -1.51375327e-02, -3.66302603e-03, 5.26771229e-03,
       1.13166114e-02, -1.57442607e-03, 2.79085222e-03, 1.00970296e-02,
       -3.56356916e-03, -2.83750962e-03, 1.88218057e-02, 4.35281871e-03,
       2.83147674e-03, -1.20284548e-02, -5.00748632e-03, -3.84658878e-03,
       5.46049466e-03, 5.63506782e-03, 2.08448619e-02, 1.77335590e-02,
       -5.86551474e-03, 1.18699139e-02, -1.51349022e-03, 7.72530632e-03,
       -1.22054191e-02, -5.10022370e-03, -3.13227507e-03, 1.95830110e-02,
       1.41283190e-02, 6.31110801e-04, 1.02681937e-02, -4.36512101e-03,
       -1.20376851e-02, -1.68349117e-03, 2.84402794e-03, -1.40635036e-02,
       7.83629064e-03, -5.78210270e-03, -1.15265055e-02, 5.96227497e-03,
       1.53666930e-02, 3.48544307e-03, 5.49124321e-03, -1.06251501e-02,
       -1.06590027e-02, 7.72996154e-03, 1.20402118e-02, 6.77619013e-04,
       1.88770536e-02, 3.20936018e-03, 4.06352803e-03, 2.71421252e-03,
       1.17756249e-02, 2.59925565e-03, 9.15289856e-04, 8.56739096e-03,
       9.83544346e-03, 2.92714853e-02, 6.41363766e-03, 1.76110631e-03,
       -8.71862564e-03, 1.29730292e-02, 2.35657184e-03, -9.82456468e-03,
       -3.25458171e-03, -2.57067312e-03, 4.15345933e-03, 5.14114695e-03,
       2.04944927e-02, 3.07766488e-03, -6.23099646e-03, -7.62381358e-03,
       -1.22318109e-02, 4.70974995e-03, 5.25893178e-04, 3.83542944e-03,
       2.40316950e-02, -1.25937881e-02, -5.61907049e-03, -2.72826408e-04,
       2.38802066e-04, -7.01594399e-03, 8.38650484e-03, 5.24162082e-03,
       1.42108696e-02, 1.15246419e-03, -2.25244220e-02, -1.02186119e-02,
       6.37958851e-03, -1.60207432e-02, -4.22421331e-03, 2.34964713e-02,
       -1.30843483e-02, 2.53321044e-02, 8.46003555e-03, 9.13075730e-03,
       2.61447467e-02, 1.93033635e-03, -5.17777586e-03, 1.02100577e-02,
       1.70765482e-02, -1.67170554e-04, 1.83617156e-02, 1.75209418e-02,
       -2.16730013e-02, 6.87049236e-03, 1.56101938e-02, 9.22186021e-03,
       1.97821553e-03, 1.30765531e-02, -1.69636849e-02, 1.46366889e-02,
       2.65290774e-03, 3.49735771e-03, 1.67164300e-02, 2.25743148e-02,
       8.56830180e-03, 1.31422905e-02, 1.64495909e-03, -9.77490749e-03,
       1.30201168e-02, -5.09665208e-03, 1.69808482e-04, 7.13120680e-03,
       6.17235666e-04, 2.66717235e-03, -1.66506565e-03, 6.73586212e-04,
       -2.21258923e-02, -1.08050872e-02, -4.43272945e-03, 5.56590734e-03,
       4.38092044e-03, 6.16647163e-03, 5.39181347e-04, 1.34387659e-03,
       -5.37049212e-03, -6.48402283e-03, 9.67867265e-04, -3.65460874e-03,
       5.62015735e-03, -1.24401189e-02, 6.17605168e-03, 1.80165842e-02,
       9.34788585e-03, -7.73256551e-03, -3.57477693e-03, -1.96974874e-02,
       8.60072486e-03, -1.45306659e-03, 2.75235914e-04, 2.23820074e-03,
       2.97474815e-03, -5.46479179e-03, -8.73997994e-03, -2.92488951e-02,
       -5.48142334e-03, -1.02274520e-02, -1.51889948e-02,
       -6.47892756e-03, 1.18675148e-02, 3.93038237e-04, -1.05183832e-02,
       6.95729069e-03, -2.67759687e-03, 1.11671779e-02, 1.35256518e-02,
       -1.31872352e-02, 4.42155916e-03, 1.17994323e-02, -3.98389995e-03,
       5.76328859e-03, -1.80015583e-02, -9.51658655e-03, -5.26779657e-03,
       -3.29553615e-03, -4.78340499e-03, 6.16477709e-03, 5.55927679e-03,
       -1.85535091e-03, -2.52685789e-02, -7.62620289e-03, 9.01738182e-03,
       -2.97510950e-03, -5.55391144e-03, 6.67146361e-03, 2.43844377e-04,
       -9.92553681e-03, -1.66838747e-02, -1.57535858e-02,
       -2.43448261e-02, -5.70322247e-03, -1.95160077e-03, 4.29497706e-03,
       -4.18282114e-03, 8.81738774e-03, -1.00177713e-02, -9.78155993e-03,
       -1.59262102e-02, -4.57320176e-03, 7.91299623e-03, 2.05884608e-05,
       -5.94637182e-04, 2.74220873e-02, 1.89083293e-02, 1.63209811e-03,
       4.23368672e-03, -2.41690222e-03, -2.63323169e-02, -4.02785325e-03,
       -1.40649220e-02, -2.62712711e-03, -3.02484166e-02, 6.68408116e-04,
       -8.77363142e-03, -4.33746399e-03, -2.08310205e-02,
       -2.84683122e-03, 1.88464243e-02, 2.88259028e-03, -1.14914968e-04,
       -6.51011767e-04, 9.44426574e-04, 4.33360878e-03, 1.43450378e-02,
       -2.35119092e-04, -1.47056747e-02, 2.09627859e-03, -5.15226182e-03,
       -2.32336167e-02, 5.67248976e-03, 1.43465993e-04, 1.51257077e-02,
       -2.55867373e-03, -6.53418805e-03, -1.12063810e-02,
       -6.48192689e-03, -1.16116703e-02, -1.66751593e-02,
       -5.68007538e-03, -2.17634682e-02, 2.36701630e-02, 9.66323260e-03,
       -4.40548314e-03, -4.76208469e-03, 8.91160499e-03, 4.57218755e-03,
       -2.50636376e-02, -7.46031851e-03, -4.52347100e-03, 9.35130846e-03,
       5.02088852e-03, -7.10452115e-03, 9.78240394e-04, -4.99513373e-03,
       3.77760245e-03, -8.25749652e-04, -2.55207531e-04, -1.66073628e-02,
       1.13390405e-02, 4.34444565e-03, 2.18082615e-03, 1.51150650e-03,
       3.60440789e-03, -4.95024549e-04, 1.35043208e-02, 6.02990994e-03,
       -1.12883393e-02, 3.44166672e-03, -8.75954702e-03, 7.70992786e-03,
       5.41862217e-04, 9.78155807e-03, 1.88254751e-02, 1.05038416e-02,
       -9.08139348e-03, -1.74459424e-02, -2.40902440e-03,
       -8.40862002e-03, -5.20268548e-03, -2.79402151e-03,
       -1.05803255e-02, -1.52843783e-03, 6.33875560e-03, 2.08822242e-03,
       -1.67178400e-02, -1.22366124e-03, -5.92762232e-03, 3.64078116e-03,
       2.03809678e-03, -4.31041699e-03, 1.11085232e-02, 8.93767644e-03,
       -3.01807560e-03, -9.38736461e-03, -1.43801924e-02,
       -7.00870296e-03, 4.42153029e-03, -1.04020452e-02, -1.18515510e-02,
       -2.67612329e-03, -7.11420318e-03, 1.83912478e-02, -6.64554583e-03,
       -1.44769661e-02, -3.47780362e-02, -3.02525051e-02,
       -1.51692936e-02, 1.21342959e-02, 2.36956105e-02, 4.95542912e-03,
       7.39159947e-03, -5.21328859e-03, 7.93514948e-04, -1.89311039e-02,
       -3.20295393e-02, 2.27827812e-03, -1.21865170e-02, 2.35985708e-03,
       -1.08397482e-02, 4.71913256e-03, -2.36336756e-02, -2.62298454e-02,
       -3.09589747e-02, -2.21367646e-02, -6.11669291e-03, 1.34941833e-02,
       1.56732481e-02, -5.83247188e-03, 1.37850912e-02, -2.94537353e-03,
       -8.97239987e-03, -9.85819753e-03, -2.30994765e-02,
       -9.80955549e-03, 9.74421110e-03, 7.73223722e-03, -6.00924902e-03,
       -8.86717637e-04, 9.12825708e-05, 8.72020330e-03, 4.46379744e-03,
       -1.62157547e-02, -1.35551402e-02, -3.14269238e-03,
       -6.80699479e-04, -5.15346241e-04, 1.75774116e-02, 1.23983352e-02,
       -2.85783131e-03, 5.52097196e-03, -1.22695528e-02, -2.03033071e-02,
       -2.53322930e-03, 6.85858680e-03, -9.35283862e-03, 1.31813539e-02,
       -4.00301907e-03, -7.47385481e-03, -2.16068397e-03,
       -2.07353719e-02, 8.21254682e-03, 1.24848459e-03, -2.38051987e-03,
       8.75915680e-03, -4.99727466e-05, -8.17573350e-03, -4.16003028e-03,
       -1.60255365e-03, -1.65261924e-02, 7.52060302e-03, -3.58749391e-03,
       8.22665263e-03, 6.87770592e-03, -4.15827660e-03, 9.68828425e-03,
       -9.25875560e-04, 4.45494661e-03, 7.05166999e-03, 8.86970013e-03,
       -4.97236522e-03, 1.77166762e-03, 2.72085238e-03, -1.28413998e-02,
       -2.40929029e-03, 3.94708244e-03, -3.25212860e-03, 3.88420164e-03,
       -6.46547368e-03, 3.23024276e-03, -1.18901832e-02, -2.22878624e-03,
       -2.03703605e-02, -3.59249720e-03, 7.03657186e-03, 6.04107045e-04,
       -5.05248364e-03, 8.26653931e-03, 1.07341353e-02, 3.12347384e-03,
       5.88702457e-03, 3.67655009e-02, -1.06042940e-02, -8.90282262e-03,
       -8.09751544e-03, 2.39669974e-03, 2.44781878e-02, 1.36047481e-02,
       2.67235730e-02, 1.77752189e-02, 6.33119652e-03, 6.57771900e-03,
       1.15914373e-02, 8.40640254e-03, 8.61396547e-03, -1.52815611e-03,
       6.13940088e-03, 1.41484421e-02, 6.86139753e-03, -1.36445630e-02,
       -1.26157263e-02, -1.61705203e-02, -6.37690257e-03,
       -7.27097457e-03, 1.56149119e-02, 1.77571960e-02, 7.32126005e-04,
       -8.06347234e-04, 3.05093941e-03, -8.06600507e-03, -1.27626108e-02,
       -3.45353433e-03, 2.11828877e-03, 2.49400586e-02, 1.53091401e-02,
       1.37086222e-02, 2.07403675e-02, 1.57011207e-02, -1.56304073e-02,
       -2.46736314e-02, -1.29552847e-02, 5.72610786e-03, -5.36583643e-03,
       5.73554588e-03, 1.15888556e-02, 7.19066570e-03, 6.69728778e-03,
       2.54548830e-03, 4.12095796e-05, -3.99708236e-03, 9.01078060e-03,
       -5.57240797e-03, -2.62305257e-03, 1.47368497e-04, 2.80331485e-02,
       -1.48085402e-02, 4.77794511e-03, -3.97896720e-03, 9.69681516e-03,
       1.36469537e-02, 1.36157041e-02, 1.09154927e-02, -1.94642972e-02,
       1.41385458e-02, 7.00550620e-03, -6.38121553e-03, -6.11785054e-03,
       -1.02050640e-02, 7.16786180e-03, 1.75968949e-02, 1.87203083e-02,
       8.88982974e-03, 1.47498231e-02, -2.78486544e-03, 2.32726059e-04,
       -1.04824165e-02, -8.38316325e-03, 1.40048396e-02, -1.02763558e-02,
       8.78528785e-03, 1.71994288e-02, 2.81879324e-02, 1.77503526e-02,
       1.10502332e-03, 3.43340542e-03, 8.38009734e-03, -2.52182508e-04,
       -1.14268372e-02, 1.31900497e-02, 1.04731442e-02, -1.35783653e-03,
       1.49458982e-02, -1.44028710e-02, -5.70057251e-04, -6.52799150e-03,
       -6.76174834e-03, -8.74891691e-03, -2.99690920e-03, 2.59202439e-03,
       -1.60481874e-03, -6.03262009e-03, 7.25156278e-04, -3.42168217e-03,
       -6.87828241e-03, -4.89790970e-03, 1.29454983e-02, 1.11975390e-02,
       6.86786510e-03, 5.68197249e-03, 6.07237546e-03, -3.98865901e-03,
       -9.72518045e-03, -1.22470744e-02, 2.38441350e-03, -3.38268490e-03,
       1.35021014e-02, -4.09469561e-04, -2.40921602e-03, 2.17641294e-02,
       -2.58830539e-03, 1.27090223e-03, -7.84820470e-04, -6.19208440e-03,
       -5.87195856e-03, -1.85620994e-03, -9.63704847e-03,
       -1.47016719e-04, 6.51431875e-03, 7.15723145e-04, -6.43005501e-03,
       -8.14023428e-03, -3.40311369e-03, 1.46698961e-02, 9.39007010e-03,
       2.14649760e-03, -5.85326413e-03, 9.41942632e-03, 1.55889324e-03,
       -3.24811484e-03, -1.16614187e-02, 1.33224437e-02, 2.29927544e-02,
       1.38808098e-02, 1.26272137e-03, 1.14381360e-02, -6.50859496e-04,
       -5.40998019e-03, -2.09561270e-02, -7.26629142e-03, 2.87068672e-02,
       -4.88105370e-03, 5.24312770e-03, 4.79542324e-03, 4.55889525e-03,
       9.30881687e-03, 2.55051721e-03, -1.15024801e-02, -1.10285608e-02,
       -8.39774869e-03, 1.46940062e-02, 1.95999574e-02, -7.21260579e-03,
       1.47500221e-04, -1.13080186e-03, 2.82435707e-04, -1.36620663e-02,
       -4.20774939e-03, 8.31670768e-04, 3.80601152e-03, -7.52330478e-03,
       -1.37148639e-02, 4.85864468e-04, 2.42774356e-02, 1.97916338e-03,
       -6.40588813e-03, 2.83761672e-03, 9.54894349e-03, 7.24474154e-03,
       1.69218685e-02, -1.60901621e-02, 4.33931127e-04, -1.49588343e-02,
       3.12039163e-04, -6.03918405e-03, 2.49211234e-03, -9.47351102e-03,
       -4.06158855e-03, 5.70731284e-03, -7.42324442e-03, -5.16339811e-03,
       1.42826850e-03, -1.10920426e-02, -1.05615240e-02, -9.32689384e-03,
       1.22482539e-03, -1.36164762e-02, -1.02082304e-04, -3.22342152e-03,
       -9.25368536e-03, -3.84086464e-03, -1.36821931e-02, 2.47310055e-03,
       2.61410861e-03, -1.41517166e-02, 1.84430499e-02, 1.56669170e-02,
       -1.08839301e-02, -4.01029689e-03, -4.37222514e-03,
       -1.58745726e-03, -6.95984811e-03, -7.93391373e-05, 1.34199606e-02,
       1.63518004e-02, -3.13397776e-03, -2.53294758e-03, 1.05615202e-02,
       -1.43309617e-02, -2.00614985e-02, -8.32973234e-03, 7.74587132e-03,
       1.39709134e-02, -7.55628338e-03, 3.43887368e-03, -4.72427142e-04,
       -2.90730153e-03, -1.31003670e-02, -1.45448577e-02,
       -2.43851775e-03, 1.08474458e-03, -1.38050914e-02, -2.57515698e-03,
       2.26663845e-03, 4.21926146e-03, -3.37021379e-03, -2.94000357e-02,
       -1.80621650e-02, -9.76439007e-03, -1.35034313e-02,
       -2.91569028e-02, 1.93681121e-02, 8.92533176e-03, 5.63564943e-03,
       6.85609458e-03, -1.60761867e-02, -1.78419799e-02, 3.08260368e-03,
       1.63074769e-02, 8.83120112e-03, 2.69514602e-02, 2.27453507e-04,
       -1.25846080e-03, -2.14140788e-02, -2.67059486e-02,
       -6.64649392e-03, 1.09947240e-03, 5.52238571e-03, 3.27999704e-03,
       -5.96468383e-03, 2.28135241e-03, -9.52892285e-03, -9.98878106e-03,
       -1.10187056e-03, -9.05944593e-03, -3.80780548e-04, 7.97322020e-03,
       -2.76287645e-02, -1.51256016e-02, -1.59046724e-02,
       -2.46463008e-02, 1.87733658e-02, 5.75157069e-03, 1.21970999e-03,
       3.64665734e-03, 1.30759098e-03, -2.20289249e-02, 1.71263535e-02,
       7.14052049e-03, -5.99010568e-03, -1.57838073e-02, -1.12748025e-02,
       -6.65301085e-03, 1.13338875e-02, 8.63349997e-03, 4.93857544e-03,
       -7.77351263e-04, -5.79159893e-03, -1.45749254e-02, 3.16469045e-03,
       -1.12619810e-02, -8.04951880e-03, 1.56105915e-02, 8.56597815e-03,
       1.86257972e-03, -7.18315644e-03, 6.64544757e-03, -1.73464045e-02,
       1.78133033e-03, -8.12494662e-03, -1.21492827e-02, -6.69869455e-03,
       -5.53674065e-03, -1.73859820e-02, 5.72769111e-03, 1.31125264e-02,
       -1.49091017e-02, -1.04146125e-02, 1.47334663e-02, 1.84631336e-03,
       2.10323487e-03, -4.35415283e-03, -1.89329982e-02, -5.50390407e-03,
       3.59129976e-03, -7.69101782e-03, 4.12586564e-03, -4.31016227e-03,
       4.63833706e-03, 2.84769665e-02, 2.30602901e-02, -9.16312390e-04,
       -1.27967913e-02, -1.36405164e-02, -1.58671550e-02,
       -2.05401219e-02, -1.50913727e-02, 2.14958545e-02, 4.07464802e-03,
       -3.62044550e-03, -2.50564376e-03, 6.05437765e-03, 1.26460949e-02,
       -1.56503741e-03, -1.00025311e-02, 2.72837887e-03, 5.72660938e-03,
       6.31948328e-03, -2.11898913e-03, 8.36800551e-04, -8.47490097e-04,
       2.45708809e-03, 2.93583842e-03, 7.33139052e-04, 2.09177891e-03,
       4.51670820e-03, 1.63123955e-03, -6.56700414e-03, -6.70457724e-04,
       -9.02358908e-03, -1.21770324e-02, -1.78261306e-02,
       -2.40414646e-02, -9.40460805e-03, 1.00723915e-02, 2.64114700e-03,
       -2.69421772e-03, 8.76681693e-03, -8.38442519e-03, -5.44135459e-04,
       -1.67160307e-03, -1.09716477e-02, -1.96243692e-02, 2.97605875e-03,
       5.00839297e-03, 8.68939608e-03, 2.06202213e-02, 1.40861999e-02,
       3.63336131e-03, 1.41734127e-02, 3.27415112e-03, -4.98184282e-03,
       1.41389319e-03, -3.20884492e-03, -1.31257565e-03, 1.05466191e-02,
       -2.82665598e-03, -4.21420718e-03, 2.40391400e-03, 1.23217786e-02,
       -6.67462638e-03, -3.96340212e-04, -1.80440284e-02,
       -7.32987886e-04, 1.39043154e-02, 8.48061685e-03, 3.50897107e-03,
       6.65091258e-03, -4.33536666e-03, -1.17455171e-02, 1.96836353e-03,
       1.31095783e-03, 1.23785222e-02, 3.09493244e-02, -5.27855591e-04,
       -1.93687882e-02, 1.05321053e-02, 5.53879188e-04, -8.91154539e-03,
       -1.86102353e-02, -1.44914640e-02, -7.10218213e-03, 1.95381362e-02,
       -1.49197523e-02, -7.56515935e-03, -1.33987516e-02, 1.17446063e-02,
       1.72880124e-02, 4.08518780e-03, 1.04222624e-02, 1.71160828e-02,
       -3.81948357e-03, -1.19379135e-02, 2.05321179e-04, 1.84206350e-03,
       1.06671387e-02, 1.04935169e-02, 5.17703826e-03, 1.57271195e-02,
       -4.89051687e-03, -8.86387657e-03, -9.63383261e-03,
       -7.48073729e-03, -4.85391403e-03, -5.31732244e-03, 5.13341371e-03,
       2.91651441e-03, 1.09456889e-02, 3.03217606e-03, -6.36929320e-03,
       -2.27920315e-03, -8.92853178e-03, -6.21314812e-03, 1.50273312e-02,
       7.33317621e-03, 1.07882535e-02, -1.42225213e-02, 3.37168528e-03,
       -7.43510853e-03, 9.74250305e-03, 8.13250314e-04, 4.25184891e-03,
       7.94835563e-04, -6.40943041e-03, 1.03181824e-02, 1.23472847e-02,
       -3.77164548e-03, 2.48437887e-03, 2.45342939e-03, -1.07613001e-02,
       -5.78519749e-03, -1.49196817e-03, -4.52843448e-03, 1.27715943e-02,
       7.73046911e-03, -3.99825076e-04, 2.81126122e-03, 1.22521268e-02,
       -1.93556526e-03, -1.72041114e-02, -7.76504446e-03,
       -9.33018792e-03, 3.82537534e-03, -7.27081159e-03, 8.58137850e-03,
       5.13154175e-03, 8.42005946e-03, 1.30864205e-02, -1.48747349e-03,
       -4.96521126e-03, -2.03003753e-02, -1.70368124e-02,
       -8.52369238e-03, -5.47217787e-04, 1.12368474e-02, 2.86191166e-03,
       -9.00168996e-03, -7.90911540e-03, 3.54139833e-03, -1.48005667e-03,
       7.90397171e-03, 3.26489471e-03, 4.09501186e-03, 6.29793759e-03,
       4.52561158e-04, -7.77714129e-04, -2.71029235e-03, -1.94437453e-03,
       -2.20230278e-02, 6.73667016e-03, 6.08549279e-04, 1.98068824e-02,
       7.68216047e-03, 1.16804976e-03, -1.46982929e-04, -4.71235020e-03,
       3.63756903e-03, -5.59130404e-03, 1.18790269e-02, -3.33640521e-04,
       1.64425455e-03, 3.07232770e-03, -4.37010964e-03, -8.13463982e-03,
       3.60998069e-03, 4.07198025e-03, 2.78675230e-04, 8.41416698e-03,
       1.66175910e-03, -5.44394413e-03, -1.88192469e-03, 2.75229779e-03,
       6.67458819e-03, 7.27126142e-03, 3.48260021e-03, -2.23417431e-02,
       -4.77923453e-03, 4.10472695e-03, 6.60695089e-03, 7.81773310e-03,
       1.09820883e-03, -1.07029900e-02, 1.26583176e-02, 2.44955742e-03,
       -2.04785960e-03, 1.99502166e-02, 1.45749096e-02, 4.38547134e-03,
       2.12622192e-02, -5.36950445e-03, 3.64220841e-03, -1.33373542e-04,
       -1.40337376e-02, -1.10507533e-02, 6.66461885e-03, -3.03007476e-03,
       -1.29803014e-03, -7.02553475e-03, -1.50294164e-02, 1.18075488e-02,
       1.03404056e-02, -4.62867273e-03, -1.32426824e-02, 1.57913920e-02,
       2.76476517e-03, -2.14182530e-02, -1.21610491e-02, -1.85825117e-02,
       -3.45665938e-03, 1.00958592e-03, 5.54313825e-04, -2.42020586e-03,
       -1.08481059e-02, -3.83778475e-03, 3.98140587e-03, -2.08422448e-03,
       -5.40846493e-03, 4.89940681e-03, -3.35623906e-03, -1.33958308e-03,
       -1.56984979e-03, -6.76557422e-03, 1.01849958e-02, -1.06522702e-02,
       8.37195292e-03, -1.98831819e-02, 4.37549315e-03, 3.98256537e-03,
       -1.16063254e-02, 5.52689424e-03, 2.50422023e-03, -5.79520687e-03,
       -6.30233483e-03, -1.24191185e-02, -6.35311194e-03, 5.07762702e-03,
       4.53371648e-03, 2.43243761e-03, 5.48028620e-03, -3.58771486e-03,
       -1.01728411e-02, -1.20665645e-03, 5.67683810e-03, -1.64988432e-02,
       -3.91928479e-03, -4.55891946e-03, -9.38226562e-03,
       -1.61418021e-02, 9.57751274e-03, 3.02558066e-03, -1.78656057e-02,
       -7.58567080e-03, -6.07832940e-03, -6.89401408e-04, 1.34383738e-02,
       3.31303664e-03, 1.78007595e-03, 1.04366904e-02, -8.76534078e-03,
       -2.22918242e-02, -1.43855736e-02, -1.86586305e-02,
       -4.51750774e-03, -6.50823209e-03, -1.67756155e-02,
       -7.87150674e-03, 1.32832199e-03, -1.66280773e-02, -1.29803605e-02,
       4.41216445e-03, 2.16272147e-03, -3.05511034e-03, 2.37692557e-02,
       1.52501790e-03, 8.67045112e-03, 9.60983709e-03, -3.61794699e-03,
       9.00910329e-03, 1.78813543e-02, -1.40770245e-02, -4.85569879e-04,
       3.18789622e-03, 4.47337562e-03, -1.18407216e-02, -7.37456512e-03,
       -2.41279379e-02, -1.70118511e-02, -1.69042964e-02, 4.47989115e-03,
       2.34878506e-03, 6.07693475e-03, 2.97409086e-03, 9.90724750e-03,
       -4.09726147e-03, -3.60309565e-03, 1.00161147e-03, 1.38419839e-02,
       -1.02447728e-02, -1.48457242e-03, 6.13531983e-03, 5.07131312e-03,
       -1.60399750e-02, -3.62444250e-03, -5.72700426e-03, 1.06521267e-02,
       8.38644523e-03, 4.27351240e-03, -4.26421175e-03, 4.38434025e-03,
       -6.65200641e-03, -1.09689673e-02, 3.80614772e-03, 2.40790308e-03,
       2.50599161e-03, 1.12965275e-02, -1.58363173e-03, 4.51737596e-03,
       5.82332164e-03, -9.88983177e-03, -1.45578478e-02, -3.61663289e-03,
       7.39387516e-03, 9.78679396e-03, 5.82158985e-03, -9.01145115e-03,
       7.75761320e-04, 8.05727020e-03, 4.81902156e-03, 4.99187596e-03,
       -1.21558579e-02, 5.71786752e-03, 1.08299684e-02, -1.31108304e-02,
       -2.87747569e-03, 8.33868573e-04, -3.44479550e-03, -1.25709977e-02,
       -6.02211477e-03, 4.78129648e-03, 1.23008881e-02, 1.51355742e-02,
       -4.02962323e-03, -1.34848319e-02, -6.43160194e-03,
       -7.51037477e-03, 5.96161978e-03, -1.98613387e-03, -3.88271990e-03,
       7.94924889e-03, 8.58125463e-03, -3.44593124e-03, -1.00327469e-02,
       4.68543032e-03, 3.93455243e-03, 1.42618557e-02, 1.09126624e-02,
       -1.88838616e-02, -7.34752649e-03, -6.27635280e-03,
       -1.01590119e-02, 2.60098884e-03, -5.80445584e-03, -6.02787267e-03,
       7.97110703e-03, -6.98390976e-03, -5.74288797e-03, -3.83271067e-03,
       -1.27510577e-02, 7.82195944e-03, 7.35134259e-03, -8.53198953e-03,
       -1.31244892e-02, 7.33903842e-03, 3.82474181e-03, -9.68353078e-03,
       1.24810301e-02, -3.63503071e-03, -1.12935675e-04, 7.64153106e-03,
       -1.67013276e-02, -2.18270347e-02, -1.60844680e-02, 6.16285065e-03,
       -2.50696298e-02, 3.37726460e-03, -4.73525433e-04, 6.87586470e-03,
       6.35731407e-03, -7.62598636e-03, 9.59485024e-03, -5.31255454e-03,
       3.55461263e-03, -1.72000900e-02, -3.03693414e-02, -3.27003151e-02,
       -6.51965104e-03, -2.10733875e-03, 1.46672211e-03, 7.23114144e-03,
       1.93032832e-03, 8.55399016e-03, 2.57232995e-03, -5.91660058e-03,
       5.64911461e-04, 2.68568448e-03, -7.43384892e-03, -2.77131535e-02,
       -1.00768562e-02, -1.28403530e-02, 8.58818460e-03, -2.84132850e-03,
       -1.59209836e-02, -2.15507392e-02, -3.91327636e-03, 1.93899032e-02,
       6.93037501e-03, -1.24978134e-04, -1.75890990e-03, -9.31151956e-03,
       -9.75728617e-04, -8.74670595e-03, -1.23163303e-02, 1.58290025e-02,
       -7.73340114e-04, 1.21913804e-02, 5.33858500e-03, 4.08827234e-03,
       -1.68022327e-02, 2.30110041e-03, -3.43060330e-03, -1.20674085e-03,
       -5.81767177e-04, 3.40723130e-03, 4.98110522e-03, -1.30931595e-02,
       8.65970179e-03, 3.62734357e-03, -1.22731803e-02, 2.12721177e-04,
       -1.29202269e-02, -1.24185542e-02, 8.84991372e-04, -1.19363272e-03,
       -5.57256211e-03, 1.47210376e-03, 2.84626707e-03, -7.00075086e-03,
       -4.75485064e-03, -1.38470456e-02, 6.18896494e-03, 1.99977327e-02,
       1.84077229e-02, -1.25628291e-03, -1.47940703e-02, 1.98208075e-02,
       -1.13179376e-02, 5.26135555e-03, -1.87052391e-03, 1.21031003e-02,
       2.70808842e-02, 7.22366618e-03, 4.67452127e-03, 2.56843190e-03,
       9.18663386e-03, 3.84789729e-03, 1.28174042e-02, -4.73506469e-03,
       1.88478157e-02, -8.03798146e-04, 3.61021026e-03, -6.04537642e-03,
       1.22455340e-02, 2.00828630e-02, -1.29375514e-02, -1.11636864e-02,
       -1.33585474e-02, -3.22004594e-03, 2.60759238e-02, 7.84998666e-03,
       -1.10214734e-02, -1.02782873e-02, -5.51311951e-03,
       -2.69760238e-03, 1.09261600e-02, -1.66703505e-03, 1.79707631e-02,
       1.61892101e-02, 4.79164440e-03, 1.23076271e-02, -7.82868173e-03,
       2.91409306e-02, -8.78721569e-03, -9.43410024e-03, -2.87600718e-02,
       -1.02344919e-02, 1.78496717e-04, 1.13573279e-02, 3.74961435e-03,
       8.61476734e-03, 1.63421407e-02, 7.56606576e-04, -8.51166993e-03,
       7.23674078e-04, -3.86068528e-03, 1.11326650e-02, 1.61356875e-04,
       -1.21246334e-02, 3.81202204e-04, 5.13139460e-03, -8.65412131e-03,
       -1.56150889e-02, -4.47554747e-04, 7.57272169e-03, -4.42651915e-04,
       4.53240331e-03, 4.25826013e-03, 2.34322739e-03, 8.16369336e-03,
       -6.08401780e-04, -6.69221207e-03, -5.18238125e-03,
       -1.59741845e-02, 3.41220461e-02, 3.25694457e-02, 3.14098373e-02,
       5.83674014e-03, 1.61270164e-02, 1.81119412e-03, -1.11399191e-02,
       9.62340087e-03, 1.79996081e-02, 1.58425258e-03, 2.35213386e-03,
       -1.68421213e-02, 1.42787779e-02, 1.42216692e-02, 1.37589406e-02,
       -1.00826670e-03, -5.98392403e-03, 3.76130664e-03, 3.20936809e-03,
       -5.69207594e-03, -1.27904513e-03, 1.03280293e-02, -1.84226912e-02,
       2.39272602e-03, -4.52022208e-03, -6.52252370e-03, -4.72272793e-03,
       1.94514617e-02, 2.59258528e-03, -2.57626036e-03, -4.60208394e-03,
       1.69864502e-02, 6.77892007e-03, 3.61568783e-03, -1.04256384e-02,
       4.07654792e-03, 1.77712180e-02, 2.89864577e-02, 1.92020983e-02,
       1.22257546e-02, 3.64579563e-03, 6.48258021e-03, 5.72718331e-04,
       -1.98904127e-02, -1.01924678e-02, 3.98366334e-04, 7.43423356e-03,
       6.32041227e-03, 7.62937078e-03, -6.55098306e-03, -8.26646807e-04,
       6.03619672e-04, 4.08165483e-03, -6.95995148e-03, 7.82913622e-03,
       -2.56385328e-03, 8.78451951e-03, -8.68433435e-03, 8.54802877e-03,
       -7.34423194e-03, 7.60415383e-03, 1.20198866e-03, -1.51181839e-05,
       9.91036184e-03, 2.33460981e-02, -1.22956163e-03, -4.02092654e-03,
       -1.08071137e-02, 3.96331307e-03, -4.34093503e-03, -2.14328500e-03,
       -7.00101396e-03, 2.91098692e-02, 4.11839504e-03, 2.68041752e-02,
       1.36712985e-03, 2.62868474e-03, 7.47285224e-03, 1.61113441e-02,
       2.40306091e-02, 2.77721230e-02, 1.05831502e-02, 1.14745777e-02,
       1.83729101e-02, 1.18836034e-02, -6.34884648e-03, 1.33441121e-03,
       5.10524586e-03, 2.74046580e-03, -4.62278863e-03, 1.94104891e-02,
       5.68738440e-03, 4.91229584e-03, 1.55781722e-03, 2.77454266e-03,
       -2.13439576e-03, 7.67989375e-04, 5.28218457e-03, 1.23774791e-02,
       5.17901592e-03, -5.71552711e-03, 2.54431739e-02, 6.77598268e-03,
       7.21496239e-04, 5.79318777e-03, 1.27920378e-02, 1.83479954e-02,
       1.34712467e-02, 1.34868063e-02, 1.54731353e-03, 5.76651981e-03,
       5.90192666e-03, 1.08591479e-03, 8.11699126e-03, -3.11535900e-03,
       2.25922349e-03, 9.84490942e-03, -1.55951350e-03, -1.15469405e-02,
       -1.44446967e-02, -1.45210174e-03, 4.11280105e-03, 3.74408509e-03,
       3.14273126e-03, 1.76866893e-02, -9.75258008e-05, -1.92822426e-06,
       9.83140711e-03, -5.78102190e-04, 8.91390209e-06, -6.56270096e-03,
       5.03337383e-03, 1.16973501e-02, 1.04900701e-02, -1.16278902e-02,
       9.68798064e-03, -6.59032085e-05, -8.32384266e-03, 1.01179760e-02,
       1.04726460e-02, 1.23955356e-02, -6.36000419e-04, 1.67388674e-02,
       1.16868159e-02, 1.60091706e-02, 3.25303804e-03, 3.37495841e-03,
       4.62390110e-03, -8.55700392e-03, 3.78212123e-03, -4.17727884e-03,
       9.84946731e-03, 5.78529201e-03, -7.88073987e-03, 1.56905837e-02,
       5.02326118e-04, 5.03748422e-04, -2.03511138e-02, 6.37359358e-03,
       8.55585746e-03, 8.99081118e-03, -5.34833269e-03, 9.55993833e-04,
       1.43798511e-03, -2.04481147e-02, 9.04595200e-03, -8.70030466e-03,
       -7.71902036e-04, 3.85667710e-03, 1.65791214e-02, 1.26694618e-02,
       1.20526236e-02, 5.61041245e-03, -6.38048491e-03, 3.00205359e-03,
       -1.02076726e-02, 9.54336300e-03, 1.87428333e-02, 2.18300819e-02,
       4.20525530e-03, 9.47092194e-03, 5.85808419e-03, -1.09097799e-02,
       6.84606843e-03, -1.58406235e-02, 2.12614797e-02, 1.27603598e-02,
       1.32397106e-02, 5.56110451e-03, -5.04190475e-03, 1.09244762e-02,
       8.33414681e-03, 1.93414409e-02, -7.57048838e-03, 7.39091309e-03,
       -1.63623656e-03, 1.76792052e-02, -4.81577404e-03, 2.86762742e-03,
       1.54389562e-02, 5.55743836e-03, 2.28526327e-03, -1.06025375e-02,
       2.90203025e-03, 6.09720079e-03, 1.67021453e-02, -1.20151164e-02,
       9.76106990e-03, 1.95505265e-02, 4.81842272e-03, 1.97720546e-02,
       -4.69503505e-03, 2.05016714e-02, -7.72915361e-03, 3.43076815e-03,
       -7.95035437e-03, -6.46529812e-03, 1.14790667e-02, 4.31553647e-03,
       1.66028575e-03, -1.91477593e-02, -2.42862618e-03, -9.08815209e-03,
       6.05787663e-03, -2.02606432e-02, 1.25168348e-02, 2.60226466e-02,
       8.05847719e-03, 4.93571861e-03, -8.66583176e-03, 2.00137775e-03,
       -2.69666687e-03, 8.16113409e-03, -1.09858187e-02, 4.18327749e-03,
       2.91810259e-02, 1.35298222e-02, 1.50944712e-02, -3.58415162e-03,
       4.75164084e-03, 8.29983546e-05, 1.94956746e-03, -2.14529578e-02,
       -3.58870602e-03, 1.83066539e-02, -1.18154183e-03, -2.47775600e-03,
       3.53957206e-04, -6.73516933e-03, -2.54392135e-03, 2.03250861e-03,
       -8.66584573e-03, -1.79139357e-02, 8.27676151e-03, -3.26781161e-03,
       -4.64136573e-03, 4.30370634e-03, -4.75532422e-03, -1.42347496e-02,
       -7.38534797e-03, -1.81115493e-02, 3.12192529e-03, 1.83148347e-02,
       3.77094327e-03, 9.85261705e-03, -1.70655421e-05, 1.42481830e-02,
       1.72582902e-02, 1.83603056e-02, -1.03953201e-02, -7.09470315e-03,
       -4.47409786e-03, -1.03047621e-02, 8.30371771e-03, -3.87670309e-03,
       2.03031860e-02, -1.50159455e-03, -1.01618143e-02, -5.45826089e-03,
       1.61640588e-02, -9.03285574e-03, -1.02934455e-02, -7.27372710e-03,
       6.20302977e-03, 5.48165897e-03, -1.29101193e-02, 8.66168831e-03,
       3.17280460e-03, 9.94641241e-03, -3.00489180e-03, -9.42084566e-03,
       1.25746150e-02, 9.69560444e-03, -1.69395644e-03, -2.72883959e-02,
       -6.33188337e-03, -1.48495636e-03, -1.68203227e-02, 3.14755877e-03,
       1.51214335e-05, 1.21864385e-03, 8.09353485e-04, 1.05663743e-02,
       6.32037129e-03, -7.09764007e-03, -2.51101051e-03, -2.62231119e-02,
       6.20807009e-03, 4.01216187e-03, -1.26034929e-03, -2.56834226e-03,
       -8.76897387e-03, -1.08291325e-03, -4.85286349e-03,
       -5.27193816e-03, 4.90174443e-03, 5.78861358e-03, 5.49153052e-03,
       1.29831973e-02, 2.69106473e-03, 2.29860516e-03, -2.96915649e-03,
       -3.26852314e-03, 5.89833548e-03, -1.75048187e-02, 7.35588931e-03,
       7.53162662e-03, 1.61932502e-02, -3.25400382e-03, -6.45185169e-03,
       -9.51331854e-03, -7.43467873e-03, -1.33481082e-02,
       -2.17473321e-02, -1.10091944e-03, 2.28383997e-03, 2.98126484e-03,
       -1.08181713e-02, -8.15738676e-05, 1.03735263e-02, 1.24266548e-02,
       9.49963182e-03, -2.97088027e-02, -2.58828197e-02, 5.34380437e-04,
       -5.23440773e-03, -7.52545195e-03, 3.59314191e-03, 3.54921655e-03,
       2.59263278e-03, 6.23812806e-03, -1.01856403e-02, -3.12547525e-03,
       -2.96540488e-03, 1.33923348e-02, -1.14979618e-03, -7.32695451e-03,
       2.25962233e-03, 7.47988233e-04, -2.72269268e-03, -1.49199776e-02,
       -1.11560589e-02, 2.98180641e-03, -2.00143317e-03, -7.15164607e-03,
       -4.91164159e-03, 2.62580835e-03, 1.77021298e-04, -9.98832099e-03,
       -1.53901828e-02, -2.56417063e-03, 5.68231894e-03, 1.12358062e-02,
       -3.90776386e-03, 9.32814367e-03, 2.68972944e-03, 1.31573360e-02,
       1.46224385e-03, -1.89742241e-02, -3.31920618e-03, -1.01130297e-02,
       1.89087894e-02, 2.54817470e-03, -2.45082891e-03, -4.92855767e-03,
       1.36056263e-02, -7.47198053e-03, -1.59052983e-02, -1.54411816e-03,
       -2.41889223e-03, -8.37312825e-03, -1.09528201e-02, 8.84013902e-03,
       1.42246094e-02, 1.51379639e-02, -4.48525557e-03, -9.45490506e-03,
       -2.53380626e-03, -3.74814169e-03, 1.22436099e-02, 4.94058430e-03,
       2.20684288e-03, -8.16245656e-03, 8.27527046e-03, -2.82574969e-04,
       8.17644969e-03, 1.81747891e-03, -1.69036782e-03, 7.96480197e-03,
       -4.05927282e-03, 4.65886726e-04, 4.44662059e-03, 6.50211284e-03,
       2.24983022e-02, -6.23351522e-03, 1.28296316e-02, 2.60478281e-03,
       -5.78130537e-04, -4.25250791e-02, -2.77624764e-02,
       -1.47596505e-02, 4.98224748e-03, 2.77911741e-02, -2.43603904e-03,
       -6.54338766e-03, -2.26990157e-03, 1.89704355e-02, 1.30449999e-02,
       2.27026385e-03, 6.30051224e-03, 1.33077120e-02, 2.61342134e-02,
       -1.78353693e-02, -4.69606416e-03, 9.80441645e-03, 1.41764460e-02,
       -2.42118556e-02, -1.73299797e-02, -8.98272265e-03, 1.28565179e-02,
       1.80256609e-02, -1.12060467e-02, 5.46720065e-03, 8.17127526e-04,
       8.87191761e-03, -1.34373419e-02, 6.16849284e-05, -7.79371522e-03,
       -5.69803361e-03, 7.44352257e-03, -1.34608272e-04, -1.24853253e-02,
       9.24659148e-03, 1.64361075e-02, 1.53217940e-02, 2.18862947e-02,
       8.31925310e-03, -4.10001585e-03, 1.57374877e-03, -1.13559626e-02,
       -1.23568252e-02, -2.23056553e-03, 7.76694249e-03, 7.89290585e-04,
       7.32111745e-03, 1.21981800e-02, 1.77005623e-02, 1.32337781e-02,
       9.50706843e-03, -6.86061475e-03, 7.56523898e-03, 1.43909277e-02,
       -1.34306506e-03, 5.45480661e-03, 4.02069325e-03, -2.74022168e-04,
       1.13362796e-03, -5.49697317e-03, -8.50387476e-03, 2.60706642e-03,
       -6.99151447e-03, -2.24655797e-03, 2.23020148e-02, 3.19348113e-03,
       -3.33904917e-03, 1.63873914e-03, -6.46505691e-03, -1.07028394e-03,
       -3.84570594e-04, -2.68445932e-03, 1.28684763e-03, 3.32750976e-02,
       7.67155970e-03, -5.48410928e-03, -2.02424917e-03, 6.65287778e-04,
       -2.17340551e-02, -5.28561976e-03, -6.48565358e-03,
       -2.41970103e-02, 1.24582248e-02, -2.78187171e-03, -1.64244964e-03,
       1.58745870e-02, 8.67625978e-03, 2.45369214e-04, 1.05818333e-02,
       4.76898905e-03, 6.29015546e-03, 2.20150147e-02, 6.82010641e-03,
       -8.19501095e-03, 8.83604679e-03, -1.70033034e-02, 7.36181112e-03,
       1.80875626e-03, -5.69419703e-03, -1.27621861e-02, 6.36081956e-03,
       -7.73196807e-03, -8.39995220e-03, -9.47969873e-03,
       -2.06214022e-02, 3.67136952e-03, 5.92737459e-03, 4.62902198e-03,
       -1.38990702e-02, 1.99113289e-04, -5.11643337e-03, 1.68534517e-02,
       1.24354893e-03, 1.74619886e-03, -3.72400414e-03, -2.63842195e-02,
       -1.08250855e-02, -1.03833172e-02, 1.06390370e-02, 1.72664467e-02,
       -5.34692117e-05, -4.59341425e-03, 3.58203636e-03, -3.73022375e-03,
       -9.57778748e-03, 6.29955716e-03, 1.37953656e-02, 1.65192261e-02,
       8.48432351e-03, 2.40701884e-02, 3.22892470e-03, -1.21222213e-02,
       7.65786273e-03, 6.87898370e-03, -9.44873504e-03, -7.14475615e-03,
       -1.68656819e-02, -1.98516548e-02, 1.92802958e-03, 3.15273483e-03,
       5.34628239e-03, 5.18779689e-03, 2.82672234e-03, -5.42433141e-03,
       7.27991527e-03, 1.93208724e-03, -7.20737851e-04, -3.44745908e-03,
       1.49858091e-02, 1.38658360e-02, 1.28615582e-02, 1.51592912e-02,
       -9.20496590e-04, -1.12993794e-03, 9.89043340e-03, -1.38550317e-02,
       3.19640851e-03, -5.55431284e-03, 1.76485982e-02, 2.75348895e-03,
       9.23255272e-03, -1.05882827e-02, -3.37645621e-03, 2.96917069e-03,
       -1.82223078e-02, -1.14164231e-02, 9.70762968e-03, -7.44584668e-03,
       1.57558862e-02, -1.05963065e-03, -2.74399808e-03, 5.64655522e-03,
       2.75652157e-03, 9.63909901e-04, -8.60912632e-03, 5.37360506e-03,
       -9.50101577e-03, -5.15595404e-03, -4.64209775e-03,
       -1.49893006e-02, 1.28681688e-02, 1.41574349e-02, 1.39083797e-02,
       3.07893759e-04, 8.14458355e-03, -1.96996509e-04, -6.63468568e-03,
       -1.33411996e-02, -1.49261234e-02, -9.76249285e-04,
       -8.59010033e-04, -1.14565426e-02, -1.47622526e-02, 3.62791587e-03,
       -1.24548865e-03, -6.37925882e-03, -1.11115882e-02,
       -1.62478872e-02, -3.01159336e-03, 5.88228181e-03, -4.44622617e-03,
       -1.52599150e-02, 8.18806514e-03, -1.06008807e-02, -5.77390380e-03,
       3.85889504e-03, -7.94807170e-03, 1.34324050e-02, 5.42470720e-03,
       1.60194635e-02, 6.70167245e-03, -4.27524559e-04, -7.85109121e-03,
       -9.36389342e-03, -3.26476817e-04, -3.07382061e-03,
       -1.97831192e-03, 1.12822633e-02, 9.65286326e-03, 8.77617020e-03,
       6.06490718e-03, 9.45510715e-03, -1.19966399e-02, -8.89283419e-03,
       -4.77937562e-03, 1.10925864e-02, 1.99500425e-03, 2.20809830e-03,
       -1.39357261e-02, 1.49428593e-02, 8.25913809e-03, 1.82779203e-03,
       9.39857494e-03, 6.81144360e-04, -1.02487253e-02, 1.48536041e-02,
       7.85647053e-03, 4.58129100e-04, 3.36775254e-03, 2.16622022e-03,
       1.15579111e-03, -3.07292375e-03, -2.81723239e-03, 6.03144523e-03,
       -2.01443359e-02, 4.16704081e-03, 2.31086509e-03, 6.56474987e-03,
       6.73202984e-03, 8.57909396e-03, -8.62396881e-03, -2.01707426e-02,
       1.96408927e-02, -2.49968003e-02, -3.69184720e-03, 1.51694263e-03,
       1.98504003e-03, 8.57813563e-03, 1.07710240e-02, 3.01054749e-03,
       -1.20803528e-02, -2.30386425e-02, 4.66836011e-03, -2.78703752e-03,
       6.83893310e-03, -1.34044688e-03, 2.10520998e-02, 1.94457434e-02,
       -4.37576883e-03, -2.19012946e-02, 5.60340006e-03, -3.89091065e-03,
       -2.53296457e-04, 1.21312300e-02, 9.82523989e-03, -1.21353120e-02,
       -3.11082695e-02, -7.99419545e-03, -1.09539302e-02, 1.97152719e-02,
       1.15053384e-02, 4.48300550e-03, -2.30019297e-02, -1.19239315e-02,
       1.36463493e-02, -4.91101644e-04, 3.71365366e-03, 8.52345955e-03,
       -3.51254386e-03, -2.85419403e-03, -1.05163399e-02,
       -2.54772846e-02, 4.37854906e-04, -2.23686490e-02, -2.84920894e-02,
       2.42779031e-03, -3.05374560e-04, 1.35997981e-02, 1.87390000e-02,
       -2.09311675e-03, -4.09077257e-02, -2.52458081e-02, 1.50611866e-02,
       1.16916616e-02, -1.75437331e-03, 5.20260073e-03, 1.77177396e-02,
       8.31904728e-03, -4.05088183e-04, -1.52478460e-02, -2.13707937e-03,
       -3.86660243e-03, -9.14014690e-03, -2.60941382e-03, 1.63512416e-02,
       -1.57280476e-03, 7.51097361e-03, -1.02468976e-03, -1.08357463e-02,
       -5.99677861e-03, -6.48324937e-03, -4.75214701e-03,
       -5.60761010e-03, 1.23983230e-02, 8.21388606e-03, -5.31094987e-03,
       6.77427603e-03, -1.31067466e-02, -1.89322769e-03, 1.28294993e-03,
       3.73376044e-03, -1.01999485e-05, 1.61442291e-02, -1.53216603e-03,
       1.12624746e-02, 1.15330378e-02, -6.41085161e-03, -2.49100337e-03,
       4.64034127e-03, 3.59591586e-03, 1.00492034e-02, 9.31228697e-03,
       9.52525437e-03, 8.95815995e-03, 1.07188681e-02, -1.58822779e-02,
       3.52257187e-03, -6.35223277e-03, 7.83556327e-03, -1.00589981e-02,
       1.50083387e-02, 3.35689238e-03, 1.43386824e-02, 1.50640560e-02,
       4.89797164e-03, 5.45891421e-03, -1.85062755e-02, 1.17537996e-03,
       1.43405545e-04, -6.02958491e-03, 5.39424829e-03, -2.04474665e-03,
       -1.30781494e-02, -1.82500929e-02, -1.73880067e-02, 2.65890802e-03,
       7.45773036e-03, -2.45910347e-03, 1.70244602e-04, 3.34806810e-03,
       1.93357058e-02, 1.29532218e-02, 4.24032379e-03, 1.12823192e-02,
       7.23522482e-03, 1.60675757e-02, 6.67669065e-03, 9.32367911e-05,
       1.41073093e-02, 1.37101356e-02, -7.03380676e-03, -2.00134907e-02,
       2.33397819e-03, -1.00104352e-02, -7.03240512e-04, -1.73384021e-03,
       -1.17347087e-03, 1.74011774e-02, 9.90145467e-03, -8.56630132e-03,
       -1.61985252e-02, -1.58659462e-02, 2.34488281e-04, -7.66043644e-03,
       1.06343245e-02, -8.41746759e-03, 7.12692179e-03, 3.49686714e-03,
       -1.48309711e-02, -1.33562246e-02, -7.06134783e-03, 2.29503401e-03,
       6.86994893e-03, 3.43521475e-03, -1.50592881e-03, -8.97880178e-03,
       7.98209291e-03, -6.13292446e-03, -1.98253170e-02, -4.05572820e-03,
       3.87374614e-03, 3.66507494e-03, 2.97228470e-02, 8.89591966e-03,
       2.29448583e-02, 1.18446629e-02, -9.92475636e-03, -1.28566260e-02,
       -3.02746426e-03, 1.50734046e-02, -9.56643838e-03, 1.49343200e-02,
       -5.67792822e-03, 1.61777418e-02, 1.57205146e-02, 7.27203069e-03,
       -3.80756776e-03, 1.25375083e-02, -8.37461371e-03, 1.05585372e-04,
       -1.11136283e-03, -1.15503566e-02, -4.49965009e-03, 1.97210559e-03,
       8.89483839e-03, -1.50971152e-02, -7.19162216e-03, 2.07582978e-03,
       -1.13643445e-02, -8.53462983e-03, -9.55837779e-03,
       -9.99723468e-03, 1.04416003e-02, 3.44577339e-03, -1.05663557e-02,
       5.86984097e-04, 1.16493544e-02, 1.46883568e-02, -5.34857437e-03,
       1.24962693e-02, -2.06604321e-02, 7.42690125e-03, 1.06296185e-02,
       -1.21112932e-02, 1.70121491e-02, 4.28749699e-05, 1.13206329e-02,
       -3.04058683e-03, 2.03407253e-03, -1.46976369e-03, 1.63500886e-02,
       1.75307058e-02, 2.10927101e-03, 5.71305584e-03, -6.53986936e-04,
       -4.66317311e-03, 1.40857613e-02, 2.27828685e-04, 1.65009976e-03,
       7.34185707e-03, 1.34183252e-02, 1.50160156e-02, 5.85206505e-03,
       8.50493554e-03, 4.46083955e-03, -2.05771741e-03, 1.77616198e-02,
       -1.31189236e-02, 6.23022672e-03, 2.26430465e-02, 9.31603648e-03,
       1.59164704e-02, -9.25306522e-04, -7.88471196e-03, -3.73410922e-03,
       -6.32213242e-03, -5.81199303e-03, -7.31330039e-03, 2.30715959e-03,
       1.90386886e-03, 5.18380571e-03, 8.02275073e-03, -3.00095952e-03,
       1.87041722e-02, 8.76115635e-03, -5.49797527e-03, 1.46264853e-02,
       1.12683522e-02, 6.77851308e-03, 1.85378361e-03, 1.34183075e-02,
       6.94532180e-03, 6.53342670e-03, 4.77929600e-03, 3.92217655e-03,
       1.51576372e-02, 3.47137707e-03, -2.45379214e-03, -2.09848164e-03,
       -4.81848652e-03, 2.48508621e-03, -1.66792527e-03, -8.81529704e-04,
       -3.86158470e-03, -5.41116204e-03, -2.52710818e-03,
       -1.42525404e-03, -6.52663782e-03, 3.72732710e-03, 4.16370016e-03,
       -1.19184433e-02, -1.03164837e-02, -1.96284540e-02,
       -5.11199888e-03, 1.32565809e-04, -4.10923408e-03, 4.18608868e-03,
       2.92736175e-03, 1.21321175e-02, 6.04221690e-03, 2.39726827e-02,
       1.72943324e-02, 1.41800549e-02, 7.52248801e-03, 2.26374133e-04,
       -2.27721012e-03, -9.93770896e-04, 9.48074646e-03, 8.02952563e-04,
       2.14709062e-02, 4.41018073e-03, 1.44188534e-02, -5.41716581e-04,
       5.32019604e-03, -1.10292742e-02, 9.42199305e-03, -7.56150996e-03,
       -5.12522645e-03, -5.20630227e-03, -1.36665916e-02, 6.31564856e-03,
       5.49139362e-03, -2.88123265e-03, 7.29433773e-03, 5.87404612e-03,
       -1.27115718e-03, -9.20196157e-03, -1.27715606e-03,
       -1.56245911e-02, 5.90176973e-03, -8.94515589e-03, -8.29499122e-03,
       -1.56039139e-03, -3.03238258e-03, 9.25984979e-03, 7.75110966e-04,
       2.77119526e-03, -2.86832894e-03, 2.04220433e-02, 1.46591021e-02,
       1.45457406e-02, 6.86810934e-04, 7.14043854e-03, 1.92732941e-02,
       3.08863760e-04, -1.38321267e-02, 9.18502174e-03, 3.58608402e-02,
       1.21143069e-02, 3.32341436e-03, 6.24259375e-03, 4.98093059e-03,
       8.75624083e-03, -1.32467494e-05, -3.47474148e-03, -2.81846561e-02,
       1.06393984e-02, 2.81931367e-03, 7.12041045e-03, 1.15630194e-03,
       -6.55767461e-03, 7.17778085e-03, -4.64562327e-03, -1.98192988e-02,
       -2.24574674e-02, 1.10766161e-02, 6.75905868e-03, 3.52280145e-03,
       -1.84677786e-03, 2.16772556e-02, 3.03575061e-02, 9.76138934e-03,
       1.36096980e-02, 2.51271781e-02, 2.05392409e-02, -5.31146489e-03,
       -4.91698484e-06, 4.19533532e-03, -7.08640879e-03, 1.36653222e-02,
       1.31878192e-02, 1.29097439e-02, 1.04023190e-02, -6.94948342e-03,
       -1.24351373e-02, -5.68392500e-03, -1.48383519e-02, 1.75133906e-02,
       1.18476423e-02, 1.67678704e-03, -4.83361026e-03, 2.50082673e-03,
       7.35496311e-03, -1.17960153e-02, 2.57667224e-03, 8.97836778e-03,
       -1.01789646e-02, 4.31952393e-03, 1.24446340e-02, -1.00617588e-03,
       -7.34797958e-03, -1.80973054e-03, -1.77362859e-02,
       -3.91275826e-04, -3.64096370e-04, -4.68911789e-03, 2.08004247e-02,
       2.20575128e-02, 1.30301425e-02, 1.30562205e-03, 3.96976713e-03,
       8.75452906e-03, 1.27418656e-02, -3.01967841e-03, -5.02095651e-03,
       1.13181192e-02, 2.76018027e-03, 7.87338708e-03, 1.30453380e-02,
       6.07838482e-03, 8.77682213e-03, 6.89307088e-03, -6.52518589e-03,
       -7.07409985e-04, 8.23827274e-03, 1.64789762e-02, 1.71951335e-02,
       -4.68224613e-03, 6.89455820e-03, 1.35018323e-02, 2.80187298e-02,
       1.18992254e-02, 5.74392546e-03, -3.82149545e-03, 4.23934869e-03,
       5.64916525e-03, -2.07768008e-02, -6.33043656e-03, 7.67043140e-03,
       6.34931447e-03, -1.11450092e-03, 9.13912058e-03, -3.88617278e-03,
       -5.56840608e-03, 3.04301502e-03, 7.23245554e-03, 4.71600145e-03,
       3.57952365e-03, 2.29063667e-02, 1.43181132e-02, 1.40960226e-02,
       8.30794591e-03, -4.62517084e-04, 1.38916122e-02, 2.87104701e-03,
       -7.56315840e-03, -1.58424117e-02, 1.86934434e-02, 1.13980966e-02,
       9.11161117e-03, -7.98963755e-03, -2.45681871e-03, 1.41203320e-02,
       -3.12648527e-03, -2.82793213e-03, -4.74810367e-03, 1.26040764e-02,
       9.13223717e-03, 5.08564524e-03, -6.96876831e-03, -1.48147426e-03,
       5.21452073e-03, -7.57693965e-03, 9.48464405e-03, -7.34473066e-03,
       1.95964500e-02, 7.48863164e-03, 1.07708608e-03, 2.10821573e-02,
       9.58722271e-03, 1.65149700e-02, 3.35693290e-03, -5.59591048e-04,
       5.98777598e-03, 1.12334872e-02, -2.14479328e-03, -3.87730799e-03,
       2.05864515e-02, 1.25118466e-02, 4.29214491e-03, -1.68553219e-04,
       1.54079928e-03, 2.32270034e-03, 3.08043859e-03, -6.27080351e-03,
       -1.55514001e-03, 1.16101559e-03, -1.04126707e-02, -7.17219198e-03,
       3.04759433e-03, 6.57840446e-03, -3.03938217e-03, 1.30797485e-02,
       1.05505725e-02, 9.79696400e-04, -4.08431655e-03, -5.06509205e-05,
       -1.46476459e-02, -1.73537759e-03, -6.75597694e-03,
       -6.90469844e-03, -3.37454607e-04, 1.46810869e-02, 1.11007795e-03,
       4.06822050e-03, 6.98249228e-03, -1.34350534e-03, -3.62948445e-03,
       -5.99505613e-03, 1.18892605e-03, 3.67594557e-03, 1.82061596e-03,
       -7.10508553e-03, -1.02076214e-02, 2.59164278e-03, -7.97654502e-03,
       -1.36862770e-02, -1.06190117e-02, -5.50884986e-03,
       -2.47911620e-03, -2.53040995e-03, 1.00556659e-02, -2.75799260e-02,
       -2.09363224e-03, -1.37422243e-02, 4.83228965e-03, -3.40199494e-03,
       3.63057875e-03, 7.16021936e-03, 1.52293043e-02, -4.82545607e-03,
       -1.94626711e-02, 8.77484400e-03, 3.75514897e-03, 4.25737631e-03,
       5.44524984e-03, 4.98223992e-04, -2.01990726e-04, 3.43907799e-04,
       -4.74930136e-03, 3.09725245e-03, -5.38876513e-03, -2.31150128e-02,
       -1.04806740e-02, -2.64473190e-03, 3.95645067e-04, 7.19376141e-03,
       2.78571737e-03, -1.07105775e-02, 5.87146555e-04, -3.37111321e-03,
       -7.38115981e-03, 9.54273529e-03, 4.91990196e-03, -8.82669166e-03,
       8.93736351e-03, -8.48389347e-04, -5.23493800e-04, 1.16896466e-03,
       4.86764312e-03, -8.49993806e-03, -6.08012639e-03, 4.57764929e-03,
       -5.22131193e-03, -1.61742279e-03, 1.10870199e-02, -6.44754479e-03,
       1.40746255e-04, 2.41757673e-03, -4.42744279e-03, 3.50674777e-03,
       4.03516321e-03, 6.03233697e-03, -1.46990712e-03, 9.95431375e-03,
       -6.46928465e-03, -5.25037386e-03, 2.97249528e-03, 8.14211555e-03,
       1.15787853e-02, -5.44805499e-03, -1.30266892e-02, -3.38633847e-03,
       1.70717686e-02, -1.18966680e-02, -1.22499093e-02, 2.06993567e-03,
       1.31172640e-02, 6.20449055e-03, 7.51664350e-03, 8.61217640e-03,
       -2.65322626e-03, 1.43898949e-02, 1.66923710e-05, -8.63653608e-03,
       -7.17951357e-03, 1.57575042e-03, 2.18119146e-03, -9.26657766e-03,
       -2.46678130e-03, -4.01231553e-03, -7.49957515e-03, 5.88884577e-04,
       -4.94940579e-03, -5.52507211e-03, 1.61986407e-02, -1.28794776e-03,
       1.19665349e-02, -3.24535184e-03, -5.96169755e-03, -1.93909800e-03,
       -1.78433228e-02, -1.01795904e-02, 5.97608974e-03, 2.92353012e-04,
       6.45929994e-03, 1.97473285e-03, 5.60140063e-04, -1.35144207e-03,
       -5.33714076e-04, -5.14084427e-03, -3.83443199e-03, 2.65754736e-03,
       2.97348574e-03, -1.43901743e-02, 8.93075671e-03, 5.63716376e-03,
       -6.63031358e-03, -8.85400549e-03, -1.54610811e-04,
       -1.49196694e-02, -3.86148645e-03, 1.16540864e-02, 2.48281080e-02,
       7.40914978e-03, -1.11492332e-02, -5.24013676e-03, 1.14525156e-02,
       6.27211900e-03, -4.61144559e-03, 7.52617558e-03, -2.96199182e-03,
       -1.48032038e-02, -1.99136860e-03, 1.06599871e-02, -5.29418513e-03,
       1.06299017e-02, 1.71072176e-03, 1.66452478e-03, 8.37696134e-04,
       4.73958952e-03, -1.40978349e-02, 1.32203791e-02, 2.95652399e-06,
       9.33637377e-03, 9.53999441e-03, -4.31773532e-03, -4.48716199e-03,
       -7.57520506e-03, 1.78484901e-04, 4.84309532e-03, 3.15131014e-03,
       -1.01408910e-03, 1.49064837e-03, -1.12905120e-02, 3.11355991e-03,
       3.62251274e-04, 1.06314775e-02, -6.40809396e-03, -1.45468460e-02,
       2.98052141e-03, 9.38341022e-03, 1.21260434e-02, 8.95254407e-03,
       3.83612351e-03, -2.02541444e-02, -3.23009677e-03, -6.25864661e-04,
       1.13906497e-02, 1.25474306e-02, -1.66092608e-02, -2.22498737e-03,
       5.50843915e-03, -8.07836093e-03, -1.21659050e-02, -3.57357115e-02,
       -7.97224324e-03, -2.26806873e-03, 4.77292808e-03, 1.08770076e-02,
       9.77042946e-05, -4.46730480e-03, -1.45395780e-02, -1.22969318e-02,
       -2.35870946e-02, 4.55803797e-03, 3.72695317e-03, 4.55551455e-03,
       4.99773421e-04, 8.75223987e-03, -8.08370486e-03, -7.67004350e-03,
       -2.55291890e-02, -2.62789000e-02, 7.98512556e-05, 8.83886777e-03,
       4.05797968e-04, 1.13481553e-02, -6.39262423e-03, 1.73862441e-03,
       1.12832226e-02, 7.75783032e-04, -5.95523464e-03, 1.23871313e-02,
       -9.57401190e-03, -7.98074342e-03, -6.30853092e-03,
       -8.04385357e-03, 2.45471355e-02, -3.00488342e-03, -2.38308404e-03,
       -9.49308160e-04, 4.96055791e-03, -1.46177062e-03, 5.85769629e-03,
       -9.12240334e-03, 9.96054895e-03, -7.86431599e-03, -1.30501594e-02,
       -2.76608206e-03, 2.94319307e-03, 1.52488856e-03, -2.56717135e-03,
       6.89834310e-03, 2.62910523e-03, 1.59919297e-03, 1.65959646e-03,
       1.89031556e-03, -6.19011512e-03, -2.27377322e-02, -1.80814636e-03,
       -9.36448574e-03, -2.38121231e-03, -1.43505121e-02,
       -1.18980305e-02, 6.84381463e-03, 7.40106031e-03, 5.76112745e-03,
       -1.26654189e-02, -7.06359185e-03, -1.00051267e-02, 6.42632367e-03,
       2.33881338e-03, -6.04387093e-03, 1.93775687e-02, -1.59230158e-02,
       3.95847950e-03, 6.62764860e-03, 4.22666501e-03, 2.69116252e-03,
       -7.74998171e-03, 1.12449154e-02, -5.06088790e-03, -9.69468337e-03,
       -1.13798585e-02, 3.09927948e-03, 7.75685254e-03, -4.91051655e-03,
       -9.01519961e-04, 4.90793586e-03, 1.82774235e-02, 4.68144519e-03,
       -3.01827374e-03, -1.08129028e-02, 1.62955392e-02, 5.08253556e-03,
       -7.49145576e-04, -2.67269388e-02, -7.89996237e-03,
       -2.93655554e-03, -1.74768809e-02, -4.20566124e-04, 1.35549309e-03,
       7.37497909e-03, 1.64223984e-02, -5.14307013e-03, 4.34822403e-03,
       -6.01052493e-03, 8.15378129e-03, 4.35447274e-03, -7.40697980e-03,
       -1.06095779e-03, 2.87503493e-03, 9.32511594e-03, -1.15206260e-02,
       4.01227269e-03, -5.22672804e-03, 3.67212133e-03, -1.19558349e-03,
       2.77446071e-03, 8.97858199e-03, 6.29672455e-03, 1.42033687e-02,
       8.89778777e-04, -4.51169768e-03, 2.12315843e-02, 9.72625054e-03,
       8.75532511e-04, -1.14210205e-04, -2.84831738e-03, -5.43580949e-03,
       1.92646730e-05, -1.81966145e-02, -7.98726548e-03, -4.23068320e-03,
       -7.93523062e-03, 3.28852003e-03, -1.03223501e-02, 3.19604483e-03,
       2.77615327e-04, 7.93027692e-03, -7.74522824e-03, 1.69075225e-02,
       6.21580565e-03, 7.08802836e-04, -8.30673333e-03, 2.62204744e-03,
       9.00432351e-04, 3.04610410e-04, -9.85480845e-03, -1.86756179e-02,
       -1.77846421e-02, 1.53805241e-02, 6.53025135e-03, 1.69401057e-02,
       3.65186157e-03, 6.33909227e-03, 1.38500379e-02, -9.78665799e-03,
       -1.65498350e-02, -1.29898963e-02, 7.98655115e-03, 1.12993969e-02,
       2.36330740e-02, 1.34254145e-02, 5.73346019e-03, 2.45431866e-02,
       -2.87656672e-03, -7.85101950e-03, 4.37177205e-03, 3.20330472e-03,
       5.95816935e-04, 4.73085232e-03, 1.00789806e-02, 6.90296432e-03,
       2.65469048e-02, 4.47794097e-03, 2.08489387e-03, -7.84800388e-03,
       2.94241612e-03, 2.33837101e-03, 9.58302803e-03, 4.23838943e-03,
       -1.63740031e-02, -2.34643072e-02, -2.63980078e-03, 1.14220902e-02,
       1.39307361e-02, 1.45915793e-02, -5.01406100e-03, -3.99743766e-02,
       -1.90703068e-02, 2.04103324e-03, -5.63332392e-03, 5.83200192e-04,
       -7.97579065e-03, -3.79283633e-03, 3.19650932e-03, -1.48855606e-02,
       -2.14541163e-02, -2.05006520e-03, 2.02085380e-03, -1.35403257e-02,
       2.27460172e-03, 2.81949490e-02, 8.95936321e-03, 1.49184121e-02,
       1.25091672e-02, -1.52853010e-02, -5.13085863e-03, 2.34196475e-03,
       -1.16884615e-02, 1.06491698e-02, 4.22745012e-03, 1.99337751e-02,
       -7.50265317e-03, 1.39328474e-02, 9.87766590e-03, 6.93659158e-03,
       -6.30934257e-03, 3.04778595e-03, 7.21197634e-04, 1.15794381e-02,
       1.88508059e-03, 1.89839099e-02, 5.51045313e-03, -1.23385359e-02,
       -1.00793736e-03, -4.06214036e-03, -3.77536262e-03, 5.30634681e-03,
       -3.97937233e-03, -1.05846431e-02, 4.28522611e-03, -1.17351878e-02,
       -2.62814183e-02, -5.64717269e-03, 8.31204746e-03, -8.78090691e-03,
       3.37214116e-03, 1.89242885e-02, -7.18059903e-03, 6.16012793e-03,
       9.91066545e-03, 1.24044837e-02, 1.18362186e-02, 6.28658757e-03,
       3.40679567e-03, 2.45740321e-02, 1.05921738e-02, -1.64142773e-02,
       -2.65555736e-03, -9.04017407e-03, -2.09302790e-02,
       -9.18203592e-03, -6.88945688e-03, 6.13115029e-03, -2.15024990e-03,
       1.24801984e-02, -8.67318735e-03, 1.86418276e-02, 3.61616863e-03,
       -1.03938691e-02, -3.38039990e-03, -2.02816185e-02,
       -9.98745579e-03, -1.02567682e-02, -1.42133969e-03,
       -1.10279145e-02, 9.96906892e-04, -6.21937867e-03, -1.71951596e-02,
       -2.20459867e-02, 2.99062184e-03, 7.09472504e-03, 8.49899929e-03,
       8.79659317e-03, -1.73359718e-02, 1.83289815e-02, 6.23384165e-03,
       -1.02306707e-02, -1.87635003e-03, -1.75686937e-03,
       -2.35501155e-02, -1.30331861e-02, 9.72459931e-03, 3.59506644e-02,
       1.69118792e-02, -2.56045884e-03, 1.25063595e-03, 4.26217960e-03,
       -3.76432529e-03, 1.05220429e-03, 1.74775999e-03, 5.42769907e-03,
       7.74198351e-03, 3.14958720e-03, -1.08794728e-02, -4.27726237e-03,
       -1.82703941e-03, -3.53925582e-03, -2.77934177e-03, 1.51613122e-02,
       1.21348668e-02, -1.65792797e-02, -4.60403040e-03, -5.95510518e-03,
       -4.84975195e-03, -8.19242001e-03, -1.13081746e-02,
       -9.75969341e-03, 5.64413983e-03, 1.13600427e-02, 5.77229075e-03,
       1.42890010e-02, 8.77413433e-03, 8.55559949e-03, 2.78271548e-03,
       2.07797438e-03, 5.21450723e-03, 3.70275858e-03, 7.40907807e-03,
       -1.26591763e-02, -4.26976150e-03, 4.32742108e-03, 1.29124047e-02,
       1.01954304e-02, -2.53919163e-03, -6.58973446e-03, 1.32497936e-03,
       6.79239258e-03, -5.42225130e-03, 5.27528953e-03, 1.02800492e-03,
       -8.91590863e-03, 1.23843458e-03, 1.28489034e-02, 4.76024626e-03,
       -1.16439601e-02, 1.10694291e-02, -1.48768490e-02, 8.77024792e-03,
       2.02055238e-02, 8.17615725e-03, 1.68841965e-02, -5.21131093e-03,
       4.00446681e-03, 5.75871719e-03, 1.59078818e-02, -6.52185082e-03,
       6.03936706e-03, -1.65910134e-03, -9.78605589e-04, -9.88730695e-03,
       1.52545599e-02, 5.75195020e-03, -9.53167211e-04, 1.67940911e-02,
       -1.10956910e-03, 1.71202119e-03, 4.96945810e-03, 1.13180671e-02,
       6.11873460e-04, 2.33961195e-02, 4.25804965e-03, -1.32660195e-02,
       1.84454564e-02, 2.62106676e-03, 7.62406224e-03, 1.82112474e-02,
       1.22777391e-02, 2.29007341e-02, 9.73240379e-03, 1.85318245e-03,
       -2.13265885e-03, -5.95807191e-03, 1.09711522e-02, -2.87866918e-03,
       1.36499144e-02, 3.53485579e-03, 7.18574924e-03, 2.03736052e-02,
       5.47768548e-03, 1.30318478e-03, 1.95530336e-02, 1.12459082e-02,
       -3.42227577e-04, 1.02227051e-02, 2.37471377e-03, 6.00425340e-03,
       8.42301920e-03, 1.32768357e-03, 6.51440071e-03, 1.13639133e-02,
       1.21468920e-02, 2.16067373e-03, 2.47331848e-03, -3.36629362e-03,
       6.47679111e-03, -1.08202565e-02, 5.41908061e-03, 3.84392007e-03,
       2.67850584e-03, 1.11932252e-02, 4.06169007e-03, 1.36154452e-02,
       2.93382118e-03, -2.01083696e-03, -1.33993998e-02, 3.26582952e-03,
       -2.60307710e-03, -5.13588684e-03, -1.77239403e-02,
       -1.27547455e-03, 7.71560613e-03, 7.45562324e-03, 4.08214331e-03,
       -5.68987057e-03, 8.09865352e-03, 7.55630853e-03, 1.85141582e-02,
       2.27228142e-02, 3.11762141e-03, 1.35960001e-02, 1.24346903e-02,
       4.60355869e-03, -1.98939703e-02, -1.25350403e-02, -4.78775054e-03,
       -3.36800324e-04, 1.45916147e-02, -2.07893574e-03, -3.27765523e-03,
       4.15314641e-03, 7.77117850e-04, -5.60408924e-03, 3.13382852e-03,
       -2.87618069e-03, 3.88536090e-03, -9.98042244e-03, 7.57307978e-03,
       1.09640537e-02, 8.19894206e-03, -1.14547765e-04, 9.27832630e-03,
       6.35202276e-03, -8.40406516e-04, 9.05223750e-03, -4.32581315e-03,
       9.04729590e-03, 3.83325201e-03, 1.09031498e-02, 2.60914140e-03,
       -1.36986673e-02, 4.52797767e-03, -6.23627333e-03, 2.42840638e-03,
       -4.42615524e-03, 5.82456915e-03, 9.40122921e-03, 8.65184236e-03,
       -2.53987336e-03, -5.61800739e-03, 4.88204043e-03, -5.41061210e-03,
       9.66687594e-03, -9.99579765e-03, -5.42689767e-03, 8.53119127e-04,
       1.06354011e-02, -1.67796947e-03, 3.64706758e-03, 7.83069711e-03,
       9.80839133e-03, 1.27202366e-02, -1.22144921e-02, 2.22741044e-03,
       -2.28862371e-03, 4.34055179e-03, -8.05634912e-03, -8.32230505e-03,
       2.32175412e-03, 1.76810455e-02, 1.71009526e-02, -6.47979556e-04,
       7.38955196e-03, 6.48003956e-03, 7.58564938e-03, -1.00145889e-02,
       4.05786652e-03, 9.05947201e-03, 9.19468142e-03, 1.95057206e-02,
       -1.17381746e-02, -1.14472699e-03, -1.34726742e-03, 8.01763870e-03,
       -2.26957561e-03, -1.46038830e-02, 7.80904619e-03, 1.39980232e-02,
       9.34938993e-03, -8.52409564e-03, 4.12902562e-03, -6.75248622e-04,
       -2.25865887e-03, -2.27464065e-02, -8.48714635e-03,
       -3.45366017e-04, 7.91281741e-03, 1.60965156e-02, 7.32770842e-03,
       8.75223055e-03, -4.54500085e-03, 4.59246663e-03, -4.94663836e-03,
       5.23851067e-03, 3.05190030e-03, 8.30470957e-03, 6.44966401e-03,
       1.27447657e-02, 2.92470376e-03, -8.85315146e-03, 4.02671658e-03,
       -8.03933293e-03, -2.62213824e-03, 1.25556672e-02, 1.53726730e-02,
       1.72752272e-02, -4.80663870e-03, 1.21558858e-02, -4.58918558e-03,
       8.15761182e-03, -1.97451282e-02, 9.00301058e-03, 8.51548277e-03,
       9.53280739e-03, 2.54371166e-02, 3.81192518e-03, 1.49169853e-02,
       -5.14036790e-03, 1.12936227e-02, -9.04503278e-03, -5.43278689e-03,
       -8.83110799e-03, -4.61825053e-04, 9.65261832e-03, 6.91748504e-03,
       1.76508036e-02, 1.73508935e-02, 2.74518207e-02, -7.09532003e-04,
       -1.37147969e-02, -1.28755085e-02, -1.87713455e-03, 3.23863467e-03,
       -5.79971634e-03, 9.45726130e-03, 1.05972597e-02, 9.52157099e-03,
       -2.30703633e-02, 1.87136550e-02, -3.98172392e-03, 3.88713786e-03,
       2.48153657e-02, -1.80469127e-03, 1.14004025e-02, 4.88827890e-03,
       2.27865037e-02, 1.01152835e-02, 8.44200049e-03, -3.41627892e-05,
       6.00532955e-03, 8.05881340e-03, -3.19998246e-03, 1.75050984e-03,
       -5.11736795e-03, -1.26274783e-04, -2.16834014e-03,
       -1.49959303e-03, 8.04092269e-03, 1.85470041e-02, 3.33043071e-03,
       -7.85937998e-03, 1.22479415e-02, -2.43981276e-03, 1.21366037e-02,
       -1.24892788e-02, -2.95038447e-02, -6.55321963e-03,
       -7.51758739e-03, -1.01072004e-03, -5.20812767e-03, 1.47245759e-02,
       2.54885503e-03, 1.41011374e-02, -1.38775092e-02, 8.98852479e-03,
       2.19021309e-02, 1.48109682e-02, 5.86661743e-03, -1.61117711e-03,
       1.62815042e-02, -8.84596538e-03, -1.83932047e-04, 1.45120022e-04,
       -2.15147715e-02, 2.76910630e-03, -5.88025292e-03, 6.68835826e-03,
       -3.92809138e-03, -3.38669098e-03, 3.07366997e-03, 6.37196528e-04,
       -5.85831190e-03, -4.73030051e-03, 1.01275006e-02, -6.21740427e-03,
       -4.05715127e-03, 5.55424392e-03, 1.66699216e-02, 1.14960913e-02,
       2.02191006e-02, 7.11886119e-03, -8.44738819e-03, 1.76183472e-03,
       -1.58335513e-03, -4.47121885e-04, 1.29179498e-02, 4.98311408e-03,
       -8.81464977e-04, 1.06270276e-02, 2.30632885e-03, 4.35566204e-03,
       1.02001736e-02, -2.84447381e-03, 1.17438873e-02, -2.85954354e-03,
       1.10373329e-02, 6.40200393e-04, -2.59482814e-03, 4.42745676e-03,
       -3.74258473e-03, 1.61351934e-02, 5.37939044e-03, 1.22656254e-02,
       -1.05297714e-02, -1.93130188e-02, -1.20484047e-02,
       -2.20463728e-03, -1.20757846e-02, -8.23014975e-03,
       -1.43281920e-02, -5.82039263e-03, 1.87509588e-03, 1.36511642e-02,
