%YAML:1.0
---
my_detector: !!opencv-object-detector-hog
   winSize: [ 168, 192 ]
   blockSize: [ 16, 16 ]
   blockStride: [ 8, 8 ]
   cellSize: [ 8, 8 ]
   nbins: 9
   derivAperture: 1
   winSigma: 4.
   histogramNormType: 0
   L2HysThreshold: 2.0000000000000001e-01
   gammaCorrection: 1
   nlevels: 64
   signedGradient: 0
   SVMDetector: [ -8.91026948e-03, -1.51807619e-02, 1.46979643e-02,
       2.32688524e-02, 2.07492970e-02, -1.33392224e-02, -1.55246919e-02,
       -1.21574569e-02, -8.69492814e-03, -2.58245952e-02,
       -3.46083716e-02, -1.58939715e-02, 1.28941471e-03, 1.43735809e-02,
       -2.26763301e-02, -1.24843605e-02, 3.02949711e-03, -1.23162195e-02,
       -2.58961488e-02, -2.87234299e-02, 1.13464007e-02, 2.39606481e-02,
       -1.14055704e-02, -1.69421136e-02, -1.22205149e-02,
       -1.44980829e-02, -2.67329570e-02, -1.74941532e-02,
       -2.13138238e-02, -6.36418583e-03, 1.74433235e-02, -1.26572940e-02,
       -2.13550776e-02, -6.73877588e-03, -1.18788262e-03,
       -1.37745468e-02, -1.89000666e-02, -2.73125209e-02,
       -1.89410336e-02, 3.97766562e-04, 3.49818496e-03, -2.70335134e-02,
       -1.28893508e-02, 5.95773524e-03, -4.09639766e-03, -6.63304888e-03,
       -1.40653150e-02, -1.42574487e-02, -3.74148181e-03,
       -2.21219193e-02, -2.53311824e-02, -2.84180231e-02,
       -6.92782283e-04, 3.50909703e-03, -1.87227316e-02, -2.37645824e-02,
       -7.05777714e-03, 9.71960369e-03, -1.27756118e-03, -2.48361174e-02,
       -1.38509953e-02, 1.48654752e-03, -6.81254454e-03, -7.03699701e-03,
       -1.21123642e-02, 2.49471725e-03, 2.56496705e-02, -3.82293807e-03,
       -1.90979503e-02, -1.53334280e-02, 2.26167589e-03, -2.94991839e-03,
       7.47292489e-03, -7.29319034e-03, -1.39458068e-02, -1.45786554e-02,
       1.87395280e-03, -2.14730129e-02, -1.61933787e-02, -1.61004416e-03,
       1.23749794e-02, 1.82183720e-02, -7.33499182e-03, -5.73672168e-03,
       -1.91160683e-02, -2.28954274e-02, -3.39164026e-02,
       -1.99539773e-02, -1.15509219e-02, 2.41640154e-02, -4.48975665e-03,
       -4.86586243e-03, 2.30111019e-03, 7.98651669e-03, 9.17433575e-03,
       -1.62924882e-02, -1.05646513e-02, -2.56344490e-03,
       -2.28922744e-03, 9.44423862e-03, 5.58864966e-04, -9.51349968e-04,
       9.72068496e-03, -1.83118805e-02, -1.77343655e-02, -6.39158487e-03,
       -2.03722902e-03, 6.19267253e-03, 4.34875814e-03, -1.72652919e-02,
       -1.90041475e-02, -2.15300415e-02, 2.56094616e-03, -1.59681980e-02,
       -1.07258037e-02, -5.28432569e-03, 1.09074386e-02, -7.32333586e-03,
       -1.42537337e-02, -2.43691579e-02, -1.75808948e-02, 2.31119525e-02,
       -2.16103084e-02, -7.75948749e-04, 8.87972862e-03, -3.00842832e-04,
       7.12525984e-03, -6.49374165e-03, -1.24643249e-02, -8.59957002e-03,
       8.76364764e-03, -6.81260182e-03, -5.28159132e-03, -1.69475249e-03,
       1.94761110e-03, -4.90088528e-03, 4.19949042e-03, -8.72422662e-03,
       -5.78456849e-04, 6.04373123e-03, -6.96244650e-03, 2.17484566e-03,
       4.45841998e-03, -5.46489563e-03, -7.08432030e-03, 3.38396709e-03,
       -8.31977744e-03, -2.86640343e-03, 2.20617699e-03, -1.71487629e-02,
       -8.67557526e-03, 2.27308273e-03, -6.90395245e-03, 3.73169710e-03,
       -3.45575972e-03, -5.22932503e-03, -1.37154702e-02,
       -3.37758847e-02, -3.18997428e-02, -1.96406674e-02,
       -1.17467400e-02, -3.86465387e-03, -3.49636888e-03, 9.55135841e-03,
       -2.64578848e-03, -4.94066905e-03, 1.83174515e-03, 2.42693420e-03,
       -5.95863443e-03, 2.43299594e-03, -3.84229212e-03, -1.65583275e-03,
       3.66177992e-03, -1.91110722e-03, 4.98741493e-03, -4.03645122e-03,
       -1.06924120e-02, -2.14482029e-03, 3.77474166e-03, -4.15103696e-03,
       1.70172881e-02, 6.87192287e-03, -7.49299361e-04, -1.35166850e-02,
       -1.21041369e-02, -2.73152646e-02, -1.88763160e-02,
       -8.09100270e-03, 5.12774009e-03, 4.31853859e-03, 9.88274720e-03,
       -8.24456662e-03, -3.43204141e-02, -1.03631355e-02,
       -2.53069531e-02, -3.06353662e-02, -1.78204458e-02,
       -1.59079228e-02, 1.99779198e-02, 6.17791107e-03, 2.20726919e-03,
       -3.60853854e-03, 2.29470227e-02, -1.19569851e-02, 2.20852043e-03,
       1.45986024e-02, 2.29185317e-02, -1.43084978e-03, 1.17291771e-02,
       1.05473846e-02, -1.40583906e-02, 5.03722951e-03, -1.23405103e-02,
       -2.03999784e-02, -1.12064583e-02, -2.71100388e-03, 9.65452567e-03,
       5.90288965e-03, 7.11322390e-03, -2.06381734e-02, 8.20110831e-03,
       -1.33921457e-02, -1.86289940e-02, -1.28907971e-02,
       -6.37397962e-03, 7.38900807e-03, -6.08075468e-04, -1.09523640e-03,
       -2.45494582e-02, -2.37298221e-03, -1.44084329e-02,
       -9.13313963e-03, 6.86524902e-03, 6.17038365e-03, -1.84409192e-03,
       6.55799406e-03, 1.42813157e-02, -7.18586752e-03, 1.97995063e-02,
       6.68613426e-03, -1.05945580e-02, -2.00225669e-03, 3.12915118e-03,
       -1.16698910e-02, 1.13499109e-02, 1.11075602e-02, -1.20396344e-02,
       1.60722598e-03, 1.11355772e-03, -1.22639230e-02, 7.17527932e-03,
       -1.38456072e-03, 7.80300051e-03, -3.44683835e-03, -7.06037926e-03,
       -1.77435204e-02, 1.86821260e-02, -8.21423810e-03, -5.60997170e-04,
       1.40375504e-02, 1.24411331e-02, 4.59961733e-03, -4.01357887e-03,
       -1.25922523e-02, -1.87068991e-02, -1.07606770e-02,
       -1.24122258e-02, -1.35466214e-02, 4.52380814e-03, 3.19064781e-03,
       -1.01382704e-02, 7.57023040e-03, 3.82982427e-03, -1.35010779e-02,
       8.75167176e-03, 1.07405894e-02, 3.08736786e-03, 6.45451993e-03,
       -2.88509438e-03, 2.00055214e-03, -7.59065757e-03, 2.65860045e-03,
       -4.57229698e-03, -7.26527884e-04, -8.74859188e-03,
       -8.32078140e-03, 3.17039271e-03, -1.61978300e-03, 6.98324526e-03,
       3.29224183e-03, -6.33435464e-03, -1.46389389e-02, 7.16750277e-03,
       -1.00790747e-02, -5.35036065e-03, -6.11325959e-03, 8.70713091e-04,
       1.52561218e-02, 1.40368454e-02, -4.25402122e-03, -1.74821280e-02,
       -2.51529971e-03, -1.77327935e-02, -1.25619341e-02,
       -1.74096581e-02, 3.52357095e-03, -3.88550130e-03, -4.09880746e-03,
       -3.49419005e-03, -4.97560529e-03, 1.87964626e-02, -1.47267804e-03,
       -1.83278590e-03, 1.12417061e-03, -9.18969326e-03, 7.60174636e-03,
       1.23687377e-02, 2.15573097e-03, -5.12618758e-03, 7.41660781e-03,
       -1.07513787e-02, -1.36785470e-02, -6.80860551e-03, 1.35504967e-03,
       1.43739050e-02, 2.01841481e-02, 1.19143107e-03, -1.12480065e-02,
       -4.25572740e-03, -2.50414014e-02, -1.41665852e-02,
       -1.53975338e-02, -7.43884128e-04, 1.55191198e-02, -1.98446983e-03,
       -7.63990916e-03, -2.79897749e-02, -8.11446272e-03,
       -3.31990421e-02, -1.48176132e-02, -6.77798875e-03, 1.14995027e-02,
       -1.04877795e-03, 1.01751275e-02, 1.18589094e-02, -6.06983434e-03,
       1.27256196e-02, -1.01362411e-02, -1.51441814e-02, 1.43321324e-03,
       3.57344560e-03, -1.94168873e-02, 7.69304344e-03, 1.68481562e-02,
       -1.06120203e-02, -2.91622616e-03, -1.81029495e-02,
       -4.80601564e-03, 4.93665272e-03, -1.24786114e-02, 7.02889450e-03,
       -8.60834587e-03, -8.30202177e-03, -2.80390810e-02,
       -8.04828107e-03, -1.12191075e-02, 6.81020832e-03, -5.73746487e-03,
       1.20016094e-03, 1.01176267e-02, -9.09816101e-03, -4.25860239e-03,
       -3.03374436e-02, -2.69835293e-02, -1.78262684e-02, 1.73410727e-03,
       -1.31608192e-02, 1.88177507e-02, -1.45804556e-02, 8.63262825e-03,
       2.15031859e-03, -1.78447179e-02, 1.38120791e-02, 5.76575799e-03,
       1.15778530e-02, 6.76608225e-03, -1.68001465e-02, -9.24479403e-03,
       1.02997450e-02, 1.99247766e-02, -1.50275808e-02, -1.33687546e-02,
       -4.82687121e-03, -1.14795286e-03, -3.15592368e-03,
       -6.41221739e-03, -2.54405616e-03, -6.34181965e-03,
       -6.25005085e-03, -2.06735730e-02, -2.48838942e-02,
       -1.94561630e-02, -8.44253227e-03, -5.96789038e-03,
       -1.64654179e-04, -1.52009877e-03, 4.61775996e-03, 2.29167359e-04,
       -2.89498661e-02, -2.03925092e-02, -1.11988867e-02, 3.71065969e-03,
       -9.84783401e-04, 7.69880973e-03, -1.10727185e-02, 7.17636384e-03,
       9.05094389e-03, -2.53082234e-02, 5.17366175e-03, -9.08483192e-03,
       -3.16630723e-03, 3.46327736e-03, -1.06278108e-02, 1.37447817e-02,
       7.71318609e-03, 1.82891323e-03, -1.72559135e-02, -2.44235736e-03,
       -1.18986759e-02, -6.96255593e-03, -5.34211937e-03, 1.24766771e-02,
       -1.97174330e-03, 1.82321593e-02, 1.66069940e-02, -2.44038403e-02,
       -1.26681589e-02, -7.64334854e-03, 8.49157479e-03, 7.54841371e-03,
       2.83990568e-03, -3.91228730e-03, -7.61580653e-04, 1.59926005e-02,
       -1.08181527e-02, -6.43073057e-04, -1.15108350e-02,
       -4.35242709e-03, -4.95943800e-03, -5.00135776e-03, 1.23204070e-03,
       2.12486321e-03, -3.77988489e-03, -1.61390286e-02, 6.07286813e-03,
       1.15495815e-03, -8.64593405e-03, -8.27955827e-03, 4.56996355e-03,
       3.53649928e-04, -4.85001132e-03, 1.01254880e-02, -7.45024765e-03,
       -9.80070606e-03, 1.33823243e-03, -6.06734538e-03, -5.61344810e-03,
       9.59372707e-03, 1.92119484e-03, -3.47447069e-03, 2.35892273e-03,
       -1.59290060e-02, -1.30004575e-02, -1.07195321e-02, 3.66157014e-03,
       1.40650396e-03, 8.08304548e-03, 2.36301636e-03, -6.44529099e-03,
       -1.74485780e-02, -4.92450409e-02, -2.56692301e-02,
       -3.24637368e-02, -9.30157898e-04, 1.25714848e-02, 1.95966922e-02,
       -5.19468030e-03, -1.00940764e-02, 1.78365735e-03, -1.94087345e-02,
       1.01980055e-02, 9.28198732e-03, 1.22071346e-02, 1.47224311e-03,
       8.61469842e-03, 1.99354254e-03, 9.33916657e-04, -5.94545249e-03,
       -2.08343603e-02, -1.28190161e-03, -1.66602954e-02,
       -7.41531793e-03, -6.65025599e-03, 1.02342041e-02, 5.61759574e-03,
       -4.46051639e-03, -1.03855766e-02, -4.65624742e-02,
       -1.59135554e-02, -1.57112293e-02, 1.24678889e-03, 5.57354419e-03,
       1.34576792e-02, -3.57677788e-03, -5.55927120e-03, -1.26231955e-02,
       -4.30372097e-02, -1.34635009e-02, -2.00707875e-02, 1.69544783e-03,
       3.21878749e-03, 7.14268442e-03, 3.35043902e-03, 3.84523673e-03,
       3.17406026e-03, -1.67476740e-02, 1.90699194e-02, -1.15401186e-02,
       -6.97441073e-03, -2.27569090e-03, 2.49752379e-03, 1.30624734e-02,
       -1.44689614e-02, -1.70895237e-05, -1.32632703e-02,
       -1.65612157e-03, -2.35051457e-02, -1.53461127e-02,
       -3.40337679e-03, 8.60928744e-03, 1.03726229e-02, 8.15338641e-03,
       -2.11096182e-03, -2.76381299e-02, -2.14110930e-02,
       -1.06664160e-02, 8.82576779e-03, 4.30044573e-04, 5.04961424e-03,
       1.47659928e-02, 1.09339077e-02, -6.90929312e-03, -1.89861264e-02,
       -1.87125206e-02, -2.33584791e-02, -1.18118222e-03,
       -1.81059018e-02, -4.41304781e-03, -1.91339303e-03,
       -8.05020519e-03, 2.25503370e-03, -2.34224722e-02, -1.44526851e-03,
       4.57316823e-03, 2.71130330e-03, -9.01009829e-04, 5.21076703e-03,
       1.18891262e-02, -1.11005385e-03, 4.88991942e-03, -4.27128514e-04,
       3.92426364e-03, -6.51364168e-03, 9.24247783e-03, -7.53438473e-03,
       9.21342149e-03, -2.84046959e-03, -2.73374608e-03, -3.88863403e-03,
       -9.56972502e-03, -2.09613275e-02, -1.41949598e-02,
       -1.12742381e-02, -6.74937526e-03, -2.34251586e-03, 4.34058439e-03,
       -1.50036523e-02, 7.73147540e-03, -7.91786297e-04, -1.38433301e-03,
       -2.49208603e-02, -3.95410229e-03, -5.86213032e-03, 1.36154126e-02,
       4.55836393e-03, -9.86244064e-03, 3.99144040e-03, -4.81596478e-04,
       6.95785182e-03, -3.57018062e-03, 2.00917083e-03, -1.12971459e-02,
       9.39201098e-03, -6.05850155e-03, -1.49847548e-02, 1.88296158e-02,
       1.46412421e-02, 2.36548297e-03, -7.12237554e-03, -5.39121265e-03,
       -1.31404782e-02, 1.18998310e-03, -2.43895059e-03, -1.13417935e-02,
       2.08154283e-02, -3.54345166e-03, -2.17383038e-02, -1.99197009e-02,
       -2.23632040e-03, -1.28151029e-02, -3.89641430e-03,
       -3.99638899e-03, -4.09643166e-03, 1.87815651e-02, -1.08841136e-02,
       -1.93406790e-02, -3.24903168e-02, -2.03754809e-02,
       -3.68251652e-02, -1.22333439e-02, -6.71210932e-03,
       -1.15658185e-02, 1.65138636e-02, 3.21377721e-03, 2.76513863e-04,
       -5.14884433e-03, 8.10153724e-04, -9.87584144e-03, -6.33791729e-04,
       9.79052018e-03, -9.96582955e-03, 3.80638056e-03, 2.66799168e-03,
       -6.40180195e-03, -2.16927286e-02, -8.77796498e-04,
       -1.16972355e-02, 5.86679764e-03, 2.43929867e-03, 1.20807337e-02,
       9.26539488e-03, -1.46067785e-02, -1.44546675e-02, -2.37475466e-02,
       -1.09146694e-02, -1.99160650e-02, -7.31893163e-03, 4.56376327e-03,
       -4.59661428e-03, -8.62508547e-03, -2.38738321e-02, 1.78262629e-02,
       -1.25730177e-02, 7.11297290e-03, -7.85425026e-03, 1.28084095e-02,
       -4.43664147e-03, -7.70842831e-04, 4.09747520e-03, -1.54405683e-02,
       -1.02321953e-02, -1.64226778e-02, 3.13582132e-03, -4.14223038e-03,
       5.18878049e-04, 4.18744050e-03, -7.39530660e-03, -2.62091565e-03,
       -1.16440523e-02, -7.36507168e-03, -3.04623833e-03, 9.44064558e-03,
       -3.40335374e-03, 1.15616983e-02, -1.21627459e-02, -7.64916837e-03,
       -5.70186228e-03, -7.07196724e-03, -4.27865982e-03,
       -1.74880680e-02, -2.15719570e-03, -4.51326743e-03,
       -7.15848943e-03, -8.75201356e-03, 2.83640693e-03, 1.34284375e-04,
       -9.01738007e-04, 3.47558898e-03, -2.82859355e-02, -1.04496470e-02,
       8.16011219e-04, -8.60004965e-03, -1.41980173e-02, -6.80686906e-03,
       1.16201432e-03, -3.29804700e-03, -1.26024773e-02, -1.59831084e-02,
       3.47076193e-03, -5.23063447e-03, -1.19905779e-02, -7.47215562e-03,
       -3.64733278e-03, -8.84877238e-03, -1.16430465e-02,
       -9.94307362e-03, -2.42865738e-02, -4.98580886e-03,
       -2.75041355e-04, -1.21147214e-02, -6.63096085e-03, 5.22084162e-03,
       -9.41133499e-03, -1.81056783e-02, -1.76447965e-02,
       -2.39121448e-02, 2.05137301e-03, 5.73006971e-03, -5.92971733e-03,
       -1.20437099e-02, 1.02187395e-02, 3.12612974e-03, -1.87375173e-02,
       7.62057165e-03, -9.68742184e-03, 1.70745179e-02, 1.29326023e-02,
       -6.47031295e-04, -1.15906596e-02, 6.18247315e-04, -3.24894837e-03,
       -1.68885570e-02, -1.60422940e-02, -8.77196528e-03, 1.20157972e-02,
       1.06809111e-02, -8.65854416e-03, -3.58094717e-03, 8.00944865e-03,
       3.57848010e-03, -6.92503527e-03, 1.38939032e-03, -2.48053251e-03,
       9.30721685e-03, 3.27082071e-03, -5.31324791e-03, -6.47638552e-03,
       1.05251465e-02, 1.62469111e-02, -4.60440991e-03, -8.48784856e-03,
       -9.46339127e-03, 5.98112354e-03, 3.46086361e-03, -4.29731747e-03,
       -7.40910601e-03, -1.92996697e-03, 1.18640782e-02, -1.03536667e-02,
       5.28236479e-03, -1.40315425e-02, 4.20756871e-03, -5.14777238e-03,
       -6.74647337e-04, -1.55074764e-02, 2.85668625e-03, 6.75720256e-03,
       -8.28482583e-03, -7.80738238e-03, -1.28183970e-02,
       -1.81111658e-03, -7.56145688e-03, -9.63010732e-03,
       -3.54792946e-03, -7.13860849e-03, -1.51871995e-03,
       -5.73011627e-03, 3.60661419e-03, -2.10997015e-02, -5.70084620e-03,
       -8.53970554e-03, 2.00888980e-03, 1.32176571e-03, 3.42879757e-05,
       -2.07374664e-03, -1.73177682e-02, 7.71744922e-03, -1.46892797e-02,
       -1.14785056e-04, -5.83787216e-03, 1.32265454e-03, 4.61432384e-03,
       2.51923921e-03, -1.47523852e-02, -1.70426685e-02, 1.02610774e-02,
       -8.43366422e-03, 1.67926159e-02, 1.41760260e-02, 1.14382589e-02,
       -2.46622512e-04, -6.91024726e-03, 4.47886530e-03, -6.84454245e-03,
       -2.69854348e-03, -1.93932187e-02, -4.09697462e-03,
       -5.64552983e-03, -4.19965433e-03, 4.12259391e-03, -1.09546129e-02,
       -7.71866273e-03, -2.43668980e-03, 3.74092185e-03, -1.29216793e-03,
       1.02162790e-02, 9.55209974e-03, 1.07353413e-02, -1.92649681e-02,
       -1.90854054e-02, 2.19433326e-02, 2.04692502e-02, 1.15631530e-02,
       -1.46885896e-02, -5.98368375e-03, -9.08785313e-03,
       -1.70349982e-02, -2.18295678e-02, -1.77245531e-02, 6.28986815e-03,
       2.28727446e-03, -2.19501816e-02, -1.52657526e-02, -6.98732503e-04,
       5.64592145e-03, -1.72005873e-02, -1.59760565e-02, -1.72041636e-02,
       2.51202118e-02, 1.22844568e-02, 1.51539519e-02, -1.29133202e-02,
       -6.16871752e-03, -9.35532432e-03, -1.55731495e-02,
       -7.07769115e-03, 3.36546893e-03, 3.20834108e-02, 1.32899880e-02,
       8.60880129e-03, -1.32633345e-02, -9.49110836e-03, -9.28207207e-03,
       -1.90402791e-02, -7.55824149e-03, -1.94000434e-02, 6.75837789e-03,
       2.08694558e-03, -2.06370861e-03, -1.65162198e-02, -3.76712560e-04,
       5.39297098e-03, -7.10794993e-04, 2.95523641e-04, -1.63866989e-02,
       1.79075659e-03, -4.43026703e-03, -8.57159030e-03, -1.35849817e-02,
       -8.32822919e-03, -7.34015834e-04, -1.87036372e-03,
       -6.70554675e-03, -9.52252280e-03, 1.37587879e-02, -7.62953842e-03,
       6.93320809e-03, -2.30457690e-02, -1.20507544e-02, -3.52624059e-03,
       -4.89512878e-03, 7.22693931e-03, 1.37641439e-02, 1.27928844e-02,
       -6.91775884e-03, -6.69835834e-03, -3.59073794e-03,
       -7.82052521e-03, 1.18518958e-03, 6.25600759e-03, -5.07674087e-03,
       -1.11490386e-02, 3.46796960e-03, -7.24095909e-04, -1.08605018e-02,
       -1.32450275e-02, -7.52898119e-03, -1.97222992e-03,
       -6.12616818e-03, 7.71390460e-03, 1.40684098e-03, 3.69607890e-03,
       6.22404972e-03, 1.81521929e-03, -1.68258585e-02, -2.50702002e-03,
       -1.31666218e-03, -3.69261811e-03, 7.26939598e-03, -7.83504162e-04,
       6.78634783e-03, -6.29610196e-03, -1.08221602e-02, -2.87093641e-03,
       5.41125832e-04, 1.60481967e-03, 5.38452482e-03, 1.28562590e-02,
       -4.85468796e-03, 9.11614206e-03, 1.18398229e-02, 2.14018058e-02,
       -1.52830305e-02, -5.01492200e-03, -9.82753001e-03, 9.30656958e-03,
       1.11453691e-02, 1.32786697e-02, 5.90334414e-03, -4.18834592e-04,
       -9.36412625e-03, -9.50204395e-03, -1.84839999e-03,
       -1.01770950e-03, -3.30493762e-03, 1.29887359e-02, 1.09273158e-02,
       -1.26844051e-03, -6.30546827e-03, -1.26741165e-02,
       -7.92997424e-03, -7.58895697e-03, -6.78636506e-03,
       -5.88479592e-03, 5.93740819e-03, 3.57130729e-03, -5.53708058e-03,
       1.12161433e-04, 1.14483954e-02, -1.03900889e-02, -8.22835509e-03,
       -1.35974372e-02, 4.82571952e-04, 3.15046310e-03, -1.01242485e-02,
       -6.41611079e-03, 7.42056454e-03, 2.59256195e-02, 3.71316797e-03,
       -4.12834296e-03, -1.58378549e-04, 7.35669723e-03, 8.34568404e-03,
       1.56909488e-02, 8.38347990e-03, -3.44219268e-03, 1.63740327e-03,
       2.69393669e-03, -6.76769065e-03, -5.33431675e-03, -5.61499596e-03,
       9.02068056e-03, -6.29703468e-03, 1.34552992e-03, -1.03467079e-02,
       -1.41489645e-02, -4.36209794e-03, 1.79251679e-03, -7.82048155e-04,
       6.44164160e-03, 3.06347385e-03, 4.28352831e-03, 9.89060849e-03,
       -1.29942107e-03, 6.30874559e-03, 6.94062887e-03, -1.91759682e-04,
       -2.84608803e-03, 5.30849909e-03, -5.58575056e-03, -4.16451739e-03,
       -4.13230387e-03, 7.02296803e-03, -7.46519212e-03, -2.33730138e-03,
       2.02560495e-03, -1.20278234e-02, -2.33227341e-03, -3.08266521e-04,
       -8.87336209e-03, -4.16784920e-03, -1.53985340e-02,
       -1.07940903e-03, 2.31172395e-04, 6.40610605e-03, 5.76650538e-03,
       2.03816220e-02, -1.11444807e-02, 4.26935847e-04, 1.73852760e-02,
       -3.72262113e-03, -1.40886521e-02, -1.21030733e-02,
       -1.27293663e-02, -4.69392911e-03, 1.23788053e-02, -3.19109531e-04,
       -1.06370049e-02, -2.34942604e-03, -1.22753689e-02, 1.73188355e-02,
       2.03560037e-03, 5.29230386e-03, -2.16464186e-03, 2.24982924e-03,
       -1.76889589e-03, -3.27266962e-03, 2.40277220e-02, 6.67570764e-03,
       -7.39407400e-03, -3.86636518e-03, -6.60732947e-03,
       -6.62614033e-03, 3.59903113e-03, -3.51607706e-03, 5.31679427e-04,
       9.12811887e-03, 4.23912983e-03, 6.20596251e-03, -3.51607054e-03,
       -3.57806240e-03, 6.61469251e-03, 1.33911055e-02, -5.22875972e-03,
       1.65810820e-03, 4.34807455e-03, -1.52088664e-02, 6.23587891e-03,
       -4.45464719e-03, -4.03067184e-04, 7.34816678e-03, 7.01428857e-03,
       1.57689897e-03, 5.50888188e-04, 1.29723530e-02, 6.38333708e-03,
       1.97680201e-02, 3.54423514e-03, 5.29526034e-03, 4.83910320e-04,
       1.46205733e-02, -6.31711585e-03, -8.00420158e-03, 3.19954194e-03,
       -8.81918706e-03, 2.10755449e-02, -2.15794449e-03, 2.94844806e-03,
       -1.21128988e-02, -8.13159253e-03, -6.88638212e-03, 3.60523607e-03,
       -1.27990774e-04, -1.56792793e-02, -1.17269577e-03, 2.76709185e-03,
       8.55515990e-03, 5.87760424e-03, -6.12416165e-03, 2.44346866e-03,
       -2.38160370e-03, 4.12159739e-03, -1.91057648e-03, 9.30537656e-03,
       -8.03225115e-03, -3.20444047e-03, -6.85092714e-03,
       -4.03830269e-03, -5.37483953e-03, 4.61436668e-03, 1.62796602e-02,
       -3.21307150e-03, 1.24800494e-02, 1.13866653e-03, 9.51346755e-03,
       2.69586220e-03, -4.73226048e-03, 3.08543420e-03, 7.96539150e-03,
       6.56772312e-03, -4.15946357e-03, -1.32691199e-02, -1.13603715e-02,
       5.01226052e-04, -9.96017084e-03, -7.82434084e-03, -2.40977574e-03,
       -3.10687744e-03, -3.11489752e-03, -1.37078343e-02,
       -6.84631523e-03, -4.49048588e-03, 2.25708634e-03, -4.99750534e-03,
       -3.64753068e-03, -8.28132872e-03, 5.19267609e-03, 1.88346166e-04,
       -1.35908313e-02, -1.55646140e-02, -7.33199110e-03, 6.93650870e-03,
       -2.04329332e-03, -8.30328092e-03, 6.35870313e-03, -3.35926749e-03,
       2.84462003e-04, -3.02719977e-02, 1.00942561e-02, -7.02158688e-03,
       4.40904265e-03, -5.68195945e-03, -5.16056735e-03, 7.08027277e-04,
       8.34194798e-05, 1.15313604e-02, -1.59811210e-02, 5.44128334e-03,
       -3.84865003e-03, 7.10707577e-03, 1.26259192e-03, 1.59702799e-03,
       -8.40635132e-03, -1.20197896e-04, 6.75915694e-03, -6.87300786e-03,
       -5.57957962e-03, -1.30007248e-02, -4.60532075e-03, 7.09563028e-04,
       -9.69221350e-03, -7.61089497e-04, -4.48671024e-04, 5.55598922e-03,
       -1.75980721e-02, -2.10534316e-02, -1.30495867e-02,
       -9.81845707e-03, 2.89196265e-03, 8.76328815e-03, 1.52539508e-03,
       4.41500638e-03, 1.76930334e-02, -1.50282541e-02, -3.91199428e-04,
       -1.85184297e-03, 1.16253057e-02, 7.26047577e-03, 1.65880809e-03,
       3.03981290e-03, -1.16400309e-02, 6.93154754e-03, -1.33090699e-02,
       -1.00032445e-02, -1.03021804e-02, -1.36444727e-02,
       -7.25287991e-03, 1.07734445e-02, -1.53124926e-03, 8.91174749e-03,
       8.79495032e-03, -1.39438622e-02, -5.01794601e-03, 1.08458046e-02,
       3.96277569e-03, 4.09472361e-03, 1.76016428e-03, -9.50780883e-03,
       8.63036781e-04, 1.22427931e-02, -1.98047031e-02, -1.40217906e-02,
       -1.26608517e-02, -1.04400124e-02, -1.00125922e-02,
       -8.17804690e-03, -9.50206537e-03, -5.62477298e-03, 1.04813008e-02,
       -2.50607468e-02, 2.14761905e-02, -1.25289615e-03, -4.84713772e-03,
       4.55016876e-03, 1.04763545e-02, -2.06224043e-02, 2.67258962e-03,
       2.49656439e-02, -1.09247873e-02, 1.87675226e-02, -1.07814465e-02,
       7.73329695e-04, -4.85709682e-03, -7.99515564e-03, -3.35322879e-03,
       -2.26809178e-03, 1.25493165e-02, -1.51601378e-02, 1.19712250e-03,
       -1.69691313e-02, -3.61898053e-03, 1.87289994e-03, 2.08552601e-03,
       -5.55719761e-03, -2.55654682e-03, 1.79732987e-03, -1.65434144e-02,
       -1.45186251e-02, -1.41063184e-02, -1.30498791e-02,
       -7.77692255e-03, -1.38016720e-03, -9.16327164e-03, 2.61457660e-03,
       6.44444767e-03, -1.45706190e-02, 2.07841471e-02, -8.75584502e-03,
       4.33973316e-03, -8.99764709e-03, 7.31443707e-03, -3.29495664e-03,
       2.47068354e-03, 2.08609123e-02, -7.89845188e-04, 1.27434116e-02,
       -1.88779726e-03, 6.64614001e-03, 4.75864997e-03, 4.43408673e-04,
       1.96711975e-03, -3.56237078e-03, -3.35458596e-03, -1.49692548e-02,
       -5.62732760e-03, 3.65734624e-04, -7.14848237e-03, -9.06000659e-03,
       8.72119796e-03, -7.61831040e-03, -1.02926288e-02, 5.35075180e-03,
       -1.27562787e-02, 1.65122245e-02, 5.55167627e-03, -6.64478051e-04,
       -1.91354728e-03, 9.09373164e-03, -9.35321907e-04, 4.89222584e-03,
       1.01404246e-02, -8.41700751e-03, -1.15802512e-02, 9.09487624e-03,
       1.06000761e-02, 1.54891405e-02, 2.87651113e-04, 3.42829665e-03,
       -4.72888909e-03, 1.39996242e-02, -5.04759513e-03, 2.22794935e-02,
       6.25554053e-03, 6.66218996e-03, 1.37718627e-02, 8.69863760e-03,
       -1.51732294e-02, -6.16277941e-03, 4.21598926e-03, -8.50856304e-03,
       -3.53757082e-03, 5.35471085e-03, 1.10823335e-02, -1.98686705e-03,
       6.23346947e-04, -9.24357306e-03, -1.95191614e-03, -1.80414726e-03,
       -1.27765955e-02, 1.02270930e-03, -2.04656962e-02, 2.86035053e-03,
       -1.81280077e-02, -1.10758245e-02, 3.25563410e-03, -3.87410307e-03,
       1.20634018e-02, -5.81796630e-04, 1.33454595e-02, 1.33867972e-02,
       1.95233189e-02, 7.79185677e-03, 6.43795356e-03, 8.37201346e-03,
       -1.75695447e-03, 1.12196449e-02, 1.27096139e-02, 4.19146148e-03,
       -2.15884652e-02, 3.17012705e-03, -5.32537000e-04, 4.04594792e-03,
       1.07549317e-02, 1.34599935e-02, 1.43985767e-02, 7.21267192e-03,
       -1.37651227e-02, -1.01248370e-02, 9.47229215e-04, -5.18981135e-03,
       -5.29711926e-03, 1.32250693e-02, -8.10252968e-03, 5.02857333e-03,
       4.65653697e-03, -2.81701540e-03, -1.31745655e-02, -8.41863081e-03,
       -9.07108129e-04, -1.04194775e-03, 1.85786262e-02, -1.09727764e-04,
       9.41786449e-03, 7.74325011e-03, 8.37311149e-03, 2.05128058e-03,
       1.63261387e-02, 3.97420349e-03, 5.70352981e-03, 1.26783466e-02,
       -7.54124345e-03, -2.25488539e-03, 1.05205072e-04, -7.86901731e-03,
       -5.55301318e-03, 5.08021936e-03, 3.07902601e-03, 8.92601814e-03,
       5.67442796e-04, -7.97783677e-03, 8.53516627e-03, -4.70257411e-03,
       -1.38079040e-02, 5.57452254e-03, 4.48436011e-03, -8.51063710e-03,
       -1.22381132e-02, 8.34452454e-03, -1.16869416e-02, 8.66917521e-03,
       -1.43942147e-04, -1.72039215e-02, -3.70393245e-04, 7.39680743e-03,
       3.76504409e-04, -2.58070999e-03, 1.60406046e-02, -9.11016075e-04,
       4.11247229e-03, -9.59821045e-03, 1.77552234e-02, 2.47522211e-03,
       3.45961511e-04, -3.78261320e-03, 1.30301481e-02, 1.30903944e-02,
       -8.56127776e-03, 8.35428538e-04, 6.35349937e-03, 3.25287599e-03,
       1.34872226e-03, -2.52207788e-03, -5.90591645e-03, 3.12619610e-03,
       -3.26561043e-03, -1.90008059e-02, 1.47903524e-03, -5.63389447e-04,
       -1.01240538e-02, -3.16439499e-03, -5.17091656e-04,
       -5.00077335e-03, -5.51539881e-04, -7.80504663e-03,
       -2.59758253e-02, 3.57726007e-03, 5.15538128e-03, -7.94547552e-04,
       -1.15769496e-03, 1.06088202e-02, -8.52066465e-03, -7.06670946e-03,
       8.29517189e-03, -1.49831246e-03, 8.22570641e-03, 9.41504040e-05,
       9.48270224e-03, -2.49062083e-03, 5.84504625e-04, -4.19914769e-03,
       4.89893276e-03, -6.72780676e-03, -1.43127628e-02, -6.08392525e-04,
       6.92444714e-03, 1.73120238e-02, -1.16757136e-02, 8.80501978e-03,
       -9.28827561e-03, -5.78510924e-04, 1.59571500e-04, -1.94414072e-02,
       6.80647418e-03, -1.67530403e-03, -2.77791475e-03, -1.03434743e-02,
       5.36886184e-03, -6.66952925e-03, -4.64491034e-03, 3.83120985e-03,
       -1.40203433e-02, 1.49083044e-02, 7.50584621e-03, 4.77749202e-03,
       -1.66107435e-02, 3.92511720e-03, 2.90429173e-03, 1.75220019e-03,
       -3.30059975e-03, -2.12170444e-02, -6.01622043e-03,
       -8.30632448e-03, 2.83743464e-03, -1.16289007e-02, 1.06486504e-03,
       -1.04035577e-02, 3.49292275e-03, -8.48746113e-03, -2.00556088e-02,
       1.48007981e-02, 9.15902958e-04, -1.42082732e-04, -1.86759382e-02,
       -8.95460881e-03, -8.96295719e-03, -5.95324347e-03,
       -2.58408440e-03, -1.30397435e-02, 6.82008732e-03, -1.62527449e-02,
       -5.28600626e-03, -1.14572654e-02, 1.36544518e-02, 1.01807937e-02,
       5.05298562e-03, 1.36623008e-03, -6.92324108e-03, 4.99833189e-03,
       4.38360218e-03, -5.66064054e-03, 1.83095341e-03, 1.68335196e-02,
       3.39796068e-03, 3.26686609e-03, -1.88213326e-02, -1.76487640e-02,
       1.96215999e-03, -1.63454842e-02, 9.21500556e-04, -2.32229773e-02,
       -6.72277249e-03, -8.11879523e-04, -1.07395342e-02,
       -5.61096845e-03, -2.38205655e-03, 5.26145473e-03, 1.08120451e-02,
       -1.22806683e-04, 1.10852369e-03, 8.16944800e-03, -6.86558755e-03,
       -5.82457893e-03, -2.29894556e-03, -7.09792785e-03, 3.31754470e-03,
       -1.00187142e-03, -1.71759129e-02, -4.77934023e-03, 6.40018331e-03,
       -4.25867084e-03, -1.18292635e-02, -8.92031007e-03,
       -6.74359128e-03, -7.67722959e-03, -1.45347388e-02, 2.00842489e-02,
       -1.62582397e-02, 2.97152437e-03, 3.20779323e-03, -1.37528470e-02,
       -3.68626416e-03, 7.11364718e-03, 6.65810192e-03, 9.54803731e-03,
       -1.20780114e-02, -2.25397735e-03, 5.61659457e-03, -9.00653843e-03,
       -9.06487554e-03, -8.95876344e-03, -1.98463276e-02,
       -5.72256558e-03, -4.22827108e-03, 1.29977874e-02, -1.24022998e-02,
       1.69360673e-03, 2.75465776e-03, -1.30648045e-02, -1.38519527e-02,
       -1.44492490e-02, -5.22761187e-03, -1.68494880e-02,
       -1.19109293e-02, -1.27710123e-02, 1.19293295e-02, 1.28478054e-02,
       -1.04776407e-02, -8.28561094e-03, -9.63810552e-03,
       -9.16062947e-03, -1.55773005e-02, -2.87025981e-03,
       -4.80613485e-03, 1.48869473e-02, 5.97740849e-03, 1.62276742e-03,
       -9.13513731e-03, -1.30628208e-02, 1.00709542e-04, -1.11667775e-02,
       -1.07746152e-02, -7.87083991e-03, 4.98877140e-03, 1.64944362e-02,
       -1.64075419e-02, 2.14350387e-03, -1.47566302e-02, -7.73303071e-03,
       -1.98095329e-02, -1.35169830e-02, -6.23487448e-03, 1.89698469e-02,
       1.45673696e-02, -2.48103845e-03, -1.20557507e-03, 2.57689133e-03,
       8.27508792e-03, -9.17272363e-03, -1.36187095e-02, -9.77416988e-03,
       8.80112406e-03, -2.20048241e-03, 3.66280414e-03, 3.37614189e-03,
       -1.19799701e-03, 1.35269510e-02, -1.82940532e-03, -6.53916365e-03,
       -2.88122445e-02, -8.78210925e-03, -2.08300678e-03,
       -2.42618052e-03, 6.25428976e-04, -4.10409179e-03, -4.91304649e-03,
       -1.82423685e-02, -1.09509993e-02, -5.50814904e-03, 2.26418246e-02,
       4.53256397e-03, -7.55719282e-03, 6.73555257e-03, 3.44522297e-03,
       2.97889666e-04, -1.66742913e-02, 1.18606398e-02, -2.60609183e-02,
       4.85951593e-03, -2.32870015e-03, -1.99583545e-03, 6.31325599e-03,
       -3.93129233e-03, 1.48790916e-02, -2.02683662e-03, -9.67909023e-03,
       -3.00756544e-02, -9.35130008e-03, -1.51896616e-03,
       -3.07182223e-03, -2.29501422e-03, -1.60938259e-02, 2.77420622e-03,
       -4.99084825e-03, 1.31209465e-02, -1.20738056e-02, 1.51305338e-02,
       1.65004295e-03, -1.74579350e-03, 3.37341009e-03, 2.67950445e-03,
       1.47997085e-02, -1.29964454e-02, 4.45128838e-03, -2.18082294e-02,
       -1.82056625e-03, -3.32642859e-03, -7.43761193e-03, 1.02381771e-02,
       -4.97703580e-03, 1.24507667e-02, -2.70904461e-03, 1.25761703e-02,
       -2.14535929e-03, 2.52382848e-02, 1.77419710e-03, 6.52277004e-03,
       -1.88873336e-02, -1.78378988e-02, 1.62734725e-02, 8.42543493e-04,
       1.03526758e-02, -1.10117644e-02, -4.14075563e-03, -1.73793882e-02,
       -1.15259886e-02, -1.09433588e-02, -2.86728726e-03, 2.41355784e-02,
       -5.54689718e-03, 1.02248439e-03, -2.01205928e-02, -9.37126577e-03,
       -1.27327582e-02, -1.00568160e-02, -1.94679033e-02,
       -1.91265028e-02, 1.85056012e-02, 1.17443446e-02, -2.41708150e-03,
       -1.67950820e-02, -1.23956678e-02, -2.42969748e-02,
       -7.22099794e-03, -5.40778739e-03, -7.92204402e-04, 2.42746919e-02,
       6.95626298e-03, 4.62169154e-03, -1.01710972e-03, 3.01166065e-03,
       -1.06289592e-02, -5.26796933e-03, -2.32741912e-03, 1.91774115e-03,
       2.40592398e-02, -9.57022328e-03, 4.71260911e-03, -1.80961601e-02,
       -6.79496257e-03, -3.13694449e-03, 2.82421662e-03, -5.39653702e-03,
       4.92556300e-03, 1.26105743e-02, -1.32158352e-02, 7.43379770e-03,
       -1.38345957e-02, -1.18911928e-02, -9.60590318e-03, 1.30644429e-03,
       -3.51210870e-03, -5.30169578e-03, 1.48596568e-02, -5.60395001e-03,
       1.96648501e-02, 3.93607334e-04, 7.32800551e-03, -6.82652649e-03,
       -1.19743850e-02, 1.37138190e-02, 1.35860257e-02, 1.20758340e-02,
       2.88010179e-03, 1.05094519e-02, 2.16230075e-03, 9.67142172e-03,
       1.54401688e-03, 1.28242150e-02, -5.21008763e-03, 6.38494315e-03,
       1.57283209e-02, -9.66984034e-03, -1.63629781e-02, -5.14317211e-03,
       -1.98061054e-04, -2.40697386e-03, 1.08506787e-03, 1.89492805e-03,
       -8.53588711e-03, 1.23431266e-03, -1.47421006e-03, -7.93835614e-03,
       -1.50183970e-02, -1.03600072e-02, -1.68100633e-02,
       -1.72380661e-03, -9.51508991e-03, 1.01210072e-03, 1.43975904e-02,
       5.61968982e-03, -3.24337021e-03, 4.43241606e-03, 1.18032107e-02,
       6.28429465e-03, -1.67845795e-03, 1.32725956e-02, 5.63679030e-03,
       -1.33832954e-02, -1.12216156e-02, -1.37252139e-03, 6.61132671e-03,
       4.74757329e-03, 6.44432381e-03, 6.08253526e-03, 4.01772698e-03,
       -9.26701911e-03, -8.50522146e-03, -1.77881750e-03,
       -2.92536989e-03, -9.18615237e-03, -1.10820150e-02,
       -1.71298161e-02, 4.20770957e-04, 7.29866512e-03, -1.22174453e-02,
       -6.05179882e-03, -8.84073414e-03, 1.03461901e-02, -4.99475561e-03,
       -7.61631550e-03, -1.52589073e-02, 9.32891155e-04, 8.69188830e-03,
       1.33955255e-02, 5.17552625e-03, -7.42808729e-03, -1.02363331e-02,
       -6.70780707e-03, -8.80732760e-03, -5.51856356e-03,
       -3.29312449e-03, 1.09608211e-02, -2.52184016e-03, 3.02548823e-03,
       1.14772283e-03, -7.34168477e-03, 3.34578217e-03, -1.44499373e-02,
       -1.99436136e-02, -1.34987384e-03, 3.68143781e-04, 2.87534925e-03,
       8.22736882e-03, -4.16962709e-03, 7.54339388e-03, -3.95722501e-03,
       1.25508942e-03, -4.31300746e-03, 1.03135826e-03, 2.58058123e-03,
       -3.17128398e-03, -3.91408848e-03, 1.43517205e-03, -9.75964963e-03,
       -1.33135393e-02, -1.34847313e-03, -1.21643646e-02,
       -2.31571589e-03, 3.96634801e-04, 8.40892270e-03, 7.04196747e-03,
       -2.26307800e-03, -8.18902999e-03, 8.99306498e-04, 2.23091152e-03,
       -4.69350070e-03, -3.16202850e-03, 1.13654195e-03, -2.61689350e-03,
       3.50256712e-04, 5.66241844e-03, -1.07881948e-02, -1.22222491e-02,
       -9.96956788e-03, -4.32140054e-03, 1.17891533e-02, 1.02270013e-02,
       2.79952586e-03, 6.30914746e-03, 4.60150745e-03, 5.19696390e-03,
       -8.57427437e-03, 3.33221001e-03, -3.44632217e-03, 5.21847140e-03,
       4.13410226e-03, 6.54684706e-03, 1.78275146e-02, 4.50156443e-03,
       -1.69495996e-02, -1.24577731e-02, -1.69278379e-03,
       -9.66356881e-03, 9.90052242e-03, -1.62643858e-03, 2.52701953e-04,
       9.58248693e-03, 1.37375947e-03, 1.10573163e-02, -3.64149944e-03,
       -4.72086761e-03, -2.14761030e-03, 2.38237018e-03, -1.45552577e-02,
       5.24398452e-03, 1.22726122e-02, 6.15729950e-03, -2.60712896e-02,
       -1.68334562e-02, -4.67948150e-03, -5.25205815e-03,
       -1.35128258e-03, 3.46584548e-03, 5.89842955e-03, 1.00673651e-02,
       1.19314706e-02, 8.70427303e-03, 5.74754318e-04, 2.81745335e-03,
       -7.44941039e-03, 5.96354716e-03, 6.85110688e-03, -2.27664853e-03,
       2.18607555e-03, 3.05714062e-03, 2.75123282e-03, 2.82906229e-03,
       -2.38918466e-03, -1.49226561e-02, -4.44954121e-03, 1.31380244e-03,
       2.52026925e-03, 3.39270290e-03, -3.56303575e-03, 2.43069371e-03,
       -6.12381799e-03, 3.04257963e-03, -6.48913812e-03, 5.84720587e-03,
       1.09385643e-02, -1.57659873e-03, 6.13053190e-03, -5.45436610e-03,
       -5.87277906e-03, -1.70170818e-03, 6.22737501e-03, -5.89250680e-03,
       7.05158454e-05, 2.55725486e-03, 6.34539966e-03, 1.42198028e-02,
       3.25835450e-03, -3.27611808e-03, -4.43175389e-03, -7.60603324e-03,
       -1.50247198e-02, -1.10960007e-02, 1.68974400e-02, 1.10852523e-02,
       9.86293983e-03, -1.34548843e-02, -2.51966086e-03, -1.93283334e-02,
       3.01080034e-03, -9.85584408e-03, 8.92064441e-03, 7.19928648e-03,
       8.78806971e-03, 9.27671883e-03, -6.46418054e-03, 6.80890516e-04,
       2.89248978e-03, 4.61090589e-03, -9.93542932e-03, 8.65515962e-04,
       9.13981907e-03, 8.74396600e-03, 2.00722050e-02, -1.26365554e-02,
       -2.43778136e-02, -1.88196115e-02, -6.55499939e-03,
       -6.96165534e-03, -7.00128544e-03, 9.47645400e-03, 3.35627724e-03,
       3.36097879e-03, -3.07023264e-02, -6.06400846e-03, -1.64679252e-02,
       1.33312435e-03, -4.22770204e-03, 5.06224250e-03, 1.04586231e-02,
       -4.81204875e-03, 8.66421405e-03, -1.47889331e-02, -2.53564236e-03,
       1.07025763e-03, 3.65301897e-03, -1.24084530e-03, 1.29158404e-02,
       -8.90250318e-03, -9.21056373e-04, 1.08356811e-02, -1.62973367e-02,
       -8.41548201e-03, -1.22802174e-02, 1.02297415e-03, -6.38054544e-03,
       -1.50819374e-02, 7.33217690e-03, 8.95241182e-03, 2.35755686e-02,
       -4.31152107e-03, 3.56233772e-03, -3.16549535e-03, -3.28922542e-05,
       -3.86846648e-03, 5.94694028e-03, 9.37440142e-04, -4.29569627e-04,
       2.03117989e-02, -1.26431473e-02, -8.28251184e-04, -4.46339650e-03,
       8.08762619e-04, -5.85580012e-03, 4.44308110e-03, -3.56503297e-03,
       -1.60518680e-02, 1.42298192e-02, -1.58079397e-02, -1.77988671e-02,
       -1.38613479e-02, -1.17203770e-02, -6.25556614e-03,
       -2.71691359e-03, 5.30021219e-03, 1.68788392e-04, 1.75029114e-02,
       -7.95464683e-03, 1.47743141e-02, -8.79887678e-03, 8.52514710e-03,
       6.45995187e-03, 6.69511873e-03, -1.08946478e-02, 9.20761935e-03,
       2.30646674e-02, -9.79533978e-03, -1.24998698e-02, -1.30641246e-02,
       -1.12870224e-02, -9.14082862e-03, -5.33642014e-03,
       -9.04675573e-03, -7.90915638e-03, 1.30139589e-02, -1.50596304e-02,
       6.56961137e-03, -1.28391283e-02, -8.01045168e-03, -4.04700404e-03,
       7.44546531e-03, -2.91889384e-02, -1.77378859e-02, 2.82575889e-03,
       -1.64116733e-02, 9.47628543e-03, -1.07834151e-03, -2.34240945e-03,
       -1.24225589e-02, -8.36074166e-03, -8.45633913e-03, 7.74506666e-03,
       1.69870369e-02, -1.51694128e-02, 1.03443358e-02, -8.40443932e-03,
       1.98925403e-03, 6.16737962e-05, 9.35010088e-04, -1.84189230e-02,
       -7.85333104e-03, 6.05262443e-03, -1.02542154e-02, 1.16791772e-02,
       -1.07833166e-02, 2.07597692e-03, 1.04537648e-04, -6.03372115e-04,
       -1.00157289e-02, -8.14773329e-03, -6.36096636e-04,
       -1.10131176e-02, 1.41052008e-02, 3.96257685e-03, 6.39461819e-03,
       -1.16064958e-02, -6.43157167e-03, 6.05359441e-03, -1.06838048e-02,
       7.34422542e-03, -7.06789363e-03, 1.56055787e-03, 6.22869702e-03,
       7.36189634e-03, 9.33120493e-03, 6.49980735e-03, -1.36144711e-02,
       3.66720348e-03, -3.03037907e-03, -2.35355869e-02, 1.91360600e-02,
       -6.16448373e-03, 7.60383438e-03, 2.85493513e-03, -1.59951057e-02,
       9.91188642e-03, 1.39306309e-02, 2.86900089e-03, -7.66653055e-03,
       1.14895049e-02, -6.51392015e-03, 2.57435860e-03, -1.03576202e-03,
       4.23868559e-03, -8.50018021e-03, -5.03712287e-03, 2.82933260e-03,
       -9.88326035e-03, -1.26130972e-03, 8.73578619e-03, 1.16566690e-02,
       1.04194153e-02, 3.65464878e-03, -5.41713182e-03, -9.55181196e-03,
       2.45988974e-03, -6.64033880e-03, 5.41611342e-03, 8.76627106e-04,
       8.37295258e-04, -6.89625740e-03, -5.72331902e-03, -5.69404988e-03,
       2.89523014e-05, -1.80748978e-03, -1.00966217e-02, 1.40835065e-03,
       -1.18926456e-02, -6.73992559e-04, -1.50102610e-03,
       -4.78337891e-03, 7.04506179e-03, -5.05539065e-04, -7.19122915e-03,
       -1.40859350e-03, 9.62603185e-03, 2.21252791e-03, 5.60080074e-03,
       -7.30671734e-03, 5.24364738e-03, -4.31402260e-03, -7.76832458e-03,
       4.81557770e-04, 3.85026680e-04, -3.36633367e-03, 1.12061976e-02,
       1.19318459e-02, -1.98320078e-04, 6.00837544e-03, -7.57191190e-03,
       -7.41961645e-03, 2.54373020e-03, 5.24644693e-03, -7.11126719e-03,
       -9.76680405e-03, 3.21601378e-03, -1.79621475e-05, -5.02684200e-03,
       1.42373219e-02, 1.28299482e-02, -6.78238412e-03, 3.00542382e-03,
       4.98368125e-03, 1.12391193e-04, 8.55147466e-03, 7.57203484e-03,
       1.74011793e-02, -7.09529640e-03, -4.40735079e-04, -6.71234215e-03,
       -5.73159987e-03, -1.99253974e-03, -2.22179224e-03, 1.48075446e-02,
       1.32732717e-02, -8.50528231e-05, -4.10978915e-03, -4.98604076e-03,
       1.56127184e-03, 8.09058454e-03, 6.14242570e-04, 5.46638900e-03,
       1.23107210e-02, -6.62672217e-04, -1.79798668e-03, 8.55544582e-03,
       -2.81501515e-03, -4.57012327e-04, 5.30406460e-03, 1.18167242e-02,
       1.21341705e-04, -1.07581937e-03, -8.61092750e-03, 7.87188020e-03,
       -4.20526881e-03, 1.74328184e-03, 1.38042029e-02, 3.02317832e-03,
       8.34164768e-03, 6.12373604e-03, 6.35799766e-03, 8.18928331e-03,
       4.30418504e-03, 1.51301804e-03, -2.80915690e-03, 8.35506804e-03,
       8.74997582e-03, 5.29170735e-03, 2.16205465e-03, -2.83409772e-03,
       -9.70523746e-04, 1.46236888e-03, 1.01646781e-03, 6.04936341e-03,
       9.34166554e-03, -4.85370494e-03, -1.41067356e-02, 2.55993241e-03,
       -3.81121458e-03, -4.70269611e-03, -1.17816846e-03, 1.21465400e-02,
       -7.09352596e-03, 7.33237248e-03, 1.43501814e-02, 1.18833654e-04,
       -4.75458521e-03, -8.84595700e-03, -8.76096729e-03, 1.24241291e-02,
       1.23362886e-02, 2.21044826e-03, 1.09451357e-02, -1.21792844e-02,
       2.59832043e-04, 1.00534095e-03, -2.70608836e-03, 4.45748866e-03,
       5.68155432e-03, 1.92699693e-02, -9.12072603e-03, 7.06015807e-03,
       -8.01063143e-05, -1.34053575e-02, -1.24878846e-02,
       -7.66350247e-04, 7.33058760e-03, 2.07844321e-02, 4.37756488e-03,
       4.55792015e-03, 9.68705956e-03, 9.44817159e-03, -8.33104923e-03,
       -9.42521787e-04, -1.58085243e-03, -1.59078557e-02,
       -4.12715040e-03, 4.53487085e-03, -4.20375448e-03, 8.98233708e-03,
       4.06944379e-03, 1.02822231e-02, -7.06376648e-03, 1.03978207e-02,
       -1.11435167e-03, 3.11105186e-03, 1.37460604e-02, 8.73060618e-03,
       2.70136795e-03, 9.90956277e-03, -1.07781878e-02, -9.90630779e-03,
       -9.84771177e-04, -4.79417248e-03, -1.02601631e-03, 5.88961737e-03,
       -1.22915898e-02, 7.46961508e-04, 6.43076317e-04, 1.81519743e-02,
       -2.39935867e-03, 7.15912366e-03, 6.50734175e-03, -3.37639684e-03,
       2.04783888e-03, -5.96664986e-03, 5.43027138e-03, -6.05469663e-03,
       -1.77971981e-02, -1.56566058e-03, 7.37127569e-03, 7.67410966e-03,
       1.09089455e-02, 1.10331103e-02, -7.73230847e-03, 1.32738650e-02,
       5.18805580e-03, -6.15831045e-03, -1.09610148e-02, -1.00497238e-03,
       -2.07466609e-03, 1.33187165e-02, 1.56668585e-03, -8.47303309e-03,
       3.50664323e-03, -5.70783578e-03, -1.17800711e-03, 7.51920184e-03,
       1.49451885e-02, 1.94852203e-02, 7.15007028e-03, 1.23769371e-02,
       -9.49052349e-03, -2.72867898e-03, 1.53189030e-04, -6.23976905e-03,
       -5.40937483e-03, 5.25106164e-03, 1.07961660e-02, 1.09891677e-02,
       -1.26849590e-02, -5.62376296e-03, 7.80047989e-03, 3.28079099e-04,
       1.82689447e-03, -1.29279476e-02, 9.82193183e-03, -7.01657846e-04,
       -5.11285523e-03, -5.55524463e-03, 1.00359903e-03, 4.19068523e-03,
       6.26726635e-03, 2.91547850e-02, 4.96951677e-03, 1.10846758e-02,
       -3.77133884e-03, -7.33461883e-03, -4.41272883e-03, 1.01330713e-03,
       -3.81410681e-03, -9.80102271e-03, 8.79114494e-03, -9.65567399e-03,
       1.35870920e-02, 2.73847627e-03, 5.18686743e-03, -6.27319794e-03,
       -1.15327854e-02, -1.92540456e-02, -3.01606394e-02, 1.28457742e-02,
       -5.81074913e-04, 7.68694375e-03, 3.52298142e-03, -8.12254287e-03,
       -2.53305957e-03, 8.58447608e-03, 1.27800619e-02, 5.34154940e-03,
       -8.19751807e-03, -3.20146210e-03, 7.04904646e-03, -5.09666465e-03,
       -6.60466310e-03, -4.26361803e-03, -1.13312306e-03, 7.13569485e-03,
       7.68168364e-03, 1.37924990e-02, -4.95585660e-03, 7.11068185e-03,
       -8.80727428e-04, -4.81684366e-03, -1.06643708e-02,
       -5.98192681e-03, -5.15701342e-03, -1.18276309e-02,
       -4.04915866e-03, -4.86724079e-03, 5.63266082e-03, 7.43666803e-03,
       -5.86294988e-03, -9.42516699e-03, -9.13208257e-03, 6.39345590e-03,
       1.17865764e-02, -8.74699187e-03, 3.29664303e-03, 8.47327802e-03,
       -8.98800150e-04, -3.35824629e-03, -1.55860314e-03, 4.79826500e-04,
       8.48266575e-03, 5.45233861e-03, -6.72018435e-03, -4.23662830e-03,
       -1.09835621e-03, -2.93683982e-03, -9.16866586e-03, 3.77746951e-03,
       -9.32602026e-03, -7.02854432e-03, -2.70274491e-03,
       -5.65775961e-04, 6.20202580e-03, 1.84183195e-02, 8.72180704e-03,
       2.10818346e-03, -1.04523469e-02, -1.57232687e-03, 4.66339849e-03,
       8.35904479e-03, -4.08484694e-03, -5.61872590e-03, -8.65471549e-03,
       -2.36741044e-02, -1.45621384e-02, 1.28852800e-02, 3.69595014e-03,
       -8.35615117e-03, -1.33187801e-03, -8.54540337e-03,
       -2.80442298e-04, 5.16593084e-03, -1.07704699e-02, 8.04954767e-03,
       -6.26998395e-03, -8.36479757e-03, -2.93342862e-03,
       -4.79120482e-03, -9.97493230e-03, 6.82848273e-03, 1.68129653e-02,
       3.09424498e-03, -3.12139187e-03, -3.79556720e-03, -6.38541440e-03,
       -7.91476946e-03, -1.86495502e-02, -7.97919184e-03,
       -1.00579821e-02, 7.40143284e-03, 3.13580828e-03, -6.14054454e-03,
       -7.34982837e-04, 3.53110558e-03, -2.01464444e-03, 2.98461714e-03,
       -9.87987593e-03, 1.48788895e-02, 3.82873858e-03, -9.62202810e-03,
       5.64320653e-04, 1.21008419e-03, -2.32390594e-04, -6.64166734e-03,
       -1.09441588e-02, -8.04887433e-03, -3.40770790e-03,
       -5.65364072e-03, -1.36372226e-03, 1.86516182e-03, -1.07668740e-04,
       3.12948786e-03, 7.73315271e-03, -1.08998781e-02, -4.12750104e-03,
       -7.21446984e-03, 2.45807366e-03, -1.07046613e-03, -6.84132287e-03,
       4.74464847e-04, -6.81233918e-03, 1.11647381e-03, -4.05366579e-03,
       8.30276404e-03, -3.71358823e-04, 1.91711970e-02, 5.32686012e-03,
       5.55019639e-03, 3.52162914e-03, 1.46676204e-03, -7.54185440e-03,
       -1.23894801e-02, -1.20375892e-02, -1.05759520e-02,
       -1.50595345e-02, -5.49746351e-03, 2.27785767e-05, 5.01034316e-03,
       2.68380367e-03, 2.13495176e-03, 7.19468226e-04, -2.91222987e-05,
       -5.78569714e-03, 4.83645592e-03, 1.69911375e-03, 7.49819074e-03,
       -2.01755743e-02, -2.03240830e-02, 4.81505180e-03, 2.31015347e-02,
       1.77547690e-02, -1.63838323e-02, -2.02114955e-02, -1.89391505e-02,
       -1.01901311e-02, -3.78186512e-03, -1.91932674e-02,
       -8.31734482e-03, -9.74267139e-04, -1.44993896e-02,
       -1.78951724e-03, 8.82032909e-04, -1.02019822e-02, -2.36569758e-04,
       -9.06153955e-03, -8.72015022e-03, 6.56724488e-03, 2.08958499e-02,
       2.81399861e-03, -1.47727886e-02, -1.71233285e-02, -1.95630211e-02,
       -3.82341840e-03, 1.89532023e-02, 1.24839740e-03, 3.97687871e-03,
       1.66504718e-02, -1.17795002e-02, 6.23206841e-03, 1.27437543e-02,
       3.17545561e-03, 1.60360709e-02, -6.03407063e-03, -8.31501652e-03,
       4.45017079e-03, -6.76535349e-03, -8.95654724e-04, 8.24081153e-03,
       9.31678154e-03, -3.52255814e-03, -5.80095546e-03, -7.39158783e-03,
       -7.69550796e-04, 1.27680842e-02, 2.56254850e-03, -2.92749936e-03,
       -7.00545358e-03, -7.81086832e-03, -6.07049698e-03,
       -5.50420862e-03, 1.26070501e-02, 1.29785202e-03, -4.73616133e-03,
       -8.78522173e-03, 2.32180022e-03, 8.60986859e-03, 1.00524789e-02,
       5.83701069e-03, 1.22861471e-02, 1.55786816e-02, 1.45823555e-02,
       -5.89106604e-03, -1.56063528e-03, 1.04602994e-02, 2.59023998e-03,
       -8.14600755e-03, 2.30215397e-03, 1.67199802e-02, -3.33642098e-03,
       5.18883287e-04, 6.56982651e-03, 4.50645294e-03, -1.33505454e-02,
       2.08507292e-03, 7.09892891e-04, 7.73762260e-03, -3.59113980e-03,
       -5.39937848e-03, -7.35057518e-04, -1.17899189e-02,
       -9.74345114e-03, -8.95911921e-03, 4.47372952e-03, -1.78659440e-03,
       4.35227016e-03, -9.98102222e-03, 3.27468617e-03, 4.14589746e-03,
       -1.21079363e-04, 5.66706818e-04, -3.58214532e-03, -8.57487787e-03,
       -1.29702566e-02, 2.54956982e-03, 1.74967817e-03, 4.18458832e-03,
       -3.38897179e-03, -9.82044078e-03, 1.36588393e-02, -5.74911886e-04,
       1.05728200e-02, 1.31943077e-03, 1.47682233e-02, 2.68203672e-04,
       1.01408549e-03, 1.55470381e-02, 9.26151499e-03, -8.87553487e-03,
       -4.28763404e-03, 2.08930974e-03, 3.79678531e-04, 4.07934934e-03,
       -3.44243576e-03, 6.22674823e-03, -2.20150338e-03, -1.25550069e-02,
       3.62686487e-03, -2.95391604e-02, -4.78675403e-03, -1.49124647e-02,
       -2.05818973e-02, 2.29473138e-04, -5.64674288e-03, -5.55335032e-03,
       -2.80357059e-03, 1.06523663e-03, 5.97216305e-04, 1.39087001e-02,
       1.31276324e-02, 1.55852698e-02, -4.43039043e-03, -4.60129371e-03,
       -2.08542105e-02, -5.17285569e-03, 3.08831502e-03, -1.39345450e-03,
       1.33178504e-02, 4.85823583e-03, 7.69620202e-03, 3.44524533e-03,
       1.07447430e-02, 8.92388914e-03, 2.18320661e-03, 1.54667923e-05,
       -5.74896764e-03, 1.17746647e-02, 2.16909987e-03, -7.01777451e-03,
       8.45950563e-03, 4.45168815e-04, -1.01169886e-03, -4.13817260e-03,
       -6.68245833e-03, -4.09201114e-03, 1.87502056e-03, -1.02304081e-02,
       -2.00697873e-03, 9.15719103e-03, -8.70165182e-04, -8.65011290e-03,
       1.46616821e-03, -5.45643875e-03, -1.05194952e-02, 7.84600712e-03,
       -2.94325431e-03, -2.45437748e-03, 1.88665721e-03, -1.86556892e-03,
       -9.88585968e-03, -2.03881902e-03, 1.75881889e-02, 3.76289547e-03,
       1.51103560e-03, -1.79645661e-02, -2.79116700e-03, 1.06907180e-02,
       -2.89973716e-04, 3.12557467e-03, -4.16948897e-04, 2.93239136e-03,
       5.25838370e-03, 9.96053219e-04, -8.61097500e-03, 3.31411511e-03,
       4.52551153e-03, 6.55925483e-04, -8.30569398e-03, -3.33798002e-03,
       1.17025618e-03, -1.62177347e-02, -4.67914855e-03, -2.56265001e-03,
       8.20229016e-03, 2.40756711e-03, 9.89039149e-03, -6.33995840e-03,
       -3.57315084e-03, 6.89471047e-03, 1.09993657e-02, 5.06700436e-03,
       1.34943170e-03, 7.43636582e-03, 1.66759752e-02, -3.65445274e-04,
       -1.00911660e-02, -7.18032243e-04, -4.04395303e-03,
       -1.52988508e-02, -3.45991924e-03, -2.47089495e-03,
       -7.09631201e-03, -7.01778941e-03, -1.10213365e-03, 5.16691536e-04,
       5.01407264e-03, 4.10051493e-04, -2.60806410e-03, -1.21845798e-04,
       4.69564321e-03, 6.87522674e-03, -1.05608918e-03, 7.25116022e-03,
       9.04316083e-03, 1.01171127e-02, -4.33547935e-03, -1.41246123e-02,
       -2.33024405e-03, 4.72623110e-03, -4.67898045e-03, -1.15274088e-02,
       2.17308337e-03, -2.48158351e-03, -7.27420847e-04, -1.04092313e-02,
       -4.47977940e-03, 5.88632096e-03, 1.31236520e-02, 1.78533292e-03,
       -5.08719822e-03, 1.13029815e-02, 1.27158938e-02, 1.34359617e-02,
       -2.77776527e-03, 9.84854298e-04, 7.07175350e-03, 9.00191814e-03,
       6.15611020e-03, 1.01118740e-02, -1.72538066e-03, 7.38421455e-03,
       -8.25824507e-04, -3.84532800e-03, -9.56820231e-03,
       -2.90432060e-03, -5.36996778e-03, -7.22359866e-03,
       -1.07910447e-02, 1.52702443e-03, -3.05103953e-03, 4.67394857e-04,
       -8.56542028e-03, -1.41132250e-02, -8.37377459e-03,
       -1.58958118e-02, -1.16045456e-02, -9.69008356e-03,
       -9.86830704e-03, 1.07422173e-02, 4.05999506e-03, -8.15308094e-03,
       6.85690297e-03, 9.74129513e-03, -1.81731523e-03, 2.15776893e-03,
       -6.35020027e-04, 1.55022703e-02, 2.39857798e-03, 1.31847132e-02,
       -2.14616023e-03, 5.60458656e-03, 3.06555303e-03, -1.99446501e-03,
       -1.97049160e-03, 1.14049185e-02, -6.48861052e-03, -9.32125747e-03,
       5.01465693e-04, -1.09561691e-02, -7.52826827e-03, -1.31070940e-02,
       -1.38778342e-02, -1.41705340e-02, -1.31055107e-02, 3.62970028e-03,
       -1.06802378e-02, 6.37063337e-03, -7.56832818e-03, -8.42574984e-03,
       -1.06027061e-02, -9.87072848e-03, -1.17203873e-02, 1.76711043e-03,
       -8.53495114e-03, -9.88610182e-03, 3.94649134e-04, -5.23897447e-03,
       1.37671344e-02, 4.09560371e-03, 8.04026797e-03, -7.75490701e-03,
       -5.10682352e-03, 3.42180312e-04, -5.58253145e-03, 2.85330857e-03,
       -1.17087103e-02, 2.82963552e-03, -1.56925153e-02, -3.20352917e-03,
       -8.09112471e-03, -4.23319545e-03, 2.29663681e-03, -5.90135204e-03,
       7.19700521e-03, -2.19259248e-03, 7.21848430e-03, -6.29241811e-03,
       -7.41487183e-03, -5.02431300e-03, 4.31810226e-03, -9.36246011e-03,
       -8.80384259e-03, 9.59428400e-03, -2.19480181e-03, -1.10482480e-02,
       -9.98338312e-03, -9.72210057e-03, -2.02099178e-02,
       -1.21700224e-02, -6.47049537e-03, -1.31416358e-02, 1.18639975e-04,
       -8.05016980e-03, 1.77407986e-04, -2.29155575e-03, 3.09838098e-04,
       1.46229414e-03, -2.40086345e-04, 1.63417414e-03, 1.11643378e-04,
       8.44285730e-03, -4.43520024e-03, 2.55028775e-04, -4.42001969e-04,
       4.93406667e-04, -3.51233684e-05, -5.17855352e-03, -9.00950097e-03,
       -1.86732237e-03, 6.58576610e-03, -1.59537271e-02, -1.04576629e-02,
       -7.14154402e-03, -6.56307302e-03, -1.33419801e-02,
       -1.22874267e-02, -2.43847352e-02, -9.15247947e-03,
       -6.83376100e-03, -2.07022000e-02, -1.75510831e-02,
       -1.11670988e-02, -2.39042239e-03, -6.75455062e-03,
       -1.17736235e-02, -2.00065260e-04, 2.08431091e-02, 2.37272028e-02,
       -5.64275589e-03, 9.03839152e-03, 2.02443637e-03, 6.23443630e-03,
       -7.23602902e-03, -1.83231588e-02, 7.49635417e-03, 7.70970248e-03,
       2.00148616e-02, 1.39931086e-04, 1.43674633e-03, -1.90327018e-02,
       -6.69225876e-04, -5.02536248e-04, 5.58937853e-03, -1.32886181e-02,
       3.68012721e-03, -7.32027739e-03, -2.56478321e-02, -2.28828751e-02,
       -5.86552033e-03, -6.85161271e-04, 1.22834626e-03, -1.16608804e-02,
       8.32149573e-03, 8.44472181e-03, -1.14767626e-02, -2.20640525e-02,
       -6.48442516e-03, 6.75288728e-03, 4.34276706e-04, -2.13750568e-03,
       -5.13904262e-03, 1.91188755e-03, 3.28852213e-03, 2.84030288e-03,
       -4.72839084e-03, -1.03255967e-02, -2.10501663e-02,
       -4.06154059e-03, 6.91057974e-03, -3.61489039e-03, 5.22951456e-03,
       5.38394088e-03, 7.13693351e-03, -5.63317351e-03, 8.91958713e-04,
       4.51753754e-03, -2.09151185e-03, 5.70242293e-04, -8.94178543e-03,
       2.16132845e-03, 1.35197071e-03, -5.99241257e-03, -1.44667132e-02,
       -4.60894126e-03, 5.24690095e-03, 3.76518397e-03, 6.46538893e-03,
       -2.71772104e-03, 1.95215084e-03, -5.00632497e-03, -1.80042479e-02,
       -3.00571293e-04, -1.05570769e-02, 6.06764946e-03, 6.29735587e-04,
       4.08222759e-03, -6.68154052e-03, 7.11791145e-05, 1.11629372e-03,
       3.57911037e-03, -2.12714300e-02, 3.11038201e-03, 1.36540839e-02,
       5.09292586e-03, 5.91750082e-04, -4.12608031e-03, 7.22762523e-03,
       -1.33078918e-02, -5.99436229e-03, -8.53030290e-03, 6.91837445e-03,
       -5.37702057e-04, -1.19873649e-02, -7.17073679e-03, 5.21571958e-04,
       3.04682064e-03, 9.22110397e-03, -6.06321404e-03, 4.32497496e-03,
       -1.73250050e-03, -2.91460357e-03, -3.98806791e-04, 2.23507080e-03,
       -1.52980769e-03, 2.53302814e-03, 8.28670524e-03, -6.20522583e-03,
       -8.70735385e-04, 1.59543066e-03, -8.98181833e-03, -5.57936961e-03,
       2.74974783e-03, 3.21820867e-03, -6.37874415e-04, -1.67008757e-03,
       2.48264591e-03, 7.59496121e-04, 1.24544371e-02, 3.12149758e-03,
       -6.18106825e-03, -6.06443500e-03, 3.87990475e-03, 1.42884683e-02,
       -6.56509725e-03, -4.51978575e-03, -1.88215108e-05, 1.10125560e-02,
       -1.02780154e-02, -7.01910723e-03, -7.30530499e-03, 1.77292600e-02,
       8.18641018e-03, 6.97291177e-03, 1.16458600e-02, -3.36782448e-03,
       4.52015921e-03, 9.38700978e-03, 5.63190365e-03, 1.21938149e-02,
       1.37066450e-02, -7.77400506e-04, -8.35210737e-03, 5.73045062e-03,
       -1.12130051e-03, 8.21499154e-03, 4.60784184e-03, -8.25053547e-03,
       5.19679568e-04, 1.95705425e-03, 6.18917774e-03, 4.66588000e-03,
       1.65146659e-03, -2.34941579e-03, 4.36668657e-03, 2.29126029e-03,
       1.46997087e-02, -2.47709826e-03, 1.08934734e-02, -1.27834398e-02,
       -9.02221259e-03, 4.74592671e-03, -4.49702935e-03, -3.76142538e-03,
       1.05772505e-03, 1.19121862e-03, -1.50093408e-02, -8.87480192e-03,
       7.82427192e-03, 5.43915201e-03, 1.21244425e-02, -4.34807560e-04,
       8.91325530e-03, 6.41381647e-03, -5.09912730e-04, 2.06202385e-03,
       6.84045814e-03, -2.14015483e-03, -1.90275884e-03, 1.32611708e-03,
       -2.77600926e-03, -1.12838056e-02, 3.59359750e-04, 8.11595935e-03,
       -3.88478371e-03, 3.67062073e-03, 7.94945098e-03, 5.00242633e-04,
       1.18450569e-02, -5.00644557e-03, -1.46836403e-03, 6.99813850e-03,
       4.91115404e-03, -4.48028743e-03, 3.34984483e-03, 3.30899912e-03,
       -1.11879120e-02, 3.44612752e-03, 5.09319222e-03, -6.31543621e-03,
       4.51558176e-03, 5.92928985e-03, -5.91178052e-03, 5.94127504e-03,
       3.41985119e-03, 1.99390837e-04, -4.01024445e-04, 3.19401734e-04,
       -1.94417723e-02, 4.10954747e-03, 2.72698142e-03, -4.42166766e-03,
       -2.58137193e-03, -9.78762400e-04, -4.85066045e-03,
       -4.80714283e-04, 8.13391339e-03, 5.12967492e-03, 1.21026393e-03,
       -1.28340034e-03, -4.83934768e-03, -5.80885494e-03,
       -7.22908042e-03, -3.30744288e-03, -5.00445860e-03,
       -3.33325559e-04, 1.68425194e-03, 8.13267101e-03, 3.22649721e-03,
       -3.73015320e-03, -1.84309308e-03, 6.41472638e-04, 2.71466584e-03,
       -2.85392720e-03, 1.81258582e-02, 7.83275254e-03, 1.01060215e-02,
       -1.14852777e-02, -4.15928382e-03, -4.56084817e-04, 9.99056967e-04,
       4.91842441e-03, -6.93598296e-03, -9.46734101e-03, -1.30669149e-02,
       -1.17374549e-03, 6.31022267e-03, 4.44635749e-03, -1.68026332e-03,
       1.83673818e-02, 6.45302050e-03, 2.71607842e-03, -9.90871899e-03,
       -4.52524005e-03, 1.55084804e-02, 1.48139121e-02, 1.23647703e-02,
       1.63372941e-02, 4.62054508e-03, 9.78854392e-03, 3.69677832e-03,
       -2.20035017e-03, -7.92051945e-03, 9.34815407e-03, -6.30729191e-04,
       1.28789935e-02, 5.65120531e-03, 5.78297814e-03, 3.77083593e-03,
       1.44103123e-02, -1.81115442e-03, -1.38945505e-02, 5.20594278e-03,
       1.03672994e-02, 1.23456046e-02, 1.00016976e-02, -4.24204906e-03,
       5.00056706e-03, 3.92118329e-03, -1.37486681e-02, 3.97826731e-03,
       5.12507325e-03, -2.68895854e-03, -3.90372123e-04, -3.94385168e-03,
       -7.83138722e-03, -3.99561273e-03, -9.43432841e-03,
       -1.75275728e-02, -2.99360091e-03, -1.02592679e-03,
       -8.22887197e-03, -2.75612040e-03, -1.05990414e-02, 8.88710609e-04,
       4.56707692e-03, 8.89165048e-03, -6.21256186e-03, 2.20558280e-03,
       1.79526897e-03, 7.47915031e-03, 1.38940383e-02, 7.69328047e-03,
       1.24986283e-02, 1.62519130e-03, -1.12413988e-02, -5.52813010e-03,
       6.73093658e-04, -2.78659468e-03, -1.12613116e-03, 2.32347031e-03,
       2.29809154e-03, -1.34971263e-02, -1.26246111e-02, -1.16199311e-02,
       -7.53392512e-03, -1.60071384e-02, 2.54284614e-03, -3.85759282e-03,
       8.77313549e-04, -1.53393485e-02, -2.71741231e-03, -1.05008744e-02,
       -6.10128837e-03, 3.97192268e-03, -1.27353976e-02, 1.29623013e-02,
       -1.61249482e-03, -1.38210846e-04, -5.66860661e-03,
       -6.52819499e-03, -5.83341811e-03, -6.18350366e-03,
       -2.49629351e-03, 3.52231064e-03, 6.30270410e-03, 5.30017726e-03,
       7.28248269e-04, -6.37324061e-03, -4.00706008e-03, -1.41947493e-02,
       -2.84780711e-02, -1.14841163e-02, 4.37809527e-03, -6.12172671e-03,
       -5.15919877e-03, 2.40210537e-03, 2.70700175e-03, -3.24934255e-03,
       -3.95016046e-03, 2.73423549e-03, 6.98042847e-03, -8.28495249e-03,
       -1.07200332e-02, -2.04434264e-02, -5.28281461e-03,
       -9.14615393e-03, 3.87204904e-03, 1.10766655e-02, 4.40420909e-03,
       -6.23701653e-03, 8.08406901e-03, -1.02735749e-02, -1.13557344e-02,
       -6.00318611e-03, 5.15040534e-04, -1.69366237e-03, -5.21068368e-03,
       -6.77860249e-03, -7.69364473e-04, -1.42785525e-02,
       -1.80403944e-02, -8.33635032e-03, 7.63298851e-03, 4.52316739e-03,
       9.30119492e-03, 1.79216769e-02, 1.30920215e-02, -2.07245321e-04,
       -8.59511923e-03, -4.98408685e-03, -3.97868315e-03, 7.01176235e-03,
       5.93060628e-04, 3.57231474e-03, 1.43897859e-02, 4.71460493e-03,
       -1.20662770e-03, -5.33136772e-03, 2.36025639e-03, -4.53254161e-03,
       -2.27704667e-03, 3.54159949e-03, -6.76956167e-03, -4.12385212e-03,
       -1.89024769e-02, -1.09571079e-02, -1.04090702e-02, 1.10279154e-02,
       4.63586347e-03, 5.88257890e-03, -6.33221027e-03, 1.16911472e-03,
       2.01185439e-02, 8.31418019e-03, 2.83414964e-03, -3.34840338e-03,
       -1.02072814e-02, -2.36192509e-03, 3.71488766e-03, -1.54614230e-04,
       4.93960688e-03, -1.94353590e-04, 1.24867575e-03, -3.49576934e-03,
       7.24140229e-03, 6.83189789e-03, 9.02867503e-03, 3.22192768e-03,
       -6.10037940e-03, -4.81551141e-03, -1.51489140e-03,
       -1.38972905e-02, -1.35947485e-02, -9.48067382e-03,
       -1.08090686e-02, -9.17425565e-03, 5.51175501e-04, -7.38704926e-04,
       8.88355821e-03, 2.11636233e-03, -3.57034826e-03, -1.12360483e-02,
       -6.41045114e-03, -2.20263489e-02, -1.03129474e-02,
       -1.99080957e-03, 1.02658607e-02, -3.45477508e-03, -4.70570382e-03,
       -1.33984827e-03, 7.03109763e-05, 1.84405409e-02, -3.43270716e-03,
       5.26223518e-03, 4.55256598e-03, 3.75560485e-03, 4.07288177e-03,
       6.55744737e-03, 9.74668283e-03, 4.93971398e-03, 2.80771479e-02,
       -2.12884229e-02, -1.10646170e-02, 1.66873069e-04, 2.01801639e-02,
       -5.15755499e-03, -1.15735438e-02, 1.73186772e-02, 7.58908736e-03,
       4.48157918e-03, -1.14613138e-02, -1.20400535e-02, -1.89775452e-02,
       -3.32264882e-03, 3.31958989e-03, -7.05127459e-05, 1.36240488e-02,
       -1.37629616e-03, 1.39436554e-02, -3.63651919e-03, 1.76076160e-03,
       -8.21978692e-03, 6.47214765e-04, -1.18539343e-02, -1.66946296e-02,
       4.72821202e-03, -2.34799038e-04, -1.74177345e-03, -1.15483729e-02,
       -5.35136741e-03, -1.63998622e-02, -1.19014075e-02,
       -4.20696475e-03, 2.15922389e-03, 5.55847352e-03, -6.69710059e-03,
       8.68431199e-03, 2.42823991e-03, -3.90879856e-03, -5.73789282e-03,
       -4.90940595e-03, 1.24863237e-02, 6.24500914e-03, 2.28374964e-03,
       -1.73024591e-02, -1.82355382e-03, -3.46625876e-03, 2.69444217e-03,
       1.00106047e-03, 1.18479449e-02, 1.22698955e-02, 6.19953219e-03,
       -4.78097470e-03, 6.18302220e-05, 1.49202943e-02, -6.08828478e-03,
       -9.59557109e-03, -3.95898474e-03, 7.05684861e-03, -1.09219700e-02,
       -2.58446927e-03, 7.56940246e-03, -5.08450903e-03, 4.07145778e-03,
       -2.15351908e-03, -4.55093523e-03, -2.12797010e-03,
       -7.65679963e-03, 7.09880283e-03, 1.09118577e-02, -1.64672621e-02,
       2.71385140e-03, -4.08143131e-03, -5.81349339e-03, -1.40403747e-03,
       -3.02221044e-03, 1.01102900e-03, 6.57331990e-03, 5.91957057e-03,
       -9.33111805e-05, 3.47986165e-03, 1.15630007e-03, -1.08500337e-02,
       -6.96058804e-03, -1.74094574e-03, 2.88954657e-03, -2.15020007e-03,
       -1.45235052e-03, -9.51857585e-03, 5.23970369e-03, -1.52089633e-02,
       -1.05625885e-02, -1.04574906e-02, -6.17997628e-03,
       -8.98558088e-03, 5.67451864e-03, 3.46425921e-03, -9.41406190e-03,
       4.29722434e-03, -2.75568000e-05, -1.25153176e-02, 5.84477792e-03,
       1.08748430e-03, 9.22034960e-03, 1.69467609e-02, 7.05957506e-03,
       -7.58524705e-03, 4.86967200e-03, 2.36799605e-02, -5.49574895e-03,
       3.15254135e-03, -1.32844476e-02, 6.10740995e-03, -4.72310348e-05,
       1.57647219e-03, 8.35279655e-03, 7.15439999e-03, -5.27959876e-03,
       9.28557292e-03, 8.85375869e-03, 4.79111681e-03, 2.01319717e-03,
       -9.32466146e-03, -7.04051694e-03, 5.50233060e-03, 3.47708096e-03,
       -1.04663037e-02, -1.52008710e-02, -1.06977820e-02,
       -2.65607703e-03, -1.48613204e-03, 1.54730519e-02, 1.07965115e-02,
       -3.80178401e-03, -6.10563066e-03, -1.22223760e-03,
       -6.39235228e-03, -9.94589063e-04, -7.40678515e-03, 6.92569744e-03,
       2.63356715e-02, 2.08333228e-03, 5.19247260e-03, 4.14158031e-03,
       2.18315758e-02, -2.55309716e-02, -1.40818898e-02, -7.00144283e-03,
       1.69795249e-02, 5.42227691e-03, 4.67324309e-04, 1.12625854e-02,
       4.42567840e-03, 1.05015207e-02, -3.07877711e-03, -7.72980088e-03,
       -3.56932520e-03, 3.42754647e-03, 8.25810991e-03, -7.33483816e-03,
       3.77819175e-03, 1.61273498e-02, -8.21171235e-03, -1.17608001e-02,
       -1.68945547e-02, -1.13946963e-02, 3.43027222e-03, 2.16991045e-02,
       6.96223974e-03, 2.62522115e-03, 1.20798703e-02, 6.84096897e-03,
       -4.66128578e-03, -4.54139616e-03, -4.03192779e-03, 1.06942467e-02,
       1.25916628e-02, 1.86543737e-03, 2.04657018e-02, 2.45373826e-02,
       2.97913980e-03, -1.09217931e-02, -1.24164457e-02, -9.40061454e-03,
       2.21009995e-03, 1.11969290e-02, -1.40521413e-04, 1.68187786e-02,
       1.56681426e-02, 3.35320807e-03, -4.53630602e-03, -5.55351982e-03,
       -9.08096787e-03, 6.57732645e-03, -9.31958144e-04, -8.94821656e-04,
       9.42259002e-03, -3.45401838e-03, -2.08574086e-02, -8.57169088e-03,
       -1.55736448e-03, -1.47129502e-02, -1.19116530e-03,
       -1.37689442e-03, -9.07053240e-04, 1.85419302e-02, 1.55944400e-03,
       4.74656234e-03, -1.97391796e-06, -1.87143846e-03, -9.41140670e-03,
       -1.02185672e-02, 5.71269169e-03, 3.19131045e-03, 1.69945490e-02,
       -1.55758252e-02, -9.07713640e-03, -9.43108927e-03,
       -1.60393841e-03, -1.43061876e-02, 4.54946421e-03, -8.66044720e-04,
       6.85084087e-04, 4.48137801e-03, -3.51197948e-03, -2.83900998e-03,
       1.68728689e-03, 7.23265624e-03, -1.13860774e-03, 2.09425879e-03,
       -2.33494770e-03, -5.48758078e-03, 2.01871805e-03, -1.22625623e-02,
       4.76217130e-03, 4.35461802e-03, 5.31914365e-03, -1.17842318e-03,
       5.71502093e-03, -9.58215166e-03, -4.58870782e-03, 4.29865299e-03,
       -1.43659245e-02, -2.84036249e-03, -3.81073798e-03, 4.26116260e-03,
       -2.54649855e-03, 6.03470858e-03, 2.62935809e-03, 8.04083480e-04,
       6.87905913e-03, 8.26574024e-03, 1.00211035e-02, -1.98775530e-03,
       3.20008607e-03, 7.80664431e-03, 1.68109946e-02, -5.73103456e-03,
       -6.97428454e-03, 3.64719424e-04, -4.71279863e-03, 7.82619137e-03,
       4.53384686e-03, -1.56751648e-03, -8.02816008e-04, 6.45371561e-04,
       1.32752499e-02, 3.74254095e-03, 5.36532607e-03, -1.16621125e-02,
       -2.31681834e-03, 3.63315106e-03, 7.55367149e-03, -1.01347116e-03,
       3.13280895e-03, 1.32588614e-02, -5.30784111e-03, 5.25080692e-03,
       3.14424583e-03, 2.50366554e-02, 3.20310309e-03, 1.14562381e-02,
       6.93595409e-03, 1.40257515e-02, 3.96766933e-03, -1.74456963e-03,
       3.88011686e-03, 4.75580385e-03, -1.00098746e-02, 8.13906826e-03,
       3.90206859e-03, -1.07083679e-03, -1.22501608e-02, 1.75183476e-03,
       -4.32885159e-03, 1.34617684e-03, -1.01788891e-02, -2.36248644e-03,
       -9.66073666e-03, 3.95288691e-03, -4.97836107e-03, -6.47076312e-03,
       -6.91926945e-03, 3.87699134e-03, 6.37317123e-03, -1.04256868e-02,
       -6.13290910e-03, -7.88615458e-03, 3.66860372e-03, -2.33660988e-03,
       -1.28828650e-02, 7.84081034e-03, 1.39428200e-02, 1.09828208e-02,
       2.69806106e-03, -2.47916766e-03, -1.22169349e-02, -8.32618680e-03,
       -4.66126762e-03, -1.18127614e-02, 5.96956117e-03, 3.80884553e-03,
       1.49030788e-02, -3.67758446e-04, -1.22035323e-02, -1.50886066e-02,
       -9.59743652e-03, -1.77356042e-03, -4.63722087e-03,
       -5.33820689e-03, 4.85110609e-03, 1.94914558e-03, -5.13934763e-03,
       -3.60670756e-03, -6.11778209e-03, -1.71671971e-03,
       -7.18027772e-03, -8.96203611e-03, 1.24573067e-03, 9.18591674e-03,
       4.86729061e-03, -6.72948780e-03, -1.27170673e-02, -8.79576430e-03,
       -1.04651228e-02, -1.18256221e-02, -2.34372132e-02, 3.19255306e-03,
       9.04934201e-03, 7.56786205e-03, -2.52268161e-03, -5.92753058e-03,
       -6.95927721e-03, -7.24711281e-04, -3.28311999e-03, 8.27352284e-04,
       8.71214643e-03, 6.15296653e-03, -4.20875149e-04, -4.55593516e-04,
       4.03599441e-03, -1.63239688e-02, -7.21202418e-03, -8.97485577e-03,
       -4.37102327e-03, 3.35977715e-03, 2.00022180e-02, 1.77367982e-02,
       5.25942491e-03, -7.11547770e-03, -2.61510420e-03, 3.64090153e-03,
       1.00953933e-02, -1.86874885e-02, 3.41768307e-03, -5.09465020e-03,
       -3.70631373e-04, 1.08971715e-03, -1.28709236e-02, -1.47130517e-02,
       1.34475091e-02, -3.05376225e-03, -1.03176944e-02, 4.21378179e-04,
       1.32125365e-02, 1.41233644e-02, 2.30165268e-03, 8.58685561e-03,
       -6.12361496e-03, 3.47994571e-03, 6.64511090e-03, -8.19757301e-03,
       1.56614312e-03, 7.82668591e-03, 7.56057398e-03, -4.37603146e-03,
       -1.00046070e-02, -6.62920764e-03, 1.07867094e-02, -1.82798936e-03,
       -9.25975572e-03, -8.52203835e-03, -1.37191487e-03, 3.61319119e-03,
       1.78958144e-04, -2.26770993e-03, -6.87542511e-03, 1.07154008e-02,
       3.46483896e-03, -1.41097717e-02, -7.97912537e-04, 5.45820035e-03,
       1.21265021e-03, 3.41725489e-03, 1.42309740e-02, 1.40393591e-02,
       4.24873549e-03, 2.97354627e-03, -1.84657332e-02, -8.02176166e-03,
       1.14448853e-02, -1.90512696e-03, -6.16762601e-03, 4.80641238e-03,
       3.59983742e-03, 5.45309950e-03, 4.78369091e-03, -1.07462574e-02,
       6.10105507e-03, 4.63317987e-03, -1.05641712e-03, -6.79408712e-03,
       1.59783084e-02, 1.46657145e-02, -6.32973341e-03, -7.36170076e-03,
       -8.73682462e-03, 5.21885790e-03, 8.23544618e-03, 8.97638779e-03,
       -1.15882140e-02, -1.28174445e-03, 1.55859580e-02, 9.20347590e-03,
       9.31306090e-03, 2.93596927e-03, -4.47168015e-03, -3.56817944e-03,
       4.50598449e-03, -1.17471837e-03, 7.29408860e-03, 2.99179996e-03,
       -3.32139223e-03, -4.44640312e-03, -1.05698090e-02, 1.93341821e-02,
       1.66650619e-02, -1.73165405e-04, -1.47693763e-02, -6.51429268e-03,
       5.69030503e-03, 1.37885008e-03, 1.16258683e-02, 6.83804834e-03,
       -3.77939222e-03, -7.64364190e-03, -1.23272103e-03,
       -1.36421742e-02, -7.56971864e-03, -9.48037952e-04,
       -2.57960311e-03, -4.55433642e-03, 2.81038182e-03, 5.15384739e-03,
       -4.56473045e-03, 1.49338525e-02, 1.18185207e-02, 1.20596765e-02,
       6.09704386e-03, 4.20625415e-03, 3.70738190e-03, 5.62946312e-03,
       -8.95469857e-04, -6.60853274e-03, 1.05552273e-02, 9.06491745e-03,
       3.35356384e-03, -2.02739635e-03, 7.15005118e-03, 4.69273375e-03,
       1.52517976e-02, 7.98753090e-03, 2.15487811e-03, 1.26880519e-02,
       -3.78661207e-03, -1.02430131e-04, -1.87983189e-03,
       -5.86804643e-04, -3.32791312e-03, 1.10508651e-02, -3.29402066e-03,
       -1.48079759e-02, 1.21331355e-02, -6.82999962e-04, -1.93889544e-04,
       -1.47486925e-02, -6.49278751e-03, -8.93366616e-03, 1.28891673e-02,
       -1.17740138e-02, -8.14324152e-03, 2.18387763e-03, -1.53353642e-04,
       -3.71689675e-03, 1.19690383e-02, 1.56996474e-02, 4.23088204e-03,
       5.81388944e-04, -1.32168736e-02, -1.26093095e-02, -2.54912139e-03,
       1.36996759e-03, 5.92820172e-04, 2.72298488e-03, 1.41377114e-02,
       -1.42845307e-02, -8.68546125e-03, -1.04998164e-02,
       -5.94551535e-03, -1.36915152e-03, -1.21616861e-02, 3.98916099e-03,
       -1.05297472e-03, 1.80218252e-03, 2.68348586e-03, 1.02308029e-02,
       6.26663072e-03, -7.43204216e-03, -7.99940713e-03, -3.97785334e-03,
       2.82985577e-03, -5.44493133e-03, 1.83173642e-03, 1.36926188e-03,
       4.12137574e-03, -4.44765529e-03, -8.26126337e-03, -1.15733140e-03,
       -3.95986112e-03, 5.49407164e-03, 6.07371004e-03, 8.25797115e-03,
       -3.43122659e-03, -5.90631133e-03, -5.60313649e-03,
       -1.13486974e-02, -3.42796952e-03, 1.17832245e-02, -3.54565773e-03,
       4.47199401e-03, -6.53872499e-03, -6.30177045e-03, -2.66589550e-03,
       1.64270774e-02, -8.12881812e-03, -6.73941616e-03, 1.86266215e-03,
       -2.19639251e-03, 7.76691921e-03, 1.67332608e-02, 6.08095573e-03,
       7.08876550e-03, 1.22819971e-02, 5.20096917e-04, 1.24287819e-02,
       1.64659508e-02, 1.23033347e-02, 6.08430710e-04, 1.00553874e-02,
       3.21259676e-03, 4.01546760e-03, -9.47378855e-03, -5.04484028e-03,
       -4.57053829e-04, 3.46766901e-03, 5.46127977e-03, 6.44849520e-03,
       -3.85104376e-03, -1.83085073e-03, 1.06221000e-02, -2.67280149e-03,
       2.73144036e-03, -7.52154412e-03, 3.02284810e-04, -4.48669726e-03,
       1.36361988e-02, -4.10661427e-03, 3.21397372e-03, 3.35143227e-03,
       -5.79970889e-03, -2.61822389e-03, 1.36295427e-03, -2.89403554e-03,
       2.04407498e-02, 6.64000772e-03, -1.59496982e-02, -7.98675511e-03,
       -6.75562164e-03, -1.68427956e-04, 2.15004943e-03, -2.71238183e-04,
       -1.56079680e-02, 7.09464017e-04, 1.74776725e-02, -5.91393746e-03,
       -1.17497463e-02, -9.92218498e-04, 7.47041428e-04, 1.10982144e-02,
       5.79928653e-03, -6.88789319e-03, -7.78063526e-03, 8.12535360e-03,
       -5.02889231e-03, 6.70999568e-03, 7.28367595e-03, -2.37482623e-03,
       6.36999123e-03, 1.39266364e-02, 9.33839101e-03, 1.01645412e-02,
       2.72534927e-03, 3.49048851e-03, 4.83670458e-03, 3.55473813e-03,
       -3.35137546e-03, 5.23591693e-03, 6.88342843e-04, -1.70508549e-02,
       -1.83594320e-02, -3.21934884e-03, -3.30118160e-03,
       -5.42736519e-03, 6.16008509e-03, -1.22587625e-02, -2.70206854e-03,
       2.56570429e-03, 6.95561338e-03, -1.14827845e-02, -5.08976728e-03,
       -1.70657132e-03, -1.00488346e-02, -2.60474230e-03,
       -1.31817991e-02, -5.93367126e-03, -2.60267174e-03, 2.80849007e-03,
       8.10855348e-03, -2.17166249e-04, 8.50900728e-03, -2.26989039e-03,
       -1.00329742e-02, -1.64850871e-03, 5.29502099e-03, 3.19413994e-05,
       4.67158796e-04, 5.96760015e-04, 2.31227302e-03, 1.01802801e-03,
       -1.22143934e-02, -3.66736320e-04, -1.22156013e-02,
       -6.71196170e-03, 7.32864672e-03, 1.37939129e-03, 6.66880235e-03,
       2.95674358e-03, -7.42625631e-03, -2.90761981e-03, 9.76420357e-04,
       -6.33278769e-03, 7.38442002e-04, 1.62343383e-02, -5.21614775e-03,
       1.14975842e-02, 4.53109387e-03, -5.13210054e-03, -1.03073558e-02,
       1.07047184e-04, 2.36357562e-03, 4.68093948e-03, 1.59001071e-03,
       -6.10201946e-03, -1.34935975e-02, 1.34903407e-02, 8.65527056e-03,
       -7.02370424e-03, -6.52169017e-03, 2.10362929e-03, -1.58583478e-03,
       -4.51073935e-03, -1.46497339e-02, 2.08947365e-03, 1.74383575e-03,
       3.87245510e-03, 1.99410785e-03, 4.33493219e-03, -1.97469792e-03,
       6.16094889e-03, 4.97872056e-03, -1.26291700e-02, -1.02792459e-03,
       1.64351575e-02, -2.09072279e-03, -1.33853741e-02, 4.95799258e-03,
       -8.44671973e-04, 7.28042657e-03, 8.52350146e-04, -8.76060966e-03,
       1.24961389e-02, 6.47028675e-03, -2.51685595e-03, -1.09722102e-02,
       7.10754236e-03, -3.42691387e-03, 2.97929114e-03, -1.24735292e-03,
       -8.91491305e-03, -1.73362363e-02, -1.02852592e-02,
       -6.39786827e-04, 1.39979916e-02, -1.67835085e-03, 5.32787200e-03,
       1.10351471e-02, 5.82639920e-03, -1.08459848e-03, -9.16162273e-04,
       8.47523846e-03, 4.81369253e-03, 7.10261706e-03, -4.97987494e-04,
       -6.70748996e-03, 3.88694415e-03, -7.09008565e-03, -8.92794877e-03,
       -4.17306041e-03, -6.72294176e-04, 2.04021926e-03, 2.57478503e-04,
       -6.00979943e-03, 1.65505614e-02, -3.73453624e-03, 4.32826160e-03,
       -6.97985105e-03, 2.70244502e-03, 1.46606406e-02, -3.98749765e-03,
       5.11275139e-03, 9.76555143e-03, 1.81102916e-03, 3.50015308e-03,
       3.00998893e-03, -4.69554355e-03, -1.04738930e-02, -1.89262821e-04,
       4.21121437e-03, 7.00316392e-04, 3.59562364e-05, -1.07046943e-02,
       2.44780863e-03, 1.07162015e-03, -5.56763215e-03, 1.27464614e-03,
       -3.99514771e-04, 4.10808343e-03, -6.50938542e-04, -1.44954324e-02,
       -4.15718043e-03, -6.49943622e-03, -9.49928816e-03, 3.18044354e-03,
       7.14461366e-03, 9.32010170e-03, 9.73570719e-03, 2.57861568e-03,
       -8.14835355e-03, 1.66985253e-03, 1.17333001e-02, -1.32689034e-04,
       8.95243697e-03, 3.37585923e-03, -6.33568130e-03, 6.65552728e-03,
       -2.45180301e-04, -5.11472858e-03, -3.68967350e-03, 1.35486666e-03,
       8.07182863e-03, 6.98105711e-03, 1.01527944e-02, -6.40568696e-03,
       -8.39300512e-04, -6.78636192e-04, -7.39015918e-03,
       -3.51938396e-03, 2.19716458e-03, 9.84171219e-03, -1.93913048e-03,
       3.44299246e-03, -1.64952707e-02, -6.51528267e-03, -4.67756251e-03,
       1.73715979e-03, -4.45445022e-03, 6.65791798e-03, 4.84920293e-03,
       -2.98159407e-03, -1.62938982e-02, -3.89511301e-03, 3.33442236e-03,
       2.74794060e-03, -1.22610778e-02, -4.25275508e-03, 1.24650560e-02,
       3.71667498e-04, -1.91663541e-02, -1.26906782e-02, -1.02267871e-02,
       5.26026264e-03, 8.19225330e-04, -5.28041134e-03, -1.80757921e-02,
       -1.16488878e-02, 2.20465735e-02, 1.39813628e-02, 6.84284139e-04,
       -1.02490382e-02, -1.08615281e-02, -2.26112176e-02,
       -1.50009664e-02, -1.48508977e-02, -3.07613122e-03, 1.42758749e-02,
       1.22077363e-02, 1.94506347e-02, 3.97135317e-03, -7.10105896e-03,
       -1.34794284e-02, -1.09088691e-02, -1.23456586e-02,
       -5.75278234e-03, 1.39234250e-03, 5.56794088e-03, -1.51748816e-03,
       -1.00767873e-02, -3.29732411e-02, -2.64423098e-02,
       -2.10605357e-02, 7.38652004e-03, 4.70773736e-03, -1.47378724e-02,
       6.43591443e-03, -4.16868692e-03, 1.30276987e-02, -4.24763141e-03,
       -9.11595300e-03, -3.96038545e-03, -7.23179756e-03, 7.45405722e-03,
       1.24273151e-02, 8.75716656e-03, 2.13295873e-03, -3.89552955e-03,
       -3.70982103e-03, -1.06771998e-02, -6.04571495e-03,
       -9.65773070e-04, 1.22243483e-02, 3.02548753e-03, 1.04851034e-02,
       -1.55304540e-02, -1.06067192e-02, -1.48441852e-03,
       -1.27188060e-02, -6.77667605e-03, 7.74245802e-03, 1.15042580e-02,
       3.58785805e-03, 9.68460552e-03, -1.30760726e-02, -9.89823136e-04,
       -3.95526784e-03, -4.28645499e-03, 1.55849918e-03, 5.92159526e-03,
       9.34223644e-03, 2.40175496e-03, 6.78856159e-05, -2.61852262e-03,
       6.26043277e-03, -3.09920497e-03, -1.30172633e-02, -1.20654665e-02,
       7.15183141e-03, 6.32148283e-03, 8.92111473e-03, 9.04198736e-03,
       8.79095029e-03, -2.72575603e-03, -2.92244717e-03, -1.63566147e-03,
       5.45309065e-03, -4.87428531e-03, -1.40610558e-03, 1.49743853e-03,
       1.13782361e-02, 2.82788873e-02, -1.33426208e-03, -1.38697280e-02,
       -1.29012149e-02, -5.99508360e-03, 3.41784209e-03, 7.03547485e-05,
       -2.74444319e-04, 1.01374672e-03, -2.93983007e-03, 1.41347330e-02,
       -2.06222641e-03, -3.71241593e-03, -8.37515015e-03,
       -1.72966847e-03, -1.05342700e-03, -4.95176623e-03,
       -2.78020132e-04, 1.65609103e-02, 1.11503210e-02, -1.88290216e-02,
       -7.35333143e-03, -1.14356950e-02, 1.47185856e-02, 1.27017470e-02,
       -1.55591127e-03, 7.45125813e-03, 7.87143130e-03, -1.29181531e-03,
       -1.01404041e-02, -6.25312049e-03, 8.35089292e-03, 5.90646081e-03,
       4.12100973e-03, -4.00470989e-03, -2.35420754e-04, 7.19391927e-03,
       -9.26892366e-03, -1.13474168e-02, -8.39815661e-03,
       -1.18549145e-03, 6.88850507e-03, 5.39240334e-03, -2.64823553e-03,
       1.01674031e-02, 8.30522273e-03, 8.34019948e-03, -1.14221415e-02,
       -1.33405603e-03, 4.28673718e-03, 1.54610090e-02, 5.54886297e-04,
       -8.56658723e-03, -1.44008901e-02, 1.63419340e-02, 1.55948673e-03,
       -1.32444007e-02, -5.40027954e-03, 7.79796345e-03, 8.26952234e-03,
       4.71492019e-03, -4.48726956e-03, 1.09152002e-02, 1.87977217e-02,
       -2.71015265e-03, -2.59422872e-04, -1.02383308e-02,
       -5.31155476e-03, 1.06386258e-03, -3.24353599e-03, 5.52230747e-03,
       1.47512481e-02, -5.65687194e-03, -1.79001037e-02, -1.46914525e-02,
       -1.64370351e-02, -6.31628884e-03, 5.80162229e-03, -2.93442491e-03,
       -1.80678032e-02, -9.33004601e-04, 8.22736323e-03, 6.68021990e-03,
       -2.68009491e-04, -3.91641399e-03, 2.53432459e-04, 6.36446616e-03,
       1.63549893e-02, 1.97592415e-02, 1.49823939e-02, 4.92041698e-03,
       -1.27905793e-02, -8.05861782e-03, -1.50996940e-02,
       -6.41571125e-03, 7.64165353e-03, -3.68880836e-04, 1.22487722e-02,
       -2.32104358e-04, 1.21599529e-02, -1.62753137e-03, 1.69101090e-03,
       -1.33797061e-03, 7.70876510e-03, -1.56137830e-04, -4.03757626e-03,
       -3.40540055e-03, -1.08690662e-02, -1.26814310e-04, 3.46239074e-04,
       -2.73159007e-03, -9.73391533e-03, 9.93339927e-04, 6.25595171e-03,
       9.09440871e-03, -5.46296127e-03, -3.62877036e-03, 2.54720054e-03,
       -1.12627894e-02, -4.08194121e-03, -2.97427154e-03,
       -1.88227231e-03, 8.71105585e-03, 1.16618313e-02, 3.70300701e-03,
       1.12705929e-02, 1.30959069e-02, -2.82960478e-03, -4.61498945e-04,
       1.09791551e-02, 1.07885711e-02, 6.37454260e-03, 4.40052897e-03,
       1.31257307e-02, -6.56957505e-03, -2.92218057e-04, 1.28614029e-03,
       -9.37977899e-03, -5.87261003e-03, 4.72072605e-03, 7.13148969e-04,
       -7.90335424e-03, 1.52200200e-02, 3.07400274e-04, -4.89366939e-03,
       -9.00679920e-03, -1.47696892e-02, -2.02806108e-03, 7.18745030e-03,
       8.34668614e-03, -5.07880840e-03, 7.95128569e-03, 5.67236962e-03,
       1.30293267e-02, -2.23685079e-03, -2.54172971e-03, 9.56433360e-03,
       9.39580519e-03, 9.57877655e-03, -7.18821888e-04, 1.36325639e-02,
       -6.08676113e-03, -7.05332775e-03, -1.43444976e-02,
       -1.62062272e-02, 4.78323270e-03, 1.91690587e-02, -6.18809974e-03,
       1.01477047e-03, 7.40652345e-03, 7.49817025e-03, 9.89496475e-04,
       5.93329954e-04, -4.90404025e-04, 1.02347683e-03, -3.28699034e-03,
       -8.38917121e-03, 1.57689210e-03, 4.02807724e-03, 6.33399840e-03,
       -1.18162232e-02, 1.11606568e-02, 4.20981582e-04, 6.71665464e-03,
       -1.64917614e-02, 3.24640819e-03, -6.66258298e-03, 1.67159026e-03,
       -6.10552356e-03, -3.09036346e-03, -2.61938549e-03,
       -4.91419015e-03, 7.50700617e-03, 1.09559922e-02, -6.11968059e-03,
       -7.02553242e-03, -2.13369122e-03, 6.53823931e-03, -1.97667945e-02,
       -1.29611057e-03, 1.78965053e-03, -4.14227892e-04, -1.64591428e-02,
       -5.95831871e-03, 7.21746916e-03, -7.41144584e-04, 2.10315362e-03,
       -1.52212298e-02, -1.41090422e-03, -4.52814996e-03, 5.80742629e-03,
       -1.23339174e-02, 1.54465437e-04, -1.48364296e-03, 9.90069285e-03,
       6.90232916e-03, -3.44943046e-03, -4.23358986e-03, 1.61179726e-03,
       3.84430215e-03, 2.26569967e-03, -2.64202268e-03, -6.46467041e-03,
       -1.11103440e-02, -8.89287703e-03, -1.90068688e-02, 4.87490930e-03,
       1.22274691e-02, 3.94095061e-03, -3.67847458e-03, 3.72955389e-03,
       -1.47336896e-03, -1.66446604e-02, 5.88705123e-04, -1.89611036e-02,
       4.96362522e-03, -3.19432071e-03, 8.52924585e-03, 4.21254337e-03,
       4.13666526e-03, 4.84314375e-03, 1.26858829e-02, 6.87193079e-03,
       -1.05429692e-02, -9.77256987e-03, -3.58327688e-03,
       -1.12267013e-03, -2.53364397e-03, -1.04306208e-03,
       -8.70677643e-03, 3.29373823e-03, -2.29100813e-03, 4.10368945e-03,
       -1.57282073e-02, -6.68736687e-03, -7.91982189e-03,
       -1.11643197e-02, 8.64963513e-03, 4.31866245e-03, 3.39822867e-03,
       1.24860443e-02, -3.08530033e-03, 2.35110347e-04, 4.79824055e-04,
       6.56967890e-03, -1.68658874e-03, 5.07955113e-03, -7.53552327e-03,
       -6.92759757e-04, 5.42164873e-03, -4.51848796e-03, -4.58408846e-03,
       -1.93541113e-03, 3.30504635e-03, -8.38048942e-03, -7.10926112e-03,
       3.26585514e-03, 1.65362470e-02, 7.36205140e-03, 5.21610305e-03,
       -5.59297064e-03, 7.85777438e-03, -2.84557370e-03, -1.34017738e-02,
       -3.75832920e-03, 6.80582225e-03, 9.66459420e-03, 1.36308503e-04,
       -8.58791545e-03, -4.49952343e-03, 1.31813455e-02, 5.36072860e-03,
       -1.57377571e-02, 9.41956416e-03, 1.29639674e-02, 5.61849540e-03,
       1.23992190e-03, 9.48855071e-04, -7.33053451e-03, 1.42604287e-03,
       9.43974871e-03, -4.36241180e-03, -3.67484032e-03, 1.45073850e-02,
       3.66860116e-03, 3.47464625e-03, 4.95657744e-03, -6.44901255e-03,
       9.51441377e-03, -7.04109785e-04, -1.67213921e-02, -1.16004767e-02,
       1.17325662e-02, 6.70476351e-03, -2.32998701e-03, -6.91747898e-03,
       6.98967418e-03, 1.96713787e-02, 9.08671599e-03, -1.23874852e-02,
       -1.37083195e-02, 8.10495391e-03, 6.32975623e-03, -2.49374076e-03,
       7.52333691e-03, 1.03129344e-02, -1.88720098e-03, -2.81963893e-03,
       -1.12453094e-02, -2.09807791e-03, -4.66418220e-03,
       -1.08029298e-03, 5.48463175e-03, -8.96255951e-03, 1.81696247e-02,
       2.88613178e-02, 1.45117771e-02, -3.08629568e-03, -5.04437741e-03,
       -9.39116906e-03, -7.71797122e-03, -2.95039220e-03, 2.20601703e-03,
       1.26629220e-02, -9.63922939e-04, -4.88748448e-03, -7.69827282e-03,
       -1.46833609e-03, 5.31324744e-03, 1.05915184e-03, -4.16788534e-04,
       1.56091042e-02, 1.53949307e-02, 1.05074123e-02, 4.79738275e-03,
       -7.07984029e-04, -1.30991768e-02, -5.54641243e-03,
       -5.87849552e-03, -9.80292913e-03, -2.64996663e-03, 4.08065807e-06,
       1.20519137e-03, 2.14269222e-03, -2.93707009e-03, 6.72135316e-03,
       -4.44139540e-03, -1.51444599e-02, 3.73436837e-04, 7.91704282e-03,
       1.11836325e-02, 1.22598349e-03, 3.37893376e-03, 1.79620776e-02,
       -5.62436925e-03, -5.12967724e-03, -8.34390707e-03,
       -2.91077490e-03, 1.30734465e-04, -8.03904235e-03, -1.13811344e-02,
       -4.87776054e-03, 5.26432274e-03, 1.49169809e-03, 9.82686132e-03,
       9.82327573e-03, 1.33686082e-03, -6.48666639e-03, -1.34126586e-03,
       2.28320062e-03, 2.13187793e-03, 6.42153481e-03, -1.49410963e-02,
       -6.29097968e-03, 1.21257333e-02, 6.31123688e-03, 4.12838906e-03,
       -2.10205256e-03, 4.04425012e-03, 5.01289265e-04, -2.07952270e-03,
       -6.29613921e-03, 1.00075584e-02, 1.01328464e-02, 8.30079801e-03,
       -3.64011503e-04, 9.48779378e-03, 6.91464683e-03, 1.87258087e-02,
       6.89242687e-03, -1.85866617e-02, 1.08597591e-03, 4.41564294e-03,
       1.53338304e-03, -5.23004262e-03, 7.83281308e-03, 1.93303754e-03,
       5.97525202e-03, 7.32639665e-03, -1.52781745e-02, -1.71225809e-03,
       -3.90063296e-03, -3.92587669e-03, 6.04476463e-06, -3.57444296e-05,
       -5.60583035e-03, 2.94771092e-03, 6.23235852e-03, 8.35067686e-03,
       4.65498492e-03, -7.34279631e-03, 3.34156351e-03, 2.24884716e-03,
       2.72904430e-03, 3.71439569e-03, 1.45775666e-02, 8.62902496e-03,
       -2.31383014e-02, -3.92813282e-03, -3.40802246e-03,
       -2.66892207e-03, -7.69735966e-03, 3.52398469e-03, 6.55778043e-04,
       1.89178959e-02, 2.09259498e-03, -7.22507248e-03, -8.79643206e-03,
       -4.19210223e-03, 1.28373168e-02, 2.87313503e-03, -1.39437884e-03,
       -5.30657964e-03, 9.26917512e-03, 1.96367531e-04, 1.34395445e-02,
       -7.44443201e-03, -7.26520363e-03, -5.32076368e-03,
       -6.80536171e-03, 6.15918171e-03, 1.32312728e-02, 2.13345643e-02,
       1.26559744e-02, 4.59610205e-03, -4.85322904e-03, 1.77450699e-03,
       -3.59984371e-03, 6.04938657e-04, -5.94851049e-03, 2.79574608e-03,
       7.90283363e-03, 6.68854825e-03, 8.06732848e-03, -1.22811347e-02,
       -1.37662180e-02, -9.53139085e-03, 3.42241232e-03, -2.14784127e-03,
       5.77228423e-03, 1.68996640e-02, 1.66887064e-02, 7.91165140e-03,
       -2.94602942e-03, 6.50192611e-03, -8.64408631e-03, -8.39062268e-04,
       -1.10882455e-02, -1.11261336e-03, -1.30768493e-03, 1.32390745e-02,
       -5.96672110e-03, -5.06987004e-03, 7.36335525e-03, -3.09331086e-03,
       1.11558000e-02, -3.58574349e-03, -2.95438775e-04, -5.29433973e-03,
       -5.43163111e-03, -7.54256453e-03, -1.14874896e-02,
       -5.45810955e-03, -3.19768745e-03, -2.03209696e-03, 2.06993427e-02,
       3.41258734e-03, -7.82796089e-03, -4.22125479e-04, -1.94339809e-05,
       1.78484293e-03, 8.84952769e-03, 3.03802290e-03, -4.19452600e-03,
       -1.92539324e-03, -5.84617024e-03, -4.22996096e-03, 5.50022814e-03,
       -1.01438202e-02, -1.65236648e-02, 3.89798242e-03, -3.49953049e-03,
       -9.79977660e-03, 1.40449498e-02, -1.51362037e-02, -1.60307959e-02,
       -2.39050621e-03, -1.46108614e-02, -6.98738359e-03,
       -4.70266957e-03, -1.62330884e-02, -1.18125211e-02, 7.74629274e-03,
       2.77788844e-03, -1.06208923e-03, -2.10952712e-03, -1.25620207e-02,
       -9.65640415e-03, 9.80610261e-04, 7.24466052e-03, -4.12062509e-03,
       5.92482090e-03, 5.14311530e-03, 3.57916532e-03, -5.12649596e-04,
       -9.28832311e-03, -1.38928527e-02, 4.85867634e-03, -1.03097707e-02,
       8.49708333e-04, 1.69971418e-02, 3.65676917e-03, -5.27910702e-03,
       5.96244354e-03, -4.85983957e-03, -1.00073172e-02, -5.41218556e-04,
       1.40205771e-03, 1.16155427e-02, 9.86199081e-03, 4.46254946e-03,
       -7.71858322e-04, 4.77614143e-04, -1.05644800e-02, -6.27166731e-03,
       5.18562924e-03, 1.72282138e-03, -1.05420202e-02, 4.01680474e-04,
       2.69371644e-03, -2.12100684e-03, -4.73842677e-03, -1.20512592e-02,
       -5.30714076e-03, 1.29438313e-02, -3.79003910e-03, 2.20030476e-03,
       2.32320698e-03, 1.14916628e-02, 1.13819577e-02, -8.27822741e-03,
       1.96479945e-04, -4.99326317e-03, 1.60832284e-03, 8.24793708e-03,
       5.46122249e-03, 5.17117511e-03, 1.78121473e-03, -1.17959222e-03,
       -3.14067677e-03, 3.83731560e-03, -2.70194351e-03, -1.61052402e-03,
       6.36025658e-03, 1.28624048e-02, 5.39054163e-04, 8.83071497e-03,
       1.69667974e-02, 6.86482585e-04, -8.61047581e-03, -3.46182822e-03,
       -1.43331673e-03, -1.27384337e-02, 3.55686294e-03, -1.70858126e-04,
       1.18920936e-04, 2.52709258e-03, -3.45057517e-04, 3.40964040e-03,
       -1.67714176e-03, -5.17383625e-04, -1.49798451e-03, 7.11014308e-03,
       -3.47864884e-03, -8.79940111e-04, -3.69442324e-03, 1.19425217e-02,
       -4.90645936e-04, 9.31501854e-04, -7.32816570e-03, -1.21136727e-02,
       4.98568360e-03, 5.23750344e-03, 4.13091248e-03, 1.52223157e-02,
       -7.69239385e-03, 1.38666248e-02, 9.07745305e-03, 8.30504345e-04,
       1.58873457e-03, 4.47806064e-03, 6.37306413e-03, 1.15237711e-03,
       2.22822977e-03, 2.51577701e-03, 3.80181172e-03, 6.60295738e-03,
       -3.42781516e-03, -4.61185258e-03, -4.23935335e-03,
       -1.24134179e-02, -1.48736965e-02, -7.53147854e-03, 3.76653788e-03,
       3.41961719e-03, 3.75762954e-03, -6.40801038e-04, 3.43498331e-03,
       1.70769636e-02, 9.90371592e-03, -9.86096822e-03, -1.40215177e-02,
       -8.04198906e-03, 1.20306807e-02, 9.88636725e-03, -4.41780966e-03,
       -8.58601369e-03, -2.09012590e-02, -5.16776694e-03,
       -2.23615859e-03, 7.04055361e-04, 8.62930715e-03, 2.83096125e-03,
       1.42768752e-02, -5.14963688e-03, -3.29163019e-03, -3.47418478e-04,
       1.17805162e-02, 1.10222390e-02, 4.51404927e-03, 3.42723471e-03,
       -1.46277435e-03, -4.22505941e-03, -1.10579664e-02, 2.75937165e-03,
       2.47862730e-02, 1.22261550e-02, 8.40077922e-03, -7.02093262e-03,
       -6.61325548e-03, -9.75589454e-03, 5.00543276e-03, 9.57514683e-04,
       4.84494230e-04, -7.68587179e-03, -1.26061306e-04, 4.33260808e-03,
       -6.70790533e-03, -5.32862172e-03, -5.02790976e-03, 9.20109823e-03,
       -4.74089757e-03, 6.78036688e-03, 1.82648450e-02, 8.46113451e-03,
       1.40370606e-02, 2.35117599e-03, -1.27053575e-03, -5.57306409e-03,
       9.95183509e-05, 5.42181917e-03, 8.01785197e-03, 2.77802534e-02,
       6.96248189e-03, 4.96322010e-03, -1.22180805e-02, 3.05662560e-03,
       -1.35341613e-03, 7.37207755e-03, -1.83617568e-03, -1.11834342e-02,
       -4.08509886e-03, -3.80640174e-03, 3.82422446e-03, 1.76640938e-03,
       -2.57313997e-03, -2.94444407e-03, 3.64082679e-03, -7.17217755e-03,
       -1.81223992e-02, 2.87170452e-03, -3.10817827e-03, 2.39284872e-03,
       -9.16490448e-04, -5.48470207e-03, -2.49551638e-04,
       -1.11096073e-02, -2.57398235e-03, -2.34649586e-03, 4.54038288e-03,
       -4.90158389e-04, 1.70616861e-02, 5.66273974e-03, 5.76449186e-03,
       -1.74511306e-03, -7.90206064e-03, -5.65672293e-04,
       -9.57223028e-03, 1.08210715e-02, -1.33918477e-02, -5.10288635e-04,
       -7.67177250e-03, 1.19161059e-03, -9.34701879e-03, -4.24494734e-03,
       -4.24836157e-03, 5.00525068e-03, 8.34074430e-03, 3.14875250e-03,
       -2.72201374e-02, -2.24392675e-02, -1.52932890e-02,
       -1.01941486e-03, 4.07873048e-03, -3.84235638e-03, -2.29886966e-03,
       -3.13710608e-03, 1.39858006e-02, -7.05622183e-03, -9.19356756e-03,
       7.17279385e-04, -1.73098575e-02, -1.29677691e-02, -2.29024002e-03,
       -3.80808301e-03, -4.00402583e-03, 6.54913625e-03, -8.99261143e-03,
       -1.68161634e-02, -1.41902119e-02, -1.39653345e-03, 6.26038015e-03,
       -1.70213671e-03, -1.31217279e-02, -7.47972867e-03, 3.13272933e-03,
       -3.15038051e-04, -1.32867564e-02, -4.83058859e-04, 7.79012777e-03,
       1.17832944e-02, 6.67565363e-03, 1.19085172e-02, -1.27811842e-02,
       8.59384774e-04, -5.43568563e-03, -6.36175694e-03, 1.00453375e-02,
       1.03818346e-02, 5.57679078e-03, 7.57890008e-03, -1.60057243e-04,
       -5.05538483e-04, 4.66501457e-04, -1.86645589e-03, -4.39801812e-03,
       8.06561485e-03, -7.87412561e-03, 6.94378559e-03, 2.93332152e-03,
       4.89689829e-03, -4.42764605e-04, 3.06796329e-03, -7.60467956e-03,
       -1.13465386e-02, -3.46958055e-03, 2.13409323e-04, 1.71225071e-02,
       1.26438495e-02, -1.12355240e-02, -7.09298765e-03, -6.13483740e-03,
       1.27937843e-03, -4.11811704e-03, 1.10707330e-02, 5.53520629e-03,
       -7.37195229e-03, -7.13141495e-03, -2.42622267e-03,
       -5.01447404e-03, 9.37747210e-03, 6.90174429e-03, -4.69223072e-04,
       7.94408284e-03, -4.97606676e-03, -5.45192230e-03, -1.90871358e-02,
       8.20359308e-03, 4.09992691e-03, 3.79911601e-03, -1.35379424e-02,
       -1.06819635e-02, -5.66802546e-03, 6.68405462e-03, -1.02311210e-03,
       -4.91792196e-03, -7.70587567e-03, -1.25130285e-02, 4.85243415e-03,
       1.16474042e-02, -7.69425707e-04, 1.78092103e-02, 1.40853422e-02,
       1.31736454e-02, -1.21837165e-02, -1.32986857e-03, 1.93022657e-02,
       4.93866485e-03, 6.95951981e-03, -7.00697489e-03, 9.22508817e-03,
       -4.58941283e-03, 1.13476235e-02, 4.21714474e-04, 2.32024137e-02,
       1.13289636e-02, 4.93363850e-03, -1.41175557e-02, 1.00850395e-03,
       -2.74525187e-03, 1.46951703e-02, 1.49122009e-03, -1.35970274e-02,
       -2.02541216e-03, -1.90509968e-02, -1.37682911e-03,
       -8.33849702e-03, 8.13121369e-05, 1.34248345e-03, -6.26299949e-03,
       6.09925808e-03, -6.39173668e-03, 6.77523762e-03, 7.07115559e-03,
       9.13906284e-03, 2.68575066e-04, -6.02943124e-03, -6.73703710e-03,
       1.36720936e-03, 8.42241663e-03, 1.32935913e-02, 1.71737522e-02,
       1.30440071e-02, 1.16630681e-02, 4.24096733e-03, -9.21995286e-03,
       -7.01316539e-03, 1.72995739e-02, 5.01074595e-03, -7.29242805e-04,
       1.18614184e-02, 5.41054178e-03, 7.68160494e-03, 6.81719184e-03,
       -2.19945982e-03, 8.36026948e-03, 4.65833629e-03, -2.83563114e-03,
       5.38196461e-03, 6.21973304e-04, -2.34665554e-02, -4.58195759e-03,
       1.40054605e-03, -1.01473164e-02, -8.02073628e-03, 1.01769865e-02,
       2.51831301e-03, 8.50064156e-04, 4.72351024e-03, 2.29777042e-02,
       5.15721925e-03, 8.29889718e-03, -8.75713117e-03, 2.72766547e-03,
       -1.39697967e-03, 7.65150134e-03, 2.49629617e-02, 1.00492565e-02,
       1.47080244e-02, -1.99588458e-03, -1.59774558e-03, -2.03247983e-02,
       -8.76068790e-03, 8.79504904e-03, 8.25336017e-03, 7.24989455e-03,
       1.51822309e-03, -9.36733466e-03, -6.07032562e-03, 1.14018691e-03,
       -1.51922472e-03, -6.81263534e-03, 7.56050833e-03, 5.44476316e-05,
       -2.23909519e-04, -6.72826683e-03, -8.06321565e-04,
       -3.58900824e-03, 9.88825632e-05, 3.73456674e-03, 2.18427833e-03,
       1.80941017e-03, 3.19562573e-03, 8.16824008e-03, -2.42743851e-03,
       4.06635972e-03, 4.67967428e-03, 1.00356173e-02, -4.04948881e-03,
       -2.77646445e-03, 1.26495128e-02, 2.07017101e-02, 2.50106435e-02,
       4.07398306e-03, -2.31588748e-03, 2.15264084e-03, 1.36564234e-02,
       4.06457158e-03, 5.38220955e-03, 5.22982189e-03, 6.44717889e-04,
       1.71365484e-03, 1.08542875e-03, 1.43452613e-02, 2.29311729e-04,
       6.59465045e-03, 1.20423501e-02, 4.41645738e-03, -1.10673648e-03,
       -1.11108385e-02, -7.00799096e-03, -6.69528777e-03,
       -7.70248147e-03, -1.59527119e-02, -1.05479760e-02,
       -7.28329830e-03, 6.30168291e-03, -3.06700007e-03, 1.61059119e-03,
       7.28501705e-03, -9.54228267e-03, 2.65098829e-03, -2.79416447e-03,
       5.76000568e-03, 1.78929640e-03, -6.24506921e-03, 3.22031206e-03,
       -1.02854730e-03, 1.62523123e-04, 5.07693551e-03, -1.16554118e-04,
       -4.52759350e-03, -5.97466063e-03, -1.36602868e-03, 4.01854143e-03,
       -1.55070459e-03, 1.14053313e-03, 6.50872616e-03, 1.70641753e-03,
       -9.02416278e-03, 4.69344528e-03, -2.19506701e-03, -5.96308033e-04,
       4.00006399e-03, -4.30311076e-03, 3.26584862e-03, 2.43744045e-03,
       1.61789544e-02, -3.89042543e-03, -6.96944597e-04, 5.63899940e-03,
       -3.72303184e-03, -1.65648386e-02, 6.53251482e-04, 8.48995708e-03,
       -5.01741515e-03, -3.52399121e-03, -8.12426489e-03, 1.69125793e-03,
       -7.45812198e-04, -1.49610150e-03, 6.25370909e-03, 6.22653519e-04,
       -1.15543243e-03, 5.52853011e-03, 9.51931905e-03, -5.59482817e-03,
       1.37972157e-03, 6.72079530e-03, -5.44333551e-03, 1.75397284e-03,
       2.95970798e-03, 9.46187321e-03, -1.08220112e-04, 9.66790691e-03,
       -1.01493718e-02, 1.04508843e-04, 1.27798030e-02, 2.01591616e-03,
       -8.39104783e-03, 5.62775531e-04, 2.49596615e-03, -1.19040348e-02,
       6.79831719e-03, -9.62133147e-03, 8.64321738e-03, 9.90736205e-03,
       7.88687821e-03, 2.92532961e-03, -1.49251171e-03, -1.46481604e-03,
       -8.48940760e-03, 1.28250197e-03, -3.93359177e-03, 9.27573722e-03,
       1.76415704e-02, -3.89565073e-04, -6.41123625e-04, 1.27106877e-02,
       5.30137960e-03, -8.82889144e-03, -3.86378216e-03, -4.07203753e-03,
       2.00652927e-02, 1.03334775e-02, -8.78302008e-03, 6.27724640e-03,
       3.78122553e-03, 7.48965563e-03, 3.35556874e-03, 2.31187083e-02,
       -2.59072799e-03, 9.41056199e-03, 5.88497438e-04, 1.02944057e-02,
       -8.21535010e-03, -7.78442295e-03, 1.62894663e-03, -4.15879395e-03,
       9.12154932e-03, -8.14097177e-04, 7.69075891e-03, -6.24746736e-03,
       4.68751136e-03, -6.66077109e-03, 2.13255975e-02, 1.90534629e-02,
       1.66698284e-02, 1.69917922e-02, -5.90214971e-03, 8.31838697e-03,
       2.65509618e-04, -3.42900422e-03, 7.59313023e-03, 4.30540327e-04,
       3.68402083e-03, 8.68846197e-03, 1.77587960e-02, -1.62845682e-02,
       -9.03158262e-03, -9.22494940e-03, -1.08524682e-02,
       -5.52937482e-03, 6.90953992e-03, 6.37939852e-03, -8.11751699e-04,
       6.44659530e-03, 1.02853114e-02, 5.07534947e-04, -1.94647815e-03,
       1.16485367e-02, 2.30764411e-03, -1.81982969e-03, 5.36656662e-05,
       7.50900654e-04, 1.64450780e-02, 8.41129851e-03, 6.70181261e-03,
       2.64714309e-03, 6.84236037e-03, -3.18253413e-03, -5.23316255e-03,
       -3.15531855e-03, -1.47184508e-03, 1.47981737e-02, 1.42806489e-02,
       -1.99363392e-04, 7.86334276e-03, 3.89056280e-03, 3.96721857e-03,
       -8.45583994e-03, -6.68651005e-03, 7.97506236e-03, 5.33697521e-03,
       6.55767228e-03, -8.99287872e-03, -3.22265946e-03, -2.79941480e-03,
       8.65913648e-03, -6.09500147e-03, 7.85550661e-03, 1.25784252e-03,
       1.37276957e-02, 1.29136723e-03, 7.82114454e-03, 1.21967746e-02,
       4.71122982e-03, 1.01277325e-03, -5.71012124e-03, 7.21282233e-03,
       4.82520321e-03, 1.57588124e-02, 8.48319381e-03, 5.20300539e-03,
       4.77269199e-03, 2.12778896e-03, -4.85131703e-03, -2.30768623e-04,
       -7.74889812e-03, 7.67819991e-04, -6.50117826e-03, 7.50845764e-04,
       -4.16751672e-03, 1.19775441e-02, 8.92728195e-03, 1.81196518e-02,
       -4.82753152e-03, -1.15635451e-02, -3.05940118e-03, 8.44867807e-03,
       -6.50596339e-03, -1.26300678e-02, -7.01295736e-04, 1.19716616e-03,
       2.80923536e-03, 2.59952480e-03, 9.80498549e-03, -7.44725694e-04,
       7.81862345e-03, -6.45386754e-03, 6.25740783e-03, -1.20635505e-03,
       4.66050440e-03, 4.90369741e-03, -6.55708427e-04, 1.18728280e-02,
       -4.98034169e-05, -3.98910197e-04, -1.15598654e-02, 4.89112409e-03,
       -1.66448429e-02, -8.31684563e-03, -5.73045388e-03,
       -3.87731707e-03, 4.85518621e-03, -4.16981895e-03, -1.42598990e-03,
       -7.66574824e-03, -9.95980692e-04, 1.19869225e-03, -2.56522954e-03,
       3.78624815e-03, -2.43509188e-03, 2.94974167e-03, 1.71034876e-03,
