%YAML:1.0
---
my_detector: !!opencv-object-detector-hog
   winSize: [ 128, 192 ]
   blockSize: [ 16, 16 ]
   blockStride: [ 8, 8 ]
   cellSize: [ 8, 8 ]
   nbins: 9
   derivAperture: 1
   winSigma: 4.
   histogramNormType: 0
   L2HysThreshold: 2.0000000000000001e-01
   gammaCorrection: 1
   nlevels: 64
   signedGradient: 0
   SVMDetector: [ -1.87488608e-02, -2.53959950e-02, 5.79558946e-02,
       -3.71606089e-03, 1.93090085e-02, -6.06828183e-02, -6.30172417e-02,
       -3.49764526e-02, -1.04032820e-02, -1.98147781e-02,
       -2.04638503e-02, 2.09488794e-02, -2.40022689e-02, -7.71084800e-03,
       -3.05149537e-02, -3.05258203e-02, -9.99338459e-03,
       -1.79432231e-04, -6.40828013e-02, -3.73421162e-02, 6.21622056e-02,
       2.50938837e-03, 1.89669000e-03, -4.88473773e-02, -4.61483561e-02,
       -4.08384316e-02, -4.75432277e-02, -1.66178141e-02, 1.54600274e-02,
       4.17777263e-02, -6.68675732e-03, -2.24482045e-02, -1.39758484e-02,
       8.20384640e-03, -2.49940273e-03, -4.90264315e-03, -3.17837223e-02,
       3.38220503e-03, 2.91206054e-02, -3.13292295e-02, 3.14450487e-02,
       -2.76057273e-02, -2.82808561e-02, -1.77086133e-03,
       -2.08893903e-02, -2.10582484e-02, -1.13277007e-02, 2.59042736e-02,
       -3.97246107e-02, -4.05430347e-02, -5.09055667e-02,
       -6.68878779e-02, -1.63688362e-02, -3.31399441e-02,
       -1.26798535e-02, 4.09529731e-03, 3.53710242e-02, -3.73919867e-02,
       -2.66058575e-02, -2.59786323e-02, -3.84007138e-03,
       -8.72957893e-03, -1.15583353e-02, -3.01884674e-03, 8.74941051e-03,
       3.48370261e-02, -6.66924279e-06, -2.13453230e-02, -1.60534810e-02,
       -1.33958133e-02, 4.09195526e-03, 1.12164288e-03, 3.59233492e-03,
       -1.36685194e-02, 5.63555816e-03, -5.30778766e-02, -1.04088127e-03,
       -4.42770198e-02, -3.94965820e-02, -1.01850983e-02, 3.99741717e-03,
       1.07849268e-02, 2.38002278e-02, 5.75782964e-03, -5.39510660e-02,
       -5.65018691e-02, -6.38851523e-02, -4.74569388e-02,
       -1.14469975e-02, 1.18535524e-03, -4.95256633e-02, -8.50128569e-03,
       1.78248528e-02, -2.24615298e-02, 2.78593448e-04, -1.12444209e-02,
       -4.76825563e-03, -8.36332887e-03, -2.50045918e-02, 1.25900041e-02,
       5.81868319e-03, 2.98975669e-02, 8.82687978e-03, -3.60489008e-03,
       -7.17655849e-03, -1.35033820e-02, 1.39209460e-02, 2.43341736e-02,
       5.74635062e-03, 2.93463226e-02, 9.53029469e-03, -1.77809801e-02,
       -3.22173014e-02, -3.56890187e-02, -9.78458673e-03,
       -4.43006400e-03, -1.81935485e-02, 1.13285182e-03, -6.87209144e-03,
       -1.69042759e-02, -4.59190384e-02, -1.69582665e-02,
       -2.66746525e-02, -3.73177044e-02, 4.15183185e-03, 6.82073223e-05,
       9.85274930e-03, 1.33837536e-02, 1.48362368e-02, -2.29724660e-03,
       -8.10649991e-03, -4.00136458e-04, 4.76770755e-03, 8.09374731e-03,
       3.92347865e-04, 7.77967647e-03, 2.18839087e-02, 3.00238449e-02,
       -9.91681498e-03, 8.08943529e-03, -7.68368552e-03, -1.07864728e-02,
       -1.23083713e-02, 5.11179306e-03, 9.37718258e-04, -4.68054134e-03,
       -3.36577259e-02, -4.87873033e-02, 1.47653241e-02, -2.97601856e-02,
       -4.33161259e-02, 1.29001420e-02, -1.91288523e-03, 1.26372650e-02,
       2.72696428e-02, 5.58841741e-03, -1.38143552e-02, -4.46905307e-02,
       -2.33253259e-02, -3.65843810e-02, 2.42486950e-02, 1.67879835e-02,
       -1.39534539e-02, -1.05913617e-02, -1.49064802e-03,
       -3.42993513e-02, 2.77980510e-02, -3.94357787e-03, -1.47980219e-02,
       -2.89673335e-03, -6.04746025e-03, 2.18439382e-02, 2.81929839e-02,
       1.82999112e-02, 1.37482509e-02, 3.59941758e-02, 9.95584531e-04,
       -1.52104395e-02, 4.87413676e-03, 2.15299111e-02, 1.30433813e-02,
       3.84779386e-02, 1.85998194e-02, -2.69662589e-03, -1.42378137e-02,
       -1.41323321e-02, -4.30846661e-02, 1.02807805e-02, 1.04142912e-02,
       2.92901061e-02, -2.28294847e-03, -2.25629807e-02, -4.32226844e-02,
       -1.86954066e-02, -1.39667019e-02, -3.14601809e-02,
       -1.10027958e-02, 1.25701940e-02, -1.26195112e-02, -2.08620597e-02,
       7.04551162e-03, -3.12117115e-03, 2.15525776e-02, 4.90782084e-04,
       -1.38020404e-02, 2.54267082e-02, -3.06302542e-03, 2.08883658e-02,
       3.12813814e-03, 9.89063364e-03, -3.93360807e-03, -2.07683481e-02,
       7.64842751e-03, -1.31384311e-02, -1.00736395e-02, -1.31731364e-03,
       5.41023817e-03, -1.37799662e-02, -2.32900791e-02, -3.03258151e-02,
       -3.35765001e-03, -1.28418440e-02, -9.81725007e-03, 1.50744198e-02,
       7.29259429e-03, 4.02328651e-03, -6.23419788e-03, -2.83353683e-02,
       -1.93976648e-02, -9.68104322e-03, -3.45752612e-02,
       -1.78768486e-02, 9.65736620e-03, 1.28659094e-02, 6.22659572e-04,
       1.44355409e-02, 6.43141568e-04, -1.37461694e-02, 1.28275696e-02,
       1.29628619e-02, 1.45352455e-02, -1.09802128e-03, -3.73543962e-03,
       1.02921622e-02, 2.27423124e-02, -2.81875581e-03, -1.22942487e-02,
       -2.33925581e-02, -1.54304132e-02, -1.40509736e-02,
       -1.89829301e-02, -4.45473488e-05, -8.60899128e-03,
       -4.52820631e-03, -3.08954204e-03, -1.10323145e-03,
       -6.88481471e-03, -2.45255698e-02, -1.17313545e-02, 9.84634273e-04,
       4.02336800e-03, 1.30598694e-02, 2.73851342e-02, 9.78066027e-03,
       -1.10715618e-02, -6.35810271e-02, -1.80247501e-02,
       -1.96009018e-02, -1.76480867e-03, -2.30428949e-03,
       -4.01997939e-02, 8.05364735e-03, -6.30958425e-03, 4.70118318e-03,
       1.26540009e-02, 1.81461859e-03, 4.08407301e-03, -1.53480924e-03,
       -3.61533053e-02, 4.24228422e-03, 1.30574461e-02, 2.72641368e-02,
       -8.51687882e-03, -2.54896805e-02, 5.73823042e-03, 7.68003939e-03,
       -3.49268608e-04, -2.17872206e-03, 1.16646271e-02, -1.78896112e-03,
       -3.41431820e-03, -1.75911915e-02, -3.16181290e-03, 3.51064326e-03,
       -2.07473934e-02, -1.32290795e-02, 3.40989511e-03, 1.75706353e-02,
       -9.12313350e-03, -2.34923474e-02, -2.82507837e-02,
       -1.15722371e-02, -2.34446768e-02, -4.59138528e-02,
       -4.97506261e-02, 2.10675895e-02, -6.06395490e-03, 2.57842313e-03,
       1.30872964e-03, -1.03051849e-02, 5.75555414e-02, 1.60996635e-02,
       2.39998326e-02, 1.30343046e-02, 1.02375634e-03, -5.60984435e-03,
       1.91318113e-02, 8.70718434e-03, -1.99427865e-02, -6.15693023e-03,
       -1.98168363e-02, -2.48942990e-02, -3.24693993e-02, 9.56466701e-03,
       8.87516420e-03, 2.48522381e-03, -2.00183447e-02, -1.19420988e-02,
       -7.26025179e-03, -1.75954625e-02, -3.57289426e-02,
       -2.63560563e-02, 1.56423338e-02, 1.19143790e-02, 2.90815532e-03,
       -2.63469853e-02, -3.75093683e-03, -3.46397161e-02,
       -1.79820992e-02, -3.28650028e-02, -1.79513227e-02, 1.72725320e-02,
       -2.20399275e-02, 3.28685832e-03, 7.55628059e-03, 7.94249878e-04,
       3.25388722e-02, -3.69254127e-03, 1.69703849e-02, -6.62872475e-03,
       -1.36784418e-02, 7.50246458e-03, 1.55384336e-02, 6.13465719e-03,
       -1.28021417e-02, 5.54747181e-03, -9.04526003e-03, 6.50036242e-03,
       -1.50594488e-02, 8.43664445e-03, -1.18508497e-02, 2.94867763e-03,
       -6.46761560e-04, -1.39183365e-02, -5.81450714e-03,
       -1.21503901e-02, -2.56532244e-02, -1.22389831e-02, 1.30267283e-02,
       -5.12775406e-03, -1.19354492e-02, -1.29721244e-03,
       -9.83095076e-03, -7.88378809e-03, -2.07899585e-02,
       -1.49371084e-02, -1.16446763e-02, 1.09816380e-02, 1.88892391e-02,
       1.12180347e-02, 1.19252916e-04, -1.24895973e-02, 5.45598269e-02,
       -7.42458680e-04, 1.00950357e-02, -1.63843762e-03, 6.13703486e-03,
       1.11772027e-02, 2.74788253e-02, 1.43782115e-02, 5.62945334e-03,
       5.63077955e-03, -2.85122246e-02, -4.12526689e-02, -2.80517712e-02,
       9.98258125e-03, -7.77780591e-03, -1.91890262e-02, -1.15323009e-03,
       -2.14742031e-02, -1.30419740e-02, -2.99314130e-02,
       -4.64393431e-03, -1.81629695e-03, 9.70538985e-03, -7.01487355e-04,
       -2.20079646e-02, -1.36067346e-02, -4.24272753e-02,
       -2.25876030e-02, -5.89186884e-02, -2.75882911e-02,
       -1.53582580e-02, 1.77180264e-04, -7.95349292e-03, 5.21032000e-03,
       -7.42912339e-03, -8.31078552e-03, 1.48142632e-02, -2.50909757e-02,
       5.02417609e-03, 1.12943444e-02, -8.05081241e-03, 2.68621347e-03,
       -2.23178640e-02, -1.16407648e-02, -1.37610678e-02, 1.07310712e-02,
       -1.81772523e-02, -5.19902399e-03, 3.12244729e-03, 1.54869054e-02,
       1.79541146e-03, 4.54900227e-03, -4.36293893e-03, -3.82768624e-02,
       -2.80250870e-02, -3.48903760e-02, -1.34566752e-03, 5.01218066e-03,
       -9.03389137e-03, 1.42252315e-02, -2.78761908e-02, -9.40955244e-03,
       -3.32694240e-02, -5.35309575e-02, -2.08595954e-02,
       -1.25323106e-02, -6.41084136e-03, 1.21355522e-02, -9.63296089e-03,
       -9.39466897e-03, -1.62451882e-02, -2.45361514e-02, 1.48850353e-02,
       1.97135136e-02, 1.46832066e-02, -2.37363763e-03, -1.84210460e-03,
       1.55804390e-02, -2.07995679e-02, 1.71088204e-02, -1.55635523e-02,
       3.68185923e-03, -9.63769946e-03, -2.81468742e-02, -2.49894150e-02,
       -1.35103799e-03, -1.33781265e-02, -3.26797888e-02,
       -1.17941787e-02, -3.74075696e-02, -4.78235222e-02,
       -6.77097868e-03, -1.53032672e-02, 2.44071390e-02, 1.31063014e-02,
       3.41407629e-03, -2.56368462e-02, 2.31087375e-02, -2.19201073e-02,
       -2.04698779e-02, -1.24233207e-02, -6.65924232e-03,
       -1.49631929e-02, 2.21522059e-02, -7.09885219e-03, -6.09285012e-03,
       6.45653578e-03, -3.20584774e-02, -2.61590965e-02, -4.51326557e-03,
       -1.13161197e-02, -3.85519629e-03, -2.70767324e-02, 4.33310308e-03,
       5.19554457e-03, 2.54429989e-02, -1.52063211e-02, -1.37245073e-03,
       -9.53496806e-03, -6.83828117e-03, -1.93413962e-02, 1.32311536e-02,
       -1.87307391e-02, -2.32650395e-02, 3.09027755e-03, -4.21159007e-02,
       -3.00930701e-02, -9.89546161e-03, 6.77032908e-03, -1.57289505e-02,
       -6.28702296e-03, 1.71336089e-03, -1.53739043e-02, -7.43324310e-03,
       -4.22033332e-02, -5.55807538e-02, -3.34284566e-02,
       -6.35877810e-03, -2.18507126e-02, 8.61073751e-03, -1.65679157e-02,
       -1.66875042e-03, 2.65032286e-03, -1.00552049e-02, -1.03953797e-02,
       1.87933934e-03, 1.78884119e-02, -1.65177248e-02, 1.27050467e-03,
       -1.92502867e-02, 7.07359007e-03, 1.02111818e-02, -8.31615832e-03,
       -8.02814867e-03, -3.30261588e-02, -1.46542024e-02,
       -3.25502828e-02, -1.77002829e-02, 6.36969600e-03, -3.72268772e-03,
       3.28654365e-04, -3.75912562e-02, -4.59110625e-02, -2.67182495e-02,
       1.41593413e-02, -2.56133489e-02, -1.60270277e-03, 1.63065139e-02,
       -8.49285908e-03, 7.30692828e-03, 3.99061665e-03, -3.58297303e-02,
       -3.30621414e-02, -7.11537665e-03, -3.72358151e-02, 1.75885838e-02,
       5.38762566e-03, -1.74935292e-02, -2.02694312e-02, -2.25968976e-02,
       2.22599860e-02, -1.70200169e-02, 1.03754057e-02, -1.93356129e-04,
       1.96221750e-02, 1.30706578e-02, -3.71467099e-02, 1.54074840e-03,
       -6.79298770e-03, -8.29665828e-03, 2.89797084e-03, -2.57985368e-02,
       -1.46272043e-02, 1.86040474e-03, -2.00265236e-02, -1.96203473e-03,
       1.33003416e-02, -1.13832317e-02, -4.19941582e-02, -4.12748568e-02,
       -7.23383436e-03, -4.05951031e-02, 2.04206211e-03, -6.28311280e-03,
       -1.52518172e-02, 3.46290506e-02, -5.19938394e-03, -1.89468041e-02,
       -2.04231646e-02, -2.03012768e-02, -5.08242883e-02,
       -1.28482040e-02, 9.61998291e-03, -1.49289742e-02, 2.63981670e-02,
       -6.30348315e-03, -3.74039747e-02, -1.14869196e-02,
       -1.25852488e-02, -1.41457980e-02, -1.10194692e-02,
       -8.52108374e-03, -3.95074002e-02, 6.65034354e-03, 1.94019843e-02,
       2.44280361e-02, -4.90299938e-03, -1.59699768e-02, -1.51027627e-02,
       -1.53966360e-02, -6.19649095e-03, 1.93288811e-02, 3.61042395e-02,
       -2.49942415e-03, -3.40189487e-02, -1.64092407e-02, 7.08246976e-03,
       -3.56295370e-02, -1.16261523e-02, -1.51875857e-02, 7.51321716e-03,
       4.81295921e-02, -4.35709860e-03, -3.90495248e-02, -1.91547479e-02,
       -2.98842900e-02, -3.89708839e-02, -5.74869104e-03,
       -1.43572027e-02, -1.08680855e-02, 9.67123453e-03, -1.25448806e-02,
       4.11484111e-03, 6.39464753e-03, 1.55098904e-02, -2.68548820e-03,
       -1.08934371e-02, -1.57948080e-02, -9.40495636e-03,
       -1.13821693e-03, -9.04483907e-03, -3.21226865e-02,
       -1.00495620e-02, 2.36482662e-03, -2.80113332e-02, -1.87579438e-03,
       -1.56342071e-02, -3.73939308e-03, 5.75722614e-03, -2.29139961e-02,
       -2.39233524e-02, 1.31877037e-02, 1.73494709e-03, -3.98256816e-02,
       -1.02727674e-02, 1.37355244e-02, 2.40286696e-03, 2.18841899e-03,
       -5.84857259e-03, -6.89992029e-03, -1.63299292e-02,
       -1.12933647e-02, -4.50174659e-02, -9.98934545e-03,
       -2.27067508e-02, -1.42230904e-02, -2.58021783e-02,
       -2.12071314e-02, -2.75543500e-02, -1.40550146e-02, 1.80042330e-02,
       -8.29465501e-03, -1.70293692e-02, 2.13705003e-02, -1.13324923e-02,
       -1.49483569e-02, -1.72515884e-02, 9.66511108e-03, -3.07509229e-02,
       -1.30573576e-02, -2.37426497e-02, -1.53073510e-02,
       -6.88291946e-03, 3.22819203e-02, 2.29283441e-02, 5.10161696e-03,
       -1.65889002e-02, -4.01485227e-02, -2.90053152e-02,
       -2.57047862e-02, -2.83688810e-02, -1.52058462e-02, 1.64965838e-02,
       -1.35938767e-02, -2.26613600e-02, 3.25850211e-02, -3.28261480e-02,
       -2.42640283e-02, -4.35262779e-03, -1.78739484e-02, 6.32159703e-04,
       1.39609934e-03, 1.00927493e-04, 3.46369785e-03, -4.19443399e-02,
       -1.46083813e-02, -2.38464419e-02, -1.73904765e-02,
       -1.54302074e-02, 3.03812716e-02, -6.40468020e-03, 1.02486936e-02,
       2.57137162e-03, 1.72046069e-02, -1.76476706e-02, 3.90070793e-03,
       1.78399589e-03, 8.76872800e-03, -3.03603914e-02, -5.07431151e-03,
       -2.76933592e-02, -1.82278696e-02, -2.89336452e-03,
       -2.53178440e-02, -5.56921214e-03, 7.15779664e-04, -3.26524600e-02,
       -3.44504602e-02, -2.79842298e-02, -3.61526422e-02, 1.45082213e-02,
       4.03284766e-02, -1.98994111e-02, -9.78451222e-03, 5.51808451e-04,
       -1.19698532e-02, -1.46274921e-02, -4.82763071e-03,
       -4.43327997e-04, 2.67552165e-03, -1.08293192e-02, -5.48986951e-03,
       1.31900273e-02, -1.72928907e-02, -1.81726404e-02, 1.05696032e-02,
       -2.92900600e-03, 7.02560588e-04, -3.11665493e-03, 3.00702290e-04,
       4.03167540e-03, 1.26216991e-03, -3.07263099e-02, -8.23687762e-03,
       -2.21768264e-02, -2.34885775e-02, -2.69959029e-03, 4.27230168e-03,
       -4.41347016e-03, -2.27616578e-02, -1.00765489e-02, 1.17893033e-02,
       -1.23107457e-03, -2.56786309e-02, 5.14984410e-03, 2.17763241e-02,
       -3.14934105e-02, 3.70557308e-02, -4.37926203e-02, -1.35790808e-02,
       6.27806270e-03, -1.82059649e-02, -2.33642571e-02, -1.45722572e-02,
       -3.23527469e-03, -1.13378167e-02, -1.88395027e-02, 2.32680608e-02,
       1.41843818e-02, -1.26577895e-02, -2.07714550e-02, -2.58750748e-02,
       -1.50135653e-02, 4.28491225e-03, -6.83882367e-03, 1.84669364e-02,
       -1.51194660e-02, -1.21368300e-02, -1.18225496e-02,
       -8.39881785e-03, -1.44180134e-02, 1.88664552e-02, 8.29696376e-03,
       -3.81977633e-02, 8.11437704e-03, -2.44977642e-02, 9.87529871e-04,
       4.80516022e-03, 2.41249613e-03, -3.55091551e-03, 1.39282774e-02,
       -2.91961338e-02, -1.16932988e-02, -2.06721341e-03,
       -1.31579572e-02, 6.42536432e-02, 2.08633486e-02, 4.95676510e-03,
       -1.67326070e-02, 1.41787548e-02, -3.40124476e-03, -1.35688847e-02,
       -2.58295666e-02, -1.86198112e-02, 7.65227014e-04, 4.73872013e-03,
       -4.06802353e-03, 2.22755317e-03, 2.27677803e-02, -9.05200467e-03,
       4.31905920e-03, -1.99724212e-02, -1.72887389e-02, 3.58740352e-02,
       1.40663218e-02, 3.32199223e-03, -1.97784677e-02, -3.31687666e-02,
       4.35797051e-02, -6.44903048e-04, 1.49329193e-02, -3.77971493e-02,
       -3.03107835e-02, -1.43719269e-02, 2.92368699e-03, -2.45473664e-02,
       -9.78412852e-03, 1.69992968e-02, -3.08863968e-02, -3.22425552e-02,
       -1.61805889e-03, 9.98958293e-03, 1.08625721e-02, 9.78203025e-04,
       -1.46387648e-02, -1.94851439e-02, 7.49854743e-02, 2.18678638e-02,
       2.41582002e-02, -4.92492169e-02, -5.25139123e-02, -3.41877751e-02,
       1.04944883e-02, 5.75888902e-03, 2.17634090e-03, 5.83318658e-02,
       2.21336298e-02, -1.82448663e-02, 1.04259513e-02, -9.89067601e-04,
       2.38609854e-02, 2.80425530e-02, -1.57753676e-02, -1.60364304e-02,
       1.16352341e-03, -5.45782931e-02, -4.82012071e-02, -9.84281301e-03,
       2.31670458e-02, 8.37584492e-03, -8.39100126e-03, 9.85331461e-03,
       -1.26690613e-02, 1.58467889e-02, -2.53303610e-02, -1.15137938e-02,
       1.77829002e-03, 4.58071940e-03, 4.86561051e-03, 3.12176123e-02,
       -3.17576341e-02, -2.91571319e-02, 9.53035522e-03, -2.37898305e-02,
       2.02683937e-02, 5.21805894e-04, 2.75675301e-02, 2.64580566e-02,
       1.07397523e-03, -3.35532683e-03, 7.96262547e-03, 2.79770847e-02,
       7.57704489e-03, 2.45064702e-02, 2.45656408e-02, 2.02142522e-02,
       1.94579549e-02, 2.05409918e-02, -2.84144692e-02, -1.69853345e-02,
       2.20635459e-02, -1.84173323e-02, 6.00306131e-03, 1.47928149e-02,
       1.36289895e-02, -8.98335781e-03, -1.41256405e-02, -1.96270365e-02,
       -1.19081577e-02, 9.02025681e-03, -3.43746692e-02, -1.27017796e-02,
       -1.06485176e-03, -4.95804474e-03, -2.35522026e-03,
       -1.68734603e-02, -1.63688269e-02, 5.94691187e-03, 1.36490911e-02,
       -3.33901378e-03, 6.05826359e-03, 2.05820203e-02, 2.54252423e-02,
       -5.27515134e-04, 9.43915546e-03, 4.05876851e-03, 1.05398754e-02,
       -1.11155584e-02, -1.17087411e-02, -5.94868464e-03, 1.87005568e-02,
       3.04142348e-02, -4.03761212e-03, 2.56509660e-03, -1.61204133e-02,
       -6.61132578e-03, 4.40067891e-03, -2.11245865e-02, 4.55351919e-02,
       -2.79851770e-03, -1.02324840e-02, 2.93658464e-03, -1.28332833e-02,
       -1.29918819e-02, -1.83015503e-02, 2.48069242e-02, -2.66234521e-02,
       2.51171389e-03, -9.76483058e-03, -1.02912057e-02, 9.28237755e-03,
       -5.42953552e-04, -1.25326067e-02, 1.48953814e-02, 3.89720965e-03,
       -1.97710246e-02, 1.26466770e-02, -9.10758134e-03, 4.15390125e-03,
       -1.39755467e-02, 7.84804462e-04, 2.80590204e-04, -1.15891602e-02,
       7.79371569e-03, 1.61252078e-02, -1.67323835e-02, -1.83134880e-02,
       -2.95612421e-02, -1.24568027e-02, 2.69150385e-03, -2.24800427e-02,
       -6.56549307e-03, 1.18701942e-02, -7.16291508e-03, 8.99179280e-03,
       7.29343155e-03, 1.91299769e-03, 3.26151052e-03, -3.07756457e-02,
       2.27811784e-02, 7.07093021e-03, -6.64575084e-04, -3.69123329e-04,
       -4.03784076e-03, -6.29632873e-03, -8.75774864e-03,
       -1.53598106e-02, 7.88022298e-03, -3.04817199e-03, -2.91204127e-03,
       -4.15099924e-03, 7.41643412e-03, 1.65980391e-03, -1.33192847e-02,
       -5.39636193e-03, -3.42550315e-03, -7.61383865e-03,
       -6.45756396e-03, 1.19946350e-03, 1.55325802e-02, 3.07529997e-02,
       -1.68768167e-02, -3.01222363e-03, -1.36726368e-02, 1.22243166e-02,
       -2.88822269e-03, 1.46846715e-02, 1.97780179e-03, 4.79982607e-03,
       6.72907569e-03, 2.61129420e-02, 1.18094019e-03, -3.81737307e-04,
       3.09107150e-03, 9.65846144e-03, 1.32180806e-02, -2.74188910e-03,
       -9.66929540e-04, 1.25154024e-02, -2.26718672e-02, -1.46449199e-02,
       -9.94987879e-03, -2.22316384e-02, -1.57122426e-02, 4.09673806e-03,
       -6.22238033e-03, 3.56367114e-03, -1.01136323e-02, 1.05893705e-03,
       -8.08451418e-03, 2.75231828e-03, 7.14024249e-03, 1.27827162e-02,
       2.02987324e-02, 1.87814385e-02, 1.90620143e-02, 2.09841467e-02,
       1.65429190e-02, -6.59805909e-03, -8.50784592e-03, -1.42466379e-02,
       7.72602623e-03, 1.15317758e-02, 3.16339731e-03, 2.73761369e-04,
       -4.79821069e-03, -2.49477085e-02, -1.29890442e-02,
       -9.03701410e-03, -1.28479982e-02, -2.32501011e-02, 2.06685551e-02,
       -2.45748344e-03, -2.14812439e-02, -5.10664424e-03, 6.16577733e-03,
       1.03991888e-02, -5.83712617e-03, -2.18799076e-04, -6.31114794e-03,
       8.04244075e-03, 2.41964143e-02, -1.60817907e-03, -1.02512389e-02,
       2.98926271e-02, -1.07915336e-02, -4.09823842e-03, 1.79903256e-03,
       -1.42241046e-02, 1.19742472e-03, 1.89155787e-02, 8.47886503e-03,
       3.03945807e-03, -2.30505913e-02, -1.98755637e-02, -3.05920560e-02,
       -4.67208261e-03, -2.42607016e-02, 3.76798009e-04, -4.15399903e-03,
       -7.75177078e-03, -4.86250588e-04, -7.54735153e-03, 2.09999923e-02,
       1.43020051e-02, -3.90535942e-03, -8.83207470e-03, 3.74029833e-03,
       -2.62985732e-02, 1.16932439e-03, -1.60865560e-02, -2.85653174e-02,
       -1.41014550e-02, 1.18952170e-02, -9.55193117e-03, 1.41694106e-03,
       7.92419910e-03, 1.51209356e-02, -2.23472752e-02, 9.17119626e-03,
       1.21516772e-02, 6.07929286e-03, -4.39336663e-03, 1.66068655e-02,
       1.50631284e-02, -1.05146337e-02, 3.38957342e-03, -2.04959102e-02,
       -2.11546663e-02, -3.54978479e-02, -7.65216013e-04,
       -2.80469703e-03, 7.48167094e-03, 2.13591270e-02, 1.30146034e-02,
       -1.00719719e-03, 7.20340712e-03, -1.66284107e-02, 2.98038628e-02,
       -2.32224893e-02, 5.91124455e-03, -2.89907772e-03, 1.01263393e-02,
       9.50452033e-03, -2.25824188e-03, -1.67972017e-02, -5.61526371e-03,
       3.69842257e-03, -5.65194571e-03, 6.18537515e-03, -1.12788342e-02,
       2.64997296e-02, 1.63170916e-03, 1.94415525e-02, 8.78745783e-03,
       -2.44070180e-02, 1.18093826e-02, -1.06022377e-02, 8.08673259e-03,
       -2.70691607e-03, 1.08885886e-02, 8.24390911e-03, 8.77187494e-03,
       -1.24578243e-02, -2.90616713e-02, -2.45443229e-02,
       -7.04822037e-03, 4.28114366e-03, -2.43734363e-02, 3.22188623e-02,
       -2.34285872e-02, 3.77553445e-03, 6.75476948e-03, -1.83788373e-03,
       1.32465232e-02, -2.05459725e-03, -4.42670099e-03, -1.42418798e-02,
       -2.40824986e-02, -1.62558630e-02, -1.07158655e-02,
       -5.72662754e-03, 1.27020304e-03, 2.29503028e-02, -1.29826728e-03,
       -1.11987651e-03, -2.19525229e-02, -1.69786581e-04,
       -6.84083486e-03, 9.56250541e-03, -9.66197904e-03, -2.61933487e-02,
       1.84686501e-02, 6.90450100e-03, 1.29646603e-02, 6.40041567e-03,
       1.87531859e-02, -1.40747875e-02, 3.08452770e-02, 1.72237959e-02,
       -1.48673961e-02, 2.23850887e-02, -3.74949700e-03, -8.82662460e-03,
       -1.56715494e-02, -5.25815040e-03, -1.95959229e-02,
       -7.59353396e-04, -2.07806155e-02, -1.74698960e-02,
       -2.00690646e-02, -1.30120758e-03, -3.59986443e-04,
       -1.41566992e-02, -6.85398513e-03, 8.60405527e-03, 6.90912874e-03,
       1.61089745e-04, -7.03578256e-03, -4.86569805e-03, -1.16624655e-02,
       -1.22833038e-02, -1.96485817e-02, 1.43416915e-02, -6.51074154e-03,
       1.51909506e-02, -6.71327021e-03, -4.81605381e-02, 1.32837091e-02,
       -1.66071057e-02, 6.12162706e-03, 8.94371711e-04, -1.12810563e-02,
       2.63753184e-03, 7.20452378e-03, 1.10083949e-02, -1.74239706e-02,
       2.90959957e-03, -5.72141958e-03, 8.97741225e-03, 8.28825682e-03,
       7.41516612e-03, -9.16404650e-03, 9.42656863e-03, -7.34708412e-03,
       -2.65148599e-02, -5.92288235e-03, -1.19368965e-02,
       -2.97432090e-03, 1.31143853e-02, 5.53185306e-03, -1.58311147e-03,
       1.02065066e-02, 1.06495824e-02, -8.14607646e-03, -1.29209934e-02,
       5.75598038e-04, 3.80497146e-03, 1.91001669e-02, 7.82009773e-03,
       -1.01153143e-02, 1.15587357e-02, 1.45132225e-02, -2.06641182e-02,
       1.09085143e-02, -1.55943341e-03, 2.14707516e-02, 2.04177946e-02,
       1.76440105e-02, -1.57222257e-03, 1.62217636e-02, 1.99951269e-02,
       -1.22507680e-02, 1.31640779e-02, -1.25372736e-02, -3.95131856e-02,
       1.21923154e-02, 3.96489538e-03, -8.49151984e-03, 1.73016321e-02,
       1.65459737e-02, -1.07329208e-02, -2.83670630e-02, 9.01721045e-03,
       1.54207125e-02, 1.88273787e-02, 2.33848579e-03, 1.72897503e-02,
       4.80160350e-04, 1.71596557e-02, -1.35527235e-02, 4.54943115e-03,
       5.50224166e-03, -1.39783584e-02, -1.19776081e-03, -1.28853628e-02,
       -2.22021807e-03, 2.43114438e-02, 2.07846798e-02, -2.18961090e-02,
       -1.40503421e-02, 1.11922827e-02, -2.15263683e-02, -2.75029987e-03,
       -1.01458719e-02, -7.86785223e-03, 7.75831577e-04, 6.46792771e-03,
       -2.03068946e-02, 3.09387334e-02, 2.40304824e-02, -6.20912807e-03,
       -1.54773882e-02, -2.63315369e-03, 7.85099249e-03, -7.86972523e-04,
       1.46161644e-02, -1.88084450e-02, 1.64195206e-02, 1.32307783e-02,
       -1.67233925e-02, 9.48461145e-03, -8.06836039e-03, 1.70028973e-02,
       7.54393265e-03, 4.05461788e-02, 7.10997684e-03, 3.37950233e-03,
       1.22010140e-02, 5.44573972e-03, 2.89576215e-04, 1.61906015e-02,
       5.02343988e-03, 1.92028582e-02, 1.24243470e-02, -5.23723569e-03,
       8.73574335e-03, 4.54639457e-02, -1.59472300e-04, -2.78001511e-03,
       2.90661730e-04, 1.46164838e-02, 1.82708446e-02, 1.74893849e-02,
       5.57685178e-03, -1.57841458e-03, 1.90902203e-02, -4.79000947e-03,
       -1.58991665e-03, 1.96171012e-02, 8.66057165e-03, 3.33213457e-03,
       2.99108792e-02, 4.33054427e-03, -1.52663849e-02, 4.28568712e-03,
       2.65287422e-02, -4.67674248e-03, 4.48660087e-03, 1.49924718e-02,
       6.15390111e-03, 6.90759905e-03, -2.71115359e-03, 1.12681072e-02,
       -8.26616213e-03, 7.78890774e-03, 1.54987713e-02, 1.75792053e-02,
       3.64310155e-03, -7.09431060e-03, 1.58974959e-03, -3.53860017e-03,
       -1.06282672e-02, 2.70857941e-02, 4.79911827e-03, -6.25294866e-03,
       1.15115922e-02, -1.68315496e-03, -6.00215187e-03, 2.70952396e-02,
       -4.09929873e-03, -2.63557192e-02, -5.24765812e-03, 2.81631667e-03,
       -1.72290057e-02, 2.27974020e-02, -1.25066712e-02, -3.29917972e-03,
       -5.06194495e-03, -1.08508859e-02, 3.57260853e-02, -1.35479346e-02,
       -8.71138647e-03, 1.41237872e-02, 1.88056903e-03, -1.17251324e-03,
       -1.73222143e-02, 6.35043159e-03, 4.05699993e-03, -1.31812738e-02,
       2.76215607e-03, -1.16208540e-02, 2.29572896e-02, 1.78437505e-03,
       1.45017554e-03, 5.88267168e-04, 1.15963351e-02, -1.01080202e-02,
       2.53995284e-02, 1.01264240e-02, -6.34745404e-04, -9.03885253e-03,
       7.53613189e-03, -2.29170342e-04, -1.13155097e-02, 3.04434635e-02,
       1.07211405e-02, 2.83234008e-02, -2.34408043e-02, -1.09312702e-02,
       3.38722020e-03, 6.47776853e-03, -2.00317940e-03, -1.32737095e-02,
       3.25542577e-02, -6.13721367e-03, -2.62743607e-02, -1.38543416e-02,
       -6.50099432e-03, 1.47206876e-02, 2.15053186e-03, 1.08217346e-02,
       -2.08841395e-02, -3.16236541e-03, -8.35455209e-03, 2.83040944e-03,
       3.69100063e-03, 9.11731645e-03, 2.17847116e-02, 6.47752825e-03,
       6.17960235e-03, -2.57151611e-02, 2.35786531e-02, 6.49158610e-03,
       8.30723532e-03, 5.69825293e-04, 2.93301940e-02, 2.42087198e-03,
       7.69539084e-03, -6.95305830e-03, -4.41521406e-02, -2.60164472e-03,
       1.06711024e-02, 1.11194355e-02, 4.75435331e-03, -9.35222767e-03,
       -8.00118688e-03, -9.05200746e-03, -3.50561595e-06,
       -6.22237846e-03, 9.57779307e-03, -7.52182025e-03, -8.71263817e-03,
       1.12637598e-02, 4.46863472e-03, -1.91475125e-03, -2.15858221e-03,
       6.41829800e-03, -1.51825082e-02, -1.50823453e-02, 2.29668641e-03,
       -6.97119068e-03, -1.30913267e-02, -1.08835492e-02,
       -1.90971196e-02, -1.20861055e-02, -8.79035983e-03,
       -3.69443186e-03, 1.87391741e-03, -3.29512055e-03, -1.56813785e-02,
       4.65340260e-03, -3.20633575e-02, -4.05218964e-03, -1.00304536e-03,
       2.05645394e-02, -2.45827492e-02, -1.94059219e-02, 1.42458975e-02,
       2.27694903e-02, -1.01007950e-02, -3.11806109e-02, -7.76462082e-04,
       1.26809273e-02, -1.41517492e-03, 7.31753884e-03, -3.11330357e-03,
       5.02646388e-03, -6.23664539e-03, -1.61055103e-02, -7.33484887e-03,
       2.03782041e-03, -1.76135208e-02, 9.57627129e-03, 3.54880840e-03,
       1.83157325e-02, 1.43081937e-02, 4.93221246e-02, -3.35818180e-03,
       6.58274582e-03, -4.03187657e-03, -1.67687647e-02, 1.15980068e-02,
       -1.68210105e-03, 1.27530498e-02, 4.39505931e-03, -2.16713864e-02,
       -1.26911411e-02, -1.24622071e-02, -5.15601307e-04, 8.96731485e-03,
       1.42111592e-02, -2.48758085e-02, -1.15798013e-02, -1.59904920e-02,
       9.14738979e-03, -8.35354812e-03, 3.39806895e-03, -6.20442722e-03,
       1.10135116e-02, -1.80453318e-03, -4.04544827e-03, 1.21963015e-02,
       9.75328789e-04, -1.66066922e-02, -1.42751541e-02, -1.46147818e-03,
       -1.19045470e-02, -3.04458067e-02, -2.78376462e-03,
       -3.10887792e-03, 1.99083798e-02, 4.30474477e-03, -2.18491349e-03,
       -2.21557003e-02, -1.90389641e-02, -2.33858940e-03,
       -9.30141192e-03, -2.40586419e-02, -2.02219021e-02, 1.82510372e-02,
       -1.60346869e-02, -3.42464484e-02, -1.15141377e-03, 1.50950877e-02,
       6.30347664e-03, -2.41635069e-02, -8.73001385e-03, -9.13412590e-03,
       3.55705321e-02, 3.43480124e-03, 7.91121216e-04, -1.17910523e-02,
       9.67987161e-03, -5.28872106e-03, -1.18364871e-04, -1.19066136e-02,
       1.27406856e-02, 1.41925579e-02, 5.23216650e-03, 1.45338187e-02,
       1.23537816e-02, -2.38994206e-03, 2.14808597e-03, -1.86742609e-03,
       -5.26005868e-03, 7.21418415e-04, -8.55642930e-03, -1.22219184e-02,
       9.28014796e-03, 2.39091422e-02, 9.21393652e-03, -1.64898229e-03,
       -1.68041734e-03, -2.05334742e-02, 8.85729445e-04, 1.11958198e-02,
       -2.06854194e-02, 1.92226644e-03, 6.05691411e-03, 1.03715258e-02,
       1.83121506e-02, -1.62813049e-05, -8.84391775e-04, 7.13096466e-03,
       -1.56967789e-02, -1.23032657e-02, 1.86047964e-02, -1.95765542e-03,
       1.19430739e-02, 5.41806733e-03, 2.76074209e-03, 5.43451868e-03,
       1.28295533e-02, 1.69622491e-03, -6.11543842e-03, -2.67910473e-02,
       7.44347041e-03, 8.22013244e-03, 9.07004997e-03, 2.04796297e-03,
       6.50576456e-03, -5.73328044e-03, -1.49333989e-02, -4.27967263e-03,
       1.51675185e-02, -1.01338448e-02, -2.22369824e-02, 6.66184630e-03,
       1.60857569e-02, 1.20631291e-03, 2.16740537e-02, -1.07372962e-02,
       1.98625471e-03, -1.78468302e-02, -3.45878652e-03, 7.48763699e-03,
       9.89262667e-03, -1.21710012e-02, 1.13438433e-02, 7.30995787e-03,
       -1.76749635e-03, 1.80201977e-02, 1.34779029e-02, -5.11490926e-03,
       2.08020816e-03, -8.79174750e-03, -2.43835105e-03, -1.95472352e-02,
       2.43082247e-03, -2.82067060e-03, -3.96839902e-03, -9.48639773e-03,
       -1.24355545e-02, -1.03984391e-02, 7.91017525e-03, -4.79808077e-03,
       4.99042589e-03, 2.00980939e-02, -1.82102267e-02, 8.19250010e-03,
       -2.72917468e-03, -1.36451293e-02, 2.99550537e-02, 1.81407034e-02,
       2.34598201e-02, 5.29736700e-03, 3.21726059e-03, -1.23819625e-02,
       1.91869512e-02, 3.34520615e-03, -1.52246095e-02, 8.91195331e-03,
       3.17004335e-04, -1.08380364e-02, -1.88400631e-03, 1.27940718e-02,
       4.28438187e-03, -1.88774467e-02, 5.26276371e-03, -9.21815075e-03,
       1.28526045e-02, 1.38859106e-02, 1.91106508e-03, -3.57829593e-03,
       -3.54293585e-02, 3.49434875e-02, 1.32829892e-02, 2.04586145e-02,
       -4.33049351e-02, -4.19253111e-02, -3.59488130e-02, 3.05401497e-02,
       5.52313868e-03, -2.25938819e-02, 2.98323091e-02, -1.49483709e-02,
       -2.70748348e-03, -1.85875669e-02, -1.80681031e-02,
       -2.06830888e-03, 3.45682018e-02, -1.95487402e-02, -7.40992604e-03,
       4.13725227e-02, 4.71301842e-03, 1.71326790e-02, -2.97448207e-02,
       -2.85897013e-02, -1.36635276e-02, 9.63190757e-03, 1.58113278e-02,
       2.15850379e-02, 3.02631147e-02, 1.63932983e-02, 1.05855232e-02,
       -4.76554688e-03, 2.12103082e-03, 9.61423561e-04, 1.12764146e-02,
       -2.71458440e-02, -1.85351539e-02, 3.96647211e-03, -3.94128151e-02,
       3.89071852e-02, -1.93606056e-02, 5.07282047e-03, 8.60905740e-03,
       5.51453466e-03, -1.84019618e-02, 5.67756826e-03, 1.10585045e-03,
       -2.41457857e-02, -3.19799557e-02, -1.52752856e-02,
       -1.45922946e-02, -8.89613386e-03, 6.10743370e-03, -1.52698429e-02,
       4.63679805e-03, 2.15394492e-03, -2.91840509e-02, 3.68467867e-02,
       -8.34356062e-03, 9.78116784e-03, -3.98336863e-03, -4.05484717e-03,
       2.62591466e-02, 1.02286544e-02, -7.43869599e-03, 1.33836428e-02,
       -3.34998011e-03, 1.35632390e-02, 3.98169132e-03, 9.71657981e-04,
       1.13877188e-02, -1.40920822e-02, 1.13366619e-02, 1.71791501e-02,
       -1.15645621e-02, -1.15291793e-02, 2.08030781e-03, 7.14764837e-03,
       -5.93406614e-03, 2.53013591e-03, 2.45082250e-04, 1.67019200e-02,
       6.54688710e-03, -3.85050960e-02, -1.72970165e-02, 2.42415699e-04,
       1.80012025e-02, -6.79748692e-03, 2.56308001e-02, -4.56306059e-03,
       3.09911766e-03, -9.46220011e-04, 3.91832041e-03, -1.87787041e-02,
       -9.74749494e-03, -2.52385959e-02, -1.91350915e-02,
       -5.30560175e-03, -1.33806802e-02, 4.12060954e-02, 1.38137164e-02,
       1.86684653e-02, 9.61112883e-03, -1.58316048e-03, -1.04710683e-02,
       1.29459621e-02, 1.14296749e-02, -4.81200637e-03, 8.90429504e-03,
       1.62893981e-02, -1.75798796e-02, -3.28012509e-03, -9.22760926e-03,
       1.50944255e-02, -9.48928017e-03, 2.10070722e-02, 1.83079820e-02,
       -1.87008735e-02, 2.86897295e-03, 1.99102163e-02, -1.98589023e-02,
       -2.21762136e-02, -7.80448131e-03, -3.36906314e-02, 1.76758878e-02,
       -8.53737351e-04, 2.71549486e-02, 6.53769681e-03, -5.09776548e-03,
       4.97526396e-03, -9.48458910e-03, 6.79589482e-03, -4.01042821e-03,
       6.45256089e-03, 3.18699074e-03, -1.38814440e-02, 1.43673606e-02,
       1.43781276e-02, 2.82491976e-03, 6.16013305e-03, 3.83525447e-04,
       -3.25850621e-02, 6.23359156e-05, -1.67040387e-03, -4.30696039e-03,
       -2.34612892e-03, 1.92805082e-02, 5.79573680e-03, -1.26130413e-02,
       -2.27354933e-03, -2.32328791e-02, 1.66885613e-03, -9.84452054e-05,
       -1.47770997e-02, -2.38593593e-02, 2.30170274e-03, -2.32305308e-03,
       -1.72817130e-02, -1.72955319e-02, 3.23813152e-03, 2.08065510e-02,
       -2.72102430e-02, -2.02692226e-02, 3.87766096e-03, -2.10614596e-03,
       -1.97882466e-02, -4.33942396e-03, 9.56816413e-03, -2.42493097e-02,
       -3.05398423e-02, 1.57173332e-02, -4.89129825e-03, 8.93284474e-03,
       3.75259034e-02, 9.57300607e-03, -1.05398577e-02, 7.61900702e-03,
       9.46761202e-03, 1.03444944e-03, -1.56887099e-02, -3.03249550e-03,
       -9.36639402e-03, -1.09377997e-02, 2.28511039e-02, -9.02030431e-03,
       -3.86493863e-03, 7.49582611e-03, 9.99746658e-03, -9.54661984e-03,
       -1.23327011e-02, -2.23728158e-02, -1.37209240e-02,
       -1.68234762e-02, -2.54522107e-04, -5.18235320e-04,
       -1.50869377e-02, 1.64845567e-02, 1.71642900e-02, 1.07441414e-02,
       8.15272518e-03, -1.18471459e-02, 3.28540877e-02, -2.72400063e-02,
       -1.03945285e-02, -3.89818661e-03, -8.85779690e-03, 2.22714897e-02,
       2.03521084e-02, 1.62443630e-02, 4.83346579e-04, -1.65710244e-02,
       -2.11851690e-02, -1.84315071e-02, -3.76075623e-03, 5.59703039e-04,
       1.76026355e-02, 1.50456764e-02, -4.66011511e-03, 3.70729179e-03,
       1.62917413e-02, 1.13976188e-02, 9.12644994e-03, -7.61143118e-03,
       1.94234140e-02, 4.47002193e-03, 7.67290359e-03, -5.14604757e-03,
       1.56319980e-02, 4.17866046e-03, -1.18959637e-03, -1.75538585e-02,
       -1.27706099e-02, -6.79339329e-03, 2.49976572e-02, 1.42944464e-02,
       3.86863784e-03, 1.85904745e-02, -5.95917925e-03, 5.91572607e-03,
       -5.64500969e-03, -1.18737258e-02, 1.83055941e-02, 1.75101720e-02,
       1.16647957e-02, -8.96112993e-03, 8.16520210e-03, -4.35683019e-02,
       7.06319930e-03, -1.89682096e-02, -3.50668281e-02, 1.91565510e-02,
       -1.56909414e-02, -2.28344952e-03, -9.85947717e-03, 9.52401012e-03,
       2.62607895e-02, 4.93215537e-03, -1.72139201e-02, 1.16539991e-03,
       7.65986973e-03, -1.24698393e-02, -5.00888703e-03, 4.31035226e-03,
       4.44676308e-03, 1.34856636e-02, 1.97874159e-02, 1.08474609e-03,
       -6.12182822e-03, 3.53445555e-03, 1.42807011e-02, 1.27701899e-02,
       -1.22460593e-02, -1.09456340e-02, -2.63108639e-03, 1.13900276e-02,
       1.61160342e-02, 1.69005916e-02, 1.10375285e-02, 1.44512970e-02,
       -3.32116568e-03, -1.60487685e-02, -2.30767336e-02,
       -1.07959257e-02, -1.16556894e-03, -4.63321572e-03,
       -6.51056133e-03, 1.88170765e-02, -1.97042562e-02, 1.35467267e-02,
       2.51526814e-02, 5.72359795e-03, 2.74903830e-02, -2.60567782e-03,
       3.70549038e-03, -2.70671267e-02, -1.33065786e-02, -6.00597914e-03,
       5.14919683e-03, 7.20348163e-03, 1.14630181e-02, -1.78341940e-02,
       -5.32089500e-03, -4.48789494e-03, -5.06490245e-02,
       -1.93856880e-02, 2.71996669e-02, -4.59652673e-03, 4.48156428e-03,
       -1.42797027e-02, 3.08826100e-02, 1.68122991e-03, 1.37949204e-02,
       9.48073529e-03, -1.46523595e-03, 1.82869956e-02, -2.77381018e-02,
       1.39416456e-02, 2.49838084e-03, 2.32560234e-03, -1.15020461e-02,
       -1.63146388e-02, -1.71123073e-02, 1.26725459e-03, -1.62093174e-02,
       5.34259668e-03, 1.33044564e-03, 7.50121288e-03, 2.23919526e-02,
       -1.04386443e-02, 2.55740224e-03, -3.26816328e-02, -2.12712064e-02,
       -8.98301194e-04, -6.20533386e-03, -1.30066357e-03,
       -1.74548645e-02, 2.90191639e-02, -1.42556075e-02, 3.79854394e-03,
       -1.67548265e-02, 7.50784762e-03, 1.81146879e-02, 2.25385395e-03,
       -7.31588062e-03, 8.99907853e-03, 1.45090017e-02, -1.70183349e-02,
       -4.02682787e-03, -2.21446473e-02, 6.55041914e-03, 3.65665406e-02,
       3.18114422e-02, -6.04820112e-03, -2.16429476e-02, 1.83014330e-02,
       -3.31700034e-02, 1.26771722e-02, -1.10359741e-02, 1.07269427e-02,
       -2.56556347e-02, 2.26375344e-03, -1.11043062e-02, -3.84724960e-02,
       1.23406099e-02, -2.75622425e-03, -9.60444938e-03, -2.14072224e-02,
       -2.11173613e-02, 9.24129912e-04, 1.08834822e-02, 1.41045591e-03,
       -1.62381474e-02, 1.67993773e-02, 2.14971919e-02, 3.91462585e-03,
       -5.34957508e-03, -4.10912000e-03, 1.42797166e-02, 1.39052756e-02,
       -1.00261886e-02, -2.35267729e-02, 2.66058021e-03, -2.14761719e-02,
       -1.25294854e-03, -2.78602052e-03, 2.08300315e-02, -1.69987397e-04,
       3.61221172e-02, 2.63161883e-02, -1.32881310e-02, 6.37824740e-03,
       -1.42138330e-02, -1.72295235e-02, -3.06733581e-03, 1.98312607e-02,
       -1.98804736e-02, 3.79791446e-02, 2.40912754e-02, -4.32797102e-03,
       2.89211073e-03, 1.72755346e-02, 1.20896585e-02, 1.28055848e-02,
       -6.92012021e-03, -8.92021228e-03, 2.09870841e-02, 8.54925718e-03,
       -1.94713157e-02, -1.11954089e-03, 9.89310909e-03, 7.94487260e-03,
       3.35950293e-02, -6.38673734e-03, 2.01270878e-02, 5.33259735e-02,
       1.01616140e-02, -2.81948615e-02, -6.59230491e-03, -3.93435685e-03,
       2.22298224e-02, 2.27481835e-02, 3.33116092e-02, 1.10136122e-02,
       6.41448144e-03, 1.50541938e-03, -1.96640883e-02, -4.00335807e-03,
       -1.31879197e-02, 2.34007742e-02, 7.57710449e-03, 1.93029363e-02,
       7.94248539e-04, 4.03811500e-05, 5.04765630e-05, -2.91799475e-02,
       1.27830552e-02, 1.00501459e-02, 1.18832318e-02, 1.60292201e-02,
       8.08399636e-03, 1.54593345e-02, 1.78593900e-02, 1.87173281e-02,
       -2.41922354e-03, 2.23331135e-02, 1.31102735e-02, 1.96102001e-02,
       2.33146250e-02, 1.57478992e-02, 4.27745692e-02, 6.00340730e-03,
       -1.20977042e-02, -2.42784619e-02, 9.16783698e-03, 2.10359916e-02,
       3.63546014e-02, 4.00374942e-02, 2.34657135e-02, 2.64537260e-02,
       -1.72017254e-02, 1.18994492e-03, -7.94229505e-04, 3.39042321e-02,
       -3.27860471e-03, -2.19966862e-02, -1.13851540e-02, 1.64722446e-02,
       1.18579194e-02, 2.03712489e-02, 2.51894724e-02, -1.31154025e-03,
       -1.39071774e-02, 2.51452532e-02, 1.37678431e-02, 1.58793461e-02,
       1.95884090e-02, -9.13212425e-04, 6.24724524e-03, 2.81486325e-02,
       7.08187744e-03, -9.35514364e-03, 3.67893465e-02, 1.26728024e-02,
       1.72581524e-02, 2.75854692e-02, 2.88084447e-02, 6.89649535e-03,
       1.54775549e-02, -9.05600749e-03, -1.36250362e-03, 4.72081173e-03,
       -4.28678282e-03, 1.97664811e-03, 2.42183749e-02, 8.78459495e-03,
       -5.98648004e-03, -5.26590040e-03, 2.39729462e-03, -4.81951021e-04,
       2.61094491e-03, 5.49351610e-03, 7.17420923e-03, 2.76050679e-02,
       -1.58252660e-03, 3.07340664e-03, 6.44539716e-03, -1.55391218e-02,
       -1.10158240e-02, 1.21934954e-02, 1.29603478e-03, 3.13157961e-02,
       2.35456023e-02, 1.54792191e-02, -8.30064435e-03, 2.11587138e-02,
       6.30977144e-03, -5.79830958e-03, -6.22856943e-03, -2.44645053e-03,
       9.22120642e-03, 1.66254286e-02, -2.37161610e-02, -3.83253995e-04,
       -7.57888658e-03, -2.75865803e-03, 2.52409596e-02, -9.05424450e-03,
       1.69732738e-02, 1.94852799e-02, 2.05201805e-02, -1.35303764e-02,
       2.23245798e-03, -3.76137579e-03, 8.32831208e-03, -8.04365799e-03,
       -1.02525139e-02, -5.16470848e-03, -7.54195126e-03,
       -1.03719989e-02, 1.68156382e-02, -1.11578743e-03, 1.84715334e-02,
       -1.40487300e-02, 1.37312450e-02, 1.84044649e-03, 2.10542902e-02,
       3.32560167e-02, 1.44561399e-02, 1.46184824e-02, 6.86416822e-03,
       1.05864508e-02, -2.05700807e-02, 9.05860122e-03, -1.17616635e-02,
       -7.00696791e-03, 2.70745140e-02, 2.27755159e-02, 1.01892315e-02,
       1.67534146e-02, 1.47760352e-02, -1.56783480e-02, 1.85509734e-02,
       2.95567024e-03, 3.19779515e-02, 1.00774402e-02, 2.30000727e-03,
       1.46937110e-02, 1.97976604e-02, 1.43775772e-02, -8.94238334e-03,
       2.42301077e-02, -1.13243219e-02, -4.05238895e-03, 2.93160956e-02,
       1.62511133e-02, 2.00444623e-03, -2.43162634e-04, 1.27927391e-02,
       -3.72557016e-03, 1.04951747e-02, 4.09267982e-03, 1.78972855e-02,
       3.11544966e-02, 5.89836668e-03, 2.00135633e-02, 1.51258903e-02,
       7.92655442e-03, 1.13044092e-02, 5.38436871e-04, 5.63392928e-03,
       4.44044955e-02, 3.18111070e-02, 8.32756690e-04, -7.60463113e-03,
       1.48828458e-02, 1.59778669e-02, -6.30036602e-03, 2.32850555e-02,
       -1.73105486e-02, -3.26422043e-02, -3.28821538e-04,
       -3.17963175e-02, 1.36537487e-02, -1.28650907e-02, 2.36287247e-02,
       1.25298705e-02, 4.25431132e-03, -1.26501583e-02, -3.90496966e-03,
       1.54199563e-02, 6.41141925e-03, 4.15661186e-03, 1.93976052e-02,
       6.13481225e-03, -5.67054143e-03, -4.07992899e-02, -1.74342247e-03,
       2.51671411e-02, 3.88326705e-03, -2.12163925e-02, 1.87912639e-02,
       1.05648637e-02, 7.59240473e-03, 1.74888447e-02, -1.99807584e-02,
       7.54295476e-03, 9.62725282e-03, 9.10953560e-04, -2.33344026e-02,
       2.25142054e-02, -1.34337600e-02, -1.71369109e-02, -1.37998294e-02,
       -3.42623405e-02, -1.81784946e-02, 1.94055215e-02, 7.58343702e-03,
       8.22247937e-03, 1.43178962e-02, -1.59783866e-02, 4.45151702e-03,
       -2.03844975e-04, 1.65214501e-02, -2.25193705e-03, 3.15643474e-02,
       7.07034208e-03, 5.97170147e-05, -1.01356125e-02, 3.86080565e-03,
       1.70646366e-02, 6.92448625e-03, 1.11807371e-03, -1.24947364e-02,
       2.03137547e-02, -3.47408932e-03, -2.17415392e-02, 2.21668463e-02,
       -6.31447043e-03, 2.64092279e-03, 4.77874605e-03, -4.23368905e-03,
       -1.98008958e-03, -6.13398105e-03, 2.06927303e-03, 3.98721499e-03,
       1.40369385e-02, 1.20916797e-04, -2.95187403e-02, -2.11496707e-02,
       1.33459782e-02, -8.85894429e-03, 2.11177729e-02, 1.63375549e-02,
       1.18420674e-02, 2.77592558e-02, -7.12476438e-03, 1.36391353e-02,
       1.39436754e-03, 2.29713763e-03, 2.09476496e-03, -1.00160651e-02,
       -1.56404693e-02, 2.75116414e-02, -1.15258666e-02, -2.76519377e-02,
       1.19627928e-02, -1.45531418e-02, 8.22799467e-03, 8.75123485e-04,
       1.69813819e-02, 1.43384458e-02, -1.07000964e-02, -1.28023745e-02,
       -2.94550825e-02, 5.85498568e-03, -1.22482954e-02, 9.14708432e-03,
       9.84532852e-03, 3.49554755e-02, 1.40603408e-02, 4.74721799e-03,
       -1.17962975e-02, -1.75236464e-02, 8.67159571e-03, -1.88714266e-02,
       3.34563036e-03, 4.92139161e-03, 1.79596152e-02, -1.60178468e-02,
       -4.35642749e-02, 7.33852945e-03, -1.41621893e-02, 5.26201678e-03,
       -5.15002245e-03, -2.14400869e-02, -2.07806882e-02, 8.71882495e-03,
       -9.11069661e-03, 1.54233491e-03, -2.00126339e-02, -1.10410219e-02,
       7.65446480e-03, -2.88257897e-02, -7.94821791e-03, -9.99122579e-03,
       1.54791186e-02, 9.15773306e-03, -1.38590485e-02, 1.06768706e-03,
       -4.19055624e-03, -3.02882008e-02, -1.45427827e-02, 2.20204648e-02,
       -3.63941793e-03, -9.77303181e-03, 1.06436212e-03, -9.22554452e-03,
       1.83117541e-03, -1.42174298e-02, -1.03480741e-02, -2.12426744e-02,
       -3.04050837e-02, -8.15499201e-03, 1.91280302e-02, 6.16140198e-03,
       2.98715346e-02, 8.75465944e-03, 2.14012135e-02, -1.46569766e-03,
       -5.87860355e-03, -2.60169106e-03, -1.14979567e-02,
       -4.34363261e-03, -1.04688751e-02, 2.44463217e-02, -9.11729783e-03,
       9.85892024e-03, -3.24890912e-02, -1.90710332e-02, -7.52949528e-03,
       4.01443336e-03, 1.40040647e-02, 9.33113229e-03, -1.68269668e-02,
       4.00384609e-03, 7.38677476e-03, -2.12616790e-02, -5.95507864e-03,
       -1.36334740e-03, -5.10196900e-04, 1.57600362e-02, 5.14638051e-03,
       -6.37510372e-03, -2.06312072e-02, 3.66296358e-02, -3.57871898e-03,
       -1.20104747e-02, -6.19927375e-03, 3.93669680e-03, 4.59944783e-03,
       1.76323038e-02, -8.91927164e-03, -9.13866609e-03, 1.66185778e-02,
       1.64606236e-02, -2.66954172e-02, 1.49220750e-02, -1.16260694e-02,
       -1.24203591e-02, -6.11425191e-03, -8.22529849e-03,
       -1.25819175e-02, 3.46824131e-03, 5.11939963e-03, 7.34940218e-03,
       -6.09274674e-03, -1.12348273e-02, 3.48443389e-02, 2.03833054e-03,
       -1.25849415e-02, -1.03216954e-02, 4.37754672e-03, 7.32714729e-03,
       -3.42686288e-02, -1.09765455e-02, -1.25728929e-02, 6.63691899e-03,
       5.30973356e-03, -1.28486129e-02, -2.80312877e-02, 1.29732490e-03,
       2.00477410e-02, -1.53579945e-02, 2.50845477e-02, -1.08862333e-02,
       5.32946130e-03, -1.18222050e-02, -1.12835728e-02, -1.54005475e-02,
       2.83276755e-03, 1.06591051e-02, 1.60712507e-02, 1.61506701e-02,
       -3.60116968e-03, 2.12461711e-03, -7.75209023e-03, 1.16956718e-02,
       -1.68616362e-02, -5.40447561e-03, 2.59142797e-02, -1.23972613e-02,
       6.88179815e-03, -3.77569161e-02, -2.90542506e-02, -2.47090142e-02,
       -5.71503025e-03, -1.54391518e-02, 2.71603535e-03, 1.38236415e-02,
       3.34904622e-03, 1.58427842e-02, -6.06465247e-03, 1.86094292e-03,
       -1.07059591e-02, -2.01816652e-02, -1.54138757e-02, 5.90449781e-04,
       1.17730787e-02, -2.26188377e-02, 4.06376719e-02, -2.89283209e-02,
       -2.21321676e-02, -4.28783931e-02, -2.29294114e-02, 6.23381976e-03,
       1.16706761e-02, 2.89898496e-02, 2.39457786e-02, 8.66022240e-03,
       1.63542069e-02, -1.07168723e-02, -8.10393598e-03, -5.55557804e-03,
       -1.89863928e-02, 6.49803365e-03, 4.81737405e-03, -2.23770775e-02,
       2.74103619e-02, -3.33280233e-03, 4.43165703e-03, -1.87889468e-02,
       -2.02848688e-02, 6.77316973e-04, -1.90042856e-03, -8.61655641e-03,
       -1.53943105e-02, -4.21033194e-03, -2.86171003e-03,
       -5.99522190e-03, -1.81448795e-02, -3.51594831e-03,
       -1.00707561e-02, -1.12523353e-02, 1.50343054e-03, -2.64624413e-02,
       9.70113557e-03, -7.25400727e-03, -3.07296123e-03, -3.10753821e-03,
       -1.69101395e-02, 1.32308071e-02, 1.62301064e-02, 2.31175702e-02,
       -1.14683330e-03, -8.64425302e-03, 7.53653003e-03, -1.10817356e-02,
       -1.20888595e-02, 2.96903518e-03, -8.25416762e-03, 2.00907094e-03,
       8.54729675e-04, -6.68690249e-04, -5.66294324e-03, 1.07156555e-03,
       5.62901609e-03, 2.35539698e-03, 1.20369801e-02, -9.79331089e-04,
       1.19347135e-02, -6.83398778e-03, -9.21940338e-03, -1.13173565e-02,
       -4.72858362e-03, -3.18341539e-03, 2.06422843e-02, 8.98897089e-03,
       -1.86060444e-02, 8.84265453e-03, 3.04696634e-02, 8.02553538e-03,
       1.81886125e-02, 2.03753822e-02, 2.24180985e-02, -1.32083194e-02,
       -1.47184562e-02, 1.44425994e-02, 2.59134471e-02, 1.23062357e-02,
       6.90048747e-03, 2.09913328e-02, -6.67332066e-03, 6.83844928e-03,
       -6.63342886e-03, 4.85470344e-04, 4.24874807e-03, 1.81662582e-03,
       1.21413860e-02, 8.29395372e-03, -9.74162202e-03, 2.81892298e-03,
       1.65042505e-02, 8.67720228e-03, 7.72272330e-03, -1.53303975e-02,
       -5.99483727e-03, 3.70858610e-03, -4.58688056e-03, -2.87048407e-02,
       9.71424207e-03, -1.62593424e-02, -2.32978836e-02, -2.78010555e-02,
       6.20950572e-03, -1.14745358e-02, -2.30305642e-02, -1.91516094e-02,
       -3.59380804e-02, -7.85496738e-03, 5.37335500e-03, 1.06701227e-02,
       1.64899770e-02, 4.06156257e-02, 1.04174903e-02, -1.24659277e-02,
       2.09266730e-02, 3.02422643e-02, 3.09730018e-03, -6.71250559e-03,
       -9.16237885e-04, 3.73202637e-02, 3.97942495e-03, 1.13768242e-02,
       -1.23000436e-03, -4.97926259e-03, -2.02830341e-02, 1.29569108e-02,
       2.71815993e-03, -7.75917480e-03, -3.09698749e-03, 1.14364154e-03,
       -2.04539928e-03, 7.86689669e-03, 3.14200781e-02, -3.18737840e-03,
       -2.17801495e-03, 1.12621160e-02, 9.66387987e-03, -6.59661600e-03,
       1.04560042e-02, 6.68648956e-03, -1.97272580e-02, -1.21520401e-03,
       4.47650906e-03, 2.36463640e-03, 1.03212232e-02, -1.34252140e-03,
       2.30337195e-02, 3.19469534e-03, -1.38146961e-02, -4.93589137e-03,
       2.87601282e-03, 8.10853299e-03, -1.80006481e-03, 3.60561971e-04,
       -3.97811085e-03, -1.43070351e-02, 1.34177962e-02, 1.90514978e-02,
       1.75805558e-02, 1.55021651e-02, 3.45353000e-02, -8.99168942e-03,
       4.12228331e-03, 1.77099872e-02, 1.33596072e-02, 3.55649320e-03,
       4.15408798e-03, -1.09263882e-02, 8.67421366e-03, -3.67321707e-02,
       -9.52210929e-03, -2.57656933e-03, 1.79103967e-02, -1.17363958e-02,
       -1.61216408e-02, -4.41408157e-03, -2.40380447e-02,
       -1.32469377e-02, 6.28693029e-03, 3.52299219e-04, 9.32955649e-03,
       1.43621573e-02, -1.53887505e-02, 3.11079733e-02, -9.90842376e-03,
       -2.73737777e-02, 1.01393163e-02, -7.72117218e-03, -1.01080509e-02,
       -6.45652460e-03, -4.33331355e-04, 1.93543229e-02, 9.52129066e-03,
       2.23807730e-02, 7.49007845e-03, 2.08545532e-02, 9.13867634e-03,
       1.56014888e-02, 1.40671395e-02, 6.78907754e-03, -9.45084356e-03,
       -4.33840416e-03, 9.96496878e-04, -3.77406110e-03, 1.36153763e-02,
       -1.16078509e-02, 3.93576361e-02, 1.89493410e-02, -1.81300826e-02,
       -2.59400494e-02, 2.62104254e-02, -2.28605713e-04, -1.51513405e-02,
       -5.86875528e-03, -2.37220596e-03, -1.69589557e-03,
       -8.54841620e-03, 2.30237935e-03, 2.37454642e-02, 1.83404982e-02,
       -1.48708941e-02, -1.19559458e-02, -1.79435266e-03,
       -1.93600003e-02, 1.16169909e-02, -1.98042188e-02, -3.41660008e-02,
       1.33891823e-02, -1.51217636e-02, 3.36723626e-02, 1.95438378e-02,
       1.14186192e-02, 1.24386337e-03, 2.60380916e-02, 2.77089067e-02,
       2.55792076e-03, -2.30826605e-02, -1.91113967e-02, 9.17359628e-03,
       4.53360705e-03, -5.97976241e-03, 3.25682387e-02, 2.51088776e-02,
       2.38156393e-02, -3.70274764e-03, -3.11092045e-02, 5.03746420e-03,
       -5.96305309e-03, -1.12660667e-02, 4.98748990e-03, -2.32451991e-03,
       1.01337032e-02, -1.42561439e-02, -1.67635251e-02, -1.60916056e-02,
       -8.78629521e-07, 1.45958373e-02, -8.45032372e-03, -1.44116255e-02,
       -1.68212336e-02, -6.55090110e-03, -2.14784667e-02, 9.25452076e-03,
       -2.14405879e-02, -6.96527679e-03, 6.34367531e-03, 1.67932771e-02,
       -3.46342660e-03, 4.84566949e-02, 9.54560842e-03, 7.22502032e-03,
       1.32087839e-03, -1.93986073e-02, -3.44675295e-02, -7.98862148e-03,
       2.51235836e-03, -7.85677414e-03, 4.05365825e-02, 2.16653049e-02,
       1.93447117e-02, 2.29426827e-02, -1.24382442e-02, 2.31637545e-02,
       2.40573026e-02, 2.76056561e-03, 1.56095577e-02, 2.35151183e-02,
       -4.13926318e-03, -9.17194877e-03, 2.63902340e-02, 1.07666133e-02,
       1.96607057e-02, -7.17790471e-03, -3.37126711e-03, -1.33510977e-02,
       -1.69300828e-02, -8.32026266e-03, -9.03008599e-03, 6.32441649e-03,
       1.98734067e-02, -3.01741920e-02, 2.18512863e-03, -1.75380800e-02,
       2.70082010e-03, 4.64887125e-03, -2.33442197e-03, 1.29771791e-02,
       7.29699386e-03, -1.76324844e-02, 1.39768114e-02, 7.60780834e-03,
       -8.05782154e-03, -3.42301861e-03, -7.61918910e-03, 1.49586098e-02,
       3.31120491e-02, 1.96950436e-02, -6.00313814e-03, 8.77463538e-03,
       1.97037067e-02, -1.39105134e-03, -5.92356734e-03, -5.75679727e-03,
       -3.32068689e-02, -1.40220355e-02, 1.76344961e-02, 2.80184969e-02,
       1.81665570e-02, -7.85300741e-04, 7.05078186e-04, 8.01009405e-03,
       4.19295672e-03, -1.13147069e-02, 1.62022170e-02, 7.86884874e-03,
       2.33945413e-03, 9.94299352e-03, -3.42835323e-03, -1.09070670e-02,
       5.30336564e-03, -1.00532407e-02, 1.17210411e-02, 1.28925722e-02,
       2.12052353e-02, -6.89729350e-03, -2.23853923e-02, -7.64423050e-03,
       -1.45884941e-03, 9.95748490e-03, 5.55678178e-03, 9.33513325e-03,
       -3.81035614e-03, -1.21589319e-03, -1.58946775e-02, 1.56693868e-02,
       1.44323418e-02, -1.03838546e-02, 1.13657583e-02, -1.38424309e-02,
       7.09001906e-03, 1.50874425e-02, 1.72494410e-03, -2.63686734e-03,
       2.68081930e-02, -1.72116999e-02, 1.85619723e-02, -1.40002677e-02,
       -1.86208319e-02, -6.93242298e-03, -2.04597730e-02,
       -3.13690417e-02, 6.62762485e-03, -2.20630579e-02, 2.16943044e-02,
       -6.06876391e-04, -8.12728796e-03, -8.00666679e-03, 5.51104872e-03,
       1.24828778e-02, 1.81638803e-02, -1.87805761e-02, -1.01922848e-03,
       5.60324965e-03, 1.22493634e-03, 7.50471186e-03, 6.64583920e-03,
       4.09923401e-03, 8.99372809e-03, 1.18352454e-02, -1.52472574e-02,
       6.84324279e-03, 7.67652830e-03, -7.67285295e-04, -3.01021338e-02,
       -1.84725504e-02, -8.17297213e-03, 1.17651878e-04, 2.93502671e-04,
       4.87861643e-03, -3.78358969e-03, -2.17608903e-02, -3.79561912e-03,
       -6.87317690e-03, 4.33455966e-02, 1.32150259e-02, -2.88115051e-02,
       -1.40975788e-02, 1.40575962e-02, 2.69721542e-02, -1.29748834e-03,
       -1.20287249e-02, -1.05791865e-02, -1.02605615e-02,
       -1.10328000e-03, -6.20913319e-03, 3.19941267e-02, 9.88504197e-03,
       -7.62084266e-03, -2.67109815e-02, 2.13070074e-03, 8.30634777e-03,
       -2.69610132e-03, -4.13507782e-03, -3.17666563e-03, 2.37569096e-03,
       -4.69717896e-03, 7.15890806e-03, -6.76288363e-03, -1.07792094e-02,
       -6.12463430e-03, 3.06365173e-03, 1.71798263e-02, 1.84008051e-02,
       1.80858579e-02, 1.56270899e-02, -1.31933084e-02, -2.03431416e-02,
       -3.42401559e-04, 1.07094152e-02, -1.98592357e-02, -1.64089892e-02,
       6.24473952e-03, -2.25704582e-03, 1.68360379e-02, 2.09697057e-03,
       -6.64057396e-03, 1.27449911e-02, 2.23089685e-03, -9.43774357e-03,
       1.03752911e-02, 1.81166886e-03, -5.78696327e-03, 8.14941619e-03,
       -1.01781115e-02, -1.69980880e-02, 9.68599878e-03, 3.24731134e-02,
       3.16973515e-02, 1.09916711e-02, 1.74493100e-02, 1.02130277e-02,
       -3.34396074e-03, -1.00846207e-02, 1.99800897e-02, 9.50054545e-03,
       -5.50863508e-04, -2.38428097e-02, -1.15834717e-02, 4.09728056e-03,
       3.06448503e-03, -3.43491090e-03, -7.61589780e-03, -1.29446434e-02,
       -1.94585081e-02, -9.78749432e-03, -1.28723308e-03,
       -4.83669434e-03, -1.80224199e-02, -1.44714257e-02,
       -2.13423297e-02, -3.57558616e-02, -2.80438066e-02,
       -9.54793766e-03, 9.44474246e-03, 3.27170417e-02, -5.21101709e-03,
       6.32189587e-03, 1.26680499e-02, 1.41410041e-03, -2.20984612e-02,
       -7.32984813e-03, -3.15180328e-03, 3.81665677e-03, -1.26946694e-03,
       -6.62905956e-03, -3.37164104e-03, 2.88708066e-03, -1.05291521e-02,
       4.98669548e-03, -2.89086038e-05, -3.02599277e-02, -1.49801886e-02,
       2.18673591e-02, -3.49746714e-03, -1.21109448e-02, 1.14680184e-02,
       3.49113601e-03, 4.54254262e-03, 3.21109756e-03, -1.14666419e-02,
       1.45376408e-02, 8.55609123e-03, -2.21779086e-02, -2.79904418e-02,
       1.07800832e-03, -8.91255029e-03, -1.64518487e-02, -3.18810670e-03,
       2.46304530e-03, -9.71546490e-03, -1.12392949e-02, -6.89937361e-03,
       2.53013223e-02, 1.09112468e-02, 4.20016842e-03, 1.19172630e-03,
       -1.40962806e-02, 2.26065200e-02, 1.07598640e-02, 1.87725853e-02,
       1.45260047e-03, 8.17076582e-03, -4.34842240e-03, 1.57319028e-02,
       1.89627036e-02, -1.00770136e-02, -3.03175021e-02, -7.81527720e-03,
       -5.57473395e-03, 2.93983635e-03, -4.56845528e-03, 1.34008098e-02,
       5.87052945e-03, 3.47576030e-02, -1.23225087e-02, 1.22259716e-02,
       4.77075111e-03, -1.18742594e-02, -5.08150412e-03, -2.51761009e-03,
       -1.92361865e-02, 3.67683843e-02, -1.30048329e-02, 1.09259645e-02,
       2.71746125e-02, -6.01189304e-03, -8.56365729e-03, -7.08280643e-03,
       -7.06050545e-03, 9.27098840e-03, -3.96946911e-03, -1.06162466e-02,
       9.31239966e-03, 2.87667867e-02, -4.62200912e-03, -2.22385488e-03,
       3.30728735e-03, 5.29015157e-03, 1.76313426e-02, -1.44516062e-02,
       2.28484161e-02, -1.81368515e-02, 5.90945221e-03, -1.28712580e-02,
       1.19784148e-02, 1.91286858e-02, 7.66760251e-03, -1.55708427e-02,
       1.73932482e-02, 2.39697695e-02, -6.13031443e-03, 2.80335490e-02,
       1.27007477e-02, 1.08496901e-02, -7.27361161e-03, 1.84655171e-02,
       -1.88818714e-03, -9.50885657e-03, -2.10053790e-02,
       -8.33633356e-03, -5.55210514e-03, -9.18702595e-03,
       -8.31045583e-03, -8.35427735e-03, 1.98726822e-02, -4.35696542e-03,
       -2.63447370e-02, -5.64994756e-03, -2.40964964e-02,
       -1.12046748e-02, 1.18332598e-02, 9.71033517e-03, 1.16732745e-02,
       1.36298593e-02, -4.32437239e-03, -1.16599724e-02, -6.83177123e-03,
       -1.35986134e-02, 2.71372939e-03, 6.20019680e-04, -4.27634642e-03,
       -7.75754359e-03, 1.15169678e-02, 8.27366300e-03, -9.78529453e-03,
       -3.87264835e-03, -4.88151051e-02, -3.87365045e-03,
       -3.03857261e-03, -1.40266959e-03, -1.36072803e-02,
       -5.29443473e-03, -1.47456918e-02, -2.04025861e-03,
       -5.59084350e-03, -1.58516373e-02, -1.64598636e-02,
       -1.73559375e-02, 3.55625944e-03, -1.35791898e-02, -3.88551154e-04,
       -1.15844235e-02, 3.77557531e-04, -1.30671617e-02, -1.81815010e-02,
       8.74314830e-03, -1.46337384e-02, 6.07691612e-03, -1.54313038e-03,
       5.78443927e-04, -2.06616465e-02, 1.58679474e-03, -1.35015557e-02,
       -2.26113182e-02, -1.40672773e-02, 4.72513522e-04, -3.08321579e-03,
       3.82804088e-02, 9.27293766e-03, -9.69975907e-03, -2.39315145e-02,
       2.63479946e-04, -2.45344522e-03, 1.82667223e-03, -1.15224933e-02,
       -1.66566204e-02, -7.62502372e-04, -1.05604213e-02,
       -1.16160568e-02, -1.41516514e-03, -3.50978523e-02,
       -9.11759492e-03, 3.76203679e-03, -1.47632761e-02, 3.76395183e-03,
       5.20664267e-03, 1.57746933e-02, -1.30952718e-02, -3.51060741e-02,
       3.95694887e-03, 4.09994135e-03, 1.72324032e-02, 7.88221136e-03,
       -3.09092402e-02, -1.62506830e-02, 1.24417217e-02, -6.71727210e-03,
       -1.44237811e-02, -1.53705282e-02, -1.18366992e-02,
       -1.18693085e-02, -2.49958672e-02, -2.13798918e-02, 4.33753757e-03,
       6.71732239e-04, -2.12548319e-02, -1.93813462e-02, 6.00496568e-02,
       1.28471889e-02, 3.42646539e-02, 1.48496486e-03, -1.25875277e-02,
       4.34586685e-03, 2.98935710e-03, -1.32261273e-02, 1.84678156e-02,
       1.39362765e-02, -4.15054569e-03, -1.75773557e-02, -6.46208460e-03,
       -1.14441942e-02, -1.92982052e-02, 2.37660371e-02, -9.43134166e-03,
       1.00967614e-02, -5.88803133e-03, -4.08087485e-03, -2.30585020e-02,
       -2.98512708e-02, -6.13578269e-03, -1.91074070e-02, 2.75170058e-03,
       -3.07697002e-02, -6.47476921e-03, 1.96247604e-02, -1.98721726e-04,
       -1.61548238e-02, 5.35697863e-03, 1.95500497e-02, 4.91127279e-03,
       -3.96685535e-03, -6.51753740e-03, 6.79338956e-03, 9.04699136e-03,
       -3.27924592e-03, -2.14944594e-02, -1.45137710e-02, 1.04818102e-02,
       2.67804880e-03, -2.04243511e-02, -3.31710055e-02, 2.62120683e-02,
       -1.42132435e-02, 1.95362791e-02, -7.94476271e-03, -2.66716648e-02,
       -4.14061034e-03, -7.17362482e-03, 4.02046274e-03, 9.43751726e-03,
       -2.79965959e-02, -1.14535186e-02, -7.91697204e-03,
       -1.17951678e-02, -3.35356183e-02, 1.80091150e-02, -1.08368210e-02,
       -3.23026888e-02, 8.09205603e-03, -6.82386104e-03, 1.56961661e-02,
       1.12322893e-03, -8.47701449e-03, -6.82525430e-03, -2.84462632e-03,
       7.51625653e-03, -2.09591890e-04, -3.79341887e-03, 3.72978672e-03,
       3.33916210e-02, 7.89426849e-04, -4.90833400e-03, 1.73584297e-02,
       -1.01001037e-03, -2.60986984e-02, -1.20131336e-02,
       -7.91899860e-03, 8.32765736e-03, -2.14087088e-02, -6.46201288e-03,
       -4.06888174e-03, -3.22077014e-02, 3.20016146e-02, -1.91226099e-02,
       9.85849090e-03, 4.69367998e-03, -8.05680733e-03, -2.97782160e-02,
       -4.77717753e-04, -7.37043214e-04, 1.09690230e-03, 1.51113616e-02,
       -2.74550226e-02, 1.06250299e-02, 1.41754253e-02, -2.77100783e-03,
       6.35461789e-03, -1.56833453e-03, 1.33983810e-02, -2.01481069e-03,
       3.39602795e-03, -3.08259483e-02, 6.46360870e-03, -1.90968066e-03,
       -1.18688177e-02, -5.71047748e-03, -2.43174434e-02, 1.10624579e-03,
       -1.06928404e-02, -6.85820775e-03, -3.78508121e-02, 3.26822288e-02,
       2.24080887e-02, 7.81450141e-03, -1.16865374e-02, -2.58140117e-02,
       -2.85165990e-03, -4.08348665e-02, 1.31551214e-02, -2.19640490e-02,
       -8.69738311e-03, -3.24854888e-02, -1.12362912e-04, 1.54878870e-02,
       -4.35378682e-03, -2.69749248e-03, 1.14951711e-02, 2.51386344e-04,
       -1.70015811e-03, -7.94213638e-03, -3.88727314e-03, 1.36164567e-02,
       -1.99532956e-02, -1.65233780e-02, 1.24645336e-02, -9.15408228e-03,
       2.14850623e-02, -2.19483133e-02, 2.73843249e-03, -5.75593626e-03,
       2.53058854e-03, 1.14355255e-02, 2.01104209e-02, 1.45537183e-02,
       3.50297019e-02, -1.60399778e-03, 1.01205893e-02, -4.32555069e-04,
       7.28193717e-03, 2.12515723e-02, 3.40848602e-03, -9.93021019e-03,
       -2.48173941e-02, -2.67828070e-02, -2.89014466e-02, 5.53662144e-03,
       1.44806728e-02, 9.78180487e-03, 8.83559638e-04, 1.36317115e-03,
       -7.18087703e-03, -5.84647711e-03, -1.51720336e-02,
       -8.18888564e-03, 4.31127846e-03, 3.51646286e-03, 1.79118919e-03,
       -6.92161993e-05, 1.33650668e-03, -9.23435669e-03, -8.06854479e-03,
       2.76424224e-03, -3.89094441e-03, 7.30149820e-03, 2.39202511e-02,
       7.58517906e-03, 9.60591435e-03, -4.29353071e-03, 3.13931629e-02,
       2.47967150e-02, 2.14308742e-02, 1.78301763e-02, -5.87725686e-03,
       -7.60081131e-03, 5.30703040e-03, -2.40493864e-02, -3.98976170e-03,
       1.67773180e-02, 1.99934281e-02, 6.04395196e-03, 8.76578595e-03,
       7.35996012e-03, 1.21815223e-02, -3.84807331e-03, -5.75893419e-03,
       -1.38074877e-02, -4.41950187e-03, -2.26888545e-02,
       -2.99695111e-03, -1.04780691e-02, -1.95029937e-02,
       -4.30825260e-03, -1.23353224e-04, -1.15900002e-02,
       -1.53423632e-02, 6.26806729e-03, -1.91610828e-02, -2.28586588e-02,
       -3.16638383e-03, -3.92126990e-03, -9.86133586e-04, 1.04750954e-02,
       -2.15505976e-02, 2.05071028e-02, 2.40245387e-02, -1.50170783e-02,
       -1.69769786e-02, 3.53621766e-02, 1.06651941e-02, 8.87889881e-04,
       1.50911883e-02, -5.39697101e-03, -4.68879938e-03, 4.28626407e-03,
       7.93066341e-03, 1.83020183e-03, -2.63065752e-02, -7.14855175e-03,
       -2.04718235e-04, 1.48278531e-02, 1.25735458e-02, 1.23943901e-02,
       -1.18224067e-03, -3.17086745e-03, -1.11483224e-03,
       -6.88912719e-03, -6.82144379e-03, -3.77265358e-04,
       -1.21942721e-03, 2.56146155e-02, -8.75972025e-03, 3.32367897e-04,
       -8.28884821e-03, -1.49981119e-02, -9.05457791e-03,
       -5.01209032e-03, -3.82457278e-03, 5.03250677e-03, -2.24452820e-02,
       -9.53076314e-03, 2.51771715e-02, -1.37101663e-02, -2.05205823e-03,
       1.00815929e-02, -1.43582746e-02, -1.75105259e-02, -1.97238307e-02,
       -2.51811426e-02, -1.51008004e-02, 1.76434740e-02, 2.09274292e-02,
       1.71738528e-02, -2.01308765e-02, 4.75760177e-03, 1.81371141e-02,
       3.31442547e-03, -1.59392282e-02, -7.45155290e-03, 1.14666447e-02,
       -1.29556498e-02, -5.70587208e-03, 6.25415938e-04, -4.79624141e-03,
       9.76424478e-03, -8.74976069e-03, -2.73933038e-02, -1.95692144e-02,
       7.51750590e-03, 1.23830223e-02, 2.20536198e-02, -3.26666608e-02,
       -1.30555490e-02, -5.16513246e-04, -1.89051833e-02,
       -2.02678461e-02, 2.10960135e-02, 9.01036896e-03, 2.81216949e-03,
       -3.36508150e-03, 1.14419777e-02, -4.28091781e-03, 1.26082115e-02,
       -9.65023972e-03, 1.38273416e-02, -2.96647637e-03, 2.56724581e-02,
       -1.18278228e-02, -2.80280039e-03, 1.14991805e-02, 7.99245574e-03,
       1.01280557e-02, 1.61666665e-02, -5.50255738e-03, 8.16601515e-03,
       1.09876283e-02, 2.52477778e-03, 6.69693574e-03, 9.82225034e-03,
       5.06359432e-03, -2.26157568e-02, -4.59749391e-03, -2.97788088e-03,
       2.51275636e-02, 5.81764430e-03, -1.57467034e-02, 2.95465626e-03,
       1.18613830e-02, 8.84724688e-03, 2.99555250e-03, 1.66146029e-02,
       2.32031420e-02, 3.54669429e-02, 5.26706427e-02, 4.59088460e-02,
       2.47985963e-02, 1.81716755e-02, -1.59296151e-02, -2.04148591e-02,
       -1.86203774e-02, 1.49727101e-02, 9.23039019e-03, 1.85348578e-02,
       2.26348862e-02, 1.89327374e-02, 1.74767543e-02, 1.38898809e-02,
       -5.51338494e-03, 1.57298334e-03, 1.40277599e-03, -1.71229355e-02,
       2.33500563e-02, -7.52075063e-03, -3.79435532e-03, 1.83994323e-02,
       2.70833056e-02, 1.98466983e-03, 2.00519916e-02, -1.16767306e-02,
       3.18745151e-03, 1.75636653e-02, 1.82293877e-02, 6.52962783e-03,
       1.31850587e-02, -1.33115258e-02, -1.69715509e-02, -7.88858626e-03,
       3.77510372e-03, 5.00941882e-04, 2.53018271e-02, 1.76645797e-02,
       -1.33693973e-02, -9.59635060e-03, 4.17690538e-03, -5.43187652e-03,
       8.50574672e-03, -5.45427669e-03, -2.07824241e-02, 3.28977816e-02,
       2.20568348e-02, 1.21406373e-02, 1.72001459e-02, 6.57022558e-03,
       6.03927905e-03, 2.06273794e-02, -2.43407693e-02, -1.76246185e-02,
       3.51236016e-02, 2.43307929e-02, 1.94116589e-03, -1.71860028e-02,
       1.99548304e-02, 6.24540774e-03, 4.57388274e-02, -1.05050467e-02,
       -2.03814022e-02, 3.47464383e-02, 1.95135139e-02, -8.87803920e-03,
       1.41373761e-02, 9.23854485e-03, -4.94317804e-03, 1.16331177e-02,
       4.21336945e-03, 5.82532259e-03, -3.91921261e-03, -6.16339454e-03,
       -2.28321571e-02, -2.54106410e-02, 1.15269599e-02, -1.56458821e-02,
       1.27411839e-02, 3.42848487e-02, -2.66907457e-02, 2.53942236e-02,
       -3.77381244e-03, 9.94888833e-04, -7.42389029e-03, 1.92417875e-02,
       1.24318525e-02, 3.53240408e-02, -1.78922974e-02, -2.01049969e-02,
       2.07506516e-03, -3.92464641e-03, 3.13203246e-03, 2.02707108e-02,
       1.77511051e-02, 8.83855333e-04, 1.95759200e-02, -2.99904961e-02,
       1.64512265e-02, 2.42722668e-02, -1.71389543e-02, -2.00094972e-02,
       -3.07441447e-02, -1.08302291e-03, -1.72528122e-02, 1.54158417e-02,
       3.46012064e-03, 3.99438441e-02, 1.24279447e-02, -2.41968315e-02,
       -3.85159105e-02, -1.25930109e-03, 1.13830213e-02, 1.21000856e-02,
       8.78217258e-03, -3.66229657e-03, -1.65239703e-02, 1.03114732e-02,
       3.81637877e-03, 3.69213754e-03, 1.19791636e-02, 1.75330823e-03,
       -1.97221879e-02, 1.75617244e-02, -1.46994246e-02, 1.05250003e-02,
       2.26741470e-02, -7.68036334e-05, 1.03922365e-02, 7.18358485e-03,
       -3.83133558e-03, -1.42749501e-02, -5.06104995e-03,
       -7.90626090e-03, 3.51792984e-02, 9.28770751e-03, -8.57381523e-03,
       -1.14733784e-03, 1.40829021e-02, -1.87131530e-03, -1.10683842e-02,
       7.27735180e-03, -5.68357063e-03, 2.10822113e-02, 7.51162553e-03,
       -8.73566885e-03, 1.35327410e-02, 2.14301813e-02, -2.46166177e-02,
       -2.35858485e-02, -1.11379325e-02, -3.56455799e-03, 1.33633399e-02,
       2.29277778e-02, 1.56035721e-02, 2.81871948e-02, -1.13652246e-02,
       1.16867675e-02, -5.30619873e-03, 3.89726344e-03, -1.80713497e-02,
       -1.46995001e-02, 1.21035669e-02, 1.26679689e-02, -1.78145599e-02,
       -1.78824402e-02, 1.55079653e-02, -2.16982178e-02, -2.01381482e-02,
       -1.92123093e-02, 2.23772246e-02, 2.99919620e-02, 3.78591474e-03,
       1.83404274e-02, 4.22750646e-03, -6.38110330e-03, 5.49327442e-03,
       1.03501575e-02, 6.89544063e-03, -7.88922887e-03, 1.41388113e-02,
       1.39225703e-02, -3.53778340e-02, -1.65322644e-03, -1.50876269e-02,
       -1.53441392e-02, -1.85015388e-02, -3.30370106e-03, 8.29520915e-03,
       3.39567699e-02, 6.76408922e-03, -2.81341858e-02, -6.94828248e-03,
       1.89899225e-02, 1.13714244e-02, 8.22918024e-04, 2.44596694e-03,
       -3.58809810e-03, -1.03084268e-02, -1.29908498e-03,
       -6.01605745e-03, 1.55606158e-02, 5.96667733e-03, -4.94155174e-05,
       -1.23993754e-02, -1.31115294e-03, 2.07145652e-03, 4.02417826e-03,
       1.31794577e-02, -1.97324492e-02, -2.09480952e-02, 1.44926272e-02,
       1.01233795e-02, 7.23992614e-03, 2.88171181e-03, -5.92245627e-03,
       1.36001166e-02, 1.15559250e-02, -4.08682553e-03, 5.25976950e-03,
       8.49120552e-05, -9.06928349e-03, -2.35560420e-03, -7.58471247e-03,
       -2.87900958e-03, -3.23343230e-03, 8.87941476e-03, 1.61053725e-02,
       1.76960249e-02, 2.44615246e-02, 2.81252470e-02, 1.62465610e-02,
       1.67182870e-02, -1.99297741e-02, -4.84987115e-03, 2.24771141e-03,
       1.47992885e-03, 1.45448996e-02, 8.53170920e-03, 7.43033225e-03,
       6.54605962e-03, 1.60971971e-03, -1.34331407e-03, 1.47525631e-02,
       8.57570954e-03, 1.10993142e-05, 2.45493241e-02, 3.96029092e-03,
       -6.06901012e-03, -1.06725679e-03, 6.89138053e-03, -2.36273985e-02,
       9.35148261e-03, -2.93654576e-03, -1.70215424e-02, -3.14689032e-03,
       6.12018513e-04, -2.53282413e-02, -2.86601502e-02, -1.44839939e-02,
       -2.46002413e-02, 9.64020658e-03, 1.97430775e-02, -5.04360814e-03,
       -9.04471800e-03, 3.18644219e-03, 1.79524533e-02, 2.23740004e-02,
       8.79103411e-03, -5.84812090e-03, -7.29503110e-03, 8.99607688e-03,
       3.00602778e-03, 3.39391315e-03, 3.54087166e-03, 2.08463762e-02,
       4.08770852e-02, 5.98864025e-03, -2.05326709e-03, 1.56745911e-02,
       1.47489896e-02, -1.07140159e-02, -3.35788168e-02, 3.87708889e-03,
       5.17308805e-03, 1.64352152e-02, 2.75889151e-02, 1.25075886e-02,
       1.77896284e-02, 2.47868411e-02, 2.24857125e-03, -2.31037810e-02,
       -1.28006581e-02, -1.01603260e-02, 2.80216970e-02, 2.90068984e-02,
       -1.68254785e-02, 1.61482487e-03, -1.60518661e-02, 2.11402425e-03,
       4.44742502e-04, 1.84922665e-02, 2.97442917e-02, 3.23304608e-02,
       -6.45324867e-03, -4.10256721e-02, 1.20161260e-02, -1.83649231e-02,
       9.58302245e-03, 6.01592241e-03, 1.50624067e-02, 1.85117964e-02,
       1.83318704e-02, -1.97324697e-02, 2.59498553e-03, 8.09762813e-03,
       5.14708366e-03, 3.78389657e-03, 6.46938570e-03, 2.83773261e-04,
       5.80501091e-03, 1.34338439e-02, 8.43912654e-04, -1.65920537e-02,
       2.63728644e-03, 2.54862010e-03, 7.95306545e-03, -8.31677171e-04,
       1.95863191e-02, -1.12541802e-02, -5.64608723e-04, -1.95898097e-02,
       -9.11952369e-03, 5.47172548e-03, -2.48963647e-02, -4.20327327e-04,
       -1.04948459e-02, 6.31103013e-03, 4.26961156e-03, 1.23173194e-02,
       -2.85623921e-03, 5.31922653e-03, 6.15570275e-03, 6.56379526e-03,
       -1.39824254e-02, -1.29569666e-02, 5.75647037e-03, 2.65996233e-02,
       1.23720327e-02, 7.79749686e-03, 1.79292206e-02, -1.82113368e-02,
       4.50170925e-03, 1.40230218e-02, 1.75159555e-02, 9.31069837e-04,
       -5.36885252e-03, 9.65794362e-03, 7.37161096e-03, 6.39816467e-03,
       -3.66055360e-03, 1.61639024e-02, 5.39577706e-03, -2.81310398e-02,
       -1.62212253e-02, -7.29400618e-03, 6.78463001e-03, 1.53727680e-02,
       -9.47476458e-03, -3.86427715e-03, -1.76625773e-02,
       -3.18418778e-02, -1.58855319e-02, 3.51087633e-03, 4.49824193e-03,
       9.79081541e-03, -3.76379350e-03, 1.45336362e-02, -1.39752245e-02,
       3.54792597e-03, 8.31503014e-04, 2.79475693e-02, 4.78803384e-04,
       -6.17970992e-03, -3.76525428e-03, -1.30713219e-02,
       -1.07819960e-02, -2.02174508e-03, -2.18180623e-02,
       -6.14525098e-03, 4.80289245e-03, 8.23758356e-03, -3.88880214e-03,
       2.02151779e-02, -1.36919145e-04, 2.01834124e-02, -1.67949200e-02,
       4.79657203e-03, 5.27202571e-03, 2.81064102e-04, 1.74110290e-02,
       -3.69252935e-02, -2.76719611e-02, 1.03214837e-03, 4.22205357e-03,
       5.76631632e-03, 2.75981752e-03, -8.72926228e-03, -9.48951673e-03,
       -1.34844081e-02, -4.45099128e-03, 1.30775692e-02, 2.06077192e-03,
       -1.78714916e-02, -6.43068226e-04, 1.62433498e-02, 3.75106395e-03,
       -1.64369829e-02, -2.44175107e-03, 4.34557413e-04, 7.26997433e-03,
       1.02669690e-02, 8.69419798e-03, -1.89368962e-03, 1.66836400e-02,
       -4.85755363e-03, -4.08044830e-02, 1.56037509e-02, -1.81057043e-02,
       -1.70079898e-02, -1.33941071e-02, 2.28953618e-03, 3.71973892e-03,
       2.96779852e-02, 1.92516800e-02, -1.71415322e-02, 1.87329086e-03,
       -1.23649528e-02, -2.47978084e-02, 4.87176422e-03, -1.98252108e-02,
       -1.60683179e-03, 2.57485290e-03, 9.88231879e-03, -8.80488101e-03,
       -1.52205490e-03, -2.41476614e-02, -1.82471033e-02, 1.16708374e-03,
       1.46421080e-04, 1.89963654e-02, 1.36483721e-02, 9.18112043e-03,
       -6.28488464e-03, 1.07059535e-02, 2.57487147e-04, 1.00890417e-02,
       -7.07116118e-03, -1.44376270e-02, 1.16499020e-02, -8.84721242e-03,
       -1.14592453e-02, -3.19801047e-02, -1.74752418e-02,
       -1.01829777e-02, 6.87738834e-03, 4.54058778e-03, 3.05708963e-02,
       1.03856642e-02, 1.47455186e-02, 1.39439581e-02, 1.54924206e-02,
       2.40790052e-03, -1.43310446e-02, 1.72406957e-02, 2.52353791e-02,
       -1.71395317e-02, -2.03153555e-04, -1.69242697e-03,
       -1.37593485e-02, 1.41667053e-02, 4.93613491e-03, -3.66889522e-04,
       -3.29055116e-02, -2.53867935e-02, 1.21565824e-02, -1.10521475e-02,
       1.30504938e-02, -1.00293476e-02, -2.89218314e-03, 2.80502196e-02,
       1.78155769e-02, -1.14358924e-02, -1.67542901e-02, 2.25189375e-03,
       -5.76137099e-04, -4.20162920e-03, -1.96099877e-02, 2.36982331e-02,
       8.24136194e-03, 1.08910250e-02, -1.98828913e-02, -2.21527717e-03,
       3.22387591e-02, 1.65456464e-03, 3.28313410e-02, -5.42172557e-03,
       1.43989678e-02, -1.67079829e-03, 1.23670092e-03, -7.89562520e-03,
       3.85716893e-02, -1.80063788e-02, -6.51646359e-03, 2.64401454e-03,
       -1.16529723e-03, 2.64928844e-02, 1.81715321e-02, 1.53567232e-02,
       -3.89058795e-03, -1.43989166e-02, -1.51935676e-02,
       -4.40677349e-03, 8.94924102e-04, -7.69318780e-03, 3.26703824e-02,
       2.41412409e-02, 4.97110700e-03, -1.02528501e-02, 5.09230373e-03,
       -2.32595559e-02, 5.87284705e-03, 3.37877944e-02, -5.09738736e-03,
       3.71279166e-05, -2.60120835e-02, -9.54988319e-03, -1.20573789e-02,
       7.80670717e-03, -8.80000065e-04, -1.83754843e-02, -2.00771000e-02,
       -2.71293577e-02, -1.50417839e-03, -5.47018880e-03, 1.85582172e-02,
       -2.38078386e-02, 1.72161274e-02, -7.38990493e-03, -2.08749506e-03,
       -1.88351132e-03, -4.27380251e-03, 1.01360946e-03, -1.89979689e-03,
       2.42415182e-02, -1.01828109e-03, -1.16082579e-02, -7.18000170e-04,
       -1.46667310e-03, 9.35942400e-03, 2.25844923e-02, 3.50916316e-03,
       -2.62897760e-02, 5.78606315e-03, -4.10694815e-03, -2.53404416e-02,
       1.34648057e-03, 1.22537324e-02, -1.59408227e-02, -6.76388154e-03,
       2.33520344e-02, 1.02313142e-03, 2.37886999e-02, -3.40064033e-03,
       -1.09929964e-02, 2.93846820e-02, 2.63261832e-02, 8.06213915e-03,
       6.22124178e-03, -9.80359269e-04, -5.97456237e-03, 2.16368772e-02,
       -6.35847542e-03, 1.86324604e-02, -4.25512437e-03, 6.91675162e-03,
       2.92031951e-02, 8.11897218e-03, 1.26738651e-02, -4.20701616e-02,
       9.12738591e-03, 2.30681803e-03, -1.35733346e-02, -3.25417798e-03,
       -1.41300522e-02, -2.70223059e-02, -1.79392267e-02, 7.50516262e-03,
       -2.18421407e-02, 1.63734201e-02, 1.59885604e-02, 6.23362791e-03,
       8.17779824e-03, 1.56138409e-02, -3.64426547e-03, -8.77739675e-03,
       -1.92911527e-03, -2.04094988e-03, 2.45260559e-02, 7.96473119e-03,
       9.01479158e-04, 4.68347827e-03, 1.40125062e-02, -1.86112933e-02,
       -1.06318276e-02, 8.65856558e-03, 1.45639824e-02, 7.66598340e-03,
       3.13206250e-03, 7.50106480e-03, -1.85768269e-02, -2.09450629e-02,
       9.37372260e-03, -1.50548536e-02, 2.55136807e-02, -2.50915978e-02,
       5.57019666e-04, -1.59049071e-02, 1.33509301e-02, 9.21295490e-03,
       -5.70388511e-04, 1.53097305e-02, 1.41719701e-02, 3.15890126e-02,
       -1.75996032e-02, -1.37830898e-02, -5.93583426e-03, 2.54636928e-02,
       -1.54677387e-02, -3.05271819e-02, 8.56474228e-03, -6.55106502e-03,
       1.22579606e-02, -1.19000245e-02, 1.35598667e-02, -1.82329118e-02,
       1.95735670e-03, 6.67144358e-03, 1.16837246e-03, 8.25421792e-03,
       -9.69207101e-03, 6.16744487e-03, 1.73726715e-02, 9.02747922e-03,
       -7.46967178e-03, 1.07810870e-02, 1.27821695e-02, 7.13287015e-03,
       2.26865299e-02, 2.12310925e-02, 6.17850292e-03, 6.82446733e-03,
       2.10438884e-04, -3.33065214e-03, 1.10285711e-02, 1.37724783e-02,
       1.29473899e-02, 9.93761327e-03, 3.03636696e-02, -3.25709358e-02,
       -1.27411569e-02, -1.72448829e-02, -1.16478894e-02,
       -4.94534243e-03, -7.99246691e-03, -9.68552474e-03,
       -4.49637696e-03, 1.37122255e-02, 1.20286373e-02, 1.27418498e-02,
       6.23438787e-03, 3.52746155e-03, 1.63036603e-02, 2.30072495e-02,
       5.74071053e-03, 1.47057595e-02, 1.71425194e-02, -1.12735080e-02,
       1.36967627e-02, -1.42135285e-02, 1.97025854e-02, 4.45715860e-02,
       1.49517800e-04, 1.42235300e-02, 2.48164032e-03, 5.10977441e-03,
       1.07183901e-03, 1.79413632e-02, 1.82671938e-02, 1.21537577e-02,
       -7.59197073e-03, -2.95899948e-03, 1.60807781e-02, 1.48290098e-02,
       -4.12886078e-03, 2.42880508e-02, 9.52500571e-03, 7.94804003e-03,
       4.28500760e-04, -9.71409900e-04, 6.42242143e-03, 6.68759318e-03,
       2.89318059e-02, -1.27360011e-02, 9.94810136e-04, 1.06895287e-02,
       -4.28873638e-04, 8.46691150e-03, 8.09616130e-03, 1.92810670e-02,
       1.52896224e-02, 3.30743678e-02, 2.72060353e-02, 2.47366317e-02,
       1.50270918e-02, -1.09463399e-02, -2.43019108e-02, 2.31653042e-02,
       -9.51412134e-03, -5.79606555e-03, 1.64718032e-02, 4.78489697e-03,
       6.84489636e-03, 1.37113277e-02, -1.27648721e-02, -1.86079508e-03,
       -6.37846626e-03, -2.04857308e-02, -1.81939527e-02,
       -1.01673184e-02, 4.97654313e-03, 2.02661566e-03, -1.05700493e-02,
       3.20132764e-04, 3.92712560e-03, -2.73657101e-03, -4.12356621e-03,
       -1.13408854e-02, 2.00550333e-02, 7.04324711e-03, -1.31198298e-02,
       -1.27668194e-02, -2.31266376e-02, -9.21144802e-03, 1.82681866e-02,
       -4.91199968e-03, -2.63042841e-02, -7.70878105e-05, 1.53240301e-02,
       3.53453048e-02, 1.03250518e-02, -1.14790574e-02, 1.68482997e-02,
       2.60978229e-02, -7.44273607e-03, 4.78224037e-03, 1.57214832e-02,
       2.70495899e-02, -1.49630439e-02, 2.82647996e-03, 8.44361901e-04,
       -1.27348239e-02, 8.64714850e-03, 2.77576614e-02, -2.18853331e-03,
       5.39671280e-04, 5.51702874e-03, 9.19307990e-04, 1.38233276e-02,
       1.60193238e-02, 8.99968017e-03, 2.99563669e-02, -3.20155248e-02,
       -1.79035794e-02, -3.87388607e-03, 5.43053588e-03, -2.69046146e-02,
       7.84978271e-03, 4.09522967e-04, 6.01484114e-03, -6.65193656e-04,
       4.76244325e-03, -1.16794626e-03, 4.97699622e-03, 2.34665405e-02,
       -1.38591677e-02, -1.40599837e-03, -7.65553024e-03, 3.37391556e-03,
       2.66383477e-02, 1.07358247e-02, 7.48662418e-03, 2.97073578e-03,
       7.70697277e-03, 2.31866110e-02, 2.04902943e-02, 1.85557380e-02,
       2.16317493e-02, 6.41598599e-03, -2.99751316e-03, 2.07094215e-02,
       1.37224784e-02, 7.20062479e-03, 7.60197220e-03, 1.79066276e-03,
       -1.96227282e-02, -7.36895902e-03, 2.07172371e-02, 5.77143102e-04,
       8.59068427e-03, -5.09231118e-04, 1.08180649e-03, -1.77021988e-03,
       -3.96714220e-03, -1.32039736e-03, 1.09707620e-02, -1.16742188e-02,
       -3.39537160e-03, -1.02144189e-03, -2.79570348e-03,
       -1.01804873e-02, -5.52814826e-03, 1.36242388e-02, 1.12474523e-03,
       -1.05908113e-02, 1.76047757e-02, -9.03257355e-03, -2.94580287e-03,
       1.50058083e-02, 7.54676992e-03, 1.74306985e-02, 2.56732684e-02,
       -1.32407751e-02, 2.25721346e-03, 1.30559057e-02, -4.70440742e-03,
       -2.30739499e-03, 1.45809809e-02, 2.14905962e-02, -1.14518451e-02,
       9.37149394e-03, -3.15913185e-02, -6.47116965e-03, -1.15244165e-02,
       -1.19904280e-02, -7.23341759e-03, 6.35398366e-03, 1.04389491e-03,
       1.91884451e-02, 1.94921158e-02, 1.73423628e-04, -2.20505986e-02,
       1.50161264e-02, 2.88616810e-02, -1.21140415e-02, -5.09847794e-03,
       6.30588364e-03, -2.25537885e-02, -7.32980156e-03, -3.76084708e-02,
       -3.39622200e-02, 6.12176582e-03, -7.82471150e-03, 2.59582456e-02,
       4.14672121e-03, 2.18363628e-02, 1.43589033e-03, 2.08265930e-02,
       3.00693512e-03, 1.22399097e-02, -1.10178590e-02, 5.31730056e-03,
       3.26514393e-02, -4.54909261e-03, 2.19368748e-02, 7.38010835e-03,
       2.94322036e-02, 1.01766456e-02, -9.00849979e-03, -1.58859473e-02,
       -2.01149983e-03, -5.21830982e-04, -8.85801204e-03, 7.22231751e-04,
       -2.92702988e-02, -6.19790237e-03, -1.25224357e-02,
       -4.89189941e-03, -1.62362345e-02, -7.44111463e-03, 4.87559568e-03,
       -1.54133821e-02, 6.49154605e-03, 6.99827215e-03, 1.28032900e-02,
       5.24682365e-03, -8.41310422e-04, -1.15243075e-02, 4.78928117e-03,
       4.50887568e-02, -2.33904575e-03, 3.48052662e-03, -1.75952818e-03,
       4.92076809e-03, 3.02720349e-03, 1.04600540e-03, -2.39953808e-02,
       6.41066162e-03, 5.01523130e-02, 5.46030747e-03, -7.79889990e-03,
       2.32211929e-02, 3.24144848e-02, 1.75323039e-02, 1.32466163e-02,
       -1.64031994e-03, 3.03683570e-03, 1.85369197e-02, 2.02738703e-03,
       3.31941433e-03, 1.59617625e-02, -6.91488618e-03, 4.38681990e-03,
       -5.73650061e-04, -2.56541818e-02, 1.60768945e-02, 7.54956016e-03,
       -1.02698281e-02, -1.09400339e-02, 1.37536945e-02, 1.76330172e-02,
       1.54138505e-02, 2.84005026e-03, 1.67169459e-02, 1.61090400e-02,
       4.67123091e-02, 5.33567136e-03, 1.69765949e-03, 1.24837812e-02,
       1.11142965e-02, 5.78584522e-03, 1.15809636e-02, 2.38732230e-02,
       1.09546222e-02, 1.86693445e-02, -4.02348116e-03, 2.00487804e-02,
       1.12198377e-02, 4.32113232e-03, 8.01598560e-03, -1.39029138e-02,
       -1.38444090e-02, 1.35898674e-02, 2.16874518e-02, 6.45917049e-03,
       -2.82620243e-03, 1.15384290e-03, 8.06125160e-03, -9.17114131e-03,
       -1.37998369e-02, 1.15317255e-02, -2.42551900e-02, -4.99577774e-03,
       4.12480265e-04, -2.34099887e-02, -3.68279405e-02, -8.14179308e-04,
       9.11528151e-03, -2.07234789e-02, -6.58982247e-03, 2.99460109e-04,
       2.17151735e-02, -2.72388593e-03, 9.14665218e-03, 1.69052221e-02,
       2.36371197e-02, 4.10039239e-02, 1.49006648e-02, -8.39545764e-03,
       7.49451248e-03, 1.99167021e-02, -9.31187626e-03, -1.89197087e-03,
       1.79445315e-02, 4.11088020e-03, 9.86641366e-03, 1.78035814e-02,
       -4.33492614e-03, -3.17872013e-03, 1.42005403e-02, 2.19202790e-04,
       -8.72411579e-03, -7.98804127e-03, 1.07285399e-02, 2.67156791e-02,
       4.18659765e-03, -1.33873178e-02, -1.76477116e-02, -1.02978600e-02,
       -1.79930776e-02, -3.90907470e-03, 5.24781644e-03, -4.09810292e-03,
       -9.81315156e-04, -2.12539863e-02, -3.47113684e-02, 2.64843740e-02,
       7.61050684e-03, 1.17871482e-02, 5.59163280e-03, -2.29536965e-02,
       4.36509494e-03, 1.50526725e-02, 2.17010826e-02, 1.44888787e-02,
       7.39150215e-03, 1.61170121e-02, 2.19438039e-02, -6.36826921e-03,
       -1.29021527e-02, -8.68673995e-03, -2.01504007e-02, 1.81909557e-02,
       3.65470746e-03, 2.40368824e-02, -1.23879006e-02, -1.02500504e-04,
       3.73390429e-02, 1.47946430e-02, 2.01296266e-02, 2.32279040e-02,
       5.56560233e-03, -7.79230613e-03, 1.12703210e-02, -1.84229501e-02,
       -1.56434383e-02, 4.05265804e-04, -9.02067963e-03, 7.75783136e-03,
       -6.26004627e-03, -1.36684172e-03, -8.82920623e-03,
       -1.93419810e-02, 2.46525183e-02, 9.02455393e-03, -7.83244707e-03,
       -1.80452724e-03, 4.69778758e-03, -1.31848622e-02, 2.96395477e-02,
       -4.30189259e-03, -3.94150242e-02, 1.86477993e-02, 1.16422549e-02,
       -2.22208407e-02, -1.21425856e-02, 1.43342195e-02, -6.88526407e-03,
       4.77883546e-03, -5.53830387e-03, -5.07201068e-03, 1.64096598e-02,
       1.87153332e-02, -1.93629246e-02, -1.18337758e-02, -4.32173070e-03,
       -1.17666032e-02, 2.56527662e-02, 2.03328207e-03, -2.37321742e-02,
       1.84521414e-02, 1.12164663e-02, -1.25042992e-02, -1.74745210e-02,
       -2.24723630e-02, -2.28211526e-02, 1.08119901e-02, 7.89142121e-03,
       -2.04407554e-02, 2.20130067e-02, 1.09338500e-02, -2.43467949e-02,
       -2.07811464e-02, 2.39480045e-02, 1.02092577e-02, 2.91078798e-02,
       2.89537869e-02, -1.07367635e-02, 1.88221522e-02, 3.24860821e-03,
       4.08310257e-03, -1.59036182e-02, 3.08023617e-02, 2.29946862e-04,
       2.59665754e-02, 2.81575555e-03, 9.99134779e-03, 1.31112225e-02,
       -5.57520194e-03, 3.68592842e-03, -1.39928982e-02, 7.67217204e-03,
       -1.27588667e-03, 2.14325264e-02, 2.72911359e-02, 6.70992630e-03,
       6.74345158e-03, 1.32290518e-03, 1.41902287e-02, -1.57992002e-02,
       2.81175859e-02, -1.90162901e-02, 4.87337122e-04, 1.16606271e-02,
       -1.65641643e-02, 1.01320269e-02, -1.87448296e-03, -1.09313463e-03,
       -9.96645656e-04, 1.36004426e-02, -4.40213364e-03, 1.65559836e-02,
       -9.16329736e-04, -1.49978576e-02, 1.01662250e-02, 4.80757654e-03,
       2.06164327e-02, 2.47759614e-02, 2.88839713e-02, 6.99481275e-03,
       1.92113128e-02, 5.03079593e-03, 7.50859268e-03, -8.95714213e-04,
       -7.91288679e-04, 2.50071324e-02, -1.38358232e-02, 1.63390692e-02,
       -1.68995485e-02, -8.56265612e-03, -1.70777400e-03,
       -5.93981380e-03, -6.76062191e-03, 6.23239845e-04, 1.73454843e-02,
       1.09620309e-02, 3.71387834e-03, -1.24134878e-02, -1.68150512e-03,
       -9.72999446e-03, 4.70248284e-03, 6.60807779e-03, 9.05503705e-03,
       2.97632162e-03, -5.30936522e-03, 2.76413257e-03, -5.57536213e-03,
       9.32183582e-03, 4.39543463e-03, 1.48966955e-03, -3.52456444e-03,
       2.49120835e-02, 1.29582202e-02, -5.05161565e-03, 1.76982302e-02,
       3.06905657e-02, 2.48545911e-02, -5.81800414e-05, 2.74753850e-03,
       1.84052382e-02, 1.19936187e-02, -7.92680681e-03, 4.35793865e-03,
       -1.47882132e-02, 8.46876949e-03, -2.77036778e-03, -8.56537744e-03,
       1.61880907e-02, -2.50396202e-03, 1.21688647e-02, 1.01074809e-02,
       2.29659993e-02, 1.08844275e-02, -6.38784282e-03, -3.77982669e-03,
       3.31066665e-03, -6.48775790e-03, -3.08295479e-03, 8.52314569e-03,
       -6.42352458e-03, -8.47107731e-03, 1.14283878e-02, 3.96332564e-03,
       2.25498136e-02, 2.32236064e-03, 2.92621227e-03, 1.07560521e-02,
       1.59834344e-02, 8.01258441e-03, 4.17265762e-03, 1.13011701e-02,
       -5.55160036e-03, 1.56696641e-03, -4.78319265e-03, 5.33507578e-03,
       -1.57842822e-02, -8.45524669e-03, 4.53203917e-03, 2.14496311e-02,
       1.60435122e-02, -8.14227294e-03, 2.08201390e-02, 1.12961782e-02,
       3.06193549e-02, 6.65183179e-03, 1.39595149e-02, -1.03464033e-02,
       3.73622170e-03, -2.59932643e-03, 1.35151939e-02, 1.52159075e-03,
       1.22753140e-02, 1.44578086e-03, 1.26802204e-02, 2.18878128e-02,
       5.39567741e-03, -2.37415861e-02, 9.16461088e-03, -5.36733586e-03,
       -2.81832414e-04, -2.11484022e-02, -1.15005681e-02,
       -5.53994905e-03, 9.50902177e-04, 4.80045145e-03, -4.23774868e-03,
       2.46147085e-02, 8.42382666e-03, -2.31381040e-03, -1.77869182e-02,
       2.79450733e-02, 7.53237167e-03, 6.74052676e-03, -3.09055881e-03,
       -3.65012139e-02, -4.65957273e-04, 5.71758021e-03, 3.07596609e-04,
       1.92544051e-02, 6.25811890e-03, -6.42491644e-03, -8.79459549e-03,
       3.06240446e-03, -1.95509475e-02, 4.54177716e-05, 5.44751668e-03,
       1.07600559e-02, 3.02586500e-02, -2.79677585e-02, 6.37649465e-03,
       -1.71760712e-02, -1.64160579e-02, -1.41300848e-02,
       -1.28219684e-03, 1.65773951e-03, 1.31448172e-02, -1.11810714e-02,
       -1.08101275e-02, 2.05478985e-02, 9.76849068e-03, 1.74506893e-03,
       6.78329356e-03, 9.69035830e-03, 1.72099732e-02, 1.79671962e-02,
       -4.05429304e-03, 2.77191866e-03, -1.60690900e-02, -2.24716924e-02,
       -1.29091563e-02, 1.62411463e-02, 9.63022653e-03, 2.86076460e-02,
       2.94596851e-02, 4.37180558e-03, 1.81618817e-02, 2.71282811e-03,
       2.15225224e-03, -1.53128309e-02, 1.06860325e-02, 7.47397018e-04,
       1.81264635e-02, -1.65627301e-02, 2.53007393e-02, -2.08050963e-02,
       -2.55022128e-03, -1.50753604e-03, -4.46185749e-03, 8.37147050e-03,
       -6.79627853e-03, 7.53980549e-03, -8.83329194e-03, -9.68494080e-03,
       6.47407770e-03, -1.46677298e-02, -1.99200679e-03, 8.06831755e-03,
       1.64643154e-02, -2.96661607e-03, 4.87155560e-03, 1.49051868e-03,
       2.25964002e-02, 9.55490768e-03, -2.64638923e-02, -1.79405212e-02,
       -2.27056239e-02, 1.01682683e-02, -7.67460698e-03, -9.47400182e-03,
       -1.63703058e-02, 1.32466303e-02, 3.77478404e-03, -1.85081419e-02,
       -6.22036029e-03, -1.20064961e-02, 1.95779204e-02, 5.39770955e-03,
       -8.01557396e-03, 3.95795843e-03, 2.50721537e-02, -1.72893647e-02,
       -1.56151354e-02, 8.29775445e-03, -4.76117944e-03, -7.78577896e-03,
       -4.09492142e-02, -6.68233307e-03, 6.82364265e-03, 5.88347064e-03,
       -1.55789666e-02, -1.94787234e-02, 2.95955967e-03, -8.69254209e-03,
       -7.03870086e-03, -1.64358895e-02, 1.89638771e-02, 3.67440796e-03,
       2.23193201e-03, 1.29077295e-02, 7.87091721e-03, -1.28755532e-02,
       -1.42919710e-02, -6.74478617e-03, -8.77923041e-04, 2.06081457e-02,
       2.26215236e-02, 2.84352284e-02, -1.23253018e-02, 6.17412326e-04,
       6.88466337e-03, 3.55304754e-03, 9.76021774e-03, -6.65330235e-03,
       1.33087495e-02, 8.45159777e-03, -5.27348416e-03, -9.92113072e-03,
       1.33741461e-02, 1.91092379e-02, 7.38174561e-03, 2.19817739e-02,
       -1.12483045e-02, 3.83593002e-03, -1.16869966e-02, -2.67793108e-02,
       2.39554606e-02, 1.06092859e-02, 4.82384721e-03, -4.80245147e-03,
       -2.34722830e-02, -6.27856515e-03, -3.03846132e-03,
       -5.06180711e-03, 5.21093467e-03, -9.62558761e-03, -5.81799773e-03,
       -6.31588511e-03, 9.46920924e-03, 1.52882021e-02, 8.06951523e-03,
       1.03136376e-02, -1.30167371e-02, 5.29886223e-03, 2.91058701e-03,
       -2.67766807e-02, -3.39206718e-02, -6.42974349e-03,
       -9.98364389e-03, 5.83897484e-03, -8.09943303e-03, -3.04241404e-02,
       2.90902704e-02, -8.61647190e-04, 7.24375108e-03, -3.00550442e-02,
       -2.76801102e-02, -2.28032377e-02, 6.32731069e-04, 1.08982418e-02,
       -5.28836064e-03, -1.91906188e-02, -1.48888053e-02, 1.67466905e-02,
       -8.76049977e-03, -1.43792620e-02, -3.45344795e-03, 1.24206115e-02,
       1.26124639e-02, 5.03714662e-03, -2.28440408e-02, 1.09927785e-02,
       -1.33202728e-02, -2.21887082e-02, -2.20200047e-02, 6.25069113e-03,
       -6.14462595e-04, 2.67098788e-02, 8.28870665e-03, 1.41243087e-02,
       6.74508978e-03, 2.07787696e-02, 1.75273102e-02, -2.85362272e-04,
       -2.35361839e-03, 3.47988936e-03, -1.34428479e-02, 3.51108192e-03,
       1.87183579e-03, -2.97082867e-03, -4.76934388e-03, 6.18630182e-03,
       -1.70108564e-02, -1.03879289e-03, -4.55718767e-03,
       -1.13700761e-03, -3.31051275e-02, -1.09956344e-03, 3.22562596e-03,
       -1.87703613e-02, 2.38003582e-03, -7.54297432e-03, 9.02590528e-03,
       5.62919537e-03, -2.14599329e-03, -3.43187675e-02, 1.22109484e-02,
       -1.74259935e-02, -1.84348635e-02, 1.35064209e-02, -1.58322491e-02,
       5.27187809e-02, -2.95600519e-02, -2.60484554e-02, -1.63239855e-02,
       -9.68341623e-03, -1.12271532e-02, -3.16055976e-02, 1.16760870e-02,
       -1.79057643e-02, 3.75274569e-02, -1.02264304e-02, -3.19645065e-03,
       -2.85199732e-02, -1.46044197e-03, 7.70090846e-03, 1.37486691e-02,
       8.58709216e-04, 9.13846213e-03, -7.47274887e-03, 1.38245691e-02,
       6.38185954e-03, -4.31056926e-03, 2.40074992e-02, 2.63869530e-03,
       -1.98730221e-03, 5.20475861e-03, 2.03439333e-02, -6.70282124e-03,
       2.48917304e-02, 1.26153417e-02, 1.55106131e-02, 1.95706580e-02,
       2.08443403e-02, -1.26659218e-02, -6.44199178e-03, 4.55717929e-03,
       3.43378028e-03, -2.46774592e-03, 1.69015732e-02, -1.31587097e-02,
       2.81925928e-02, 4.71452763e-03, -1.66111868e-02, 1.06418878e-03,
       1.19858533e-02, 1.77366715e-02, -2.45305500e-03, 1.13255717e-02,
       -2.28883028e-02, 9.03405063e-03, 7.22853094e-03, -3.40913585e-03,
       1.21440226e-02, 7.38530373e-03, -5.18578617e-03, 1.12553490e-02,
       -5.09276940e-03, 1.40377117e-04, 1.10013774e-02, 2.01229984e-03,
       -1.49913179e-02, 1.72777083e-02, 2.49220189e-02, -6.99953130e-03,
       -1.05230194e-02, -2.88590323e-02, -1.66386664e-02, 2.33983099e-02,
       5.84404392e-04, -2.17247941e-02, -1.51630840e-04, 2.53525358e-02,
       1.89247006e-03, 4.58064070e-03, 1.89362783e-02, -1.69092864e-02,
       1.76326986e-02, -7.54206162e-03, -5.61604090e-03, 2.27692374e-03,
       2.98307687e-02, 6.05975976e-03, 1.59237930e-03, -7.50015071e-03,
       -1.89973484e-03, 3.18972692e-02, -1.30248219e-02, -2.71086488e-02,
       1.10718580e-02, 1.77069753e-02, -1.99448615e-02, -8.74602702e-03,
       -1.71937253e-02, 2.64008669e-03, 1.04252724e-02, -8.69544409e-03,
       -3.34585942e-02, 1.83931459e-02, 9.20652691e-03, -3.78380739e-03,
       -9.01576225e-03, 4.83702915e-03, 2.13096198e-02, 1.93286967e-02,
       -2.28439327e-02, -3.20761390e-02, -5.29061956e-03, 1.99537072e-02,
       -1.43824127e-02, 1.42789576e-02, -5.98489260e-03, 2.14763131e-04,
       1.85661819e-02, 1.43041397e-02, -2.67757606e-02, 9.93543211e-03,
       2.02779956e-02, -7.56796403e-03, 1.65038202e-02, 8.64163099e-04,
       5.08858822e-03, 4.99849133e-02, -2.87600979e-02, 2.19054259e-02,
       3.75626720e-02, 1.50305573e-02, -1.31004927e-05, -4.21879441e-03,
       5.49104018e-03, -4.99376841e-03, -3.36659364e-02, -1.17627615e-02,
       1.96526363e-03, 6.91615744e-03, -4.57959482e-03, 1.16631053e-02,
       1.16671231e-02, 5.81597851e-04, -1.02920635e-02, -1.39322346e-02,
       5.67532424e-03, 1.25833349e-02, 3.59908715e-02, 4.68507549e-03,
       -1.62380897e-02, -1.51338782e-02, -8.73703603e-03,
       -2.47791759e-03, -1.75020508e-02, 1.49851004e-02, -5.12979878e-03,
       1.40519848e-03, 1.55999595e-02, -4.64344816e-03, 1.96755701e-03,
       -9.03878734e-03, -8.08184035e-03, -1.83887091e-02, 1.79822557e-02,
       1.09454487e-02, 3.17429146e-03, -5.51425852e-04, 3.57658565e-02,
       4.36447002e-03, 1.14043867e-02, 3.09342276e-02, 4.23962832e-04,
       1.28779057e-02, 1.55526083e-02, -8.34014360e-03, 3.48571572e-03,
       1.70451757e-02, -7.25800823e-03, 1.13917356e-02, 1.18127558e-02,
       1.30168628e-02, 4.34738025e-03, -8.93406570e-03, -1.52887814e-02,
       4.84847371e-03, -9.04511008e-03, 1.71231688e-03, 2.69344915e-03,
       1.49568813e-02, -2.14956980e-03, -1.78664814e-05, 2.05360190e-03,
       6.68841042e-03, 2.24828236e-02, 1.19438106e-02, -4.07688040e-03,
       -1.17984805e-02, 7.14412937e-03, 8.57885368e-03, -1.30963689e-02,
       2.15522982e-02, -2.08891230e-03, 4.24218568e-04, 6.30730391e-03,
       2.31428258e-02, 1.25689870e-02, -1.02156894e-02, -5.76287461e-03,
       -3.93591262e-03, 1.31998975e-02, 1.19342497e-02, 9.60825570e-03,
       2.36160401e-03, 2.44316808e-03, 1.91982966e-02, -1.69106945e-02,
       -3.55037525e-02, -7.64327496e-03, 2.43093334e-02, 2.05576364e-02,
       1.49348434e-02, 3.48469825e-03, 2.35380586e-02, 1.72765348e-02,
       -4.47419146e-03, -1.01106064e-02, -2.04304401e-02, 1.18408790e-02,
       5.30482223e-03, -1.45219220e-02, -1.70543306e-02, 1.96872726e-02,
       2.33167280e-02, -1.26462933e-02, -2.97580753e-02, -7.95140862e-03,
       5.40830777e-04, 7.17059802e-03, 2.40087602e-02, 4.08602413e-03,
       2.74781045e-03, 2.47053597e-02, 1.52735170e-02, -1.51938712e-02,
       -1.72121767e-02, 2.60974071e-03, -6.50980836e-03, 1.00225741e-02,
       -1.70407835e-02, 9.83362179e-03, 1.82564836e-02, 1.48147224e-02,
       -1.40933692e-02, -1.52521068e-02, 1.13274595e-02, 1.10237291e-02,
       1.76512413e-02, -1.65415313e-02, 6.02819445e-03, 2.04098821e-02,
       -2.58998433e-03, -2.08309889e-02, -7.42015569e-03,
       -3.62801598e-03, 2.07027025e-03, 2.45217718e-02, -5.63772582e-02,
       1.23415925e-02, 1.57854762e-02, -3.35019454e-02, -2.03895196e-02,
       -4.90470417e-03, 8.43421835e-03, 9.15506948e-03, -1.53318350e-03,
       -1.04321595e-02, 1.32562201e-02, 2.30772737e-02, 2.32032314e-02,
       -1.34215876e-02, 9.35133733e-03, 2.08063163e-02, 1.55252591e-02,
       3.63242067e-03, 2.31606793e-02, 1.50091797e-02, 2.40871329e-02,
       3.18635255e-02, 2.04246142e-03, 1.73322763e-02, 8.55593570e-03,
       3.80105199e-03, -9.82462522e-03, -4.98192608e-02, 1.47028908e-03,
       9.79416817e-03, -1.44789333e-03, -1.13127129e-02, 1.99785992e-03,
       4.54055797e-03, 8.83438811e-03, -3.10765975e-03, 4.83025238e-03,
       -8.89929384e-03, 1.52825769e-02, 2.03686077e-02, 5.67087997e-03,
       -4.48255148e-03, 8.69243033e-03, -1.26880445e-02, 1.03267040e-02,
       -9.71221086e-03, 2.40591299e-02, 5.50802972e-04, 7.70934904e-03,
       -1.56198896e-03, -6.53168140e-03, 1.03943683e-02, -2.42080307e-03,
       -3.12099862e-03, -1.94466468e-02, 1.72378533e-02, 1.81140483e-03,
       -1.05772158e-02, -9.77526978e-03, -6.55590091e-03,
       -1.03922198e-02, 6.56672707e-03, 1.16502978e-02, 1.79427303e-03,
       -7.25907390e-04, -6.80884768e-05, 1.11656813e-02, 6.57641096e-03,
       4.55853902e-03, -9.25074611e-03, -2.27790442e-03, 7.77071482e-03,
       -1.36056254e-02, 7.31937587e-03, 6.53525442e-03, -4.52188030e-03,
       -1.63357425e-02, 2.67481850e-03, 1.78480649e-03, -1.84942968e-03,
       1.27156777e-02, -3.44685599e-04, 3.82381603e-02, 2.37493645e-02,
       3.01080272e-02, 8.47097300e-03, -2.37355381e-02, -8.84630345e-03,
       -1.89319067e-02, 1.18220560e-02, 4.13151132e-03, 1.62556674e-02,
       1.03510395e-02, -5.05428878e-04, -1.75360348e-02, 2.70565767e-02,
       2.54369900e-03, -8.68247170e-03, 7.56041193e-03, -2.54013110e-02,
       6.68559037e-03, 1.49272187e-02, 1.64543241e-02, 8.03904422e-03,
       -2.29976382e-02, 9.40639118e-04, -4.63792728e-03, 4.66603786e-03,
       3.84458632e-04, 5.13019878e-03, -3.43463803e-03, -7.34988786e-03,
       -3.01816668e-02, 5.33725368e-03, -1.56353286e-03, -2.34844889e-02,
       2.00315081e-02, -1.74650401e-02, 4.46941666e-02, 3.16867568e-02,
       3.21976095e-02, -3.64332064e-03, 2.69574975e-03, -3.26110944e-02,
       -3.13208774e-02, 9.60930530e-03, -1.74925067e-02, 2.36948617e-02,
       2.14426825e-03, 1.95123889e-02, 4.55500139e-03, 1.30725419e-02,
       2.17758063e-02, 1.29459947e-02, 1.38258841e-02, -1.48458267e-02,
       3.70143168e-02, -7.95385335e-03, -8.41381401e-03, -2.59921397e-03,
       -3.94101720e-03, 2.73656886e-04, 3.58281122e-03, 2.30660364e-02,
       -2.53466833e-02, -1.84372521e-03, -1.08964937e-02,
       -1.77420881e-02, 5.60353277e-04, -9.45645291e-03, -9.04087443e-03,
       2.48906370e-02, 1.65599268e-02, 1.93274003e-02, 2.34020855e-02,
       4.90689650e-03, 4.25626747e-02, 1.58433989e-02, -1.18415887e-02,
       3.45066655e-03, 3.38515341e-02, 1.58853643e-02, 2.45837737e-02,
       -4.44790610e-04, -1.06953746e-02, 2.03854106e-02, 1.01482607e-02,
       -2.83077988e-03, -5.29529853e-03, 3.65095846e-02, 4.39615101e-02,
       -1.06451251e-02, 5.85255446e-04, -1.50263328e-02, -4.00833640e-04,
       -2.69872660e-04, 1.38850138e-02, 9.77887120e-03, 1.71063319e-02,
       3.54265398e-03, 8.29656958e-04, 2.93438137e-03, -2.77038924e-02,
       -1.14329346e-02, -9.40682553e-03, -1.53557360e-02, 3.07556428e-03,
       -1.88933860e-03, 1.21186757e-02, 1.94449387e-02, 1.73422284e-02,
       1.70588344e-02, 3.83642726e-02, 2.14465968e-02, -6.82341028e-03,
       -2.34431811e-02, -6.65294193e-03, 1.68331955e-02, 1.97420064e-02,
