%YAML:1.0
---
my_detector: !!opencv-object-detector-hog
   winSize: [ 168, 192 ]
   blockSize: [ 16, 16 ]
   blockStride: [ 8, 8 ]
   cellSize: [ 8, 8 ]
   nbins: 9
   derivAperture: 1
   winSigma: 4.
   histogramNormType: 0
   L2HysThreshold: 2.0000000000000001e-01
   gammaCorrection: 1
   nlevels: 64
   signedGradient: 0
   SVMDetector: [ 7.72264320e-03, 6.68796152e-03, 7.68284919e-03,
       -5.98232122e-03, 3.70019092e-03, -1.17490245e-02, -4.66379011e-03,
       -9.85857914e-04, -1.97847374e-03, -2.40722252e-03, 1.18989707e-03,
       1.22467885e-02, -2.80048791e-03, 9.10720509e-03, -7.62162684e-03,
       -1.70930021e-03, -8.90056603e-04, -6.13879645e-04, 8.35918263e-03,
       -2.69608665e-03, 2.18514865e-03, 1.77622295e-03, 6.80199079e-03,
       -6.28246646e-03, -1.29453780e-03, 2.80594034e-03, 7.46151246e-03,
       4.64188540e-03, 4.14833985e-03, 1.51631692e-02, 3.80582479e-03,
       9.13208444e-03, -1.99860102e-03, 6.95174793e-03, 4.84503480e-03,
       9.66384448e-03, -1.08218996e-03, -2.37234402e-03, 3.96575266e-03,
       -7.18454132e-03, -4.13404399e-04, -1.53916171e-02,
       -7.19603384e-03, -6.15501916e-03, 1.68692597e-04, 6.15533022e-03,
       9.20997001e-03, 7.67810596e-03, -5.25993202e-03, -5.59579162e-03,
       -1.25819538e-02, -2.59974622e-03, -2.98508932e-03, 2.57974025e-03,
       7.64412666e-03, -1.64813723e-03, 5.60393743e-03, 1.30221574e-03,
       4.66489932e-03, -1.10757453e-02, -1.25715788e-03, 1.20110763e-03,
       8.50422494e-03, -3.22324311e-04, -5.02888300e-03, 5.78810321e-03,
       -8.61385546e-04, 9.30495001e-03, -7.10963458e-03, 1.75929256e-03,
       2.05612602e-03, 7.15841260e-03, 1.61598623e-03, 8.89659207e-03,
       6.43719779e-03, -3.81878950e-03, -9.18969046e-03, -1.86057091e-02,
       -5.61522180e-03, -3.34391807e-04, 1.45710434e-03, -8.00278794e-04,
       6.49056677e-03, 1.69832632e-02, -6.63172500e-03, -9.28274356e-03,
       -1.33332834e-02, 1.89943367e-03, -6.52620161e-04, -1.55793270e-03,
       -2.80905078e-05, -3.31477309e-03, 7.10523454e-03, 4.01447265e-04,
       2.26728292e-03, -1.30957961e-02, -1.54119649e-03, 1.98396808e-03,
       3.07187205e-03, -5.70582505e-03, 2.48978171e-03, 1.10625504e-02,
       5.18423785e-03, -4.51180618e-04, -9.71245021e-03, 1.34459545e-03,
       -9.26792738e-04, -6.51037134e-03, 2.55933846e-03, 3.26778064e-03,
       6.46523433e-03, -8.17118213e-03, -9.80600808e-03, -9.05761030e-03,
       -1.02055354e-04, -1.04093451e-04, 3.08359275e-03, 2.72403168e-03,
       3.26049072e-03, 4.22643218e-03, -8.60118680e-03, -8.61765910e-03,
       -1.26733314e-02, -4.36826935e-03, -5.35828667e-03,
       -3.39302304e-03, -8.33602855e-04, 2.32218322e-03, 7.56438076e-03,
       7.32467277e-03, 4.74014319e-03, 1.41828880e-03, 2.05945945e-03,
       -1.47710484e-03, -6.15317142e-04, -3.37928487e-03,
       -3.28131556e-03, 3.60244489e-03, 1.02713332e-03, 6.94656093e-03,
       -8.16044980e-04, -3.39154503e-03, -5.09978877e-03,
       -3.96341132e-03, 2.84329662e-03, 9.96675342e-04, 3.47822579e-03,
       -1.91815721e-03, -1.59118883e-02, -6.75777439e-03,
       -4.60656174e-03, -8.30635894e-03, -4.52103652e-03, 3.68630257e-03,
       2.24079518e-03, 6.24193437e-03, -9.34945326e-03, -1.08425897e-02,
       -2.26294529e-03, -1.70508254e-04, -5.42540429e-03,
       -4.22750926e-03, 2.73372722e-03, 7.01508578e-03, 1.57596022e-02,
       5.00070862e-03, -6.96804933e-03, -6.46815822e-03, -3.19140521e-03,
       3.65952985e-07, -3.34380660e-03, 5.90194901e-03, 4.65733837e-03,
       7.71331927e-03, -1.86101929e-03, -5.07215736e-04, -3.57253919e-03,
       4.55121789e-03, 8.37199111e-03, 3.73737491e-03, 6.36769691e-03,
       6.43402396e-04, 9.08367219e-04, 2.87391129e-03, -1.33570777e-02,
       -1.64493965e-03, 5.17016603e-03, -2.72612995e-03, 1.21725060e-03,
       -1.02136354e-03, 7.34374020e-03, 1.17186727e-02, -6.74309093e-04,
       -2.13003457e-02, -1.05420398e-02, -3.95408645e-03,
       -8.12705327e-03, -6.08438859e-03, 4.97348420e-03, 4.91078757e-03,
       1.24266213e-02, 1.23182377e-02, 2.69268290e-03, 7.42667862e-06,
       8.37638415e-03, 4.65001957e-03, 6.23954111e-04, 5.92140341e-03,
       7.06201792e-03, 1.12829339e-02, 9.28488281e-03, 2.00405228e-03,
       1.76695280e-03, 6.60638837e-03, -2.80582201e-04, -4.13364870e-03,
       1.74225285e-03, 1.04316687e-02, 8.31593387e-03, 3.60422418e-03,
       -1.26699975e-03, -8.08785949e-03, 3.51368129e-04, -8.90195370e-03,
       -6.08267495e-03, 1.09482766e-03, 5.44510642e-03, 9.22599714e-03,
       -6.19905768e-03, -9.82849114e-03, -8.72743689e-03,
       -2.51409365e-03, -1.40450578e-02, -1.16175041e-02, 1.95888057e-03,
       1.34315696e-02, 1.25291515e-02, 7.14635057e-03, 1.16953934e-02,
       7.44796498e-03, 1.07685020e-02, 2.47445051e-03, -1.81471847e-03,
       -5.28297201e-03, 6.58659171e-03, 9.56602208e-03, 3.32602346e-03,
       -3.52812232e-04, 2.29994114e-03, 5.26896678e-03, -6.37464179e-03,
       -5.08884899e-03, 3.65045527e-03, 1.02211889e-02, 1.16175041e-02,
       -1.46824250e-03, -2.23204843e-03, -2.68481066e-03,
       -2.50485330e-03, -7.01856427e-03, -7.38059124e-03,
       -7.71461101e-03, 4.10161214e-03, 1.55771512e-03, -3.17893078e-04,
       -1.35477539e-03, -9.40245297e-03, -8.55721533e-03,
       -3.94743308e-03, -8.24986212e-03, -1.20873621e-03, 3.41464765e-03,
       1.12330494e-02, 5.76508697e-03, 7.23720901e-03, 5.04927896e-03,
       7.62670999e-03, 1.09340227e-03, -2.17609736e-03, -8.54739279e-04,
       4.77915769e-03, 1.19245239e-02, 8.04611295e-03, 8.00277758e-03,
       3.59928585e-03, -3.79545172e-03, -5.31637226e-04, -1.81329786e-03,
       -3.48552992e-03, 2.69822660e-03, -2.83803442e-04, 2.39828997e-03,
       -3.31067364e-03, -6.93983398e-03, -5.82721177e-03,
       -1.39612891e-03, -1.91680784e-03, -7.30487239e-03,
       -4.64782864e-03, -1.33887585e-02, -5.33406204e-03,
       -9.12607554e-03, 4.81175864e-03, -4.17204101e-05, -3.95636540e-03,
       -2.61498266e-03, -4.32851302e-05, 8.04314576e-03, 6.89070066e-03,
       8.40080623e-03, 5.77806728e-03, 4.44942589e-06, 3.42947606e-04,
       3.00265010e-03, 1.34751783e-03, -2.65345746e-03, -3.95569997e-03,
       -6.19498361e-03, 8.20164161e-04, -1.87466398e-03, 3.43632419e-03,
       4.58780583e-03, 2.73292791e-03, 1.93813199e-03, 3.64452763e-03,
       -3.73560033e-04, -7.92222004e-03, 2.73880688e-03, -8.53563938e-03,
       5.53226052e-03, 7.89787155e-03, -1.92616077e-03, 6.47955530e-05,
       4.40002931e-03, -1.89226202e-03, -1.40101044e-03, 2.61266110e-03,
       -4.54899948e-03, 1.05596520e-03, 1.34052025e-04, -5.61362039e-03,
       -2.47011217e-03, 4.60251840e-03, 4.36678209e-04, -3.98875354e-03,
       -2.15369015e-04, -4.97733057e-03, 3.17213172e-03, -4.39966563e-04,
       1.75071240e-04, 4.90734447e-03, -3.57577694e-04, -3.90030490e-03,
       1.09561067e-03, -2.77042645e-03, -4.31755790e-03, 6.60267379e-03,
       3.05271754e-03, -1.14442327e-03, 1.94248348e-03, 4.40004421e-03,
       3.93488025e-03, 6.14274712e-03, 5.86672593e-03, 3.39511782e-04,
       -1.01098570e-03, 7.25012622e-04, -1.50319492e-03, -3.53462249e-03,
       8.68021604e-03, 1.73192238e-03, 1.47269748e-04, -2.81695486e-03,
       -1.47142017e-03, 1.80644580e-04, 4.05351602e-04, 8.26551113e-03,
       3.02729709e-03, -1.90683710e-03, 1.49215793e-03, 4.38189879e-03,
       6.20826613e-04, 1.07075495e-03, 8.51822668e-04, 2.68843281e-03,
       7.97869172e-04, -1.87898916e-03, 4.32064662e-05, 2.94647925e-03,
       -4.47351998e-03, -4.52213129e-03, -6.46577158e-04,
       -2.34830950e-04, 4.33199486e-04, 8.70796479e-03, 4.49006329e-04,
       5.07467287e-03, -4.43997001e-03, -4.97960625e-03, -2.44773505e-03,
       -2.25030049e-03, 6.01821870e-04, 8.19011685e-03, 1.15430374e-02,
       3.96161387e-03, -3.34646343e-03, -7.52544263e-03, -2.88034393e-03,
       -6.00638241e-03, -2.75583426e-03, -2.92550423e-03, 1.19931521e-02,
       1.07954051e-02, 8.24801624e-03, -3.84302856e-03, 6.00216165e-03,
       1.29274296e-04, -3.09626525e-03, 3.22856754e-03, 2.32703355e-03,
       -1.91263010e-04, 3.25796637e-03, -5.91310731e-04, 1.98700652e-03,
       5.90882963e-03, 1.10062258e-02, 2.75000790e-03, 2.22415524e-03,
       1.85832439e-03, 6.73798658e-03, 5.32553345e-03, 5.59390197e-03,
       -6.81736087e-03, -6.02666847e-03, 2.67220056e-03, -4.92369710e-03,
       -4.09727637e-03, -5.14219049e-03, 6.00613421e-03, 1.02382749e-02,
       2.88986019e-03, -1.56753324e-03, -2.88517610e-03, 4.38294047e-03,
       -2.08041412e-04, -5.27105387e-03, -5.70552656e-03, 7.16867449e-04,
       8.75519589e-03, 4.32158448e-03, 3.97929549e-03, 2.63949344e-03,
       1.18773934e-02, 1.85337430e-03, 1.18598761e-03, -2.26491108e-03,
       5.95803512e-03, 1.14443563e-02, 1.75512279e-03, 8.43578111e-03,
       -3.33310396e-04, 1.12496717e-02, 1.98709476e-03, -2.69580912e-03,
       -2.40098196e-03, 8.48917104e-03, 1.90853607e-02, 1.31719457e-02,
       -4.56863409e-03, -2.57761427e-03, -2.26442656e-03,
       -4.87064337e-03, 1.48314354e-03, -1.57718328e-04, 3.21671460e-03,
       3.12973931e-03, -3.57473642e-03, -9.07482021e-03, -3.77894525e-04,
       -5.96938003e-03, -4.47655143e-03, 2.66514462e-03, 1.05528580e-03,
       7.35310558e-03, 1.03081157e-03, -1.01480698e-02, 5.12312027e-03,
       3.25773988e-04, 1.74778257e-03, -3.96238873e-03, 2.84879212e-03,
       5.46063529e-04, 9.87334084e-03, 1.76172201e-02, 6.05223654e-03,
       6.31454261e-03, 8.04400817e-03, 1.05417930e-04, -2.01452128e-03,
       1.86057424e-03, 1.74093083e-03, 5.60707832e-03, 1.15887728e-02,
       -2.30323942e-03, -4.99130739e-03, -2.08474812e-03,
       -7.02430168e-03, -1.01870103e-02, -3.15868121e-04, 2.44018924e-03,
       8.18479434e-03, 7.24679278e-03, -7.81861693e-03, 3.79232503e-03,
       5.12467348e-04, -9.51391237e-04, -6.55579660e-03, 3.62007716e-03,
       3.38042388e-03, 1.26090774e-03, 7.37810181e-03, -1.43833098e-03,
       1.08286971e-02, 8.86061508e-03, 2.91260454e-04, 5.77396480e-04,
       6.17246842e-04, 7.27940351e-05, 6.15409436e-03, 7.44001055e-03,
       -2.60241609e-03, 1.03157507e-02, 1.08105792e-02, 3.60916601e-03,
       -3.86002171e-03, -2.03274147e-04, 4.39004321e-03, 7.43681053e-03,
       1.07225766e-02, 2.59891781e-03, 1.94062293e-03, -1.26273127e-03,
       -3.46046104e-03, -3.49778146e-03, 8.81026872e-03, -7.44527485e-03,
       -1.47594046e-03, 4.26649116e-03, -2.36370275e-03, -3.08231381e-03,
       3.37753166e-03, -4.44695028e-03, -9.21591185e-03, 2.95165926e-03,
       -8.07738584e-03, -1.15360795e-04, 1.53301354e-03, 8.77727289e-04,
       5.57546457e-03, 3.49500426e-03, -2.13087886e-03, -6.66393247e-03,
       5.64943161e-03, -2.37054704e-03, 4.52299789e-03, 9.66448803e-03,
       1.80495868e-03, -2.39080662e-04, 3.01864254e-03, -9.99639276e-03,
       -7.57724606e-03, 8.26958381e-03, -8.11381079e-03, 1.15870126e-03,
       4.91169933e-03, 1.02233072e-03, -3.66450404e-03, -8.03742441e-04,
       -1.75102509e-03, -9.11908410e-03, 5.02808020e-03, -1.71111745e-03,
       4.53094440e-03, 4.17611236e-03, 6.11745147e-03, 1.50500317e-04,
       -6.02009892e-03, -6.51175994e-03, -1.46731725e-02,
       -3.40976659e-03, -2.40401644e-03, 5.55581925e-03, 7.26956874e-03,
       6.10025600e-03, 2.27106595e-03, 3.15656257e-03, -4.56910301e-03,
       -5.18977689e-03, 1.11291520e-02, -6.60017179e-03, 3.59053118e-03,
       7.99278077e-03, 4.84596519e-03, 4.80516767e-03, 2.61168252e-03,
       -1.02851854e-03, -7.19726365e-03, 7.79008167e-03, -1.14446748e-02,
       -1.58757059e-04, 6.95979409e-03, 2.64415308e-03, -3.16251093e-03,
       -7.94424675e-03, -5.61345695e-03, -1.22414958e-02, 5.63874084e-04,
       -5.36962971e-03, 7.08460901e-03, 3.08836880e-03, 2.14975164e-03,
       -3.58613674e-03, -1.03378128e-02, -6.26184558e-03,
       -1.13642691e-02, 4.29354841e-03, -8.02453980e-03, 9.26293433e-03,
       4.42068977e-03, 7.46196415e-03, 3.95424524e-03, -3.24347708e-03,
       -4.73838346e-03, -7.37324776e-03, 6.69210358e-03, -6.38422230e-03,
       2.57409108e-03, 8.48116539e-03, 5.89186698e-03, 4.32125852e-03,
       -2.06148974e-03, 3.30601726e-03, -1.10405600e-02, 3.08982353e-03,
       -6.20330125e-03, 1.38689559e-02, 1.17931403e-02, 1.42426984e-02,
       -7.59527227e-03, -1.08753564e-02, -3.89887462e-03,
       -7.36902980e-03, 4.02311375e-03, -7.26151653e-03, 4.97241784e-03,
       9.53183696e-03, 5.78828156e-03, -3.39621026e-03, -5.00951521e-03,
       -2.27329694e-03, -6.78596506e-03, 6.54180022e-03, -4.51395521e-03,
       6.69722771e-03, 1.11879008e-02, 1.27872359e-02, -2.93866542e-05,
       -9.99246165e-03, -2.50251265e-04, -1.24445641e-02, 1.05614017e-03,
       -4.41914890e-03, 8.64934921e-03, 7.96845555e-03, 1.13911312e-02,
       -3.95648880e-03, -2.72700610e-03, 6.05470454e-03, -6.49631675e-03,
       6.22736709e-03, 8.92916523e-06, 2.63259024e-03, 8.55937507e-03,
       7.27074360e-03, -5.28317690e-03, -6.77610375e-03, -3.11106257e-03,
       -3.25598428e-03, 4.85487562e-03, -3.79316648e-03, 1.05265304e-02,
       1.11887334e-02, 3.63378250e-03, -7.90464226e-03, -6.05449732e-03,
       2.29657558e-03, 5.75472834e-03, 6.40198588e-03, -5.81592927e-03,
       8.61538481e-03, 7.26264343e-03, 8.03460833e-03, -4.84012906e-03,
       -4.77101095e-03, 8.61022389e-04, -7.14657363e-03, -5.35075786e-04,
       -2.21367413e-03, 8.25207680e-04, 1.09702884e-03, 6.22349733e-04,
       -6.95657032e-03, 7.20586395e-05, 6.17673388e-03, -2.54055019e-03,
       3.88075295e-03, -2.12482060e-03, 3.59371188e-03, 1.40932063e-03,
       6.62410120e-03, -4.05704603e-03, -5.13447868e-03, 2.39386782e-03,
       2.50082719e-03, -4.70319670e-03, -8.94742645e-03, -1.37206470e-03,
       5.95702929e-03, 4.65059606e-03, -4.44875704e-03, -1.17950058e-02,
       7.54474255e-04, -3.22651840e-03, 9.14051081e-04, -3.33768385e-03,
       7.00204726e-03, 1.31696025e-02, 9.38608870e-03, -9.46358498e-03,
       -3.29854083e-03, 9.33171483e-04, -2.72588013e-03, -6.49663911e-04,
       -6.47060433e-03, -4.00329416e-04, 8.03325849e-04, 7.00353086e-03,
       -2.93772994e-03, -7.20857875e-03, 2.79579731e-03, 6.66965207e-04,
       1.26302149e-02, -6.84304908e-03, -3.81960912e-04, 4.69447533e-03,
       7.93765951e-03, -7.20263319e-03, -1.87815838e-02, -6.35489495e-03,
       -1.03277871e-02, 5.19664166e-03, -6.49625296e-03, 5.74288191e-03,
       9.19290725e-03, 2.70959944e-03, -1.38020213e-03, -8.46119504e-03,
       -6.90986589e-03, -1.10153807e-02, 7.65689276e-03, -1.40666729e-02,
       1.01106698e-02, 1.01616420e-02, 7.02277059e-03, -6.97399676e-03,
       -1.23958625e-02, -1.76563859e-03, -7.24859396e-03, 9.30244848e-03,
       -8.75612721e-03, 2.02715583e-03, 3.50661646e-03, 2.44828733e-03,
       -1.66795624e-03, -1.03997169e-02, -5.17664058e-03,
       -9.36162751e-03, 1.41777834e-02, -1.29947895e-02, 4.08723345e-03,
       9.71433707e-03, 4.36726492e-03, -7.78008997e-03, -8.96938797e-03,
       -3.91024305e-03, -9.89290513e-03, 9.89528489e-04, -1.97916441e-02,
       1.10009564e-02, 1.09595852e-02, 8.81991442e-03, -1.55514968e-03,
       -1.08710462e-02, -1.73375616e-03, -5.58759691e-03, 7.21487915e-03,
       -7.83232693e-03, 9.63101164e-03, 1.34323649e-02, 1.62123647e-02,
       -3.03548900e-03, -8.40004534e-03, -3.43938498e-03,
       -7.70516274e-03, 1.39985268e-03, -1.71245709e-02, -3.30124865e-03,
       -3.16007133e-03, -7.10322580e-04, 3.30520993e-06, -1.02655059e-02,
       -9.37634986e-03, -9.63958167e-03, 2.87918793e-03, -5.88257145e-03,
       5.99877117e-03, -4.61717322e-03, 1.70984480e-03, 1.86698243e-03,
       -3.96321714e-03, -8.58199596e-03, -3.40323499e-03, 3.77878849e-03,
       -1.17639080e-02, -7.30206445e-03, 2.74930266e-03, 2.06012814e-03,
       4.07938240e-03, 3.31905950e-03, 2.24530906e-03, -3.00174532e-03,
       2.11849296e-03, -1.02684330e-02, -2.76011904e-03, 1.53345475e-03,
       4.75081848e-03, 8.04900844e-03, 7.31909741e-03, -8.39521235e-05,
       -2.21435819e-03, 5.54700755e-03, -4.70268261e-03, -6.69314014e-03,
       7.16467388e-04, 6.85432507e-03, 4.27990127e-03, 9.63745173e-03,
       7.01450452e-04, -1.91669841e-03, 1.45151990e-03, -2.59150704e-03,
       1.55365356e-04, -1.95454899e-03, 1.56722439e-03, 5.51687554e-03,
       -2.09892541e-03, -3.37661663e-03, -1.33953744e-03, 1.10393134e-03,
       -8.80652759e-03, -3.72064486e-03, -6.06974296e-04, 6.99528912e-03,
       -3.24920518e-03, -8.11283570e-03, -1.07828435e-03,
       -3.86743899e-03, 2.91637820e-03, -2.00282712e-03, 1.70512719e-03,
       2.80224206e-03, 4.04166663e-03, 4.55179997e-03, 7.77625199e-03,
       2.62772967e-03, 2.67694751e-03, 1.84426678e-03, -3.51474923e-03,
       -1.01324413e-02, -7.25641847e-03, 9.02274507e-04, 2.11248873e-03,
       2.45530671e-03, 2.45743850e-03, -2.38570943e-03, -2.93705915e-03,
       -6.98311068e-03, -6.82210317e-03, -6.43471861e-03, 7.04464968e-03,
       -2.68872501e-03, -5.37341880e-03, 5.03287069e-04, 2.06163153e-03,
       9.17944009e-04, -5.44211734e-03, -3.54791759e-03, 7.89627491e-04,
       -1.88750273e-05, -2.64377752e-03, -5.75058535e-03, 2.45384034e-03,
       1.23538803e-02, 5.92243625e-03, -1.89911528e-03, -8.68517673e-04,
       -5.78274718e-03, -3.95517377e-03, -1.26009481e-03,
       -5.73494472e-03, -2.54211016e-03, 2.51329830e-03, -2.33566365e-03,
       3.17743979e-03, 7.41626252e-04, 3.76505731e-03, 2.12072022e-03,
       -8.58704187e-03, -8.40911735e-03, 2.71256594e-03, 8.36214237e-03,
       4.06234525e-03, 5.12365717e-03, 7.40719307e-03, -2.65319902e-03,
       -8.79888423e-03, -6.31888956e-03, -2.19821022e-03, 5.05984901e-03,
       6.47433009e-03, -2.76112836e-03, -1.44590944e-04, -1.77918555e-04,
       -6.30028779e-03, -7.37295346e-03, -6.45095762e-03,
       -1.72319205e-03, 1.67357121e-02, 1.53961331e-02, -2.40053353e-03,
       -1.11985868e-02, -1.26338825e-02, -7.50906160e-03,
       -9.13937762e-03, -9.97528899e-03, -1.93650858e-03, 1.00961290e-02,
       1.27115399e-02, -3.45340534e-03, -6.86458137e-04, 6.22986071e-03,
       -3.31898266e-03, -1.12689128e-02, -8.83050542e-03,
       -4.43417812e-03, 1.55213187e-02, 1.21879252e-02, -6.25568256e-03,
       -1.66405775e-02, -1.10369455e-02, -9.30712000e-03,
       -6.74654171e-03, 4.76433110e-04, -4.42678481e-03, 7.92424940e-03,
       3.23299924e-03, -9.98192374e-03, -9.68975015e-03, -6.81629311e-03,
       1.15950184e-03, 9.58519158e-05, 1.41406991e-03, -5.07308915e-03,
       8.32864549e-03, 4.93633095e-03, -3.83023173e-03, -6.68677641e-03,
       -2.57688429e-04, 6.64844364e-03, 2.24555749e-03, -1.58929441e-03,
       -7.22077861e-03, 7.61139486e-03, 8.52493942e-03, -7.06036948e-03,
       -1.04074841e-02, -1.08106835e-02, -2.03752914e-03, 6.21511787e-03,
       -2.16348073e-03, -6.47619506e-03, 3.27395252e-03, 8.97195842e-03,
       -5.35616826e-04, -6.58205990e-03, -3.84364673e-03,
       -4.13161266e-04, 5.62087586e-03, -8.24745931e-03, -7.60892266e-03,
       4.54780692e-03, 1.03525650e-02, -7.03700865e-03, -2.64323968e-03,
       -5.05877950e-04, -3.09053040e-03, -7.15556554e-03,
       -3.11957323e-03, 4.81827388e-04, 4.13311878e-03, -1.17150741e-03,
       -4.34173318e-03, -5.20745199e-03, -3.06142261e-03,
       -7.63266580e-03, -9.35767125e-03, -8.60388577e-03,
       -3.46648414e-03, 4.86419443e-03, 1.82747450e-02, 1.72341894e-03,
       -3.38801253e-03, 1.47065124e-03, -3.11968382e-03, 7.81246403e-04,
       -8.52370169e-03, 1.78641372e-03, 4.87870257e-03, 5.74421696e-03,
       -3.23173939e-03, -5.65300696e-03, -4.57517942e-03,
       -7.16203265e-03, -3.31415003e-03, -2.75487034e-03, 5.18387416e-03,
       3.01043550e-03, 3.21406151e-05, 3.17120412e-03, 3.75829451e-03,
       1.52289681e-03, -7.49816280e-03, -9.01920162e-03, -8.08827952e-03,
       -5.90653531e-03, -2.96269008e-03, -2.73288321e-03,
       -6.88925013e-03, 4.45414195e-03, 1.94588234e-03, -6.34855218e-03,
       -4.27063834e-03, -3.39330966e-03, 2.10170774e-03, 4.57412796e-03,
       -1.17591745e-03, -1.39666523e-03, 4.08129953e-03, 1.16557512e-03,
       -2.93415418e-04, -3.97909433e-03, -6.41723303e-03,
       -1.86516426e-03, -1.29618577e-03, 2.15603760e-03, 2.46341480e-03,
       1.14114042e-02, 3.93735338e-03, -6.97948039e-04, -2.18840316e-03,
       -4.04678052e-03, -3.27172899e-03, 1.97407929e-03, -1.17648556e-03,
       -5.07650571e-03, 3.93995643e-03, 5.99036599e-03, -9.87972599e-04,
       -1.87518424e-03, -7.95377139e-03, 3.43124615e-04, -3.46640428e-03,
       -6.06717588e-03, -8.22875369e-03, 1.95010996e-03, -2.93812808e-03,
       -4.49374784e-03, -5.11876401e-03, 4.80666989e-03, 8.88115074e-03,
       9.88495909e-03, 4.68037603e-03, 3.27636837e-04, 7.96386227e-03,
       2.66343891e-03, 9.29029717e-04, 9.32841795e-05, 7.45280134e-03,
       5.07666776e-03, 1.40277232e-04, -3.50203644e-03, -1.41647113e-02,
       -8.12083774e-04, 4.91054449e-03, -3.86789034e-05, 3.56234307e-03,
       -7.37475371e-03, 3.84388072e-03, 2.17368174e-03, -7.79510883e-04,
       2.54796608e-03, 7.23360106e-03, 1.32805202e-03, 3.62876250e-04,
       -3.73163680e-03, -5.36181312e-03, -5.17161703e-03, 2.52473494e-03,
       -4.84592700e-03, -5.65511920e-03, 3.74255236e-03, -2.64728256e-03,
       -1.04288245e-02, -7.31459074e-03, -4.77098301e-03,
       -6.97913638e-04, -1.95356645e-03, 6.77948701e-04, -1.32338749e-03,
       6.95681199e-03, 8.89392663e-03, 4.02771356e-03, -7.23252131e-04,
       -5.32128196e-03, -3.52655468e-03, 2.36896522e-04, -4.28437442e-03,
       -4.26247097e-05, 6.20010588e-03, 7.88910140e-04, -3.81173380e-03,
       -1.93960383e-04, 6.39679667e-04, -6.86777057e-04, 5.47862286e-03,
       -2.71152006e-03, 1.62760378e-04, 4.23755671e-04, -2.67770723e-03,
       -7.80702382e-03, 6.94388073e-05, -6.26365561e-03, -6.65629096e-03,
       -2.24798988e-03, -1.07599457e-03, -8.12366046e-03,
       -3.42285400e-03, -4.19389037e-03, -2.49759317e-03,
       -1.40053302e-03, -2.33950489e-03, -1.83494773e-03, 2.15922808e-03,
       1.06889999e-03, 5.48538053e-03, 5.78010129e-03, -6.75036048e-04,
       -3.19927395e-03, 3.40530928e-03, -1.32795854e-03, -2.15760176e-03,
       2.12197658e-03, -9.24283158e-05, -4.60514054e-03, -4.17090347e-03,
       -6.30460354e-03, -3.66644538e-03, 6.68745779e-04, -7.07408471e-04,
       -3.99404991e-04, 1.84241007e-03, 3.37708369e-03, -3.32483370e-03,
       -4.85051918e-04, -2.98546278e-04, 1.61225302e-03, 1.15759519e-03,
       -2.87333177e-03, -2.12517823e-03, -3.26556643e-03, 8.35352868e-04,
       -3.29418899e-03, -1.65480888e-03, -1.24008409e-04, 9.39792488e-03,
       3.44686350e-03, 5.05983084e-03, -1.76952046e-03, 3.44782462e-03,
       2.84589827e-03, -4.27761581e-03, -3.31399869e-03, -3.98315862e-03,
       3.74872796e-03, 7.21364375e-03, 2.18971586e-03, -4.67239413e-03,
       6.41222671e-03, 8.28618649e-03, 1.02956954e-03, -1.22554438e-05,
       -3.15813953e-03, 6.33166777e-03, 7.19492743e-03, 1.98981003e-03,
       4.50087292e-03, -4.50224755e-03, 8.67830240e-04, -1.54135888e-03,
       -2.34960788e-03, -1.47143751e-03, 2.58877641e-03, 4.54182085e-03,
       5.65725379e-04, 4.30608774e-03, 4.21710452e-03, 3.02868639e-03,
       5.41899446e-03, 3.91747849e-03, 9.55537369e-04, -3.08575167e-04,
       -3.72723589e-04, 3.21382075e-03, -1.20778999e-03, 2.51260074e-03,
       6.51261816e-03, -3.97896906e-03, -1.18040491e-03, 3.43774143e-03,
       3.01238382e-03, 4.78281965e-03, -8.28019250e-03, 3.47571295e-05,
       3.97208892e-03, 2.21760035e-03, 6.35582022e-04, 3.76194855e-03,
       4.77264728e-03, 7.17919553e-03, -4.71553486e-03, -3.11895460e-03,
       -5.32503193e-03, 1.89635926e-03, -9.66630410e-04, 4.98342561e-03,
       7.36315444e-04, -1.83984393e-03, 5.87231152e-05, -8.08304828e-03,
       1.81372149e-03, -2.31311191e-03, 2.43517206e-04, -2.97116768e-03,
       4.35040146e-03, 5.61240781e-03, 1.24082575e-03, 6.36737840e-03,
       6.14088494e-03, -5.00207720e-03, -7.51212146e-03, -4.79221530e-03,
       1.00019330e-03, -1.00251893e-03, -9.34233947e-04, 5.73066005e-04,
       8.13256670e-03, -2.56555068e-04, 3.11713177e-03, -2.79544643e-03,
       -7.09347427e-03, -6.91859005e-03, -3.86274676e-03, 5.41691855e-03,
       -2.82169995e-03, 5.66801103e-03, 5.73962741e-03, 3.54452617e-03,
       -6.54136389e-03, -3.37281264e-03, -6.87610882e-04, 3.63750919e-03,
       2.30001024e-04, -4.51861590e-04, 4.53690579e-03, 7.34899705e-03,
       -9.47591383e-04, -8.62617162e-04, -3.16326064e-03, 1.17891189e-03,
       -4.04301006e-03, -5.39907347e-03, -1.57286634e-03, 5.84930135e-03,
       -2.91319122e-03, 1.74408278e-03, -2.52957805e-03, -3.37323337e-03,
       -8.64224974e-04, 3.89222841e-04, 2.55342643e-03, -1.64901561e-04,
       1.02398044e-03, 8.41426384e-03, -6.05186913e-03, 1.32549088e-03,
       -1.68071617e-03, -3.55132692e-03, -7.30457529e-03,
       -7.95760541e-04, 1.73425686e-03, 3.27794650e-03, 2.53055524e-03,
       -5.59315202e-04, 6.80687372e-03, 1.02976465e-03, 2.76265456e-03,
       1.95209065e-03, -1.49992376e-03, 1.17458508e-03, 8.49223789e-03,
       -5.22912154e-03, 6.81652571e-04, 3.88682890e-03, 8.35693383e-04,
       -7.27182627e-03, -4.46893595e-04, -1.29993889e-03, 3.84760555e-04,
       4.38435283e-03, 1.13379501e-03, -4.33972920e-04, 6.81166723e-03,
       4.11534728e-03, -1.14075869e-04, 5.42088505e-03, 2.15095977e-04,
       -2.19126325e-03, 8.49725399e-03, 5.83871361e-03, 5.10815904e-03,
       8.99968203e-03, -1.46330893e-03, -1.40999723e-02, 1.66412341e-04,
       -6.18619239e-03, -7.25321239e-03, 2.83576385e-03, 7.83418398e-03,
       -1.30722567e-03, -2.45039002e-03, -2.50961096e-03,
       -6.47113658e-03, 9.57612297e-04, -1.41400588e-03, 3.27646034e-03,
       6.51232991e-03, -2.76900071e-04, -4.80403705e-03, -3.84222041e-03,
       -5.04784938e-03, -5.54995099e-03, 6.80534076e-03, -3.61961755e-03,
       3.67442891e-03, 4.51435056e-03, 7.88705511e-05, 3.08909966e-03,
       3.75877554e-03, -3.52672837e-03, -1.07831387e-02, 1.85096241e-03,
       -1.26256072e-03, 5.36282221e-03, 5.21160290e-03, 6.76691579e-03,
       2.52095796e-03, 4.44387039e-03, 3.67902173e-03, -4.90878150e-03,
       1.12902827e-03, -4.30027954e-03, 7.44141592e-03, 2.18807207e-03,
       6.04314730e-03, -4.56093950e-03, -2.01639766e-03, -3.90386861e-03,
       -2.48494744e-03, 9.20087565e-03, -6.55325130e-03, 2.08116588e-04,
       4.51856526e-03, 6.48870133e-03, -1.14182220e-03, 4.51929122e-03,
       -1.62295310e-03, -5.66558726e-03, -8.58206418e-04,
       -9.65967961e-03, -7.90357869e-03, 1.86061079e-03, 1.26918324e-03,
       -2.18848600e-05, 1.90822175e-03, 5.25324722e-04, -8.87869042e-04,
       9.44777206e-03, 3.17351311e-04, 4.40321350e-03, 5.28090354e-03,
       7.57279573e-03, 8.26956052e-03, 1.03107328e-02, -1.37410907e-03,
       -1.08108651e-02, 2.17379280e-03, 1.31414598e-03, 4.59806819e-04,
       2.70667765e-03, 1.25415064e-02, -1.22619129e-03, -7.19099655e-04,
       5.41869493e-04, -4.33319714e-03, 4.98610269e-03, -2.78509641e-03,
       8.37271626e-04, 6.37881225e-03, 4.31535114e-03, -1.73564721e-03,
       -3.80666286e-04, 4.20237239e-03, -6.52525248e-03, 9.49162175e-04,
       -3.37176933e-03, 9.69797745e-03, 1.23377554e-02, 9.66966059e-03,
       3.24796070e-03, 5.85259357e-03, 3.52694420e-03, -7.76259415e-03,
       3.13543924e-03, 9.42023122e-04, 5.26001677e-04, 2.15961202e-03,
       7.26752868e-03, -2.22564267e-04, 5.46626933e-03, 7.83902593e-03,
       -9.12824366e-03, 6.51874766e-03, -5.60827088e-03, 3.31826811e-03,
       1.13074509e-02, 6.83651911e-03, -2.97859078e-03, -4.89807781e-03,
       3.94724868e-03, -7.20213121e-03, -1.92589057e-03, -4.80330177e-03,
       3.64442007e-03, 8.85485113e-03, 1.40582665e-03, -5.39047318e-03,
       -1.58478238e-03, 6.43473305e-03, -1.36889087e-03, 5.48752351e-03,
       -4.02366364e-04, 3.30808078e-04, 4.16513253e-03, 1.89942610e-03,
       -2.89637013e-03, 1.47947203e-03, 4.60086903e-03, -7.10289273e-03,
       1.91537256e-03, -6.32133335e-03, 2.00080103e-03, 1.07812034e-02,
       5.90935955e-03, 2.54210760e-03, 1.14134913e-02, 9.96997766e-03,
       3.53179086e-04, 6.79948088e-03, 6.23802596e-04, 7.64069427e-03,
       1.20162545e-02, 1.49277141e-02, -1.05743506e-03, -3.57863936e-03,
       6.95136515e-03, -1.43936975e-03, -5.51455701e-03, -6.89210428e-04,
       -2.83230329e-05, -2.30951409e-04, 4.06727754e-03, -8.69394746e-03,
       -4.22925781e-03, 4.72781993e-03, 1.10153586e-03, -3.27935349e-03,
       -5.71283395e-04, 6.91917026e-03, 3.63810663e-03, -9.89096239e-04,
       6.79131085e-03, 7.78191956e-03, 9.63900797e-03, -7.99440313e-04,
       -5.54375583e-03, -4.87865182e-03, 3.31039052e-03, 7.04933470e-03,
       1.88875291e-02, 7.18686683e-03, 6.67201541e-03, 1.29964799e-02,
       5.02531603e-03, 4.59838804e-04, -3.35670635e-03, 7.82927312e-03,
       7.80877797e-03, 9.50878952e-03, -1.37436334e-02, -6.20501861e-03,
       2.09345692e-03, -5.92859834e-03, 2.91055953e-03, 9.04675544e-05,
       5.48986858e-03, 3.23228189e-03, -5.75921312e-03, -3.87149304e-03,
       1.07891872e-04, 7.43446080e-03, 8.21681868e-04, 1.36226919e-02,
       7.28454499e-04, 2.76543573e-03, 1.18026837e-04, -1.25934393e-03,
       1.36229338e-03, -2.23680050e-03, 8.43243208e-03, -3.16102174e-03,
       -1.78637123e-03, -2.96166423e-03, 6.42179698e-03, 4.57344018e-03,
       5.97184850e-03, 6.20537437e-03, 9.68760112e-04, 8.14975426e-03,
       2.53743841e-03, 7.73844169e-03, 3.20757530e-03, 4.89031710e-03,
       -3.13586136e-03, 3.93548561e-03, -2.92895921e-03, 1.46575831e-03,
       2.33702827e-03, -8.67820869e-04, -3.46581801e-04, -5.98482648e-03,
       -1.09304965e-03, -2.06134957e-03, -4.34079440e-04,
       -4.32799663e-03, -5.44509431e-03, -7.52714742e-03,
       -4.13667830e-03, 4.28611645e-03, -6.24000467e-03, 4.45961533e-03,
       7.13105546e-03, 5.54997765e-04, -5.17237931e-04, 7.16243812e-04,
       6.55686483e-03, 6.98947487e-03, -3.35389166e-03, -4.29718662e-03,
       1.19623786e-03, -5.77654922e-03, 2.74052378e-04, 2.16328213e-03,
       -4.95581888e-03, 8.51375007e-05, 6.10008836e-03, -2.96844210e-05,
       -5.36307972e-03, 4.35377285e-03, 2.35689012e-03, 5.20448200e-03,
       -3.96882510e-03, -7.46631855e-03, -5.90362633e-03,
       -4.14529163e-03, -1.11649372e-03, -1.05961878e-02, 2.65208655e-03,
       -1.24305999e-03, -2.45295162e-03, -2.87509500e-03,
       -3.94228520e-03, -1.15674862e-03, -4.05665580e-03, 5.90085564e-03,
       -2.72918981e-03, 4.66475356e-03, 1.87999790e-03, -2.02523475e-03,
       -2.62083230e-03, -1.08407689e-02, -3.84114473e-03,
       -1.26173790e-03, 1.45350816e-03, -4.09198692e-03, 6.59313751e-03,
       1.07424879e-04, -1.17319589e-03, -7.28083774e-03, -8.51046667e-03,
       2.23964546e-03, -4.37010778e-03, 3.76021559e-03, 1.63515063e-03,
       7.27611734e-03, 8.91929585e-03, 2.61221081e-03, 4.78354655e-03,
       3.14945146e-03, -4.41781199e-03, -2.00542551e-03, 9.99276806e-03,
       -6.56333100e-03, -6.20645517e-03, 1.08770735e-03, 3.00711161e-03,
       4.54631727e-03, 2.21901876e-03, -5.20611124e-04, -5.93707804e-03,
       2.21210578e-03, -2.29294645e-03, -2.26491931e-04, -2.64857430e-03,
       -1.12495141e-03, 1.35161716e-03, -4.57908231e-04, -5.97206643e-03,
       2.54705967e-03, 1.18082268e-02, 3.57516739e-03, -1.77678990e-03,
       7.45906308e-03, 1.94793846e-03, 6.44413428e-03, 6.26650546e-03,
       -2.94861558e-04, 5.17488166e-04, -6.78415701e-04, 4.89081722e-03,
       3.18396324e-03, 8.46539799e-04, -8.06156546e-04, 6.91967411e-03,
       2.05198047e-03, -2.98856408e-03, -1.49633153e-03, 2.37580249e-03,
       -7.54672103e-04, -7.92121422e-03, -4.25814930e-03, 3.59356194e-03,
       4.31128219e-03, -4.57613030e-03, -5.30795800e-03, -4.35842061e-03,
       2.87012616e-03, -4.31734696e-03, -3.36408429e-03, 2.23818165e-03,
       9.88726784e-03, 8.98836832e-03, 6.07444532e-03, -4.77471109e-03,
       -1.06331101e-03, 1.33783760e-04, 2.51450134e-03, -5.14474604e-03,
       8.36007588e-04, 1.39076065e-03, 5.90818748e-03, -1.35112880e-03,
       -9.90104489e-03, -3.20377899e-03, 1.26023276e-03, 2.03845487e-03,
       -3.80604481e-03, 8.50208662e-03, 6.73983479e-03, 1.73166115e-03,
       -9.32161510e-03, -1.04368785e-02, 3.41832754e-03, 7.58614915e-04,
       -7.20570039e-04, -4.82446468e-03, 1.77062885e-03, 4.84564481e-03,
       -9.00258217e-03, -1.52035290e-02, -1.33258558e-03, 4.14859829e-03,
       2.43857456e-03, 1.07464781e-02, 6.43492863e-03, -2.05852397e-04,
       -6.34703925e-03, -1.11785380e-03, -5.82637684e-03,
       -4.75910306e-03, 5.78661123e-03, 5.54971071e-03, 1.24384323e-03,
       -1.20080505e-02, -4.64300765e-03, 4.45458252e-04, -4.08609491e-03,
       -8.24778154e-03, 2.95984792e-03, 4.53100121e-03, -1.95166853e-03,
       1.07591227e-02, 2.04751414e-04, -7.88259495e-04, -6.37070695e-03,
       -7.66208442e-03, -9.52236447e-03, 5.20353392e-03, 2.17648223e-03,
       -7.58717628e-03, 3.13072093e-03, 3.06354649e-03, -4.23240894e-03,
       -5.86943422e-03, -5.82961133e-03, -7.79717881e-03, 1.39709152e-02,
       1.12891216e-02, 2.52238032e-03, -7.83432927e-03, -8.08623340e-03,
       -8.75109155e-03, -3.76645545e-03, -3.91444843e-03,
       -7.13293999e-03, 4.20677941e-03, 7.88099784e-03, -8.71111173e-03,
       5.64243039e-03, 8.58587271e-04, -1.01302553e-03, -1.70683803e-03,
       -2.92014820e-03, -3.48292873e-03, 4.42480342e-03, 4.51853452e-03,
       4.59939335e-03, 2.86880415e-03, -1.82377524e-03, -2.33394140e-03,
       3.36447993e-04, -6.91756979e-03, -1.45596461e-02, -2.49743811e-03,
       7.67372968e-03, -3.88839073e-03, -9.01689474e-03, -1.02666160e-02,
       -5.34138363e-03, 4.64900490e-03, -4.60371468e-03, -1.39956707e-02,
       -3.38778389e-03, 7.62619916e-03, 1.84887543e-03, -4.05141059e-03,
       -7.89970346e-03, -4.94994642e-03, 7.52163166e-03, -3.06915725e-04,
       -7.19052227e-03, -3.78338038e-03, 1.04416311e-02, -4.13038116e-03,
       1.55494246e-03, -4.19090688e-03, 1.70410960e-03, 8.08244757e-03,
       4.87379218e-03, -1.10924970e-02, -7.38255633e-03, 1.78883993e-03,
       -5.40451659e-03, 4.67215944e-03, 2.24096980e-03, 8.00318085e-03,
       1.13385618e-02, -4.87508671e-03, -1.04812942e-02, -2.13323487e-03,
       1.45361349e-02, -3.10346344e-03, 2.14282563e-03, 1.97688700e-03,
       -5.73597325e-04, 1.78471184e-03, -7.02229515e-03, -2.94555631e-03,
       -4.47026594e-03, 6.52141171e-03, -6.31064922e-03, -3.40242777e-03,
       -3.15573462e-03, -3.80356424e-03, -1.26981607e-03, 2.09589954e-03,
       -7.08971918e-03, -7.43164355e-03, 1.02492450e-02, -5.26244054e-03,
       5.38078789e-03, 4.92812647e-03, 4.14729677e-03, 5.84852695e-03,
       -5.38652297e-03, -3.95688182e-03, -6.44807098e-03,
       -5.20605943e-04, -7.08128372e-03, 8.88908166e-04, -3.43719404e-03,
       1.64558820e-03, 3.28255491e-03, -4.58414853e-03, -5.39711677e-03,
       -2.63637025e-03, 2.24848161e-03, -4.94789332e-03, 4.25938005e-03,
       1.08047307e-03, 1.00435165e-03, 7.04505597e-04, -2.37230537e-03,
       -5.29276300e-03, -2.81404704e-03, -1.98308541e-03,
       -4.60684067e-03, 1.08125573e-02, 5.61939960e-04, -7.25006903e-05,
       2.15140195e-03, -4.09599580e-03, -7.53832748e-03, 1.03011832e-03,
       1.31799225e-02, 8.06911103e-03, 1.36767980e-02, 5.11480449e-03,
       2.09454936e-03, 6.36472693e-03, -7.26578664e-03, -1.34177944e-02,
       -3.52494698e-03, 7.61259953e-03, 1.02320674e-03, 9.65981185e-03,
       -3.34431347e-03, -5.42031229e-03, -6.00297051e-03, 7.64267007e-03,
       3.68570397e-03, 7.85457529e-03, 8.18838738e-03, 1.85166404e-03,
       7.37891719e-03, 1.93603709e-03, -4.51034051e-04, 2.07063137e-03,
       5.00117755e-03, -2.51569343e-03, 1.66647427e-03, 1.29057758e-03,
       -1.26033900e-02, -2.61601526e-03, -2.19341670e-03, 3.30507319e-04,
       2.38194061e-03, -1.95355574e-03, -8.40479415e-03, 1.70853175e-03,
       7.85007700e-03, 6.14745251e-04, 3.98126431e-03, -1.87109376e-03,
       -5.32796560e-03, -3.13623855e-03, -4.08076914e-03,
       -1.51772564e-02, -6.19734591e-03, -7.43827608e-04,
       -5.28822141e-03, -1.39252341e-03, -2.41692620e-03,
       -3.54211079e-03, -5.65983355e-04, 1.80533447e-03, 1.73521915e-03,
       2.89926911e-03, 5.12082735e-03, -5.57094696e-04, 7.38015492e-03,
       4.08445904e-03, 2.38293177e-03, 1.75654097e-03, -4.42012632e-03,
       -6.77445380e-04, -3.13270907e-03, -7.53993634e-04,
       -6.64960098e-05, 6.09916169e-03, -3.06029967e-03, -1.57058286e-03,
       -4.40874835e-03, 3.25477147e-03, -3.60900466e-03, 4.34473995e-03,
       6.29788404e-03, -2.62099231e-04, 2.23389664e-03, 7.11414265e-04,
       1.46396644e-03, 4.36097523e-03, -5.12208231e-03, -9.12245479e-04,
       -4.87095071e-03, -1.21155579e-04, 3.07709980e-03, 4.47559450e-03,
       -2.56054988e-03, 3.29204166e-04, -7.64730014e-03, -2.02159816e-03,
       6.27242669e-04, -7.33854715e-04, 1.77959783e-03, 1.05324183e-02,
       6.56025391e-03, -1.78849325e-03, 2.18869936e-05, 5.20916563e-03,
       -1.30098691e-04, -4.72645881e-03, -1.58635085e-03,
       -6.74285553e-03, -3.83991137e-04, 1.02259347e-03, -2.94751534e-03,
       2.25188280e-03, 5.04104747e-03, -3.93377757e-03, 1.60852075e-03,
       -2.57155928e-03, 7.09538395e-03, 1.06068458e-02, 4.70350683e-03,
       -8.00692669e-06, 5.31832746e-04, -4.72496031e-03, -2.94820080e-03,
       -4.17072186e-03, 2.37937202e-03, 3.54994391e-03, 5.96975966e-04,
       1.28662551e-03, 8.69290889e-05, 4.12222743e-03, -2.58895219e-03,
       3.05378722e-04, -3.69897787e-03, 1.16943277e-03, -3.53505951e-03,
       -7.72760436e-03, -1.36236032e-03, -1.49885972e-03, 3.06735490e-03,
       5.37283486e-03, -9.47062654e-05, -5.46453241e-03, 5.66413812e-03,
       2.30688252e-03, -4.12023393e-03, -3.05686682e-03, -4.66987770e-03,
       -2.00165156e-03, 4.32513421e-03, 3.00561136e-04, 1.65961403e-03,
       7.00648781e-03, 1.72719825e-03, -3.70391505e-03, 8.57288367e-04,
       2.02246802e-03, 1.30169967e-03, 8.36153486e-05, -3.06529552e-03,
       3.69949383e-03, 9.26353224e-03, 9.98126576e-04, -6.28123572e-03,
       4.06878581e-03, 1.40149542e-03, 4.02470678e-03, 1.19520607e-03,
       -4.66692401e-03, -4.32612142e-03, 1.78840745e-03, 3.01419618e-03,
       -2.37267790e-03, 1.60439056e-03, -2.57268571e-03, -3.42126703e-03,
       1.15575043e-04, -9.35488380e-03, -3.48902587e-03, 5.03396383e-04,
       2.32682491e-04, 4.38967813e-03, 7.78268324e-04, 1.68080162e-03,
       3.20501369e-03, -2.14930600e-03, -7.83192832e-03, 2.00336799e-03,
       3.57611151e-03, 3.60473571e-03, -1.13716186e-03, 6.57837791e-03,
       1.47578900e-03, -1.38633337e-03, -3.40026477e-03, -7.98893720e-03,
       1.79058942e-03, -4.46445076e-03, -8.36520339e-04, 2.68368109e-04,
       6.82078861e-03, 2.44535180e-03, 5.61904581e-03, 2.05791066e-03,
       -7.57739693e-03, -5.96858235e-03, -4.75941319e-03, 2.91007891e-04,
       -1.75323442e-03, -2.75240373e-03, -2.58941296e-03, 3.18272947e-03,
       -3.07519746e-04, 1.27244066e-03, 1.34849607e-03, -5.89248165e-03,
       -5.56665799e-03, -3.51270172e-03, 2.81119905e-03, -5.74328238e-03,
       2.84325052e-03, -6.69716042e-04, -2.08371505e-03, 5.72316581e-03,
       -2.33470090e-03, 3.74840747e-04, -9.35845426e-04, 4.64176387e-03,
       -4.54602484e-03, -5.20181889e-03, -1.84531522e-03, 1.29428320e-03,
       1.19223623e-02, 3.97346960e-03, -4.97050409e-04, -7.10422697e-04,
       8.78429040e-04, -8.40023533e-03, -4.46066260e-03, -2.19293009e-03,
       3.12873698e-03, 4.18043276e-03, 3.02349008e-03, -2.22283299e-03,
       3.74319311e-03, 7.64059834e-04, -2.51522847e-03, -3.65720107e-03,
       -1.68373063e-03, 3.43300775e-03, 1.40959513e-03, -5.48209902e-03,
       -5.61363949e-03, -6.48871250e-03, 2.08613998e-03, -2.08998192e-03,
       2.43297149e-03, 3.64749227e-03, 7.73986278e-04, -2.04763422e-03,
       1.66267972e-03, -3.37140256e-04, 5.23083704e-03, -3.81191215e-03,
       -6.11431105e-03, -6.77783648e-03, -5.93360339e-04, 1.03218546e-02,
       -7.19801662e-03, -1.36979399e-02, -6.83731353e-03,
       -8.86850618e-03, -2.97637167e-03, -2.28802068e-03,
       -2.34085997e-03, 1.12722935e-02, 2.16965540e-03, -2.48700875e-04,
       -2.05240562e-03, -4.89865011e-03, 1.19358196e-03, 4.60180512e-04,
       -4.63757338e-03, 1.46450114e-03, 6.90908777e-03, -1.10953348e-03,
       3.55602219e-03, 2.37756968e-03, -7.52537698e-03, -1.39517389e-04,
       -4.18973109e-03, -6.50220923e-03, -3.39970016e-03, 3.24273179e-03,
       1.26670050e-02, -4.84641595e-03, -4.56653582e-03, -8.59384891e-03,
       -1.64329098e-03, 1.05072488e-03, -7.05042854e-04, 7.64448661e-04,
       1.29217077e-02, -1.45768674e-04, -9.77854617e-03, 4.72246204e-03,
       5.11578750e-03, -2.85180256e-04, -8.20142683e-04, 4.39309115e-05,
       -7.62709533e-04, 8.43997393e-03, -3.54197575e-04, 3.55151162e-04,
       -4.33959719e-03, -6.22964790e-03, -4.05300641e-03,
       -2.84439605e-03, 2.21325597e-03, -2.46378779e-03, 4.43594856e-03,
       5.23339550e-05, -4.63600227e-05, -4.59887524e-04, -5.28272800e-03,
       -6.82751555e-03, -1.87599449e-03, 4.13351273e-03, -2.09905487e-03,
       1.84360705e-03, -3.16313468e-03, -9.38161463e-03, -3.46564082e-03,
       2.30176095e-03, -7.47732027e-03, -2.66973348e-03, 4.87675238e-03,
       2.60392996e-03, 6.34336052e-03, 8.89910106e-03, 1.46210159e-03,
       7.24744808e-04, -4.05989995e-04, -1.06771402e-02, 2.25284533e-03,
       4.52992739e-03, -1.94550696e-04, 8.86070915e-03, -2.17075134e-03,
       -1.03697530e-03, -1.99789368e-03, 2.09899037e-03, -3.34144267e-03,
       1.97667815e-03, 2.74214661e-03, -1.55138900e-03, -1.51109241e-03,
       -1.48619490e-03, 1.77577196e-03, -4.59622592e-03, -9.27158445e-03,
       -6.32130541e-03, 2.81840540e-03, 3.47645208e-03, 1.72059707e-04,
       1.37032254e-03, 1.37553588e-02, 6.63756346e-03, 7.27498624e-03,
       6.09114347e-03, -2.69297045e-03, 6.03467459e-03, -3.44211631e-03,
       -3.06508620e-03, 9.11444332e-03, 6.54628826e-03, 8.82417895e-03,
       1.56854987e-02, 7.16938265e-03, -2.83514359e-03, 3.12380202e-04,
       -2.95256102e-03, -4.19171434e-03, -5.41879235e-05,
       -6.81632292e-03, 2.21378775e-03, 1.02291605e-03, -6.12939056e-03,
       -1.43172231e-03, -2.19141584e-05, 1.46709976e-03, -1.11548323e-03,
       -1.73307781e-03, -4.78178915e-03, 3.79700237e-03, 2.83015845e-03,
       -1.02602746e-02, -3.21542425e-03, -9.95866023e-03,
       -6.69370685e-03, 2.22836155e-03, -2.73336330e-03, -2.86471262e-03,
       6.51271874e-03, 1.12865865e-02, 1.01141091e-02, 3.23585677e-03,
       1.79067370e-03, 1.80938921e-03, 5.57499565e-03, 1.80985208e-03,
       3.56379896e-03, 1.22780250e-02, 7.45860441e-03, 1.42780668e-03,
       5.17659541e-03, -5.17847016e-03, -1.70123286e-03, 1.16327833e-02,
       5.10218646e-03, -3.60250752e-03, -1.12025209e-05, 2.45745084e-03,
       -4.17805417e-03, 3.57748894e-03, -8.62546545e-03, -2.40837783e-03,
       4.70456807e-03, -2.29190756e-03, -3.19053628e-03, 5.29141456e-04,
       8.58939165e-05, -2.10040691e-03, 5.82648814e-03, -1.07743940e-03,
       -4.71779174e-04, 1.97329209e-03, 3.90222180e-03, 9.07922070e-03,
       7.52145192e-03, 4.22718283e-03, -3.10529605e-03, 3.73102841e-03,
       -7.82039016e-03, 1.29057001e-03, 8.51181615e-03, 1.38243788e-03,
       1.13221593e-02, 1.08165424e-02, 3.93734872e-03, -3.47054680e-03,
       7.09928013e-03, -5.59330964e-03, -2.83445744e-03, 7.73398846e-04,
       4.35818918e-03, -5.14619658e-03, 3.51163652e-03, 2.18647392e-03,
       -3.55586433e-03, -6.44719414e-03, -1.56546070e-03, 2.41105168e-04,
       1.43866998e-03, 4.64789150e-03, 1.78481394e-03, 4.57127066e-03,
       4.62241750e-03, -2.52149254e-03, -2.84443796e-03, -8.20913934e-04,
       -2.38158882e-05, 2.62985169e-03, -4.10606823e-04, 6.19238475e-03,
       9.36125591e-03, 1.74693880e-03, -9.78866406e-03, -2.46886630e-04,
       -9.69199406e-04, -4.55013418e-04, 3.08311102e-03, 5.65575762e-03,
       8.88340548e-03, 1.03740161e-02, 6.45501167e-03, -2.03270256e-03,
       2.79944367e-03, 1.76937727e-03, 1.74531620e-03, 2.82280124e-03,
       8.46067537e-03, 2.07551918e-03, -8.79902800e-04, 1.84116256e-03,
       -4.82239621e-03, -9.86533333e-03, -5.08154975e-03, 5.55162143e-04,
       9.34806711e-04, 4.42006905e-03, 3.07614985e-03, -5.32886758e-03,
       -2.95378850e-05, 1.15965195e-04, -1.57181383e-03, 3.39358160e-03,
       5.95713314e-03, 2.14519561e-03, 8.63951165e-03, 7.12089520e-03,
       5.17934375e-03, 5.72015392e-03, -1.31919922e-03, -1.56157452e-03,
       -2.10316642e-03, -4.31190594e-04, -2.68058362e-03, 5.93248988e-03,
       2.41387053e-03, 9.04110319e-04, 7.34557456e-04, 2.47649779e-03,
       1.01166335e-03, 4.73936833e-03, 4.86627780e-03, 5.95111819e-03,
       6.45406172e-03, -2.99337646e-03, -2.59162998e-03, 3.92313953e-03,
       4.17242618e-03, -1.92296389e-03, -1.73712242e-03, 4.20077983e-03,
       4.01233835e-03, 4.46561351e-03, -5.32262772e-03, -2.93850270e-03,
       2.97961547e-03, 4.04789764e-03, -2.12108600e-03, 4.92588697e-05,
       5.75634185e-03, 3.01444763e-03, 2.55000195e-03, -2.68123532e-03,
       -2.64061149e-03, -3.04332562e-03, -1.81653968e-03,
       -3.82287032e-03, 3.60956299e-04, 5.54288179e-03, 2.77189561e-03,
       4.70227050e-03, -1.37533166e-03, 8.65015574e-03, 8.86245258e-03,
       3.70713999e-04, -2.85887579e-03, 8.23547074e-04, 9.13533662e-03,
       -4.75612888e-03, 4.65409597e-03, -9.52585135e-03, -5.02272695e-03,
       -1.27033482e-03, 7.53487751e-04, 5.02617611e-03, 6.77357102e-03,
       3.11975065e-03, -4.86659817e-03, -4.06614132e-03, -1.08829690e-02,
       -4.83068125e-03, 4.67701815e-04, -5.33750281e-03, -1.87652570e-03,
       5.61051909e-03, 1.06607722e-02, 5.58345905e-03, 1.04645803e-03,
       -5.76960994e-03, 3.86603922e-03, 4.97692218e-03, -5.45197516e-04,
       3.32690938e-03, 5.50508557e-04, 4.67797788e-03, -8.78665689e-03,
       3.55056510e-03, -2.68144161e-03, -1.49771455e-03, 3.17202485e-03,
       -3.33085284e-03, 6.27375348e-03, 1.23519416e-03, 9.70401987e-03,
       1.07226791e-02, 6.28141779e-03, -2.04342371e-03, 1.08515949e-03,
       -2.88008619e-03, 3.71729257e-05, 1.05597293e-02, 3.02456506e-03,
       -3.11135431e-03, 2.43734824e-03, -7.11549190e-04, 4.60967887e-03,
       8.62212852e-03, -4.49197338e-04, 6.51061442e-03, 5.72345639e-03,
       5.16808685e-03, 2.47928989e-03, -1.55222311e-03, -7.13885901e-03,
       5.89346746e-03, 1.60016655e-03, -1.00301777e-03, -6.18022261e-03,
       -1.37001777e-03, -2.76496331e-03, -2.83845165e-03,
       -1.87082933e-05, 3.65461526e-03, 3.10147821e-04, 3.37079423e-03,
       1.01355443e-04, 2.96728406e-03, 2.47000926e-03, -4.11632098e-03,
       -4.53273207e-03, -7.69709656e-03, -3.54614737e-03, 7.87159428e-03,
       8.63293931e-03, -8.96160305e-03, 6.47710767e-05, 6.48828410e-03,
       2.66986503e-03, -1.81605387e-03, -9.68590379e-04, -7.50976847e-04,
       4.18687286e-03, 1.11369230e-03, -1.29155833e-02, 1.12532137e-03,
       2.17980309e-03, 8.31597857e-03, -3.44679202e-03, 5.04695345e-03,
       2.39685830e-03, -9.04507644e-04, 2.40568607e-03, -5.26358932e-03,
       -1.54941203e-03, 6.60003163e-03, -9.95961600e-05, 1.35943363e-03,
       -2.37596082e-03, -1.60941563e-03, 6.30872964e-04, -1.31380721e-03,
       -7.90143479e-03, 4.86420188e-03, 1.02650346e-02, 1.34082269e-02,
       4.09767451e-03, 3.54340230e-03, 3.16293864e-03, -2.39676028e-03,
       -7.10700033e-03, -6.70675235e-03, 5.90907130e-03, 1.08300345e-02,
       1.01568662e-02, -7.50974240e-03, -5.30568883e-03, -4.12042858e-03,
       -5.50060719e-03, -5.24909468e-03, 2.16747588e-03, 3.80700477e-03,
       2.44739698e-03, 1.41295623e-02, 1.39588630e-03, -3.75216804e-03,
       -1.07565839e-02, -3.64344189e-04, -5.92715014e-03,
       -1.46222357e-02, -3.43003054e-03, 3.78629542e-03, 1.43877678e-02,
       -3.61482380e-03, -6.38717320e-03, -6.01893989e-03,
       -4.49622050e-03, -7.26663182e-03, -1.92427647e-03, 3.13039217e-03,
       7.12445064e-04, 1.00347912e-02, -5.42618148e-03, -4.38695773e-03,
       -7.05717830e-03, -4.45298338e-03, -4.67173243e-03, 5.20212529e-03,
       6.84022252e-03, -9.30967554e-03, 5.18734509e-04, -6.05652155e-03,
       -4.34885314e-03, -4.79241414e-03, 3.71904374e-04, -2.27318075e-03,
       6.84345188e-03, 9.64134088e-05, 2.17640330e-03, 7.10886437e-03,
       1.24933908e-03, -2.00646138e-03, 2.53333733e-03, -2.27441988e-03,
       -9.04107187e-03, 6.79776585e-03, 9.26676206e-03, -4.87044966e-03,
       1.09565514e-03, -8.22041836e-03, -4.96538030e-03, 1.12842082e-03,
       3.65218637e-03, -1.24532566e-03, 9.63880494e-03, 7.50120031e-03,
       8.78819358e-03, 1.09984190e-03, 4.20293165e-03, -5.40755969e-03,
       2.43712077e-03, 1.76673359e-03, -7.02317385e-03, -8.16153828e-03,
       -3.53295542e-03, 4.73426795e-03, 2.56056315e-03, -3.45674274e-03,
       -2.60835141e-03, 6.03395561e-03, 5.37357386e-03, -1.20345596e-02,
       -1.72887482e-02, -6.58946158e-03, -1.61347806e-03,
       -1.07061653e-03, -1.86816871e-03, 1.37224153e-03, 9.82616562e-03,
       1.62580889e-03, -6.87345688e-04, -3.18155647e-03, 3.75602185e-03,
       1.37101980e-02, 4.36768960e-03, -2.54335487e-03, -7.62838498e-03,
       -1.01329677e-03, 1.34283910e-03, -9.77300666e-03, -1.41102048e-02,
       -5.83001063e-04, 4.33464581e-03, 8.49475968e-04, -6.37238286e-03,
       -5.35666943e-03, 5.86900860e-04, 2.53003789e-03, -9.29433201e-03,
       -1.03637539e-02, 4.65440750e-03, -6.72773051e-04, 2.26270594e-03,
       -3.89287667e-03, 2.05727550e-03, 7.88882654e-03, -1.45298941e-03,
       -5.01649641e-03, -4.72785532e-03, -3.68395983e-03, 1.15562184e-03,
       6.39281888e-03, -1.89966720e-03, 8.00183788e-03, 7.84462970e-03,
       1.65547268e-03, -8.47121142e-03, -1.18901255e-02, -2.69087078e-03,
       6.75026281e-03, 9.95791610e-03, -2.41613318e-03, -6.27654517e-05,
       2.88211741e-03, 1.87245396e-03, -7.35355401e-03, -6.82925712e-03,
       -1.01511898e-02, 4.71580820e-03, 1.03080990e-02, 4.21684282e-03,
       2.53660302e-03, 2.80967401e-03, -1.71626976e-03, -1.11640356e-02,
       -1.63595891e-03, 8.99796933e-03, 9.72892158e-03, 1.58610549e-02,
       4.30768030e-03, 5.41030848e-03, 6.18426921e-03, -5.81885502e-03,
       -1.23525215e-02, -7.19795469e-03, 8.47639330e-03, -1.17854390e-03,
       -1.31680048e-03, -8.94755870e-03, -9.31856036e-03,
       -5.93677023e-03, 2.83772079e-03, -7.32198032e-03, -7.17562577e-03,
       1.57362723e-03, 1.25472033e-02, 1.86892748e-02, 3.02564027e-03,
       4.63919854e-03, 5.22325374e-03, -8.52824829e-04, -9.12048947e-03,
       -1.23096043e-02, -1.42519339e-03, -4.19044495e-03,
       -2.75617139e-03, -9.88899264e-03, -4.64112312e-03, 3.56527831e-04,
       2.85204197e-03, -3.12102376e-03, 2.70754192e-03, 1.40026389e-02,
       7.05237687e-03, 6.62849424e-03, 3.84833338e-03, -4.45007067e-03,
       -3.03767645e-03, 1.34076376e-03, -8.24111421e-03, -8.46855808e-03,
       1.39663985e-03, -3.00240982e-03, -3.97005118e-04, -3.82065470e-03,
       -3.30628827e-03, -1.24710088e-03, 2.12535379e-03, 1.98898278e-03,
       3.25221149e-03, 8.23749602e-03, 7.19509134e-03, 4.24249796e-03,
       3.37052834e-03, -2.97725480e-03, -4.38458566e-03, 1.80684135e-03,
       -7.21818244e-04, -9.04837623e-03, -1.42329466e-03,
       -3.67822614e-03, -4.21307096e-03, -3.09961499e-03,
       -9.29574389e-03, -5.15307672e-03, 5.33613050e-03, -1.51023478e-03,
       4.66440339e-03, 7.66787399e-03, -1.23152067e-03, -3.96921160e-03,
       -6.16549049e-03, -2.91208830e-03, 4.23239358e-03, -1.42188894e-03,
       1.61741604e-03, 3.66866169e-03, 2.40910123e-03, -2.81576510e-03,
       -5.11754258e-03, -5.82629722e-03, -3.27141932e-03,
       -2.90146447e-03, 9.39713512e-03, 9.17988271e-03, 8.76526581e-04,
       -1.06307352e-03, -2.23781075e-03, -4.93607018e-03,
       -6.28880225e-03, -1.12868724e-02, 4.50768927e-03, 7.93193746e-03,
       7.11637270e-03, 3.59472097e-03, -2.50545854e-04, 5.04994951e-03,
       -1.76629773e-03, -1.54754973e-03, -5.66651626e-03, 5.21708466e-03,
       -5.74946357e-03, 2.57369550e-03, 4.18814225e-03, 8.17413442e-03,
       4.26199287e-03, -4.30825283e-04, -8.67438212e-04, -2.97208177e-03,
       -3.65144270e-03, -2.60058092e-04, -6.28710914e-05, 3.63687868e-03,
       -1.10615871e-03, -3.76501027e-03, -9.35187098e-03,
       -2.96716121e-06, -1.14067283e-03, 5.38054504e-04, -3.42536106e-04,
       9.86908469e-03, 1.40779400e-02, 6.05245307e-03, 3.63670196e-03,
       -3.35516036e-03, 2.48825271e-03, -3.45130730e-03, 1.94458116e-03,
       -5.50285331e-04, 2.89043947e-03, 1.50683997e-02, 3.58603685e-03,
       -5.70975104e-03, -1.09666064e-02, -1.20326260e-03,
       -5.38227148e-03, -5.03218547e-03, 1.79663196e-03, 3.49372858e-03,
       4.60863067e-03, -1.36403323e-04, -6.42610295e-03, -1.43221719e-03,
       5.42680128e-03, 3.12062516e-03, 5.59390103e-03, -2.45021819e-03,
       -2.35686963e-03, 3.80848954e-03, 1.15972210e-03, -7.98957143e-03,
       7.79664563e-03, 7.04340963e-03, 4.77899192e-03, 1.43402256e-03,
       4.06938256e-04, 5.28989476e-04, 6.97970949e-03, -1.18023821e-03,
       -6.27916679e-03, -6.72202697e-03, -1.08356611e-03,
       -1.60253723e-04, 2.92257383e-03, -5.94718091e-04, 1.63679919e-03,
       7.77091458e-03, 5.41418605e-03, 2.59976671e-03, 9.05841868e-03,
       1.89767219e-03, 2.61979550e-03, -2.14476092e-03, -8.26938078e-03,
       -4.88318689e-03, -1.28648928e-04, -1.24035485e-03,
       -5.20387292e-03, 7.67847570e-03, 8.82426649e-03, 1.07316219e-03,
       -6.00279495e-03, -9.07225162e-03, -4.13889298e-03,
       -3.48404841e-03, -1.50780485e-03, -3.91961355e-03, 1.14056626e-02,
       7.36206863e-03, 6.70085894e-03, -1.00521438e-05, -3.14730802e-03,
       -3.07228160e-03, 2.01292546e-03, 2.43128790e-03, 6.16372842e-03,
       7.23414682e-03, 3.03539727e-03, 3.95838032e-03, -5.60504990e-03,
       1.14586158e-03, 6.09447714e-04, -8.03626841e-04, 9.12721828e-03,
       9.68015566e-03, 1.50716724e-02, 9.81074758e-03, 1.15366820e-02,
       5.15888631e-03, -6.61805389e-04, -1.41393009e-03, -2.52811657e-03,
       -3.20070959e-03, -1.48393214e-03, 3.22012301e-03, -4.77396511e-03,
       -5.73709980e-03, -3.14415229e-04, 1.77139638e-03, 7.19856238e-03,
       -1.13013573e-03, -7.47619150e-03, -2.79619824e-03,
       -8.57741165e-04, -3.60207795e-03, -9.29244142e-03,
       -3.21286870e-03, 4.17188741e-03, 2.50550825e-03, 2.31721858e-03,
       7.72254029e-03, 5.65485284e-03, 6.91053597e-03, 2.66389642e-03,
       2.35519814e-03, 2.17184168e-03, 4.25366685e-03, 2.17429060e-03,
       4.83756373e-03, 4.10903152e-03, -4.11617011e-03, -1.61601265e-03,
       -4.38250741e-03, -4.31869971e-03, 4.54939262e-04, 5.09191956e-03,
       7.45202880e-03, 5.76445879e-03, -2.23854231e-03, 4.21697856e-04,
       7.76520814e-04, -4.75756638e-03, -6.36736536e-03, 1.53021386e-03,
       5.35984477e-03, -8.66853807e-04, -3.64422519e-03, -1.50610576e-03,
       -1.83162896e-03, 4.62717982e-03, -2.32443534e-04, -3.95530602e-03,
       5.29421400e-03, 1.07632373e-02, 1.13272360e-02, 9.81747173e-03,
       4.49146004e-03, -7.90464692e-03, -5.04331430e-03, -8.08369275e-03,
       -7.89235905e-03, 4.04833723e-03, 2.32085469e-03, 5.98748541e-03,
       4.66913916e-03, 2.25345418e-03, -7.65043683e-03, -6.04310026e-03,
       -1.12393992e-02, -9.21586528e-03, -6.08812261e-04, 2.78349151e-03,
       -8.14433116e-03, -2.26634787e-03, -5.55714592e-03,
       -1.51144888e-03, 6.96019444e-04, 3.06150131e-03, -3.71789036e-04,
       3.90084437e-03, 5.82354143e-04, -1.20747024e-02, 3.42122023e-03,
       4.40043164e-03, 9.88250715e-04, -6.90445653e-04, 6.77134795e-03,
       1.35372940e-03, 7.17651146e-03, -4.47963085e-03, -6.26072288e-03,
       2.43382226e-03, -8.39178218e-04, -1.98236946e-03, -1.04541322e-02,
       -4.15175408e-03, -3.72523232e-03, -1.27354090e-03,
       -1.86904974e-03, -5.05711650e-04, 8.86102766e-03, 8.25889967e-03,
       1.28914439e-03, -3.07312468e-03, 4.05357778e-03, -4.29382827e-03,
       9.98663949e-04, -5.92660205e-03, -3.91983846e-03, 3.83114384e-04,
       7.12156389e-03, -2.24985671e-03, 1.58880558e-03, 5.82800480e-03,
       5.10949641e-04, 1.02653436e-03, 6.66597346e-03, 6.53122738e-03,
       -6.73138638e-05, -2.78801727e-03, -2.03689327e-03,
       -4.87917132e-04, 2.31586536e-03, 9.22881125e-04, 2.00949144e-03,
       -1.23527588e-03, 6.82896562e-03, 2.03359942e-03, 2.73802667e-04,
       5.67627465e-03, 7.76081812e-04, 1.93365046e-03, -3.19853146e-03,
       -2.71838019e-03, 9.02847387e-03, 9.44694411e-03, 1.34806265e-03,
       1.32838031e-05, 9.04863421e-03, -4.12620953e-04, 4.12255712e-03,
       6.46224665e-03, 3.88384890e-03, 5.88237867e-03, 6.98899603e-05,
       -3.81875457e-03, -2.33294908e-03, -6.53027615e-04,
       -1.91927233e-04, -6.16708864e-03, -3.61760613e-03, 1.19212677e-03,
       -1.60196738e-03, 4.81275469e-03, 8.25994927e-03, 7.79718254e-03,
       -2.00097093e-05, -6.92339800e-03, -7.60841928e-03,
       -1.10658687e-02, -3.79925221e-03, 1.58937857e-03, 6.73792511e-03,
       -1.27153995e-03, 2.43190466e-03, 5.13767079e-03, 3.91070265e-04,
       -7.17971358e-04, 3.59392585e-03, 3.54350731e-03, -3.91891785e-03,
       9.20184515e-03, 1.38754407e-02, 1.11168167e-02, 5.53817535e-03,
       -1.33957528e-03, -1.37975940e-03, -4.94183041e-03,
       -7.54627306e-03, -3.99234518e-03, 2.36447738e-03, 4.35470231e-03,
       4.07221867e-03, -7.53909873e-04, -4.57704300e-03, -3.47883045e-03,
       -2.95040500e-03, -2.46502133e-03, 7.14989705e-03, 5.98989241e-03,
       2.59882817e-03, -8.06478690e-03, -8.55210796e-03, -9.91598330e-03,
       -6.50290912e-03, 1.24762626e-03, 3.61792813e-03, 3.20826005e-03,
       1.19085042e-02, 1.65497214e-02, -6.35826553e-04, -2.55865394e-03,
       -1.40879897e-03, -2.13153521e-03, -4.25552903e-03,
       -6.90906728e-03, 1.53082395e-02, 2.15334632e-02, 4.03404096e-03,
       -1.40739302e-03, -5.15859667e-03, -3.22741852e-03,
       -1.97335333e-03, -2.64133140e-03, 9.08217952e-03, 4.54069953e-03,
       -1.42568303e-03, -5.05867042e-03, -1.07461233e-02,
       -1.19107543e-02, -1.00230677e-02, -2.86828121e-03, 2.90419586e-04,
       -8.33505590e-04, 6.43939571e-03, -1.93924096e-03, -1.19371656e-02,
       -1.24291768e-02, -6.15964225e-03, -1.42052548e-03, 1.66361814e-03,
       -6.00910338e-04, 1.03724154e-03, 1.28085921e-02, 9.80830379e-03,
       1.59481855e-03, -2.71029864e-03, -6.67938497e-03, -2.26622005e-03,
       2.12012255e-03, 2.32582050e-03, 1.18662259e-02, 9.75549780e-03,
       3.73252318e-03, 3.92086338e-03, 7.94939639e-04, -2.56549101e-03,
       5.22773247e-03, 8.01353622e-03, 5.07898629e-03, 7.68105499e-03,
       3.82695394e-03, 2.63618841e-03, -7.41260964e-03, -1.34870214e-02,
       -6.24865480e-03, -8.77737883e-04, 9.51638271e-04, 5.79106912e-04,
       4.12920164e-03, 4.06414358e-04, -9.87192732e-04, -7.26610329e-03,
       -1.07708676e-02, 2.96076003e-04, -1.83931959e-03, -2.58883508e-03,
       -1.28617961e-04, 1.89845578e-03, 4.18283045e-03, 5.91516774e-03,
       5.20162145e-03, -4.75275191e-03, -5.55132981e-03, -2.94398237e-03,
       2.51284684e-03, 7.04542501e-03, 1.02042342e-02, 3.97295589e-05,
       9.06309392e-03, 5.27530583e-03, -6.81165280e-03, 5.54202683e-03,
       4.37325705e-03, -4.33677109e-03, 4.48638806e-03, 7.32956268e-03,
       2.75958702e-03, 4.15152841e-04, 2.00072746e-03, -5.57328900e-03,
       2.68553151e-03, -7.77543930e-04, -3.00833327e-03, -2.24455865e-03,
       8.32362159e-04, -9.05721635e-03, -5.59423165e-03, -1.91171619e-03,
       2.19398132e-03, -1.15145172e-03, 2.67894822e-03, 3.67201120e-03,
       -2.45907297e-03, -4.83174343e-03, 6.42197859e-03, 9.32312850e-03,
       9.07112658e-03, -3.44359525e-03, 1.90832093e-03, -6.22056192e-04,
       -2.08680867e-03, 3.29886284e-03, 6.69663306e-03, -1.81844959e-03,
       1.08027004e-03, 6.31252187e-04, 2.58109090e-03, 8.80122464e-03,
       2.26791389e-03, 1.43959979e-02, 2.06599711e-03, 1.10732310e-03,
       -7.98218884e-03, -6.95419591e-03, -1.38912431e-03,
       -2.16158689e-03, -5.97401196e-03, -2.75194296e-03, 4.93421161e-04,
       -6.96851453e-03, -1.04601565e-03, -2.65219179e-03, 2.24447902e-03,
       7.42564304e-03, 7.06418417e-03, -2.12336099e-03, -2.53472757e-03,
       1.53494813e-03, -5.79071557e-03, 7.46225799e-03, -2.49370351e-03,
       -2.44437106e-04, 3.98980733e-03, -3.13898607e-04, 7.99354631e-03,
       -2.14456115e-03, 1.06410291e-02, 5.34152205e-04, -1.02300895e-03,
       2.40365369e-03, 4.75614239e-03, 1.14139561e-02, 6.15892420e-03,
       6.14911318e-03, -2.17307615e-03, 4.84300219e-03, -7.75668286e-06,
       6.10733172e-03, -9.94772371e-03, -4.21336433e-03, 3.46582849e-03,
       4.18586517e-03, 3.06910393e-03, -7.00045191e-03, -2.56350660e-03,
       -1.29797845e-03, 1.10497494e-04, -1.17542725e-02, -6.96531637e-03,
       4.84941574e-03, 3.49607016e-03, 6.19535008e-03, 2.54905364e-03,
       6.38704933e-03, 1.03361951e-02, -1.30002410e-03, -1.11947756e-03,
       -6.54739793e-03, 3.19906487e-03, 4.30320762e-03, 1.05741760e-03,
       -2.28150631e-03, -2.15297495e-03, 3.23362765e-03, 8.59521795e-04,
       -6.06503990e-03, -6.12008059e-03, 3.42271943e-03, 3.61298473e-04,
       4.67223069e-03, 7.79704843e-03, 5.32678096e-03, 6.79313252e-03,
       -4.82320262e-04, 4.12841793e-03, 3.39370547e-03, -1.07884477e-03,
       -4.21560695e-03, -1.17080696e-02, -3.57725704e-03, 1.91981686e-04,
       3.69290821e-03, 7.23806967e-04, -1.05706335e-03, 4.74291109e-03,
       7.58078357e-04, -1.78152652e-04, 2.61493609e-03, 6.33992022e-03,
       -2.50960351e-03, -3.49059631e-03, -2.28137686e-03,
       -2.66691134e-03, 7.21416064e-03, -2.09208476e-04, -6.70341961e-03,
       -5.84089570e-03, 9.64957196e-03, 3.36556882e-03, 3.56564182e-03,
       -2.94351182e-03, -2.13437132e-03, 1.00371856e-02, 4.00796253e-03,
       2.76116421e-03, -3.20927866e-05, 4.47478052e-03, -1.03521300e-03,
       -1.18146290e-03, -4.83730482e-03, -3.79718584e-03, 1.87897030e-03,
       -3.24893603e-03, 1.40958844e-06, 1.03205815e-02, 2.78383540e-03,
       -3.49548040e-03, -2.96059414e-03, -7.13629462e-03,
       -5.70714194e-03, -1.90372986e-03, -3.64835281e-03, 1.10349839e-03,
       7.65123870e-03, 4.76303417e-03, 4.28029336e-03, 1.87267945e-03,
       -5.63685317e-03, 3.71767953e-03, 8.37505423e-03, 1.35817169e-03,
       1.90679124e-03, 1.82573649e-03, 1.47975388e-03, -5.07663796e-03,
       -4.40929225e-03, -3.48516041e-03, 1.39510375e-03, 4.97361273e-03,
       2.66205007e-03, -6.58591307e-05, 3.69433104e-03, 2.51193019e-03,
       -1.45714637e-03, -3.46088153e-03, -2.87373411e-03,
       -4.57370421e-03, -4.40016715e-03, -1.39019992e-02,
       -1.51018538e-02, 3.96123715e-03, 1.63275134e-02, 1.73459074e-03,
       -2.20765220e-03, -6.39658840e-03, -6.00084849e-03,
       -7.39163021e-03, -3.06534092e-03, -7.76722969e-04, 6.85459375e-03,
       1.71068572e-02, -3.42229847e-04, 6.43938984e-05, -6.79559726e-03,
       -7.82216527e-03, -5.55479480e-03, -8.85024387e-03,
       -1.34010101e-02, 4.42349678e-03, 1.00647621e-02, 3.43745039e-03,
       -3.93872755e-03, -7.95155950e-03, -1.02809947e-02,
       -1.17741050e-02, -1.32866958e-02, -7.97232054e-03, 1.95709802e-03,
       7.58721028e-03, 4.21813549e-03, 2.01908033e-03, -6.56245975e-03,
       -2.41970457e-03, -8.70912801e-03, 1.46082172e-03, 6.59228256e-03,
       -9.29948874e-04, 5.21080149e-03, -7.67971389e-03, -3.60212266e-03,
       2.71946378e-03, 1.70932020e-04, -5.57417981e-03, 3.97566473e-03,
       1.17023597e-02, 7.75669655e-03, 8.14279541e-04, 2.57875025e-03,
       2.56466272e-04, 1.30644324e-03, -3.11109680e-03, -8.28528125e-03,
       -8.80829245e-03, -6.45890320e-03, -3.72691290e-03, 1.68383273e-03,
       -1.53935596e-03, -7.31206173e-03, 9.26520806e-05, 4.16608481e-03,
       -3.23608913e-03, 6.62472739e-05, -1.18075067e-03, -1.98746636e-03,
       -2.54023034e-04, 6.02624891e-03, 2.71502184e-03, 7.08854059e-03,
       -8.42354086e-04, -1.16904895e-03, -3.54322582e-03, 5.20106265e-03,
       8.33047647e-03, 2.36745924e-03, -3.29701253e-03, -6.13985676e-03,
       -7.62218202e-04, -7.61124631e-03, -5.58288209e-03,
       -6.09494606e-03, 5.11177722e-03, 9.52490699e-03, 7.83114415e-03,
       -7.61297066e-03, -5.10978932e-03, -4.44319285e-03, 3.47543135e-03,
       -3.63513333e-04, -3.51258856e-03, -1.22856000e-03,
       -3.33850761e-03, 9.48225555e-04, 2.40793475e-03, -7.76560919e-04,
       4.75682272e-03, 2.73039634e-03, 2.65395641e-03, -4.96920291e-03,
       -1.06055115e-03, 5.07504120e-03, 6.12557912e-03, -5.05512720e-03,
       -2.16499786e-03, 5.19575598e-03, -1.68581563e-03, -3.18364846e-03,
       2.77329236e-04, 1.52828160e-03, 5.71217434e-03, 1.48883266e-02,
       3.42323969e-04, -5.13415644e-03, -3.36606428e-03, 3.41891102e-03,
       -4.85724164e-03, 3.27449488e-05, -1.32659613e-03, 9.22106206e-03,
       1.18876649e-02, 1.46244536e-03, -6.35787379e-03, -2.74539227e-03,
       4.43477649e-03, 1.26894051e-03, 3.51513328e-04, 2.78968597e-03,
       2.61298777e-03, 1.13475062e-02, 5.02649881e-03, -9.65983316e-04,
       1.56081200e-03, 5.04543632e-03, 1.04632054e-03, -4.35531884e-03,
       3.64570925e-03, 5.48301451e-03, 7.50164874e-03, 7.43295671e-03,
       -2.25729914e-03, 2.38317670e-03, 8.67065694e-03, 4.92841296e-04,
       1.24788098e-03, 1.15800770e-02, 1.29028298e-02, 1.39086833e-02,
       -2.24995427e-03, -1.82429457e-03, 6.15356723e-03, 2.79730855e-04,
       -4.72547673e-03, -8.98695271e-03, -2.41461428e-04, 4.77571040e-03,
       3.71473888e-03, -4.69115097e-03, -3.42340022e-03, 3.00104637e-03,
       8.55592173e-03, 5.53808408e-03, 6.89210463e-03, 1.01296017e-02,
       5.65525098e-03, 2.73292535e-03, -2.34485534e-03, -7.20864628e-03,
       4.32109274e-03, -2.17285636e-03, -1.42916595e-03, -9.68825538e-03,
       -6.92577148e-03, -6.68797502e-03, -1.00233057e-03,
       -5.39458171e-03, -7.34237628e-03, -3.51878046e-03,
       -9.82713653e-04, 2.81266472e-03, 1.92365074e-03, 5.37417363e-03,
       5.85374236e-03, 5.22614550e-03, 2.48011760e-03, 6.65831903e-04,
       8.31116122e-05, -4.49246867e-03, 1.16354029e-03, -9.05095320e-03,
       -1.12294708e-03, -2.46160990e-03, 3.00765410e-03, -1.49737624e-03,
       -2.67989491e-03, -5.36915427e-03, 3.36984294e-06, 9.63946339e-03,
       -1.77340943e-03, -3.60036298e-04, 4.48010443e-03, 1.09048858e-02,
       5.31693688e-03, -3.75683943e-04, -5.25784446e-03, 5.80955180e-04,
       3.43938125e-03, 3.41454055e-03, 4.49189404e-03, -1.30879844e-03,
       6.11622771e-03, 2.61070696e-03, -4.54035681e-03, -8.99055880e-03,
       -2.85544345e-04, 4.20342013e-03, -3.69206304e-03, -4.07387037e-03,
       1.32004195e-03, 4.47356096e-03, -2.41834088e-03, -7.72444066e-03,
       1.07496111e-04, 5.87454019e-03, 7.09504122e-04, -1.52409030e-03,
       -6.34741690e-03, 3.47186928e-03, -2.14733463e-03, 4.04294720e-03,
       -3.90011561e-03, 7.05422740e-03, 2.70885229e-03, 6.43535564e-03,
       8.23776983e-03, 1.33670028e-03, 1.17087644e-03, 2.12694542e-03,
       2.09467160e-03, -4.86924173e-03, -5.73642901e-04, 2.92144413e-03,
       -1.35300448e-03, 3.56186042e-03, -4.19396162e-03, -6.43756706e-03,
       -1.21808974e-02, -4.99939127e-03, -1.09087292e-03, 4.01317142e-03,
       -3.17818951e-03, 9.51112073e-04, 7.93029368e-03, -2.25973581e-05,
       -2.41209543e-03, -2.71786004e-03, 4.49244119e-03, -1.92701409e-03,
       -1.48055993e-03, -9.01347585e-03, -5.00782952e-03, 1.22331176e-02,
       5.45155676e-03, -6.30475022e-03, -8.26083682e-03, -2.20274110e-03,
       -3.80067434e-03, -8.28886591e-03, -2.30018306e-03, 4.68822010e-03,
       1.18382573e-02, 7.01442035e-03, -5.08902501e-03, -5.21513307e-03,
       -1.93663430e-03, -2.32287170e-03, 4.10606626e-05, -1.17164291e-02,
       -3.94385727e-03, 1.12651568e-02, 1.18754702e-02, 2.12880550e-03,
       -7.72981264e-04, -7.40080490e-04, 2.21127499e-04, -5.34833595e-03,
       -4.78796801e-03, -8.21335986e-03, -5.15266438e-04,
       -9.09488663e-05, 2.37820740e-03, -7.78575428e-03, -9.89765744e-04,
       -2.63768714e-03, -1.47610204e-03, -4.12705587e-04,
       -3.00753838e-03, -1.11241860e-03, -2.59245053e-06, 1.38907302e-02,
       3.82674765e-03, -2.07993295e-03, -1.53272343e-03, -4.39539319e-03,
       -6.42895512e-03, -5.59312338e-03, -3.61131947e-03, 3.86239518e-03,
       1.09165255e-02, -2.09688977e-03, 7.75663881e-03, 4.31713415e-03,
       1.19345332e-03, -6.76493626e-03, -6.67088805e-03, -4.31696698e-03,
       3.12420959e-03, 1.55980838e-02, 4.06001054e-04, 6.02934137e-03,
       5.25798928e-03, 4.61373071e-04, -1.40863250e-03, -6.18872466e-03,
       -4.14827140e-03, -6.15035603e-03, 5.31297689e-03, 1.20553782e-03,
       -3.02597228e-03, -4.92221792e-04, -6.50688726e-03, 2.53216410e-03,
       -4.40736720e-03, -2.44039646e-03, -2.39594793e-03,
       -1.11803110e-03, 2.81921297e-04, 2.58248649e-03, 3.34410719e-03,
       -1.58485386e-03, 2.49209325e-03, 7.19759439e-04, 3.16745392e-03,
       -3.71380127e-03, 1.16559817e-02, -4.67279227e-03, -4.54660738e-03,
       -2.90047401e-03, -1.72155851e-03, 1.31988795e-02, 9.32737347e-03,
       6.59842324e-03, 1.08182379e-04, -3.16587486e-03, -6.83558173e-03,
       -2.25351448e-03, -9.56427306e-04, 1.57655997e-03, 1.79928320e-03,
       -4.20999201e-03, -4.05026803e-04, -3.52560612e-03,
       -9.64051019e-03, -3.44384491e-04, 4.47847927e-03, -2.08928017e-03,
       -1.77042151e-03, -1.45813997e-03, -5.16087515e-03,
       -1.21035404e-03, -2.25646235e-03, -8.15775245e-03,
       -2.09186133e-03, -1.36234274e-03, -1.08730746e-02,
       -6.17281534e-03, 4.35786229e-03, 6.91014528e-03, 4.24581487e-03,
       -5.01207728e-03, -9.70370043e-03, -1.94827293e-03, 7.72159034e-03,
       -3.21769912e-04, -2.40812334e-03, -3.96057079e-03, 1.05487695e-03,
       4.35260683e-03, -5.70214633e-03, -8.38183518e-03, 8.24700459e-04,
       7.36857252e-03, -2.90105469e-03, -7.36493897e-03, 4.47794283e-03,
       5.73749607e-03, 3.36496555e-03, 5.17277454e-04, -8.41813628e-03,
       -5.34281647e-03, -1.79130957e-03, -7.22979242e-03,
       -4.02930105e-04, 5.03709423e-04, 5.68006281e-03, 1.54674472e-03,
       -1.53946370e-04, -6.40744111e-03, -6.48718607e-03,
       -1.20433047e-02, -1.41355712e-02, -4.71473532e-03, 3.62214283e-03,
       5.96549967e-03, 7.31876586e-03, -6.46947359e-04, -1.31011556e-03,
       5.14091225e-03, 3.64533556e-03, 5.77700033e-04, -1.44564186e-03,
       -2.87383399e-03, 4.86876117e-03, 3.82167171e-03, 1.97059638e-03,
       3.20504390e-04, -1.27933559e-03, -4.21538716e-04, -2.66313786e-03,
       -9.32706799e-03, -7.50216981e-03, 1.23021170e-03, 1.24865370e-02,
       1.00539473e-03, -2.61703413e-03, -5.03988890e-03, -7.48943258e-03,
       -8.00962932e-03, -3.14132217e-03, -6.16674311e-03, 4.02852288e-03,
       1.29910922e-02, 6.03093952e-03, -1.07584416e-03, 3.94922355e-03,
       9.43545543e-04, 3.57095676e-04, -2.81595951e-03, -5.11082029e-03,
       1.07654538e-02, 1.12200873e-02, -1.15473347e-03, 4.53046930e-04,
       -7.83268269e-03, -5.22245700e-03, -3.33413598e-03,
       -6.80457661e-03, 5.31077094e-04, 1.13886017e-02, 1.62078049e-02,
       1.32834073e-03, -6.22745510e-03, -2.34562159e-03, -9.35841817e-04,
       2.39886483e-03, -6.41068676e-03, -2.92859785e-03, 2.04163278e-03,
       5.63039735e-04, -1.25797116e-03, -7.10407388e-04, 1.05470605e-03,
       -8.03128933e-05, -1.85835554e-04, -6.08811248e-03, 5.52596664e-03,
       4.28881403e-03, -2.50890199e-03, -1.27416139e-03, 2.91792839e-03,
       6.44416723e-04, 2.56220461e-03, 3.56639363e-03, 3.99881369e-03,
       -5.17435023e-04, 9.59846016e-04, 3.87649634e-03, -4.21793852e-03,
       8.37921281e-04, -5.99076739e-04, -4.08222928e-04, -1.35570776e-03,
       -6.05219649e-03, 7.15862820e-03, 1.43627648e-03, -6.02755637e-04,
       9.45115753e-05, 2.26023234e-03, 2.86851544e-03, -1.40714750e-03,
       7.66946177e-04, 3.23302904e-03, -1.71685169e-04, -3.71331815e-04,
       -6.14087190e-03, -2.51904782e-03, -8.20704503e-04, 1.22362340e-04,
       1.28070463e-03, -1.70713814e-03, 1.70300377e-03, -6.09607436e-03,
       4.79806215e-03, 8.30944534e-03, 4.77516977e-03, -6.05765311e-03,
       -3.25763342e-03, -4.22954233e-03, -1.82869218e-04,
       -4.28036181e-03, -3.18479910e-03, -1.05697801e-03, 4.10947064e-03,
       7.51069468e-03, -2.63175636e-04, -2.40425090e-03, -7.56351650e-03,
       -7.11626187e-03, -5.15768537e-03, -4.94986447e-03, 3.58564802e-03,
       1.39404368e-02, 1.64311863e-02, 3.00443568e-03, 6.34283107e-03,
       2.22893246e-03, -4.31305933e-04, -5.51006896e-03, -6.97082002e-03,
       1.35587482e-03, 4.56959038e-04, -5.37839253e-03, -8.35554674e-03,
       -5.35763614e-03, -8.29414930e-03, -3.12937237e-03,
       -8.87522101e-03, 1.71259942e-03, 7.18270848e-03, 1.58853771e-03,
       1.95109448e-03, -9.16401297e-03, -3.08327819e-03, -3.14768800e-03,
       -6.41871104e-03, -8.43163300e-03, -9.91307243e-05, 5.86413220e-03,
       6.16057403e-03, 1.48262782e-02, 4.40733042e-03, 5.78833232e-03,
       -9.12748103e-04, 5.95938321e-03, -7.52671040e-04, 5.59951738e-03,
       7.79341627e-03, 1.21624372e-03, 1.36152077e-02, -1.66567310e-03,
       4.26284038e-03, 7.07182707e-03, 8.15030281e-03, 2.79405387e-03,
       2.07925172e-04, 1.13749108e-03, -2.02704850e-03, 3.43623315e-03,
       -5.04700094e-03, -8.43484304e-04, -8.41474757e-05,
       -4.71785851e-03, -1.07056031e-03, -2.58175260e-03, 1.88949425e-03,
       3.29018896e-03, -1.54113426e-04, -1.15966825e-02, -2.44213152e-03,
       -1.58357457e-03, -6.16492424e-03, -3.51644168e-03, 3.47942486e-03,
       3.50234006e-03, -1.14029390e-03, 1.04682390e-02, 2.68869242e-03,
       2.15809763e-04, 5.29758818e-03, 1.67744327e-03, 5.50071988e-03,
       -3.99239035e-03, 1.79099117e-03, 4.99939197e-04, 2.98882922e-04,
       -2.56118644e-03, -2.67281313e-03, 4.82545467e-03, -6.53683674e-03,
       -2.20961054e-03, 4.07431544e-05, 1.13597594e-03, 7.53812678e-03,
       -5.01103466e-04, -7.13735493e-03, 1.77948066e-04, -1.24415208e-03,
       5.70968608e-04, 3.06836399e-03, 1.04705920e-04, 7.32773915e-03,
       -6.80638384e-03, -7.66596571e-03, 8.04761716e-04, 4.87604924e-03,
       -6.63124956e-03, -9.90118016e-04, -4.95545508e-04,
       -1.38349086e-03, 2.73085153e-03, 9.15151834e-03, 5.07798139e-03,
       -1.02651224e-03, 5.32056845e-04, 7.45664258e-03, 8.36528634e-05,
       1.14621210e-03, 4.21797950e-03, 5.68128144e-03, 2.48293136e-03,
       -5.94562385e-03, -5.02562942e-03, 7.96214584e-03, 8.94404307e-04,
       -5.92822442e-04, 2.46978132e-04, 1.15457391e-02, 1.88055802e-02,
       5.00149652e-03, -1.64000434e-03, -2.58512143e-03, 1.36256940e-03,
       -4.37028846e-03, -3.50947701e-03, 4.17312887e-03, 1.89322873e-03,
       3.51512991e-03, -1.60889106e-03, -7.19432544e-04, -5.06762927e-03,
       -1.13072945e-03, 1.63874053e-03, -2.60022096e-03, -6.35078235e-04,
       1.27350753e-02, 1.62713826e-02, 5.04326308e-03, 5.65528404e-04,
       1.63162348e-03, 4.21976205e-03, 2.35198368e-03, 4.51171957e-03,
       5.03126299e-03, 4.66466229e-03, 2.66893604e-03, 1.76674605e-03,
       7.44220382e-03, -1.99461792e-04, 3.65006481e-03, -1.58099842e-03,
       -1.72428892e-03, -7.18075782e-04, 5.06681902e-03, -9.58288801e-05,
       2.78429827e-04, -2.55940389e-03, -1.52770733e-03, -3.69673100e-04,
       4.41265246e-03, 6.43912517e-03, 3.93423857e-03, 6.79162750e-03,
       2.13248259e-03, 4.81075374e-03, 9.93562062e-05, -3.13787721e-03,
       1.06523931e-03, -2.15975670e-05, -3.37520643e-04, 3.53976269e-03,
       5.73587231e-03, -6.09907974e-03, 2.12582891e-04, -1.37740828e-03,
       -1.88392558e-04, 2.05393590e-04, 1.14987406e-03, -2.93436158e-03,
       3.84071236e-03, 1.08783059e-02, 1.01257768e-03, 3.77094286e-04,
       -3.97597998e-03, -5.07739082e-04, -1.57728128e-03, 5.15460409e-03,
       5.20972477e-04, 1.03737768e-02, 6.71817735e-03, -1.20935822e-03,
       8.57402745e-04, -9.17185855e-04, -5.22213057e-03, 3.67747271e-03,
       4.19273367e-03, 4.33945621e-04, 6.17037062e-03, -4.27162959e-05,
       -3.81430797e-03, 5.44547895e-03, -9.61140380e-04, 4.98368405e-04,
       6.68628933e-03, 7.46927457e-03, 2.06441153e-03, 2.82412278e-03,
       9.36749205e-03, -6.53702812e-03, -2.87707825e-03, -4.74854652e-03,
       -1.55285362e-03, -1.42811926e-03, 3.96523764e-03, 1.23722793e-03,
       1.08750295e-02, 3.61253973e-03, -1.22760395e-02, 1.01577770e-03,
       4.90589417e-04, -9.63515893e-04, 1.05555938e-03, 4.56831651e-03,
       -7.25504127e-04, 7.35832192e-03, -4.29093046e-03, 1.90288178e-03,
       -4.93110996e-03, -6.30990928e-03, 9.78697673e-04, 4.81169298e-03,
       -4.14920878e-03, 2.67480337e-03, -1.56879181e-03, -2.57019652e-03,
       8.46211985e-03, 1.30219269e-03, 3.40955303e-04, -3.98099748e-03,
       1.53375440e-03, -5.34760300e-03, 1.20415352e-03, 1.21652219e-03,
       -2.15702481e-03, 5.41826710e-03, 7.80575559e-04, 6.27964560e-04,
       -3.77171393e-03, -1.47279084e-03, -1.33757722e-02,
       -4.08365997e-03, -6.14029309e-03, 1.20750978e-03, 3.71563947e-03,
       1.63236063e-03, 4.00052784e-04, -9.81506240e-03, 7.08404055e-04,
       -4.00678394e-03, -6.60024525e-04, 1.86114910e-03, 7.50774750e-03,
       8.21397733e-03, -1.34926301e-03, -4.72079311e-03, -1.65790203e-03,
       3.23928962e-03, -8.50732345e-03, 1.18389682e-04, 6.45351410e-03,
       5.24411164e-03, 7.41938688e-03, 6.74621260e-04, -2.66515836e-03,
       1.64798100e-03, 7.55504705e-03, -4.56369435e-03, -1.77951631e-04,
       6.12415047e-03, -1.54520420e-03, -1.27874175e-03, -6.01685746e-03,
       -6.36553485e-03, -1.25310291e-02, 2.22447352e-03, 8.25345516e-04,
       -1.00031134e-03, 4.76556772e-04, -2.57900450e-04, -3.08649102e-03,
       -1.45514240e-03, -3.88768385e-05, -5.49387373e-03, 8.29018932e-03,
       -1.81101263e-03, -2.29583215e-03, 3.23295314e-03, 2.40896270e-03,
       -2.40196343e-04, -2.76006223e-03, -2.52069603e-03, 9.45303310e-03,
       9.95328091e-03, -2.54208455e-03, 7.60182971e-04, 3.43044824e-03,
       -7.63274264e-04, -6.53218525e-03, -6.74203038e-03,
       -5.43059898e-04, -1.79933291e-03, 1.21104186e-02, 7.49382610e-03,
       5.68471476e-03, -2.57334695e-03, 2.25644931e-03, -3.77377309e-03,
       -4.26957989e-03, -3.14185745e-03, 1.27654173e-03, 9.69160162e-03,
       -5.83890872e-03, -9.60949343e-03, 6.79062621e-04, -7.09895976e-04,
       -4.46738163e-03, -9.29756463e-03, -5.99413225e-03,
       -3.91906919e-03, 9.52174701e-03, 9.74663999e-03, -1.52240100e-03,
       1.79141440e-04, -1.63522456e-03, -8.41740239e-03, -8.72917660e-03,
       -4.10294067e-03, -3.29133938e-03, 1.41401198e-02, 1.00938957e-02,
       1.79171900e-03, -4.16254299e-03, 3.02687753e-03, -1.01553356e-04,
       1.27902240e-04, -2.56509148e-03, 1.97857851e-03, 5.62731642e-03,
       1.26657709e-02, 6.63174037e-03, 7.19036115e-03, -5.65369567e-03,
       -9.59542021e-03, -9.68030561e-03, -5.23045938e-03,
       -4.57372889e-03, 1.02522410e-02, 1.04761673e-02, 7.32620247e-04,
       -7.24109309e-03, -3.78278713e-03, -3.07683903e-03,
       -5.54204127e-03, -6.21496467e-03, 2.12933053e-03, 6.27013110e-03,
       3.90791520e-03, 1.99571671e-03, -2.28107488e-03, 3.68457311e-03,
       4.81209531e-03, -1.77265174e-04, 1.70746620e-03, -2.51149456e-03,
       1.29932154e-03, 6.40842179e-03, 4.18050634e-03, 8.31291359e-03,
       1.17726196e-02, 5.08730952e-03, -6.19757781e-03, -2.79458531e-04,
       8.84289015e-03, 7.55991600e-03, -2.26926780e-03, 7.12786289e-03,
       9.66181792e-03, -2.72371550e-03, -3.78492824e-03, -9.27381776e-03,
       -7.76451500e-03, -7.30581116e-04, -2.46982393e-03,
       -1.12183485e-02, -7.60567654e-03, -2.00453959e-03,
       -6.72173640e-03, -7.54695293e-03, -1.67405512e-02,
       -1.45940492e-02, 3.70300747e-03, 4.16370993e-03, -3.72906006e-03,
       -7.55086867e-03, -4.20866627e-03, 7.42717599e-03, 4.15482186e-03,
       2.99047073e-03, 5.45785250e-03, 7.94748403e-03, 1.06907589e-02,
       3.02890828e-03, 2.14391341e-03, 5.37660159e-03, 5.14520425e-03,
       3.04139196e-03, 1.78814866e-03, 3.84844863e-03, 2.67407531e-03,
       7.39510451e-03, 9.74196848e-03, 3.04660993e-03, 3.16397403e-03,
       -2.89513054e-03, -5.05642325e-04, -2.19036359e-03,
       -4.50542383e-03, -6.60774531e-04, 7.07327900e-03, 1.75043126e-03,
       -6.11413410e-03, -2.97129015e-03, -6.80544123e-04,
       -5.78060420e-03, -4.49391489e-04, -5.65835042e-03, 1.77661411e-03,
       3.58391530e-03, 7.69339327e-04, -1.97828733e-04, -5.74683677e-03,
       5.57890628e-03, 5.11089945e-03, 8.25327355e-03, 9.64372791e-03,
       2.99594388e-03, 1.33941750e-04, -2.20019813e-03, -3.59733123e-03,
       -1.25506276e-03, -2.59821746e-03, 3.21197347e-03, -1.51386810e-03,
       9.56166303e-04, 3.55908810e-03, 8.81042390e-04, -4.41020727e-03,
       -7.16624409e-03, -9.00861248e-03, 2.35467497e-03, 1.19707792e-03,
       2.44494295e-03, 2.05480726e-03, 2.36634607e-03, 1.95044023e-03,
       -1.04891835e-03, -5.13617648e-04, -6.36320282e-03, 4.05386183e-03,
       -2.97186617e-03, -8.82216450e-03, -7.28389202e-03,
       -8.32430262e-04, -3.34308739e-03, 1.00920210e-03, -3.86131741e-03,
       -1.49371917e-03, 2.54677283e-03, 6.57072943e-03, -2.42156093e-03,
       -2.78269337e-03, 6.57993509e-03, 7.06105679e-03, 1.32536551e-03,
       -4.54156473e-03, -9.89145879e-03, 6.98089018e-04, 1.43351161e-03,
       2.29562563e-03, 1.36162282e-03, 1.67956587e-03, 6.61063998e-04,
       1.30583896e-04, -7.14124879e-03, -1.03733018e-02, -9.44106956e-04,
       5.93072595e-03, -6.75077725e-04, -1.60902925e-03, 4.84375469e-03,
       -1.29823384e-04, 3.63767310e-03, 2.75639122e-05, -6.24729553e-03,
       -1.96641474e-03, 9.02244821e-03, 2.36939732e-03, 1.98548171e-03,
       -8.17067848e-05, -4.07175720e-03, 3.45838070e-03, 3.79777630e-04,
       -8.34498182e-03, -1.04306673e-03, 4.87271789e-03, 1.10459672e-02,
       3.69311613e-03, 2.54705269e-03, -5.17973443e-03, -2.40415614e-03,
       -1.15598813e-02, -3.59014212e-03, 1.68318697e-03, -1.90274208e-04,
       2.23179784e-04, -5.64735197e-03, -5.03049744e-03, -1.73244625e-02,
       -1.23180607e-02, -7.53653329e-03, 1.62126916e-03, 1.04510709e-05,
       6.84614200e-03, 1.02548245e-02, 8.93696211e-03, 1.12891709e-02,
       8.18663684e-04, 3.02757416e-03, -1.02673669e-03, -4.13663592e-03,
       -4.08952311e-03, -6.11585379e-03, 2.37547373e-03, 9.92632340e-05,
       9.19351541e-03, -9.16446373e-03, -4.92255716e-03, -4.02691169e-03,
       -6.74729235e-03, 6.74319046e-04, 8.09231249e-04, 6.31535565e-03,
       2.07081693e-03, 6.47851825e-03, -7.79748010e-03, -4.67268145e-03,
       -1.02774194e-03, 1.40311255e-03, -5.13669243e-03, -1.11039020e-02,
       3.66763119e-03, 3.73967737e-03, 5.28059993e-03, -5.35555463e-03,
       1.34051591e-03, 3.27897002e-03, 1.18160597e-03, -4.65042284e-03,
       -4.72302036e-03, 1.70056941e-03, 6.26320392e-03, 1.17395455e-02,
       -5.61987981e-03, -4.17507486e-03, 2.95860285e-04, -1.09798228e-03,
       -1.48152327e-03, -6.08057994e-03, 7.63368589e-05, 6.23248110e-04,
       3.84174898e-04, -1.00197773e-02, 6.72981900e-04, 5.32554975e-03,
       3.64895631e-03, -3.07666510e-03, -1.14013944e-02, -7.85655528e-03,
       -7.40838563e-03, -6.13956200e-03, -6.42974209e-03, 1.13851030e-03,
       4.13229223e-03, 3.02550499e-03, -1.54977082e-03, -1.19649051e-02,
       -8.63009319e-03, -2.37031328e-03, -1.99949997e-03,
       -1.80421094e-03, 6.43845880e-03, 6.06471254e-03, 1.17746776e-03,
       2.18723528e-03, 4.15742863e-04, 3.31710675e-03, -4.03804658e-03,
       -1.13077285e-02, -1.11729633e-02, -2.96861376e-03,
       -7.09901913e-04, 2.54194182e-03, 4.26569581e-03, 1.13821365e-02,
       1.42058982e-02, 3.14773846e-04, -1.02339406e-02, 1.22791645e-03,
       8.86806939e-03, 1.36835780e-02, 1.61317096e-03, -8.94725556e-04,
       -9.73643642e-03, -5.64008858e-03, -4.64701187e-03,
       -8.03535897e-03, -9.49944090e-03, -4.36572637e-03,
       -4.40340396e-03, -3.72482464e-03, 8.45618825e-03, 4.84636147e-03,
       -2.59106793e-03, -8.47336184e-03, -1.18060838e-02,
       -1.12827709e-02, -7.82109611e-03, -2.24572769e-03, 4.96135419e-03,
       -2.84177746e-04, 9.61003453e-03, 8.01584776e-03, 1.67315220e-03,
       2.43797520e-04, 1.40284305e-03, 2.96351570e-03, 2.99250893e-03,
       -2.42352462e-03, 2.92985654e-03, 8.73342436e-03, 1.22860987e-02,
       1.45293504e-03, -3.33429617e-03, -6.10732799e-03, -1.30111689e-03,
       1.39274891e-03, 4.65166243e-03, 1.09250210e-02, 4.69802460e-03,
       2.43538991e-03, -4.85643884e-03, -1.20739182e-02, -3.09427688e-03,
       -7.86348828e-04, 1.91531656e-03, 7.00089103e-03, 4.48867586e-03,
       2.50711176e-03, -2.28263321e-03, -1.73343346e-02, -1.47959320e-02,
       -4.18196106e-03, 1.30829329e-04, -7.82369229e-04, -9.09635564e-04,
       8.74340720e-03, 1.01069110e-02, 1.30051710e-02, 1.75990060e-03,
       -6.16529537e-03, -6.83845161e-03, -1.37517869e-03, 1.17654568e-02,
       1.00148320e-02, 2.99922144e-03, 5.77020040e-03, -1.50503987e-03,
       -9.16394498e-03, -1.07523650e-02, -9.51503869e-03,
       -1.08873798e-03, 5.89767657e-03, 1.97742647e-03, 6.10857131e-03,
       2.27445344e-04, 1.57014513e-03, -9.06803738e-03, -4.68574977e-03,
       -2.63593602e-03, 5.13420557e-04, 1.39022409e-03, -5.83499786e-04,
       -9.28881485e-03, -3.86061554e-04, -2.98471423e-03,
       -9.22614988e-03, 2.11401680e-03, -6.95067737e-03, -1.35863549e-03,
       5.69007352e-05, -7.89877400e-03, 7.74195592e-04, 3.16537544e-03,
       2.17214867e-04, -1.40482222e-03, -6.04831032e-04, -4.92111547e-04,
       5.41270338e-03, 6.67652674e-03, -2.44547467e-04, -6.94506941e-03,
       -3.31856683e-03, -3.32851009e-03, -3.91701655e-03, 1.43160787e-03,
       -2.10516946e-03, 8.12172424e-03, 7.82329298e-04, -4.09386912e-03,
       -7.35028042e-03, 5.65442210e-03, 5.95745398e-03, -2.01727287e-03,
       6.54836418e-03, -4.46676137e-03, -4.55743109e-04, -2.24773469e-03,
       -5.64065855e-03, -9.08122677e-03, -1.29693013e-04, 3.84847890e-03,
       -6.31160708e-03, 3.87067744e-03, -7.89354555e-04, -4.94846795e-03,
       -2.64184573e-03, -5.39024640e-03, -1.00039702e-03, 5.59009425e-03,
       4.90579288e-03, -4.14014515e-03, 2.97883572e-03, 1.32138119e-03,
       5.73319336e-03, 4.25508159e-04, 2.57668574e-03, -1.33829203e-03,
       2.87425867e-03, 3.48669244e-03, -1.60853891e-03, 1.32475025e-03,
       -3.20161856e-03, -3.03500798e-03, -4.41240554e-04, 3.19445645e-03,
       -6.18647598e-03, -8.82197823e-03, -2.38395715e-03,
       -8.24074727e-03, -4.39851498e-03, -1.08411559e-03,
       -3.23680346e-03, -1.80580351e-03, -4.71868226e-03, 1.62705593e-03,
       -4.47050622e-03, -2.14254064e-03, -1.59589527e-03,
       -2.46808724e-03, 1.45717082e-03, -4.96090332e-04, -5.68474970e-05,
       9.40933067e-04, -2.97208689e-03, 9.07163369e-04, 3.52634420e-03,
       4.06681048e-03, 1.76214834e-03, -4.64146351e-03, -7.33580347e-03,
       -1.22710632e-03, -7.29565858e-04, -2.37646652e-03, 2.17617163e-03,
       6.80798944e-03, 1.41495187e-02, 9.99762956e-03, 3.00501054e-03,
       6.31685928e-03, -7.56799127e-04, -4.08263505e-03, -1.78697403e-03,
       -7.07852282e-03, -2.94780504e-04, 1.52818116e-04, -2.84725800e-03,
       -2.18423922e-03, -4.36274661e-03, -3.92299704e-03, 2.05994840e-03,
       -3.08396132e-03, -6.01955177e-03, 5.75727737e-03, 8.01937561e-03,
       7.76216853e-04, 7.66763324e-03, 2.07861443e-03, -5.37779124e-04,
       -1.09158352e-03, -3.76229850e-03, -5.39883226e-03, 1.25053711e-03,
       6.94985176e-03, -9.41836741e-04, 7.07366562e-04, -4.71837557e-04,
       -4.93557425e-03, 2.80660298e-03, 2.78558116e-03, -9.43055004e-03,
       3.99768446e-03, 3.50110396e-03, 1.55734725e-03, 5.45852854e-05,
       -5.59318997e-03, -3.27446824e-03, 4.47770394e-03, -3.25834937e-03,
       -6.54146308e-03, -2.38815346e-03, 1.29954834e-02, 1.05445664e-02,
       1.47573622e-02, 4.66220500e-03, 4.46540536e-04, -6.47660345e-04,
       2.03765812e-04, -1.75603235e-03, -6.20568497e-03, 1.01593034e-02,
       -1.70379120e-03, 1.08878575e-02, 1.13490745e-02, 8.21346231e-03,
       6.00424130e-03, -1.02427648e-03, -7.57609308e-03, 2.61972495e-03,
       9.70602501e-03, 4.83417511e-03, -1.97708793e-03, -1.35227367e-02,
       -5.49377175e-03, 2.59847846e-03, -3.62007553e-03, -2.53649661e-03,
       6.81363279e-03, 8.65192618e-03, -3.56867816e-03, 1.88859552e-03,
       -1.83685671e-03, 5.02740790e-04, -2.72073987e-04, 2.36208225e-03,
       7.31105174e-05, -2.75055738e-03, 1.12921251e-02, 2.27716262e-03,
       6.41149003e-03, 3.29984818e-03, 2.17393017e-03, 5.96423261e-03,
       -2.16683745e-03, -6.75871456e-03, -1.74143771e-03, 4.19185404e-03,
       2.84171989e-03, -5.71805693e-04, 8.10771948e-04, -6.67948276e-03,
       -2.58851825e-04, 8.33480037e-04, -4.85353312e-03, -7.87315483e-04,
       1.99971232e-03, -5.26306732e-03, -3.37373494e-04, -1.37058855e-03,
       -1.12449564e-03, 1.30910100e-03, -2.44276668e-03, -9.42746364e-03,
       -1.18350284e-03, -1.38570997e-03, -4.73433407e-04,
       -4.77810670e-03, 3.72258015e-04, -5.47745405e-03, -3.83013161e-03,
       2.81600136e-04, 1.23285118e-03, 7.68594677e-03, 1.02433823e-02,
       7.80441100e-03, -5.84935151e-05, 2.50466331e-03, -3.78938089e-03,
       6.92729664e-04, -2.37342203e-03, -1.39356893e-03, -4.02292609e-03,
       -4.58468590e-03, 1.65298872e-03, -2.50118459e-03, -6.59530098e-03,
       -3.22833913e-03, 1.23915364e-04, -9.86733939e-04, 2.70799664e-03,
       2.95642018e-03, 5.52563416e-03, 9.32476483e-03, 1.64970872e-04,
       1.89542523e-04, -3.32097919e-03, -1.67172775e-03, -6.37232047e-03,
       -1.28441991e-03, -8.77188332e-03, -1.42704742e-03, 1.06832664e-02,
       1.98151194e-03, -2.92461249e-03, -3.97891458e-03, -2.58793123e-03,
       1.95933226e-03, 2.23948830e-03, -5.69579052e-03, -1.63288193e-03,
       2.39500753e-03, -6.53982803e-04, 1.27021782e-03, 6.11685636e-03,
       4.02111933e-03, -1.86785904e-03, -8.80120974e-03, -3.74205969e-03,
       -5.39046632e-05, 8.28332035e-04, 5.67807758e-04, 1.91687630e-03,
       3.25960014e-03, -2.64273887e-03, -2.69314041e-04, 6.12333324e-03,
       -1.09695748e-03, 2.32435018e-03, 8.33336078e-03, 2.27284781e-03,
       2.52345554e-03, 1.92031416e-03, 1.95428822e-03, 1.51468941e-03,
       2.21038866e-03, 2.65331450e-03, 1.18639728e-03, 1.66393537e-03,
       2.44118157e-03, 6.27033552e-03, 5.51030785e-03, 1.32247398e-03,
       -3.07351147e-04, -6.74210116e-03, -3.04436754e-03,
       -2.26040196e-04, 3.36324819e-03, 2.29718210e-03, 3.01923370e-03,
       1.37638045e-03, -1.07451365e-03, 2.39797984e-03, -1.26808614e-03,
       -2.52431142e-03, 9.47006978e-04, 6.48080651e-03, 1.27462577e-03,
       2.14518397e-03, -1.26233103e-03, 2.12805113e-03, 1.28101627e-03,
       -2.35693442e-04, -5.45716519e-03, 1.23515900e-03, 1.25560316e-03,
       3.61152901e-03, 5.64135937e-03, 1.20345717e-02, -3.07831418e-04,
       3.31106246e-03, 2.02073972e-03, 4.84286714e-03, 6.87235827e-03,
       6.11418299e-03, 4.04158281e-03, 4.27000830e-03, 1.92609767e-03,
       3.90672823e-03, 6.75651757e-03, -2.97851581e-03, -3.01260501e-03,
       -1.77590526e-03, 5.06587792e-03, 1.30400830e-03, 2.66422308e-03,
       -1.81772083e-03, 5.60418516e-03, 7.27705192e-03, -1.51259103e-03,
       1.17955217e-03, 3.09251761e-03, 2.65834155e-03, -9.89790773e-04,
       -5.48425643e-03, -5.96203329e-03, 4.58076457e-03, 2.64965289e-04,
       4.16358467e-03, 2.74824491e-03, -9.51450493e-04, 5.55719156e-03,
       2.37488816e-03, 3.91509524e-03, 7.82590825e-04, 5.58768352e-03,
       7.96419941e-03, 1.53847924e-02, 7.74304150e-03, -8.22649512e-04,
       2.38742656e-03, 7.08679808e-03, 2.87254085e-03, 1.98691082e-03,
       7.17581995e-03, 2.08524684e-03, 1.07773906e-02, 4.31011571e-03,
       -4.54643276e-03, 9.40801401e-04, 3.52895912e-03, -4.47633676e-03,
       -3.74222291e-04, -4.63579409e-03, 1.46878359e-03, 4.10202146e-03,
       -1.64590916e-03, -1.21942803e-03, 1.81746774e-03, 7.65347062e-03,
       6.87771477e-03, 1.15252787e-03, -9.07699205e-03, 2.42458121e-03,
       6.58900663e-03, 2.56905361e-04, -8.11141450e-03, -1.02843065e-02,
       -1.95553713e-03, -1.69276341e-03, -6.65938598e-04,
       -3.18389822e-04, 6.89342339e-03, 8.56873486e-03, -3.70296673e-03,
       -5.56394039e-03, -5.31536248e-03, 7.06330175e-03, 5.81058534e-03,
       2.27426761e-03, -7.94576015e-03, 6.88141445e-04, -5.14741335e-03,
       -2.83954618e-03, 4.74601344e-04, -4.06092778e-03, 7.52532762e-03,
       9.35551152e-03, -5.99368759e-05, -4.36995598e-03, -1.69019622e-03,
       -5.39315864e-03, -1.20748155e-04, 2.93263351e-03, -9.84330312e-04,
       1.04347281e-02, 2.73529743e-03, -5.03986701e-03, 1.17385574e-03,
       -3.69146816e-04, -1.89594238e-03, -3.36143351e-03, 1.79607669e-04,
       -6.36980264e-03, 5.47654973e-03, 4.15586215e-03, -4.51868586e-03,
       -1.18818302e-02, -2.04296992e-03, -3.23179667e-03,
       -2.15266459e-03, -6.75131660e-03, -3.66485724e-03, 3.21997190e-03,
       -5.16925426e-03, 1.45653903e-04, -3.02423933e-03, 9.59491706e-04,
       -1.30306475e-03, -1.77644298e-03, 3.49255104e-04, 6.76334696e-03,
       1.27485348e-02, 1.55465316e-03, -6.87848125e-03, 1.29526656e-03,
       -1.40735984e-03, -7.92410458e-04, -6.04744675e-03,
       -7.20101548e-03, 4.43673553e-03, 1.39665538e-02, 1.13531454e-02,
       -1.24857458e-03, -1.65482561e-04, 6.41178223e-04, -1.35871244e-03,
       -7.56189809e-04, -7.77472509e-03, -1.03341986e-03, 3.28049617e-04,
       -2.50595808e-03, -2.72655452e-04, 2.31116102e-03, 3.29202623e-03,
       2.79551465e-03, 3.42033600e-04, -3.47703416e-03, -4.22020489e-03,
       4.66320710e-03, 1.22743205e-03, 1.84201135e-03, -3.27520375e-03,
       -5.83002530e-03, -5.81075577e-03, -5.08280704e-03,
       -6.39070850e-03, 6.92577043e-04, 1.21819023e-02, 9.79368575e-03,
       5.98819926e-04, -2.33526528e-03, 8.82102933e-04, -1.52780465e-03,
       6.38781174e-04, -4.49875835e-03, 3.26721114e-03, 3.53586650e-03,
       1.00150602e-02, 6.88755605e-03, -1.58182520e-03, -4.47073439e-03,
       -5.34403184e-03, -1.69794040e-03, -7.06769247e-03,
       -1.09363450e-02, 3.50361364e-03, 5.03287185e-03, 1.99669902e-03,
       -9.31039359e-03, -4.13172645e-03, -6.75895298e-03,
       -4.07140143e-03, -5.97988628e-03, -1.01956343e-02,
       -5.92567818e-03, 6.95045292e-03, 1.09879142e-02, -4.33961512e-04,
       5.79858490e-04, 7.00748875e-04, -4.20508062e-04, -4.70223231e-03,
       7.43725803e-03, 7.60136265e-03, 3.96166649e-03, 2.66251783e-03,
       2.13210913e-03, -2.77988799e-03, -2.03892915e-03, -8.18850007e-03,
       -6.36464916e-03, 1.38669442e-02, 1.37932710e-02, 9.78198182e-03,
       3.83725506e-04, 4.70388797e-04, -9.46825929e-03, -5.14749670e-03,
       -4.36476758e-03, -4.07604314e-03, 2.67776218e-03, -5.84718073e-03,
       4.36683977e-03, 8.64435267e-03, -3.93138733e-03, -1.17489919e-02,
       -4.64726193e-03, -1.15728909e-02, -1.25925988e-02, 8.49811547e-03,
       -2.62774120e-04, 2.16619228e-03, -3.89934261e-03, -8.26424733e-03,
       -3.63871281e-04, 9.97679192e-04, -2.23586554e-04, -4.83486743e-04,
       1.08764628e-02, 1.21552888e-02, 1.34942383e-02, 1.40536705e-03,
       -2.85217725e-03, 1.49732642e-03, -2.75710644e-03, -1.70235566e-04,
       -4.83212480e-03, 5.48383826e-03, 9.07014962e-03, 1.31678972e-02,
       5.31851547e-03, -8.09397199e-04, -2.94242194e-03, -4.16086242e-03,
       -7.84609839e-03, -9.18496121e-03, 5.15091280e-03, -5.24606265e-04,
       3.47147207e-03, -1.93039584e-03, -1.24703173e-03, 1.85191020e-04,
       -6.98536448e-03, -5.94311533e-03, -6.23941142e-03, 1.23334920e-03,
       -3.19837895e-03, 6.20820327e-03, 8.63029156e-03, 9.79686592e-05,
       6.64743502e-03, 1.29324640e-03, -2.47717625e-03, -6.56990800e-03,
       5.48836263e-03, 8.01926479e-03, 1.07367150e-02, 4.99074254e-03,
       -9.84469312e-04, 6.92214072e-03, -2.37031281e-03, -4.91476385e-03,
       -6.23693783e-03, 6.08137995e-03, -2.48645293e-03, 6.68769795e-03,
       1.09054404e-03, 4.30494780e-03, -1.57947579e-04, 8.63181369e-04,
       -3.37674166e-03, -7.65845040e-03, -2.47971853e-03,
       -2.54315627e-03, 1.65151301e-04, 1.86538600e-04, -6.96934713e-03,
       5.03897085e-04, -4.20660144e-05, 4.38013161e-03, -4.06984659e-03,
       -4.39612474e-03, -2.49414355e-03, 6.99695884e-05, -5.41414181e-03,
       -4.81162220e-03, 6.79101143e-03, 7.17365369e-03, 8.19810294e-03,
       -2.85184535e-04, 7.62856856e-04, -7.64434552e-03, 3.71972518e-03,
       -1.02043536e-03, 2.98358849e-03, -2.36578658e-03, 1.15749743e-02,
       1.24812303e-02, 2.21261219e-03, -1.52937602e-03, -8.25400837e-03,
       3.03781661e-03, 1.91354624e-03, -3.96333309e-03, 9.39597725e-04,
       3.66886059e-04, 9.10488982e-03, -4.15108213e-03, -1.54571247e-03,
       -8.46152380e-03, -1.72629883e-03, -4.83303936e-03, 4.78746230e-03,
       -3.54611455e-03, 2.91170855e-03, 9.57816094e-03, -5.38278371e-03,
       6.71424321e-04, -6.05884520e-03, 9.48228757e-04, -2.16615223e-03,
       -5.12984628e-03, -8.07333272e-04, 4.95371083e-03, 1.35053424e-02,
       8.14472977e-03, 1.28660491e-02, -2.87281163e-03, 1.60888769e-03,
       4.18984424e-03, -1.10121863e-03, -1.12350110e-03, -8.26860080e-04,
       6.97200606e-03, 5.11673233e-03, 8.91563389e-03, -1.02276243e-02,
       -2.43487372e-03, 6.61480532e-04, -4.26077470e-03, -1.52268680e-03,
       4.46707942e-03, 1.44005595e-02, -2.19781883e-03, 5.18988445e-03,
       -4.40626265e-03, -1.09718589e-03, 1.54569780e-03, -6.27718540e-03,
       4.86467872e-03, 9.90327215e-04, 6.97320700e-03, -4.55288729e-03,
       -1.10783125e-03, -1.45317307e-02, 8.10844576e-05, -5.49513730e-04,
       -5.08649228e-03, 2.03095446e-03, -4.61160019e-03, 1.17132142e-04,
       1.13689166e-03, 6.91957725e-03, -5.59448870e-03, -2.82520615e-03,
       1.51821005e-03, -4.64265788e-04, -2.27123685e-03, -2.78017740e-03,
       6.13853475e-03, 3.78899090e-03, 6.87175384e-03, -7.23142549e-03,
       9.55284748e-04, -1.71016005e-03, -2.76101497e-03, 9.26954020e-03,
       3.87296011e-03, 7.14031421e-03, -5.74567309e-03, 1.74568547e-03,
       -1.28766829e-02, -3.33772064e-03, -1.56062224e-03, 3.06780613e-03,
       9.56576958e-04, 7.14950031e-03, 7.95296766e-03, 6.18656771e-03,
       1.00301439e-02, -3.58937541e-03, 1.13906921e-03, -5.64033398e-03,
       1.03287195e-04, -7.25758635e-03, -3.31968348e-03, 3.92468739e-03,
       -1.72072963e-03, -4.74757142e-03, -1.05564669e-02,
       -2.29362585e-03, -7.56127667e-03, -9.38523188e-03,
       -3.21222027e-03, 5.28836204e-03, 1.74584556e-02, -4.46802936e-04,
       -3.83046991e-03, -5.54424245e-03, 1.54752473e-04, 5.52100712e-04,
       -1.41628669e-03, -2.19293358e-03, -5.43429982e-03, 3.42760934e-03,
       3.85471852e-03, 5.38664032e-03, -2.84166727e-03, 1.26152427e-03,
       -8.23669508e-03, -2.32078694e-03, 4.83834650e-03, 3.74243688e-03,
       1.39556555e-02, 5.52403741e-03, 2.32988666e-03, -6.00250950e-03,
       -4.58971364e-04, -4.51349514e-03, 9.67897475e-03, -1.06393447e-04,
       3.29734921e-03, 8.27064738e-03, 1.27584557e-03, -1.38446956e-03,
       -2.26667663e-03, -6.95000077e-03, -6.63023209e-04, 1.24626432e-03,
       2.34222901e-03, -1.18480797e-03, 5.76790143e-03, 4.41137608e-03,
       -2.16718181e-03, -3.92036466e-03, -7.91852176e-03, 4.01179912e-03,
       3.49593139e-03, -2.68757831e-05, 5.65533526e-04, 6.09745504e-03,
       8.14269006e-04, -5.68122137e-03, -8.95405468e-03, -8.51806998e-03,
       -9.44503210e-03, -2.25434848e-03, 1.59694825e-03, -1.94766966e-03,
       -1.19186461e-03, -1.48346415e-04, -6.91848714e-03,
       -9.69709922e-03, -4.47911816e-03, -2.09248159e-04, 6.90755143e-04,
       -2.01609381e-03, -4.32378659e-03, 2.64455448e-03, 3.85822542e-03,
       -1.77365320e-03, -7.10042752e-03, -2.35030823e-03, 6.49541337e-03,
       4.03128471e-03, 2.63120793e-03, -6.75203651e-03, -7.13610835e-03,
       -4.48464183e-03, 6.22685475e-04, -1.05966413e-02, -4.31080954e-03,
       -2.78217229e-03, 1.01639179e-03, 1.44457025e-03, -5.85954357e-03,
       6.22876629e-04, 1.11928750e-02, 1.82416593e-03, 5.69657423e-03,
       4.64598695e-03, 4.18938929e-03, 3.90027789e-03, 2.04478012e-04,
       -5.32389246e-03, -6.09929441e-03, 4.68300935e-03, 3.98785714e-03,
       7.61991227e-03, 2.98415660e-03, -1.76935992e-03, -1.72730943e-03,
       3.56741692e-03, 5.36583184e-06, -3.91821656e-03, -2.10625399e-03,
       3.29912407e-03, -1.43008796e-03, -1.01516850e-03, -3.67155299e-03,
       6.36193145e-04, -5.03460364e-03, -1.81818579e-03, -6.29695598e-04,
