%YAML:1.0
---
my_detector: !!opencv-object-detector-hog
   winSize: [ 88, 96 ]
   blockSize: [ 16, 16 ]
   blockStride: [ 8, 8 ]
   cellSize: [ 8, 8 ]
   nbins: 9
   derivAperture: 1
   winSigma: 4.
   histogramNormType: 0
   L2HysThreshold: 2.0000000000000001e-01
   gammaCorrection: 1
   nlevels: 64
   signedGradient: 0
   SVMDetector: [ 3.52097638e-02, 1.25750322e-02, -1.87753551e-02,
       -6.78360164e-02, -2.62620356e-02, -3.93467918e-02,
       -4.09228913e-02, -2.57958062e-02, 2.15194244e-02, 1.24670528e-02,
       -1.73271708e-02, -1.99671835e-02, -6.27453402e-02,
       -3.60341258e-02, -4.68748175e-02, -1.96267292e-02,
       -1.88101958e-02, -9.56688542e-03, 1.97309200e-02, 1.91113967e-02,
       1.67210735e-02, -6.55066269e-03, -3.47736455e-03, -2.97849495e-02,
       -2.20017955e-02, -3.04033142e-03, -2.01260834e-03,
       -1.20089445e-02, 5.85442828e-03, 2.35434175e-02, 7.44146714e-03,
       3.19165513e-02, -1.60530135e-02, 1.34931542e-02, 3.35853710e-03,
       -2.12262850e-02, 3.53955217e-02, -7.69994280e-04, -1.10191628e-02,
       -2.87763327e-02, 6.37077400e-03, -3.97300981e-02, -3.53244282e-02,
       -6.00088295e-03, -5.95450960e-03, 4.13345918e-02, 2.09164564e-02,
       -1.89559627e-02, -2.24534348e-02, 6.45561982e-03, -4.28933650e-02,
       -2.59685609e-02, -4.69780061e-03, -3.18439007e-02,
       -1.78875048e-02, 3.67275206e-03, -5.66799194e-04, -2.78682951e-02,
       1.17096677e-02, -1.79014038e-02, 9.06452333e-05, 1.91749521e-02,
       -3.02458629e-02, 2.61343620e-03, 1.92913227e-02, 1.13388114e-02,
       -1.55029697e-02, 5.94619401e-02, 2.85302550e-02, 4.16003168e-02,
       4.31637503e-02, -1.32197635e-02, 4.55336496e-02, -3.24590481e-03,
       -1.75757091e-02, -2.13830080e-02, 1.92881338e-02, -4.66528647e-02,
       -1.96383074e-02, -9.89627186e-03, 3.71003076e-02, 1.49001824e-02,
       1.09983562e-03, -1.30191548e-02, -2.75645535e-02, 3.50793973e-02,
       -2.33424492e-02, 8.19754496e-04, -8.49645305e-03, 1.15761773e-04,
       3.56155820e-02, 6.74974220e-03, 7.79839326e-03, -7.34229200e-03,
       2.84849685e-02, 5.06380340e-03, 1.25756138e-03, 2.29395255e-02,
       -1.46012791e-02, -1.56567041e-02, 9.31835081e-03, 6.74427394e-03,
       2.30670150e-04, 3.35761122e-02, 7.20539503e-03, 1.13160452e-02,
       2.25987658e-02, 2.90376209e-02, -2.56181601e-03, -8.39118659e-03,
       -1.51198478e-02, -2.71446537e-02, 2.35469807e-02, 5.54292742e-03,
       1.68464351e-02, 2.20862478e-02, -2.37408392e-02, 1.05727101e-02,
       1.86110735e-02, 2.45606322e-02, -3.30162160e-02, 2.56463103e-02,
       -2.63372883e-02, -2.04065093e-03, 3.99447195e-02, -1.49127794e-02,
       3.83825898e-02, 1.14608114e-03, -2.20291931e-02, -1.46256090e-04,
       -7.79933762e-03, 1.04626389e-02, 2.79729348e-02, 9.58438497e-03,
       7.01710349e-03, 2.11637579e-02, 2.25681588e-02, 1.03249820e-02,
       7.24421162e-03, -1.39715616e-03, -1.72354244e-02, -3.11284210e-03,
       1.81092825e-02, 3.83713050e-03, 1.99309662e-02, -5.36373351e-03,
       3.03774774e-02, -1.86820738e-02, -1.01536773e-02, -1.55075593e-02,
       5.41300327e-03, 4.37952727e-02, 1.35152070e-02, -6.09555573e-04,
       -9.91472416e-03, 2.81513147e-02, -7.26279512e-04, 3.23761739e-02,
       -1.77963276e-03, 1.43074272e-02, 1.01816384e-02, -1.14443824e-02,
       5.66678345e-02, 2.51982864e-02, 1.91726144e-02, -4.58928524e-03,
       5.72202308e-03, -3.92831489e-03, 2.42020395e-02, 3.22309621e-02,
       5.63365407e-02, 3.00136977e-03, 8.23544990e-03, 3.01313819e-04,
       -2.50215665e-03, 3.04511581e-02, 1.27676679e-02, 5.40041886e-02,
       9.75460187e-03, 1.42322751e-02, 1.48698920e-02, 7.82463048e-03,
       5.53344609e-03, -3.28555889e-02, 2.18799673e-02, -2.46962570e-02,
       2.31347717e-02, 2.57692374e-02, 2.03908794e-02, 1.39502166e-02,
       1.07667288e-02, 1.42075848e-02, -4.53569600e-03, 2.59148236e-02,
       6.25833496e-03, -4.28142678e-03, 1.76274090e-03, 2.05929969e-02,
       4.14758846e-02, -6.22362830e-03, 1.25508839e-02, -2.72672228e-03,
       2.29995847e-02, 1.86081789e-02, 2.68703718e-02, -1.09016383e-02,
       5.85115626e-02, 1.97325088e-02, -1.50273796e-02, 1.59850549e-02,
       1.30001903e-02, 2.32438277e-02, -8.46980046e-03, -9.79960524e-03,
       1.70597378e-02, -1.43154282e-02, 9.10087861e-03, 8.92622583e-03,
       1.11880135e-02, -1.78803578e-02, 8.87826830e-03, -5.41305961e-03,
       -3.52799287e-03, 1.73435621e-02, 1.90394688e-02, -6.31379429e-03,
       -1.38085308e-02, 6.43932493e-03, -2.57110782e-02, -7.33780116e-03,
       -3.76070268e-03, -6.14600675e-03, -8.29681521e-04,
       -3.25357392e-02, 3.29856835e-02, 5.39675681e-03, 3.95225435e-02,
       2.18141656e-02, 3.94454747e-02, -2.47694959e-04, 8.35785735e-03,
       2.66777128e-02, 8.31164885e-03, 2.27417517e-02, -4.30718772e-02,
       1.24194957e-02, 1.74319837e-02, 3.72611545e-02, 1.08871767e-02,
       -3.13310674e-03, -1.19260065e-02, 6.10703835e-04, 8.33361875e-03,
       -3.66946571e-02, -2.19803918e-02, -1.37160346e-02, 7.46155391e-03,
       1.52383163e-03, -1.24364570e-02, -1.57753434e-02, -2.86201271e-03,
       -1.18925767e-02, -9.80618037e-03, 1.65559445e-02, -7.37796491e-03,
       8.99547897e-03, -3.21592167e-02, -5.46090975e-02, -3.45841348e-02,
       -1.84278041e-02, 1.62582491e-02, -3.19302604e-02, 5.50421420e-03,
       3.20515707e-02, 1.40890665e-02, 2.74160542e-02, -2.71158270e-03,
       1.26730716e-02, 1.06610842e-02, -1.88356806e-02, -1.54319862e-02,
       9.43007763e-04, 1.95715614e-02, 4.26620021e-02, -2.26701181e-02,
       -9.41299181e-03, -1.62262283e-02, -2.23007444e-02,
       -1.32911066e-02, 4.06670533e-02, 2.42076349e-02, -4.97018211e-02,
       -8.57113209e-03, -3.87566499e-02, -5.67951575e-02,
       -1.97673272e-02, -1.37047321e-02, -4.01847996e-03, 5.24098007e-03,
       1.66842360e-02, -2.09418256e-02, 1.45537592e-02, -3.64483558e-02,
       -4.71920632e-02, -2.12387238e-02, -2.75143012e-02, 1.17489723e-02,
       3.77341695e-02, 1.48583399e-02, -9.69840121e-03, 1.02126002e-02,
       -4.39218692e-02, 8.89857486e-03, -1.17786014e-02, 1.07251648e-02,
       1.72155611e-02, 5.30127361e-02, 5.81874624e-02, -1.01404190e-02,
       -2.57314229e-03, -2.82079559e-02, 1.54887130e-02, 1.96091980e-02,
       7.92998541e-03, 2.14497633e-02, -1.40148010e-02, 2.49903044e-03,
       -2.97904145e-02, 2.89433189e-02, -2.89891679e-02, -5.28840683e-02,
       -1.92515031e-02, -8.72225733e-04, -6.80932263e-03,
       -2.32334272e-03, 1.31316939e-02, -2.82343272e-02, 2.39789747e-02,
       -3.33842412e-02, -2.77538933e-02, -3.62010486e-03,
       -1.07178595e-02, -1.12140803e-02, -1.20930141e-02,
       -4.39949846e-03, -2.95643583e-02, 2.39045802e-03, 4.73380715e-05,
       -1.78218614e-02, -2.14756094e-02, -3.76095879e-03,
       -2.35361396e-03, 2.99709453e-03, 2.16659587e-02, -2.44137198e-02,
       1.59242544e-02, -4.62779626e-02, -1.95029359e-02, -3.40833627e-02,
       2.52658501e-02, -4.35841791e-02, -9.19895153e-03, 2.54820529e-02,
       1.82996690e-03, 1.15114416e-03, -2.82844398e-02, 2.50466242e-02,
       2.11071018e-02, -3.55984637e-04, -3.18142474e-02, -8.39673262e-03,
       4.06754613e-02, 1.49281239e-02, -1.47704259e-02, -5.92505150e-02,
       1.84098389e-02, 8.31922702e-03, -5.78791229e-03, -4.47964333e-02,
       -3.22365277e-02, 3.82817932e-04, -2.02387590e-02, -2.48603076e-02,
       -3.84328850e-02, -2.51000337e-02, -1.69360898e-02, 1.29462511e-03,
       -1.98513791e-02, -8.16022046e-03, 1.11812120e-02, -3.63104907e-03,
       -2.52240282e-02, -4.60984446e-02, 1.27996607e-02, 2.50440314e-02,
       1.47056468e-02, 7.74750635e-02, 5.16798198e-02, 2.24777516e-02,
       -2.42773127e-02, -2.95126606e-02, -2.44099926e-02,
       -2.55270228e-02, 6.74276566e-03, 3.23848203e-02, 1.19230580e-02,
       2.69074552e-02, 7.74887623e-03, -8.82980693e-03, 2.33988166e-02,
       -3.10660340e-02, 9.10287537e-03, 2.76925992e-02, 5.25993714e-03,
       5.69202332e-03, 4.93467674e-02, 1.95086729e-02, -1.48705989e-02,
       -2.01225393e-02, -1.21627077e-02, -2.23029647e-02,
       -1.44330021e-02, -2.26499625e-02, 1.53019084e-02, 1.05362190e-02,
       -3.08222864e-02, 1.67333167e-02, 1.00913830e-02, 2.77408655e-03,
       3.83016504e-02, 3.09353340e-02, 1.40519682e-02, 2.36085020e-02,
       3.06119155e-02, 1.52951609e-02, -4.75661783e-03, 1.64715038e-03,
       -1.91214979e-02, 4.48763110e-02, 3.13206315e-02, 7.83586688e-03,
       1.13685410e-02, 4.00705189e-02, 3.91672458e-03, -1.43887370e-03,
       4.60379161e-02, 9.98618919e-03, 3.85162570e-02, 2.33819466e-02,
       -9.24921781e-03, 1.22000854e-02, 9.75266658e-03, -6.92514377e-03,
       -2.94397282e-03, -1.99892968e-02, -2.45964937e-02, 2.79445015e-02,
       5.96578605e-03, 1.17202047e-02, 3.07670552e-02, 1.66283250e-02,
       3.35309096e-02, 1.37938641e-03, -2.50794832e-03, -1.36958873e-02,
       1.81072317e-02, 1.26777135e-03, 1.84394866e-02, 3.27554680e-02,
       3.09543759e-02, 1.89201292e-02, 1.97077659e-03, 2.10508090e-02,
       -9.83672775e-03, 1.65293626e-02, 2.97783390e-02, 3.65301296e-02,
       1.72426533e-02, 2.95711923e-02, 1.76251754e-02, -1.86983321e-03,
       -9.40885674e-03, -2.52373163e-02, 6.05203398e-03, 2.74577122e-02,
       3.76165137e-02, 3.02530937e-02, 1.35412235e-02, 6.27072761e-03,
       -1.39206508e-02, 4.00748756e-03, -3.04671712e-02, 9.01254360e-03,
       2.47400478e-02, 1.63067076e-02, 8.13003629e-03, -1.16085829e-02,
       -1.08806072e-02, -2.49777138e-02, 1.01838866e-02, -4.31540906e-02,
       -2.38786023e-02, 1.02401692e-02, -1.27403801e-02, 4.33362387e-02,
       3.61147262e-02, -1.62143558e-02, -1.88734494e-02, -3.20380628e-02,
       -1.14212260e-02, 2.92008612e-02, 2.73366738e-02, 5.74352108e-02,
       3.26955952e-02, 3.69359925e-02, 1.34646471e-04, 7.68751092e-03,
       -6.78342534e-03, -1.98820997e-02, -1.23104956e-02,
       -1.98563691e-02, -3.57640199e-02, 2.28437292e-03, 3.12329340e-03,
       -6.30312925e-03, 1.97548582e-03, 2.93047354e-03, -2.16074772e-02,
       -1.64942686e-02, -5.91780012e-03, -1.60410721e-02, 1.79106207e-03,
       -3.84734906e-02, -1.98059343e-02, 1.90556217e-02, 2.16063671e-02,
       -2.46391702e-03, -3.81784625e-02, -2.02197023e-02,
       -2.72721946e-02, 5.24542183e-02, 3.10023390e-02, 2.21999083e-02,
       -6.75043371e-03, -1.48055451e-02, -9.32817627e-03, 7.50463502e-03,
       -2.63948133e-03, 6.97857176e-04, 4.51036729e-02, 3.50945741e-02,
       5.07291639e-03, -6.87885890e-03, 5.83423208e-03, -5.48445852e-03,
       -5.02355909e-03, -2.35390998e-02, -2.93052737e-02, 1.20431222e-02,
       1.32475644e-02, 1.94349457e-02, 3.62721384e-02, 4.52626348e-02,
       3.86501700e-02, 6.79310691e-03, 1.56994779e-02, 9.12649743e-03,
       -5.38909296e-03, -3.83586064e-03, 2.03983113e-02, 8.91110767e-03,
       3.43809649e-02, 1.36413565e-02, -2.61723157e-02, -2.34234948e-02,
       6.93583954e-03, 3.60650383e-02, 4.54425486e-03, -1.40565513e-02,
       9.28308628e-03, 1.05445469e-02, 1.44715346e-02, -5.34443941e-04,
       8.34210776e-03, 4.04020026e-02, 4.42091413e-02, 7.35638430e-03,
       -8.23573908e-04, 1.84428766e-02, 2.58035362e-02, 1.96396802e-02,
       -1.50887733e-02, 5.19268699e-02, 3.00104842e-02, -1.92786157e-02,
       -1.14738652e-02, -1.74487773e-02, 1.70130003e-02, 3.36351767e-02,
       1.87732466e-02, -1.43875591e-02, 1.13869109e-03, -1.58136766e-02,
       -1.26152653e-02, -3.37910317e-02, 8.25396553e-03, 8.00277758e-03,
       2.45869476e-02, 1.11122848e-02, -2.72725858e-02, 2.11927667e-02,
       -8.17877706e-03, 2.22555362e-02, -1.22319546e-03, 2.21362920e-03,
       2.62494804e-03, 3.55037339e-02, 5.47496136e-03, 9.40905511e-03,
       6.42260760e-02, 6.48846105e-02, 4.85313274e-02, 1.35977315e-02,
       5.99092199e-03, 1.32272197e-02, 5.09335399e-02, 3.08564529e-02,
       2.36533303e-02, 5.68317100e-02, 2.89662462e-02, -5.15161678e-02,
       -2.55629960e-02, -2.30181888e-02, -1.16946213e-02, 1.08208722e-02,
       -1.41846007e-02, -4.04854566e-02, 7.63839518e-04, -1.08377496e-02,
       -2.45315544e-02, 3.06045748e-02, -6.39193738e-03, -4.50707925e-03,
       2.59118006e-02, -1.11829350e-02, -1.11679714e-02, 4.49659452e-02,
       -1.21940318e-02, 2.29039472e-02, -2.48414576e-02, -7.03394786e-03,
       5.50617324e-03, 1.79869495e-02, -6.78143045e-03, -1.50484666e-02,
       4.14713956e-02, 5.95438108e-02, 1.42498650e-02, -2.25082412e-02,
       -5.56110870e-04, 1.69939324e-02, 6.92646056e-02, -5.46442857e-03,
       5.27722724e-02, 4.05390821e-02, 2.40795780e-02, 1.97563991e-02,
       2.15714239e-02, -1.06642935e-02, 1.95994903e-03, 1.39553193e-02,
       -2.73963138e-02, -3.08374520e-02, -1.67373922e-02, 1.52252438e-02,
       2.17638426e-02, 2.83121802e-02, -1.79649435e-03, 1.16522536e-02,
       2.97773480e-02, -2.67526340e-02, 1.34198153e-02, 4.36204784e-02,
       1.19964546e-02, -3.38429660e-02, -2.79791113e-02, -6.17520884e-03,
       -1.91120561e-02, 1.96068361e-02, -3.42949554e-02, 3.06133740e-02,
       3.64924856e-02, -9.04281810e-03, 5.90310479e-03, 1.87052526e-02,
       2.11416893e-02, 2.39858916e-03, 1.82448253e-02, -8.70274380e-03,
       5.17064855e-02, 5.44476435e-02, 2.53422316e-02, -2.41497941e-02,
       1.13312993e-02, 1.84840616e-02, 8.79249815e-03, 1.90972332e-02,
       -3.23792025e-02, -1.99901592e-02, 7.80196206e-05, -2.43416745e-02,
       -2.65529193e-03, -1.52423233e-02, 7.64975650e-03, 7.59003498e-03,
       -4.10391018e-03, -3.09527647e-02, 3.49649675e-02, 2.52531823e-02,
       2.65897829e-02, 4.51573730e-03, -7.94804748e-03, -2.56669838e-02,
       -1.86644047e-02, 3.57208811e-02, 5.82108879e-03, 9.44523886e-03,
       5.30242827e-03, 3.39076854e-03, -1.94269810e-02, -2.17699353e-02,
       1.45914005e-02, -2.24417895e-02, 1.35176014e-02, -4.87787314e-02,
       -1.23980362e-02, -1.70452315e-02, 2.18801573e-03, -1.53293228e-03,
       -4.74705873e-03, -1.07531874e-02, -1.32264262e-02, 1.03140660e-02,
       -1.83579549e-02, 1.81886107e-02, -1.16006341e-02, -1.16055440e-02,
       4.90354281e-03, 9.50835273e-03, 3.36587764e-02, 1.10235019e-02,
       4.11989167e-02, -1.71330720e-02, -2.05033645e-02, -2.57057510e-02,
       9.35843494e-03, -1.80890504e-02, -4.70509101e-03, 2.27595121e-02,
       3.85721400e-03, 9.55209415e-03, -6.77767247e-02, -1.90740451e-02,
       6.47370354e-04, -6.18596468e-03, -1.59770716e-02, 1.39408950e-02,
       9.30190179e-03, -1.06962081e-02, -1.75567046e-02, -4.13791277e-02,
       -5.97098982e-03, 2.60119177e-02, -2.18412396e-03, -3.21884789e-02,
       1.08663533e-02, 8.67833197e-03, -1.65015571e-02, -6.59084925e-03,
       -5.36983758e-02, -2.86987256e-02, 1.96922980e-02, -2.04792526e-02,
       8.69536586e-03, 3.71733084e-02, -4.88368422e-03, -2.11122800e-02,
       -1.75191145e-02, -6.32554814e-02, 4.81175398e-03, 4.53406163e-02,
       -4.06754622e-03, 3.66260521e-02, 1.70634035e-02, 1.00660278e-02,
       4.01205383e-03, -1.21189496e-02, 8.11407110e-04, -2.88116746e-02,
       -4.09645848e-02, -1.10735488e-03, 3.69335562e-02, 2.53094081e-03,
       8.51389300e-03, 5.13224863e-02, -2.72745872e-03, 1.11076394e-02,
       4.33841981e-02, 1.22805713e-02, 7.96327554e-03, -2.12975498e-02,
       -2.66495254e-02, -9.68376733e-03, 2.48198491e-02, -5.20226061e-02,
       -2.59806328e-02, -4.27243300e-02, -3.02737616e-02,
       -1.88358277e-02, -1.21882251e-02, 2.53798794e-02, -2.90952679e-02,
       3.21013890e-02, 2.38474458e-02, -5.84206311e-04, 2.72173677e-02,
       -1.21822702e-02, -3.79057266e-02, 4.60074138e-04, 8.43352359e-03,
       2.91838516e-02, 9.09609534e-03, -2.96854116e-02, -5.21589033e-02,
       -1.86501034e-02, -3.69392894e-02, -1.64330322e-02, 4.17954475e-03,
       1.72015056e-02, 3.10745761e-02, 1.34283397e-02, 1.97886992e-02,
       -1.81536060e-02, -1.28056528e-02, -1.10267177e-02,
       -2.87168901e-02, -2.48676836e-02, 3.42415869e-02, 2.57997345e-02,
       3.48176733e-02, 1.38573572e-02, -5.72935753e-02, -2.31504496e-02,
       -4.76826541e-02, -6.35047406e-02, 1.93179529e-02, 3.25548053e-02,
       3.92454676e-02, 6.30600154e-02, 2.58199014e-02, 6.37115538e-03,
       1.32273268e-02, 2.39983071e-02, -2.66342331e-02, -1.99786108e-02,
       3.96536227e-04, -1.37647092e-02, -1.54705020e-02, -3.85275413e-03,
       -1.82497185e-02, 2.27796864e-02, 3.07172351e-02, -9.49229393e-03,
       -2.83994414e-02, -2.46710377e-03, -4.50238492e-03,
       -4.33715340e-03, -7.37043144e-03, -2.62661483e-02,
       -2.40667909e-02, -1.79054290e-02, -4.08409499e-02, 5.78465173e-03,
       5.44262789e-02, 4.94676530e-02, 5.21870926e-02, 2.79175211e-02,
       -2.55484390e-03, 3.42129916e-02, 2.77582705e-02, -2.39762645e-02,
       -1.86055468e-03, -1.82811655e-02, -8.16448685e-03, 1.95789654e-02,
       5.06639015e-03, 1.94305219e-02, 4.37284596e-02, -1.67761566e-04,
       -3.45289707e-02, -4.39152867e-03, -9.97451600e-03,
       -1.71977859e-02, -7.68112019e-03, -3.44990157e-02,
       -1.19512705e-02, -1.90367494e-02, 1.65545642e-02, -6.68752892e-03,
       -1.84639951e-03, -3.55891213e-02, -2.01897211e-02, 4.98652682e-02,
       1.66187529e-02, 3.07317893e-03, -3.12388483e-02, -3.32412962e-03,
       -3.54905874e-02, 2.04623174e-02, -1.98129248e-02, -1.56836696e-02,
       2.55539343e-02, -1.83278583e-02, 3.55518125e-02, 9.75755602e-03,
       -7.05664512e-03, 2.03584936e-02, -1.39548825e-02, -1.12130633e-02,
       1.00428211e-02, 1.83479078e-02, -3.94268520e-03, -1.44884586e-02,
       -3.29179317e-02, 1.13765185e-04, 1.35167902e-02, -1.67703722e-02,
       -4.86778878e-02, -3.89637873e-02, 3.44036985e-03, 1.08551932e-02,
       1.96376257e-03, -1.66566279e-02, 3.04970779e-02, -1.00683630e-03,
       -5.30546159e-02, -6.16485849e-02, -6.23127781e-02,
       -1.01136202e-02, -2.29316317e-02, -3.80756333e-02,
       -3.40693332e-02, -2.31216419e-02, -2.74527613e-02, 3.24953683e-02,
       3.64517868e-02, 5.06011471e-02, 5.95190302e-02, 1.62659716e-02,
       1.73867214e-02, -2.19815448e-02, 5.38171595e-03, -2.41019676e-04,
       4.37175557e-02, 4.08364795e-02, -6.53180294e-03, 4.63792756e-02,
       4.63740318e-04, -8.93241540e-03, -1.62630051e-03, -1.46176647e-02,
       -1.70210227e-02, -1.51793621e-02, -4.63249572e-02,
       -2.55331118e-02, 1.82230230e-02, 1.03356792e-02, 2.55706180e-02,
       1.92257892e-02, -1.36098294e-02, 2.18914021e-02, -2.45425440e-02,
       -4.73092794e-02, -4.38033827e-02, -3.21744122e-02,
       -6.42743930e-02, -2.97025423e-02, -4.00160775e-02,
       -2.98193693e-02, -1.64267085e-02, 9.92408767e-03, 3.12701054e-02,
       4.21343371e-02, 8.51489082e-02, 5.44374483e-03, 2.74220929e-02,
       3.80483717e-02, 9.08732507e-03, -3.27549223e-03, -4.07062545e-02,
       -1.94594860e-02, -3.43688354e-02, 4.38325778e-02, -2.86029652e-02,
       -1.12776617e-02, -3.25068384e-02, -2.37551369e-02,
       -2.43580006e-02, -6.62862957e-02, -3.98959368e-02,
       -5.02545089e-02, -4.05495763e-02, -3.09436619e-02,
       -1.40902176e-02, -3.53038236e-02, -4.35991213e-03, 6.35941047e-03,
       -1.26527008e-02, -9.67900327e-04, -2.38622222e-02,
       -2.21662242e-02, -4.43428196e-02, -4.51347511e-03,
       -2.11657360e-02, 1.29570821e-02, -1.23241022e-02, -1.85341313e-02,
       3.72272991e-02, 1.37270587e-02, 4.49005030e-02, -6.68269861e-03,
       2.12873556e-02, -1.51613746e-02, 1.48582654e-02, -7.20625557e-03,
       1.90521032e-02, 2.48092823e-02, 2.36000717e-02, 2.82704551e-02,
       -3.39718461e-02, -5.68560557e-03, -5.43114962e-03, 4.38040681e-02,
       1.37731507e-02, 2.03173589e-02, 6.62326114e-03, -3.62735987e-02,
       -2.53299829e-02, -5.10684885e-02, -1.79952942e-02,
       -1.31205488e-02, -3.64204962e-03, 4.66784388e-02, 2.75336616e-02,
       1.24837924e-02, -2.68657580e-02, -5.76928817e-03, -1.09028136e-02,
       -2.14372296e-02, 2.05501691e-02, 2.08617114e-02, 3.31161506e-02,
       9.88986925e-04, 2.33002920e-02, 3.23999301e-02, 2.51775272e-02,
       -1.31305596e-02, -3.99506837e-03, -1.79596730e-02, 1.87630933e-02,
       1.47895291e-02, 2.01081671e-03, 2.37061251e-02, 1.47424545e-02,
       1.12192836e-02, 3.07175843e-03, 9.08865070e-04, 1.28713353e-02,
       4.16802838e-02, 6.35757297e-02, -8.90249666e-03, 2.86740437e-02,
       1.30976606e-02, 3.24756303e-03, 1.10630374e-02, -1.09956665e-02,
       1.81359388e-02, 7.20504001e-02, 1.18811317e-02, -1.04913982e-02,
       8.83595087e-03, 8.35410412e-03, 9.98459943e-03, 2.57430281e-02,
       2.07487848e-02, 3.59625705e-02, 1.93360206e-02, -5.96175017e-03,
       3.12837167e-03, 1.35148726e-02, 5.43353055e-03, 1.70671996e-02,
       4.91234250e-02, 2.10655611e-02, -2.49702716e-03, 1.58732589e-02,
       5.05691916e-02, -4.86454321e-03, 8.17606784e-03, 2.06446201e-02,
       1.50439823e-02, 5.38705774e-02, 4.15516011e-02, 6.31514192e-02,
       3.47809643e-02, 4.14710864e-02, -5.44739794e-03, -5.53320162e-03,
       -1.49599314e-02, -1.43633336e-02, 1.13561051e-02, 8.83449148e-03,
       5.97525202e-02, 3.12672444e-02, -1.28447171e-02, 9.35192965e-03,
       -4.62042214e-03, -1.65067259e-02, -1.15356771e-02, 3.28747407e-02,
       5.56616522e-02, 4.37472127e-02, 3.36933099e-02, 1.18327877e-02,
       -2.41593253e-02, -1.21713774e-02, 1.18737314e-02, -7.10024498e-03,
       -1.55330570e-02, -7.33055687e-03, 1.59016419e-02, -2.06289943e-02,
       -1.48533871e-02, -6.36651414e-03, -1.17401192e-02, 4.65899752e-03,
       1.09919645e-02, -7.45123485e-03, 2.22749300e-02, 2.37900820e-02,
       2.73720659e-02, -1.97732300e-02, -4.51788446e-03, -1.12341216e-03,
       -1.01960991e-02, -6.21129991e-03, -2.19178032e-02,
       -2.52720993e-03, 3.08402479e-02, 6.38361871e-02, 1.00634117e-02,
       8.75041261e-03, 8.94493610e-03, -1.10161267e-02, -2.59949751e-02,
       -1.19901644e-02, -4.10152040e-02, 3.30192558e-02, 5.43906316e-02,
       5.54019213e-03, 1.63865704e-02, -4.01668437e-03, 6.14114245e-03,
       -5.98566094e-03, -3.56237628e-02, -3.35122496e-02,
       -8.40074942e-03, 1.97145483e-03, -3.34325596e-04, 1.27048173e-03,
       -1.30956778e-02, -2.22441815e-02, -3.71274576e-02,
       -2.69187782e-02, -1.82823110e-02, 4.98972759e-02, 1.98592972e-02,
       5.77303173e-04, 1.23078302e-02, -1.14033176e-02, 7.86046556e-04,
       3.52409929e-02, -1.41314110e-02, -9.40024108e-03, -2.23547071e-02,
       -1.73291732e-02, 8.14722013e-03, 2.21331068e-03, 9.86068137e-03,
       9.08964314e-04, 3.16163450e-02, 4.09181863e-02, 3.80875058e-02,
       6.27216026e-02, 1.65705811e-02, 1.35424379e-02, -2.07769615e-03,
       -3.58928218e-02, -3.64248380e-02, 1.55256279e-02, -1.48650268e-02,
       -1.80967133e-02, -4.58628200e-02, -6.25996888e-02,
       -1.23147285e-02, 6.83123799e-05, -3.89117673e-02, -2.17005368e-02,
       -2.34114472e-03, -3.53348590e-02, 2.65110340e-02, 3.19802016e-02,
       -5.18770516e-03, 2.38292832e-02, -1.24724377e-02, -1.21729989e-02,
       -5.98795945e-04, 1.84991620e-02, 3.07241995e-02, 7.67375669e-03,
       -6.96425699e-03, -2.43062824e-02, -2.17460748e-03, 3.07774041e-02,
       3.26584764e-02, 2.07800269e-02, 3.38789038e-02, 3.58246639e-02,
       4.04649600e-03, 1.80843454e-02, 3.83751430e-02, 2.26303823e-02,
       -4.70351391e-02, -5.67050613e-02, -2.55156457e-02,
       -1.81225576e-02, 2.39258702e-03, 1.04140602e-02, -1.34241639e-03,
       -6.16222387e-03, -1.57821141e-02, -2.28839740e-02,
       -2.26639397e-02, -5.02542146e-02, -3.95582104e-03,
       -1.41315050e-02, 2.05919053e-02, 2.67123021e-02, 2.76875738e-02,
       5.03796991e-03, 4.16882522e-02, 7.04355612e-02, 4.95116413e-02,
       2.66360212e-02, 8.32130108e-03, -1.58189200e-02, 3.27866487e-02,
       5.58927804e-02, 6.50992198e-03, 4.16601804e-04, 1.33509189e-02,
       -6.75996579e-03, 3.23335789e-02, 2.51222979e-02, 2.70002019e-02,
       6.23000786e-02, 2.61267442e-02, -2.10333616e-02, 2.36949585e-02,
       5.16870618e-02, -5.97842317e-03, 5.83534874e-03, -1.61748864e-02,
       -3.20182331e-02, -1.64587311e-02, 5.83855715e-03, 1.24387685e-02,
       -2.23685964e-03, -5.24789095e-03, -2.32020933e-02,
       -1.86431520e-02, 2.11865883e-02, 2.08942546e-03, -1.13859363e-02,
       -2.83886660e-02, -1.39498981e-02, -5.87773044e-03,
       -1.28028328e-02, -6.65547978e-03, 3.15562747e-02, 8.45968910e-03,
       3.98720801e-02, 3.31270769e-02, -2.09873132e-02, -2.67842412e-02,
       -1.83625538e-02, -2.41225138e-02, 6.03417540e-03, 3.84403095e-02,
       4.56573851e-02, 3.38622518e-02, 2.42573628e-03, -3.54844052e-03,
       4.27235756e-03, 7.74915703e-03, 7.89503846e-03, 7.97032565e-03,
       8.04745313e-03, -4.11296450e-03, -1.26246708e-02, -2.89850160e-02,
       -8.65788311e-02, -3.37667428e-02, -1.91952884e-02,
       -2.18892489e-02, -5.21930717e-02, -1.02092782e-02,
       -1.75644942e-02, 1.84205323e-02, -1.32286679e-02, -5.06039858e-02,
       -3.37583870e-02, -1.52060837e-02, -1.09066349e-02,
       -2.71020271e-03, 1.04137240e-02, 1.72253828e-02, 2.37944070e-02,
       -2.82358658e-02, -2.18558758e-02, -2.85140630e-02, 2.59687379e-02,
       3.01328767e-02, 1.65087543e-02, 1.94018614e-02, -1.26284203e-02,
       -6.56000047e-04, -4.79476294e-03, -5.72586805e-03,
       -2.07113102e-02, -1.64374840e-02, 4.02136259e-02, 3.63252126e-02,
       -1.28623880e-02, -2.63947304e-02, 8.46368354e-03, -1.70429666e-02,
       -2.17607729e-02, -1.78641621e-02, 1.46502722e-02, 2.42620558e-02,
       1.18142692e-03, -4.37476039e-02, -1.82360634e-02, 2.67440453e-03,
       1.08241159e-02, 1.00312494e-02, -8.78400821e-03, 7.35965930e-03,
       8.79043771e-04, 2.67662504e-03, 2.97325328e-02, -1.16573581e-02,
       -2.14877981e-03, 7.37045938e-03, 1.59893148e-02, -1.31508950e-02,
       -1.00294864e-02, -1.26015358e-02, -1.93132665e-02, 3.87388701e-03,
       -2.10786574e-02, -5.67889288e-02, -4.94083874e-02,
       -1.71008278e-02, -1.90598704e-02, 4.14888896e-02, 4.80846241e-02,
       6.62148744e-02, 2.06017438e-02, -8.83357786e-03, 3.10236262e-03,
       2.02511568e-02, 1.66455600e-02, 2.16916148e-02, 2.62115467e-02,
       3.47785950e-02, 3.60306576e-02, 8.28474574e-03, 3.11347097e-03,
       -6.92592657e-05, -1.38261924e-02, 5.45922900e-03, 1.69998240e-02,
       -4.30737697e-02, -1.16652986e-02, 3.45552294e-03, -1.46711441e-02,
       -2.38432810e-02, -1.94201488e-02, -5.56202158e-02,
       -1.25306034e-02, -3.84609327e-02, -2.61131097e-02,
       -3.27619687e-02, -3.19971181e-02, -2.70620212e-02,
       -5.24360649e-02, -3.59776132e-02, 1.49349484e-03, -1.34024499e-02,
       -1.04655372e-02, -6.47394592e-03, 7.71782920e-02, 7.59495422e-02,
       4.93886322e-02, 5.31600676e-02, 3.92168909e-02, -9.89776384e-03,
       2.97614280e-03, -1.16637927e-02, -1.37941502e-02, 9.37255193e-03,
       3.29707190e-02, 2.88654063e-02, 1.79741494e-02, 4.46058586e-02,
       5.03154211e-02, 3.39174271e-02, -5.20514091e-04, -6.25973754e-03,
       -2.04606317e-02, -1.03327623e-02, -2.67037433e-02,
       -2.34979037e-02, -5.99735565e-02, -3.16380747e-02,
       -2.18723528e-02, 2.09350362e-02, -2.40346417e-02, -3.07607558e-02,
       -1.66081768e-02, -4.33272906e-02, -1.48374669e-03,
       -6.38267174e-02, -5.42658977e-02, -3.24598253e-02,
       -9.71410237e-03, 3.38133574e-02, 2.03037970e-02, 3.71756107e-02,
       4.02477831e-02, 2.75715441e-02, 4.82122153e-02, 4.39291373e-02,
       1.87142733e-02, 1.49365095e-02, 3.24107185e-02, 3.52371857e-03,
       9.22639575e-03, 2.52048764e-02, 5.70142232e-02, 3.95082422e-02,
       2.90076081e-02, 1.85761731e-02, 3.61370519e-02, -3.16803274e-03,
       -7.10933795e-03, -1.59660000e-02, -3.73090543e-02, 1.69739425e-02,
       -1.40172057e-02, -9.72344819e-03, -5.74337365e-03, 8.49803537e-03,
       -1.50222192e-02, -2.99107879e-02, -1.56292822e-02,
       -4.82947081e-02, -1.98708754e-02, -2.95669697e-02, 3.53356241e-03,
       -5.63226230e-02, 1.20191760e-02, 3.82477902e-02, 3.27333584e-02,
       2.18019839e-02, 4.87887748e-02, 6.18897863e-02, 6.60752282e-02,
       3.05153057e-02, 4.11537774e-02, 2.26492770e-02, 1.88669600e-02,
       -8.27485323e-03, -2.77755782e-02, -1.11009274e-02,
       -1.32791302e-03, 3.44199762e-02, 3.57630588e-02, 7.01713488e-02,
       7.87622854e-03, -6.05320849e-04, 8.41232773e-04, 6.56639040e-03,
       -1.67514232e-03, -7.12180464e-03, -2.40362622e-02, 3.85393463e-02,
       -6.08691294e-03, 1.44975828e-02, 2.46280953e-02, -1.33463917e-02,
       1.00609586e-02, 7.34070037e-03, 3.74915265e-02, 5.88745698e-02,
       6.50462434e-02, 7.97518622e-03, 2.07826905e-02, 8.13273340e-03,
       1.74347404e-02, 7.98035320e-03, 3.15063447e-03, -1.20011708e-02,
       -3.44182961e-02, -3.09019219e-02, 1.91564334e-03, -3.21175270e-02,
       -1.21148136e-02, -6.98448683e-04, 3.39078791e-02, 2.09429786e-02,
       1.25179645e-02, 2.74667889e-02, 6.59290515e-03, -1.00623639e-02,
       -1.24231363e-02, 4.45626816e-03, -2.45223809e-02, 4.02863137e-03,
       -1.58321112e-02, -4.10725782e-03, 2.12191604e-02, 3.61080654e-02,
       -1.47294728e-02, -6.91008056e-03, -5.91213815e-03,
       -2.62653083e-02, -2.33229082e-02, -4.66552936e-02, 2.26893779e-02,
       3.61181125e-02, 4.44183722e-02, 4.82455688e-03, 1.11536197e-02,
       -1.18163284e-02, -2.79816948e-02, 1.22342855e-02, 9.57842264e-03,
       4.45471524e-04, 2.83127911e-02, -1.30501268e-02, -1.80635620e-02,
       -1.14859799e-02, 2.37536877e-02, -2.53139716e-02, -1.81399863e-02,
       -2.56649544e-03, 1.88001171e-02, 2.93133613e-02, 2.36822963e-02,
       -2.03678291e-03, 1.09310616e-02, 1.93248829e-03, 1.75705142e-02,
       -2.16254126e-02, 2.77972352e-02, 1.07389558e-02, 1.17480615e-02,
       -4.80515696e-03, -3.98527980e-02, -1.91321666e-03, 3.87922698e-03,
       3.21172131e-03, -8.74814752e-04, 7.29473494e-03, 4.46910923e-03,
       3.10623739e-02, 3.87795679e-02, 6.90504210e-03, 1.89691093e-02,
       -1.69207510e-02, -2.56583374e-03, -5.79944160e-03, 8.15957692e-03,
       -2.59544123e-02, 1.36776371e-02, -1.48747973e-02, -3.62301916e-02,
       -1.64359305e-02, 1.53404055e-02, 3.95506844e-02, 2.77261194e-02,
       -1.88004877e-02, -7.46856304e-03, 2.66961232e-02, 2.30492763e-02,
       8.83138273e-04, 3.63015849e-03, -5.38015850e-02, -4.16128188e-02,
       7.66043877e-03, 1.73195358e-02, 2.49074437e-02, 5.30395843e-02,
       3.28465365e-02, -7.17990613e-03, -4.49985936e-02, 7.40760518e-03,
       3.65519460e-04, -2.76773218e-02, -8.78517050e-03, 1.92377414e-03,
       4.65462059e-02, 1.71733629e-02, 5.08856848e-02, 1.38998702e-02,
       -2.46507656e-02, 9.90875904e-03, 2.10121404e-02, 6.00071996e-03,
       -3.21856514e-02, -1.15744937e-02, -8.15245230e-03,
       -1.34122809e-02, -4.71447036e-02, 2.99865077e-03, -1.36647851e-03,
       -8.40034708e-03, -5.15041761e-02, -1.62574481e-02,
       -3.19999419e-02, -6.51470479e-03, 3.84996412e-03, 3.16193961e-02,
       5.36515154e-02, 7.21511915e-02, 1.83262751e-02, 1.89110544e-02,
       5.32796327e-03, -1.89514342e-03, -6.18742174e-03, 9.76535399e-03,
       2.05024946e-02, 5.09830527e-02, 3.00437678e-02, -9.98494588e-03,
       2.70548207e-03, 3.06692235e-02, 2.71731205e-02, -1.27058476e-02,
       -2.08040718e-02, 3.08982544e-02, 1.35456277e-02, 3.17119248e-02,
       -5.47215575e-03, -1.62151940e-02, 4.67661023e-03, -8.38255882e-03,
       -2.14128271e-02, 5.93461003e-03, 1.85302496e-02, -2.69035026e-02,
       -1.68481190e-02, 3.47151910e-03, 1.65528595e-03, -3.86379543e-03,
       1.96722373e-02, -1.99092850e-02, -2.79009510e-02, -3.81281562e-02,
       4.24089506e-02, 1.29850693e-02, -2.52459850e-02, -2.37963703e-02,
       -2.64670067e-02, 2.73660780e-03, -2.35852022e-02, -4.32623141e-02,
       2.40482986e-02, 2.09038071e-02, -1.83007855e-03, 1.10595650e-03,
       -2.75095068e-02, -4.40905057e-02, 3.52425128e-02, 3.32261212e-02,
       8.32027011e-03, 2.54529547e-02, -3.79884019e-02, -1.93533339e-02,
       -1.03057753e-02, -1.92116927e-02, -7.67093897e-02,
       -3.96428034e-02, -5.62673248e-02, -7.28652924e-02,
       -4.73508947e-02, 6.29530288e-03, -1.00089759e-02, 9.27269738e-03,
       -2.14065872e-02, -4.96181548e-02, -1.27582776e-03,
       -1.14019709e-02, -2.67454013e-02, -1.64184365e-02,
       -2.93584145e-03, -1.68977566e-02, -1.53396546e-03,
       -5.51250242e-02, -2.77532707e-03, 3.97971831e-02, 2.85039246e-02,
       1.90492403e-02, 1.86143704e-02, 6.16602078e-02, 4.99681644e-02,
       1.42962560e-02, 6.14270242e-03, 4.56290543e-02, 3.48548554e-02,
       7.71161467e-02, 4.07351479e-02, 2.97870953e-02, 3.58689181e-03,
       -3.16118374e-02, -4.34165113e-02, -7.86017030e-02,
       -5.74571677e-02, -4.42472734e-02, -4.08244915e-02,
       -3.55310962e-02, -7.34559074e-03, 3.17832902e-02, 4.82512303e-02,
       1.16411150e-02, -1.17825093e-02, 1.52512519e-02, 1.18988203e-02,
       2.28443593e-02, 4.65638414e-02, 3.68543789e-02, 1.79410633e-02,
       -1.05018832e-03, -9.63519420e-03, -2.22071987e-02, 2.43737572e-03,
       -3.92322848e-03, 3.22096795e-02, 4.21826867e-03, 2.24132799e-02,
       -8.47369246e-03, -2.29574721e-02, -8.02095514e-03,
       -2.64790398e-03, 2.94776149e-02, 4.22856472e-02, 1.87052339e-02,
       2.41998602e-02, 2.92388070e-02, 1.39254900e-02, 1.61377043e-02,
       -4.56575910e-03, -3.94992754e-02, 5.42786147e-04, -3.32352482e-02,
       7.74578983e-03, 2.79800929e-02, 2.01653577e-02, -3.64357606e-02,
       3.54027678e-03, -3.05244769e-03, 6.71939226e-03, -3.50713730e-02,
       3.14650014e-02, 1.48699880e-02, 1.84306670e-02, 4.36660741e-03,
       -4.34979722e-02, -4.41048853e-02, -2.84486525e-02,
       -3.27146985e-02, -1.74988899e-02, -4.50005988e-03,
       -1.72807444e-02, -2.27883663e-02, -1.55851282e-02,
       -1.75145753e-02, -4.40033227e-02, -3.65408473e-02,
       -1.53528946e-02, 1.18861888e-02, 4.09253947e-02, 3.85182612e-02,
       -7.29570445e-03, 3.90831428e-03, -6.29020343e-03, -6.98286155e-03,
       -1.30253527e-02, 7.44101917e-03, -2.90325396e-02, -1.57955773e-02,
       -3.09832077e-02, -1.93136167e-02, -2.09588418e-03, 3.72044221e-02,
       5.20213461e-03, 8.78363941e-03, 8.17487855e-03, -5.75749530e-03,
       1.68465488e-02, 1.64670404e-02, -1.49912923e-03, 2.06189919e-02,
       -7.43659260e-03, -4.59759161e-02, -3.71660590e-02,
       -2.63943337e-02, 6.76823780e-03, 5.51396459e-02, 1.11348843e-02,
       -3.90169956e-02, -1.14866486e-02, -1.34407785e-02,
       -4.66502905e-02, -6.11613318e-02, -1.21300500e-02, 2.36728205e-03,
       2.22289227e-02, -2.77807228e-02, -5.63590489e-02, -3.04215848e-02,
       1.40768904e-02, -1.79886632e-02, -7.16059422e-03, 2.16081087e-02,
       3.50591391e-02, 4.12014611e-02, 3.97987245e-03, -1.94328241e-02,
       6.64472347e-04, -1.30212177e-02, -1.77580107e-03, 2.14268621e-02,
       2.76222341e-02, -5.19405156e-02, 4.07137573e-02, 1.31095937e-02,
       -1.41184963e-02, -3.67363803e-02, -5.54721337e-03, 8.97134538e-04,
       -3.95115837e-02, 1.67314932e-02, 2.40996238e-02, 6.09500110e-02,
       -1.18963411e-02, -1.79192349e-02, -1.10908514e-02,
       -1.48612317e-02, -3.19915749e-02, -1.06713504e-01,
       -5.48524261e-02, 8.22991971e-03, 6.01780973e-03, -4.87972014e-02,
       -4.57911082e-02, -4.31195349e-02, 2.70265713e-02, 3.98638621e-02,
       2.51176096e-02, 4.88590002e-02, 9.04927775e-03, 5.01140207e-02,
       1.28495973e-02, 2.83347387e-02, -3.70778702e-03, 1.16545912e-02,
       -2.39162613e-03, -5.17606176e-02, 1.48452427e-02, 3.00814658e-02,
       3.60344164e-02, -1.61923598e-02, 1.59969833e-02, 4.93870676e-03,
       1.40770664e-02, 1.75097827e-02, -2.05993056e-02, -1.51957953e-02,
       -6.29905052e-03, 1.85746793e-02, -6.58640289e-04, 1.05684064e-02,
       -2.23579649e-02, -1.19936103e-02, 7.86667131e-03, 4.26166598e-03,
       -1.00833643e-03, 1.09804226e-02, 2.91021317e-02, 1.25457570e-02,
       1.97648490e-03, -3.24658793e-03, 9.99803189e-03, 1.14488322e-02,
       -6.54274551e-03, 2.95010060e-02, 7.67808361e-03, 3.08268294e-02,
       9.47374851e-03, 1.64282881e-02, 9.50863212e-03, -1.43023776e-02,
       1.48770437e-02, 1.01078777e-02, 4.31991890e-02, 3.58062424e-02,
       2.36528162e-02, 1.16096046e-02, 1.40755596e-02, 2.64487788e-03,
       -1.17053511e-02, -1.45764537e-02, -4.98829084e-03, 3.43114696e-02,
       2.30043437e-02, 4.91820388e-02, 3.60241570e-02, 2.99751083e-03,
       -2.27768766e-03, 4.53157909e-03, -2.49095988e-02, -3.82409766e-02,
       4.76313680e-02, 2.04493497e-02, 3.66029069e-02, 2.60047126e-03,
       -1.74134634e-02, 1.82820074e-02, -1.22258896e-02, -3.91700258e-03,
       3.95254558e-03, 4.52659726e-02, 2.14043781e-02, 2.69144457e-02,
       6.93594199e-03, 2.92234216e-03, -3.46953282e-03, 2.73093544e-02,
       -8.39068647e-03, -3.09968460e-03, 2.89584137e-02, 7.19853193e-02,
       1.16675813e-02, 1.55630335e-02, -1.29730231e-03, 2.54560020e-02,
       -2.67294832e-02, -3.26322429e-02, -3.02285217e-02, 3.62009672e-03,
       -1.42283374e-02, 4.38461080e-03, -1.48464283e-02, -1.11084469e-02,
       -2.13840529e-02, -5.62461978e-03, -6.54480013e-04, 1.89441442e-02,
       3.48122790e-02, -1.93802007e-02, -2.25188397e-02, 1.70729998e-02,
       3.29254419e-02, 2.28836853e-02, -6.95156486e-05, -3.01482193e-02,
       -4.02827188e-03, 2.93768682e-02, 1.47540886e-02, -3.20609915e-03,
       -3.47649343e-02, 1.43447220e-02, 1.83520012e-03, 3.06768697e-02,
       1.40573364e-02, 4.50989492e-02, 3.80523391e-02, -7.87795242e-03,
       1.21116340e-02, -1.20318343e-03, 9.17051919e-03, 2.72618290e-02,
       -5.48864491e-02, -2.07394511e-02, -4.42846538e-03, 6.96176058e-03,
       -3.04396078e-02, -2.84817070e-03, 1.78221997e-03, 6.64870167e-05,
       -1.98185574e-02, 1.88162215e-02, 7.34446850e-03, 1.26569802e-02,
       -1.78738646e-02, -2.77655516e-02, -5.99301793e-02,
       -1.23976050e-02, 4.79554012e-03, 1.56158945e-02, -3.06212530e-02,
       -9.40730050e-03, 3.18816751e-02, 4.98246364e-02, 6.81571569e-03,
       8.94634519e-03, 1.73003376e-02, -3.30942348e-02, -2.45181192e-02,
       2.56530661e-02, 5.03109731e-02, 2.39561629e-02, 4.31044400e-02,
       1.92251336e-03, -1.96648147e-02, -2.02503987e-02, 8.11011158e-03,
       3.55854034e-02, 7.75728514e-03, -1.27293048e-02, -1.09276976e-02,
       -2.74068024e-02, -1.99179375e-03, -2.02153381e-02,
       -1.93557478e-02, 2.51713954e-02, 1.58045087e-02, -3.41070332e-02,
       -3.82894091e-02, -1.21041229e-02, 7.92467617e-04, -2.66671199e-02,
       -3.19274655e-03, -1.05786696e-02, -2.82355696e-02,
       -3.41053158e-02, 1.92213114e-02, 1.48894219e-02, 1.94245074e-02,
       9.54377558e-03, -1.66015187e-03, 1.47347059e-02, 8.88774463e-04,
       7.89345354e-02, 6.75796047e-02, 6.82527432e-03, -1.25422738e-02,
       -4.39062109e-03, 2.34571546e-02, 1.13438601e-02, 6.49938127e-03,
       -7.03189941e-03, 3.18832323e-02, 4.15409245e-02, -4.81108464e-02,
       -7.36947283e-02, -5.43338843e-02, -3.67569588e-02,
       -8.74510780e-02, -1.88450534e-02, -3.08714947e-03,
       -1.15641775e-02, -2.43896786e-02, -2.92950068e-02,
       -4.20395099e-02, -8.25672597e-03, 1.75297540e-02, -6.02136888e-02,
       -3.97899561e-02, 9.56745166e-03, -9.41391569e-03, 8.46601464e-03,
       -2.81543098e-03, -5.23001179e-02, -9.67092160e-03, 1.77255739e-02,
       -4.25706543e-02, -1.47940367e-02, -2.32429188e-02, 6.00877451e-03,
       2.77740099e-02, 9.82214510e-03, -1.93741042e-02, 2.22537182e-02,
       1.74262002e-02, -3.95874530e-02, -1.53574990e-02, 3.87428817e-03,
       -1.00385807e-02, 2.02804357e-02, 1.05282222e-03, -3.18955779e-02,
       -3.29204947e-02, -4.15685959e-02, -6.40766397e-02,
       -8.94125551e-02, -5.28116114e-02, -4.34519053e-02, 9.01233405e-03,
       3.91817503e-02, 2.33110767e-02, 2.44518053e-02, 4.58164141e-03,
       1.73436869e-02, -1.79795623e-02, -5.89546189e-03, 3.97465043e-02,
       3.72149125e-02, 2.29796879e-02, 1.84008926e-02, 2.01654118e-02,
       1.48998620e-02, -2.01778975e-03, -6.28082156e-02, -3.40794912e-03,
       4.28977102e-04, 3.20543442e-03, 3.39334458e-02, 3.99584956e-02,
       6.70256764e-02, 1.42936651e-02, 4.81358767e-02, -2.75204587e-03,
       -2.99843564e-03, 4.43102531e-02, 6.92989752e-02, 1.49832154e-02,
       6.23365724e-03, 1.24294572e-02, -9.11244377e-03, 1.77886784e-02,
       -3.34058180e-02, -1.07509159e-02, 1.51462704e-02, 1.37747088e-02,
       -3.22442572e-03, 2.79984735e-02, 2.55897287e-02, 4.98786531e-02,
       -1.48621527e-02, 8.72850232e-03, -5.19773923e-04, -3.65355774e-03,
       -3.41216996e-02, 2.03139391e-02, 3.78846074e-03, 2.99791936e-02,
       -8.87514558e-03, 9.60971322e-03, -2.50656269e-02, -1.54583659e-02,
       -1.81744192e-02, 7.29573937e-03, 3.26577649e-02, 2.37662718e-02,
       1.94072234e-03, 2.40265299e-02, 1.70488749e-02, -3.91616905e-03,
       1.19902275e-03, -3.81217687e-03, 6.11435948e-03, -5.42933261e-03,
       -1.57276317e-02, -2.05206014e-02, 1.77864153e-02, -6.46133348e-03,
       1.78459717e-03, -9.81068425e-03, -1.16688292e-02, 2.39963387e-03,
       2.44219620e-02, -9.51122306e-03, 1.96818672e-02, 4.60935794e-02,
       2.74480321e-02, 2.67927106e-02, 1.04580307e-02, 1.51814497e-03,
       5.01066819e-02, -1.67559553e-02, -1.67285092e-02, -2.47850344e-02,
       -1.66446247e-04, -3.18299793e-02, -3.49853449e-02,
       -1.28221745e-02, -2.31742095e-02, -3.79435495e-02,
       -1.62677355e-02, 3.52771371e-03, 3.18383761e-02, -1.46115595e-03,
       -2.48493422e-02, -3.03866770e-02, -3.07710413e-02,
       -3.50854695e-02, -1.15503874e-02, 2.79529998e-03, -8.25057365e-03,
       -1.05765485e-03, 5.77349886e-02, 6.28429204e-02, 2.40736511e-02,
       -2.08540913e-03, -1.43971760e-02, 1.34449676e-02, -3.53743248e-02,
       -2.17891354e-02, 3.07558547e-03, 5.25961816e-02, -1.04615698e-02,
       4.46164198e-02, 2.06446443e-02, 3.39569000e-04, -1.18202623e-02,
       -4.11409400e-02, -3.76076661e-02, 8.26297607e-03, 1.57758687e-02,
       -1.44470418e-02, -3.60117145e-02, -4.11294103e-02,
       -4.30902727e-02, -1.22065106e-02, -2.59029232e-02,
       -5.27256653e-02, 1.49037992e-03, -4.83518094e-03, -1.35699986e-02,
       -1.66027881e-02, -5.75763732e-02, -4.91671450e-02,
       -2.03117840e-02, 4.23864927e-03, 1.69159677e-02, 2.73712184e-02,
       7.76765123e-02, 3.43414284e-02, 6.52227402e-02, 8.43420811e-03,
       3.61002795e-02, 3.31533849e-02, 1.23850594e-03, 5.16251777e-04,
       -1.91454068e-02, 3.25899720e-02, 3.01600806e-02, 2.53971554e-02,
       -6.10049032e-02, -2.40668585e-03, 1.45257786e-02, 8.48579872e-03,
       -1.08879376e-02, -4.12658276e-03, 3.56254615e-02, -1.47807738e-02,
       3.90071161e-02, -2.73466203e-02, 8.09775479e-03, 1.17445961e-02,
       -3.29375975e-02, -2.73544397e-02, -3.16078141e-02, 1.20129595e-02,
       -3.55063565e-02, -3.32553908e-02, -1.08700462e-01,
       -3.41243036e-02, -8.82592425e-03, -4.84319963e-03,
       -3.00829823e-04, -1.40468478e-02, 2.43619587e-02, 3.01027987e-02,
       5.56263477e-02, -1.22558931e-02, 1.87856015e-02, 1.16577530e-02,
       -1.61090936e-03, 2.49091759e-02, 2.21409108e-02, 2.20700670e-02,
       2.33703107e-02, 4.61756662e-02, -3.27156880e-03, 1.07186893e-03,
       -4.32597613e-03, -8.68414901e-03, 2.66521517e-02, -2.87428102e-03,
       2.51513477e-02, -3.15502621e-02, -7.53004290e-03, -1.08053870e-02,
       2.70173606e-02, 1.57135166e-02, -8.04197276e-04, -1.72086954e-02,
       2.73909071e-03, 1.30114686e-02, -5.94609184e-03, 1.69618439e-03,
       1.23704998e-02, 1.72590818e-02, -1.33418292e-02, 1.35301403e-03,
       5.82799641e-03, 2.63270363e-02, 3.84330824e-02, 2.52142437e-02,
       3.86048034e-02, -2.38027275e-02, -2.28477996e-02, -6.70869881e-03,
       2.36794669e-02, -1.01210072e-03, 2.56432444e-02, 1.38580045e-02,
       7.36905932e-02, 3.99726406e-02, -2.41604447e-02, -1.54333627e-02,
       2.91624703e-02, -1.54846329e-02, -8.27004202e-03, 3.29922847e-02,
       3.69938947e-02, 1.77354049e-02, 3.58613692e-02, -2.29537324e-03,
       -1.72675624e-02, -1.23315500e-02, 1.03793284e-02, -3.41883162e-03,
       2.93871178e-03, 4.14741300e-02, 7.41456309e-03, 4.04424742e-02,
       -4.68654595e-02, -2.24642511e-02, 1.01424828e-02, -1.84917357e-02,
       -7.33267292e-02, -4.55621108e-02, -1.90408863e-02,
       -8.22053757e-03, 2.25745123e-02, -3.39468084e-02, -4.01002504e-02,
       1.06812268e-02, 1.72478165e-02, -2.15973295e-02, 2.39947382e-02,
       4.57618386e-02, -3.07422504e-02, 1.76966768e-02, -4.76729870e-02,
       -4.55856696e-02, -2.71705503e-04, 1.47373043e-02, -1.48851834e-02,
       -1.08443545e-02, -1.95746273e-02, -1.82376634e-02, 3.89222614e-02,
       9.29549616e-03, -2.36542942e-03, 2.80991606e-02, 1.40225030e-02,
       1.29143652e-02, 4.89380993e-02, 2.74931323e-02, 3.08922194e-02,
       3.16299945e-02, -1.17369592e-02, 1.06550930e-02, 1.53971212e-02,
       -1.78792290e-02, -2.30351631e-02, -2.32801456e-02, 1.84767265e-02,
       1.38517180e-02, -8.21342226e-03, -2.58422922e-02, -5.13249375e-02,
       -3.86150703e-02, 1.22109288e-02, 2.81537417e-02, 2.07510795e-02,
       1.26315486e-02, -5.81654022e-03, -1.37039386e-02, -4.51522917e-02,
       -1.65186506e-02, -1.83425304e-02, -1.03822509e-02,
       -3.35522592e-02, -2.76977029e-02, -1.17998349e-03, 1.66452285e-02,
       5.38209500e-03, 3.10840853e-03, -1.34041365e-02, -2.52689756e-02,
       3.46551239e-02, 4.08081785e-02, 2.06877757e-02, -1.18259359e-02,
       2.10515931e-02, 3.54151353e-02, 2.18387097e-02, 2.25312784e-02,
       1.50240064e-02, 2.00885050e-02, 2.19182279e-02, 1.06737588e-03,
       -2.25014575e-02, -3.76682519e-03, 3.70657886e-04, -2.03518718e-02,
       4.29953896e-02, 1.83568727e-02, -2.86099017e-02, -2.23686099e-02,
       -5.77645004e-03, -3.58049152e-03, 1.04861974e-03, -1.81107856e-02,
       -3.27228829e-02, -1.80394296e-02, -2.11377330e-02, 2.11340655e-02,
       5.23317493e-02, 3.80888619e-02, -1.11188330e-02, 8.20425432e-03,
       2.09015366e-02, 5.01759052e-02, 6.37493134e-02, 3.52242328e-02,
       -2.15070136e-02, 1.23491054e-02, 5.91802970e-02, 2.16068774e-02,
       1.36646247e-02, 3.07665318e-02, -1.83674030e-03, 9.95924789e-03,
       8.98861606e-03, -4.69838157e-02, -9.16370526e-02, -2.66972613e-02,
       7.33152917e-03, -2.73027830e-03, 5.58428559e-03, 3.56243015e-03,
       2.36026128e-04, -2.84459116e-03, -5.05091846e-02, -6.81115538e-02,
       -6.37753867e-03, 4.49028090e-02, 1.22078899e-02, -1.25880446e-02,
       -3.89360785e-02, -1.72875244e-02, -3.38076055e-02,
       -3.32193710e-02, -2.39088573e-02, 1.38651244e-02, 4.61825952e-02,
       5.84681006e-03, 1.35276001e-02, -1.72718726e-02, 4.71921783e-04,
       -1.95171917e-03, 8.48480687e-03, 3.41366208e-03, -8.08014255e-03,
       2.01323554e-02, 2.87513882e-02, 2.98397969e-02, 1.32686291e-02,
       -1.39861712e-02, -1.86234638e-02, -1.82570815e-02,
       -2.55822316e-02, -1.97451636e-02, 9.60820168e-03, -1.13654453e-02,
       -7.07563153e-03, 2.43220963e-02, 3.55015323e-02, -4.57847770e-03,
       -1.76517293e-02, 2.84727523e-03, 4.64199780e-04, 3.80537286e-03,
       -1.42543120e-02, -2.68437564e-02, 7.91694503e-03, 1.51596665e-02,
       1.24024497e-02, -1.90243796e-02, -1.62100662e-02, -3.45417373e-02,
       1.91180909e-03, 1.13440705e-02, 2.09621526e-03, 3.95495724e-03,
       -4.76199761e-03, 1.15283509e-03, -8.73716362e-03, -1.21717295e-02,
       1.21331599e-03, -1.89078022e-02, -1.23147639e-02, 1.46539314e-02,
       9.49451141e-03, 1.82038099e-02, 3.55474576e-02, 2.59069931e-02,
       2.55598556e-02, 2.24490203e-02, 2.60285493e-02, 1.53530622e-02,
       4.72090952e-02, 6.60546198e-02, 4.04147953e-02, 4.03411351e-02,
       2.59448010e-02, -1.12079689e-03, -2.40570623e-02, -1.24729928e-02,
       5.39015513e-03, 1.61172729e-02, 4.79181483e-02, 3.75160053e-02,
       4.19782586e-02, 5.36701968e-03, 2.16383617e-02, 1.14700375e-02,
       -6.65304670e-03, -2.69593969e-02, 1.88911911e-02, 2.86404765e-03,
       -1.53996702e-03, 1.79690495e-02, -9.53777134e-03, -9.19315405e-03,
       -4.96622548e-02, -6.25998154e-02, -4.05974947e-02,
       -1.98321342e-02, -2.10964512e-02, -5.47480257e-03,
       -3.66676971e-03, -1.73409600e-02, 6.30137324e-03, -1.56904031e-02,
       3.77880260e-02, 5.15035838e-02, 4.70351838e-02, 7.11594000e-02,
       6.59971759e-02, -1.37759256e-04, -1.97771862e-02, 4.52184416e-02,
       5.17810062e-02, 4.99376990e-02, 3.37580033e-02, 4.77289930e-02,
       5.54676056e-02, 2.23037936e-02, -1.12041846e-04, -3.28970589e-02,
       7.24207552e-04, -4.20004278e-02, -1.50675317e-02, -2.46932935e-02,
       -1.41870445e-02, -6.42344682e-03, -1.97820738e-03,
       -2.95928605e-02, -1.14683632e-03, 2.99514667e-03, 1.37309441e-02,
       -2.00052690e-02, -5.17304800e-02, -1.89676713e-02,
       -3.22900750e-02, -1.78680066e-02, -1.50537258e-02, 5.24538150e-03,
       2.71497294e-02, 5.04978634e-02, 4.83501293e-02, 3.49652506e-02,
       4.88189720e-02, 3.51963975e-02, 2.17106938e-02, 3.24589051e-02,
       5.28265499e-02, 3.05676032e-02, 3.75927761e-02, 5.77162355e-02,
       7.72855133e-02, 4.05964330e-02, 1.78757198e-02, 2.04784540e-03,
       2.69149225e-02, 2.55419035e-02, -1.95584223e-02, -1.47029106e-02,
       -3.66823375e-02, -1.69139802e-02, -1.87735911e-02,
       -1.14120441e-02, -2.28665043e-02, -1.63884070e-02, 5.13511198e-03,
       -4.20447215e-02, -2.22938452e-02, -5.79124354e-02, 1.74911525e-02,
       -3.73632088e-02, -2.94161681e-02, -3.28008756e-02,
       -2.93369181e-02, 1.89339835e-02, 3.73010039e-02, 3.41153294e-02,
       9.62976962e-02, 1.05981752e-01, 6.90290108e-02, 2.95814499e-02,
       1.26599912e-02, 2.88508739e-02, 3.24355974e-03, 8.10203254e-02,
       3.41150761e-02, 1.98894665e-02, -1.25393423e-03, -4.69567394e-03,
       -2.21908111e-02, -1.47568099e-02, 1.80879831e-02, 3.17187328e-03,
       -6.59881486e-03, -8.25696625e-03, -1.99589152e-02, 3.21054272e-02,
       -2.69377548e-02, -1.98130682e-02, -1.03156725e-02,
       -7.47743668e-03, -3.11839511e-03, -4.45392355e-02, 2.22046915e-02,
       -2.14653742e-02, -2.47401018e-02, -5.45002222e-02,
       -1.45112555e-02, -3.08370888e-02, -2.87073441e-02,
       -3.41883004e-02, 1.41698879e-03, -3.20139378e-02, -3.44293118e-02,
       -1.68602075e-02, 4.48645512e-03, 6.53174054e-03, 1.01865185e-02,
       -5.79847489e-03, -1.92460455e-02, -4.58880495e-05, 2.32663825e-02,
       3.43650691e-02, 4.24414314e-03, 2.68263202e-02, 3.90833095e-02,
       5.32414019e-03, -1.53788924e-02, 4.85826377e-03, 1.80374365e-02,
       4.25051376e-02, -1.24843381e-02, -5.20701893e-03, -3.80605488e-04,
       2.58491118e-03, -8.31742026e-03, -5.34725888e-03, -5.93548408e-03,
       -5.35070105e-03, 3.56102400e-02, 3.99067402e-02, 3.14621888e-02,
       1.42159006e-02, 2.25490797e-02, 1.63749827e-03, 2.05171090e-02,
       -1.02975611e-02, -1.51953800e-02, -8.03572219e-03, 3.70577686e-02,
       -1.03006111e-02, 3.71235120e-03, 2.16542035e-02, -5.51066780e-03,
       -4.68695117e-03, 2.30037309e-02, 2.70215492e-03, 3.53339165e-02,
       3.25191580e-02, 1.33221401e-02, -2.21515726e-02, -7.96553493e-03,
       -8.41652323e-03, 3.64417173e-02, -1.05395773e-02, -2.62942836e-02,
       1.12381298e-02, 3.75930173e-03, -2.70777196e-03, -1.82642564e-02,
       1.98471695e-02, -8.04234110e-03, 1.46763436e-02, 2.09411327e-02,
       -2.58672575e-04, 2.75225844e-02, 2.30618268e-02, 1.01331044e-02,
       -5.76276444e-02, -1.70420110e-02, -1.43151656e-02, 5.91171067e-03,
       -1.63885206e-02, -3.17360982e-02, -3.52917053e-02,
       -3.00921537e-02, -4.77070585e-02, 4.84589934e-02, 1.89974569e-02,
       -2.52642129e-02, -1.39054526e-02, -4.38124016e-02,
       -1.14363907e-02, 2.42321584e-02, 1.15110464e-02, 5.48395095e-03,
       2.34702211e-02, -3.38289775e-02, 3.71695147e-03, -1.57943144e-02,
       -3.37826577e-03, -4.26743962e-02, -2.56246310e-02, 8.45871028e-03,
       -1.18273851e-02, 3.01304297e-03, 1.13232471e-02, 1.74665507e-02,
       1.57285593e-02, 1.70400627e-02, 2.62589902e-02, 3.43078971e-02,
       7.52438512e-03, -9.07846726e-03, 3.45043093e-02, -1.06681781e-02,
       -3.86519195e-03, 3.44391949e-02, -5.73976971e-02, -3.87975909e-02,
       -2.42676549e-02, -3.53529006e-02, 1.29638193e-02, 3.14697511e-02,
       2.22058743e-02, 1.89203788e-02, -3.28802019e-02, -2.32697483e-02,
       9.70742479e-03, 1.67379528e-02, 1.28110191e-02, 2.90815756e-02,
       7.79052526e-02, 2.71741413e-02, 3.01741026e-02, 1.22432858e-02,
       -1.38576720e-02, -2.30030827e-02, -1.31499125e-02,
       -5.57031408e-02, -2.25509629e-02, 5.28744981e-03, 5.91937918e-03,
       -1.26541685e-02, 9.43735056e-03, -2.79393476e-02, -2.39731334e-02,
       -9.61286668e-03, -1.71446912e-02, 2.18357351e-02, 1.30491406e-02,
       2.90600117e-02, 5.11159422e-03, 1.76541172e-02, -1.37269711e-02,
       3.25950421e-02, 4.46527265e-02, 7.19643617e-03, 3.66394818e-02,
       5.10827824e-02, 4.00157198e-02, 4.45521697e-02, 9.11099743e-03,
       -2.74674613e-02, 2.61985930e-03, 2.21503060e-02, 1.14849629e-02,
       1.11539597e-02, 3.52243297e-02, -2.17185859e-02, -1.73238143e-02,
       1.35463884e-03, -1.99501798e-03, 3.18185277e-02, 2.95607243e-02,
       -2.06469074e-02, 3.51144886e-03, -1.87253244e-02, -1.31364893e-02,
       1.06596323e-02, -7.60972220e-03, -3.36868763e-02, -9.65684521e-05,
       -3.01901214e-02, -3.64230834e-02, -1.57801583e-02,
       -1.29520120e-02, -1.39608271e-02, 9.32053756e-03, -2.11942941e-02,
       2.73092911e-02, 1.53685571e-03, -7.74803944e-03, 4.36461717e-02,
       -1.66264549e-02, 2.66050044e-02, -1.58070978e-02, -1.48930568e-02,
       1.22918561e-02, 2.44821589e-02, 1.08151315e-02, -2.17829030e-02,
       3.01009752e-02, 3.12573053e-02, 3.62168849e-02, 2.34082602e-02,
       -1.01345703e-02, -7.50725158e-03, 1.15153356e-03, 2.27917414e-02,
       -3.00603211e-02, -5.57252206e-03, -4.79850098e-02,
       -3.13877836e-02, -1.76524259e-02, -1.66396350e-02,
       -8.76086857e-03, -2.59432681e-02, -1.04636000e-02,
       -3.93697210e-02, 9.35448986e-03, -2.25648261e-03, 3.82393822e-02,
       -2.39178371e-02, -2.13852674e-02, 6.70454884e-03, 5.14976121e-03,
       1.23266401e-02, -1.14213629e-02, 3.47660668e-02, 5.40626496e-02,
       8.31542015e-02, 5.26564308e-02, 2.33605374e-02, 2.29001492e-02,
       -1.17057860e-02, -1.46952905e-02, 1.56450421e-02, -2.15587183e-03,
       7.77469249e-03, 4.47748564e-02, -1.40562002e-02, 1.73033774e-02,
       3.06513887e-02, 4.46310733e-03, 2.24983525e-02, -2.19243020e-02,
       -1.11389661e-03, -7.00027402e-03, -2.73689697e-03,
       -4.51962650e-02, -4.05764021e-02, -1.58461351e-02,
       -2.39345077e-02, -3.40879075e-02, -2.82605179e-02,
       -4.09369171e-02, -3.20190825e-02, -7.30834482e-03,
       -6.07842579e-02, -5.81084974e-02, -4.85207103e-02,
       -1.03687737e-02, 7.65941618e-03, 5.24121374e-02, 3.39996554e-02,
       2.73244455e-02, 9.41791758e-02, 4.09841537e-02, 1.29852602e-02,
       3.29536991e-03, -2.37705559e-02, -1.87725537e-02, -3.99129167e-02,
       -2.48384699e-02, -2.88391076e-02, 3.02174296e-02, -2.96535045e-02,
       -6.13923930e-03, -4.04319204e-02, 1.96544677e-02, -1.54596148e-02,
       1.83461308e-02, 1.63188912e-02, -2.22869567e-03, 2.19149198e-02,
       -3.87204960e-02, -3.14728655e-02, -5.09249046e-03,
       -3.39725129e-02, -1.99517198e-02, -2.69373637e-02,
       -1.34224351e-02, -6.35436103e-02, -3.50396559e-02,
       -4.15010080e-02, -4.23645824e-02, -1.74967591e-02,
       -1.37144150e-02, 8.69799871e-03, -3.58846448e-02, 9.42297280e-03,
       9.11368243e-03, 4.14679497e-02, 2.57140510e-02, 6.00406602e-02,
       -4.21328051e-03, 1.76012274e-02, 3.57596651e-02, -1.58835463e-02,
       1.79227479e-02, -1.92348771e-02, 3.75287868e-02, 4.45522740e-02,
       3.91283408e-02, 3.16511840e-02, 1.50334481e-02, 9.91605502e-03,
       -3.14541757e-02, -1.68170687e-02, -2.97781732e-02,
       -5.05574010e-02, -3.59230712e-02, -2.45279931e-02,
       -4.79550026e-02, -1.85566787e-02, 6.78353850e-03, -1.41123272e-02,
       -6.65515102e-03, -3.87626141e-02, -1.67143885e-02,
       -1.65205505e-02, 6.86108042e-03, -1.71921067e-02, 2.13005561e-02,
       1.55788977e-02, -6.94981590e-03, 1.68381333e-02, -5.00551797e-03,
       2.83247717e-02, 2.85358448e-02, 2.52069589e-02, 1.26254885e-02,
       6.19444959e-02, 3.36723179e-02, 1.73831768e-02, 8.33700132e-03,
       1.14830621e-02, 1.74188521e-02, 1.49110192e-02, 2.44604759e-02,
       -2.86959897e-04, 5.50276488e-02, 1.40004708e-02, 8.37968756e-03,
       -1.05255963e-02, -5.13464510e-02, -1.83048751e-02,
       -2.80969031e-02, 1.14132874e-02, 2.22948138e-02, 2.22138036e-02,
       2.04249639e-02, 1.66476052e-02, -2.28604302e-02, -3.01764216e-02,
       -8.45954567e-03, -1.24335131e-02, 2.49981955e-02, 3.77537273e-02,
       2.93962751e-02, 1.71565602e-03, -6.98918104e-03, 1.06976051e-02,
       4.80702408e-02, 2.84341667e-02, 8.34749546e-03, 2.46301740e-02,
       -3.50886513e-03, 3.11002322e-02, 3.21436897e-02, 5.04424907e-02,
       2.61834953e-02, 4.83028479e-02, 1.70274358e-02, 1.86470468e-02,
       1.15524726e-02, -9.56127793e-03, 1.33989658e-02, 7.33857304e-02,
       1.28870336e-02, -1.02182198e-02, -2.29778374e-03, 2.62855412e-03,
       1.24358283e-02, 3.00279632e-02, -1.11492130e-03, 1.62103446e-03,
       1.80466715e-02, 4.33839522e-02, 2.13029440e-02, 4.00211774e-02,
       2.71930471e-02, 8.10672063e-03, 1.22707263e-02, -5.61936246e-03,
       -2.52902117e-02, -1.80291608e-02, -1.36670866e-03,
       -2.69555151e-02, -7.57091772e-03, -1.16156805e-02,
       -3.01913964e-03, -2.01007407e-02, -3.05588134e-02,
       -1.65405627e-02, 3.21939774e-02, 3.55522856e-02, 1.25366654e-02,
       1.56127650e-03, 2.94432556e-03, 1.85815468e-02, -3.88909294e-03,
       -1.03844376e-02, -1.03456117e-02, 3.01205590e-02, 6.35046437e-02,
       -6.89418847e-03, 1.70441773e-02, -1.36433709e-02, -2.43588295e-02,
       9.41636600e-03, 8.24103691e-03, 1.04037370e-03, 7.82546867e-03,
       3.38675156e-02, 3.52235250e-02, 2.46445592e-02, -2.52273753e-02,
       -2.62918938e-02, 4.77345800e-03, 2.20029056e-02, 4.33084508e-03,
       1.08330662e-03, 2.36943620e-03, -3.28863636e-02, -3.32247615e-02,
       -7.86816794e-03, 1.74446106e-02, -3.00657353e-03, 2.62018144e-02,
       1.69112964e-03, 2.09644418e-02, 4.13902216e-02, -3.34047712e-02,
       -5.48411533e-02, -3.43151987e-02, -1.59990545e-02,
       -2.01236308e-02, -5.35397138e-03, 2.58465461e-03, 4.47606780e-02,
       2.93322038e-02, -2.93245399e-03, -1.99796874e-02, -7.54403416e-03,
       -1.49368774e-02, -1.35921799e-02, 1.41397479e-03, -3.28810606e-03,
       4.92272973e-02, 1.64014734e-02, -4.33539189e-02, -2.53710877e-02,
       -2.95762736e-02, -2.11778451e-02, -1.47196595e-02,
       -5.71556389e-03, -2.37850361e-02, -1.54058458e-02,
       -3.40910628e-02, -4.38434631e-03, 1.96097512e-03, 2.74680089e-03,
       3.41033787e-02, 2.71053743e-02, -1.08606778e-02, -1.67651959e-02,
       8.76923278e-03, 1.55183766e-02, 6.45849062e-03, 1.44042773e-02,
       1.68583896e-02, -1.87769774e-02, 1.10607585e-02, 1.27928227e-03,
       2.90931780e-02, 2.19431520e-02, -1.33297732e-02, -1.32193603e-02,
       -1.73159167e-02, -1.60934180e-02, 1.94650386e-02, 5.12739308e-02,
       4.98554669e-02, 1.02605252e-02, 3.43639180e-02, 5.31881722e-03,
       -1.31835481e-02, 3.43773738e-02, -9.24977846e-03, -6.88240689e-04,
       2.88126543e-02, -5.79726743e-03, -1.68914739e-02, -1.03174476e-02,
       1.12092514e-02, -2.64309663e-02, -1.66770313e-02, -4.44984507e-05,
       1.06642651e-03, 1.89744146e-03, 1.07116615e-02, -3.99048114e-03,
       -1.50150014e-02, 2.10519191e-02, -2.12286729e-02, 1.03987064e-02,
       8.01804196e-03, 1.15292417e-02, 1.47056477e-02, 3.85370180e-02,
       1.47268483e-02, 3.33121605e-02, 2.83384137e-02, -5.47676254e-03,
       1.44966645e-02, -1.60505306e-02, 1.24807446e-03, 2.71637794e-02,
       2.22822316e-02, -4.82847216e-03, 1.59256812e-02, 3.53248753e-02,
       2.03678962e-02, 5.19641340e-02, 3.60247516e-03, -2.26630247e-03,
       2.65601873e-02, 1.26556903e-02, 1.68826915e-02, 2.42597014e-02,
       1.42431343e-02, -3.74566317e-02, -1.31764980e-02, -2.42364891e-02,
       -8.27990589e-04, 6.91887503e-03, 2.90769041e-02, 1.81278004e-03,
       1.54471602e-02, -3.63446921e-02, -5.70069328e-02, 1.23837125e-02,
       -2.80292071e-02, -8.51737801e-03, -1.12860315e-02, 4.61888686e-03,
       3.15997303e-02, 2.46809442e-02, 1.57317910e-02, -9.05130059e-03,
       1.59331057e-02, 9.26248543e-03, 1.17134191e-02, 2.92162206e-02,
       3.98612097e-02, 2.75225434e-02, 2.38973666e-02, 1.34968525e-03,
       -2.87584215e-02, 3.75496311e-04, 1.27458833e-02, 3.02354768e-02,
       3.39563079e-02, 8.56290758e-03, 5.28930861e-04, 5.75317943e-04,
       -2.30592396e-02, -2.94844490e-02, 1.45011963e-02, -2.85391533e-03,
       1.56670588e-03, 5.45355957e-03, 1.60145501e-04, -1.40255550e-02,
       -3.13524492e-02, -5.18901236e-02, -8.11147690e-03, 1.86982416e-02,
       2.06210166e-02, -7.01767905e-03, -3.88771035e-02, -1.25576975e-02,
       5.33389300e-02, 2.37270109e-02, 1.72298923e-02, -1.03249475e-02,
       -2.28611547e-02, -1.77801736e-02, -2.01806575e-02, 3.55880819e-02,
       2.76364535e-02, -3.66153568e-02, -3.85707896e-03, -1.21428892e-02,
       -1.53015107e-02, -3.17010330e-03, 1.15527837e-02, 5.50324330e-03,
       3.85211743e-02, 8.08560476e-03, 1.51563454e-02, -3.97053733e-03,
       3.51413689e-03, 2.90056802e-02, 2.84141134e-02, 3.45711559e-02,
       2.50489172e-02, -1.38518773e-03, 2.20878404e-02, 1.40733831e-02,
       -4.26466651e-02, -4.48417664e-02, 1.54489046e-03, 2.83270255e-02,
       1.76054798e-02, 1.74940228e-02, -1.24638602e-02, -5.04145911e-03,
       8.26332904e-03, 1.79785676e-02, 1.85048468e-02, -1.55929523e-02,
       -2.78533064e-02, -1.15301199e-02, 3.61771546e-02, 4.70978543e-02,
       4.74075824e-02, -2.37693135e-02, -8.78689438e-03, 6.48108777e-03,
       -1.95581205e-02, -5.97099541e-04, -1.37362098e-02, 1.30626028e-02,
       5.01595400e-02, 4.10925895e-02, -6.34878268e-03, -9.29134153e-03,
       -3.08423433e-02, 2.68790517e-02, 3.00832596e-02, 3.25090811e-02,
       -1.20620849e-02, -1.42179616e-02, -2.69148350e-02,
       -1.73694864e-02, 2.21199133e-02, -3.51258367e-02, 1.20631997e-02,
       2.61374526e-02, 5.98014100e-03, 5.65720722e-03, -3.88596579e-02,
       -2.43704729e-02, 4.96722385e-02, 1.90818869e-02, 7.89492857e-03,
       2.10445300e-02, 1.12103075e-02, 7.75213307e-03, -3.21244891e-03,
       1.68074444e-02, 5.55395149e-02, 1.63213350e-02, 4.22629081e-02,
       -1.92482136e-02, 3.64438258e-02, 2.57548951e-02, 2.27595009e-02,
       4.39998275e-03, 3.32430308e-03, 6.50732890e-02, -8.30083340e-03,
       -1.58906903e-03, -4.32959609e-02, -1.90957338e-02, 1.79802123e-02,
       -8.67850147e-03, -5.23563009e-03, -2.27569472e-02,
       -4.49054949e-02, -1.23627186e-02, 4.17410098e-02, -1.69470143e-02,
       -2.65529193e-02, 3.52093987e-02, -7.58997956e-03, -3.80309904e-03,
       2.30942685e-02, -2.64935941e-02, 4.55596335e-02, 5.32089062e-02,
       -3.14395642e-03, 1.70451531e-03, 3.07960082e-02, 1.64830834e-02,
       3.08297039e-03, 3.94181302e-03, 4.44612205e-02, 8.76538455e-03,
       6.76806197e-02, 2.74804868e-02, 2.02385802e-02, 4.33868915e-02,
       9.95395705e-03, -9.78861842e-03, 1.39013454e-02, 6.01974167e-02,
       1.85988948e-03, -1.13994395e-02, -2.44901981e-02, -2.78540645e-02,
       3.05518620e-02, 5.59397135e-03, -2.03840923e-03, 8.22664704e-03,
       4.50886227e-03, 4.72523412e-03, 2.20904071e-02, 2.46404961e-04,
       -4.24898192e-02, 3.39003988e-02, 3.08404630e-03, 7.40297744e-03,
       1.72133036e-02, 1.35895740e-02, 4.76743393e-02, 5.67630157e-02,
       -4.01569763e-03, -1.67412385e-02, 1.38376281e-02, -1.36943255e-03,
       2.76864652e-04, -1.48808481e-02, 2.51335222e-02, 1.10849394e-02,
       2.95212176e-02, 4.39063050e-02, -1.51735945e-02, 7.46496543e-02,
       1.93463210e-02, -3.52391554e-03, -7.57213170e-03, 2.84129381e-02,
       -1.67103615e-02, -5.33648906e-03, -1.85920242e-02,
       -3.45706120e-02, 2.36546453e-02, -1.30156311e-03, 6.99549820e-03,
       1.67301320e-03, -2.74026860e-02, 3.60008292e-02, 4.55889329e-02,
       4.49428819e-02, -3.45856361e-02, 1.00621320e-02, 5.37567073e-04,
       3.90137220e-03, -1.11869983e-02, 9.84956417e-03, -1.82690956e-02,
       3.63658257e-02, 3.91103029e-02, -4.29695435e-02, 1.82386674e-02,
       -1.82180759e-02, -2.33167671e-02, -2.45539267e-02,
       -2.95243505e-02, 2.52490267e-02, 4.50773090e-02, 5.41513152e-02,
       -1.58400163e-02, 1.86313763e-02, -5.43578714e-03, -3.80341918e-03,
       4.26702667e-03, -5.43251459e-04, -3.16709070e-03, -1.30633339e-02,
       2.72217020e-02, -3.81009392e-02, 1.64089594e-02, -1.52336871e-02,
       -8.34273826e-03, 2.22399319e-03, 1.50110582e-02, 8.79422016e-03,
       -2.32486092e-02, -2.52401028e-02, -3.20462994e-02, 2.41574943e-02,
       1.47636710e-02, 4.06104624e-02, 2.14806739e-02, 3.46079469e-02,
       1.46207921e-02, -2.29315646e-03, -6.13535987e-03, 2.06877521e-04,
       4.92011793e-02, -1.97272003e-02, -1.52918734e-02, -2.70075351e-02,
       -6.08493388e-03, 8.19786452e-04, -1.26968008e-02, -1.74852498e-02,
       -4.90453355e-02, 2.91324612e-02, -2.42722295e-02, 1.12848205e-03,
       -5.46953920e-03, -1.95696037e-02, -1.76426191e-02,
       -4.09787055e-04, -2.22672615e-02, -3.71370763e-02, 3.60581791e-04,
       -7.39361392e-03, 1.81718394e-02, 1.17249507e-02, -2.53526005e-03,
       9.58712865e-03, 3.27371582e-02, 7.22724898e-03, -5.80839105e-02,
       -1.67189948e-02, -2.08785906e-02, -1.63805648e-03, 3.17543298e-02,
       1.35910595e-02, -1.94453879e-03, 2.34162551e-03, -1.08022504e-02,
       -4.36481237e-02, 1.97771974e-02, -5.87850204e-03, 7.44828442e-03,
       1.05577195e-03, -1.89623088e-02, -2.01175502e-03, 2.30232198e-02,
       -4.15095710e-04, -2.87750922e-02, -1.97574887e-02,
       -1.56849809e-02, -7.85456318e-03, 1.35850497e-02, -2.39848047e-02,
       -1.36196511e-02, 5.64656407e-03, -1.34153757e-02, -2.38452181e-02,
       7.91976787e-03, -1.26564512e-02, 4.56203744e-02, 2.55830996e-02,
       5.89095429e-03, -2.23484728e-02, 8.65806546e-03, 1.26316203e-02,
       4.78095701e-03, 2.56575290e-02, -4.25388291e-03, 3.44791077e-02,
       8.15214682e-03, -1.26524586e-02, 7.10233813e-04, -2.79360805e-02,
       -4.51699086e-02, -3.47648151e-02, -3.76436077e-02,
       -7.28727430e-02, -3.01609840e-02, -6.68980740e-03, 1.36370789e-02,
       -2.02858634e-02, -2.15842556e-02, -1.59507934e-02,
       -2.86371671e-02, -5.15471809e-02, -5.52613027e-02,
       -2.53357217e-02, -3.24139521e-02, -6.98836427e-03,
       -3.03346291e-02, 2.68352032e-02, -4.07962361e-04, -1.21296607e-02,
       7.83763081e-03, -3.50666083e-02, 3.83012346e-03, 4.80337720e-03,
       -9.41745006e-03, -8.35991837e-03, 4.42893505e-02, 3.06676738e-02,
       1.17130708e-02, 4.75627147e-02, -1.18118366e-02, 1.00445666e-03,
       5.68802236e-03, 2.78488267e-02, -3.41260317e-03, -5.79801388e-03,
       -2.41152979e-02, -2.33529117e-02, 2.52824370e-02, -2.31225789e-02,
       -1.92247853e-02, -3.36534088e-03, 1.97147503e-02, -2.50076707e-02,
       -2.97902431e-03, -4.17078212e-02, -4.41368185e-02,
       -3.13859503e-03, -2.82601826e-02, -2.25565881e-02, 2.28282604e-02,
       3.71123105e-02, -1.94529432e-03, 2.81410348e-02, 2.13072053e-03,
       2.61929771e-03, 2.35618446e-02, 6.41343184e-03, 1.24991145e-02,
       5.69166290e-03, 5.47227040e-02, 2.96420138e-02, 7.73185864e-03,
       6.36019185e-03, 6.69574412e-03, 3.12038809e-02, 8.37023929e-03,
       1.17653729e-02, 1.52590498e-02, 1.46320253e-03, 2.90143266e-02,
       5.47127053e-03, -2.75671035e-02, -5.10680228e-02, 1.14773922e-02,
       -1.17861321e-02, -1.90535299e-02, 4.96972469e-04, 5.22399135e-02,
       9.13092215e-03, 4.10234276e-03, -2.28376524e-03, -3.44607420e-02,
       2.95909718e-02, -2.48111319e-02, 4.36010584e-03, 2.32435158e-03,
       2.30692364e-02, 1.23544782e-02, 6.17710780e-03, 2.28769705e-02,
       1.00326510e-02, 7.65425479e-03, -9.70386807e-03, -2.00893749e-02,
       1.55212525e-02, 4.80063520e-02, 2.12216321e-02, 2.94445809e-02,
       4.11419151e-03, -1.86295882e-02, 1.23690050e-02, -5.33809827e-04,
       1.63750295e-02, 3.63808349e-02, 1.91674922e-02, -1.62252225e-02,
       1.52356876e-02, 2.23471764e-02, 2.46150768e-03, 7.87206646e-03,
       -2.41021719e-02, -2.35614111e-03, 9.18532163e-03, 1.26095563e-02,
       -1.12770023e-02, 3.60185131e-02, 1.74164250e-02, -1.42828245e-02,
       2.63286047e-02, -2.87172627e-02, 2.30855234e-02, 2.60621682e-02,
       1.14131952e-02, 5.93394712e-02, 5.46266250e-02, 3.92753854e-02,
       -8.90884828e-03, 9.78077576e-03, -1.15808211e-02, 2.87979580e-02,
       2.88606193e-02, 4.96004336e-02, 1.35842608e-02, 8.77754670e-03,
       5.52949719e-02, 2.97323335e-03, 1.87003873e-02, -1.79828443e-02,
       -1.55811792e-03, -1.42475881e-03, -9.70468100e-04, 2.38973163e-02,
       5.09480275e-02, 1.58316344e-02, -4.21718275e-03, -2.18735659e-03,
       -1.61198601e-02, 2.98485439e-02, -5.29011618e-03, 1.00385481e-02,
       -1.27184568e-02, 1.59704108e-02, 2.07270719e-02, -1.59276917e-03,
       2.42747199e-02, 9.28338803e-03, 4.34300601e-02, -1.42300744e-02,
       -1.37417875e-02, 4.93065640e-02, -1.10702636e-02, 3.21127586e-02,
       2.66269129e-02, 2.84370836e-02, -8.35294183e-03, 9.03970748e-03,
       -1.12095391e-02, 3.47902514e-02, -1.07666431e-02, 7.53334444e-03,
       -1.42052048e-03, 5.23032853e-04, 2.58729625e-02, 1.23962462e-02,
       2.74103526e-02, -1.71060432e-02, 1.11112138e-02, 8.62527080e-03,
       3.46284620e-02, 1.00990264e-02, -3.50604430e-02, 2.05418952e-02,
       -3.20667289e-02, 8.84240121e-03, -2.34313635e-03, 5.95026184e-03,
       3.26078944e-02, 2.87724547e-02, 1.37190009e-02, 1.04421133e-03,
       2.03538239e-02, -5.19580813e-03, 2.29394827e-02, -6.62307534e-03,
       2.54238443e-03, 1.59493536e-02, 2.46876422e-02, 2.98526092e-03,
       -3.14843172e-04, 3.98711711e-02, 1.84401404e-02, 4.00560349e-02,
       1.47180166e-02, 4.32458371e-02, 2.75094062e-03, -1.02604330e-02,
       -1.34207066e-02, -9.92515963e-03, 3.99191752e-02, -2.10758927e-03,
       9.66547336e-03, -2.08097864e-02, 3.13407369e-02, 3.10664792e-02,
       2.80417427e-02, -1.63435936e-02, -7.63927214e-03, 1.75121927e-03,
       -1.93620827e-02, 2.66215149e-02, 4.18282440e-03, 1.67557946e-03,
       -4.55598272e-02, -2.27568913e-02, -2.80518159e-02,
       -1.51114585e-02, -1.36692589e-02, -2.78179385e-02, 4.52546915e-03,
       -1.70376841e-02, -2.50458047e-02, -5.93056763e-03, 1.23854764e-02,
       -1.64297558e-02, 1.96652543e-02, 1.61913261e-02, 1.94429550e-02,
       2.18246058e-02, -5.88298775e-03, 4.77300677e-03, -1.63283460e-02,
       -1.26887886e-02, -1.86584052e-02, -1.87153593e-02, 3.85614820e-02,
       2.37055942e-02, 1.05340369e-02, -3.16255982e-03, -1.96346994e-02,
       -9.67896264e-03, -2.06557680e-02, -2.10715812e-02,
       -6.47536712e-03, -1.03584314e-02, -1.52486125e-02,
       -1.78542677e-02, -2.18831878e-02, 2.31241272e-03, -1.72191635e-02,
       -2.82065682e-02, -5.38047962e-02, -3.14802602e-02,
       -2.92938296e-03, -1.52304508e-02, -1.32542267e-03,
       -1.74872447e-02, -2.35685706e-02, 4.14793892e-03, 1.08839767e-02,
       1.82885211e-02, -4.68324907e-02, 2.27792710e-02, -8.88567884e-04,
       1.05976239e-02, 4.72249873e-02, 1.27438568e-02, 1.58236956e-03,
       3.74680012e-02, 2.11329050e-02, -2.15406623e-02, 2.15058941e-02,
       -8.14864598e-03, 5.43483086e-02, 2.67028082e-02, 8.62172246e-03,
       -4.75650327e-03, -1.50554404e-02, -3.70845646e-02,
       -3.89510356e-02, -1.24331480e-02, -4.53781150e-02, 1.92143139e-03,
       2.47519948e-02, -1.25688808e-02, -1.88111067e-02, -2.06910502e-02,
       -3.34783904e-02, -2.16577817e-02, 1.14213070e-03, -2.52391305e-02,
       1.16797127e-02, -3.33593599e-03, -2.61757383e-03, -4.99591604e-03,
       -9.47666448e-03, -1.04797035e-02, 4.74423030e-03, 1.20449550e-02,
       -2.62655653e-02, 3.86713422e-03, -3.15836072e-02, -2.78558931e-03,
       2.40620542e-02, -3.06012910e-02, -2.47129593e-02, -2.24334523e-02,
       7.60802953e-03, -1.40570533e-02, 2.90356688e-02, 5.93722425e-03,
       -6.77349279e-03, -8.64539854e-03, -1.21867191e-02,
       -3.75107303e-02, -2.07217690e-02, 8.71134363e-03, -2.69760545e-02,
       8.94542411e-03, -2.37649865e-02, 9.56788287e-03, -9.29481350e-03,
       -1.43213496e-02, -3.06909494e-02, -3.31158862e-02, 1.89446732e-02,
       -4.48738318e-03, 2.70022731e-02, 2.55373120e-03, -3.07538360e-03,
       1.68695953e-02, -1.12152379e-02, -1.70256998e-02, -1.26487324e-02,
       -2.06132196e-02, -6.81021204e-03, -1.23784319e-02,
       -3.16689909e-02, -3.37954983e-02, 2.88299490e-02, 2.47928873e-02,
       5.37790218e-03, -3.71351615e-02, -1.21236127e-02, 2.25618649e-02,
       2.00066734e-02, -5.60565013e-03, -3.42682377e-02, 8.00177641e-03,
       2.91673914e-02, 1.96561739e-02, -3.02285645e-02, -6.35491917e-03,
       1.81174080e-03, 8.00715573e-03, -1.82019286e-02, -3.96339558e-02,
       -7.44397938e-03, 1.71969435e-03, -6.08757092e-03, -8.04470032e-02,
       -2.92286910e-02, 4.08431934e-03, 2.30410453e-02, -2.98576392e-02,
       -3.71144228e-02, -2.25547528e+00 ]
