%YAML:1.0
---
my_detector: !!opencv-object-detector-hog
   winSize: [ 176, 192 ]
   blockSize: [ 16, 16 ]
   blockStride: [ 8, 8 ]
   cellSize: [ 8, 8 ]
   nbins: 9
   derivAperture: 1
   winSigma: 4.
   histogramNormType: 0
   L2HysThreshold: 2.0000000000000001e-01
   gammaCorrection: 1
   nlevels: 64
   signedGradient: 0
   SVMDetector: [ -1.93373114e-02, 5.88163408e-03, 7.44467089e-03,
       -2.58322880e-02, -1.98318847e-02, -2.96126958e-02,
       -3.84115689e-02, -9.36807971e-03, 1.43172033e-02, -1.54052628e-02,
       1.66138355e-03, 9.81029123e-03, -1.42603852e-02, 2.54484196e-03,
       -3.44224460e-02, -3.42134051e-02, -7.00052921e-03, 1.56341549e-02,
       -2.34000455e-03, -1.65225286e-02, 1.00508109e-02, -1.94767537e-03,
       2.12645624e-02, -9.96591337e-03, -1.24940798e-02, -9.72742331e-04,
       1.81809571e-02, -1.04421591e-02, 9.47428774e-03, 4.46241237e-02,
       5.21310093e-03, 2.98642199e-02, -8.44366942e-03, -9.57016367e-03,
       5.97170973e-03, 2.43791589e-03, -7.28808669e-03, -9.96490289e-03,
       3.26051307e-03, -1.06697511e-02, 2.15936098e-02, -1.88518092e-02,
       -2.56282501e-02, -1.65730640e-02, -3.70245194e-03, 1.97523367e-02,
       1.47572448e-02, 1.17848438e-04, -8.46496224e-03, 6.65857457e-03,
       -3.41149643e-02, -3.14460392e-03, 1.13940174e-02, 1.22175049e-02,
       -1.52726928e-02, -7.88545422e-03, 1.38697540e-02, -2.22315057e-03,
       1.25611853e-02, -1.19898915e-02, -9.24465538e-04, 1.10410471e-02,
       -1.62205808e-02, 1.52825089e-02, -7.16481730e-03, 5.74224722e-03,
       -1.10011850e-03, 6.46216562e-03, 3.14953993e-03, 2.45661866e-02,
       2.83836517e-02, 1.41161829e-02, 2.04723738e-02, 1.14051513e-02,
       -1.11090494e-02, -1.67667195e-02, -1.01870829e-02,
       -2.52932888e-02, -1.59319434e-02, -1.09578362e-02, 2.17776708e-02,
       8.50303192e-03, 3.23184431e-02, 4.63218940e-03, -6.61957869e-03,
       -1.10569429e-02, -2.74377633e-02, -1.79046150e-02,
       -1.20158279e-02, 1.48755696e-03, -6.60256366e-04, -1.55840302e-02,
       9.81313922e-03, -7.62968697e-03, 4.87937219e-03, -8.62993114e-03,
       1.24175604e-02, 2.09202990e-02, -1.09750596e-04, 1.68311261e-02,
       4.37554233e-02, 2.13810932e-02, -7.85913970e-03, 7.07302522e-03,
       -8.51322059e-03, 4.55421722e-03, 1.55475689e-02, 2.08292026e-02,
       5.36299031e-03, 1.12283332e-02, -2.86200410e-03, -7.64275296e-03,
       1.47318067e-02, -5.98130049e-03, -3.86952865e-03, -2.00402457e-02,
       5.39343059e-03, 3.60526820e-03, 3.62955267e-03, -1.44420369e-02,
       -3.71639780e-03, 1.60219483e-02, -1.69164110e-02, -1.39374530e-03,
       -1.67997573e-02, 4.12561279e-03, 4.06896463e-03, 2.14585513e-02,
       2.22440879e-03, 8.62623274e-04, -6.71832729e-03, -1.17970342e-02,
       -1.27576478e-02, -9.03280685e-04, 9.80829820e-03, -4.09509009e-03,
       5.83840953e-03, 3.97356926e-03, -1.21544749e-02, 1.44944303e-02,
       -1.60944890e-02, 9.43835266e-03, 7.72500364e-03, 5.75347478e-03,
       -1.57424025e-02, 4.61820251e-04, -3.83532904e-02, -1.29608652e-02,
       1.11676976e-02, 3.61961982e-04, -3.25278705e-03, -8.65115970e-03,
       -2.60383487e-02, -7.34920800e-03, 1.90040004e-02, -2.73015630e-02,
       -1.49919307e-02, 1.01854876e-02, 2.21642433e-03, -1.04363644e-02,
       -1.87421050e-02, -1.62031353e-02, -3.55111645e-03, 3.48917418e-03,
       -1.55610070e-02, -1.51691055e-02, 1.27385044e-03, -1.59308296e-02,
       -7.59105850e-03, -9.77064669e-03, -1.07490253e-02, 2.30913777e-02,
       7.67663238e-04, 2.45283660e-03, 9.99013335e-03, -2.24826229e-03,
       -3.02495365e-03, -2.36781556e-02, -1.66560225e-02,
       -4.19957424e-03, 1.33365225e-02, 2.32323073e-02, -1.02278497e-02,
       -2.69568861e-02, -1.12324217e-02, -1.37287164e-02,
       -3.25033930e-03, -1.36155263e-02, 4.05013008e-04, 9.09589324e-03,
       -6.42923638e-03, -2.48183254e-02, -4.38688397e-02,
       -1.23911165e-02, -2.71210037e-02, -1.38533823e-02,
       -6.85906271e-03, -4.22523450e-03, 1.25244036e-02, 1.72015820e-02,
       -6.07373891e-03, -1.19461194e-02, -1.01050315e-02,
       -1.89567599e-02, -7.38153793e-03, -7.62743829e-03,
       -2.25251727e-03, 1.34380050e-02, 3.57091837e-02, 3.68222734e-03,
       -2.59303935e-02, -6.78847264e-03, 4.51144483e-03, 1.25940135e-02,
       3.83701408e-03, -2.50466596e-02, 4.44455491e-03, -1.62918977e-02,
       -3.23465690e-02, -2.87985113e-02, -2.44058110e-02,
       -1.81800034e-02, 7.25184800e-03, 2.47393679e-02, 1.72313452e-02,
       5.99944638e-03, 1.87277375e-03, -1.73097178e-02, -7.73652783e-03,
       -1.28121534e-02, -1.50709525e-02, -8.70567653e-03,
       -2.64186086e-03, 9.26253945e-03, -1.85245369e-03, 3.11895013e-02,
       6.94848178e-03, -1.32455779e-02, -2.00436153e-02, -1.04320329e-02,
       2.22252179e-02, 1.68410111e-02, -1.35129886e-02, 2.52538500e-03,
       1.33461691e-02, 1.19144740e-02, 3.12725082e-04, 1.56791564e-02,
       3.13712540e-03, 6.51211757e-03, 2.84409313e-03, 6.21466339e-03,
       -1.90101974e-02, 1.54659618e-03, -2.23943423e-02, -1.28077539e-02,
       8.90634861e-03, -3.62880458e-03, -9.83392168e-03, -4.22589248e-03,
       -8.78597517e-03, -1.79641005e-02, 1.34043042e-02, -1.88862160e-02,
       -1.07959295e-02, -4.52915765e-03, -1.53152803e-02,
       -1.95613895e-02, -2.13814387e-03, -2.91773640e-02,
       -1.22579271e-02, 1.55250281e-02, -5.26342494e-03, 1.60650704e-02,
       3.74216735e-02, 1.23884454e-02, 1.12833837e-02, 4.34288615e-03,
       -5.77309588e-03, -1.51659241e-02, 1.30351428e-02, -2.57469714e-03,
       6.35547750e-03, 2.57122498e-02, -3.00362916e-03, 2.78171152e-03,
       -1.20968753e-02, -9.66996513e-03, 5.26505522e-04, 2.01836061e-02,
       5.47729619e-03, 8.26153439e-03, -1.58684906e-02, -2.34738854e-03,
       -1.29036335e-02, -2.63264100e-03, -1.95393413e-02,
       -2.78296089e-03, 2.51853396e-03, -6.97043492e-04, -8.42989073e-04,
       1.86764691e-02, -6.82692369e-03, -8.98885890e-04, -4.29231062e-04,
       -5.84083260e-04, 5.74949139e-04, 1.03233969e-02, 1.41897742e-02,
       3.25956196e-02, 5.68225002e-03, -2.80456035e-03, -1.89635169e-03,
       -6.50314149e-03, 8.00043624e-03, -2.44975928e-03, 2.31940020e-02,
       3.69212753e-03, -1.61704351e-03, 3.67203839e-02, -8.83786380e-03,
       1.21073460e-03, -4.42092121e-03, 1.56025933e-02, -1.41185112e-04,
       -1.55884167e-02, -1.35865714e-02, -1.87967718e-02, 1.57678723e-02,
       7.41783483e-03, 1.24030374e-03, 1.11855855e-02, 2.03561448e-02,
       -5.67697803e-04, -1.19666308e-02, 5.70046157e-03, -3.67950015e-02,
       -1.31227318e-02, -1.87845081e-02, -1.76167469e-02,
       -2.97031761e-03, -4.23268834e-03, -6.13214634e-03, 9.49529279e-03,
       5.73936384e-03, -4.77320421e-03, 2.23794281e-02, 1.35792121e-02,
       2.29647104e-02, -5.37686236e-03, 1.93939637e-02, -5.80292661e-03,
       7.40497233e-03, 1.50242811e-02, -1.04015339e-02, -4.66549443e-03,
       -4.69431747e-03, 3.12340236e-03, 2.71396316e-03, 2.11635344e-02,
       -2.98587186e-03, 4.78319963e-03, -1.26973419e-02, -1.96425151e-02,
       1.54788815e-03, -1.35862483e-02, -1.69958081e-03, -1.21573089e-02,
       -2.98695127e-03, -3.80914449e-03, -2.01724377e-02,
       -1.86535642e-02, -2.03952994e-02, 1.52882133e-02, -1.95599366e-02,
       -1.34633165e-02, -1.20546585e-02, 3.54930176e-03, -8.45995359e-03,
       -2.29233084e-03, 4.69227089e-03, -3.95945826e-04, -9.03515797e-03,
       -9.28200502e-03, 4.83321957e-03, 1.80063453e-02, 2.21934840e-02,
       9.27468389e-03, 1.91494655e-02, 3.32838260e-02, 2.54733430e-04,
       3.68875894e-03, -1.57589894e-02, 2.19052564e-03, 1.24479933e-02,
       4.84633725e-03, 6.11570757e-03, -4.20464901e-03, -7.11553311e-03,
       -2.82852966e-02, 5.50868316e-03, -1.87250301e-02, -6.53794128e-03,
       8.27861391e-03, 2.95334812e-02, -2.21735947e-02, -4.44524316e-03,
       -1.66192632e-02, -4.54187505e-02, -1.21292239e-02,
       -3.43901627e-02, -1.66117419e-02, -2.61769001e-03,
       -6.75817428e-04, 6.33058226e-05, 2.58590188e-02, 3.05517279e-02,
       4.11624927e-03, 1.67048685e-02, -1.53392740e-03, 1.82134937e-02,
       2.18727477e-02, 3.23645480e-04, -3.80195980e-03, 4.25072247e-03,
       2.50190366e-02, -1.16422148e-02, 5.51780174e-03, -8.61593522e-04,
       3.19326017e-03, 6.09014696e-03, 4.01830766e-03, -3.75671778e-03,
       -5.57434186e-03, -1.17403502e-02, -2.68132612e-02, 4.96816589e-03,
       -1.06239161e-02, -1.67572647e-02, -9.89410933e-03, 2.81726802e-03,
       -8.65540281e-03, -3.97712504e-03, -1.42402072e-02,
       -6.66582258e-03, -3.21071893e-02, -2.14115195e-02,
       -5.80759859e-03, -1.35129085e-02, -3.61616985e-04, 3.76684568e-03,
       7.63948448e-03, 2.23060809e-02, 2.21070528e-04, 1.85401328e-02,
       5.22695063e-03, -5.10451430e-03, 8.67398456e-04, -3.60052753e-03,
       -2.09389627e-03, 9.03584901e-03, 9.87869222e-03, -6.37356832e-04,
       -7.81142572e-03, -3.09738703e-03, -9.41503234e-03, 2.82205222e-03,
       -4.47801780e-03, -1.52176991e-02, -1.43861379e-02,
       -6.44978089e-03, 2.32980475e-02, -1.13851037e-02, -5.96066425e-03,
       1.54368449e-02, 1.16569260e-02, 2.15226761e-03, -3.24696936e-02,
       -1.49622308e-02, 4.98302095e-03, -3.61850904e-03, -1.47687625e-02,
       -3.55564430e-02, 1.07214637e-02, 6.21852232e-03, -1.79610904e-02,
       3.53490165e-03, 3.34238447e-02, 1.58133190e-02, 1.44161731e-02,
       2.00876244e-03, 1.05585409e-02, 1.06361145e-02, 1.75788496e-02,
       -3.11632670e-04, 1.34627521e-02, 2.82210056e-02, 1.76419038e-02,
       -1.01255234e-02, -9.88759100e-03, -1.46420840e-02,
       -1.74830463e-02, 2.84491642e-03, 8.31473339e-03, -1.14068156e-02,
       -9.96174663e-03, -5.05798962e-03, -7.80639704e-03,
       -1.76278800e-02, -3.89749333e-02, -1.20936902e-02, 2.32198015e-02,
       1.61892492e-02, 2.81669153e-03, -6.18388830e-03, 2.00339989e-03,
       -1.03297555e-06, -3.07612307e-02, -1.60958059e-02,
       -1.10168774e-02, 1.22220898e-02, 1.68608781e-02, 1.91721437e-03,
       -8.93063564e-03, 1.89874962e-03, -1.89466949e-03, 9.60906874e-03,
       -2.17884630e-02, -2.72689480e-02, 2.10429449e-02, -5.92778903e-03,
       1.73753463e-02, 1.10882416e-03, 4.32504807e-03, -9.16358898e-04,
       -1.29945818e-02, -6.35903096e-03, -5.40744606e-03, 3.10015958e-02,
       1.97458249e-02, -2.19233576e-02, -2.71886103e-02, -1.21273203e-02,
       -1.24224853e-02, -2.47872509e-02, 3.62841017e-03, -1.08335940e-02,
       -4.88710590e-03, -1.04209343e-02, -3.79724940e-03,
       -1.39100021e-02, -6.47413032e-03, -4.92716441e-03,
       -2.23706737e-02, -4.31762822e-02, -1.81598738e-02,
       -7.61454087e-03, -1.43944826e-02, -8.15618504e-03,
       -1.71168949e-02, -6.87019527e-03, -6.41602790e-03, 1.21012786e-02,
       2.65534632e-02, 2.22713985e-02, 1.52481310e-02, -1.96554349e-04,
       1.31838042e-02, 1.64578017e-02, 1.88360512e-02, 5.68455318e-03,
       1.01773283e-02, 3.67104216e-03, -9.99560859e-03, -8.65201745e-03,
       6.36228127e-03, -8.79670866e-03, -8.91142059e-03, 9.79364850e-04,
       -6.61122520e-03, -1.15532093e-02, -3.15958969e-02, 5.08602569e-03,
       4.94696805e-03, -1.69912335e-02, -8.35827179e-03, -1.49978939e-02,
       -5.16166957e-03, -1.36016961e-02, 1.11741144e-02, -1.46271465e-02,
       -9.15789511e-03, -6.09709136e-03, -3.90069233e-03, 1.33957919e-02,
       1.59017164e-02, 4.21854202e-03, -1.88611653e-02, -8.38147942e-03,
       -1.41240936e-02, 1.10322051e-02, -4.69143502e-03, 1.40520148e-02,
       4.61112289e-03, -1.02814417e-02, 1.71621435e-03, -1.99535657e-02,
       -2.91214511e-02, -1.72601026e-02, 1.23503990e-02, 1.18208323e-02,
       3.61487977e-02, 1.36908973e-02, -1.16996001e-02, 6.81226328e-03,
       -2.02408433e-03, 4.06559370e-02, -3.48756649e-02, -4.57480224e-03,
       -1.45931570e-02, 6.30034413e-03, 2.82433047e-03, -2.13632751e-02,
       -2.33771000e-03, -9.56020318e-03, 1.27375908e-02, 3.70157557e-03,
       -4.92335204e-03, -2.67770793e-02, -4.30196151e-03,
       -3.23430402e-03, 3.66250810e-04, 1.08565111e-02, 1.93824584e-03,
       1.51202418e-02, -1.91282853e-02, 1.97415706e-02, 1.31945908e-02,
       2.14693844e-02, -1.52462460e-02, -2.22018342e-02, 1.27604539e-02,
       7.60914525e-04, 1.73178241e-02, -5.80890896e-03, 1.12635773e-02,
       -3.32956947e-03, -1.17627382e-02, -2.94398575e-04,
       -1.10813743e-02, 9.28130280e-03, -2.91836821e-02, -1.26400469e-02,
       1.32016176e-02, 1.87818310e-03, -1.28407953e-02, -3.00142518e-03,
       -1.56441983e-02, -1.97330788e-02, 8.09473265e-03, -2.04935055e-02,
       8.08993878e-04, -5.56955393e-03, 2.36149225e-03, 6.88648317e-03,
       -1.29022943e-02, -1.47530492e-02, -1.00697037e-02, 6.28335634e-04,
       -1.53992428e-02, 1.40303951e-02, 1.27100730e-02, 3.30838785e-02,
       2.50649415e-02, -1.08614005e-02, -9.30487458e-03, 1.05954902e-02,
       -9.10601870e-04, -1.04483217e-02, -1.35877756e-02,
       -1.14302500e-03, 2.60035768e-02, 2.28660237e-02, -3.44163156e-03,
       -3.36135551e-02, -1.08775366e-02, 4.94111283e-03, 6.96762651e-03,
       2.67264014e-03, -1.15283085e-02, 4.56603058e-03, 1.55521352e-02,
       -1.89524218e-02, -1.17492098e-02, -1.40692312e-02,
       -2.77091730e-02, -1.80476680e-02, 4.26684786e-03, -3.98068987e-02,
       -6.07086252e-03, 1.01114409e-02, 9.50930454e-03, -2.03887299e-02,
       1.84016339e-02, 2.52791233e-02, 1.51474657e-03, 1.45650166e-03,
       -1.66832786e-02, 1.60973947e-02, 1.65650453e-02, -2.07689428e-03,
       1.01383950e-03, -5.61392517e-04, -6.54240779e-04, -1.21399127e-02,
       8.36285204e-03, -8.60934053e-03, 2.89417617e-03, 1.61726419e-02,
       -8.65215901e-03, 9.42665990e-03, -1.84114208e-03, -1.82248894e-02,
       -2.12517772e-02, -3.15594487e-02, -4.18732725e-02, 7.20463577e-05,
       -3.07678338e-03, 8.01801682e-03, -1.08249998e-02, 2.81221187e-03,
       -8.04645568e-03, -3.79148759e-02, -2.32795943e-02,
       -2.06819139e-02, 5.33056352e-03, -1.19226240e-02, -4.02934924e-02,
       1.66630987e-02, 2.57912953e-03, -1.76867638e-02, -1.40641248e-02,
       -2.53251847e-03, -7.65721023e-04, 1.38968090e-02, -1.49384690e-02,
       -1.63900349e-02, 4.69488576e-02, 1.80888940e-02, 1.00609595e-02,
       -2.26590857e-02, -4.39082365e-03, -2.10772268e-02, 1.01067349e-02,
       -3.22402567e-02, -9.00302362e-03, -2.96799000e-02,
       -2.94794748e-03, -1.42048206e-02, -3.38382050e-02,
       -6.69386657e-03, 4.43141814e-03, -2.97192717e-04, -1.90050509e-02,
       -3.88201997e-02, 3.01360246e-03, -1.79829379e-03, -1.25617981e-02,
       -1.31581314e-02, 1.20838988e-03, -2.17938796e-02, -4.74157324e-03,
       1.08456553e-03, 3.07128765e-03, 3.57288085e-02, 8.08579382e-03,
       -9.96174198e-03, -2.57376526e-02, -2.34610238e-03,
       -1.31408358e-03, -7.32640736e-03, -2.83727814e-02, 6.71203807e-03,
       -3.53464205e-03, -1.33765265e-02, -4.48966306e-03,
       -4.90005268e-03, 2.94350227e-03, 3.42899933e-03, 9.82632022e-03,
       1.94448174e-03, 4.46130894e-03, -5.65792341e-03, -4.19793278e-03,
       1.95480734e-02, -1.03980750e-02, -2.20192820e-02, -3.92518602e-02,
       -1.07157733e-02, -1.33168343e-02, -5.64146321e-03, 1.31854191e-02,
       -2.86533637e-03, 1.46486638e-02, -2.33089272e-02, -6.60203910e-03,
       -2.82178149e-02, 1.00722061e-02, -1.77881140e-02, -6.12145476e-03,
       -1.09146454e-03, -1.24945948e-02, 7.18193781e-03, -2.12418064e-02,
       -2.05950622e-04, -8.89516156e-03, 5.17411064e-03, -1.53854880e-02,
       -8.97451490e-03, -4.46619233e-03, -1.39433965e-02, 1.39461309e-02,
       -4.25149985e-02, 1.86285004e-02, -1.37650929e-02, 1.34351244e-03,
       -1.49989706e-02, -1.18304079e-03, 8.62526428e-03, -6.57459814e-03,
       -1.00282039e-02, -1.15566924e-02, -1.78948343e-02,
       -1.53379589e-02, -9.80418641e-03, 1.19158451e-03, -7.88916601e-04,
       -3.56615230e-04, 2.41464097e-03, 2.23437361e-02, 9.86898303e-05,
       4.26660897e-03, -1.82549655e-02, -2.28403732e-02, -7.88148865e-03,
       -1.33794574e-02, -3.89668555e-03, 1.87465195e-02, 8.15171842e-03,
       1.35924639e-02, 1.21241538e-02, -6.76356349e-03, 8.70480295e-03,
       -5.93641726e-03, -2.38195919e-02, 1.82312299e-02, 1.16471611e-02,
       5.98294334e-03, 1.67277511e-02, 2.84895254e-03, -1.30291488e-02,
       -1.00816265e-02, 5.85106621e-03, -1.29226793e-03, 4.37678723e-03,
       -1.93748698e-02, -1.74741074e-03, 3.90798692e-03, -5.30924043e-03,
       -9.82857775e-03, -2.50175712e-03, -2.15036445e-03, 5.49386954e-03,
       -1.23445932e-02, -2.72110272e-02, -1.37838786e-02, 1.55524388e-02,
       3.96976247e-03, 1.81619469e-02, 2.04917118e-02, 8.30243435e-03,
       -1.96370203e-02, 2.21236311e-02, -2.07046401e-02, -7.97762815e-03,
       1.57760363e-02, -5.72476536e-03, -6.81276573e-03, 3.27807909e-04,
       4.18014172e-03, 1.94717459e-02, -6.99641695e-03, 1.27026206e-02,
       5.27601643e-03, 1.44655043e-02, -1.60617568e-02, 1.14550432e-02,
       1.17534362e-02, 1.06339119e-02, -2.16204450e-02, -1.95198916e-02,
       -8.92157853e-03, 1.23915141e-02, 9.37743485e-03, 1.26831755e-02,
       -1.21522360e-02, 7.63001712e-03, 1.30811380e-03, -2.66895853e-02,
       1.32504096e-02, 3.61147746e-02, 2.15611178e-02, -1.05149532e-02,
       4.25196206e-03, -9.85664898e-04, 6.16614288e-03, 1.30396942e-02,
       1.98098668e-03, -1.89430732e-02, 2.38784645e-02, 1.54872285e-02,
       -9.40813497e-03, -1.52381370e-03, -1.85641404e-02,
       -1.08729275e-02, 7.49791157e-04, -2.37392839e-02, 8.31371266e-03,
       3.31682041e-02, 2.41963705e-03, -2.77494565e-02, 1.51854726e-02,
       -3.17510380e-03, -1.66915031e-03, 1.04441242e-02, 1.92987211e-02,
       3.99919879e-03, 1.05613377e-02, -1.08986171e-02, 2.05164030e-03,
       5.70079777e-03, -5.03439456e-03, -1.74089856e-02, 1.80809069e-02,
       2.07766537e-02, -1.69906043e-03, 7.73678953e-03, -9.76461452e-03,
       7.99101777e-03, 1.70893408e-02, -1.30812833e-02, -5.48729626e-03,
       1.95675176e-02, -1.40752329e-03, -2.54581973e-04, 8.59537721e-03,
       -2.82604364e-03, -2.04292238e-02, 1.05150314e-02, 1.81292940e-04,
       -1.25014111e-02, 5.33807138e-03, 1.53675601e-02, 1.19270505e-02,
       -1.92815568e-02, -7.75221922e-03, -6.75061252e-03, 2.12856922e-02,
       3.13859037e-03, 5.43459173e-05, 3.07394303e-02, 2.21334491e-02,
       1.12997070e-02, -5.86778577e-03, -1.65834967e-02, -1.36662526e-02,
       -8.20248295e-03, -1.72786918e-02, -7.75532145e-03,
       -3.33083648e-04, -4.87914513e-04, 8.45553167e-03, -1.52652443e-03,
       -7.10792234e-03, 3.40633071e-03, 1.37438681e-02, -2.11077165e-02,
       -2.35067736e-02, -1.29772378e-02, 1.20942825e-02, -1.29640312e-03,
       -1.41493836e-02, -8.01498629e-03, 1.49541034e-03, 2.44345912e-03,
       -1.28787924e-02, 9.74976178e-03, 1.50205046e-02, 2.42695361e-02,
       7.98343960e-03, 1.64844785e-02, -4.46933741e-03, -1.09128021e-02,
       1.89135410e-02, -3.08718346e-03, 2.84141698e-03, -6.17135037e-03,
       1.60872079e-02, 1.29656633e-02, 1.21123400e-02, -2.09038626e-04,
       1.12280184e-02, 1.28344623e-02, -3.19057666e-02, -8.08171579e-04,
       -1.04852449e-02, -4.44733258e-03, 1.39445653e-02, 3.09946388e-02,
       2.53692064e-02, 1.43462811e-02, 6.86669536e-03, 8.79414659e-03,
       1.17546422e-02, -1.22926310e-02, -2.53947210e-02, -5.57806343e-03,
       1.54907424e-02, -1.18031353e-02, -7.28613976e-03, 1.22864479e-02,
       -1.47403870e-02, 1.05190715e-02, -6.69721840e-03, -4.47603175e-03,
       -2.81543750e-02, 1.84944719e-02, 9.48719122e-03, -3.82890739e-03,
       1.29698794e-02, 8.12469143e-03, 1.60625149e-02, -8.50535557e-03,
       -1.69560034e-02, -1.37248833e-03, 3.62160243e-02, 1.71121899e-02,
       -2.03905185e-03, 1.65096426e-03, -4.22514370e-03, 2.88761146e-02,
       2.99480627e-03, -9.57065076e-03, 1.17986714e-02, 1.72602534e-02,
       -7.80169200e-03, -1.89738125e-02, 9.62683745e-03, -9.02387593e-03,
       1.19950073e-02, -9.10028815e-03, 1.01015838e-02, 2.21811491e-03,
       4.47757468e-02, 2.25391984e-02, -5.85153792e-03, 9.61930398e-03,
       -1.48002505e-02, 1.54443237e-03, -1.97714940e-02, -2.35512927e-02,
       7.72306276e-03, 3.16617489e-02, 1.98904481e-02, -2.19644196e-02,
       1.14657078e-02, -1.94979478e-02, 2.06741993e-03, -1.00289946e-02,
       1.01867234e-02, 1.09828291e-02, 5.14185049e-05, -5.84231922e-03,
       3.91872693e-03, 7.41676008e-03, 1.07289513e-03, 8.58639181e-03,
       4.52007959e-03, 6.25516940e-03, 1.26117785e-02, -5.73472632e-03,
       -6.34352909e-03, 6.18149200e-03, 1.29099237e-02, -1.09127015e-02,
       -7.24874204e-03, 1.11922715e-02, -3.83887673e-05, 3.31344292e-03,
       -7.13065080e-03, 1.09811509e-02, -2.35838350e-02, -7.32096191e-03,
       -7.50403618e-03, 1.90099794e-02, 2.47187279e-02, 1.68629345e-02,
       1.23628573e-02, 4.54044715e-03, 5.24800736e-03, -2.34782510e-02,
       7.65580405e-03, -5.38185192e-03, 1.60769485e-02, 1.52282268e-02,
       1.59730837e-02, 9.81524028e-03, 2.88025197e-03, -8.00499506e-03,
       1.83362234e-02, -7.00306380e-03, -1.25515787e-02, -5.66020887e-03,
       1.24841509e-02, 7.63269700e-03, 1.18502444e-02, 5.93490107e-03,
       -1.32637108e-02, -1.08806863e-02, 1.18872775e-02, -1.28857857e-02,
       -2.96089388e-02, 1.32723857e-04, 2.76912516e-03, 2.04678532e-02,
       1.62499119e-02, 1.26286584e-03, -9.61809885e-03, 2.22998718e-03,
       9.50652454e-03, 7.11166533e-03, 2.91626938e-02, 7.28766108e-03,
       3.07450425e-02, 2.40634009e-02, 4.14719293e-03, 2.57712766e-03,
       2.35667806e-02, 1.28968833e-02, 2.62589403e-03, 1.47961536e-02,
       1.38727762e-02, 1.54009403e-03, 7.35881831e-03, -7.39306305e-03,
       -2.22571623e-02, 2.08644150e-03, -1.73647627e-02, -2.31328011e-02,
       -1.28139732e-02, 4.12875321e-03, -1.74085516e-02, -1.72337350e-02,
       -5.62801724e-03, -1.42616080e-02, 3.04451655e-03, -2.20978130e-02,
       -2.53417250e-02, -9.35422257e-03, 5.23478026e-03, 7.75569398e-03,
       1.44626880e-02, 3.89575330e-03, -8.66889395e-03, 1.04350308e-02,
       -1.08704402e-03, 1.18226390e-02, 5.60219353e-03, -8.28256737e-03,
       -1.12540387e-02, 2.03317050e-02, 3.09736542e-02, 1.24554150e-02,
       -5.42899081e-03, -1.52999051e-02, -1.86650595e-03, 1.41683966e-02,
       -1.06680058e-02, -1.87684912e-02, -1.68294962e-02, 1.32699814e-02,
       -1.25109162e-02, 2.22737319e-03, -4.87199798e-03, -1.74168572e-02,
       9.19284020e-03, 2.52582468e-02, -2.06370018e-02, 1.23074958e-02,
       1.28666256e-02, -2.39403602e-02, -2.09528357e-02, -6.86028972e-03,
       -9.41563118e-03, 1.02611873e-02, 2.36150622e-03, 4.39948449e-03,
       3.04125138e-02, 1.35782026e-02, 8.66724737e-03, 7.53866322e-03,
       -5.16924961e-03, -4.31681098e-03, 4.29475307e-02, 1.50529668e-02,
       -1.86120532e-02, 1.25970356e-02, 7.71044521e-03, -3.72926146e-02,
       -1.55410543e-02, -1.72282141e-02, -9.63648036e-03, 6.79849880e-03,
       5.03175007e-03, -1.90924909e-02, 3.35601903e-03, 1.98585037e-02,
       1.13299033e-02, -1.53449393e-04, -1.76379574e-03, 6.33121328e-03,
       2.34615635e-02, -6.47553569e-03, -2.09712014e-02, -1.93922650e-02,
       1.64619833e-03, -2.74463266e-04, -1.33105852e-02, -6.59030583e-03,
       -7.74897728e-03, 3.77675495e-03, 7.51774351e-04, -1.97033957e-02,
       9.58925299e-03, 3.08065750e-02, -5.98996703e-04, -6.66608289e-03,
       -9.78424493e-03, 1.20431953e-03, 7.28715723e-03, 6.77913241e-03,
       -8.68219789e-03, -4.45113983e-03, 5.19510452e-03, -4.74490644e-03,
       6.87136175e-03, -6.44951733e-03, 1.71372313e-02, 2.73973551e-02,
       1.47040542e-02, 4.65961965e-03, -6.61237445e-03, -9.49858781e-03,
       -1.27705922e-02, -2.23413575e-02, -8.21904745e-04, 9.56060644e-03,
       1.55313266e-03, 8.41511507e-03, -6.27018232e-03, 3.75887495e-03,
       -2.32110359e-02, -1.11298384e-02, -1.28276618e-02,
       -1.08280126e-03, -1.08001698e-02, -1.54470569e-02,
       -7.02905189e-03, -5.14557771e-03, 8.21647234e-03, 3.66026605e-03,
       -2.07493026e-02, 4.21868358e-03, 1.20889870e-02, 3.24655995e-02,
       2.34362483e-02, 4.15772060e-03, 5.35569573e-03, 9.08654474e-04,
       -7.98269548e-03, -1.00887818e-02, 2.22447515e-03, 5.36392163e-03,
       1.64757073e-02, -3.20413685e-03, -9.96082276e-03, -8.64320155e-03,
       1.67917609e-02, -1.02035364e-03, 7.30702595e-04, -1.06728794e-02,
       2.27616690e-02, -1.11798597e-02, -3.97836324e-03, -1.93104334e-02,
       -1.52607728e-02, 1.26208160e-02, -5.74511755e-03, -1.85978506e-02,
       -3.02024297e-02, 4.12225118e-03, -1.10139465e-02, -1.17517859e-02,
       -3.65116596e-02, 3.75250675e-04, 1.69294402e-02, -1.55181030e-03,
       3.21296067e-03, 3.16445064e-03, 1.79497395e-02, 1.40341939e-02,
       9.46322456e-03, -1.05385398e-02, -6.64371252e-03, 3.42647992e-02,
       -5.61393565e-03, -2.73870374e-03, -4.29227017e-03, 2.07940419e-03,
       1.11250216e-02, 1.99534819e-02, -2.24669697e-04, 1.16917782e-03,
       -1.67414360e-02, -4.19864384e-03, -6.26082812e-03,
       -5.52499620e-03, 1.37301034e-03, -2.92822700e-02, 4.45728423e-03,
       -2.01541632e-02, -6.17459556e-03, -1.56515632e-02,
       -5.41174412e-03, -3.96443158e-03, 6.00455701e-03, -1.31938485e-02,
       -1.87174398e-02, 5.25364745e-03, -6.12763222e-03, 3.76617932e-03,
       9.44154803e-03, -5.63513301e-03, 9.45428479e-03, 1.36467558e-03,
       2.82538980e-02, 1.12084420e-02, 1.60301328e-02, -1.75371824e-03,
       -7.02996214e-04, -1.11385016e-02, -1.15537047e-02,
       -8.86879116e-03, 1.41560081e-02, 1.33971786e-02, 2.20319536e-02,
       1.11275176e-02, 4.12833272e-03, -1.16070174e-02, -1.65977317e-03,
       3.54640023e-03, 1.21330386e-02, 1.22234896e-02, 7.97101203e-03,
       2.46834173e-03, 3.81540461e-03, -3.67103331e-03, -1.44406790e-02,
       -6.00656169e-03, 5.99251594e-03, 2.94013484e-03, 5.72999520e-03,
       5.88030601e-03, -6.79941615e-03, -1.24016572e-02, -1.21900905e-02,
       -1.50112612e-02, 5.39697474e-04, -1.56966224e-02, 1.04710339e-02,
       2.70957910e-02, 1.56349186e-02, 7.07924226e-03, 4.14758874e-03,
       -9.49990936e-03, -3.46988812e-02, -8.90701544e-03,
       -1.41832409e-02, 6.31008437e-03, -5.57324011e-03, -5.43984352e-03,
       -1.08627253e-03, 1.64554466e-03, -1.17036942e-02, -1.99562982e-02,
       1.54156806e-02, 4.25943127e-03, -1.30905863e-02, 2.28187218e-02,
       -1.46459986e-03, -5.31603931e-04, -8.56655277e-03,
       -1.55529920e-02, -1.29688845e-03, 1.08042650e-03, 6.75452361e-03,
       6.72816357e-04, -9.12998989e-03, -2.70784535e-02, -6.58362126e-03,
       -3.17453127e-03, 7.43983174e-03, -2.98409294e-02, -4.75274958e-03,
       -3.81264859e-03, 1.52199809e-02, 1.15159266e-02, 8.55165999e-03,
       -6.24231005e-04, 1.13182636e-02, -1.03123754e-03, -2.13714782e-02,
       -8.07974488e-03, -2.03293585e-03, -1.12360958e-02,
       -2.60240287e-02, -1.46249998e-02, 1.19245471e-02, 2.27235053e-02,
       -4.97469865e-03, -1.05006685e-02, -5.82415378e-04, 2.67210640e-02,
       1.72696598e-02, 5.41463401e-03, -1.39220906e-02, 1.80235319e-03,
       1.33229829e-02, -4.63292701e-03, -2.93216901e-03, -3.51751549e-03,
       1.52993072e-02, 2.90219253e-03, 1.82423163e-02, -2.36124806e-02,
       6.02603704e-03, -6.84174569e-03, -2.81067099e-02, -1.39941135e-02,
       1.17228357e-02, 1.37408322e-03, 1.77605450e-03, -1.43485554e-02,
       -9.41077434e-03, 1.53491516e-02, 2.48882845e-02, -1.71784349e-02,
       1.40917022e-02, 1.85243580e-02, 1.94189437e-02, 1.03142569e-02,
       7.93804415e-03, -2.54162196e-02, 1.18682124e-02, 1.63382497e-02,
       5.25143370e-03, 1.00454511e-02, 9.61803645e-03, -1.29322605e-02,
       -1.50906034e-02, -4.19779308e-03, -2.81819906e-02,
       -1.67838516e-04, -3.49972281e-03, -1.49639416e-02, 1.48698967e-02,
       1.13278497e-02, -4.98600816e-03, -5.89295384e-03, -1.94861032e-02,
       -9.94568784e-03, 3.56252043e-04, 1.06719071e-02, 1.01839714e-02,
       2.02787109e-03, 1.63984336e-02, 3.83876124e-03, -1.30410790e-02,
       -7.38971285e-05, -1.36561617e-02, 2.10526008e-02, 3.04425452e-02,
       1.25407791e-02, -9.26072150e-03, 2.54791952e-03, 6.34802319e-03,
       1.02616416e-03, 2.67943311e-02, 1.73267294e-02, 4.43106843e-03,
       1.18500469e-02, 4.96706413e-03, 1.06413318e-02, 1.19222989e-02,
       1.35748880e-02, 5.36086224e-03, -8.80166329e-03, -2.60993615e-02,
       -9.59874480e-04, 6.84791896e-03, 1.43183665e-02, 1.30712539e-02,
       -1.05849598e-02, -1.32906949e-02, -1.96057856e-02,
       -1.14048329e-04, -2.65729781e-02, -1.19817618e-03,
       -2.94445679e-02, -1.34478519e-02, 1.28675271e-02, 6.58328738e-03,
       2.29368708e-03, 1.04451524e-02, 2.44416874e-02, 1.14702946e-02,
       1.85884573e-02, 1.49048306e-02, 1.53548485e-02, 2.78083738e-02,
       -1.31369010e-02, -5.50874323e-03, 1.18663665e-02, 1.90310609e-02,
       -1.22681791e-02, -2.62702373e-03, -1.38834789e-02,
       -1.21101514e-02, 2.22639330e-02, -5.07329917e-03, -1.74961220e-02,
       -2.21577678e-02, -1.53027819e-02, -5.02264732e-03, 1.37816621e-02,
       -1.55237783e-02, -1.66724864e-02, 1.83411762e-02, -3.21961963e-03,
       -9.32488590e-03, -2.37062983e-02, 1.07238221e-03, 1.28484063e-03,
       1.20246336e-02, -2.19980739e-02, -2.15453524e-02, 1.86059307e-02,
       1.88863988e-03, 8.69116466e-03, -7.72614684e-03, -6.39772834e-03,
       3.01605673e-03, 1.03309005e-02, 2.16074637e-03, -1.30362231e-02,
       -1.43064614e-02, -5.67281153e-03, 4.22502076e-03, -1.84980221e-02,
       3.08506861e-02, -8.32615979e-03, 1.97562873e-02, -1.45522496e-02,
       -1.38948811e-02, 7.96277169e-03, 4.58590966e-03, -1.80463563e-03,
       -2.64375899e-02, -4.44842590e-04, -2.93476367e-03,
       -1.05432114e-02, 1.47685816e-03, -8.88058729e-03, -1.69386491e-02,
       9.86350048e-03, 1.53570464e-02, -1.69850811e-02, -1.37321930e-02,
       -4.45026060e-04, 2.16248203e-02, 1.97869800e-02, -2.08087564e-02,
       -6.00922015e-03, -1.35807032e-02, 9.54063889e-03, -1.64848138e-02,
       5.81817562e-03, -1.68523621e-02, 1.27729848e-02, 1.26380781e-02,
       -2.15365272e-02, -4.55879094e-03, 1.00358408e-02, 2.54551880e-02,
       -1.31117264e-02, 4.09709197e-03, -7.42403464e-03, 1.81066375e-02,
       2.03764508e-03, -9.75990482e-03, -3.41698714e-02, -2.99753575e-03,
       6.58317190e-03, -2.14104559e-02, -5.21816686e-03, -5.24277659e-03,
       2.24176291e-02, 1.19795129e-02, -1.88235193e-02, -2.43883077e-02,
       -2.30025146e-02, 1.04940878e-02, -1.96722895e-02, 1.99325960e-02,
       8.45410768e-03, 1.75846089e-02, -9.65674035e-03, -7.24902784e-04,
       -1.43112401e-02, 9.78361629e-03, 2.57326234e-02, -1.19850766e-02,
       -2.95757805e-03, -1.87348444e-02, 1.26853567e-02, -1.10625494e-02,
       -2.69216262e-02, -1.81741044e-02, -2.80234162e-02, 1.56316683e-02,
       -2.54434124e-02, 1.29579771e-02, -1.35907969e-02, 6.89349690e-05,
       -1.38968769e-02, -8.77896138e-03, -2.83385236e-02, 7.71809649e-03,
       3.25104129e-03, 2.44572666e-02, 3.75445560e-03, 6.99564442e-03,
       4.83534904e-03, -2.68387096e-03, -2.73243431e-02, -1.73543971e-02,
       7.33003020e-03, -7.62152392e-03, -1.86466379e-03, -2.39072684e-02,
       1.19070811e-02, 1.73524104e-03, 1.94041803e-02, 5.93136298e-03,
       1.80197656e-02, 1.91745814e-02, -6.35537459e-03, 5.29296510e-03,
       9.17325728e-03, 8.58289469e-03, -1.77837778e-02, -3.67830042e-03,
       2.69515198e-02, 4.74041663e-05, -1.57173742e-02, -2.96950596e-03,
       -1.33693377e-02, -2.84877047e-02, 8.50071665e-03, -1.29930880e-02,
       1.86891444e-02, 2.82317512e-02, 3.06270327e-02, -4.62171482e-03,
       -1.24289813e-02, 6.19991822e-03, -1.90667920e-02, 3.89613968e-04,
       3.39751272e-03, 6.57617347e-03, 2.32104603e-02, 3.18041816e-02,
       2.39680409e-02, 1.02072605e-03, 1.20289885e-02, 1.20579163e-02,
       -5.37489168e-03, 7.90013000e-03, 5.56491641e-03, -3.45315412e-03,
       1.37698408e-02, -1.92772672e-02, 3.70937120e-03, 1.46401105e-02,
       -9.72734392e-03, -2.33895034e-02, 2.63100420e-03, 1.34061985e-02,
       2.70639546e-02, 2.92682322e-03, -1.37210609e-02, -5.63041912e-03,
       8.05260031e-04, 1.56493485e-02, -1.21095404e-02, 1.28057087e-03,
       -1.32048288e-02, 5.91273792e-03, 1.86309358e-03, 9.05902032e-03,
       -5.70301851e-03, -8.28868151e-03, 1.57103431e-03, -5.18032955e-03,
       6.86126761e-04, -4.98642446e-03, -2.15378795e-02, -3.19843087e-03,
       7.70755531e-03, -8.63893423e-03, -4.93329531e-03, 2.75207479e-02,
       6.30634744e-03, 1.16455238e-02, -3.22762673e-04, -2.03178506e-02,
       9.38166166e-04, -6.06747577e-03, -1.13288080e-02, -5.92434593e-03,
       -8.69609974e-03, 9.57775209e-03, 5.74879395e-03, -1.20656416e-02,
       -1.32363057e-03, -3.06269317e-03, 2.45880671e-02, 1.34693692e-02,
       1.57927405e-02, 8.78276490e-03, 3.35315126e-03, 2.02624984e-02,
       1.12576755e-02, -1.39428675e-03, -1.80343725e-02, 7.71686062e-03,
       3.70774185e-03, -2.05233577e-03, 3.78995971e-03, 4.19002696e-04,
       -5.81206474e-03, -1.06305452e-02, -1.85444932e-02,
       -2.11456381e-02, -3.74999642e-03, 2.40500844e-06, -3.44348815e-03,
       1.44577678e-02, -6.16177451e-03, -4.34644893e-03, 1.28247710e-02,
       -2.10888614e-03, 3.45359859e-03, 2.06226110e-02, 1.78903379e-02,
       4.37560899e-04, -1.19689014e-02, -2.08299272e-02, 2.56618904e-03,
       -2.18878989e-03, -2.29252293e-03, 1.66680142e-02, 1.72218699e-02,
       9.71943489e-04, -6.56865258e-03, 4.45470633e-03, -3.01987212e-03,
       -1.12104332e-02, 1.10857887e-02, 1.89069868e-03, -9.86037962e-03,
       -1.22780036e-02, 2.03797314e-03, 2.04913393e-02, 2.52620336e-02,
       -8.01194180e-03, -1.40787428e-02, -6.77994732e-03, 1.31727606e-02,
       -8.75843223e-03, -1.23038050e-03, -2.27027689e-03, 2.74627673e-04,
       -1.34244803e-02, -3.79888969e-03, 7.81821553e-04, -1.12718372e-02,
       -5.94239798e-04, 7.55198998e-03, -2.58620130e-03, -7.09372712e-03,
       9.57264379e-03, 4.59629111e-03, -6.72419043e-03, -1.56030944e-02,
       -6.88102376e-03, 1.74283553e-02, -2.06897371e-02, -8.95958021e-03,
       -9.98798572e-03, 3.08879418e-03, -2.35964619e-02, 1.96115696e-03,
       8.36305507e-03, 3.67743109e-04, -9.20663588e-03, 1.24074733e-02,
       1.65844262e-02, -1.12323174e-02, -2.71558017e-03, -1.38861164e-02,
       5.07575599e-03, 1.41499713e-02, 1.59539469e-02, 6.91407407e-03,
       -6.14581490e-03, 9.75276751e-04, -2.15973090e-02, -2.61798333e-02,
       -1.64178815e-02, 3.16273537e-04, -2.61285133e-03, -5.52088348e-03,
       -2.24098796e-03, -3.40874493e-02, 8.21866386e-04, -8.07732064e-03,
       -1.80353608e-03, -1.80354435e-03, 1.03608938e-03, 2.71449517e-02,
       1.77042596e-02, -9.53526888e-03, -1.06471861e-02, -5.97765530e-03,
       -9.90264956e-03, -1.66297741e-02, -6.48566848e-03,
       -2.04565786e-02, -2.07124138e-03, 3.48977605e-03, -6.26077456e-03,
       7.97118247e-03, 2.96504367e-02, 1.24552343e-02, 4.22577513e-03,
       -1.02203386e-02, 6.23899559e-03, 3.16870585e-03, 1.52105244e-03,
       4.17020498e-03, 5.80572477e-03, 1.56436935e-02, 4.65635303e-03,
       -8.52076057e-03, -1.25627248e-02, -5.84287941e-03,
       -7.93554913e-03, 8.19713529e-03, 8.04548897e-03, 2.36045886e-02,
       1.71104446e-02, -1.42106041e-02, -2.26275679e-02, -2.77170399e-03,
       -7.82952085e-03, -3.72279109e-03, 6.69909501e-03, 2.45451592e-02,
       2.78629754e-02, 1.15533154e-02, -1.66461263e-02, -1.82766914e-02,
       8.35511088e-03, -7.95366801e-03, -3.59209515e-02, -1.03597855e-02,
       3.81093682e-03, 4.75470396e-03, 2.90493928e-02, 2.56217867e-02,
       8.18351191e-03, -1.03180399e-02, -5.46352332e-03, 4.76234360e-03,
       3.03882118e-02, 3.00491974e-03, 3.93020883e-02, 3.28966267e-02,
       3.18223722e-02, -1.15528214e-03, 1.47456909e-03, -4.06470848e-03,
       -1.77303217e-02, 1.52403973e-02, 3.23162088e-03, -5.64377056e-03,
       1.47517975e-02, 1.02570960e-02, -1.06239226e-02, 5.03863767e-03,
       3.05843831e-04, -2.52544601e-02, -6.17219042e-03, -1.82872731e-02,
       1.42857861e-02, 2.39908509e-02, 3.32580227e-03, -5.32950321e-03,
       9.71648470e-03, -7.79529521e-03, -2.73772385e-02, 1.94874266e-03,
       -6.29895134e-04, 2.61043254e-02, 2.93229762e-02, 2.07670126e-02,
       -2.16839574e-02, -1.26292147e-02, -1.56449173e-02,
       -1.36256674e-02, 1.30279446e-02, 2.31608911e-03, 1.83692425e-02,
       2.64442433e-02, 1.44877005e-02, -8.29258002e-03, 8.33587348e-03,
       -2.18430739e-02, -6.26647333e-03, 3.54845263e-03, 1.17365122e-02,
       -6.29346026e-03, 2.11119130e-02, -1.33359432e-03, -7.33485259e-03,
       -1.85382385e-02, -2.10680962e-02, -2.86287684e-02, 1.39918440e-04,
       2.82574707e-04, -1.29739316e-02, 9.74453986e-03, -3.19672236e-03,
       -4.17961925e-03, -1.14456995e-03, -1.42545095e-02, 4.61512571e-03,
       2.87674293e-02, -1.19862622e-02, 1.69718103e-03, 8.00976064e-04,
       2.76804017e-03, -2.03187950e-02, -1.53191434e-02, -1.47872139e-02,
       6.98183954e-04, -6.48534857e-03, 2.76497193e-03, 3.73676210e-03,
       -9.27425269e-03, -1.86437846e-05, 9.33536608e-03, -1.83521006e-02,
       -1.05734561e-02, -3.31355049e-03, 1.12475315e-03, -2.30802246e-03,
       -1.43945310e-02, 7.08944211e-03, 1.34862391e-02, -2.81518158e-02,
       -1.04648666e-02, -9.86330677e-03, -1.20154694e-02,
       -5.55933407e-03, -1.11983595e-02, -3.75247300e-02,
       -1.63363796e-02, 3.29930754e-03, -3.87089723e-03, -1.54887896e-03,
       1.97625812e-03, -1.06651569e-03, -4.11981717e-03, -3.34017761e-02,
       1.33365737e-02, 1.44389058e-02, -2.15365645e-02, 7.22354837e-03,
       -2.06445400e-02, -5.14911255e-03, -2.26916261e-02, 1.43221207e-02,
       4.00661025e-03, -2.30721179e-02, 1.16991457e-02, -5.06955897e-03,
       -3.04368362e-02, -3.56267802e-02, -2.73019411e-02,
       -1.49450952e-03, 3.75489308e-03, -2.24876162e-02, -2.10747533e-02,
       -8.83969571e-03, -4.87151730e-04, -7.89234601e-03,
       -8.56520515e-03, 4.65306593e-03, -9.14524775e-03, 3.83003312e-03,
       -1.25946756e-02, -2.59587392e-02, 3.44806351e-03, 8.84713326e-03,
       -1.02922982e-02, 1.66348461e-03, -1.21600721e-02, -1.58760566e-02,
       -1.62106170e-03, -1.30014131e-02, -1.78528298e-02, 1.11240540e-02,
       1.53515711e-02, -1.61378160e-02, -1.11924000e-02, 4.59531741e-03,
       1.76551994e-02, 1.60640199e-03, -3.98605177e-03, 1.61181930e-02,
       -2.17563729e-03, 3.26573825e-03, -7.42722442e-03, 6.89715496e-04,
       9.91953909e-03, 2.03254204e-02, 1.01661095e-02, -1.37654168e-03,
       2.39018304e-03, 6.64767623e-03, -4.24357224e-03, -2.09201197e-03,
       1.55582149e-02, 3.31448950e-02, 3.29688899e-02, -9.41013079e-03,
       5.47995884e-03, 7.82121811e-03, 7.23995361e-03, -7.36148329e-03,
       -1.35454787e-02, -1.76021960e-02, 9.22079664e-03, 1.39102526e-02,
       -2.69354358e-02, -8.26179981e-03, 3.06407344e-02, 2.60478426e-02,
       1.05128232e-02, -1.41046261e-02, 1.17117716e-02, 3.63105237e-02,
       2.18501799e-02, 4.28582169e-03, 5.47248684e-03, 6.43970538e-03,
       2.05433145e-02, 6.52043847e-03, -1.51705081e-02, 1.69712619e-03,
       5.39863342e-03, 8.69346317e-03, -1.67896263e-02, -6.82845805e-03,
       2.05949601e-02, 1.36093525e-02, 5.39612863e-03, -9.74784419e-03,
       2.06315275e-02, 2.66348850e-02, 2.16050036e-02, -1.34309046e-02,
       7.11331330e-03, -1.74358487e-03, 1.88734289e-02, -3.31533770e-03,
       -2.08897721e-02, -1.03804739e-02, 1.90876273e-03, 1.69332568e-02,
       -8.22863728e-03, 1.07079744e-02, 1.29316247e-03, 7.97643047e-03,
       3.49031691e-03, 8.72304663e-03, 1.61854904e-02, 1.16094165e-02,
       2.36333199e-02, -6.09272532e-03, -6.06084196e-03, -1.87129881e-02,
       -5.79084922e-03, -7.64339138e-03, 1.40628861e-02, 2.53568795e-02,
       2.18611001e-03, 9.64723062e-03, 1.46680484e-02, 7.36288913e-03,
       -1.10280970e-02, 2.46755928e-02, 4.42594104e-03, 2.02036183e-03,
       9.22007114e-03, 8.13426729e-03, 1.72888525e-02, 1.14881536e-02,
       -2.55961949e-03, -8.50446988e-03, -2.24986393e-03, 2.51707272e-04,
       3.72518017e-03, 1.61572415e-02, -1.38243316e-02, -2.78831646e-03,
       2.56091021e-02, -8.84159189e-03, -1.13292439e-02, 1.38661172e-03,
       2.27446458e-03, 1.46076852e-03, 7.54008908e-03, -6.86507905e-03,
       -8.65133386e-03, 1.50715047e-02, 1.02811819e-02, -2.40734289e-03,
       -9.55541059e-03, -3.47365811e-03, -6.47244137e-03,
       -5.39514329e-03, 4.43388522e-03, 7.24027818e-03, 2.80599147e-02,
       1.25959171e-02, -4.50152531e-03, -6.67494908e-03, -5.33180591e-03,
       -5.81612531e-03, 6.69458322e-03, -5.58615057e-03, -6.92941528e-03,
       8.11244640e-03, 7.83497933e-03, 1.24248560e-03, -1.15435915e-02,
       -1.10306097e-02, -1.47942156e-02, -2.73292772e-02,
       -1.25930160e-02, -1.13861933e-02, 2.32936703e-02, 9.53745970e-04,
       -6.22683074e-05, 1.32935762e-03, -5.82652027e-03, -2.27714842e-03,
       1.82495788e-02, 1.71405934e-02, 3.14836251e-03, 1.70337912e-02,
       9.55575961e-04, -3.75180808e-03, -2.35775532e-03, -2.76881177e-02,
       -8.85362085e-03, -9.88131214e-05, 2.49102316e-03, -2.04408951e-02,
       -6.65323250e-03, -9.81512479e-03, -2.12591141e-03, 8.19632551e-04,
       -9.86860599e-03, -1.15946392e-02, -4.17046761e-03, 5.30807162e-03,
       -4.44471603e-03, 1.73386503e-02, -5.06657001e-04, 1.38895838e-02,
       -2.17837188e-03, 3.88949155e-03, 7.32688757e-04, 2.31362111e-03,
       -1.05923442e-02, -1.00645879e-02, -1.36872772e-02, 5.20699657e-04,
       -1.71863902e-02, -1.54887633e-02, -1.64518803e-02, 2.18648859e-03,
       1.27489362e-02, -5.74204745e-03, -2.36666221e-02, 1.16407089e-02,
       -5.62282512e-03, -1.15107186e-02, -1.92007329e-02,
       -9.47695784e-03, -1.55333159e-02, 2.02306802e-03, -1.00104818e-02,
       3.74114304e-03, 9.81955230e-03, 3.66370473e-03, 5.98772487e-04,
       -4.28582309e-03, 1.28845265e-02, 1.66558381e-02, 1.08939558e-02,
       -5.13303746e-03, -8.48841108e-03, -1.87763795e-02,
       -1.01016788e-02, -1.31217791e-02, -1.66666042e-02, 8.11476260e-03,
       1.42503139e-02, 1.90805532e-02, -4.21100092e-04, 5.56681771e-03,
       -4.38616658e-03, -2.13512219e-02, -1.01153161e-02,
       -3.99407046e-03, -4.02872823e-03, -1.11185862e-02,
       -9.23672598e-03, 7.78728211e-03, 6.37489045e-03, 5.97420475e-03,
       -1.51772629e-02, 5.50041953e-03, 1.16965575e-02, 2.24804897e-02,
       -5.48865134e-03, -1.74413826e-02, -8.85912590e-03,
       -1.60709377e-02, -1.35781867e-02, -1.03733353e-02,
       -1.11655018e-03, -1.32521719e-03, 1.35764573e-02, 1.12358788e-02,
       1.36428177e-02, 1.33701246e-02, 1.42926397e-02, 3.20681487e-03,
       -1.78286508e-02, -4.40406101e-03, -1.63598694e-02, 9.20143165e-03,
       -7.09044375e-03, 1.67106002e-04, 1.53290909e-02, 3.09146028e-02,
       1.41125638e-03, 3.09704454e-03, 7.94857927e-03, 1.41492719e-02,
       7.95082096e-03, -1.14168730e-02, -5.90090873e-03, -5.24530280e-03,
       -1.42721673e-02, -4.12989786e-04, 1.52795827e-02, -1.00425333e-02,
       -9.67689138e-03, -4.25807404e-04, 4.28960240e-03, 1.61899179e-02,
       1.00915199e-02, -5.34001272e-03, 1.33167142e-02, 9.89339221e-03,
       -9.86593030e-03, -2.55144481e-02, -1.14161642e-02,
       -1.23417666e-02, 4.51898482e-03, -1.60807278e-02, -8.98187794e-03,
       -6.99674385e-03, 1.50882257e-02, -2.17502676e-02, 1.80181186e-03,
       -4.50957334e-03, -1.16422949e-02, 3.51651013e-02, -1.35059115e-02,
       -1.99336372e-03, 8.48161243e-03, -1.42613091e-02, 2.71348702e-03,
       6.15072250e-03, 6.98029157e-03, 1.59647148e-02, 6.04021270e-03,
       -6.99599972e-04, -6.21520216e-03, 7.09982682e-03, 8.03730392e-04,
       8.83477461e-03, 5.23562031e-03, 4.19908343e-03, 1.91970635e-02,
       -1.70556144e-04, -1.78084299e-02, -3.61702335e-03, 8.02849885e-03,
       2.91964086e-03, 4.56563290e-03, 2.42707487e-02, 1.51284365e-02,
       -1.05376833e-03, -3.51930335e-02, -2.18886156e-02,
       -9.25307814e-03, 2.40763631e-02, 7.33330206e-04, 8.08741339e-03,
       1.87621714e-04, -1.31835230e-04, 4.35302686e-03, -1.96197219e-02,
       -2.83624586e-02, -1.31821558e-02, 2.72704531e-02, 2.56980788e-02,
       1.19839301e-02, -6.61466876e-03, -1.10941781e-02, -1.45450402e-02,
       -3.22968699e-02, -2.88989004e-02, 3.10103479e-03, 1.17069567e-02,
       5.77437039e-03, 4.63095447e-03, -9.53027792e-03, -1.86449382e-02,
       -2.60108057e-02, 1.44016091e-02, -2.39172634e-02, 7.34375883e-03,
       -6.13076985e-03, -1.21672242e-03, 1.48140080e-02, -1.76341496e-02,
       -1.57795567e-02, -2.98552797e-03, -8.25903844e-03,
       -5.29154530e-03, 1.63216591e-02, 2.45062970e-02, 3.09565812e-02,
       -1.18856747e-02, -2.09088996e-02, -1.22709172e-02, 3.67544335e-03,
       1.96233895e-02, 1.11091472e-02, 2.09799744e-02, 2.92117218e-03,
       -7.55406870e-03, -3.24147660e-03, -1.11624913e-03,
       -2.64065899e-03, -2.96705286e-03, -6.73139351e-04,
       -1.70069914e-02, 2.26899725e-03, 2.24161777e-03, -8.59372504e-03,
       2.75051240e-02, 3.63243022e-03, 3.97373410e-03, -3.28168310e-02,
       -8.33050907e-03, -9.14998446e-03, 3.85279441e-03, 4.11092973e-04,
       2.73528844e-02, -2.16680169e-02, -5.15530584e-03, 1.31931994e-02,
       1.83293372e-02, 3.84927145e-03, 2.54388321e-02, 1.70453060e-02,
       1.68626029e-02, -1.63390767e-02, -1.35769751e-02, -1.32064624e-02,
       4.87440731e-03, -1.00044319e-02, 5.31279435e-03, -3.15539888e-04,
       -1.33223115e-02, -1.34478761e-02, -3.18451319e-03,
       -4.02588444e-03, 1.05711035e-02, -1.12800961e-02, -5.32537661e-02,
       -2.06950642e-02, -1.59822572e-02, 7.12887198e-03, -2.11535720e-03,
       6.60569826e-03, -1.27358241e-02, -7.02852244e-03, 5.24436822e-03,
       -4.30932790e-02, -9.79839358e-03, -2.71936250e-03,
       -8.08075629e-03, -2.39984761e-03, -5.68216154e-03,
       -9.16461647e-03, -2.01620092e-03, 9.62008256e-03, -3.70654278e-02,
       8.00527632e-03, -6.50177756e-03, 5.45566343e-03, -4.22688812e-04,
       -1.08080748e-02, 3.00520961e-03, 1.84812713e-02, 8.64321738e-03,
       -4.34976183e-02, -1.10002533e-02, -2.90542422e-03, 9.48021188e-03,
       -3.09606548e-03, -1.50910150e-02, 1.96784381e-02, 4.26818058e-02,
       1.73536651e-02, -4.15716367e-03, 1.59184536e-04, 6.46058179e-05,
       -1.82028860e-02, -2.63946336e-02, 1.01912385e-02, -1.79503411e-02,
       1.00878149e-03, 1.95095898e-03, 4.49448172e-03, -1.20881898e-02,
       -1.48724532e-02, -1.15156732e-02, -4.12092824e-03, 1.50501104e-02,
       9.62370634e-03, 7.07446551e-03, -3.90653219e-03, 1.58466911e-03,
       -1.27295982e-02, 8.16621818e-03, 3.61810182e-03, 1.30064189e-02,
       1.26277423e-03, 2.93001323e-03, 9.52306553e-04, -1.73885319e-02,
       7.55862985e-03, -6.53993106e-03, 8.69861245e-03, 5.27823856e-03,
       1.02892024e-02, 1.57672092e-02, -1.06834974e-02, -1.68701150e-02,
       1.45586673e-02, 1.78061388e-02, -3.14551871e-03, -2.32340302e-02,
       -2.15846337e-02, -7.52900587e-03, -1.11153256e-02, 9.80157964e-03,
       -6.02000952e-03, 1.60484035e-02, 1.65828373e-02, 3.03535871e-02,
       -6.68876804e-03, -1.48512563e-02, -4.13097814e-03, 3.33844870e-03,
       9.01196152e-03, 7.19154021e-04, 2.08450463e-02, 2.67322939e-02,
       -1.28298195e-03, -5.24929166e-03, -3.22384411e-03, 8.53359606e-03,
       1.11282188e-02, 1.12880440e-02, -2.87257275e-03, 1.29559850e-02,
       6.32436015e-03, 2.89583690e-02, 1.13293231e-02, -4.29425636e-05,
       3.43029127e-02, 1.36202620e-02, -3.39378463e-03, -1.67628173e-02,
       -1.91919021e-02, -2.29371544e-02, -3.28510106e-02,
       -2.02817451e-02, -1.19832577e-02, -1.38625875e-02, 1.71811116e-04,
       -1.63781811e-02, 7.73354573e-03, 1.63525771e-02, -8.01409408e-03,
       -1.87914874e-02, -1.82799082e-02, 2.15086807e-02, 1.86897721e-02,
       -8.26342870e-03, 4.14067355e-04, 2.63943220e-03, 5.02103660e-03,
       -2.09014565e-02, 8.81334208e-03, -7.06170453e-03, 2.57758331e-03,
       1.50187109e-02, -1.74217634e-02, 5.04004396e-03, 3.33820358e-02,
       2.43530013e-02, -4.06862833e-02, -5.43084648e-03, -5.78913046e-03,
       2.26482097e-02, 2.54714116e-02, -1.79993641e-02, -1.15932210e-03,
       1.21986307e-02, 1.44208577e-02, -9.01526771e-03, -1.62212569e-02,
       -1.49066309e-02, 4.65783244e-03, 1.94354802e-02, -2.49496219e-03,
       2.05021165e-02, 1.31113864e-02, -1.30036073e-02, -2.29333970e-03,
       -1.11255338e-02, -1.86574217e-02, -8.16768222e-03, 1.44449128e-02,
       1.07584875e-02, -8.34456552e-03, 2.28027031e-02, 9.28138569e-03,
       -2.35554259e-02, -1.63341127e-02, -7.62728089e-03, 1.04363710e-02,
       1.67395175e-02, 1.70016207e-03, 4.66548046e-03, -8.74580722e-03,
       1.15986420e-02, 4.41413419e-03, 1.68516242e-03, -1.57970525e-02,
       -1.15460604e-02, 2.15741675e-02, 7.38734519e-03, 1.67284496e-02,
       1.23809176e-02, -5.89673780e-03, 5.52874105e-03, 4.62636631e-03,
       -7.99427088e-03, -3.85075761e-03, 9.37100220e-03, 1.43978661e-02,
       -1.98384398e-03, -1.09583633e-02, -5.76177053e-03, 1.50557803e-02,
       1.61722838e-03, 1.39145588e-03, -2.09209807e-02, -1.04891881e-02,
       1.17579289e-03, -1.63224973e-02, -1.53897167e-03, -1.85165796e-02,
       5.03731007e-03, -2.45782058e-03, -9.37565323e-03, -1.63130648e-02,
       1.09203495e-02, -3.43303225e-04, -3.24135250e-03, 1.83619708e-02,
       -8.94231442e-03, -8.35237000e-03, -1.30060380e-02, 1.65862981e-02,
       -1.45885376e-02, 7.80821685e-03, -7.17174541e-03, -8.81007686e-03,
       9.69619025e-03, 1.31876813e-02, 1.11099137e-02, 1.43104009e-02,
       -1.24307012e-03, -9.02370922e-03, 9.09607951e-03, -3.23930848e-03,
       -6.35372568e-03, 3.48139764e-03, -3.56420781e-03, -2.24481877e-02,
       2.53352802e-03, -3.87244038e-02, -4.35884926e-04, 9.89765301e-03,
       -5.43031981e-03, 5.10000251e-03, 2.23726761e-02, 2.06246283e-02,
       -3.74924578e-03, 2.91317631e-03, 8.24658200e-03, -1.31143408e-03,
       1.99455600e-02, -3.22145922e-03, -4.32411721e-03, 1.16547644e-02,
       -7.95696117e-03, 5.34022599e-03, 1.07333604e-02, -2.18742397e-02,
       -7.83306826e-03, 1.38443662e-03, -1.54835535e-02, 4.20599990e-02,
       2.33075656e-02, 9.97959264e-03, 1.35755939e-02, -1.05476575e-02,
       -1.49480049e-02, 5.76531608e-03, 1.82902496e-02, 2.96297111e-02,
       2.31441017e-02, 2.32917592e-02, -9.46750923e-04, -3.74412048e-03,
       1.66285299e-02, -1.10665904e-02, -3.14711519e-02, 7.72465486e-03,
       2.12636199e-02, 2.15403922e-02, 5.37314871e-03, -1.24145886e-02,
       1.63348336e-02, -1.86720863e-02, -1.50881624e-02, -6.67888997e-03,
       2.25881245e-02, 1.81183517e-02, 3.09063005e-03, 1.72879372e-03,
       -8.30424298e-03, -7.64474040e-03, -1.44992108e-02, 1.12822372e-02,
       -1.87955406e-02, 1.45133948e-02, 3.54950316e-02, 3.63641739e-04,
       3.19753774e-02, 7.73666613e-03, -9.36591625e-03, 5.69596933e-03,
       9.90336947e-03, -1.34870084e-02, 7.50849536e-03, -1.07795466e-02,
       -1.31477248e-02, 5.52825816e-03, -4.13196022e-03, -1.98231940e-03,
       8.98639299e-03, 7.74895633e-03, -6.06093276e-03, 6.25568489e-03,
       -1.95517484e-02, 7.06943683e-03, 1.01069910e-02, -3.05632828e-03,
       -8.60936567e-03, 9.57441330e-03, 9.46055539e-03, -7.63859367e-03,
       7.87594542e-03, 4.96185711e-03, -8.59885104e-03, -3.37529054e-04,
       -1.20318029e-02, -9.69755556e-03, -7.89223355e-04, 5.83760813e-03,
       5.56895416e-03, -1.15436106e-03, -7.98716210e-03, -4.41931235e-03,
       1.91101804e-02, 5.17372089e-03, 4.78591071e-03, -1.42513169e-02,
       2.18932610e-03, -2.83112656e-03, 2.57083848e-02, 9.24684945e-03,
       -1.31959422e-02, 1.92456562e-02, 1.04157533e-02, 2.26166099e-03,
       -2.24539991e-02, 7.68264802e-03, -3.85120558e-03, 2.95766909e-02,
       7.24655669e-03, -2.10439898e-02, -1.01631656e-02, -1.07357241e-02,
       -2.68889329e-04, -1.12806018e-02, 3.87230772e-03, -1.15870079e-03,
       8.91562086e-03, -7.76984543e-03, -2.36221980e-02, -1.36195365e-02,
       -1.16291530e-02, -1.29076338e-03, -7.52934488e-04, 8.97264760e-03,
       -9.68316337e-04, 1.32146450e-02, 1.25852246e-02, -2.98451236e-03,
       3.25358398e-02, 1.26493163e-02, -1.45016583e-02, -2.87534185e-02,
       6.65840367e-03, -2.47859359e-02, 1.10866986e-02, 3.25489491e-02,
       5.14882244e-03, 8.96114297e-03, 8.26482382e-03, 2.84999004e-03,
       1.29002156e-02, 2.56789904e-02, -8.57322942e-03, 1.93902142e-02,
       9.87177342e-03, -2.92466972e-02, -1.04729226e-02, -1.46434465e-02,
       8.09857529e-03, 2.69770669e-03, 3.19170766e-02, -2.03435048e-02,
       4.81359474e-03, 7.90853798e-03, -1.38107026e-02, -1.24012260e-03,
       3.23704560e-03, 1.24358749e-02, 8.39021429e-03, 3.05384584e-02,
       2.44831259e-04, 8.11946485e-03, 1.38635151e-02, 7.33206840e-03,
       4.48860694e-03, 1.08572859e-02, -1.40484758e-02, -6.54459978e-03,
       1.62175763e-02, -1.97718311e-02, 1.02554401e-02, 1.47377653e-02,
       -9.99640953e-03, 2.05740333e-03, 1.82005819e-02, -3.58084938e-03,
       4.94624535e-03, 1.10890521e-02, -6.35402510e-03, -4.75413352e-03,
       -4.07311972e-03, 4.41763725e-04, -1.86409932e-02, 5.36909141e-03,
       -1.08803194e-02, -2.19394639e-03, 1.25138154e-02, -2.30916366e-02,
       3.19378590e-03, 6.48430688e-03, -1.35688959e-02, -5.42076258e-03,
       3.29811382e-03, -1.23132048e-02, 6.14219438e-03, -4.83330630e-04,
       -7.52333598e-03, 2.43403041e-03, -3.52992676e-02, 1.71410814e-02,
       1.67315714e-02, 1.59516744e-02, 5.77362487e-03, 1.83383431e-02,
       2.84664333e-02, 1.74066052e-02, -4.44696809e-04, 2.25993562e-02,
       1.12598585e-02, 6.07395731e-03, -3.20850499e-03, -1.16884066e-02,
       -1.87024008e-02, 3.27682914e-03, -4.68194159e-03, -9.15011112e-03,
       8.71059671e-03, 8.63495376e-03, 6.54947059e-03, 1.33796390e-02,
       3.80189880e-03, 5.60333254e-04, 9.73067340e-03, 1.53103946e-02,
       -1.56019197e-03, -7.38643669e-03, -9.84806800e-04,
       -1.26612596e-02, -1.28501607e-02, -1.86577644e-02,
       -2.05485169e-02, -2.11836565e-02, -6.81250868e-03,
       -3.93229201e-02, -8.66776146e-03, 9.20132454e-03, 9.06176865e-03,
       -1.41388616e-02, -3.07459123e-02, -2.84627150e-03, 1.99542777e-03,
       1.17923105e-02, 1.38431443e-02, 8.64390936e-03, -8.43409635e-03,
       1.81840956e-02, -1.36717129e-02, -1.27853733e-02, -3.20746750e-03,
       -5.00192726e-03, 1.96769834e-02, 1.51569517e-02, 3.66823701e-03,
       -2.94417329e-03, -5.49129210e-03, -1.32767414e-03, 2.35285610e-04,
       2.77649867e-03, -8.09434522e-03, 5.41416928e-03, -9.97867715e-03,
       8.05852190e-03, 3.23513779e-03, -8.25839862e-03, 5.65487705e-03,
       -4.50329343e-03, 5.90506755e-03, -1.69023070e-02, 1.46711234e-03,
       2.71860454e-02, 2.70534568e-02, -4.42687282e-03, 3.00307721e-02,
       -5.45391056e-04, -1.66707151e-02, 8.97165108e-03, -4.33536014e-03,
       4.64159157e-03, 5.54395746e-03, -1.85812041e-02, 1.55144173e-03,
       3.21724801e-03, 6.78291731e-03, -1.77569520e-02, -1.00131636e-03,
       -1.64393969e-02, -6.27856050e-03, 1.64820310e-02, -6.99932035e-03,
       5.33859339e-03, -3.95951932e-03, 4.90758708e-03, -1.54574541e-02,
       2.99383495e-02, 7.29516687e-05, -3.09192273e-03, 9.96780023e-03,
       2.30158418e-02, 2.30829325e-03, -7.41941668e-03, 3.50287347e-03,
       -3.92373689e-02, -2.20664500e-04, -2.95113481e-04,
       -2.36352272e-02, 2.81690364e-03, 1.38928639e-02, 1.62027050e-02,
       5.24320360e-03, -8.67278595e-03, -7.48365372e-03, -2.28297673e-02,
       -4.19129012e-03, 4.22629248e-03, 1.77054275e-02, 2.44814958e-02,
       6.37899293e-03, -8.73256195e-03, -1.84941795e-02, -9.80248023e-03,
       2.84450914e-04, -1.55063886e-02, -9.97770764e-03, 1.01650385e-02,
       -2.62369285e-03, 5.15911076e-03, -1.28134340e-02, 8.70983116e-03,
       -1.52533259e-02, -5.11109037e-03, 6.72150031e-03, -1.54268341e-02,
       1.02343503e-03, 2.02424042e-02, -2.12326329e-02, -2.57374924e-02,
       1.44105534e-05, -9.88655537e-03, 6.08729199e-04, 1.51558956e-02,
       -7.80182751e-03, -1.43166101e-02, 1.08811120e-02, 1.71081368e-02,
       1.63347565e-03, -1.60766002e-02, -1.72841887e-04, 3.26530752e-03,
       -8.65564682e-03, -8.95008817e-03, 1.67530626e-02, 1.19974297e-02,
       8.36350769e-03, -8.14191811e-03, 1.29017816e-03, -3.41665978e-03,
       8.54557031e-04, -3.26508633e-03, 1.61814634e-02, 1.78827401e-02,
       1.61776170e-02, 1.39305601e-02, 2.78847781e-03, 1.45474542e-02,
       1.17575042e-02, 1.36398980e-02, -2.63742614e-03, -7.61233922e-03,
       -3.14527890e-03, 4.40084375e-03, -7.81905139e-04, -6.32463349e-03,
       1.82158332e-02, -1.01430919e-02, -9.46830772e-03, -2.36780476e-02,
       7.68840406e-03, -4.98903915e-03, -3.51997092e-03, 2.40941974e-03,
       -1.75614450e-02, -5.06110163e-03, 9.29071009e-03, 6.96669659e-03,
       7.41482188e-04, 2.31329575e-02, -2.14685476e-03, 1.64499995e-03,
       -8.87525268e-03, -2.13509016e-02, 8.42838734e-03, 2.36936640e-02,
       -1.98082137e-03, -1.93845117e-04, 7.97824468e-03, -3.05886567e-03,
       -4.88974387e-03, -8.38533416e-03, -2.62134690e-02,
       -1.24144973e-02, -7.58997817e-03, -4.83497395e-04,
       -1.29493745e-02, 3.10928077e-02, 2.49284087e-03, 1.15721943e-02,
       -8.24001338e-03, -3.34116444e-02, -1.80537775e-02, 5.51029108e-03,
       -4.56818799e-03, -2.22407188e-02, -7.06909643e-03,
       -1.45827455e-03, 1.35235805e-02, 3.48088324e-05, -2.52917339e-03,
       2.29559261e-02, 2.99485289e-02, 9.91532113e-04, -7.61441234e-03,
       3.47336265e-03, -1.17344838e-02, -9.37173050e-03, -1.84169561e-02,
       -2.87010353e-02, -1.95982610e-03, -1.94642376e-02,
       -1.10462550e-02, -1.59554638e-03, 2.45616771e-02, -1.16890529e-03,
       2.88138702e-03, 1.31095585e-03, -1.37897413e-02, 9.18499660e-03,
       -4.35045082e-03, -2.33173873e-02, -1.16333580e-02,
       -1.58489998e-02, -1.72055152e-03, 4.21124138e-03, -1.73928961e-02,
       -1.89205650e-02, 6.97619934e-03, -2.13566348e-02, -3.56899500e-02,
       1.75101869e-02, 8.39813426e-03, -4.96268785e-03, -1.59256868e-02,
       -1.42339952e-02, -1.86686944e-02, -7.05814315e-03, 6.50648493e-04,
       -6.78654527e-03, -2.99400697e-03, -4.12655575e-03, 1.51257962e-02,
       2.43114624e-02, -1.06565319e-02, 9.93456692e-03, 6.35339832e-03,
       4.76658024e-04, 2.31478736e-02, -2.05262098e-03, -3.54066258e-03,
       1.58074386e-02, 3.83158258e-05, -9.55939200e-03, 7.60982104e-04,
       -4.97368805e-04, 7.32438453e-03, -1.49603533e-02, 1.62896793e-02,
       6.33291667e-03, -3.58199504e-05, -8.35210085e-03, -5.94971050e-03,
       -7.74226757e-03, -1.22793706e-03, 1.93047207e-02, 1.36695169e-02,
       7.76051544e-03, -2.24958151e-03, -1.09489020e-02, 1.09344013e-02,
       -5.25235524e-03, 1.81390326e-02, 2.18926817e-02, -1.61329552e-03,
       -3.30448262e-02, -2.59659234e-02, -1.17449742e-02, 1.89841595e-02,
       -6.08445797e-03, -1.27610229e-02, 4.18308284e-03, 4.36011609e-03,
       -4.42157825e-03, -2.10345853e-02, -1.81881562e-02,
       -1.35059375e-02, 2.96308380e-02, -2.12575239e-03, -1.11906957e-02,
       -1.14112557e-03, 1.35694153e-03, 1.69133842e-02, -2.24045422e-02,
       -6.44009328e-03, -5.45058819e-03, -4.62994212e-03, 3.63153964e-03,
       -2.93406332e-03, 2.07441649e-03, 8.32640938e-03, -2.16312259e-02,
       -2.60859430e-02, -1.32618258e-02, 7.24704645e-04, 3.32267694e-02,
       1.02666691e-02, -2.31079180e-02, -1.12693543e-02, -2.49552395e-04,
       6.54467102e-03, -6.36953535e-03, -1.11315884e-02, -5.65982889e-03,
       9.68418457e-03, -1.38463173e-02, -2.72409935e-02, -2.65095886e-02,
       -1.31515451e-02, 1.57968998e-02, 1.52449720e-02, 6.49546506e-03,
       5.46270603e-05, -4.93233651e-03, -1.71989612e-02, -2.65943874e-02,
       6.81272335e-03, 1.25824986e-02, -6.89904159e-03, -1.29166516e-02,
       -2.75238175e-02, 6.89366891e-04, 5.02541894e-03, -9.01129376e-03,
       2.11212342e-03, -1.94367734e-04, -7.85627402e-03, -3.14024091e-03,
       -3.96114774e-03, -4.70484514e-03, 2.46989913e-03, 2.92021828e-03,
       -1.18374582e-02, -4.45929095e-02, -2.88276579e-02,
       -8.95174569e-04, 1.23391133e-02, -7.25787785e-03, 2.32328866e-02,
       -2.02498236e-03, -9.64065373e-04, -2.49549709e-02,
       -1.72812827e-02, -2.67112311e-02, 3.08865012e-04, -2.38561118e-03,
       -8.72990303e-03, -5.55451203e-04, 1.60010229e-03, -7.92249851e-03,
       -1.05926173e-03, -6.02627231e-04, 1.41831639e-03, 4.48021945e-03,
       -4.08559805e-03, -1.10397469e-02, 1.80163775e-02, -5.84955094e-03,
       1.84186548e-02, -1.02118207e-02, -2.10402571e-02, -2.26421375e-02,
       5.54774236e-03, -1.25909597e-02, 6.53081434e-03, 1.23987636e-02,
       1.12477830e-02, -4.73967940e-03, -1.21891461e-02, -1.17950942e-02,
       -1.19376322e-02, -7.85563514e-03, -2.87491959e-02,
       -1.32707758e-02, -5.85677102e-03, 8.39508791e-03, -3.51839606e-03,
       -1.93019938e-02, 1.69111192e-02, 2.12106314e-02, 5.97747508e-03,
       -3.15217562e-02, -1.16723925e-02, 5.02622279e-04, -4.07758402e-03,
       -2.72321608e-03, -1.71128288e-02, -2.46236101e-02,
       -8.48812237e-03, -1.02653848e-02, -2.21330542e-02, 8.77218507e-03,
       1.36800334e-02, 1.55129563e-02, -1.59377735e-02, -2.26961430e-02,
       2.49552866e-03, 1.43241661e-04, -1.27786528e-02, -3.09370030e-02,
       2.24273273e-04, 9.14483611e-03, -1.79746747e-02, -9.71228909e-03,
       -1.59051816e-03, 1.55084748e-02, -1.05378339e-02, -4.85960802e-04,
       1.44613534e-02, 1.10590588e-02, 1.35274641e-02, 4.39524651e-03,
       1.29523072e-02, 1.49885041e-03, 1.86189655e-02, 2.51435917e-02,
       3.92993716e-05, 2.81999018e-02, 3.77828069e-03, 2.13914700e-02,
       -3.44763556e-03, -6.81183068e-03, -1.27688712e-02,
       -8.80192127e-03, -1.58389192e-02, -2.45882152e-03, 1.91400538e-03,
       5.54703502e-03, -1.01197627e-03, -9.05380491e-03, -4.74281795e-03,
       -2.71263141e-02, 9.83137172e-03, 3.18581164e-02, 2.13420391e-02,
       2.45609917e-02, 1.04162050e-02, 2.43944824e-02, -8.61922558e-03,
       -4.44364781e-03, -7.01113325e-03, -1.98914111e-03,
       -5.29724825e-03, 1.51358563e-02, 3.02287154e-02, -1.38062537e-02,
       -1.96044669e-02, -1.25246821e-02, -3.42108752e-03,
       -6.54760422e-03, -8.95639230e-03, -2.61152610e-02,
       -5.95776970e-03, 2.00017355e-02, -1.27700474e-02, -2.48051006e-02,
       -8.70717037e-03, 1.46044111e-02, -8.66349787e-03, 6.39904803e-03,
       1.23252636e-02, -9.09921800e-05, 2.22750641e-02, -1.76757276e-02,
       -7.73449428e-03, -1.99393127e-02, 9.16927122e-04, 1.98584842e-03,
       3.68092209e-02, 2.12145085e-03, 9.19469912e-03, 1.45485178e-02,
       3.44970147e-03, -3.16008665e-02, -2.61255596e-02, 6.30973233e-03,
       9.86372773e-03, -1.17546292e-02, -9.75467078e-03, -6.40072208e-03,
       5.13851177e-03, -2.52094232e-02, -1.76871195e-02, 3.06971860e-03,
       1.47320237e-02, -2.03221664e-02, -3.37460800e-03, 1.06646121e-02,
       1.76146235e-02, -2.28909682e-02, -2.23567691e-02, -4.54686442e-03,
       9.25392285e-03, -2.87183037e-04, -2.72725746e-02, 9.01012495e-03,
       -1.10793496e-02, 2.88353255e-03, 1.34839015e-02, 6.61771698e-03,
       -3.32883149e-02, -1.46406498e-02, 2.18614214e-03, 3.16093280e-03,
       -1.25908460e-02, -6.53627329e-03, 5.98418899e-03, 1.08104863e-03,
       3.13771132e-04, 6.07069721e-03, 5.22374641e-03, 6.26458367e-03,
       -2.61238194e-03, -4.54455893e-03, 1.30420756e-02, 1.08479606e-02,
       -1.28789237e-02, -2.65268842e-03, -9.15123709e-03, 9.37739573e-03,
       -3.10947275e-04, 9.04957205e-03, -1.93903188e-03, -8.31664354e-03,
       -3.53814266e-03, -1.28848886e-03, -1.33715558e-03,
       -2.56025232e-02, -2.92757731e-02, 1.57630944e-03, 1.00277588e-02,
       3.37260845e-03, 1.09270560e-02, 3.58546095e-04, 2.89606885e-03,
       1.23839770e-02, -3.22643295e-03, 1.00583127e-02, 1.16092106e-02,
       2.15111747e-02, 9.84840281e-03, -2.06707837e-03, -1.74546093e-02,
       7.70960376e-03, 1.61556918e-02, 6.39914162e-03, -1.94709690e-04,
       6.11747243e-03, 2.58350782e-02, -4.58496530e-03, 2.44030613e-03,
       7.60005973e-03, 1.65941026e-02, -7.68843060e-03, -2.08447184e-02,
       -2.87401751e-02, 1.67264342e-02, 5.88155724e-03, -2.81700697e-02,
       -3.05631984e-05, 5.70384599e-03, -5.44266682e-03, 1.90075319e-02,
       3.46860802e-03, -8.69074464e-03, 1.01753771e-02, -2.52796020e-02,
       4.26986488e-03, -2.64232652e-03, -1.06766922e-02, 7.42925704e-03,
       2.11980995e-02, 1.09209428e-02, -1.03236374e-03, 1.44938743e-02,
       2.50141788e-02, -7.93342537e-04, 3.76501284e-03, 1.53564056e-02,
       -1.84267911e-03, 2.95490082e-02, 2.25812336e-03, -9.14764497e-03,
       -1.01529397e-02, 1.04745599e-02, -8.15914536e-04, 1.15173738e-02,
       1.86736565e-02, 1.49146235e-02, -1.44397728e-02, 1.16825709e-02,
       6.16574660e-03, 2.12378032e-03, -5.45032648e-03, 6.83014002e-03,
       3.34685738e-03, 8.14788882e-03, 1.44684291e-03, 1.01489918e-02,
       -2.54799728e-03, -2.97378190e-02, -2.75578015e-02,
       -1.95597280e-02, 2.08328199e-02, 9.91103472e-04, 1.44240698e-02,
       9.55489837e-03, -1.28498394e-02, 1.95413623e-02, 1.36363264e-02,
       -1.08458987e-02, 1.48037449e-02, 7.46921753e-04, -2.22378466e-02,
       7.11970124e-03, -2.74981670e-02, -4.85530618e-04, 9.38625447e-03,
       -3.54101299e-03, -7.33831059e-03, -1.11934508e-03, 1.21693704e-02,
       2.66264416e-02, 1.15386257e-02, 7.57857645e-03, -1.73683688e-02,
       6.41793665e-03, -7.92569108e-03, 1.57069173e-02, -6.00268249e-04,
       -5.88527927e-03, -8.14057057e-05, 4.65933233e-03, -1.77179333e-02,
       -9.16395709e-03, 6.95775915e-03, -1.26953833e-02, 2.38658441e-03,
       -6.95820572e-03, 4.11116472e-03, 1.88466057e-03, 3.01790098e-03,
       -5.05790068e-03, -6.86138496e-03, 2.57295053e-02, 1.90258194e-02,
       3.71479839e-02, 3.29021737e-03, 3.50650679e-03, -6.33773743e-04,
       -8.80257878e-03, 2.86887190e-03, 7.19150389e-03, 9.75049380e-03,
       2.39925180e-03, 1.26640545e-02, -1.22105088e-02, -1.83030069e-02,
       -8.92081516e-05, 2.63637560e-03, -2.32615252e-03, -5.24161616e-03,
       1.93032506e-03, 3.65512306e-03, 8.76328163e-03, -2.18508448e-02,
       -9.85514745e-03, 5.30315563e-03, 1.03703206e-02, 1.33196153e-02,
       1.07265338e-02, -1.02544362e-02, -3.60374292e-03, 7.37491855e-03,
       -2.70545762e-02, 3.98038188e-03, 3.10855731e-03, 1.14662107e-02,
       2.37021428e-02, 9.28079616e-03, -5.75687597e-03, 4.76464024e-03,
       7.53056910e-03, -9.35144816e-03, 2.27316027e-03, 4.55328962e-03,
       1.29472008e-02, 3.58308554e-02, -5.58352424e-03, -1.61321629e-02,
       1.06643059e-03, 1.39953727e-02, -4.20177262e-03, -7.01152068e-03,
       1.13588478e-02, -9.82457865e-03, -1.85382075e-03, 4.01664292e-03,
       -3.73314694e-03, -1.10023925e-02, 6.65938808e-03, -6.23275817e-04,
       4.51181224e-03, 3.27109196e-03, 2.11456930e-03, 5.62611269e-04,
       -7.53706321e-03, 9.75094736e-03, -1.30612263e-03, 1.41158570e-02,
       1.19843397e-04, 5.80852525e-03, 1.68488976e-02, -2.19896566e-02,
       -1.04596959e-02, 1.82563602e-03, 7.86621938e-04, 4.92896698e-03,
       1.58285294e-02, -2.07861117e-03, 8.67894292e-03, 1.44916307e-02,
       1.97273586e-03, -3.68534634e-03, 5.56349801e-03, 5.48660289e-03,
       4.66965791e-03, 8.77654087e-03, 4.61533293e-03, -5.82530675e-03,
       1.99913266e-04, -9.39329900e-03, 9.06244572e-03, -9.98526532e-03,
       3.53255011e-02, 4.03331534e-04, 1.48528740e-02, -4.79878811e-03,
       -1.70446467e-03, -1.91678926e-02, -2.41226284e-03, 3.03835124e-02,
       1.62952952e-02, 2.18629949e-02, -6.86800666e-03, -1.25484560e-02,
       -1.14581566e-02, -4.70081717e-03, -6.73106348e-04, 6.80062221e-03,
       1.95307434e-02, -4.25273599e-03, 1.14589175e-02, -1.50943343e-02,
       6.82278397e-03, 1.08634084e-02, -1.51968580e-02, -1.22875990e-02,
       1.32545754e-02, 3.59468572e-02, -1.20651734e-03, 2.33848114e-02,
       -1.02227321e-02, -6.46675751e-03, -5.07494342e-03, 9.80728213e-03,
       -1.15393652e-02, 1.49836065e-02, 1.19221746e-03, -2.57797330e-03,
       2.66606994e-02, -4.01717890e-03, 1.02392351e-02, 2.63042096e-02,
       1.52218796e-03, -8.88118055e-03, 4.71515208e-03, -5.17457665e-04,
       -1.04246689e-02, 6.42694673e-03, -4.52481583e-03, 1.97061747e-02,
       -9.85914748e-03, -1.44993616e-02, -2.66513489e-02, 1.31559540e-02,
       1.30196763e-02, -9.51010641e-03, 2.22221781e-02, 1.41651183e-02,
       9.51166078e-03, 1.10175107e-02, 6.27146289e-03, -1.88242849e-02,
       3.34987626e-03, -1.60691533e-02, -1.11455191e-02, 6.93184463e-03,
       1.01953084e-02, 1.01102907e-02, 1.77661050e-02, 2.90719829e-02,
       1.96908098e-02, 2.87766475e-02, 2.19907500e-02, 1.51853897e-02,
       1.77337024e-02, 5.66694327e-03, 1.85819138e-02, 1.16665615e-02,
       2.04690751e-02, -2.77525932e-03, 6.38131332e-03, 1.97755601e-02,
       9.35060624e-03, -3.17424024e-03, -7.09109590e-04, -8.67999904e-03,
       9.88885574e-03, 1.93366297e-02, 2.04440635e-02, 2.05187947e-02,
       7.70030369e-04, 8.63777660e-03, -1.26549648e-02, -1.10939816e-02,
       4.40761959e-03, 1.12762395e-02, -3.94301787e-02, -3.52236517e-02,
       -1.09142037e-02, -1.12995515e-02, 6.47782348e-03, 1.36328663e-03,
       -2.35493556e-02, -3.15680504e-02, -2.15246547e-02, 6.96719531e-03,
       -8.15563463e-03, 1.80306919e-02, 1.94584765e-02, 1.55119402e-02,
       1.16005344e-02, 5.73702913e-04, 1.24088535e-02, 1.18989777e-02,
       -3.99889145e-03, 3.40391634e-05, 2.80018523e-02, 2.76946072e-02,
       1.54700745e-02, 5.92532754e-03, 1.97776295e-02, 4.84608896e-02,
       1.92230288e-02, -2.40396019e-02, -5.22796959e-02, -5.93735650e-03,
       4.65230225e-03, 2.50125118e-02, 5.92316443e-04, -5.70898456e-03,
       -5.61259966e-03, -3.10890805e-02, -8.27095658e-03,
       -1.20111257e-02, 2.43627210e-03, -1.53351026e-02, -1.49191997e-03,
       -3.19560468e-02, -2.87180226e-02, -1.66350324e-02, 1.36318477e-03,
       -1.84866916e-02, -2.23040325e-03, 1.63839627e-02, 1.64942665e-03,
       1.26703503e-02, 5.63573418e-03, 3.83949489e-03, 2.29502413e-02,
       4.43432992e-03, -2.21498385e-02, 7.85922632e-03, -3.81547795e-03,
       -1.53409299e-02, 3.76522937e-03, 1.00131752e-02, 9.96180438e-03,
       1.54237375e-02, 5.22577390e-03, -2.51362054e-03, 6.01048907e-03,
       3.18788700e-02, -7.34584173e-03, -7.62789743e-03, -2.22468879e-02,
       -3.32855135e-02, -1.46941030e-02, 3.64694715e-04, 1.83065585e-03,
       1.04812188e-02, -3.32638086e-03, -1.87411217e-03, -1.06688337e-02,
       -2.13900246e-02, -3.01544070e-02, 4.33752639e-03, -2.72241514e-03,
       -5.96541399e-03, -1.25298267e-02, -4.30143531e-03,
       -9.56062041e-03, -2.02253228e-03, 6.51710026e-04, 4.48337384e-03,
       4.06530313e-03, 2.89866589e-02, -9.42259375e-03, -3.85495718e-03,
       1.07486648e-02, 2.73187296e-03, -8.64694174e-03, 1.63417757e-02,
       1.65855009e-02, -4.98644775e-03, 2.38893013e-02, 1.91407204e-02,
       1.90700274e-02, 3.59667558e-03, -1.80831868e-02, -1.57942548e-02,
       -2.72659417e-02, 7.05259992e-03, 2.33198721e-02, 2.59709787e-02,
       8.21882766e-03, 1.83833961e-03, 1.72252655e-02, -2.14899331e-02,
       -1.56153524e-02, -8.81292764e-03, 1.86566692e-02, -6.00935612e-03,
       2.10578572e-02, 1.12552438e-02, 1.23535087e-02, 7.18595320e-03,
       5.62058436e-03, 1.07988957e-02, 1.93871781e-02, -7.24507915e-03,
       1.58664980e-03, -2.68615456e-03, 2.23402400e-02, 1.82599537e-02,
       6.75556716e-03, -2.51485035e-02, 3.83643224e-03, -5.89381717e-03,
       7.59502454e-03, 9.73229855e-03, 5.99426962e-03, 1.90124742e-03,
       9.95008461e-03, 6.78929687e-03, 1.04387943e-02, 9.67978127e-03,
       2.61890478e-02, -4.43724869e-03, -5.62903378e-03, 7.63344858e-03,
       2.03939597e-03, -1.48933334e-03, -1.55040603e-02, -2.00612955e-02,
       -4.44890559e-03, -4.47895564e-03, -1.30671021e-02,
       -1.16288484e-05, -3.85619374e-03, -1.19394446e-02,
       -8.72533396e-03, -1.17618835e-03, -6.46439148e-03, 1.85115002e-02,
       -4.11875639e-03, 1.58956666e-02, 6.83530187e-03, 1.21437595e-03,
       -3.00655086e-02, -2.88469736e-02, -2.29405575e-02, 1.24929454e-02,
       1.95399784e-02, 4.06276900e-03, 1.31664390e-03, 2.06410550e-02,
       1.41148046e-02, -1.16666667e-02, 3.93991778e-03, -1.01398013e-03,
       -1.28067378e-02, 6.33924315e-03, -3.99317779e-03, -1.05649531e-02,
       -1.31520731e-02, 6.88193773e-04, 3.44375218e-03, -1.38694812e-02,
       -1.12539576e-02, -1.63551718e-02, 5.96493902e-03, 3.15541332e-03,
       -4.74940101e-03, -2.78308842e-04, 2.87663448e-03, -2.45055370e-02,
       -2.61680279e-02, 7.46665406e-04, 1.03190187e-02, 1.20757595e-02,
       1.14477705e-02, -2.64390334e-02, 2.04561418e-03, -7.86269666e-04,
       -1.72784105e-02, -2.30308063e-02, -8.27486534e-03,
       -5.82948187e-03, -1.93275996e-02, 2.78229769e-02, 1.94718447e-02,
       -2.55669322e-04, -9.00910422e-03, 2.13241111e-02, -2.49661095e-02,
       -6.10300340e-03, -4.48307768e-03, 1.00188022e-02, 6.82046823e-03,
       -1.03358021e-02, 1.85920522e-02, 2.09078994e-02, 5.28376270e-03,
       -3.01700056e-04, -1.81080401e-02, -8.56279116e-03,
       -2.88524851e-02, 4.52994928e-03, 1.18828211e-02, 1.91362910e-02,
       1.15324967e-02, 7.59441464e-05, 4.92862333e-03, 5.07580535e-03,
       7.78754242e-03, -2.16814559e-02, 1.04282945e-02, 1.91417504e-02,
       -1.10146925e-02, -4.56063356e-03, -8.87106545e-03, 2.97937752e-03,
       3.54865356e-03, 2.29406655e-02, 2.82899453e-03, 3.48960981e-03,
       -6.55846577e-03, -1.75174903e-02, 1.13071185e-02, 1.85139794e-02,
       8.01425613e-03, -8.87843780e-03, -1.44914426e-02, -4.92478199e-02,
       -1.34431748e-02, 2.32414939e-02, 1.34901851e-02, 1.02009261e-02,
       1.94113143e-02, -1.56298894e-02, -6.01543160e-03, -3.25412266e-02,
       -3.61125246e-02, -2.96431091e-02, 1.77822146e-03, 7.23901950e-03,
       1.45169860e-02, -1.08269937e-02, 5.67270350e-03, -2.91409227e-03,
       2.12227385e-02, -2.24553701e-02, 6.04797946e-03, -1.68854110e-02,
       -2.26877816e-02, -1.72381196e-02, 2.30987612e-02, 3.75936786e-03,
       -3.48983007e-03, -1.47860609e-02, -8.37699044e-03, 1.28948167e-02,
       -1.19017921e-02, 1.46896336e-02, -5.25083218e-04, 1.62567683e-02,
       -1.45626822e-02, 3.01553548e-04, -8.33571516e-03, -8.83099716e-03,
       -7.80436955e-03, -1.51547352e-02, -2.76999045e-02,
       -1.87763628e-02, 6.08982053e-03, -3.17437621e-03, 8.29025870e-04,
       -2.60361750e-03, 1.22990357e-02, -3.15613463e-03, -1.49394358e-02,
       -8.06763209e-03, -1.15601867e-02, 3.92095000e-03, 8.57803691e-03,
       -4.40072874e-03, -1.40370447e-02, -1.56317409e-02,
       -1.88588947e-02, -1.25200013e-02, 5.82867581e-03, 3.69675388e-03,
       9.65288468e-03, 3.64184263e-03, -3.88657744e-03, -1.22851413e-02,
       -9.73663572e-03, -7.43283983e-03, -4.96527320e-03, 1.29014291e-02,
       -4.85419109e-03, 1.14639755e-02, -9.80998948e-03, -1.67961251e-02,
       -1.16521446e-02, -1.00589646e-02, -1.74445212e-02,
       -3.20501928e-03, 1.00624226e-02, 5.02885552e-03, -1.76440682e-02,
       -2.23183706e-02, 6.94944104e-03, -4.78489557e-03, -1.48435100e-03,
       -8.57719313e-03, 4.31100791e-03, 1.41435359e-02, -1.47545328e-02,
       1.36169754e-02, 1.24541800e-02, 5.61022386e-03, -1.08934520e-02,
       -1.74872167e-02, -8.06743838e-03, -7.72941392e-03, 9.08819400e-03,
       -1.02034397e-02, 5.94081241e-04, -3.18709575e-03, 2.35015750e-02,
       -1.42408721e-02, -1.89371891e-02, 7.19080539e-03, -8.22903216e-03,
       -1.73576660e-02, -1.31509639e-02, -2.31846943e-02,
       -6.32445561e-03, 2.12428495e-02, 4.11280023e-04, -1.65732093e-02,
       8.22866522e-03, 1.98309440e-02, 2.18863916e-02, -1.77782588e-02,
       -9.81738605e-03, -3.63667519e-03, 2.78377291e-02, -4.87334840e-03,
       -1.58054847e-02, 2.97948765e-03, 3.37209180e-02, 8.73336475e-03,
       4.51491727e-03, -1.32659627e-02, -1.72334746e-03, 8.01902171e-03,
       -2.47755144e-02, -1.37888957e-02, 4.79360949e-03, -8.40958394e-03,
       -1.85324643e-02, -2.20630392e-02, -2.56702825e-02,
       -3.35930940e-03, -1.33441864e-02, -2.73622293e-02,
       -1.17972549e-02, -2.27829032e-02, -3.26288529e-02,
       -1.03215547e-02, -3.57618295e-02, 2.33159657e-03, 3.51437740e-03,
       2.10015522e-03, -2.87960004e-02, -1.11372648e-02, -5.16731292e-03,
       1.49719976e-02, -1.30897798e-02, 1.68938171e-02, -2.62623131e-02,
       -7.49501307e-03, -1.23693384e-02, -3.63746919e-02,
       -8.20588414e-03, -4.33923714e-02, -7.23669957e-03,
       -2.46894322e-02, -1.16356695e-02, 8.76996294e-03, -8.09486397e-03,
       -2.65812427e-02, -7.65237678e-03, -1.81465372e-02,
       -1.74536963e-03, -1.54759409e-02, -6.70833187e-03,
       -8.19985103e-03, 3.99712240e-03, 1.05693182e-02, -5.39341150e-03,
       1.14882346e-02, 3.40679917e-03, 5.61567955e-03, -4.06783400e-03,
       5.96675137e-03, 6.21814793e-03, 5.74609218e-03, 1.16538107e-02,
       8.94772634e-03, -5.39943948e-03, -1.62551180e-02, -1.19203134e-02,
       -2.42371149e-02, -6.05832040e-03, 4.82517714e-03, -5.98628167e-03,
       2.70655006e-02, 2.40700878e-03, 4.85884631e-03, 3.44649120e-03,
       1.57746917e-03, 1.34534771e-02, 2.04185043e-02, 1.05837518e-02,
       1.51741580e-04, 1.24446698e-03, -2.31357738e-02, -1.16136195e-02,
       -2.47572139e-02, 6.38661860e-03, -9.26818326e-03, 1.05984034e-02,
       8.28977115e-03, 5.17442077e-03, 8.41462798e-03, 3.14026652e-03,
       1.26233241e-02, -7.14379176e-03, -1.13068642e-02, -7.36143161e-03,
       1.30846351e-02, -2.59313150e-03, -1.55498777e-02, 1.76734421e-02,
       -1.37977442e-02, -1.95808206e-02, -2.63219103e-02,
       -7.20066251e-04, 5.33711631e-03, -6.41699368e-03, -1.28545109e-02,
       -1.97436623e-02, 3.08137573e-02, 8.13529268e-03, 3.79621983e-03,
       1.15711438e-02, 2.05091164e-02, 1.98449381e-02, -7.99317146e-04,
       -1.81362182e-02, -8.80575390e-05, -3.91812006e-04, 2.41528777e-03,
       1.76368747e-02, 2.35090107e-02, -1.19454861e-02, -1.83244422e-02,
       -5.13220439e-03, -1.60898343e-02, -7.91211892e-03,
       -1.45078013e-02, -2.69768498e-04, 1.53716551e-02, 5.00705140e-03,
       1.05990982e-02, -5.11278398e-03, -1.28981529e-03, -1.22909406e-02,
       -2.08887458e-02, 1.47533240e-02, 1.61148506e-04, -1.68387999e-03,
       2.63911020e-03, 2.14776024e-03, 3.38027556e-03, -3.24077276e-03,
       -1.53414579e-02, 1.08701671e-02, 4.19044495e-03, 1.78402255e-03,
       1.73794124e-02, -4.01940849e-03, 1.04329605e-02, 1.33183077e-02,
       3.64470016e-03, 5.25035150e-03, 2.03741854e-03, 1.26731005e-02,
       -1.31611703e-02, 1.57945359e-03, -1.74536882e-03, -3.00353067e-03,
       -1.49456980e-02, 2.71693873e-03, -5.24038123e-03, 1.01145189e-02,
       6.64067315e-03, -1.74404848e-02, 1.38959410e-02, 7.86978379e-03,
       1.78592000e-02, -1.82546042e-02, -3.36728687e-03, -1.09493202e-02,
       1.93251651e-02, 6.93072937e-03, 6.17226632e-03, 3.48598068e-03,
       -4.90702782e-03, -1.84866358e-02, -8.55362043e-03,
       -1.02795642e-02, 2.46542902e-03, 2.91022398e-02, -3.08685936e-03,
       -3.85437137e-03, 6.23740349e-03, 6.40259183e-04, 5.92670264e-03,
       -2.72187311e-02, -3.05646844e-02, 9.83831100e-03, 1.41541883e-02,
       -8.48959014e-03, -1.11026205e-02, 1.59909520e-02, 9.69402213e-03,
       2.09129304e-02, 1.10173747e-02, 1.75887831e-02, 4.88447957e-03,
       2.09949892e-02, -1.77941062e-02, 1.71185867e-03, -1.45627586e-02,
       -7.40322005e-03, -2.65634060e-03, -1.38800396e-02,
       -7.82460812e-03, 6.57729013e-03, 2.84139030e-02, -1.07186185e-02,
       -4.11688641e-04, 1.78563483e-02, 1.09074223e-04, 5.50515251e-03,
       -6.67236419e-03, -4.12781630e-03, 6.30741473e-03, 1.20830992e-02,
       -3.05407513e-02, -1.55421412e-02, -1.07012596e-02,
       -4.67675552e-03, 8.98328796e-03, -7.81915244e-03, 4.12738556e-03,
       -6.28133444e-03, 1.61036011e-02, -4.72660642e-03, 1.81613527e-02,
       8.13900027e-03, -6.50226371e-03, 1.12146763e-02, 7.93312094e-04,
       -7.47772586e-03, 1.09124184e-03, -1.55700808e-02, -1.79394986e-02,
       3.95290507e-03, -2.17951406e-02, -6.16038265e-03, -1.26779908e-02,
       -1.23502836e-02, -7.11080735e-04, -1.32475523e-02, 5.40609146e-03,
       -6.18283916e-03, -5.80146257e-03, 2.52659284e-02, 1.18653700e-02,
       2.04586573e-02, -8.87116883e-03, 4.74656280e-03, -7.53010530e-03,
       1.37118455e-02, 8.34603270e-04, 1.22782793e-02, 5.05932979e-03,
       2.27743164e-02, 6.41844608e-03, -2.55724750e-02, -1.33794574e-02,
       -9.27912351e-03, -5.21206239e-04, -4.52083908e-03,
       -1.41162786e-03, -1.00550232e-02, -1.92481708e-02, 6.28514821e-03,
       1.28803365e-02, 1.77240632e-02, -3.14310519e-03, 3.52337700e-03,
       -1.11008305e-02, -7.19257910e-03, -1.53661147e-03, 1.77823883e-02,
       -7.52314972e-03, -1.53419217e-02, -1.04527520e-02,
       -9.57242586e-03, 3.02464310e-02, 1.59431365e-03, 8.59790109e-03,
       -1.16762221e-02, -1.63460150e-02, 2.45871600e-02, 1.15963593e-02,
       2.66791321e-03, 4.62471135e-03, -1.03796432e-02, -3.04127671e-02,
       -1.78266801e-02, -9.78548732e-03, -1.95448729e-03, 2.38611624e-02,
       -9.41237013e-05, 5.69234090e-03, -1.36071276e-02, 1.84929892e-02,
       5.78884501e-03, 1.62056983e-02, 1.88276283e-02, 1.21580325e-02,
       -5.64269489e-03, -1.47291329e-02, -3.59883881e-03,
       -3.99784883e-03, 5.74003579e-03, -1.81534085e-02, -1.69700813e-02,
       4.26622899e-03, -2.76308437e-03, -2.05551479e-02, -6.41256152e-03,
       6.71819132e-03, -3.83354351e-03, 1.17325513e-02, -1.50900027e-02,
       1.20059429e-02, 7.05382647e-03, -9.13774967e-03, 1.18539429e-04,
       3.27977771e-03, 3.38204317e-02, 1.34194680e-02, 4.32824623e-03,
       -3.12002581e-02, -2.71850228e-02, -1.65611058e-02,
       -9.67948232e-03, -6.55849976e-03, 1.01362227e-03, 1.51640214e-02,
       1.01211732e-02, -2.32874090e-03, 1.09208794e-02, -3.59581299e-02,
       -7.87442457e-03, -2.83638656e-04, -3.60692595e-03, 1.31798284e-02,
       1.78876203e-02, 5.75280655e-03, 7.69704161e-03, 1.61056053e-02,
       -1.48254830e-05, 2.32095527e-03, -4.15101461e-03, -1.90749317e-02,
       -4.72553773e-04, 6.42747758e-03, 2.20511220e-02, -3.44210770e-03,
       8.72121472e-03, -9.13580600e-03, 1.78053118e-02, 2.94782668e-02,
       1.70227308e-02, -1.68520119e-03, -4.16369876e-03, -8.81329179e-03,
       1.04099344e-02, 1.80400908e-02, 4.60874569e-03, 1.52436225e-02,
       4.47724387e-03, 2.15475957e-04, -2.39050910e-02, -1.80858597e-02,
       1.45251825e-02, 1.11316703e-02, 1.20155802e-02, -9.72632843e-04,
       7.04831164e-03, -1.42960604e-02, 1.12746349e-02, -1.54830317e-03,
       2.90526245e-02, 3.45904678e-02, -1.08887600e-02, -1.20687736e-02,
       -8.40321835e-03, 1.36403292e-02, -3.81443440e-03, 1.74988247e-02,
       2.41809804e-03, 2.06797216e-02, 7.32143177e-03, -2.56172055e-03,
       3.55163962e-03, 4.74348851e-03, 1.08225113e-02, -1.42181646e-02,
       1.40716434e-02, -7.58890808e-03, 1.31081734e-02, 6.38588192e-03,
       -9.11438931e-03, -1.04132993e-02, -2.42656823e-02,
       -5.00249909e-03, -6.85368839e-04, 3.20204832e-02, -5.36852051e-03,
       8.89765192e-03, -1.55562181e-02, -8.67855642e-03, -1.60489958e-02,
       4.85076616e-03, 1.33279515e-02, 9.65252332e-03, 3.27375233e-02,
       6.60912413e-03, 2.02379860e-02, 4.98885708e-03, -1.52850514e-02,
       -1.24093588e-03, 1.98302958e-02, 3.51606705e-03, 1.04136835e-03,
       1.13287773e-02, 4.26487182e-04, 6.29652664e-03, -1.71251455e-03,
       -3.18797235e-03, 1.71852428e-02, 4.49452316e-03, 7.06969481e-03,
       -6.12745620e-03, 8.84439051e-03, -8.01916141e-03, -1.62851287e-03,
       -1.24170166e-02, -1.05896248e-02, 1.54839773e-02, 1.60408523e-02,
       4.09519160e-03, -1.20657291e-02, -2.16051061e-02, -2.08546724e-02,
       -1.62174106e-02, -1.95176713e-03, 3.07434821e-04, 2.34902147e-02,
       1.28490143e-02, 1.19252848e-02, 1.66455321e-02, 4.37839283e-03,
       7.08610169e-04, 9.56324767e-03, 2.14365544e-03, -2.44436283e-02,
       -2.11579055e-02, -1.41226584e-02, -1.19411517e-02,
       -1.80733558e-02, 1.64719783e-02, -2.23743897e-02, -1.38917919e-02,
       -2.52637547e-03, -9.98984673e-04, 2.15337761e-02, 2.75000161e-03,
       -1.32050226e-02, 1.45088686e-02, 1.36057436e-02, -1.03694713e-03,
       -2.15407665e-04, 2.11932347e-03, 1.01888850e-02, 1.40387062e-02,
       3.42579233e-03, -3.22466344e-02, -1.27539281e-02, -9.85395443e-03,
       -2.86065098e-02, -1.40579650e-02, -9.73341335e-03,
       -3.36625986e-02, -2.59082709e-02, 3.87580390e-03, 9.80678201e-03,
       2.26512626e-02, 2.75665764e-02, 4.40214528e-03, 1.29868751e-02,
       -1.95471104e-02, -1.99892148e-02, -2.07048524e-02,
       -1.76125742e-03, 3.28881899e-03, -4.88625420e-03, -5.31875668e-03,
       -1.45789897e-02, 2.27038353e-03, -1.18482206e-02, -9.09085479e-03,
       6.98833668e-04, 1.18429167e-02, 1.01620331e-02, 6.30532438e-03,
       -1.13522206e-02, -1.95343588e-02, -5.17424662e-03,
       -1.84988584e-02, -1.64734777e-02, -2.13591419e-02,
       -2.26560291e-02, -5.25747007e-03, -1.21105127e-02,
       -3.34149832e-03, -1.63405330e-03, -2.92386790e-03,
       -1.70055998e-03, 5.86621743e-03, 3.72628774e-03, 2.27095895e-02,
       2.23152973e-02, -1.53479148e-02, -6.45976607e-03, -3.46398391e-02,
       -2.71595013e-03, -1.54984707e-03, -7.73367099e-03, 5.53906197e-03,
       1.99060043e-04, 2.32598037e-02, 3.44948232e-04, -1.29013667e-02,
       -2.37528365e-02, 6.45441469e-03, -2.53374455e-03, -4.44443291e-03,
       -1.66437346e-02, -1.22917723e-02, 2.17317902e-02, 6.73997635e-03,
       2.08924501e-03, -5.04466519e-03, -2.75134714e-03, -3.94136272e-03,
       -6.30355114e-03, -1.53055433e-02, -3.19612212e-02, 1.76714845e-02,
       4.24063113e-03, -1.01706153e-02, -1.73957329e-02, 5.90115227e-03,
       -5.20329876e-03, -3.58272623e-03, 1.40748620e-02, 1.18879799e-03,
       -5.40616270e-03, -1.24304928e-02, -5.69855515e-03,
       -3.93782463e-03, 1.91645455e-02, 1.44286733e-03, -4.98196017e-03,
       -6.18363544e-03, -5.11290645e-03, -1.14476316e-04, 3.25358845e-03,
       9.69078019e-03, 1.79553889e-02, 4.36551590e-03, -9.40620247e-03,
       -2.13031061e-02, -1.23287970e-02, -2.09011678e-02,
       -9.44380357e-04, 1.46349175e-02, -1.71349116e-03, -1.85110271e-02,
       2.01307740e-02, 7.75700388e-03, -1.37404921e-02, -2.63741668e-02,
       -2.26146765e-02, 4.60041175e-03, 1.41584501e-02, -3.08308518e-03,
       1.22547532e-02, 1.74832102e-02, 2.67957192e-04, -7.42645049e-03,
       -3.10159143e-04, -5.07577555e-03, 1.93727983e-03, 1.25954114e-02,
       1.60448551e-02, 6.06154930e-03, 1.40330102e-03, -8.88371468e-03,
       1.98427457e-02, 5.58968959e-03, -1.51805151e-02, -1.38865802e-02,
       1.05981687e-02, 7.62734422e-03, -2.45092990e-04, -1.26429480e-02,
       1.29340609e-04, 4.42238105e-03, -1.41154723e-02, -1.04918033e-02,
       -2.29978506e-02, -6.20625168e-03, -1.73700682e-03, 1.68581996e-02,
       2.19823290e-02, 2.05819849e-02, -9.07714479e-03, -1.49688721e-02,
       -9.43521224e-03, -1.17279682e-02, -5.72114950e-03,
       -1.65884439e-02, -4.33666026e-03, -4.38746670e-03, 1.82310995e-02,
       5.64879877e-03, 1.68943331e-02, 2.42734537e-03, -2.16431413e-02,
       1.02603408e-02, 9.91585199e-03, -1.46779325e-02, -2.33368599e-03,
       1.03947138e-02, -4.50054649e-03, -1.96984615e-02, -8.73091072e-03,
       -1.54891284e-03, -3.83753423e-03, 4.46425611e-03, 7.45603396e-03,
       2.84086075e-02, 3.33177741e-03, 1.88152469e-03, 3.03346722e-04,
       -2.59538228e-03, -7.37004972e-04, 1.88063476e-02, -1.77337173e-02,
       -1.28000965e-02, 2.41314480e-03, 3.49120721e-02, 3.53763276e-03,
       -1.67233273e-02, 2.26794090e-03, -2.09755991e-02, -8.51099100e-03,
       -2.88772368e-04, 1.62947774e-02, 3.50459069e-02, 5.27955517e-02,
       8.32233950e-03, -1.40737807e-02, 2.00756569e-03, 2.12020446e-02,
       2.19401550e-02, -1.20163104e-02, -5.53304562e-03, 1.19917979e-02,
       5.23406174e-03, -2.44449712e-02, 1.72073077e-02, -6.74067298e-03,
       2.37145927e-02, 8.06553382e-03, -2.00975556e-02, 1.98390242e-03,
       1.82719212e-02, 9.42188315e-03, -9.14067402e-03, -1.26228174e-02,
       2.38318043e-03, 1.87245174e-03, 8.24164134e-03, -1.58248413e-02,
       2.33964901e-02, 3.13889533e-02, 2.29388848e-02, -2.61240639e-02,
       -3.02225794e-03, -3.68141162e-04, -2.72260956e-03, 1.37226367e-02,
       -3.41622205e-03, 4.35071718e-03, 3.30118015e-02, 1.02794860e-02,
       -5.77572826e-03, 2.75302138e-02, 6.89217914e-03, 9.28220805e-03,
       -7.45129678e-03, -8.78656469e-03, 2.68821907e-03, 1.58994477e-02,
       1.22769894e-02, 1.10951206e-02, -1.79246888e-02, -1.53825211e-03,
       -5.82571374e-03, 2.91746785e-03, -1.32859042e-02, 1.51220774e-02,
       2.26595495e-02, 1.90218780e-02, -1.63398944e-02, 1.99858975e-02,
       1.18684368e-02, 1.54600739e-02, 4.06603748e-03, -7.86543183e-04,
       -1.55847089e-03, 5.07024629e-03, -4.29995265e-03, 1.05385145e-03,
       -1.26028378e-02, -7.64997036e-04, 9.53374337e-03, 6.70306897e-03,
       -2.28846539e-02, -2.88384757e-03, -9.17790178e-03,
       -8.21035076e-03, 8.67452472e-03, -2.58433670e-02, 1.20946125e-03,
       4.90651699e-03, -3.71047831e-03, -6.78567775e-03, 9.07698553e-03,
       5.95851149e-03, 5.92747191e-03, 9.03091207e-03, -9.12370719e-03,
       3.95069458e-03, 2.30868184e-03, 1.26320748e-02, 5.91820618e-03,
       8.92314501e-03, 1.00315211e-03, 6.23881165e-03, -2.99684727e-03,
       -1.01852929e-02, 6.94181398e-03, 6.62473543e-03, -2.06023734e-02,
       -1.41305551e-02, 8.87947436e-03, 2.28917357e-02, 1.28281517e-02,
       -7.54424045e-03, 2.45663058e-03, 4.58978117e-03, -1.15265194e-02,
       1.65042542e-02, -1.01619475e-02, 6.21471647e-03, 9.03980248e-03,
       7.32756592e-03, 3.99957970e-03, -1.62848290e-02, -1.31506408e-02,
       -1.16396323e-02, -2.71911398e-02, 6.22374890e-03, 5.74572524e-03,
       7.53531698e-03, 5.61497174e-03, -1.75522218e-05, -1.24383634e-02,
       2.14225370e-02, 2.50159390e-02, 1.77092117e-03, 2.22308896e-02,
       2.92507466e-03, 2.62597110e-02, -9.35731572e-04, -7.94633850e-03,
       2.24009436e-03, -6.18443592e-03, -2.82383766e-02, -1.57080237e-02,
       -1.98173523e-02, 9.07065161e-03, -9.73555725e-03, 3.43478215e-03,
       1.49953486e-02, 2.95027182e-03, 2.65027992e-02, 2.60534626e-03,
       -1.87258106e-02, -8.50185938e-03, -1.87361967e-02, 8.50367174e-03,
       5.22440951e-03, -1.75978057e-02, 6.59339270e-03, 2.54958309e-02,
       1.78445764e-02, -1.43803032e-02, 1.42247044e-03, -1.44210113e-02,
       1.19286859e-02, -1.43316658e-02, -1.12203928e-03, -3.66966386e-04,
       2.16727443e-02, 1.93019584e-02, -1.63689274e-02, 6.51546009e-03,
       2.60906871e-02, -9.25362110e-03, 1.65813297e-04, 6.23281579e-03,
       3.73075274e-03, 1.71344019e-02, -4.39884327e-03, -3.65015827e-02,
       -6.22390397e-03, -1.47498129e-02, 1.09449197e-02, 3.43618286e-03,
       -1.53836161e-02, 5.15189767e-03, 7.49847153e-03, -5.57412277e-04,
       -4.97272471e-03, 1.52129130e-02, 1.95784718e-02, -6.59878412e-03,
       -2.16331985e-02, 6.24275301e-03, 6.94445474e-03, 7.57757714e-03,
       -5.63521544e-03, -1.63659025e-02, -7.27351522e-03, 1.82250533e-02,
       -1.62858926e-02, -3.94673366e-03, -2.17414252e-03,
       -1.02317836e-02, -1.20164426e-02, -9.79774538e-03,
       -9.94810020e-04, -1.42174996e-02, 1.18512204e-02, -1.19574543e-03,
       -4.37758118e-03, -4.42433683e-03, 2.80896537e-02, 1.29969055e-02,
       -7.81300571e-03, -9.29525960e-03, -1.20052248e-02, 5.67134796e-03,
       -2.94407271e-02, -3.67764682e-02, 7.32386997e-03, 1.13252066e-02,
       -1.61119383e-02, -2.58427523e-02, 5.24420291e-03, -1.70812535e-03,
       1.95166990e-02, -1.29059805e-02, -1.44011620e-02, -1.33534917e-03,
       2.16252785e-02, 3.01202592e-02, 4.08650469e-03, -1.16717024e-02,
       -1.79084241e-02, -2.36710869e-02, 3.88755091e-03, 1.09572650e-03,
       -1.57190338e-02, 1.55907189e-02, 2.07433216e-02, 8.11562408e-03,
       -2.70894039e-02, -2.63686758e-03, 2.07025092e-02, 2.96531282e-02,
       1.35543337e-02, -2.84747058e-03, -1.63709242e-02, 1.14448648e-02,
       7.71259982e-03, -1.29649388e-02, -1.56989750e-02, -2.96533480e-02,
       1.39547596e-02, 2.36780877e-04, 4.82846139e-04, -1.38925910e-02,
       7.75325205e-03, 2.78560515e-03, -5.98803768e-03, 1.28364693e-02,
       3.41547094e-03, 2.05908362e-02, 1.08533837e-02, -2.31273081e-02,
       2.09607035e-02, 1.56034548e-02, 1.15193976e-02, -1.00490618e-02,
       -1.73830101e-03, 5.96881425e-03, -5.86396270e-03, -8.34479742e-03,
       -1.45214722e-02, 2.34173965e-02, 2.71569705e-03, 3.24024633e-02,
       2.37745605e-02, 1.12229269e-02, 3.72787472e-03, -2.51045693e-02,
       -1.84580907e-02, -1.40565485e-02, -1.98113434e-02, 1.91487186e-03,
       -1.22425780e-02, -8.28221533e-03, -4.30285372e-03, 4.11754852e-04,
       -1.37860151e-02, -8.24834686e-03, 3.67803936e-04, -6.69639232e-03,
       1.57465376e-02, 3.13176752e-05, -1.46091660e-03, 1.83780715e-02,
       7.91635923e-03, -1.37240645e-02, -7.44556263e-03, 5.71743643e-04,
       1.68818496e-02, -2.06642617e-02, -6.68686349e-03, -1.14628049e-02,
       -1.15997922e-02, -1.49016725e-02, -1.66586414e-02,
       -1.04373721e-02, 2.33209925e-03, 2.46381462e-02, 1.11422418e-02,
       -1.07155871e-02, 1.52504141e-03, -9.64818150e-03, 1.51820690e-03,
       8.51220079e-03, -2.74164136e-03, 1.03769004e-02, 7.83591811e-03,
       -5.69096906e-03, -2.65453942e-02, -8.63595959e-03, 6.94459211e-03,
       -2.14519352e-02, -1.86051261e-02, -8.81589297e-03,
       -5.07476693e-03, -1.61202694e-03, -2.15587914e-02,
       -3.68943289e-02, -8.57111253e-03, -5.14199398e-03,
       -1.10074244e-02, -1.03477919e-02, -1.12807974e-02, 2.16698535e-02,
       1.98204648e-02, 1.51900761e-02, 9.77268815e-03, -6.33094786e-03,
       -2.62282998e-03, 3.08809773e-04, 1.46825425e-02, 1.00677470e-02,
       2.57346667e-02, -1.37319639e-02, 8.62975046e-03, 1.65533889e-02,
       7.98414182e-03, 2.39220378e-03, -2.39151716e-03, -1.97092816e-02,
       -1.05138822e-02, -5.75440563e-03, 1.07817631e-03, 1.43854332e-03,
       -9.98558709e-04, -2.12443359e-02, -2.34635528e-02,
       -9.44684632e-03, -4.63691074e-03, -6.66470500e-03,
       -1.28585268e-02, -1.86021645e-02, 1.01663107e-02, -2.33381279e-02,
       1.23872701e-02, -1.17535964e-02, 4.48613288e-03, -2.44211592e-02,
       -2.25916430e-02, 2.59723533e-02, 2.33326294e-02, 1.66324358e-02,
       4.68632067e-03, -2.29641702e-02, 1.48147519e-04, -2.38027461e-02,
       -2.18445268e-02, -5.11801336e-03, 1.36046605e-02, 2.88266875e-02,
       -1.32125355e-02, -1.77874546e-02, 4.97684255e-03, 6.77388161e-03,
       -2.13325843e-02, -1.04539217e-02, 6.25833403e-03, 2.37399875e-03,
       3.86346020e-02, 9.32988524e-03, -1.79999396e-02, -2.03841366e-02,
       -4.12855111e-03, -2.49820226e-03, -1.13902185e-02,
       -8.27468187e-03, 2.69731972e-02, 3.66208591e-02, -2.04275711e-03,
       -2.88622566e-02, 2.42797309e-03, 9.24035325e-04, 2.71787844e-03,
       -5.87305147e-03, 1.04569066e-02, 8.49708728e-03, 3.24046835e-02,
       -9.27308341e-04, 8.83239135e-03, 6.34095678e-03, 1.20220939e-02,
       -3.46556702e-03, 4.75574005e-03, -4.26147738e-03, -1.98433641e-02,
       -5.08233812e-03, -1.39725683e-02, 9.18085780e-03, 1.18327588e-02,
       2.04225853e-02, -1.74603350e-02, -2.07300391e-02, -2.13253777e-02,
       1.46155087e-02, 1.89485550e-02, 1.77308125e-03, -1.43869705e-02,
       -5.93544543e-03, 4.49759793e-03, 1.75935552e-02, 1.58965066e-02,
       1.05963740e-02, -2.36755311e-02, -1.19523834e-02, -3.28755006e-02,
       1.17400603e-03, -2.21823845e-02, 1.54965911e-02, 2.41386667e-02,
       1.62106492e-02, 1.11355688e-02, 1.08879721e-02, 2.90763266e-02,
       2.16572005e-02, 1.24610430e-02, -1.25915799e-02, 2.49963216e-02,
       3.83244012e-03, 5.14476746e-03, 2.34751077e-03, -1.20463418e-02,
       -1.60830040e-02, -2.12048721e-02, 1.36562549e-02, -1.09476671e-02,
       2.02815272e-02, -1.84352789e-02, -8.77323735e-04, -1.14550954e-02,
       3.16603086e-03, 1.84561331e-02, 8.90061818e-03, 1.45365251e-02,
       -2.26220749e-02, 7.18771527e-03, 3.10995989e-02, 2.78524440e-02,
       1.83284879e-02, -7.05979764e-03, -2.88737938e-03, -6.12828741e-03,
       -4.74076951e-03, -5.75009314e-03, 4.26541828e-03, -4.30758856e-03,
       -6.06341334e-03, -7.99035095e-03, 1.19079398e-02, 1.11498823e-02,
       -2.41116140e-04, 1.70487687e-02, -2.49985158e-02, -9.47132427e-03,
       -1.49383415e-02, 2.31015459e-02, 1.71984173e-02, -1.09675602e-04,
       -1.69978812e-02, -1.68398153e-02, -8.93419981e-03,
       -4.59320191e-03, -1.57277491e-02, -3.94221209e-03, 2.34839190e-02,
       1.87695269e-02, -4.21891175e-03, 2.42193155e-02, 1.74969574e-03,
       1.00580389e-02, -8.25747382e-04, 2.23605777e-03, -1.95075246e-03,
       8.39080010e-03, -4.37057531e-03, -2.75236531e-03, 9.51504800e-03,
       -7.79055711e-03, -1.15461890e-02, -1.28370179e-02, 1.16813388e-02,
       -8.90426058e-03, 7.69618712e-03, 8.93117115e-03, 1.41354941e-03,
       1.83988959e-02, -2.23834757e-02, 9.17849224e-03, 9.57599189e-03,
       1.94379054e-02, -1.69518869e-03, 8.11262429e-03, 7.50671793e-03,
       -5.12227416e-03, 7.47091195e-04, -2.30297893e-02, -1.55619939e-03,
       2.27583363e-03, 9.00523644e-03, -1.33742029e-02, -5.57659334e-03,
       2.40457477e-03, 1.19540952e-02, 8.58235639e-03, -1.10348426e-02,
       7.60364230e-04, 8.75038467e-03, 1.79578401e-02, -1.27393836e-02,
       2.68489448e-03, -1.13990693e-03, -8.82868096e-03, -2.55107135e-02,
       -2.82664634e-02, -2.57884841e-02, -1.40228542e-02, 1.06925955e-02,
       5.03133656e-03, -7.51986215e-03, -1.32579636e-02, 1.27703615e-03,
       4.30504838e-03, -5.65922866e-03, 1.11236153e-02, 3.68515588e-03,
       2.96112355e-02, -4.73838678e-04, 1.79855078e-02, -2.63442914e-03,
       -7.76421092e-03, -3.64848482e-03, -1.30136032e-02,
       -5.23721846e-03, 1.73996817e-02, 1.01331649e-02, -2.25076843e-02,
       9.41477157e-03, -8.36847071e-03, 7.25756492e-03, -8.26426875e-03,
       -3.85644520e-03, -7.75717897e-03, -9.87961306e-04, 1.67371053e-02,
       1.48808714e-02, 9.32422839e-03, 1.20206503e-02, 1.53453900e-02,
       1.18804267e-02, -1.35345064e-04, -1.30691854e-02, -2.93775611e-02,
       -2.53626835e-02, -3.15823667e-02, -1.09089762e-02, 9.13950498e-04,
       -1.38220121e-03, 2.25915909e-02, 1.06139397e-02, 1.86693519e-02,
       2.39609573e-02, 9.33906250e-03, -1.78850088e-02, 8.00627936e-03,
       -8.29456095e-03, -7.60082947e-03, 2.90771630e-02, 5.60323941e-03,
       7.24282674e-03, -9.68664512e-03, -5.02167642e-03, 9.84927639e-03,
       7.70894950e-03, -1.29371574e-02, 8.64460226e-03, 2.44900640e-02,
       7.45117781e-04, -9.34046134e-03, 3.56644765e-03, -9.66253784e-03,
       -2.55791601e-02, -1.43608432e-02, -1.68797821e-02,
       -1.33840023e-02, 8.09139758e-03, 4.07256372e-03, -2.58278772e-02,
       -3.20973364e-03, -2.03319304e-02, -9.17366985e-03,
       -1.11903008e-02, -3.36221009e-02, -1.32666286e-02, 3.94572653e-02,
       1.13840848e-02, -6.16178988e-03, -5.06051118e-03, 2.26965360e-02,
       2.17986535e-02, 1.17311720e-02, -1.32901343e-02, 4.61692549e-03,
       1.34905912e-02, 8.24845862e-04, -9.60786082e-03, -4.85991780e-03,
       4.96867520e-04, 1.92503259e-03, 2.94840336e-03, -1.73477083e-02,
       -9.71746817e-03, 1.72449220e-02, 1.12018511e-02, -1.63197909e-02,
       -7.20714126e-03, 9.81213432e-03, -2.96172802e-03, 5.73968142e-03,
       -3.33124585e-02, -4.76980908e-03, 5.23319002e-03, -1.31038455e-02,
       -2.28576045e-02, -1.17203798e-02, -1.64137557e-02,
       -1.32465353e-02, 1.54933576e-02, 2.91860104e-03, 1.54874530e-02,
       1.27487648e-02, -3.70577123e-04, 1.23597793e-02, -7.89607223e-03,
       -1.08529273e-02, -1.07730310e-02, -1.52686276e-04,
       -5.63313333e-05, 9.76401567e-03, 1.56168705e-02, -2.03880612e-02,
       1.42134633e-02, -2.01383680e-02, -7.15413224e-03, 5.75967832e-03,
       1.16827069e-02, -9.05419176e-04, -9.74419061e-03, 8.79145227e-03,
       -2.10425723e-02, 1.38437131e-03, -1.04274713e-02, -1.21906633e-02,
       -2.16542184e-02, -9.76177340e-04, -9.62482858e-03,
       -4.37057839e-04, -3.60422395e-03, -1.05911773e-02, 5.52179152e-03,
       -6.35116035e-03, 1.98318455e-02, 6.39222702e-03, 2.97695561e-03,
       -1.31377834e-03, 1.96576002e-03, -6.14605029e-04, -7.38100801e-03,
       3.43738049e-02, 1.23902317e-02, 2.35696733e-02, 1.85688511e-02,
